GIS
1
0.0
14
Concession
Conjunction
Cause
Restatement
Temporal
Continuation
Reinforcement
Contrast
Instantiation
Background
Circumstance
NoRel
Alternative
Exception
358
30 0
5 0 1
11 0 1 2 3 4 5 6 7 8 9 10
44 0 1 2 3 4 5 6 7 8 9 10 11
36 0 1 2 3 4 5 6 7 8 9 10 11 12
35 0 1 2 3 4 5 6 7 8 9 10 11 12 13
5 0 1 2 3 4 5 6 7 8 9 10 11 13
3 0 1 2 3 4 5 6 7 8 9 10 12
1 0 1 2 3 4 5 6 7 8 9 10 12 13
1 0 1 2 3 4 5 6 7 8 9 10 13
1 0 1 2 3 4 5 6 7 8 9 11
1 0 1 2 3 4 5 6 7 8 10 11
1 0 1 2 3 4 5 6 7 8 11
6 0 1 2 3 4 5 6 7 9 10
3 0 1 2 3 4 5 6 7 9 10 11
2 0 1 2 3 4 5 6 7 9 10 11 13
1 0 1 2 3 4 5 6 8 9
2 0 1 2 3 4 5 6 8 9 10 11
1 0 1 2 3 4 5 6 9 10 11
1 0 1 2 3 4 5 7
1 0 1 2 3 4 5 7 8 9
6 0 1 2 3 4 5 7 8 9 10
1 0 1 2 3 4 5 7 8 9 10 11 12
4 0 1 2 3 4 5 7 9 10
1 0 1 2 3 4 5 8 9 10
1 0 1 2 3 4 5 9
1 0 1 2 3 4 7 9
1 0 1 2 3 5
1 0 1 2 3 5 6 7 8 9
2 0 1 2 3 5 6 7 8 9 10
1 0 1 2 3 5 6 7 8 9 10 11
1 0 1 2 3 5 6 7 8 9 12
1 0 1 2 3 5 6 7 9 10 11
1 0 1 2 3 5 6 7 10
1 0 1 2 3 5 6 8 9
1 0 1 2 3 5 6 8 9 10
1 0 1 2 3 5 6 8 9 10 11
2 0 1 2 3 5 6 8 9 11
1 0 1 2 3 5 6 8 10
1 0 1 2 3 5 7 8
1 0 1 2 3 5 7 8 9
1 0 1 2 3 5 7 8 9 10
1 0 1 2 3 5 7 9 10 11
1 0 1 2 3 5 8
1 0 1 2 3 5 9
1 0 1 2 3 6 9
1 0 1 2 3 7 8 10 11
1 0 1 2 4 5 6 7 10
1 0 1 2 5 6
2 0 1 2 9
2 0 1 3
1 0 1 3 4 5
2 0 1 3 4 5 6 7 8 9 10
2 0 1 3 4 5 6 7 10
1 0 1 3 4 5 6 8 10
2 0 1 3 4 5 6 9 10
2 0 1 3 4 5 7 9
2 0 1 3 4 5 7 10
1 0 1 3 4 5 8 9 10
1 0 1 3 4 5 9
2 0 1 3 4 5 10
1 0 1 3 5
1 0 1 3 5 6 8
1 0 1 3 5 7 9
1 0 1 3 5 7 9 10
1 0 1 3 5 8
1 0 1 3 5 9
1 0 1 3 5 10
1 0 1 3 7 10
3 0 1 4 5
1 0 1 4 5 6 8
1 0 1 4 9
1 0 1 5
1 0 1 5 6 7 8
1 0 1 5 7 8
1 0 1 5 7 10
2 0 1 5 9 10
1 0 1 9
1 0 1 12
1 0 2
1 0 2 3
1 0 2 3 4 5 10
1 0 2 3 4 5 10 11
1 0 2 3 5
1 0 2 3 5 6 10 11
1 0 2 3 5 7 9 10
1 0 2 3 10
1 0 2 4 10
1 0 2 5 6 8
1 0 2 5 6 9 10 11
1 0 2 10
1 0 2 11
2 0 3
1 0 3 5 6
1 0 3 5 8
1 0 3 8 10
3 0 5
1 0 5 6 9
1 0 5 10
1 0 6
2 0 7 9
2 0 9
1 0 10
339 1
5 1 2
4 1 2 3
1 1 2 3 4
6 1 2 3 4 5
4 1 2 3 4 5 6 7 8 9 10
5 1 2 3 4 5 6 7 8 9 10 11
1 1 2 3 4 5 6 7 8 9 10 11 13
3 1 2 3 4 5 6 7 9 10
1 1 2 3 4 5 6 7 9 10 11
1 1 2 3 4 5 6 7 9 10 11 12
2 1 2 3 4 5 6 8 9 10 11
1 1 2 3 4 5 6 8 10 11
1 1 2 3 4 5 6 9
5 1 2 3 4 5 6 10
1 1 2 3 4 5 7
1 1 2 3 4 5 7 8
3 1 2 3 4 5 7 8 9 10
1 1 2 3 4 5 7 8 9 10 12
1 1 2 3 4 5 7 9
3 1 2 3 4 5 7 9 10
1 1 2 3 4 5 7 9 10 12
1 1 2 3 4 5 8
1 1 2 3 4 5 8 9
1 1 2 3 4 5 8 9 10 13
2 1 2 3 4 5 9
4 1 2 3 4 5 9 10
1 1 2 3 4 5 9 10 11 12
1 1 2 3 4 5 9 10 13
1 1 2 3 4 5 9 13
3 1 2 3 4 5 10
1 1 2 3 4 5 10 11
1 1 2 3 4 5 11
1 1 2 3 4 10
5 1 2 3 5
1 1 2 3 5 6
1 1 2 3 5 6 7 9 10 11
1 1 2 3 5 6 7 10
1 1 2 3 5 6 7 10 11
1 1 2 3 5 6 9 11
1 1 2 3 5 6 10 11
1 1 2 3 5 8 10
3 1 2 3 5 9
3 1 2 3 5 10
1 1 2 3 6
2 1 2 3 6 7
1 1 2 3 6 7 8 10
1 1 2 3 8 10
1 1 2 3 9
1 1 2 4
2 1 2 4 5
1 1 2 4 5 9
1 1 2 4 5 9 11
1 1 2 4 5 10
1 1 2 4 8
6 1 2 5
1 1 2 5 7
1 1 2 5 7 8
1 1 2 5 9
1 1 2 5 10
1 1 2 5 11
1 1 2 6 9 10
1 1 2 7 8
2 1 2 9
53 1 3
6 1 3 4
8 1 3 4 5
1 1 3 4 5 6 7
1 1 3 4 5 6 7 8 9 10
1 1 3 4 5 6 7 8 10
1 1 3 4 5 6 7 9 10
2 1 3 4 5 6 7 9 10 11
1 1 3 4 5 6 8 10
1 1 3 4 5 6 9 10
3 1 3 4 5 7
1 1 3 4 5 7 8
1 1 3 4 5 7 8 9
1 1 3 4 5 7 8 10 11
2 1 3 4 5 7 9 10
1 1 3 4 5 7 10
1 1 3 4 5 7 11
1 1 3 4 5 8 9 10
1 1 3 4 5 8 10
1 1 3 4 5 8 11 12
6 1 3 4 5 9
4 1 3 4 5 9 10
6 1 3 4 5 10
1 1 3 4 7
1 1 3 4 7 10
3 1 3 4 10
26 1 3 5
2 1 3 5 6
1 1 3 5 6 9
2 1 3 5 6 10
2 1 3 5 7
1 1 3 5 7 8
1 1 3 5 7 8 9 10
1 1 3 5 7 9
2 1 3 5 7 10
1 1 3 5 7 11
2 1 3 5 8
1 1 3 5 8 9
1 1 3 5 8 10
1 1 3 5 9
1 1 3 5 9 10
6 1 3 5 10
3 1 3 6
1 1 3 6 8
1 1 3 7
1 1 3 7 8 10
2 1 3 7 10
1 1 3 7 12
4 1 3 8
1 1 3 8 9
1 1 3 8 10
2 1 3 9 10
5 1 3 10
14 1 4
17 1 4 5
1 1 4 5 6 7 8 9
1 1 4 5 6 7 10
1 1 4 5 6 10
1 1 4 5 7
1 1 4 5 7 8
1 1 4 5 9
1 1 4 5 9 10
5 1 4 5 10
1 1 4 7
1 1 4 9
3 1 4 10
65 1 5
3 1 5 6
1 1 5 6 7
1 1 5 6 8
1 1 5 6 10
1 1 5 7
1 1 5 7 8
2 1 5 7 9 10
5 1 5 7 10
5 1 5 8
4 1 5 9
1 1 5 9 10
7 1 5 10
2 1 5 11
3 1 6
3 1 7
1 1 7 8
2 1 8
8 1 9
11 1 10
1 1 10 11
4 1 11
2 1 12
64 2
11 2 3
1 2 3 4
1 2 3 4 5 6 8 10
1 2 3 4 5 7 9
1 2 3 4 6
5 2 3 5
1 2 3 5 6
1 2 3 5 6 7
1 2 3 5 8
1 2 3 6
1 2 3 7 12
2 2 3 10
3 2 4
6 2 4 5
1 2 4 5 7 8
1 2 4 5 10
9 2 5
1 2 5 7 8
1 2 5 7 9
1 2 5 8 9
3 2 5 9
1 2 5 9 10
1 2 5 9 11
3 2 5 10
1 2 8
3 2 9
1 2 10
1 2 10 11
199 3
16 3 4
9 3 4 5
1 3 4 5 7
1 3 4 5 7 10 11
1 3 4 5 9
9 3 4 5 10
1 3 4 5 10 11
2 3 4 5 11
1 3 4 6 8
1 3 4 7 10
1 3 4 9 10
9 3 4 10
2 3 4 11
39 3 5
2 3 5 6
1 3 5 6 7
1 3 5 6 8 9
1 3 5 7
1 3 5 7 8
1 3 5 8 10
1 3 5 9
6 3 5 10
5 3 6
2 3 6 10
4 3 7
2 3 7 10
4 3 8
1 3 8 9
1 3 8 9 10
10 3 9
1 3 9 11
7 3 10
1 3 11
224 4
41 4 5
2 4 5 6 8
1 4 5 6 9
1 4 5 7
2 4 5 9
3 4 5 10
1 4 6 8
2 4 7
2 4 8
2 4 9
10 4 10
2 4 11
436 5
4 5 6
1 5 6 8
2 5 6 10
6 5 7
1 5 7 8
1 5 7 8 10
8 5 8
1 5 8 10
10 5 9
11 5 10
28 6
1 6 7 8 9
1 6 8
23 7
2 7 9
2 7 10
1 7 11
35 8
2 8 9
53 9
3 9 10
70 10
10 11
4 12
2 13
2600
arg2_start_uni_upper
arg2_start_uni_silencing
arg2_start_uni_validate
arg2_start_uni_hypothesis
arg2_start_uni_fully
arg2_start_uni_thymoma
arg2_start_uni_remains
arg2_start_uni_hs1
incom_from
arg2_start_uni_awaits
arg2_start_uni_hme
RB_->_Now:2
arg2_start_uni_preliminary
arg2_start_uni_novel
arg2_start_uni_flurry
arg2_start_uni_unclear
arg2_start_uni_bind
arg2_start_uni_cannot
arg2_start_uni_protection
arg2_start_uni_report,
arg2_start_uni_does
arg2_start_uni_elucidation
arg2_start_uni_likely,
arg2_start_uni_extent
arg2_start_uni_improve
arg2_start_uni_serologic
incom_to
arg2_start_uni_against
arg2_start_uni_draw
arg2_start_uni_spite
arg2_start_uni_relevance
arg2_start_uni_due
arg2_start_uni_site
arg2_start_uni_mgb1
arg2_start_uni_conclusions
or_to
VP_->_VBD_NP_PP_PP:1
NP_->_NNP_NNP:2
ar_the
of_by
arg2_start_uni_of
NP_->_CD_NN:2
ar_,
NP_->_NP_,_NP:2
ar_in
VP_->_VBZ_NP:12
VP_->_MD_VP:2
IN_->_from:12
VBD_->_was:1
S_->_S_,_NP_VP_.:1
VP_->_TO_VP:12
NP_->_NNP_NNP:1
a_,
from_to
at_,
by_is
VBP_->_are:1
WDT_->_which:2
and_,
IN_->_by:12
the_from
to_from
by_,
DT_->_The:2
arg2_start_uni_in
by_the
NP_->_NP_,_SBAR:2
NP_->_CD_NN:1
NP_->_NNP_NNP_NNP:1
VP_->_VBD_SBAR:2
VP_->_VBD_SBAR:1
at_the
IN_->_by:2
IN_->_by:1
IN_->_at:1
NP_->_CD:1
NP_->_CD:2
ar_of
IN_->_from:2
,_from
arg2_start_uni_the
arg2_start_uni_our
,_at
VP_->_VBD_VP:1
,_by
NP_->_QP:2
arg2_start_uni_this
in_from
which_of
NP_->_PRP:12
NP_->_NNP_CD:2
NP_->_NNP_CD:1
,_->_,:12
SBAR_->_IN_S:1
,_and
VP_->_VBZ_NP:1
VP_->_VBZ_NP:2
VBP_->_are:2
and_the
of_,
NP_->_DT_NN:12
NP_->_NNP:2
the_wa
IN_->_that:12
IN_->_that:1
,_->_,:2
NP_->_NNP:12
VP_->_TO_VP:1
SBAR_->_IN_S:12
NP_->_PRP:1
NP_->_NP_PP:12
of_in
of_is
,_,
IN_->_of:12
arg2_start_uni_was
NP_->_CD_NNS:12
IN_->_from:1
the_,
NP_->_CD_NNS:2
VP_->_VBD_VP:2
,_of
,_is
,_in
,_wa
of_and
a_the
VP_->_MD_VP:1
S_->_NP_VP:1
S_->_NP_VP:2
SBAR_->_IN_S:2
VBD_->_was:2
NP_->_DT_NN:2
NP_->_DT_NN:1
NP_->_NNP:1
of_the
S_->_NP_VP:12
IN_->_of:2
IN_->_of:1
DT_->_The:1
IN_->_that:2
VBZ_->_is:1
VBZ_->_is:2
VBZ_->_is:12
,_->_,:1
._->_.:1
._->_.:2
NP_->_NP_PP:1
NP_->_NP_PP:2
the_the
NP_->_PRP:2
IN_->_at:2
S_->_NP_VP_.:2
S_->_NP_VP_.:1
,_a
,_the
._->_.:12
PP_->_IN_NP:12
NP_->_CD_NNS:1
PP_->_IN_NP:2
PP_->_IN_NP:1
WDT_->_which:1
NP_->_NP_,_SBAR:1
VP_->_TO_VP:2
which_the
NP_->_DT:1
RB_->_not:1
NP_->_DT:2
NP_->_NP_NP:1
S_->_NP_VP_.:12
RB_->_not:2
VP_->_VB_ADJP:1
which_,
arg2_start_uni_data
arg2_start_uni_with
arg2_start_uni_to
1_the
NP_->_NP_,_CC_NP:1
NP_->_QP:1
arg2_start_uni_that
a_from
VP_->_VBD_VP:12
at_and
the_we
arg2_start_uni_we
ADJP_->_JJ_NP:1
for_from
arg2_start_uni_for
S_->_S_,_NP_VP_.:2
NP_->_NP_,_NP_,:1
%_the
some_of
of_%
the_%
NN_->_%:1
NN_->_%:2
%_,
of_at
in_%
,_%
or_from
to_%
%_to
arg2_start_uni_activation
NP_->_NNP_CD_,_CD:1
arg2_start_uni_use
arg2_start_uni_are
VP_->_VB_ADJP:2
arg2_start_uni_studies
ar_a
arg2_start_uni_is
JJ_->_due:1
arg2_start_uni_no
share_,
arg2_start_uni_although
arg2_start_uni_have
arg2_start_uni_it
JJ_->_due:2
the_even
some_to
arg2_start_uni_has
some_in
arg2_start_uni_as
share_to
arg2_start_uni_effects
arg2_start_uni_findings
arg2_start_uni_show
arg2_start_uni_interestingly,
arg2_start_uni_possible
arg2_start_uni_further
arg2_start_uni_method
arg2_start_uni_effect
arg2_start_uni_ccr3
arg2_start_uni_not
NP_->_CD:12
NP_->_NNP_NNP_NNP:2
NP_->_NNP_NNP_NNP:12
arg2_start_uni_experiments
arg2_start_uni_most
arg2_start_uni_analysis
arg2_start_uni_using
NN_->_%:12
%_%
arg2_start_uni_expression
from_%
ADJP_->_JJ_NP:2
arg2_start_uni_since
arg2_start_uni_were
of_p
ar_%
arg2_start_uni_recent
arg2_start_uni_numbers
arg2_start_uni_while
arg2_start_uni_treg
arg2_start_uni_contrast
arg2_start_uni_transcripts
arg2_start_uni_revealed
arg2_start_uni_irf-4
arg2_start_uni_assays
arg2_start_uni_vitro
arg2_start_uni_had
arg2_start_uni_intensity
arg2_start_uni_comparison
arg2_start_uni_recently,
arg2_start_uni_some
arg2_start_uni_specific
arg2_start_uni_despite
arg2_start_uni_found
arg2_start_uni_function
arg2_start_uni_possibility
arg2_start_uni_direct
arg2_start_uni_inversion
arg2_start_uni_mz
arg2_start_uni_b
due_ar
due_the
arg2_start_uni_present
arg2_start_uni_even
arg2_start_uni_band
arg2_start_uni_role
due_to
month_from
due_at
arg2_start_uni_though
arg2_start_uni_suppressor
arg2_start_uni_deletion
NP_->_NP_,_CC_NP_,:1
arg2_start_uni_rt-pcr
arg2_start_uni_cause
arg2_start_uni_cre-mediated
arg2_start_uni_notably,
arg2_start_uni_study
arg2_start_uni_mutation
arg2_start_uni_now
arg2_start_uni_strikingly,
arg2_start_uni_ephb4
arg2_start_uni_example,
arg2_start_uni_also
arg2_start_uni_demonstrated
arg2_start_uni_recognition
arg2_start_uni_explants
arg2_start_uni_iodide
arg2_start_uni_bob.1/obf.1,
arg2_start_uni_cre
arg2_start_uni_accurate
arg2_start_uni_enriched
arg2_start_uni_(ii)
arg2_start_uni_health
arg2_start_uni_equally,
arg2_start_uni_2-forward:
arg2_start_uni_b,
arg2_start_uni_b.
arg2_start_uni_5′-aaggtgaactgaagtctggaagtga-3′,
arg2_start_uni_importance
arg2_start_uni_il-3
arg2_start_uni_lod
arg2_start_uni_anti-proliferative
arg2_start_uni_neurons
arg2_start_uni_system
arg2_start_uni_apart
arg2_start_uni_af4
arg2_start_uni_(b),
arg2_start_uni_apoptotic
arg2_start_uni_adherence
arg2_start_uni_f.
arg2_start_uni_applied
arg2_start_uni_inhibitors
arg2_start_uni_e:
arg2_start_uni_question
arg2_start_uni_poly-adp
arg2_start_uni_e)
arg2_start_uni_failure
arg2_start_uni_e.
arg2_start_uni_robustness
arg2_start_uni_bc
arg2_start_uni_d,
arg2_start_uni_adult
arg2_start_uni_d)
arg2_start_uni_c:
arg2_start_uni_cell-surface
arg2_start_uni_c)
arg2_start_uni_c.
arg2_start_uni_presumably
arg2_start_uni_b:
arg2_start_uni_evident
arg2_start_uni_above,
arg2_start_uni_gw
arg2_start_uni_i.
arg2_start_uni_rearrangement
arg2_start_uni_gh
arg2_start_uni_ecori,
arg2_start_uni_surprisingly
arg2_start_uni_bisulfite
ADJP_->_JJ_NP:12
arg2_start_uni_h.
arg2_start_uni_transition
arg2_start_uni_hypersensitivity
arg2_start_uni_antiproliferative
arg2_start_uni_g.
arg2_start_uni_eb
arg2_start_uni_competitive
arg2_start_uni_long-standing
arg2_start_uni_cd44
arg2_start_uni_lc,
arg2_start_uni_immunoblotting
arg2_start_uni_investigate,
arg2_start_uni_pn1-ic
arg2_start_uni_inhibited
arg2_start_uni_hippocampal
arg2_start_uni_cd21
arg2_start_uni_synergistic
arg2_start_uni_"ebf"
arg2_start_uni_anti-cd3
arg2_start_uni_r2,
arg2_start_uni_r3,
arg2_start_uni_still
arg2_start_uni_hypermethylation
arg2_start_uni_il-15
arg2_start_uni_non-t
arg2_start_uni_(wt)
arg2_start_uni_(m)
arg2_start_uni_phytohemagglutinin
arg2_start_uni_mutated
arg2_start_uni_bottom
arg2_start_uni_immunofluorescence
arg2_start_uni_vital
arg2_start_uni_thresholds
arg2_start_uni_bv-173
arg2_start_uni_r1,
arg2_start_uni_datasets
arg2_start_uni_inappropriate
arg2_start_uni_others,
arg2_start_uni_kidney,
arg2_start_uni_conversion
arg2_start_uni_bromodeoxyuridine/propidium
arg2_start_uni_hierarchical
arg2_start_uni_chamber
arg2_start_uni_lek
arg2_start_uni_where
arg2_start_uni_(iv)
arg2_start_uni_irf-4-negative
arg2_start_uni_fk506,
arg2_start_uni_pathogens
arg2_start_uni_regression
arg2_start_uni_cut-off
arg2_start_uni_pten-transfected
arg2_start_uni_buffy
arg2_start_uni_ys
arg2_start_uni_cases,
arg2_start_uni_optimization
ar_''
arg2_start_uni_sera
arg2_start_uni_pyrrolidine
arg2_start_uni_pu.1
arg2_start_uni_parp-cleaved
arg2_start_uni_dependent
arg2_start_uni_cho-delta1
arg2_start_uni_rat
arg2_start_uni_frequencies
NP_->_NP_,_ADJP_,:12
arg2_start_uni_concomitant
arg2_start_uni_text
arg2_start_uni_super
arg2_start_uni_5'-agccacctctcagccgttttgtgg-3'
arg2_start_uni_p10xcbf1-luc
arg2_start_uni_unexpectedly,
arg2_start_uni_generally,
arg2_start_uni_(c),
arg2_start_uni_technical
arg2_start_uni_sites,
arg2_start_uni_f2-reverse:
arg2_start_uni_12239
arg2_start_uni_antisense:
arg2_start_uni_cousin
NNP_->_Co.:2
arg2_start_uni_notch's
arg2_start_uni_tochemotaxis,
arg2_start_uni_unaffected
arg2_start_uni_high-level
arg2_start_uni_xbai
arg2_start_uni_mer
arg2_start_uni_reveals
arg2_start_uni_(iii)
arg2_start_uni_instructive
arg2_start_uni_inducible
arg2_start_uni_gene-specific
arg2_start_uni_ly
arg2_start_uni_constituted
S_->_NP_NP:12
arg2_start_uni_difference
arg2_start_uni_rodent
arg2_start_uni_nz
arg2_start_uni_diseased
arg2_start_uni_tumour
arg2_start_uni_(gagakt)
arg2_start_uni_decreasing
arg2_start_uni_sb
arg2_start_uni_pivotal
arg2_start_uni_dramatically,
arg2_start_uni_dose
arg2_start_uni_(pha),
arg2_start_uni_sp
arg2_start_uni_sf
arg2_start_uni_largest
arg2_start_uni_young
arg2_start_uni_same
arg2_start_uni_hands,
arg2_start_uni_expanded
arg2_start_uni_wb
arg2_start_uni_c-jun
arg2_start_uni_constitutively-active
arg2_start_uni_a.2
arg2_start_uni_myeloma
arg2_start_uni_f2-forward:
arg2_start_uni_ctctcttccctccggactct
arg2_start_uni_mother
arg2_start_uni_critical
arg2_start_uni_c-e
arg2_start_uni_al,
arg2_start_uni_aim
arg2_start_uni_name
arg2_start_uni_b-cell-specific
arg2_start_uni_explore
arg2_start_uni_preventing
arg2_start_uni_whilst
arg2_start_uni_medial
arg2_start_uni_vivo
arg2_start_uni_**mouse
arg2_start_uni_category
arg2_start_uni_transforms
arg2_start_uni_jnk
arg2_start_uni_hes-1,
arg2_start_uni_smad7
arg2_start_uni_papers
arg2_start_uni_bs-ii-reverse
arg2_start_uni_2-reverse:
arg2_start_uni_constructed
arg2_start_uni_cycle
arg2_start_uni_markov
arg2_start_uni_phenotypes
arg2_start_uni_pcna
arg2_start_uni_knowledge,
arg2_start_uni_triangles
arg2_start_uni_replicability
arg2_start_uni_nucleus
arg2_start_uni_bs-ii-forward
arg2_start_uni_203580
arg2_start_uni_apc
arg2_start_uni_sem
arg2_start_uni_***mouse
arg2_start_uni_vivo,
arg2_start_uni_simple
arg2_start_uni_careful
arg2_start_uni_suppress
arg2_start_uni_vijh
arg2_start_uni_missing
arg2_start_uni_third
arg2_start_uni_acceptor
arg2_start_uni_catalyzes
arg2_start_uni_variation
arg2_start_uni_point
arg2_start_uni_v-d-j
arg2_start_uni_294002
arg2_start_uni_kinetics
arg2_start_uni_thymomas
arg2_start_uni_ribose
arg2_start_uni_chain
arg2_start_uni_none
arg2_start_uni_view
arg2_start_uni_=
arg2_start_uni_dc-enriched
arg2_start_uni_1.6-kb
arg2_start_uni_9/13
arg2_start_uni_kidney-specific
arg2_start_uni_southern
arg2_start_uni_windows
arg2_start_uni_immunohistochemistry
arg2_start_uni_vβ8+
arg2_start_uni_sequencing
arg2_start_uni_ly294002,
arg2_start_uni_h
arg2_start_uni_higher
arg2_start_uni_blockade
arg2_start_uni_annotation
arg2_start_uni_±
arg2_start_uni_5′-agtttaatagtttaagggagttgggt-3′,
arg2_start_uni_hypothesize
arg2_start_uni_clones
arg2_start_uni_lack
arg2_start_uni_central
arg2_start_uni_fdr
arg2_start_uni_towards
arg2_start_uni_fact
arg2_start_uni_rt,
arg2_start_uni_noti
arg2_start_uni_vs.
arg2_start_uni_secretion
arg2_start_uni_normalise
arg2_start_uni_coats
arg2_start_uni_measurement
arg2_start_uni_mb-1sense:
arg2_start_uni_appear
arg2_start_uni_nfkappab
arg2_start_uni_thymus,
arg2_start_uni_intense
arg2_start_uni_bmp-6-induced
arg2_start_uni_removal
arg2_start_uni_including
arg2_start_uni_elemental
arg2_start_uni_node:
arg2_start_uni_sb203580,
arg2_start_uni_hl60
arg2_start_uni_lower,
arg2_start_uni_summary
arg2_start_uni_72
arg2_start_uni_transforming
arg2_start_uni_igg4
arg2_start_uni_multiple
arg2_start_uni_66
VP_->_VBD_NP_PP_PP:12
arg2_start_uni_cross-comparison
arg2_start_uni_physiological
arg2_start_uni_aligning
arg2_start_uni_2)
arg2_start_uni_like
arg2_start_uni_(which
arg2_start_uni_29%
WRB_->_When:12
arg2_start_uni_15
arg2_start_uni_across
arg2_start_uni_frequency
arg2_start_uni_insert
arg2_start_uni_wild-type
arg2_start_uni_noggin
arg2_start_uni_acellular
arg2_start_uni_regions
arg2_start_uni_cd11c+cd123-
arg2_start_uni_fourth
arg2_start_uni_found,
arg2_start_uni_tn2
arg2_start_uni_tn3
arg2_start_uni_boxed
arg2_start_uni_5'-ccacaattcccctgagaggtggct-3'
arg2_start_uni_reported
S_->_NP_VP_:_.:2
S_->_NP_VP_:_.:1
arg2_start_uni_(b
arg2_start_uni_tcrb
arg2_start_uni_concentrations,
arg2_start_uni_injury
VBN_->_named:2
arg2_start_uni_padtata-luc
arg2_start_uni_cyclosporin
arg2_start_uni_hes-1
arg2_start_uni_constitutive
arg2_start_uni_variable
arg2_start_uni_graphical
arg2_start_uni_reflects
arg2_start_uni_line:
arg2_start_uni_assays,
arg2_start_uni_lines,
arg2_start_uni_died
arg2_start_uni_3′
arg2_start_uni_distinction
arg2_start_uni_btk,
arg2_start_uni_macrophages
NP_->_NNP_CD_,_CD:12
arg2_start_uni_5′-agcggtgaaactgagagtgcgaggt-3′,
arg2_start_uni_mammals,
arg2_start_uni_mb-1
arg2_start_uni_end-point
arg2_start_uni_denotes
arg2_start_uni_latent
arg2_start_uni_live-cell
arg2_start_uni_autoradiograph
arg2_start_uni_dotted
arg2_start_uni_contemporaneous
arg2_start_uni_ptk-renilla
arg2_start_uni_below,
arg2_start_uni_differentiated
arg2_start_uni_work
arg2_start_uni_interesting
arg2_start_uni_implied
arg2_start_uni_significantly
arg2_start_uni_taken
arg2_start_uni_increase
arg2_start_uni_different
NP_->_NP_,_SBAR_,:2
NP_->_NP_NP:12
&_,
&_the
arg2_start_uni_proteins
arg2_start_uni_gene
NP_->_NP_:_NP_.:12
NP_->_DT:12
arg2_start_uni_and
VBP_->_are:12
VP_->_VBN_NP_PP:1
IN_->_at:12
at_at
from_from
arg2_start_uni_these
NP_->_NP_,_NP:1
arg2_start_uni_a
PRP_->_they:1
arg2_start_uni_cells
VP_->_VBN_NP_PP:2
VBD_->_was:12
NP_->_NNP_CD:12
VP_->_MD_VP:12
NP_->_NP_NP:2
VP_->_VB_S:2
,_'s
arg2_start_uni_two
or_or
VP_->_VBD_SBAR:12
NP_->_NP_:_NP_.:1
arg2_start_uni_t
when_,
WRB_->_When:1
NP_->_NNP_NNP:12
DT_->_The:12
some_the
VP_->_VB_S:1
VBN_->_based:2
NP_->_CD_NN:12
a_%
NP_->_QP:12
arg2_start_uni_an
arg2_start_uni_by
some_,
arg2_start_uni_one
arg2_start_uni_induction
arg2_start_uni_used
arg2_start_uni_at
ADJP_->_NP_JJ:1
in_<-_<pobj>:1
arg2_start_uni_levels
PRP_->_they:2
arg2_start_uni_cell
VBN_->_based:1
NP_->_NP_,_NP:12
arg2_start_uni_on
for_%
S_->_S_,_NP_VP_.:12
NP_->_NP_:_NP_.:2
arg2_start_uni_single
arg2_start_uni_assay
arg2_start_uni_panel
arg2_start_uni_activated
share_share
arg2_start_uni_cytokines
arg2_start_uni_can
VP_->_VBD_NP_PP_PP:2
RB_->_not:12
arg2_start_uni_results
the_''
arg2_start_uni_absence
in_<-_<pobj>:2
arg2_start_uni_il-10
year_to
arg2_start_uni_because
levels_<-_<nn>:1
month_<-_<num>:1
compar_from
arg2_start_uni_support
arg2_start_uni_respect,
arg2_start_uni_other
arg2_start_uni_bmp-6
some_a
arg2_start_uni_whether
arg2_start_uni_determined
arg2_start_uni_il-17
QP_->_$_CD_CD:1
arg2_start_uni_tested
arg2_start_uni_order
arg2_start_uni_than
arg2_start_uni_animals
arg2_start_uni_correlation
arg2_start_uni_may
arg2_start_uni_given
share_from
arg2_start_uni_presented
arg2_start_uni_indicates
arg2_start_uni_result
arg2_start_uni_differences
arg2_start_uni_u1a
arg2_start_uni_igm-ic
arg2_start_uni_case
arg2_start_uni_consistent
some_at
arg2_start_uni_evaluate
arg2_start_uni_ews
arg2_start_uni_over
arg2_start_uni_b)
arg2_start_uni_identifies
arg2_start_uni_methods
arg2_start_uni_photomicrograph
arg2_start_uni_1.6
arg2_start_uni_northern
arg2_start_uni_expressing
arg2_start_uni_cho-n2
arg2_start_uni_panels
arg2_start_uni_rt–pcr
arg2_start_uni_intron
arg2_start_uni_trend
co._,
arg2_start_uni_preincubation
arg2_start_uni_maternal
arg2_start_uni_sensitivity
arg2_start_uni_increased
arg2_start_uni_organ
NNP_->_Co.:1
arg2_start_uni_major
arg2_start_uni_done
arg2_start_uni_ebf
NP_->_NP_,_SBAR_,:1
arg2_start_uni_myeloid
NP_->_NP_,_ADJP_,:2
arg2_start_uni_al.
arg2_start_uni_induced
arg2_start_uni_contralateral
arg2_start_uni_6
arg2_start_uni_(5
arg2_start_uni_putative
arg2_start_uni_able
arg2_start_uni_charts
arg2_start_uni_lesion
arg2_start_uni_vβ6+
arg2_start_uni_months
arg2_start_uni_methylated
arg2_start_uni_together
arg2_start_uni_restriction
arg2_start_uni_gate
arg2_start_uni_testosterone-treated
arg2_start_uni_foxp3
arg2_start_uni_apoptosis
arg2_start_uni_representation
arg2_start_uni_schematic
arg2_start_uni_clear
arg2_start_uni_appeared
arg2_start_uni_pten
arg2_start_uni_tables
arg2_start_uni_showing
arg2_start_uni_plasmids
in_<-_<pobj>:12
arg2_start_uni_which
arg2_start_uni_stimulation
arg2_start_uni_j-n2
arg2_start_uni_sequence
arg2_start_uni_i
arg2_start_uni_facs
arg2_start_uni_primary
arg2_start_uni_changes
,_later
arg2_start_uni_antibodies
arg2_start_uni_western
arg2_start_uni_amount
arg2_start_uni_antibody
arg2_start_uni_representative
arg2_start_uni_line
NP_->_NP_,_NP_,:2
ADJP_->_NP_JJ:2
NP_->_NP_,_CC_NP:2
arg2_start_uni_all
arg2_start_uni_mice
NP_->_NNP_CD_,_CD:2
arg2_start_uni_from
S_->_NP_NP:2
arg2_start_uni_amplification
arg2_start_uni_activity
%_<-_<num>:1
%_from
WDT_->_which:12
%_<-_<num>:2
arg2_start_uni_treatment
arg2_start_uni_after
arg2_start_uni_four
arg2_start_uni_breast
levels_<-_<nn>:2
arg2_start_uni_transcription
of_'s
arg2_start_uni_performed
arg2_start_uni_highly
arg2_start_uni_similar
arg2_start_uni_pcr
arg2_start_uni_procedure
arg2_start_uni_tissue
arg2_start_uni_proliferation
arg2_start_uni_binding
or_%
arg2_start_uni_blood
arg2_start_uni_cd4+
arg2_start_uni_dna
arg2_start_uni_when
WRB_->_When:2
arg2_start_uni_first
arg2_start_uni_supershift
arg2_start_uni_nuclear
S_->_NP_NP:1
arg2_start_uni_identified
arg2_start_uni_cultured
arg2_start_uni_cpg
%_ar
note_and
arg2_start_uni_sequences
arg2_start_uni_full
arg2_start_uni_analysed
arg2_start_uni_primer
arg2_start_uni_detection
arg2_start_uni_achieved
arg2_start_uni_factors
arg2_start_uni_evaluation
arg2_start_uni_thymic
''_,
arg2_start_uni_phenotype
arg2_start_uni_nasba
cent_a
arg2_start_uni_addition
arg2_start_uni_hybridisation
arg2_start_uni_1
arg2_start_uni_patterns
arg2_start_uni_pathway
arg2_start_uni_many
arg2_start_uni_included
arg2_start_uni_shows
arg2_start_uni_blot
arg2_start_uni_mean
arg2_start_uni_be
arg2_start_uni_this,
arg2_start_uni_fetal
arg2_start_uni_emsa
arg2_start_uni_growth
arg2_start_uni_cluster
arg2_start_uni_2
arg2_start_uni_genes
arg2_start_uni_dcs
arg2_start_uni_hhv-8
arg2_start_uni_bob.1/obf.1
arg2_start_uni_control
NP_->_NP_,_SBAR:12
note_the
note_,
arg2_start_uni_been
arg2_start_uni_figure
arg2_start_uni_evidence
arg2_start_uni_both
arg2_start_uni_il-2
arg2_start_uni_stat3
arg2_start_uni_human
arg2_start_uni_5
arg2_start_uni_production
arg2_start_uni_shown
arg2_start_uni_null
arg2_start_uni_electrophoretic
arg2_start_uni_capacity
arg2_start_uni_et
%_<-_<num>:12
arg2_start_uni_whereas
arg2_start_uni_cd11c+
arg2_start_uni_only
arg2_start_uni_much
arg2_start_uni_include
arg2_start_uni_nf-κb
arg2_start_uni_recently
arg2_start_uni_experimentally
arg2_start_uni_vitro,
arg2_start_uni_mice,
arg2_start_uni_signals
of_<-_<pobj>:1
ADJP_->_NP_JJ:12
arg2_start_uni_p50-/-
arg2_start_uni_sites
arg2_start_uni_thymocyte
arg2_start_uni_ramos
arg2_start_uni_did
arg2_start_uni_five
arg2_start_uni_nucleotides
arg2_start_uni_relative
arg2_start_uni_bound
arg2_start_uni_once
arg2_start_uni_quantitate
arg2_start_uni_dnase
arg2_start_uni_polymorphonuclear
arg2_start_uni_cloning
arg2_start_uni_infiltration
arg2_start_uni_octamer
arg2_start_uni_resulting
arg2_start_uni_subsequent
arg2_start_uni_products
arg2_start_uni_(b)
arg2_start_uni_second
arg2_start_uni_calcium
arg2_start_uni_sample
arg2_start_uni_red
arg2_start_uni_mouse
arg2_start_uni_containing
arg2_start_uni_underwent
arg2_start_uni_purified
arg2_start_uni_quantification
arg2_start_uni_tgf-β
arg2_start_uni_motifs
arg2_start_uni_probe
arg2_start_uni_lines
CC_->_&:1
arg2_start_uni_slides
arg2_start_uni_mrna
arg2_start_uni_there
arg2_start_uni_three
arg2_start_uni_between
arg2_start_uni_if
arg2_start_uni_majority
arg2_start_uni_ner
arg2_start_uni_following
arg2_start_uni_time
arg2_start_uni_samples
arg2_start_uni_detected
arg2_start_uni_amounts
arg2_start_uni_remaining
arg2_start_uni_her
arg2_start_uni_lymph
arg2_start_uni_concentrations
arg2_start_uni_product
arg2_start_uni_strength
arg2_start_uni_achieve
arg2_start_uni_androgen
arg2_start_uni_il-10r1
arg2_start_uni_100
arg2_start_uni_synovial
arg2_start_uni_sustained
arg2_start_uni_participated
year_from
arg2_start_uni_(e)
arg2_start_uni_pcr-fragment
arg2_start_uni_beacon
arg2_start_uni_carried
arg2_start_uni_treated
arg2_start_uni_will
arg2_start_uni_predictive
arg2_start_uni_specificity
arg2_start_uni_situ
arg2_start_uni_colored
arg2_start_uni_read
arg2_start_uni_secondary
arg2_start_uni_lane
arg2_start_uni_constructs
arg2_start_uni_currently
arg2_start_uni_cbf1-reporter
arg2_start_uni_deficiency
arg2_start_uni_akt
arg2_start_uni_mobilization
arg2_start_uni_region
arg2_start_uni_parameters
arg2_start_uni_irf-4-positive
arg2_start_uni_optimal
arg2_start_uni_conditions
arg2_start_uni_see
arg2_start_uni_ages
arg2_start_uni_antigen-presenting
arg2_start_uni_controls
arg2_start_uni_six
arg2_start_uni_authors
arg2_start_uni_play
arg2_start_uni_contained
arg2_start_uni_confirm
arg2_start_uni_histograms
arg2_start_uni_cytokine
arg2_start_uni_apparently
arg2_start_uni_proportion
arg2_start_uni_coupled
arg2_start_uni_cases
arg2_start_uni_initial
arg2_start_uni_clustering
arg2_start_uni_list
arg2_start_uni_nucleotide
arg2_start_uni_apc,
arg2_start_uni_pbmncs
arg2_start_uni_involvement
arg2_start_uni_cell;
arg2_start_uni_percentage
arg2_start_uni_injected
arg2_start_uni_sizes
arg2_start_uni_monoclonal
arg2_start_uni_fragments
arg2_start_uni_elements
arg2_start_uni_predicted
arg2_start_uni_β-actin
arg2_start_uni_they
arg2_start_uni_without
arg2_start_uni_their
arg2_start_uni_importantly,
arg2_start_uni_more
arg2_start_uni_high
arg2_start_uni_previously
arg2_start_uni_expressed
arg2_start_uni_important
arg2_start_uni_il-6
arg2_start_uni_normal
arg2_start_uni_here
arg2_start_uni_observed
arg2_start_uni_or
arg2_start_uni_pb
arg2_start_uni_experiments,
includes_<-_<nsubj>_<dobj>:2
arg2_start_uni_tnf-α
arg2_start_uni_among
NP_->_NP_,_ADJP_,:1
arg2_start_uni_experimental
arg2_start_uni_receptor
arg2_start_uni_previous
arg2_start_uni_determine
arg2_start_uni_molecular
arg2_start_uni_ra
PRP_->_they:12
arg2_start_uni_percentages
arg2_start_uni_response
arg2_start_uni_recombinant
arg2_start_uni_serum
arg2_start_uni_out
arg2_start_uni_fragment
arg2_start_uni_(c)
arg2_start_uni_(d)
arg2_start_uni_shift
arg2_start_uni_finding
arg2_start_uni_adding
arg2_start_uni_relb+
arg2_start_uni_androgens
arg2_start_uni_ipsilateral
arg2_start_uni_mammary
arg2_start_uni_cd4+cd25-
arg2_start_uni_endogenous
arg2_start_uni_spib
arg2_start_uni_vbcl-2
arg2_start_uni_knock-in
arg2_start_uni_small
arg2_start_uni_sought
arg2_start_uni_note,
arg2_start_uni_status
arg2_start_uni_studies,
arg2_start_uni_all,
arg2_start_uni_cd123+
arg2_start_uni_reported,
arg2_start_uni_inhibition
arg2_start_uni_pi3-k
from_<-_<pobj>:1
arg2_start_uni_abnormal
arg2_start_uni_similarly,
arg2_start_uni_pretreatment
arg2_start_uni_phosphorylation
arg2_start_uni_showed
arg2_start_uni_linear
arg2_start_uni_pi3k-akt
arg2_start_uni_propose
JJ_->_due:12
arg2_start_uni_mature
arg2_start_uni_another
arg2_start_uni_competition
CC_->_But:1
arg2_start_uni_smallest
or_cent
arg2_start_uni_heterogeneity
arg2_start_uni_e2f
arg2_start_uni_coercion
arg2_start_uni_il-7
arg2_start_uni_opportunities
arg2_start_uni_engagement
share_cent
arg2_start_uni_lag
arg2_start_uni_neurons,
arg2_start_uni_context-dependent
arg2_start_uni_simulation
arg2_start_uni_where,
arg2_start_uni_impression
arg2_start_uni_lend
arg2_start_uni_regardless
arg2_start_uni_feature
arg2_start_uni_how,
arg2_start_uni_appears
arg2_start_uni_tyrosine
arg2_start_uni_simultaneous
arg2_start_uni_ability
arg2_start_uni_exclude
arg2_start_uni_induces
arg2_start_uni_explanation
arg2_start_uni_occurrence
arg2_start_uni_recruitment
arg2_start_uni_reason
arg2_start_uni_scf
arg2_start_uni_answer
arg2_start_uni_larger
arg2_start_uni_aspect
arg2_start_uni_contrasting
arg2_start_uni_coordinate
arg2_start_uni_effective
at_<-_<pobj>:12
arg2_start_uni_concluded
arg2_start_uni_reason,
arg2_start_uni_either
arg2_start_uni_paradox
arg2_start_uni_property
arg2_start_uni_intersecting
arg2_start_uni_presumably,
arg2_start_uni_assess
arg2_start_uni_unique
arg2_start_uni_early
arg2_start_uni_numerous
arg2_start_uni_dataset
arg2_start_uni_address
arg2_start_uni_draws
arg2_start_uni_validates
arg2_start_uni_hypothesized
arg2_start_uni_considerations
arg2_start_uni_screen
arg2_start_uni_reinforce
arg2_start_uni_might
arg2_start_uni_highlight
arg2_start_uni_regulated
arg2_start_uni_efficacy
arg2_start_uni_then
arg2_start_uni_affected
arg2_start_uni_altogether,
arg2_start_uni_together,
arg2_start_uni_combined
month_<-_<num>:12
arg2_start_uni_conclude
arg2_start_uni_active
arg2_start_uni_regulation
arg2_start_uni_compared
arg2_start_uni_exposure
arg2_start_uni_leads
arg2_start_uni_relationship
arg2_start_uni_provide
arg2_start_uni_stat1
arg2_start_uni_number
to_term
at_<-_<pobj>:1
arg2_start_uni_large
arg2_start_uni_limited
arg2_start_uni_conditional
arg2_start_uni_indicate
arg2_start_uni_coverage
arg2_start_uni_do
arg2_start_uni_clearly
arg2_start_uni_regard,
arg2_start_uni_suggest
at_<-_<pobj>:2
month_<-_<num>:2
arg2_start_uni_demonstrates
arg2_start_uni_phosphorylation,
arg2_start_uni_upon
arg2_start_uni_resolution
arg2_start_uni_rather
arg2_start_uni_based
arg2_start_uni_positions
arg2_start_uni_observations
arg2_start_uni_interaction
arg2_start_uni_final
arg2_start_uni_presence
or_share
arg2_start_uni_term
arg2_start_uni_basis
arg2_start_uni_defects
arg2_start_uni_means
arg2_start_uni_studied
arg2_start_uni_understanding
arg2_start_uni_pbmcs
arg2_start_uni_contribute
arg2_start_uni_key
arg2_start_uni_such
arg2_start_uni_observation
arg2_start_uni_current
arg2_start_uni_low
arg2_start_uni_elucidate
arg2_start_uni_suggests
arg2_start_uni_pdcs
arg2_start_uni_developed
arg2_start_uni_hoxa3+/-pax1-/-
arg2_start_uni_ews-erg
arg2_start_uni_tec
arg2_start_uni_potential
arg2_start_uni_would
VP_->_VB_ADJP:12
arg2_start_uni_define
arg2_start_uni_compound
arg2_start_uni_mutants
arg2_start_uni_labeled
arg2_start_uni_168
arg2_start_uni_interest
arg2_start_uni_transactivates
arg2_start_uni_uds
arg2_start_uni_respond
earlier_%
arg2_start_uni_ablated
arg2_start_uni_month
VBN_->_based:12
arg2_start_uni_tgf-β-converted
arg2_start_uni_(a–c)
arg2_start_uni_jejunum,
arg2_start_uni_a:
arg2_start_uni_possess
arg2_start_uni_[3h]thymidine
arg2_start_uni_a.
arg2_start_uni_a,
arg2_start_uni_exciting
arg2_start_uni_binds
arg2_start_uni_inflammatory
arg2_start_uni_act
arg2_start_uni_protocol,
arg2_start_uni_filtering
arg2_start_uni_inoculated
arg2_start_uni_fashion,
arg2_start_uni_marginal
arg2_start_uni_proliferating
arg2_start_uni_gm
arg2_start_uni_successful
arg2_start_uni_overall
arg2_start_uni_necrosis
arg2_start_uni_model,
arg2_start_uni_comprised
arg2_start_uni_occurrences
arg2_start_uni_she,
arg2_start_uni_dendritic
arg2_start_uni_kratochwil
arg2_start_uni_global
arg2_start_uni_discrete
arg2_start_uni_influence
arg2_start_uni_spleen:
arg2_start_uni_redundant
arg2_start_uni_length
arg2_start_uni_group
co._of
arg2_start_uni_embryonic
arg2_start_uni_er-tr9
arg2_start_uni_system,
arg2_start_uni_briefly,
offer_of
arg2_start_uni_generally
arg2_start_uni_copies
arg2_start_uni_blotting
arg2_start_uni_footprint
arg2_start_uni_polymerase
arg2_start_uni_provided
arg2_start_uni_collagen-rich
arg2_start_uni_untranslated
arg2_start_uni_hsv-thymidine
arg2_start_uni_transactivation
arg2_start_uni_autoradiographs
arg2_start_uni_rinsed
arg2_start_uni_cμ
arg2_start_uni_particular
arg2_start_uni_asked
cent_to
arg2_start_uni_−116
arg2_start_uni_efforts,
arg2_start_uni_cancer
arg2_start_uni_bob.1/obf.1-specific
arg2_start_uni_90%
issue_<-_<det>:2
arg2_start_uni_profiles
NN_->_vice:1
arg2_start_uni_endocrine
arg2_start_uni_resuspending
arg2_start_uni_e15.5
arg2_start_uni_appropriate
arg2_start_uni_sample,
arg2_start_uni_id
arg2_start_uni_results,
arg2_start_uni_counted
arg2_start_uni_kb
arg2_start_uni_enrichment
arg2_start_uni_lymphocyte
arg2_start_uni_autocrine
arg2_start_uni_triggering
arg2_start_uni_groups
arg2_start_uni_poly-adp-ribose
arg2_start_uni_ir2
arg2_start_uni_nm
arg2_start_uni_examination
arg2_start_uni_ectopic
arg2_start_uni_need
arg2_start_uni_brca1
arg2_start_uni_depicted
arg2_start_uni_similarly
offer_the
arg2_start_uni_tests
arg2_start_uni_inhibits
arg2_start_uni_[estrogen
arg2_start_uni_t-dependent
arg2_start_uni_gata-1
arg2_start_uni_thirty
arg2_start_uni_a.1
arg2_start_uni_a-b
arg2_start_uni_heatmap
arg2_start_uni_profile
arg2_start_uni_mast
arg2_start_uni_factor
arg2_start_uni_mammogens
arg2_start_uni_simplified
arg2_start_uni_mediators
arg2_start_uni_begins
arg2_start_uni_added:
arg2_start_uni_histogram
arg2_start_uni_initially,
arg2_start_uni_cassette
arg2_start_uni_3.1
arg2_start_uni_pre-existing
arg2_start_uni_highest
arg2_start_uni_motif
arg2_start_uni_chart
arg2_start_uni_oct2-specific
arg2_start_uni_extraction
arg2_start_uni_30/32
arg2_start_uni_scenario,
arg2_start_uni_generate
arg2_start_uni_bob.1/obf.1−/−
arg2_start_uni_4
arg2_start_uni_ionizing
arg2_start_uni_embryo,
arg2_start_uni_antigens,
arg2_start_uni_purely
arg2_start_uni_pieces
arg2_start_uni_orientation
loss_or
arg2_start_uni_relates
arg2_start_uni_p50
arg2_start_uni_thp-1
arg2_start_uni_dilution,
arg2_start_uni_infect
arg2_start_uni_stability
arg2_start_uni_illustration
arg2_start_uni_floxed
arg2_start_uni_illustrating
arg2_start_uni_neurogenesis,
arg2_start_uni_(a),
arg2_start_uni_box
arg2_start_uni_(cd19+cd27-)
arg2_start_uni_types
arg2_start_uni_stimuli
arg2_start_uni_could
arg2_start_uni_contain
arg2_start_uni_mechanistically,
arg2_start_uni_gp130f759/f759
arg2_start_uni_aliquot
arg2_start_uni_local
arg2_start_uni_th1
,_he
co._the
arg2_start_uni_pooled
via_<-_<pobj>:1
arg2_start_uni_useful
arg2_start_uni_(p
arg2_start_uni_earliest
arg2_start_uni_xid
arg2_start_uni_(a
VBN_->_named:1
arg2_start_uni_infected
arg2_start_uni_suspensions
arg2_start_uni_except
arg2_start_uni_scotet
arg2_start_uni_stroma
arg2_start_uni_enrolled
arg2_start_uni_mechanism
arg2_start_uni_appearance
arg2_start_uni_24-well
arg2_start_uni_open
arg2_start_uni_smad
:_->_...:1
arg2_start_uni_various
arg2_start_uni_cea
vice_,
arg2_start_uni_implies
arg2_start_uni_characteristics,
arg2_start_uni_(large
arg2_start_uni_buds,
arg2_start_uni_domains
arg2_start_uni_cunha
arg2_start_uni_haematopoietic
arg2_start_uni_cho
arg2_start_uni_µg
arg2_start_uni_engaging
arg2_start_uni_them
arg2_start_uni_continued
arg2_start_uni_comparing
arg2_start_uni_stability-regulated
arg2_start_uni_clusters
arg2_start_uni_fixation
arg2_start_uni_frozen
arg2_start_uni_spleen
arg2_start_uni_time-point
arg2_start_uni_smears
arg2_start_uni_microliters
arg2_start_uni_digestion
arg2_start_uni_surface
NN_->_unit:2
arg2_start_uni_entire
arg2_start_uni_hours
arg2_start_uni_extracted
arg2_start_uni_resuspended
arg2_start_uni_viability
arg2_start_uni_signalling
inc._the
arg2_start_uni_analyzed
arg2_start_uni_she
arg2_start_uni_probes
of_s
arg2_start_uni_reaction
arg2_start_uni_10
CC_->_&:2
arg2_start_uni_sections
arg2_start_uni_patient
arg2_start_uni_rna
arg2_start_uni_end
arg2_start_uni_average
arg2_start_uni_each
arg2_start_uni_promoter
of_&
arg2_start_uni_mononuclear
,_&
arg2_start_uni_signal
the_&
arg2_start_uni_genomic
arg2_start_uni_protein
arg2_start_uni_extracts
arg2_start_uni_prepared
arg2_start_uni_transgenic
arg2_start_uni_pbmc
arg2_start_uni_(a)
arg2_start_uni_total
arg2_start_uni_purification
arg2_start_uni_×
arg2_start_uni_splenocytes
arg2_start_uni_lysates
arg2_start_uni_cd19+
arg2_start_uni_wt
arg2_start_uni_24
to_&
arg2_start_uni_type
arg2_start_uni_within
arg2_start_uni_composite
arg2_start_uni_beyond
arg2_start_uni_first,
arg2_start_uni_(i)
arg2_start_uni_populations
arg2_start_uni_value
arg2_start_uni_hela
arg2_start_uni_top
arg2_start_uni_background
arg2_start_uni_structure
arg2_start_uni_utilized
arg2_start_uni_those
arg2_start_uni_proved
arg2_start_uni_size
arg2_start_uni_values
arg2_start_uni_time-to-positivity
arg2_start_uni_displays
arg2_start_uni_threshold
arg2_start_uni_chromosomal
share_or
arg2_start_uni_input
arg2_start_uni_erg
arg2_start_uni_staining
arg2_start_uni_primers
arg2_start_uni_score
arg2_start_uni_established
arg2_start_uni_position
arg2_start_uni_bar
arg2_start_uni_pathology
arg2_start_uni_proinflammatory
arg2_start_uni_represents
arg2_start_uni_stimulatory
arg2_start_uni_extremely
arg2_start_uni_through
arg2_start_uni_amplified
arg2_start_uni_similarity
arg2_start_uni_originally
arg2_start_uni_socs3
arg2_start_uni_marker
arg2_start_uni_itk
NP_->_NP_,_CC_NP_,:2
arg2_start_uni_several
arg2_start_uni_during
arg2_start_uni_contains
,_who
arg2_start_uni_cells,
arg2_start_uni_buds
arg2_start_uni_a)
earlier_to
arg2_start_uni_limit
arg2_start_uni_btk
arg2_start_uni_peripheral
arg2_start_uni_lower
arg2_start_uni_study,
arg2_start_uni_transfection
arg2_start_uni_mobility
arg2_start_uni_total,
arg2_start_uni_deficient
arg2_start_uni_analyses
arg2_start_uni_thymocytes
arg2_start_uni_defined
arg2_start_uni_unlike
arg2_start_uni_grain
arg2_start_uni_displayed
arg2_start_uni_neutrophils
arg2_start_uni_tumor
arg2_start_uni_al
arg2_start_uni_cd4+cd25+
arg2_start_uni_kinase
arg2_start_uni_produced
arg2_start_uni_demonstrate
arg2_start_uni_mutations
arg2_start_uni_brdu
arg2_start_uni_beacons
arg2_start_uni_signaling
arg2_start_uni_irf1
arg2_start_uni_set
from_<-_<pobj>:2
arg2_start_uni_extended
arg2_start_uni_assay,
arg2_start_uni_accumulation
arg2_start_uni_known
arg2_start_uni_wild
includes_<-_<nsubj>_<dobj>:1
arg2_start_uni_increasing
arg2_start_uni_dose-dependent
arg2_start_uni_up-regulation
arg2_start_uni_prevented
arg2_start_uni_naïve
arg2_start_uni_28
arg2_start_uni_new
arg2_start_uni_time-point,
arg2_start_uni_blocked
arg2_start_uni_visualize
arg2_start_uni_rinsing
arg2_start_uni_identity
arg2_start_uni_stat
arg2_start_uni_upstream
arg2_start_uni_released,
arg2_start_uni_phylogenetic
arg2_start_uni_orthologous
arg2_start_uni_firefly
arg2_start_uni_μg
arg2_start_uni_log
arg2_start_uni_aliquout
the_compani
arg2_start_uni_footprinting
arg2_start_uni_luciferase
arg2_start_uni_(score
arg2_start_uni_placed
arg2_start_uni_sacrificed
arg2_start_uni_tbs-t
arg2_start_uni_unlabelled
arg2_start_uni_106
arg2_start_uni_(mediacybernetics,
arg2_start_uni_membranes
arg2_start_uni_he
arg2_start_uni_fresh
arg2_start_uni_electrophoresed
arg2_start_uni_antisense
arg2_start_uni_stimulated,
arg2_start_uni_es
arg2_start_uni_establishing
arg2_start_uni_lysis
arg2_start_uni_phase
arg2_start_uni_undergone
arg2_start_uni_immediately
arg2_start_uni_pwm,
arg2_start_uni_carrier
arg2_start_uni_harvested
arg2_start_uni_5-to10
arg2_start_uni_anti-cd4
arg2_start_uni_viable,
arg2_start_uni_aqueous
arg2_start_uni_sheath,
arg2_start_uni_(30–100
arg2_start_uni_bound/retarded
arg2_start_uni_counterstained
arg2_start_uni_hes1
arg2_start_uni_flow-through
arg2_start_uni_plates
arg2_start_uni_hla-dr+cd14-cd123+
arg2_start_uni_(107)
arg2_start_uni_individual
arg2_start_uni_densitometric
arg2_start_uni_filter
arg2_start_uni_subjected
arg2_start_uni_dried
arg2_start_uni_started
arg2_start_uni_extensive
arg2_start_uni_matrices
arg2_start_uni_microarrays
arg2_start_uni_double
arg2_start_uni_ultrathin
arg2_start_uni_ebf-binding
arg2_start_uni_encompassing
arg2_start_uni_calibration
arg2_start_uni_suspension
arg2_start_uni_incubation
arg2_start_uni_resolved
arg2_start_uni_seven
arg2_start_uni_arraypro
arg2_start_uni_centrifugation,
arg2_start_uni_q-rna
arg2_start_uni_hla-dr+cd14-
arg2_start_uni_forty-eight
arg2_start_uni_raw
corp._the
arg2_start_uni_collected
arg2_start_uni_pools
arg2_start_uni_apoptotic,
arg2_start_uni_amplification,
arg2_start_uni_extending
arg2_start_uni_chemoattractants,
arg2_start_uni_intensities
arg2_start_uni_streptavidin–alkaline
arg2_start_uni_(a.g.
arg2_start_uni_ethanol
arg2_start_uni_batch
arg2_start_uni_washing,
arg2_start_uni_microbeads
arg2_start_uni_fifty
arg2_start_uni_preceding
arg2_start_uni_ortholog
arg2_start_uni_software
arg2_start_uni_reciprocally
arg2_start_uni_neighboring
arg2_start_uni_formalin-fixed
arg2_start_uni_targeted
arg2_start_uni_staining,
arg2_start_uni_over-representation
arg2_start_uni_(0.8
arg2_start_uni_matching
arg2_start_uni_rt
arg2_start_uni_np12-bsa-biotin
arg2_start_uni_intracellular
arg2_start_uni_pfms
arg2_start_uni_nih/3t3
arg2_start_uni_1996
arg2_start_uni_immunoblot
arg2_start_uni_uv
arg2_start_uni_either,
arg2_start_uni_exposure,
arg2_start_uni_evaluation,
arg2_start_uni_purification,
arg2_start_uni_serial
arg2_start_uni_under
arg2_start_uni_exposed
arg2_start_uni_reactions,
arg2_start_uni_receptors
arg2_start_uni_transfer
arg2_start_uni_distances
arg2_start_uni_separated
arg2_start_uni_indicated,
arg2_start_uni_densities
arg2_start_uni_thawed
NN_->_unit:1
arg2_start_uni_stained
arg2_start_uni_blocking,
arg2_start_uni_fold
arg2_start_uni_surnatants
,_compani
arg2_start_uni_strand
arg2_start_uni_arrays
arg2_start_uni_basophils
arg2_start_uni_enzyme
arg2_start_uni_founder
arg2_start_uni_lobes
arg2_start_uni_dual-glo
arg2_start_uni_pathological
arg2_start_uni_oligo
arg2_start_uni_15 minutes
arg2_start_uni_70°c
arg2_start_uni_centrifuged
%_<-_<dep>:1
%_<-_<dep>:2
arg2_start_uni_reverse
arg2_start_uni_10 minutes
arg2_start_uni_piece
arg2_start_uni_d
arg2_start_uni_solutions
arg2_start_uni_left
arg2_start_uni_hybridization,
arg2_start_uni_digested
arg2_start_uni_extracts,
arg2_start_uni_(20
arg2_start_uni_anti-cd3-biotin
arg2_start_uni_removed
arg2_start_uni_four-color
of_compani
arg2_start_uni_enhancement
arg2_start_uni_ultrasound
arg2_start_uni_radiolabelled
arg2_start_uni_(50
arg2_start_uni_followed
arg2_start_uni_removing
arg2_start_uni_absorbance
arg2_start_uni_steps,
arg2_start_uni_co-cultured
arg2_start_uni_analyze
arg2_start_uni_whole
arg2_start_uni_saturating
arg2_start_uni_count
arg2_start_uni_denaturation
arg2_start_uni_non-adherent
arg2_start_uni_phosophorylation
arg2_start_uni_gels
arg2_start_uni_actinomycin
arg2_start_uni_pooled,
arg2_start_uni_generated
arg2_start_uni_germ
arg2_start_uni_q-pcr
arg2_start_uni_(70–100
arg2_start_uni_supernatant
arg2_start_uni_rehydration
arg2_start_uni_(200-μl
arg2_start_uni_2.5
arg2_start_uni_quantified
arg2_start_uni_measured
arg2_start_uni_synthesized
arg2_start_uni_mixture
arg2_start_uni_transformed
arg2_start_uni_single-stranded
arg2_start_uni_diluted
arg2_start_uni_phosphorylated
arg2_start_uni_spun
arg2_start_uni_later
arg2_start_uni_unincorporated
arg2_start_uni_july
arg2_start_uni_visualized
arg2_start_uni_computed
arg2_start_uni_notch
arg2_start_uni_genotypes
arg2_start_uni_30 minutes,
arg2_start_uni_pi3-k,
arg2_start_uni_oligomers
arg2_start_uni_(50 μg
arg2_start_uni_10–12
%_&
arg2_start_uni_mouse/human
arg2_start_uni_non-vertebrate
arg2_start_uni_cd3
arg2_start_uni_washing
arg2_start_uni_transfections
arg2_start_uni_µg)
arg2_start_uni_separation
arg2_start_uni_hybridized
arg2_start_uni_clustered
arg2_start_uni_paraffin-embedded
arg2_start_uni_gadolinium
arg2_start_uni_precipitated
arg2_start_uni_culled
arg2_start_uni_bacterial
arg2_start_uni_complimentary
arg2_start_uni_again
arg2_start_uni_reactions
arg2_start_uni_t-cell
arg2_start_uni_id1,
arg2_start_uni_equal
arg2_start_uni_aliquots
arg2_start_uni_live
arg2_start_uni_supernatants
NNP_->_Corp.:1
arg2_start_uni_synthesis
arg2_start_uni_ifn-γ
arg2_start_uni_over-represented
arg2_start_uni_algorithm
NP_->_NP_,_NP_,:12
arg2_start_uni_lymphocytes
arg2_start_uni_sense
arg2_start_uni_washed
arg2_start_uni_mix
arg2_start_uni_comparisons
arg2_start_uni_concentration
arg2_start_uni_immunoprecipitated
arg2_start_uni_nro
arg2_start_uni_curve
arg2_start_uni_images
CC_->_&:12
arg2_start_uni_complexes
arg2_start_uni_construct
arg2_start_uni_made
arg2_start_uni_cdna
arg2_start_uni_blocking
arg2_start_uni_double-stranded
arg2_start_uni_oligonucleotides
arg2_start_uni_identification
arg2_start_uni_grand
arg2_start_uni_significant
arg2_start_uni_experiment
arg2_start_uni_pax5
arg2_start_uni_reporter
arg2_start_uni_standard
arg2_start_uni_curves
arg2_start_uni_measure
arg2_start_uni_culture
QP_->_$_CD_CD:2
arg2_start_uni_well
arg2_start_uni_analysis,
arg2_start_uni_days
arg2_start_uni_test
arg2_start_uni_examine
arg2_start_uni_cultures
arg2_start_uni_chemotaxis
arg2_start_uni_bands
by_<-_<pobj>:2
arg2_start_uni_hybridization
arg2_start_uni_16
arg2_start_uni_ifn-γ,
arg2_start_uni_il-10,
arg2_start_uni_eosinophils
by_<-_<pobj>:1
arg2_start_uni_(filled
arg2_start_uni_incubated
arg2_start_uni_competitors
arg2_start_uni_nuclei
arg2_start_uni_(1
arg2_start_uni_isolated
arg2_start_uni_stimulated
arg2_start_uni_purity
arg2_start_uni_diagnosis,
arg2_start_uni_oligonucleotide
arg2_start_uni_real-time
arg2_start_uni_(2
arg2_start_uni_mutant
arg2_start_uni_two-color
arg2_start_uni_hallmark
arg2_start_uni_hanks'
arg2_start_uni_inverted
arg2_start_uni_limits
arg2_start_uni_optical
arg2_start_uni_step
arg2_start_uni_targeting
arg2_start_uni_composition
arg2_start_uni_considering
arg2_start_uni_maintained
arg2_start_uni_tetsushi
arg2_start_uni_flow
arg2_start_uni_genetic
arg2_start_uni_contents
arg2_start_uni_supplementary
arg2_start_uni_age
arg2_start_uni_pertinent
arg2_start_uni_gated
arg2_start_uni_isindicated
arg2_start_uni_reticulocyte
arg2_start_uni_columns
arg2_start_uni_sorting,
arg2_start_uni_mounting
arg2_start_uni_transition,
arg2_start_uni_pi3k-activating
arg2_start_uni_years
arg2_start_uni_cnt,
arg2_start_uni_healthy
arg2_start_uni_rounds
arg2_start_uni_arrows,
arg2_start_uni_element
arg2_start_uni_(1/200;
arg2_start_uni_bv
arg2_start_uni_cc
arg2_start_uni_bd
arg2_start_uni_informed
arg2_start_uni_latter
arg2_start_uni_duration
arg2_start_uni_e1-fl
arg2_start_uni_described
arg2_start_uni_histographic
arg2_start_uni_microarray
arg2_start_uni_aa
arg2_start_uni_scatter
arg2_start_uni_stromal-epithelial
arg2_start_uni_bars
arg2_start_uni_go
arg2_start_uni_adjuvanticity
arg2_start_uni_blots
arg2_start_uni_ff
arg2_start_uni_surprisingly,
arg2_start_uni_g:
arg2_start_uni_cd14-hla-dr+
arg2_start_uni_cd69
arg2_start_uni_g,
arg2_start_uni_el
arg2_start_uni_bottom:
arg2_start_uni_models
arg2_start_uni_bilateral
arg2_start_uni_responded
arg2_start_uni_fitc-linked
arg2_start_uni_color
arg2_start_uni_30–38
arg2_start_uni_ensembl
arg2_start_uni_motifs,
arg2_start_uni_day
arg2_start_uni_two-step
arg2_start_uni_cytometry
arg2_start_uni_mode
arg2_start_uni_gradient
arg2_start_uni_grown
arg2_start_uni_indo-1
arg2_start_uni_conceived
arg2_start_uni_simulations
arg2_start_uni_sv40
arg2_start_uni_should
arg2_start_uni_regulatory
arg2_start_uni_fibroblast
arg2_start_uni_believed
arg2_start_uni_constant
arg2_start_uni_statistical
arg2_start_uni_investigated
arg2_start_uni_possibilities
arg2_start_uni_bmps
arg2_start_uni_annotations
arg2_start_uni_validation
arg2_start_uni_stains
arg2_start_uni_sixteen
arg2_start_uni_abnormalities
arg2_start_uni_technique
arg2_start_uni_primarily
arg2_start_uni_stat4
arg2_start_uni_decrease
arg2_start_uni_arrow
arg2_start_uni_suggested
arg2_start_uni_eachgraph
arg2_start_uni_akira
arg2_start_uni_emsa,
arg2_start_uni_totals
arg2_start_uni_thirteen
arg2_start_uni_allowed
arg2_start_uni_normalised
arg2_start_uni_werescanned
arg2_start_uni_(ttp)
arg2_start_uni_okamoto,
corp._,
arg2_start_uni_fluorescence
arg2_start_uni_magnification
arg2_start_uni_quality
arg2_start_uni_vgv
arg2_start_uni_exon
arg2_start_uni_elsewhere
arg2_start_uni_significance
arg2_start_uni_ethidium
arg2_start_uni_family
arg2_start_uni_recruited
arg2_start_uni_unstimulated
arg2_start_uni_histology,
arg2_start_uni_macrophage-specific
arg2_start_uni_depict
arg2_start_uni_makino
arg2_start_uni_ruffled
arg2_start_uni_stat3-deficient
arg2_start_uni_represent
arg2_start_uni_shaded
arg2_start_uni_institutional
arg2_start_uni_assisted
arg2_start_uni_translocation
arg2_start_uni_ratio
arg2_start_uni_volunteers
arg2_start_uni_weak
arg2_start_uni_emergence
arg2_start_uni_mammographically
arg2_start_uni_contributed
arg2_start_uni_(mixed
arg2_start_uni_injections
arg2_start_uni_(100
arg2_start_uni_experiment,
arg2_start_uni_table
arg2_start_uni_id2
arg2_start_uni_id3
arg2_start_uni_genes,
arg2_start_uni_id1
arg2_start_uni_(p65)
arg2_start_uni_5′-region
arg2_start_uni_standpoint
arg2_start_uni_initially
arg2_start_uni_substances
arg2_start_uni_horizontal
arg2_start_uni_methodology
arg2_start_uni_medications
arg2_start_uni_helped
arg2_start_uni_sampled
arg2_start_uni_designed
arg2_start_uni_processed
arg2_start_uni_(small
arg2_start_uni_thought
arg2_start_uni_infectious,
arg2_start_uni_hyk
note_rate
arg2_start_uni_control/s,
arg2_start_uni_file
arg2_start_uni_continuing
arg2_start_uni_hyp
arg2_start_uni_interferon
arg2_start_uni_ih
arg2_start_uni_relb
arg2_start_uni_information
arg2_start_uni_relation
arg2_start_uni_rela
arg2_start_uni_sags
arg2_start_uni_resting
arg2_start_uni_jh
arg2_start_uni_jg
arg2_start_uni_overhang
arg2_start_uni_its
arg2_start_uni_released
arg2_start_uni_consequences
arg2_start_uni_jr
arg2_start_uni_hour
arg2_start_uni_ifn-γ-stimulated
arg2_start_uni_1,000
arg2_start_uni_lf
arg2_start_uni_anchored
arg2_start_uni_ld
arg2_start_uni_mc
arg2_start_uni_favorable
arg2_start_uni_suggestions
arg2_start_uni_poly
arg2_start_uni_bromide
arg2_start_uni_stainings
arg2_start_uni_glance,
arg2_start_uni_eas
arg2_start_uni_follow-up
arg2_start_uni_biological
arg2_start_uni_pg
arg2_start_uni_ebs
arg2_start_uni_pm
arg2_start_uni_organisation
arg2_start_uni_cycling
arg2_start_uni_sc
arg2_start_uni_features
arg2_start_uni_t,
arg2_start_uni_st
arg2_start_uni_(r1)
arg2_start_uni_sn
arg2_start_uni_mlc
arg2_start_uni_tw
arg2_start_uni_salt
arg2_start_uni_mll
arg2_start_uni_mkp
arg2_start_uni_masahiro
arg2_start_uni_rabbit
arg2_start_uni_share
arg2_start_uni_derivation
arg2_start_uni_illustrate
arg2_start_uni_listmode
arg2_start_uni_(mbps)
arg2_start_uni_outer
arg2_start_uni_mjr
arg2_start_uni_lacking
arg2_start_uni_fact,
arg2_start_uni_over-representations
arg2_start_uni_down-regulation
arg2_start_uni_feedback
arg2_start_uni_anti-β-actin
arg2_start_uni_leukaemia/lymphoma
arg2_start_uni_therapy
arg2_start_uni_calculated
arg2_start_uni_aks
arg2_start_uni_ajh
arg2_start_uni_peptides
arg2_start_uni_–
arg2_start_uni_critically
arg2_start_uni_(10 nm)
arg2_start_uni_expected
arg2_start_uni_phenotypic
arg2_start_uni_strongest
arg2_start_uni_immunodetection
arg2_start_uni_r.b.c.
arg2_start_uni_tissue,
arg2_start_uni_plots
arg2_start_uni_one-year
arg2_start_uni_jmj
arg2_start_uni_median
arg2_start_uni_*mice
arg2_start_uni_typical
arg2_start_uni_resembles
arg2_start_uni_smad2
arg2_start_uni_smad3
arg2_start_uni_combination
arg2_start_uni_neurotrophins
arg2_start_uni_course
arg2_start_uni_a-d:
arg2_start_uni_cytotoxic
arg2_start_uni_overlapping
arg2_start_uni_compiled
arg2_start_uni_publications
arg2_start_uni_becton
arg2_start_uni_cbf1-dependent
arg2_start_uni_nrm
arg2_start_uni_impaired
arg2_start_uni_overlays
arg2_start_uni_magnifications
arg2_start_uni_(icsat/pip/mum1/lsirf)
arg2_start_uni_dark
arg2_start_uni_shl
arg2_start_uni_shp
arg2_start_uni_control;
arg2_start_uni_otherwise
arg2_start_uni_drafted
arg2_start_uni_sgg
arg2_start_uni_transient
arg2_start_uni_connective
arg2_start_uni_nipple
arg2_start_uni_cd3+4+8+
arg2_start_uni_×250
arg2_start_uni_subset
arg2_start_uni_least
arg2_start_uni_dickinson
arg2_start_uni_contained,
arg2_start_uni_laboratory
arg2_start_uni_besides
arg2_start_uni_repeated
arg2_start_uni_3
arg2_start_uni_visualization
arg2_start_uni_<
arg2_start_uni_inserts
arg2_start_uni_noted,
arg2_start_uni_positive
arg2_start_uni_discovery
arg2_start_uni_disparate
arg2_start_uni_pi3k
arg2_start_uni_*
arg2_start_uni_p
arg2_start_uni_v
arg2_start_uni_t-test
arg2_start_uni_dissection
arg2_start_uni_2407
arg2_start_uni_noon
arg2_start_uni_m
arg2_start_uni_streptavidin-cy5
arg2_start_uni_medium
arg2_start_uni_main
arg2_start_uni_unfortunately,
arg2_start_uni_commonly
arg2_start_uni_focused
arg2_start_uni_polyclonal
arg2_start_uni_consent
arg2_start_uni_disrupted
arg2_start_uni_forward
arg2_start_uni_note
arg2_start_uni_fisher
arg2_start_uni_foreskin
arg2_start_uni_unless
arg2_start_uni_population
arg2_start_uni_gave
arg2_start_uni_facilitating
arg2_start_uni_model
arg2_start_uni_smad2,
arg2_start_uni_pgk1
arg2_start_uni_×15
arg2_start_uni_dnmts
arg2_start_uni_divided
arg2_start_uni_yamamura
arg2_start_uni_chemotherapy
arg2_start_uni_chemical
arg2_start_uni_exons
arg2_start_uni_jhm
arg2_start_uni_added
arg2_start_uni_stringent
arg2_start_uni_fixed
arg2_start_uni_plays
arg2_start_uni_characterized
arg2_start_uni_detects
arg2_start_uni_mjr,
arg2_start_uni_q1200x
arg2_start_uni_zone,
arg2_start_uni_evaluated
arg2_start_uni_consisted
arg2_start_uni_smad2/3
arg2_start_uni_outcomes
arg2_start_uni_solid
arg2_start_uni_hirofumi
arg2_start_uni_integrity
arg2_start_uni_calculations
arg2_start_uni_defective
arg2_start_uni_future
arg2_start_uni_configuration,
arg2_start_uni_(asterisk)
arg2_start_uni_3b
arg2_start_uni_cytokines,
arg2_start_uni_30
arg2_start_uni_28s
arg2_start_uni_2a
arg2_start_uni_35
arg2_start_uni_modified
arg2_start_uni_20
arg2_start_uni_plasmid
arg2_start_uni_pbs
arg2_start_uni_markers
arg2_start_uni_regarding
arg2_start_uni_11
arg2_start_uni_(ff)
arg2_start_uni_1;
arg2_start_uni_12
arg2_start_uni_balanced
arg2_start_uni_that,
arg2_start_uni_'open'
arg2_start_uni_annexin
arg2_start_uni_events
arg2_start_uni_were:
arg2_start_uni_statistically
arg2_start_uni_il-12-induced
arg2_start_uni_amplicons
arg2_start_uni_boxes
arg2_start_uni_individualization
arg2_start_uni_lowest
arg2_start_uni_chosen,
arg2_start_uni_reduced
arg2_start_uni_student's
arg2_start_uni_histopathological
arg2_start_uni_period
arg2_start_uni_blunt-tipped
arg2_start_uni_gail
arg2_start_uni_owing
arg2_start_uni_diagram
arg2_start_uni_0.05
arg2_start_uni_depicts
arg2_start_uni_refer
arg2_start_uni_separate
arg2_start_uni_lysate
arg2_start_uni_yields
arg2_start_uni_noted
arg2_start_uni_fusion
arg2_start_uni_cml-t1
arg2_start_uni_description
arg2_start_uni_short
arg2_start_uni_conducted
arg2_start_uni_anti-phospho-p38
arg2_start_uni_very
arg2_start_uni_additional
arg2_start_uni_blue
arg2_start_uni_preparation
arg2_start_uni_ester
arg2_start_uni_points
arg2_start_uni_filled-in
arg2_start_uni_generation
arg2_start_uni_absolute
arg2_start_uni_complete
arg2_start_uni_alcian
arg2_start_uni_original
arg2_start_uni_upregulation
:_->_...:2
arg2_start_uni_unprogrammed
execut_,
arg2_start_uni_methyl-cpg-binding
arg2_start_uni_negative
arg2_start_uni_micrographs
note_at
arg2_start_uni_wsr
arg2_start_uni_get
arg2_start_uni_scale
arg2_start_uni_branches
arg2_start_uni_chy
arg2_start_uni_acetoxymethyl
arg2_start_uni_quantifications
arg2_start_uni_fibrous
arg2_start_uni_thick
arg2_start_uni_error
arg2_start_uni_target
arg2_start_uni_relatively
arg2_start_uni_equivalency
arg2_start_uni_probably
arg2_start_uni_existence
arg2_start_uni_confirmed
arg2_start_uni_level
arg2_start_uni_chosen
arg2_start_uni_clinical
arg2_start_uni_de
arg2_start_uni_patients
arg2_start_uni_rag1-/-
arg2_start_uni_situation
arg2_start_uni_arrows
arg2_start_uni_less
arg2_start_uni_translocations
arg2_start_uni_denote
arg2_start_uni_example
arg2_start_uni_elf3
arg2_start_uni_examples
arg2_start_uni_these,
arg2_start_uni_tumors
arg2_start_uni_occurs
arg2_start_uni_delivery
arg2_start_uni_splenic
arg2_start_uni_includes
arg2_start_uni_animal
arg2_start_uni_methylation
arg2_start_uni_dp
arg2_start_uni_inhibitory
arg2_start_uni_invertor
arg2_start_uni_synthetic
arg2_start_uni_considered
arg2_start_uni_z
arg2_start_uni_previously,
arg2_start_uni_ratios
arg2_start_uni_plasmacytoid
arg2_start_uni_socs1
yield_and
arg2_start_uni_comparative
arg2_start_uni_again,
arg2_start_uni_neutrophil
arg2_start_uni_sorted
arg2_start_uni_approximately
arg2_start_uni_complex
arg2_start_uni_novo
arg2_start_uni_chromatin
arg2_start_uni_indicated
arg2_start_uni_intriguingly,
arg2_start_uni_hao
arg2_start_uni_colon,
arg2_start_uni_rajewsky
arg2_start_uni_p53,
arg2_start_uni_substitutions
arg2_start_uni_corroborating
arg2_start_uni_detailed
arg2_start_uni_reveal
arg2_start_uni_increases
arg2_start_uni_parallel
arg2_start_uni_intercession
arg2_start_uni_cell-type-specific
arg2_start_uni_baar
arg2_start_uni_obligatory
arg2_start_uni_tissues
arg2_start_uni_epidemiology
arg2_start_uni_extend
arg2_start_uni_credence
arg2_start_uni_hepatocyte
arg2_start_uni_supported
arg2_start_uni_pre-dp
arg2_start_uni_lung
arg2_start_uni_agreement
arg2_start_uni_accordance
arg2_start_uni_eosinophil-specific
arg2_start_uni_adequate
arg2_start_uni_il-10-mediated
arg2_start_uni_22343
of_who
arg2_start_uni_striking
arg2_start_uni_half
arg2_start_uni_alternative
arg2_start_uni_disagreement
arg2_start_uni_oct-1
arg2_start_uni_areb6
arg2_start_uni_interpretation,
arg2_start_uni_comprise
arg2_start_uni_seem
RB_->_n't:2
arg2_start_uni_chemoattractants
arg2_start_uni_introduction
arg2_start_uni_seems
arg2_start_uni_nucleic
arg2_start_uni_3.2
arg2_start_uni_work,
arg2_start_uni_acid
wa_who
arg2_start_uni_(jackson
arg2_start_uni_others
arg2_start_uni_encouraging
arg2_start_uni_thin
arg2_start_uni_sequence-based
arg2_start_uni_cross
to_<-_<pobj>:2
arg2_start_uni_contrasts
arg2_start_uni_core
arg2_start_uni_biopsy
arg2_start_uni_elf3,
arg2_start_uni_micro-organisms,
arg2_start_uni_co-incident
arg2_start_uni_il-7r
arg2_start_uni_release
arg2_start_uni_ews-fus
arg2_start_uni_4a,
include_<-_<nsubj>_<dobj>:1
include_<-_<nsubj>_<dobj>:2
arg2_start_uni_(il)-17
arg2_start_uni_family,
arg2_start_uni_recognized
arg2_start_uni_pervasive
arg2_start_uni_il-1β
arg2_start_uni_map
arg2_start_uni_computational
arg2_start_uni_overexpressing
arg2_start_uni_epidermal
arg2_start_uni_myocytes,
arg2_start_uni_illegitimate
arg2_start_uni_undergo
arg2_start_uni_depletion
arg2_start_uni_marchetti
arg2_start_uni_al.,
arg2_start_uni_p38
arg2_start_uni_elicited
arg2_start_uni_cml,
arg2_start_uni_iκb
arg2_start_uni_likely
arg2_start_uni_modelling
arg2_start_uni_interleukin
arg2_start_uni_mouse,
arg2_start_uni_ciofani
arg2_start_uni_tn1
arg2_start_uni_naive
arg2_start_uni_cis-regulatory
arg2_start_uni_loss
arg2_start_uni_nested
arg2_start_uni_precursors
arg2_start_uni_cd123+hla-dr+
arg2_start_uni_principal,
arg2_start_uni_describes
arg2_start_uni_egfr
arg2_start_uni_semi-quantitative
arg2_start_uni_azadc
arg2_start_uni_e6.1
arg2_start_uni_mxa+
arg2_start_uni_gene,
due_'s
arg2_start_uni_what
arg2_start_uni_rag1-cre
arg2_start_uni_lana
arg2_start_uni_review
arg2_start_uni_opposed
arg2_start_uni_ks
arg2_start_uni_nfkb1
arg2_start_uni_stages,
arg2_start_uni_jurkat
arg2_start_uni_exhibit
arg2_start_uni_bdnf
arg2_start_uni_fdc-m2
arg2_start_uni_polypeptides
arg2_start_uni_search
arg2_start_uni_vil-6
arg2_start_uni_lesions
arg2_start_uni_output
arg2_start_uni_attempted
arg2_start_uni_bone
arg2_start_uni_carcinomas
of_<-_<pobj>:2
arg2_start_uni_analyse
arg2_start_uni_c
arg2_start_uni_overexpressed
arg2_start_uni_focuses
arg2_start_uni_examined
arg2_start_uni_here,
arg2_start_uni_pore-mediated
arg2_start_uni_73
arg2_start_uni_55
arg2_start_uni_knockout
arg2_start_uni_databases
arg2_start_uni_constitute
arg2_start_uni_become
arg2_start_uni_encodes
arg2_start_uni_essential
arg2_start_uni_rt-pcr,
arg2_start_uni_speculated
arg2_start_uni_tempting
arg2_start_uni_oct
arg2_start_uni_paper
arg2_start_uni_prevents
arg2_start_uni_cellular
arg2_start_uni_development
arg2_start_uni_orf
arg2_start_uni_upper-outer
arg2_start_uni_over-expression
arg2_start_uni_b6
arg2_start_uni_competitor
arg2_start_uni_panels)
arg2_start_uni_trigger
arg2_start_uni_illustrated
arg2_start_uni_wereincubated
arg2_start_uni_pretreated
arg2_start_uni_relb-cd123+
arg2_start_uni_sensitized
arg2_start_uni_sufficient
arg2_start_uni_(wt
arg2_start_uni_estimated
arg2_start_uni_localization
arg2_start_uni_oct1,
arg2_start_uni_cold
arg2_start_uni_igh
arg2_start_uni_agents
arg2_start_uni_efficiently
arg2_start_uni_blast
arg2_start_uni_inhibitor
arg2_start_uni_seen
arg2_start_uni_(top
arg2_start_uni_(29/104)
arg2_start_uni_dynamic
arg2_start_uni_βgal
arg2_start_uni_murine
arg2_start_uni_localize
arg2_start_uni_formation
arg2_start_uni_block
arg2_start_uni_microscopic
arg2_start_uni_circles)
arg2_start_uni_clonal
arg2_start_uni_saw
earlier_from
arg2_start_uni_30%
arg2_start_uni_bearing
arg2_start_uni_7
arg2_start_uni_context
arg2_start_uni_cd19+cd27-
arg2_start_uni_organs
arg2_start_uni_transgene
arg2_start_uni_excluding
arg2_start_uni_completely
arg2_start_uni_end,
arg2_start_uni_collected,
arg2_start_uni_delta1-fc
arg2_start_uni_plate-bound
arg2_start_uni_cho-hdelta1
arg2_start_uni_28%
arg2_start_uni_corresponding
arg2_start_uni_18
arg2_start_uni_strong
arg2_start_uni_electron
arg2_start_uni_stage-specific
arg2_start_uni_200
levels_<-_<nn>:12
arg2_start_uni_hypersensitive
arg2_start_uni_cd123+cd11c-
arg2_start_uni_purities
arg2_start_uni_cd19-positive
arg2_start_uni_s194
arg2_start_uni_mri,
arg2_start_uni_allele
arg2_start_uni_oct2
arg2_start_uni_freshly
arg2_start_uni_(more
arg2_start_uni_73,
arg2_start_uni_polya
arg2_start_uni_ephb4,
arg2_start_uni_co-expressed
arg2_start_uni_muc1
a_cent
arg2_start_uni_results:
arg2_start_uni_conclusion:
arg2_start_uni_presentation:
arg2_start_uni_methods:
arg2_start_uni_21
arg2_start_uni_conclusions:
arg2_start_uni_success
arg2_start_uni_better
arg2_start_uni_alternate
arg2_start_uni_initiated
arg2_start_uni_introduced
arg2_start_uni_t-47d
2.112758911895347
1.437373938938397
1.4458849834524063
1.4920024031592283
1.4458849834524063
1.9086751507515853
1.7467977291339614
1.5457198402893662
0.8272543746028761
1.4920024031592283
1.524661626998915
1.422783105833661
2.5828075751826782
1.524661626998915
1.9271119184572367
1.378858048692053
2.500900535165833
1.6038683870229518
1.7176156582013495
2.438854216837042
1.6344621812068192
1.4924631464288167
1.4948112210959317
2.2395109164298543
1.7048970146742457
2.125636690559601
0.8272543746028761
1.7176156582013495
1.794754991906255
2.553954441613131
1.9378241027510907
0.6691766972619101
1.7183955396364452
0.8865641794035586
1.4049978418010247
0.6187512738702852
1.1720139509966718
0.8632299972605381
1.3975570329121105
0.7283040404654451
-0.4431589410571687
-0.4155561902059793
0.25570599148016193
-0.31160890547695336
-0.04872807624277197
0.05301212187925178
-0.8889329027789284
0.30813931068310346
-0.05250979258705648
0.10133014742453215
0.5085421103299892
-0.3108178664658808
0.12979651377523696
0.40516637893721
0.009182233230133209
-0.5518574044666801
-0.08108339180136792
-0.0964962892505538
-0.21116499759833984
-0.073559436178424
-0.6377397825742067
0.1453229181827369
-0.43551823507087345
0.016561860389963625
-0.2505388933720361
0.013887361331204892
0.17275828761543646
0.05522873297173584
-0.9463240735311053
-0.09541854172114947
-0.016323198626650194
-0.43171504223882656
0.029247948670920596
-0.12999991782068412
0.07885197505666665
0.13836170763902558
-0.027711224969035813
-0.17782155056653404
-0.0167667756278025
0.1500173899816834
0.1275065085723159
-0.15081948000810386
-0.019421466034276812
0.021762342974963007
-0.13597188319083953
0.015384822373299047
-0.023721436403181088
0.1660440259801943
-0.12676663015764514
-0.09815761921596665
-0.016592029133769722
-0.09411081705986961
-0.11998020683299712
-0.08461639427355278
0.24593469850480987
0.30400745477145863
0.08408471084981783
-0.06406570026699293
0.09896142360973652
0.003436293942542241
-0.09458841915217545
0.10475263408777746
0.0667550155593979
-0.010715198479085978
0.004317128440307132
-0.035634355435000986
-1.1087963574539645
-0.048475409155646
-0.17508473406232136
0.15685507098747759
0.1389780211500015
-0.10336865526366498
-0.31611613416652
-0.1653757718566733
-0.14056312507674526
-0.30413686767762027
0.19955210243108829
0.17439382590630573
0.06426505486170678
-0.08797256807169171
-0.02509987417090597
-0.09355382641808047
-0.10164848989195815
0.20808473284305432
-0.20052829867014235
0.16047195311820964
0.22957636462253855
0.05385207027742713
-0.4567521364747029
0.04769088502116669
-0.290404396715074
0.2671821404026787
-0.056538998739853415
0.07894934954216677
0.004534377741085311
-0.2725645416411737
-0.7796164142542492
-0.5262323633811792
0.011985630032963905
0.10379868293058873
0.03502484262841113
0.06106641224209544
0.041400773472190414
0.17919235052426016
-0.17036616385936898
0.19216653932605735
0.026943633590461164
0.27885829743992024
0.07497186799187108
-0.3860322180033421
0.2906919581709979
0.037894572993997976
-0.17029843229584224
0.09202049002316329
0.2460065396118917
-0.15839857007395325
-0.19749780794677527
0.24943186376212112
-0.06257653692978718
0.30660721893620924
-0.2549497148661338
0.3134412848078296
-0.022883600841014026
0.3591707738534813
-0.10748088813778799
-0.07620798253179802
0.06157982763695631
-0.5245209469996815
-0.6520344655465808
-0.057477123794206206
-0.1692245472194974
-0.9213991473146803
0.02752096867501394
-0.24747316817195833
0.22145603473261075
-0.3479675543870606
-0.3072785374675054
-0.10910841864635114
0.03366662892500817
0.007016137961131929
0.38518820778355106
-0.20203989936040043
0.01909066607044214
-0.21044944956470002
-0.17127235696312254
-0.21681432862697178
0.006918030764990741
0.16692845017232094
-0.08868176047023262
0.0898074433672852
-0.007101619314275842
-0.006727387136764854
0.23999146860646123
-1.0617772457032006
-0.1457250582980362
0.08758545325366557
-0.24905355069585797
0.17082932834368972
-0.447394632505298
-0.2275249800277669
-0.0667555113874968
-0.06135333014707038
0.011032940092435566
-0.39113962382491135
0.049982302388338416
-0.3855155481964438
-1.2935632995574964
0.4750982682090944
0.1910002307521025
0.46772379252478463
0.016492568182052674
-0.12154622359333489
0.06441298493457168
-0.6601430452862282
-0.030219124577281667
-0.0944640890865699
0.07542448823351107
0.25493353330232194
0.16163276480093441
-0.26737429736655305
0.29544271740482275
-0.2045770278329918
-0.04133103281858937
0.09851361530694494
-0.09075083915588154
0.17104372026316708
0.1027946354231573
-0.17188864783617377
-0.2872310552844737
-1.3193499978706622
-0.1610523585799419
-0.1714776688161261
-0.4227930956321305
-0.12175382932805393
0.060967416993545354
-0.14144356486167747
0.017935965895273707
0.06359605127256446
0.001121777802120722
-0.13695244181908195
0.012290656759972585
-0.22462173910331282
0.1052122115663423
-0.0019692611323714315
0.13075400907858614
-0.12352826219091921
-0.10349194760278162
0.012415274110174858
-0.07419947713206461
0.07261868343932718
0.026115245296779218
-0.1750580383728047
-0.15517839373829714
-0.17000177761611499
0.17260160724729073
0.2470410401909353
-0.38401131328537463
-0.4887307794744802
0.02911641710470876
-0.12436142185442021
-0.006016084025919132
0.15349171171863474
-0.13738057488360197
0.439938706456703
-0.07920460948259593
0.04705852700169377
-0.013926522319198305
-0.1702395797685775
-0.3965099339735003
0.1717692431554848
-0.2655346933653471
0.17666214425576035
-0.09210428347634388
0.11105151629804379
0.08398861796523772
-0.19770751492135744
-0.4680034734565426
0.07893087514307404
0.2083630010194429
-0.08699326834158799
0.6557845873227902
-0.09616051553450486
-0.04970886217228985
0.1346654549041162
-0.07913088641984316
-0.4056664681433689
0.11154507922618252
0.017643167443086832
0.18090633830421707
0.11404476537574898
-0.05103289296937602
-0.07506352074892314
-0.6580721872586649
-0.40736645875805466
-0.10023167099246988
0.14925338317806022
-0.35670333275119565
0.3491260474353731
-0.08982760909069609
0.14606562535435216
0.016933462373231137
0.4032806788650557
0.14771407296364514
-0.04946645739433987
0.4360137887544983
0.11510641161485424
-0.01560888691123965
-0.04811328962762263
-0.04376579418755128
0.04675166841647274
-0.011581762124913077
0.050077987143219566
-0.015528788621400374
-0.00531745176142517
-0.013240111627496914
0.17754200669566494
-0.11027626412293044
0.1388145357028883
0.07891537775208435
-0.23061332095217268
-0.24783038251307424
0.17255468102368474
0.07783791431434903
-0.6166149749416364
-0.6086180237517952
-0.3970889327319787
0.047890535482811226
-0.25790514617290783
0.4179059972774916
0.25364103273652294
-0.1068606623482811
-0.04152488394109784
0.06822675305225358
0.01769144582212344
-0.029223319396604736
0.18034391531323019
0.14238800300982074
-0.02455490485168352
0.12125927286956564
0.02432117000398074
-0.03909272211183333
0.2982232438182044
-0.08788726371996985
0.1672133976579236
0.18111554123124285
-0.0015168317720669925
-0.038481163902642175
0.07806039631250307
-0.5166717970833632
-0.7078419130245877
-0.27553509654548825
0.024473980784174176
-0.2877930636817411
-0.004699975442636259
-0.07686575385410745
-0.05921791586325675
0.20171652039223445
-0.1701546902545718
-0.09015254245186807
0.04346587054054772
-0.40595963566795856
-0.1369213653142419
0.13708979921782172
0.22079010351571854
0.29912081274688523
0.22564523894362773
0.028651064025030797
-0.11763435681062792
0.04078663596394401
0.00927148199290137
0.09405797087490328
-0.19031007314955886
-0.3248810650843842
-0.24472029083712443
-0.13588286041800146
-0.1687733650649739
0.07787235017289278
0.04541827827969452
0.013515041345901823
-0.38575023013527787
0.03273943588483482
-0.356167104369814
0.04518166414934216
0.12271762252219796
0.23518992520003126
0.2577440250847016
0.14977738483702324
-0.07517021439448934
0.23986874326937335
-0.03600627047315387
-0.008921120500270253
0.14640633339313494
0.0862327618987735
-0.10469997990625872
-0.0949636755803755
-0.21184419397295562
0.24907678431916988
-0.31080634611982866
0.21445987773079186
0.0969328517860547
-0.7806110580137943
0.03259401863264648
-0.17445057044583875
0.10279201439520749
-0.19186275660157331
-0.19429925227452946
-0.004349642613381317
-0.25229320117022763
0.20169967655867665
0.6352545735974172
0.1773266893017371
7.809986862484185E-4
-0.1436252075991858
-0.6277425412643071
-0.010467350910142779
0.06461795295205273
-0.34666906884782694
0.21650592104020022
0.0792534333600629
-0.9913189894823599
-0.14826951405213312
-0.3596869117646105
-0.33172619709773454
-0.3405189183097113
-0.53134283449322
0.27490367237744306
-0.04979265056389662
0.10205910964811528
0.015054102260476761
-0.0015604262597299296
0.07170115267089479
-0.7851204812911564
-0.4160040424850388
0.10246238071140147
0.020744335177318888
0.041472308333041275
-0.13982560890873597
-0.05505780157018176
-0.08938104715613054
-0.4026625380091863
-0.13303449909021622
-0.03839478646896857
0.029682094265717038
0.3408671854452914
0.1224843414861877
0.04218149066345721
0.2820488472744037
0.17845274740841122
-0.24917207110483483
0.1391196377565583
-0.03835554979519349
0.010374674780889334
0.13745136794348883
-0.0505876838141453
0.0710177035540747
0.0010830687934576962
-0.021976285667260897
-0.9586822707009236
-0.5538479726062538
0.026632244110331982
0.10362487190353561
-0.21019698941335918
0.09827533944747016
0.00461460853255965
-0.14544797244133337
0.03375146881700082
0.05619386195098097
0.32135050645494184
-0.048863773260998784
-0.573826457023569
0.057486373547326136
-0.3077665001408476
-0.052418449431744334
-0.07686049512085134
0.04208506476629876
-0.2628600412422145
0.006885069412905392
0.14911363072427164
0.05010473549473669
-0.3118001964403003
0.04910516822906038
0.1089231212007527
-0.06139466902795681
-0.22139023248208223
-0.0641961814642455
0.06327302852415342
0.002873759316217604
-0.03575490615452848
-0.043988355858154256
0.01791551762077982
0.04060647031806682
0.022208232476056522
0.06468599671879458
-0.4407034459734003
0.07920433301049176
0.06055972456872415
0.03939748050897481
-0.0563535113218678
-0.04376116449359942
0.027689119886100236
-0.13746204381721913
0.144832872722488
0.07377261716458326
-0.19071889766302091
-0.5889215491437149
-0.3721523740020995
0.07464288551705736
-0.18454554147029806
0.2138736902749375
0.266199239612182
0.13469755254888113
-0.31341207984598746
-0.10263339055505752
0.013267692545057054
0.07331356230847792
0.14336096463285375
0.15372070764510243
-0.5912921969970176
-0.31243543218628084
-0.1431652017640664
-0.713100602491656
-0.1702598970413459
-0.0012803490668272996
-0.3731385513270273
0.14972687494573217
-0.05638960874585937
0.071884302513018
-0.08705548186303613
-0.31702111076715395
0.13861719417138874
0.035442685776346766
0.01574618540689199
-0.8095660008416934
0.07654251760782348
-0.06653253952005038
0.11589906997233813
0.036569779703072694
-0.5062489632903386
-0.019280066328717323
0.16702540853796663
-0.027933542720431317
-0.011684954150384525
0.18724010119905765
-0.1425637964395362
-0.2844558858665972
0.025118289900340294
0.03183309370823813
-0.15321536674410502
0.11983461669260619
-0.0981945491531541
0.07384935474435064
-0.22576520784610762
0.0047959474822198925
-0.26800048542488997
0.024883056599859434
-0.08454147078920968
-0.01430555367186173
-0.195431694166403
-0.03070790903415076
0.09754652658032341
-0.0748874225406054
-0.10086864662716533
0.060454489917153124
0.1836179873655256
0.07343084867576266
0.14615231841101461
0.31230346957678756
-0.019452115600339725
0.020969383587504557
0.2558021597005795
0.02902113108342157
-0.049074541274525305
0.016607294810509404
-0.040686481110493625
0.08658682892791658
-0.4681394815679014
-0.10452142611256081
-0.22291703669366905
0.037555292625127835
-0.14859401607492392
-0.02112701240889824
0.1932003916575483
0.08786326953322271
0.02663741316301568
-0.13903845503300108
-0.27982289400504023
-0.429325896436879
-0.20664938001247884
0.543313232458661
-0.37341026366039176
0.13242395584474156
0.3924321846612335
0.21756711728679495
-0.14425403294673542
0.0279006205252855
-0.00630946640862745
0.19689557603145533
0.04790298331169469
-0.08877007400103498
-0.19909152546806796
0.18309268627249758
0.005735789550262641
-0.09108787971743595
-0.19623336703424007
-0.5829120375779195
-0.20602329885945034
-0.06755924301975622
-0.4132219476241199
-0.08544838020511834
0.23977257945024513
0.053979781328009055
-0.6335699531667214
-0.19887551039916967
-1.6269920466732957
-0.43386967233105883
-0.019982479431797283
0.0660207719425444
0.14340273103145468
-0.06109462436848622
0.07384304008532644
0.1061176739679777
0.054386275047691286
-0.02599688593149321
-0.18027173266765667
0.13040122824104863
0.046256644559564235
-0.04179214328928308
-0.03540119253539317
-0.06721173139499892
-0.8023072383179177
-0.0511827805225427
-0.5981601300591601
0.08625297652513585
0.00900952856890033
0.036474016440598375
-0.4659646075444995
-0.27798801299460335
-0.17281754109422875
0.0802029340924922
0.3270184801089158
-0.23572461009540888
0.24161779494417154
-0.3351227238663176
0.5815584141287371
-0.002084812251927255
-0.7443843240634375
-0.13526129736414277
0.349116726508981
-0.23569781798978243
-0.2845505062974393
-0.013189977050381338
-0.3683646920138076
-0.49115704965118306
0.08238595264836607
-0.07212337606633223
0.056569390158322304
0.1674963586348487
-0.14135098660013223
-0.30234176785685535
-0.18045667298305684
0.23959345243334196
0.10965863777836965
0.10531933010621641
0.22389521720667885
0.2141745740747455
-0.04202664459874376
-0.06464214354346054
0.23225411164340795
-0.22829513141456995
-0.697914677220976
0.11325656410695728
-0.1443173213036206
0.09639180662970218
0.04715549133757782
-0.2858552162510955
0.04666411677495056
0.22695276549406962
-0.5555181785646932
0.14503350261832712
0.07606856882051498
0.22049328429236167
0.19174414827068645
-0.2012245340343452
-0.6555093015352041
-0.17860875064998905
-0.4964236351570581
-0.19827563715686905
0.1727462419245932
-0.5320083916957569
-1.1059387499517541
0.07691188534804107
-0.3264783988191955
-0.04932873546355211
-0.22712229625231037
0.024832365264444118
-0.2244860659182653
0.04427244219626554
-0.4527752006921056
0.11521898912215034
0.2849992839822864
-0.10084645274961351
0.18555996802783417
-1.461290220156221
0.03776721810204756
-0.6130242925554216
0.2775564582756865
-0.2960430452950324
-0.030929216335065332
-0.486225557529645
-0.047990580570859684
-1.2540262341305408
-0.5805433321984923
0.2916246655614689
-0.9898109715516603
-0.10046434973739034
0.06641232292276869
0.05024316780228114
-0.030030939185491535
-0.044638047519205644
0.10406311457619442
-0.035849824504738705
0.025508399193143693
0.16122116433841507
-0.026906613428965966
-0.07349523920119157
-0.05209716084878412
-0.012800313773489209
-0.13047536866056236
0.024485424820965735
0.0120675370133446
0.10424060048510674
0.05232173473662528
-0.08112845760264414
-0.09943537711301273
0.22249274406559552
0.06226511113399916
0.06573232515768779
-0.12970922450750008
-0.003446104400594878
-0.09707907912899097
-0.20774716748061978
-0.172112973351464
-0.040967181251080786
0.052871446463283026
0.08080908701001842
0.03697077565367146
0.019768271706054517
0.07235739929648859
-0.2527105783894544
0.09521228684689559
-0.002923833568913231
-0.09504462258338836
0.13996730810131555
0.15846679192919488
0.13054570152827047
-0.09980319188668857
-0.28833382892516635
0.11282679943097008
-0.41477970083006566
0.10065139865343531
0.040739575706593374
-6.3294238327508E-4
-0.1659302053696737
0.33646892639673337
-0.21280025665935232
-0.21243892797630273
0.22952813854933904
0.15601049993722516
-0.09460985203469037
0.21474005174559813
-0.12432771805974371
-0.5095845835382259
0.07447724813891388
0.1815034091692767
0.11246353478843298
0.3180252767221718
0.07218929910081494
-0.35345733128499124
-0.7350700441640022
0.18595285069702122
0.10363386183288556
-0.1240305680493523
-0.20727473983285144
0.05955975260543745
-0.9093151775691775
0.2530336074477647
-0.17480241796596604
-0.33137642186313415
0.12342161273197894
0.1024581805385036
-0.724738333526461
-0.8722269482105183
-0.0140548185964037
0.03866618460578037
-0.022122374091213395
0.12842489056228193
-0.09351262519725136
0.01454402325514319
0.032475149015701775
-0.2187108316380106
0.020313247185044424
-0.02464343161886785
-0.06263637517952152
0.1661305410096285
-0.1834739607257351
-0.5442086464073098
-0.0018698261224076708
-0.013736872577775696
-0.02696748603785194
0.09310409319701003
-0.03392825966689185
-0.06117954817254575
0.017191099921405804
0.03942048152992075
0.10596668766617816
0.03824925957381515
0.09247110193627579
-0.25676293406932665
-0.13886207049701296
-0.03715866633965985
-0.014162508854713917
0.03623464296479799
-0.06637449329417866
0.0750186964355623
0.0729565565020615
0.1795698835244773
-0.0271803202629341
-0.02960314082606695
-0.14253484598629046
-0.08650567844029304
-0.06550163008584921
0.11179803406132886
-0.12269710009673641
0.037445121204242614
-0.0962806377943733
0.020039702703418427
0.04777553252554085
0.06050583440282363
-0.14474570530476744
-0.3172794872202359
-0.03552976930654074
0.015622053431841405
-0.0624635937894354
0.1305998753575316
-0.0012302598815877126
-0.26669875028054013
-0.022446584715010424
-0.2795058373030372
0.11239564594111048
-0.01807871179584526
-0.02737924241845848
0.033175541096592404
-0.37614882573006103
-0.45565060981742034
-0.23062317736593832
0.27515001295281194
-0.8172681515986652
-0.014032887710933814
0.13934880363505808
0.08966014510231134
0.2036744492001155
-0.09971919159260212
0.3030598791078298
-0.49506175216098713
0.2436150752594936
-0.05188983228537539
0.1818245122688889
-0.709840281792124
-0.9703161131938809
-0.02336337740508275
0.7407035603154096
0.08360785545873275
0.13943565188842064
0.13820569609782618
-0.10545192067058866
-0.718784282596949
-0.17066232444158644
0.3309668395853807
0.03498614536380872
0.2908663325718317
-0.11004147266306084
-1.1472090259178787
-0.23624877563431912
0.2654317901040499
0.04591598230103784
0.04345406508257584
-0.12143369576271662
0.0652454623783008
0.07599979567183239
-0.02627026961106798
-0.09715190041697266
0.009560438963013895
-0.023470848758782848
-0.05500878351855649
0.0016839763826800745
-0.05544913170464878
-0.8518309678464228
-0.27466930646485016
-0.016500255189237045
-0.014675671571135543
-0.012490365272460056
0.04756127026359263
0.06942936397414631
-0.23957328154653212
-0.03954036358584949
-0.6556159761560109
0.0719401452726866
0.06379318395761065
0.0700200802348966
-0.025570502699212325
0.17216856594827026
-0.19555805938612203
-0.005522575632652875
-0.022944427044634935
0.009937449208790309
-0.0800089501547124
0.047635204907571
-0.18829253002104257
0.14082762052479836
0.20785484816087516
0.2656177944400358
0.14031344007683696
0.25618381063510326
-0.2102617107720558
0.0883007792058441
0.18174305852428474
-0.04039402951345081
-0.23751761266827037
-0.13503601330838985
0.050668231593972365
0.15551661541843032
-0.06048401028965401
-0.8597252575918903
0.17185627806427914
-0.06143907554515512
0.3633398264550215
-0.08893941082641578
-0.10542098387027697
0.10773067012273022
0.12827429786733147
-0.4231195254419302
-0.13578761500365735
0.03770832931526206
-0.040429875334821584
-0.08657647021193941
-0.15795521504745166
0.33164222875777094
0.13951180340385425
-0.03380548372994491
0.09761205966686085
0.013766298947960092
0.023024761902355792
-0.022974349682644973
0.010229630788367628
0.015496737785688395
0.014429630599346786
-0.13519734650341686
0.1099788528800956
-0.0071359814655501015
0.005683848965990236
0.03564191400956059
-0.16076397521524252
-0.08498328835450897
0.01622901404498742
-0.024611580851738046
0.10828312122520399
-0.16388171516315658
-0.12423400371976376
0.012777922199189513
0.10168309023388754
0.10692182408344965
0.12245058133605656
0.1459348885520685
-0.09727046874422686
-0.2853091883390992
0.18708344967635604
-0.010212491728492602
-0.035597911109953265
-0.030955818707997483
-0.5606555391154248
0.02654713160717169
0.29398800280256265
0.17777697466261
0.09477210137626782
-0.07956812840257567
-0.06912582156326563
-0.18500514664762038
0.49271669826687203
-0.029135757546492648
0.07329408002086003
-0.015591893297575873
-0.005808426048090144
0.03612447969602756
-0.03015111266811002
0.02578284315661511
0.07674123905902716
-0.01000063163042334
0.006763774524246067
-0.048330347257258786
-0.05161783226979697
-0.20765643263912892
0.10628516576651284
0.032708033456763916
0.13133567180825323
-0.012403678931760361
-0.06581079593533641
-0.05892508284878081
0.056152930696889515
0.07044896831839831
0.09263942576725505
0.07891674861762364
-0.023596235656658658
0.015493978913516301
0.18661997529449445
-0.5446585205867172
0.03906054197652131
0.39214387985995464
0.10057046134613387
0.01681762045361431
-0.005213602159580905
-0.16107806963438354
0.3400960236057681
0.6584929975109309
-0.7356287222903657
-0.582428768115311
0.3657336347794959
0.7198814865931058
0.16150163339279197
0.007702231172103706
-0.054810419544399296
-0.23267316701489654
0.033885256677062936
0.0465636124546263
0.24828097502356028
-0.0705992028634833
-0.8176705633055183
0.141996115664542
0.07166003604906479
-0.2237785573683482
0.6057921946799699
-0.3273275789083892
0.0970762934073023
-0.16624574671616946
-0.2082915278963329
0.057144154068024464
0.11895653666268813
-0.6388274306264587
0.1237842528833595
-0.3472777320465749
-0.4994850799542612
0.06421788893891556
0.13392709733965494
-0.07406644829534868
0.05234950200760105
-0.004946081390361488
-0.06576264411884912
0.09677311587761168
0.0015986107205474645
-0.025782900152999746
-0.012136218946351635
0.11058374497536874
0.01147254914108299
-0.048546711040930175
0.047284725934371434
-0.20516311019029398
-0.2934312369160293
-0.1636278305725328
-0.1448677928204046
-0.19348335575018816
-0.05179303046540167
0.012079719863051614
0.08025958061314814
0.2908103280135492
0.0998362896461812
0.12405583991816435
0.1676747772444279
0.07496098014788899
-0.4374967965123632
-0.1988368963135263
-0.5069730875959652
-0.11885629591538135
-0.6205494315197704
-0.10272705553299226
0.24858211052595972
0.021697237065203927
-0.09191294577801887
-0.42340397961400866
-0.6604059787727852
-0.19821664136228365
0.10999410276359269
-0.052280405933989034
-0.23778735175974583
0.03774752551105342
-0.017760664091273304
0.11631792427509914
-0.04327659997874626
-0.04912136342117998
-0.002632987171027711
0.07441883291242664
0.05449951012704636
-0.09929657017504762
0.08089830063247715
0.06324440165579329
-0.0174736531764178
-0.3233498732463611
-0.08675616229006695
0.023612140834339015
0.07697080067752535
0.035426746554643694
-0.4412799635239534
0.08639117432237835
0.08974513604539144
-0.3213091614045175
-0.1442476983142204
-0.010248016036249889
-0.1579455571443499
-0.23300312721047658
0.052217418792681373
0.010960146362589594
-0.017242629213717206
0.07046199554307145
-0.017152720780020073
-0.18002715119065565
0.006693035465738985
0.08795934476425875
-0.04786416073978468
0.06585373925805739
0.14842906731135797
0.09242934143324996
0.08250268852324703
-0.29149773766233217
0.049351314023806575
0.026173694563167108
-0.5798895174249943
0.0032046682831544764
0.08508383068334864
-0.08129503966818702
-0.115326929436382
-0.5511277696644474
-0.7604940701424729
-0.0017434010406476765
0.23788818493988187
-0.671462530280179
0.5114821721628035
-0.31096371964192177
-0.08476533943930499
0.0725198557952119
0.17491126565807635
-0.06308816822321019
-0.05575140300677973
0.07533305329017388
-0.14622445400473055
0.014277609486974489
0.023110728451307235
0.09075418478222046
0.1114575121509023
-0.2546502699790559
-0.0402903754117922
0.0745082271064024
0.01539640080978586
0.004434530488903443
0.0019287186168973538
0.007938550703260584
-0.17165934576243125
-0.06469106830947273
-0.1125266849356767
0.016820645251384644
-0.046217954489018186
-0.006004174157024148
0.15411177717164404
0.2318183008594872
0.0514691358259083
-0.29927393472283514
-0.015620195323357832
0.10238221038777459
-1.599638160690698
-0.023306318357780506
0.5160867823986918
-0.13058256401700194
0.542340918809295
-0.16677092678762154
-0.07705758251865974
-0.3982338299437368
0.2628964809571815
0.4643165774501967
-0.04673769310685142
0.026228507132098372
0.05569814999227113
-0.03125261234147895
-0.06869154825288898
0.07138164710765156
0.006531223014618857
0.05248208436016249
-0.07013387293273303
-0.0416830427575985
-0.023867073265181157
-0.3088687771097612
-0.7031016555537022
0.09560375855910576
0.07843737340440596
-0.051824109088224386
0.03013810396619833
0.04029662491514693
-0.006901585664194409
-0.011524205050533127
0.0569376747450889
-0.05978584115993775
0.050405150175721475
0.09980981361647955
-0.034261175014206696
0.18292063242589654
0.2329781573988242
-0.46048443064068056
0.02056957834723404
0.0343456620763324
0.15412766988480547
-0.04665924328472775
-0.13756425953322585
-0.10661181162483063
0.06379559788400058
0.08803318462810503
-0.039767148013696345
0.08328433968213791
0.052495578683556504
0.05176794910153625
0.029598330989798246
-0.10796587320038212
0.10169018374141485
0.041644902942891054
-0.3960732576186727
-0.09570261538402976
0.09164335375748936
0.012774648239123446
-0.10229162790417066
0.05376317044789934
-0.6802577893258801
-0.0854751599631698
0.09298348223218426
0.06309734341971351
0.0906953734942885
0.0018060466970193604
0.029747401632936304
0.0013238802348481814
0.053658656378302735
0.018774496385516603
-0.0073919052830214394
0.06073999001538754
-0.04020440727795539
-0.08656612858886692
-0.11503735812733715
-0.01840606717288677
-0.10319084756396459
0.011027675782090898
-0.282197494985747
-0.33801298370988814
-0.3063268115135216
0.01618533303408456
0.005069843740923404
-0.08746853329957867
0.007335672576898866
0.08960656030591864
-0.00415786162247931
0.08403289579394814
0.042932685478818004
-0.0859431262638673
0.01080497194287443
0.07949878097011502
-0.6205089149628741
-0.2295913209263901
-0.5053109275194212
0.026446739017203527
-0.12048423823153158
0.0326649500958701
-0.00894407807621793
0.12403602560197116
-0.2127261349730242
-0.09382990122820009
-0.3005530080008304
-0.033118142872859246
-4.075846616390045E-4
-0.08777978473800825
-0.7665576781951312
-0.40606783144968844
-0.07677220764374545
0.011146898735711314
0.06280828756388589
0.030098590317257843
-0.08456610370737026
-0.014123175562020602
-0.08486038351546289
0.1385322711476701
0.07691701886074427
-0.0031418104191135825
0.06633020846536902
-0.14878933906117636
0.21108774307774014
-0.02968621114901685
-0.12105862710108357
0.012587813866499785
-0.02012513413184715
0.09590552512036973
-0.07372186244395765
-0.016551896722526643
0.1047824058584331
-0.15646530981538598
-0.012656018061624119
0.1295882963583169
-0.04684523632208576
-0.030243851904111906
-0.10168146460139121
0.15475820892094536
-0.0056313892433008895
0.018368304071422228
0.06273479024604037
0.07310962672867752
-0.0292494147458551
0.005952789621718977
-0.02901190843916623
-0.12225652947954406
0.029645346309496088
-0.043609240886369284
-0.05136405501320286
0.009443090792171085
-0.4011577808424713
-0.5167240467773379
-0.03566875924774036
0.060574829084785224
0.0013417670203020211
-0.03442859306502179
-0.04575039806075003
0.045072314304000174
-0.03070280369035389
0.0013210995603322835
0.0015987262066950263
-0.016892572144126382
-0.013172151426353172
-0.04161264203089102
-0.1592344650571004
-0.47429665951056876
-0.2528898272297202
0.1027248473466451
0.07521183028416195
-0.059069290452657165
-0.022805398880401864
0.05414595924912651
-0.002866081396945386
-0.2934011934069129
0.15588794613218077
-0.08471773121721497
-0.22201225009553383
-0.3704156585359716
-0.0270847041887879
0.24240609051376136
-0.07548973574135161
0.026183533062768667
0.2635508134571729
-0.11772039927290635
-0.526062373286192
-0.30859985167207016
0.2839530414084887
0.04822517859015632
0.22071136389830803
-0.04858306029636407
-0.03790224184436409
0.19769261139572103
0.3714615537512167
0.34798999679223025
-0.06965658417079963
-0.05207946631756673
0.08084801577159557
0.046227059047957465
-0.40540720700495847
0.01489452866792783
0.12234939422789673
0.010570693621216659
0.17789068806198305
0.17025173201491925
-0.19114449505712652
-0.11990559530494932
-0.09869611390880749
0.5307177143071001
-0.013445912418109036
0.06363406825196656
-0.017874446073220127
0.010546094148356921
-0.3199285292543931
0.08730150285652738
0.12657262930246077
-0.24672835564839346
-0.0810049409236746
-0.019102138757775947
-0.7044028492927402
0.09132500136125472
0.35486929922180066
0.13939496130945364
-0.3119541633696165
0.15345177610899258
-0.12229964845234685
-0.06051184661180025
0.04415680844764305
0.028469640714191807
0.06017689266419237
-0.13943002157445986
0.05274306124925742
-0.09060649242672564
-0.14191693386131218
-0.39519994949898474
0.4018056245684618
0.6798788948179834
-0.030149070829917364
0.04465892732736917
0.03341756448806781
-0.08592108239885844
0.059987469814358166
0.04702565928559829
0.028075876578015864
0.014545805715839862
-0.10848038676357198
-0.07075080548748668
-0.06323626382906654
-0.04261901775711696
-0.18653341994313313
-0.6511084639725772
-0.13936794548894588
0.07903169178439758
-0.0755848177174045
0.03339662581837554
-0.005065776333603085
0.09075052907933774
-0.15948106386039204
-0.15653219296314108
-0.1422237403363576
-0.1104995530071993
-0.05846914030709128
-0.16291552965304065
-0.4528688809087075
-0.7814179967843723
-0.13754022692843074
0.07950441943585167
-0.0743259703574047
0.030131286995336144
-0.005062119696230215
0.09090153889203753
-0.15655776130650295
-0.15574552515086595
-0.1418358876529991
-0.10957318689897258
-0.05788624196189019
-0.16163383855578228
-0.4488906482364109
-0.7796867364827348
-0.05985699238654408
0.03158579370715719
-0.050088418751828644
-0.0022726484167793354
0.01660822271651122
0.0595661256686099
-0.07119135180397296
-0.0740547848371457
0.01465898247712529
-0.03567812314459837
-0.01131962364014413
-0.10507329844630077
-0.3669019184315169
-0.725080975522903
0.041007663193724044
0.03296540304223529
-0.002445347557626265
0.013761748474185948
-0.01581647962498195
0.04953636111905659
-0.005665128045021358
-0.190070961661385
-3.504780142811311E-4
-0.07016404083545585
-0.01885487808539296
-0.010886228942033995
-0.6393795666212645
-0.7708233103088546
0.09526867171556261
0.04477000642948496
0.036490232914318695
0.01680348717099395
-0.11261307624390744
0.03369795110831214
-0.12195596407874691
0.012525184842559533
-0.043532246793439686
-0.09553400915280444
0.035370443791423706
-0.08483017542552697
-0.002499010224621442
-0.3063888042702256
0.20070534756853406
-0.11605901524544163
0.05461242569330429
-0.09039388869705599
-0.004469491188991874
-0.020584025736914178
-0.19874076881534622
0.1044885008848084
-0.5667239530961964
0.3486930343849556
0.0054775813608717045
0.11277993552105046
-0.1272994265425677
0.5217926302268375
-0.3873208722190617
-0.1732680836316624
-0.04856421228650423
0.055546006762078354
0.14272760745943563
0.03473505131068299
-0.16834034256503158
0.17519283970734895
-0.37554668131659413
-0.03252508477719612
-0.11136680527290634
-0.2869014534389232
0.5813048008722699
0.5262890902238202
-0.37146664011156416
0.009642487302269707
0.01576985687516338
0.0027691048037392085
-0.01278069820187214
0.13920647815623535
-0.06798553921860477
-0.13031517024299397
-0.10930232306500023
-0.20151217262068294
-0.007000947788523976
-2.3352859604568206
-0.09846994696833655
-0.724064187385733
-0.2588856063137354
0.0707923452755841
-0.16830482505972777
-0.02167818548177419
0.07551381996930372
0.11664182475272397
-0.2504083527873544
-0.3375017439618484
0.0033811033307983226
0.08390037778815668
-0.44555351787005637
-0.03318863135295303
-0.581348917128725
-0.19737325219749347
-0.16346302847124608
-0.07906390561191773
0.0902019507123662
0.1463923362074451
0.08996148036477354
-0.09364016718114203
-0.1771497022778513
-0.00866746338288299
-0.04405161391830837
0.0015826021543111162
0.046073226211174066
-0.11240141671655349
0.4346968526846794
0.2681530039804646
0.05267322587053068
0.02248976553623366
0.07486128995846923
-0.0452112739139747
-0.016935513741378815
0.004308072251706659
0.035753532786543495
0.12601497982247256
-0.047859725066716916
-0.0031879815101425067
-0.006602068671211215
-0.03781455019204446
-0.05817736791357331
-0.1367494576918364
-0.13682912434452785
0.07979076679602631
-0.07873373760233722
0.030360376541627352
-0.004914583446671373
0.09125626846190797
-0.15631461620088782
-0.1554689406350974
-0.14127059319189195
-0.10932619156999071
-0.057695102322672755
-0.16140178250968
-0.44819279659034506
-0.7795259985943055
-0.08382651292431009
0.05820055192572838
-0.0628570971172808
0.023713519992985516
0.015332130314455303
0.046883522995948584
-0.08059985687025756
-0.1232514857181734
-0.018515057166562817
-0.020356006120004735
-0.04884376030420485
-0.11368612782458277
-0.540872179811659
-0.4041771017740888
0.17533239198408734
0.007111504868452557
-0.13861504497538046
-0.07318218673062757
0.10686595820403784
0.023321287345542827
-0.05112233409255519
0.07723284744281478
-0.2821812347519605
0.19215785772550592
-0.16321207677274038
-0.7814639898098709
0.2202450953434758
0.1461926567704672
-0.08461971452058045
0.06255990039043575
-0.056667506623028704
0.0468610328417382
0.007240379632911822
0.053307326681679125
-0.1060405079538036
-0.13343980351611126
-0.07096394957948456
-0.06986491951408633
-0.053971354237281624
-0.10824696822127709
-0.446988760442946
-0.5682085631305684
-0.1314235712163767
0.06975355829709864
-0.07417864637512973
0.013623658403279797
0.010181329285595371
0.07462944995980475
-0.12603931806631152
-0.13160342018230006
-0.07952117855773168
-0.0586229168294358
-0.04874989849002553
-0.1548829752153018
-0.470220837067214
-0.5738757297983008
-0.36981294112409535
-0.05602133377505789
0.0672090450294924
0.056714137561332686
0.17255140022550694
0.0727740497450713
-0.5041379376195348
-0.2279530183182608
-0.06212980485839978
-0.27747050173180987
-0.027815800646251665
0.34540048661110745
0.657858626523635
-0.011762419294287015
0.20940863844284424
0.1387678396946801
0.0188416947096322
-0.3546749140001518
0.020453049445905692
-0.785347652564253
-0.3866131776160824
-0.5975267269229444
-0.022448832417959412
-0.3512088726330543
0.05133539083286803
1.024144238955885
0.28129359484158406
-0.06751660117449201
0.16228351611646735
0.023402094307184314
-0.12578990466169465
-0.0016539656140002234
-0.015755502980469852
-0.0015070533395571029
-0.021424653226665206
0.17876330881162186
-0.2619328893031767
0.004704528111195163
0.2115043682071224
-0.6897916822178228
-0.07689835974318775
0.15432982976728962
0.029911094976232813
-0.10430932448507885
-0.013212310291095349
-0.15003047419884755
0.032923458358058676
0.12341209801529918
-0.2487961375052023
0.07544256852383563
0.35123581399362724
0.9686122443362173
0.1546181684362338
-0.13560241656590055
0.1169302789026038
0.14542194760073401
-0.41412999989998756
0.0595768554882059
-0.1546834841050817
0.04714774324217786
0.022990951838492868
-0.11188543585811274
0.20587026647897694
-0.1901360818875036
0.7206522399250374
-0.007907453256786604
0.20068718463734583
0.1255159011627875
0.09571285027891657
-0.7265756889075821
-0.3064767226274072
0.34192700263970327
0.3942207523715178
-0.5544094349169154
-0.2478687954385915
-0.2820965367670646
0.9078055226631944
0.2458431994207611
0.07208106830827166
0.28909204316846493
-0.0914181981853759
-0.31419741851500527
-0.1368584531062942
0.2102482393069214
-0.30308265115352656
0.24364759934423347
0.14284987478354308
-0.09272375657949862
0.23364674492585036
0.21775127224436816
0.017358142274407823
0.020866724224262972
-0.1740936295651031
0.035422662498507416
0.07414626125982948
-0.4082316747419368
-0.35744391917869905
-0.5674313323401998
0.34179050458350135
-0.16023485583814925
0.6035537929519484
-0.31767428178389573
0.07243767025464394
-0.13734436934146751
-0.09405272404941821
0.03763348453042644
0.1351745178521524
-0.13031572030328387
-0.01824148125461034
-0.10389570650870898
0.014801494064506312
-0.2499950271411618
-0.26173975235767594
-0.21968289314196227
0.5773772930914894
0.25413797335693256
-0.14055241999286336
-0.3264108286047205
-0.4428136072660537
-0.06410574393870463
-0.14800520568166126
0.10282965066920245
-0.4419072431661468
-0.5943035115747916
0.16488259691406537
0.5238101434208932
-0.14177462002802044
-0.0826545502770231
-0.14668652682029626
-0.24944847508381945
0.28945726525740945
0.24288097244415957
-0.1756951845792392
0.20515870375580852
0.6660484368211945
-0.7211323577935349
0.37527965527125423
-0.056540130577852954
-0.10289030485601959
0.013883324588591667
-0.15529259154035094
0.2944976775967714
0.20280562538041635
0.1297717664799513
0.12513952956554905
0.154912577733734
-0.004882732483050078
0.18318902584303026
-0.1690652774942064
-0.5148293249997976
0.32162480996233966
0.3562621311357097
-0.2829084588537631
0.20599831512534833
-0.4529186831463927
-0.12783811242141488
-0.10649768133410951
0.29821628849725695
-0.3654148406191978
0.2708377927892068
-0.37599660712992145
-0.35488011057675295
-0.23340272209525603
-0.08101361988802122
0.7788111497264674
0.47996528218056805
-0.16527777235789204
-0.4492383343032702
0.3717944066012668
0.0436943881008853
0.23622720917997359
-0.29475370399394857
0.024904255146989053
0.05084665124813578
-0.19946046189589975
-0.7887489868095219
0.3983838120553589
-0.3614682312579124
0.3055390525479144
0.0039368612202776085
-0.018800683072764456
0.07858928070699746
0.26968335360981827
-0.1694354207503447
0.06256490073207739
0.2573611310119621
-0.4150643777384331
-0.01959754530922183
0.5963238838445554
-0.07581318148167208
0.11450073631358265
-0.6030485649651721
-0.15026958718606492
0.07994286396548532
0.6173610937508021
-0.025781352909407054
0.4220449275191813
-0.4752263170199419
-0.9474446142872521
0.0837775370405513
-0.21462925776383196
-0.052993303241913654
0.12472885403334706
0.05082617417603082
-0.49316190409807437
0.3293149324074639
-0.20782573796542594
0.07763021243398456
-0.01653224991611981
-0.41860012177995043
0.443938308493533
0.05531923783753058
-0.48840191724706106
-0.5110940929417848
0.15687189847317362
0.047729981143280184
0.32690443677390074
0.04009058116577781
0.28761191446772844
0.07474768482949758
0.07591021247804833
0.1400443079836628
-0.051259190344809594
-0.05863673400189384
-0.7167271475866624
0.1395563936756095
-0.04143559292046561
-0.07396305679891614
-0.3463661811671909
-0.8232076101252974
-0.11732327180015321
-1.1439373770656065
-0.11069771130932762
0.34838866330218177
-0.05629462740958995
-0.7214483585339398
-0.2736553110375608
-1.8364751667629264
-0.4782682729775972
-0.1417707167106671
0.21702583195733136
