GIS
1
0.0
15
Concession
Conjunction
Cause
Restatement
Temporal
Continuation
Reinforcement
Contrast
Instantiation
Background
Circumstance
NoRel
Alternative
Purpose
Exception
365
26 0
7 0 1
10 0 1 2 3 4 5 6 7 8 9 10
28 0 1 2 3 4 5 6 7 8 9 10 11
31 0 1 2 3 4 5 6 7 8 9 10 11 12
13 0 1 2 3 4 5 6 7 8 9 10 11 12 13
14 0 1 2 3 4 5 6 7 8 9 10 11 12 13 14
21 0 1 2 3 4 5 6 7 8 9 10 11 12 14
3 0 1 2 3 4 5 6 7 8 9 10 11 13
1 0 1 2 3 4 5 6 7 8 9 10 11 13 14
4 0 1 2 3 4 5 6 7 8 9 10 11 14
3 0 1 2 3 4 5 6 7 8 9 10 12
1 0 1 2 3 4 5 6 7 8 9 10 12 13
1 0 1 2 3 4 5 6 7 8 9 10 12 14
1 0 1 2 3 4 5 6 7 8 9 10 14
1 0 1 2 3 4 5 6 7 8 9 11
1 0 1 2 3 4 5 6 7 8 10 11
5 0 1 2 3 4 5 6 7 9 10
5 0 1 2 3 4 5 6 7 9 10 11
2 0 1 2 3 4 5 6 7 9 10 11 12
2 0 1 2 3 4 5 6 7 9 10 11 14
1 0 1 2 3 4 5 6 8 9 10 11
1 0 1 2 3 4 5 6 9
2 0 1 2 3 4 5 6 9 10 11
1 0 1 2 3 4 5 7 8 9
5 0 1 2 3 4 5 7 8 9 10
1 0 1 2 3 4 5 7 8 9 10 11 12
1 0 1 2 3 4 5 7 8 10
1 0 1 2 3 4 5 7 8 11
7 0 1 2 3 4 5 7 9 10
1 0 1 2 3 4 5 7 10
2 0 1 2 3 4 5 9
1 0 1 2 3 4 7 9
1 0 1 2 3 5 6 7 8 9 10
1 0 1 2 3 5 6 7 8 9 10 11
1 0 1 2 3 5 6 7 8 9 12
1 0 1 2 3 5 6 7 9
1 0 1 2 3 5 6 7 9 10 11
1 0 1 2 3 5 6 7 10
1 0 1 2 3 5 6 8 9
1 0 1 2 3 5 6 8 9 10 11
2 0 1 2 3 5 6 8 9 11
1 0 1 2 3 5 6 8 10
1 0 1 2 3 5 6 9
1 0 1 2 3 5 7 8
1 0 1 2 3 5 7 8 9
2 0 1 2 3 5 7 8 9 10
1 0 1 2 3 5 7 9 10 11
1 0 1 2 3 5 8
1 0 1 2 3 6
1 0 1 2 3 7 8 10 11
1 0 1 2 4 5 6 7 10
1 0 1 2 5 6
1 0 1 2 5 9
1 0 1 2 9
1 0 1 3
2 0 1 3 4 5 6 7 8 9 10
2 0 1 3 4 5 6 7 10
1 0 1 3 4 5 6 8 10
2 0 1 3 4 5 6 9 10
2 0 1 3 4 5 7 9
2 0 1 3 4 5 7 10
1 0 1 3 4 5 10
2 0 1 3 5
1 0 1 3 5 7 9 10
1 0 1 3 5 9
1 0 1 3 5 10
1 0 1 3 7 10
2 0 1 4 5
1 0 1 4 5 6
1 0 1 4 5 6 8
1 0 1 4 5 9
1 0 1 4 5 10
1 0 1 5
1 0 1 5 6 7 8
1 0 1 5 6 9 10
1 0 1 5 7 8
1 0 1 5 7 8 10
1 0 1 5 9
1 0 1 12
1 0 2
1 0 2 3
1 0 2 3 4 5 10
1 0 2 3 4 5 10 11
1 0 2 3 5 6 10 11
1 0 2 3 5 7 9 10
1 0 2 3 10
1 0 2 4 10
1 0 2 5
1 0 2 5 6 7 9
1 0 2 5 6 8
1 0 2 5 6 9 10 11
1 0 2 10
1 0 2 11
1 0 3
1 0 3 4 5 8
1 0 3 5
1 0 3 8 10
1 0 4 5
2 0 5
1 0 5 10
1 0 6
2 0 7 9
3 0 9
1 0 10
331 1
5 1 2
4 1 2 3
1 1 2 3 4
7 1 2 3 4 5
4 1 2 3 4 5 6 7 8 9 10
6 1 2 3 4 5 6 7 8 9 10 11
1 1 2 3 4 5 6 7 8 9 10 11 14
2 1 2 3 4 5 6 7 9 10
1 1 2 3 4 5 6 7 9 10 11
1 1 2 3 4 5 6 7 9 10 11 12
1 1 2 3 4 5 6 8 9
3 1 2 3 4 5 6 8 9 10 11
1 1 2 3 4 5 6 9 10
6 1 2 3 4 5 6 10
1 1 2 3 4 5 7
1 1 2 3 4 5 7 8
1 1 2 3 4 5 7 8 9 10
1 1 2 3 4 5 7 8 9 10 12
1 1 2 3 4 5 7 9
4 1 2 3 4 5 7 9 10
1 1 2 3 4 5 7 9 10 12
1 1 2 3 4 5 8 9 10 14
2 1 2 3 4 5 9
5 1 2 3 4 5 9 10
1 1 2 3 4 5 9 10 14
1 1 2 3 4 5 9 14
1 1 2 3 4 5 10
1 1 2 3 4 5 10 11
1 1 2 3 4 5 10 11 12
1 1 2 3 4 5 11
1 1 2 3 4 10
5 1 2 3 5
1 1 2 3 5 6
1 1 2 3 5 6 7 8 9 10
1 1 2 3 5 6 7 9 10
1 1 2 3 5 6 7 9 10 11
1 1 2 3 5 6 7 10
1 1 2 3 5 6 7 10 11
1 1 2 3 5 6 8 9 10
1 1 2 3 5 6 9 11
1 1 2 3 5 6 13
1 1 2 3 5 7
1 1 2 3 5 7 8 9 10
1 1 2 3 5 8 9
1 1 2 3 5 9
4 1 2 3 5 10
2 1 2 3 6 7
1 1 2 3 6 7 8 10
1 1 2 3 7
1 1 2 3 8
1 1 2 3 8 10
1 1 2 3 9
1 1 2 4
3 1 2 4 5
1 1 2 4 5 8
1 1 2 4 5 9
1 1 2 4 5 9 11
1 1 2 4 10
6 1 2 5
1 1 2 5 6
1 1 2 5 7
1 1 2 5 7 8
2 1 2 5 9
1 1 2 5 10
1 1 2 5 11
2 1 2 6
1 1 2 6 9 10
1 1 2 7 8
2 1 2 9
54 1 3
7 1 3 4
10 1 3 4 5
1 1 3 4 5 6 7
1 1 3 4 5 6 7 8 10
1 1 3 4 5 6 7 9 10
2 1 3 4 5 6 7 9 10 11
1 1 3 4 5 6 8 10
2 1 3 4 5 6 9 10
1 1 3 4 5 7
1 1 3 4 5 7 8
1 1 3 4 5 7 8 9
1 1 3 4 5 7 8 10 11
1 1 3 4 5 7 9
1 1 3 4 5 7 9 10
1 1 3 4 5 7 10
1 1 3 4 5 7 10 11
1 1 3 4 5 8 9
1 1 3 4 5 8 9 10
1 1 3 4 5 8 10
1 1 3 4 5 8 11 12
3 1 3 4 5 9
3 1 3 4 5 9 10
6 1 3 4 5 10
1 1 3 4 7
1 1 3 4 7 10
4 1 3 4 10
25 1 3 5
3 1 3 5 6
1 1 3 5 6 8
1 1 3 5 6 9
2 1 3 5 6 10
1 1 3 5 6 10 11
3 1 3 5 7
1 1 3 5 7 8
2 1 3 5 7 9
2 1 3 5 7 10
1 1 3 5 7 11
2 1 3 5 8
1 1 3 5 8 9
2 1 3 5 8 10
1 1 3 5 9
1 1 3 5 9 10
7 1 3 5 10
1 1 3 6
1 1 3 6 8
2 1 3 7
1 1 3 7 8 10
1 1 3 7 10
1 1 3 7 12
2 1 3 8
2 1 3 9 10
7 1 3 10
11 1 4
16 1 4 5
1 1 4 5 6 7 8 9
1 1 4 5 6 7 10
1 1 4 5 6 10
1 1 4 5 7
1 1 4 5 7 8
1 1 4 5 9
1 1 4 5 9 10
7 1 4 5 10
1 1 4 7
1 1 4 9
3 1 4 10
63 1 5
3 1 5 6
1 1 5 6 7
1 1 5 6 8
1 1 5 6 10
2 1 5 7
1 1 5 7 8
1 1 5 7 9 10
3 1 5 7 10
3 1 5 8
4 1 5 9
1 1 5 9 10
5 1 5 10
2 1 5 11
2 1 7
1 1 7 8
1 1 7 9 10
1 1 8
7 1 9
11 1 10
1 1 10 11
4 1 11
2 1 12
63 2
11 2 3
1 2 3 4
1 2 3 4 5 6 8 10
1 2 3 4 5 7 9
1 2 3 4 5 10
1 2 3 4 6
5 2 3 5
1 2 3 5 6 7
1 2 3 6
1 2 3 7
1 2 3 7 12
2 2 3 10
6 2 4
4 2 4 5
1 2 4 5 7 8
1 2 4 5 10
7 2 5
1 2 5 7 8
1 2 5 8
4 2 5 9
1 2 5 9 11
3 2 5 10
3 2 8
2 2 9
1 2 10
1 2 10 11
191 3
15 3 4
7 3 4 5
1 3 4 5 6
1 3 4 5 7
1 3 4 5 7 10
1 3 4 5 7 10 11
1 3 4 5 9
1 3 4 5 9 10
8 3 4 5 10
1 3 4 5 10 11
2 3 4 5 11
1 3 4 6 8
1 3 4 7
2 3 4 7 10
1 3 4 9 10
6 3 4 10
1 3 4 11
45 3 5
3 3 5 6
1 3 5 6 7
1 3 5 6 9
1 3 5 7
1 3 5 8 10
1 3 5 9
7 3 5 10
6 3 6
3 3 6 10
3 3 7
2 3 7 10
4 3 8
1 3 8 9
1 3 8 9 10
8 3 9
1 3 9 11
11 3 10
2 3 11
221 4
40 4 5
1 4 5 6 8
1 4 5 6 9
1 4 5 9
5 4 5 10
1 4 6 8
2 4 7
3 4 9
9 4 10
2 4 11
442 5
3 5 6
2 5 6 10
5 5 7
1 5 7 8
1 5 7 8 10
5 5 8
1 5 8 10
7 5 9
13 5 10
26 6
1 6 7 9
1 6 8
25 7
2 7 10
1 7 11
27 8
3 8 9
1 8 12
52 9
3 9 10
65 10
10 11
5 12
1 13
2 14
2555
arg2_start_uni_upper
arg2_start_uni_silencing
arg2_start_uni_validate
arg2_start_uni_hypothesis
arg2_start_uni_fully
arg2_start_uni_thymoma
arg2_start_uni_association
arg2_start_uni_suppressor
arg2_start_uni_remains
arg2_start_uni_hs1
arg2_start_uni_awaits
arg2_start_uni_hme
RB_->_Now:2
arg2_start_uni_novel
arg2_start_uni_flurry
arg2_start_uni_unclear
arg2_start_uni_bind
arg2_start_uni_cannot
arg2_start_uni_report,
arg2_start_uni_does
arg2_start_uni_likely,
arg2_start_uni_extent
arg2_start_uni_improve
arg2_start_uni_serologic
arg2_start_uni_draw
arg2_start_uni_spite
arg2_start_uni_comparison
arg2_start_uni_relevance
arg2_start_uni_due
arg2_start_uni_site
arg2_start_uni_difference
arg2_start_uni_mgb1
arg2_start_uni_conclusions
VP_->_VBD_NP_PP_PP:1
NP_->_NNP_NNP:2
ar_the
of_by
NP_->_CD_NN:2
1_the
ar_,
NP_->_NP_,_NP:2
ar_in
VP_->_VBZ_NP:12
IN_->_from:12
VBD_->_was:1
S_->_S_,_NP_VP_.:1
from_to
VBP_->_are:1
DT_->_The:2
arg2_start_uni_in
NP_->_NP_,_SBAR:2
NP_->_CD_NN:1
NP_->_NNP_NNP_NNP:1
VP_->_VBD_SBAR:2
VP_->_VBD_SBAR:1
at_the
IN_->_by:2
IN_->_at:1
NP_->_CD:1
NP_->_CD:2
ar_of
,_from
arg2_start_uni_the
arg2_start_uni_our
,_at
VP_->_VBD_VP:1
,_by
NP_->_QP:2
in_from
which_of
NP_->_PRP:12
NP_->_NNP_CD:2
NP_->_NNP_CD:1
,_and
VP_->_VBZ_NP:1
VP_->_VBZ_NP:2
by_is
VBP_->_are:2
and_the
WDT_->_which:2
NP_->_DT_NN:12
NP_->_NNP:2
the_wa
the_from
IN_->_that:12
by_,
by_the
NP_->_NNP:12
SBAR_->_IN_S:12
IN_->_by:1
of_is
,_,
arg2_start_uni_was
NP_->_CD_NNS:12
IN_->_from:2
IN_->_from:1
NP_->_CD_NNS:2
VP_->_VBD_VP:2
,_of
,_is
,_in
of_and
,_->_,:12
SBAR_->_IN_S:1
a_,
and_,
of_,
IN_->_that:1
,_->_,:2
VP_->_TO_VP:1
NP_->_PRP:1
NP_->_NP_PP:12
of_in
IN_->_of:12
the_,
S_->_NP_VP:1
IN_->_of:2
IN_->_of:1
VBZ_->_is:1
,_->_,:1
._->_.:1
._->_.:2
NP_->_NP_PP:1
NP_->_NP_PP:2
S_->_NP_VP_.:2
._->_.:12
PP_->_IN_NP:12
PP_->_IN_NP:2
PP_->_IN_NP:1
a_the
VP_->_MD_VP:1
S_->_NP_VP:2
SBAR_->_IN_S:2
VBD_->_was:2
NP_->_DT_NN:2
NP_->_DT_NN:1
NP_->_NNP:1
of_the
S_->_NP_VP:12
DT_->_The:1
IN_->_that:2
VBZ_->_is:2
VBZ_->_is:12
the_the
NP_->_PRP:2
IN_->_at:2
S_->_NP_VP_.:1
,_a
,_the
NP_->_CD_NNS:1
VP_->_MD_VP:2
VP_->_TO_VP:12
arg2_start_uni_this
VP_->_TO_VP:2
WDT_->_which:1
NP_->_NP_,_SBAR:1
which_the
NP_->_DT:1
arg2_start_uni_of
RB_->_not:1
NP_->_NP_NP:1
NP_->_DT:2
S_->_NP_VP_.:12
RB_->_not:2
VP_->_VB_ADJP:1
which_,
arg2_start_uni_with
arg2_start_uni_to
NP_->_NP_,_CC_NP:1
NP_->_QP:1
arg2_start_uni_that
NP_->_NNP_NNP:1
IN_->_by:12
to_from
VP_->_VBD_VP:12
at_and
a_from
,_wa
the_we
arg2_start_uni_we
arg2_start_uni_for
ADJP_->_JJ_NP:1
S_->_S_,_NP_VP_.:2
for_from
%_the
or_to
%_to
ADJP_->_JJ_NP:2
NN_->_%:1
%_,
of_at
arg2_start_uni_expression
arg2_start_uni_data
in_%
of_%
,_%
or_from
the_%
to_%
NN_->_%:2
NP_->_NP_,_NP_,:1
arg2_start_uni_activation
arg2_start_uni_effects
NP_->_NNP_CD_,_CD:1
VP_->_VB_ADJP:2
ar_a
arg2_start_uni_is
arg2_start_uni_are
JJ_->_due:1
arg2_start_uni_no
share_,
arg2_start_uni_have
arg2_start_uni_it
JJ_->_due:2
the_even
arg2_start_uni_findings
some_to
arg2_start_uni_has
some_in
some_of
arg2_start_uni_as
share_to
arg2_start_uni_effect
arg2_start_uni_show
arg2_start_uni_interestingly,
arg2_start_uni_possible
arg2_start_uni_further
arg2_start_uni_method
arg2_start_uni_ccr3
NP_->_CD:12
NP_->_NNP_NNP_NNP:2
NP_->_NNP_NNP_NNP:12
arg2_start_uni_experiments
arg2_start_uni_most
arg2_start_uni_analysis
arg2_start_uni_using
NN_->_%:12
%_%
of_p
from_%
arg2_start_uni_were
arg2_start_uni_use
ar_%
arg2_start_uni_while
arg2_start_uni_since
arg2_start_uni_transcripts
arg2_start_uni_revealed
arg2_start_uni_irf-4
arg2_start_uni_assays
arg2_start_uni_not
arg2_start_uni_had
arg2_start_uni_intensity
arg2_start_uni_vitro
arg2_start_uni_notably,
arg2_start_uni_recently,
arg2_start_uni_found
arg2_start_uni_some
arg2_start_uni_specific
arg2_start_uni_contrast
arg2_start_uni_possibility
arg2_start_uni_direct
arg2_start_uni_inversion
arg2_start_uni_mz
arg2_start_uni_b
due_the
arg2_start_uni_present
arg2_start_uni_even
arg2_start_uni_band
due_ar
arg2_start_uni_study
arg2_start_uni_role
due_to
month_from
due_at
arg2_start_uni_though
NP_->_NP_,_CC_NP_,:1
arg2_start_uni_deletion
arg2_start_uni_rt-pcr
arg2_start_uni_significant
arg2_start_uni_cause
arg2_start_uni_cre-mediated
arg2_start_uni_mutation
arg2_start_uni_now
arg2_start_uni_strikingly,
arg2_start_uni_ephb4
arg2_start_uni_example,
arg2_start_uni_also
arg2_start_uni_function
arg2_start_uni_demonstrated
arg2_start_uni_preparations
arg2_start_uni_explants
arg2_start_uni_iodide
arg2_start_uni_bob.1/obf.1,
arg2_start_uni_cre
arg2_start_uni_accurate
arg2_start_uni_enriched
arg2_start_uni_(ii)
arg2_start_uni_health
arg2_start_uni_equally,
arg2_start_uni_2-forward:
arg2_start_uni_b,
arg2_start_uni_b.
arg2_start_uni_5′-aaggtgaactgaagtctggaagtga-3′,
arg2_start_uni_importance
arg2_start_uni_lod
arg2_start_uni_anti-proliferative
arg2_start_uni_neurons
arg2_start_uni_system
arg2_start_uni_af4
arg2_start_uni_(b),
arg2_start_uni_apoptotic
arg2_start_uni_f.
arg2_start_uni_applied
arg2_start_uni_inhibitors
arg2_start_uni_e:
arg2_start_uni_question
arg2_start_uni_poly-adp
arg2_start_uni_e)
arg2_start_uni_failure
arg2_start_uni_e.
arg2_start_uni_robustness
arg2_start_uni_bc
arg2_start_uni_d,
arg2_start_uni_adult
arg2_start_uni_d)
arg2_start_uni_c:
arg2_start_uni_c)
arg2_start_uni_c.
arg2_start_uni_presumably
arg2_start_uni_b:
arg2_start_uni_evident
arg2_start_uni_above,
arg2_start_uni_gw
arg2_start_uni_i.
arg2_start_uni_rearrangement
arg2_start_uni_gh
arg2_start_uni_ecori,
arg2_start_uni_surprisingly
arg2_start_uni_bisulfite
ADJP_->_JJ_NP:12
arg2_start_uni_h.
arg2_start_uni_transition
arg2_start_uni_ex
arg2_start_uni_hypersensitivity
arg2_start_uni_antiproliferative
arg2_start_uni_g.
arg2_start_uni_eb
arg2_start_uni_competitive
arg2_start_uni_long-standing
arg2_start_uni_cd44
arg2_start_uni_immunoblotting
arg2_start_uni_investigate,
arg2_start_uni_pn1-ic
arg2_start_uni_inhibited
arg2_start_uni_hippocampal
arg2_start_uni_cd21
arg2_start_uni_tnf-α
arg2_start_uni_wistar–prob
arg2_start_uni_synergistic
arg2_start_uni_"ebf"
arg2_start_uni_anti-cd3
arg2_start_uni_r2,
arg2_start_uni_r3,
arg2_start_uni_hypermethylation
arg2_start_uni_il-15
arg2_start_uni_(wt)
arg2_start_uni_(m)
arg2_start_uni_regulate
arg2_start_uni_phytohemagglutinin
arg2_start_uni_mutated
arg2_start_uni_bottom
arg2_start_uni_immunofluorescence
arg2_start_uni_vital
arg2_start_uni_thresholds
arg2_start_uni_bv-173
arg2_start_uni_r1,
arg2_start_uni_datasets
arg2_start_uni_inappropriate
arg2_start_uni_others,
arg2_start_uni_kidney,
arg2_start_uni_bromodeoxyuridine/propidium
arg2_start_uni_hierarchical
arg2_start_uni_chamber
arg2_start_uni_lek
arg2_start_uni_therapeutically
arg2_start_uni_where
arg2_start_uni_(iv)
arg2_start_uni_irf-4-negative
arg2_start_uni_fk506,
arg2_start_uni_pathogens
arg2_start_uni_regression
arg2_start_uni_cut-off
arg2_start_uni_pten-transfected
arg2_start_uni_cona
arg2_start_uni_ys
arg2_start_uni_cases,
arg2_start_uni_igg
arg2_start_uni_optimization
ar_''
arg2_start_uni_impact
arg2_start_uni_sera
arg2_start_uni_pyrrolidine
arg2_start_uni_pu.1
arg2_start_uni_endotoxin
arg2_start_uni_parp-cleaved
arg2_start_uni_dependent
arg2_start_uni_cho-delta1
arg2_start_uni_and/or
arg2_start_uni_frequencies
NP_->_NP_,_ADJP_,:12
arg2_start_uni_concomitant
arg2_start_uni_text
arg2_start_uni_super
arg2_start_uni_characterize
arg2_start_uni_5'-agccacctctcagccgttttgtgg-3'
arg2_start_uni_p10xcbf1-luc
arg2_start_uni_unexpectedly,
arg2_start_uni_generally,
arg2_start_uni_(c),
arg2_start_uni_infiltrate
arg2_start_uni_technical
arg2_start_uni_sites,
arg2_start_uni_f2-reverse:
arg2_start_uni_12239
arg2_start_uni_fine
arg2_start_uni_antisense:
arg2_start_uni_cousin
arg2_start_uni_notch's
arg2_start_uni_tochemotaxis,
arg2_start_uni_unaffected
arg2_start_uni_high-level
arg2_start_uni_mfi
arg2_start_uni_xbai
arg2_start_uni_mer
arg2_start_uni_reveals
arg2_start_uni_(iii)
arg2_start_uni_instructive
arg2_start_uni_among
arg2_start_uni_gene-specific
arg2_start_uni_ly
arg2_start_uni_constituted
S_->_NP_NP:12
arg2_start_uni_rodent
arg2_start_uni_nz
arg2_start_uni_diseased
arg2_start_uni_tumour
arg2_start_uni_(gagakt)
arg2_start_uni_decreasing
arg2_start_uni_sb
NP_->_NP_,_SBAR_,:1
arg2_start_uni_dramatically,
arg2_start_uni_(pha),
arg2_start_uni_sp
arg2_start_uni_largest
arg2_start_uni_young
arg2_start_uni_same
arg2_start_uni_hands,
arg2_start_uni_wb
arg2_start_uni_c-jun
arg2_start_uni_constitutively-active
arg2_start_uni_a.2
arg2_start_uni_myeloma
arg2_start_uni_f2-forward:
arg2_start_uni_ctctcttccctccggactct
arg2_start_uni_mother
arg2_start_uni_adding
arg2_start_uni_critical
arg2_start_uni_c-e
arg2_start_uni_al,
arg2_start_uni_aim
arg2_start_uni_name
arg2_start_uni_b-cell-specific
arg2_start_uni_explore
arg2_start_uni_preventing
arg2_start_uni_whilst
arg2_start_uni_medial
arg2_start_uni_vivo
arg2_start_uni_**mouse
arg2_start_uni_category
arg2_start_uni_transforms
arg2_start_uni_jnk
arg2_start_uni_hes-1,
arg2_start_uni_papers
arg2_start_uni_bs-ii-reverse
arg2_start_uni_2-reverse:
arg2_start_uni_constructed
arg2_start_uni_cycle
arg2_start_uni_markov
arg2_start_uni_phenotypes
arg2_start_uni_pcna
arg2_start_uni_inbred
arg2_start_uni_knowledge,
arg2_start_uni_triangles
arg2_start_uni_replicability
arg2_start_uni_bs-ii-forward
arg2_start_uni_203580
arg2_start_uni_differential
arg2_start_uni_sem
arg2_start_uni_***mouse
arg2_start_uni_simple
arg2_start_uni_careful
arg2_start_uni_vijh
arg2_start_uni_third
arg2_start_uni_acceptor
arg2_start_uni_catalyzes
arg2_start_uni_variation
arg2_start_uni_depletion
arg2_start_uni_point
arg2_start_uni_v-d-j
arg2_start_uni_294002
arg2_start_uni_kinetics
arg2_start_uni_thymomas
arg2_start_uni_ribose
arg2_start_uni_chain
arg2_start_uni_none
arg2_start_uni_view
arg2_start_uni_=
arg2_start_uni_1.6-kb
arg2_start_uni_9/13
arg2_start_uni_mixed
arg2_start_uni_kidney-specific
arg2_start_uni_southern
arg2_start_uni_windows
arg2_start_uni_monocyte
arg2_start_uni_immunohistochemistry
arg2_start_uni_vβ8+
arg2_start_uni_sequencing
arg2_start_uni_ly294002,
arg2_start_uni_h
arg2_start_uni_higher
arg2_start_uni_annotation
arg2_start_uni_±
arg2_start_uni_5′-agtttaatagtttaagggagttgggt-3′,
arg2_start_uni_play
arg2_start_uni_hypothesize
arg2_start_uni_clones
arg2_start_uni_central
arg2_start_uni_fdr
arg2_start_uni_towards
arg2_start_uni_noti
arg2_start_uni_vs.
arg2_start_uni_normalise
arg2_start_uni_measurement
arg2_start_uni_mb-1sense:
arg2_start_uni_appear
arg2_start_uni_nfkappab
arg2_start_uni_thymus,
arg2_start_uni_intense
arg2_start_uni_bmp-6-induced
arg2_start_uni_removal
arg2_start_uni_including
arg2_start_uni_node:
arg2_start_uni_sb203580,
arg2_start_uni_hl60
arg2_start_uni_apparently
arg2_start_uni_lower,
arg2_start_uni_summary
arg2_start_uni_72
arg2_start_uni_transforming
arg2_start_uni_igg4
arg2_start_uni_multiple
arg2_start_uni_66
VP_->_VBD_NP_PP_PP:12
arg2_start_uni_cross-comparison
arg2_start_uni_physiological
arg2_start_uni_histological
arg2_start_uni_aligning
arg2_start_uni_2)
arg2_start_uni_like
arg2_start_uni_(which
arg2_start_uni_29%
WRB_->_When:12
arg2_start_uni_15
arg2_start_uni_across
arg2_start_uni_insert
arg2_start_uni_wild-type
arg2_start_uni_noggin
arg2_start_uni_acellular
arg2_start_uni_regions
arg2_start_uni_fourth
arg2_start_uni_found,
arg2_start_uni_tn2
arg2_start_uni_tn3
arg2_start_uni_boxed
arg2_start_uni_5'-ccacaattcccctgagaggtggct-3'
arg2_start_uni_reported
S_->_NP_VP_:_.:2
S_->_NP_VP_:_.:1
arg2_start_uni_(b
arg2_start_uni_tcrb
arg2_start_uni_concentrations,
arg2_start_uni_injury
VBN_->_named:2
arg2_start_uni_padtata-luc
arg2_start_uni_cyclosporin
arg2_start_uni_hes-1
arg2_start_uni_constitutive
arg2_start_uni_variable
arg2_start_uni_graphical
arg2_start_uni_reflects
arg2_start_uni_line:
arg2_start_uni_involvement
arg2_start_uni_erosion
arg2_start_uni_lines,
arg2_start_uni_died
arg2_start_uni_3′
arg2_start_uni_distinction
arg2_start_uni_btk,
NP_->_NNP_CD_,_CD:12
arg2_start_uni_5′-agcggtgaaactgagagtgcgaggt-3′,
arg2_start_uni_equally
arg2_start_uni_mammals,
arg2_start_uni_mb-1
arg2_start_uni_end-point
arg2_start_uni_denotes
arg2_start_uni_live-cell
arg2_start_uni_autoradiograph
arg2_start_uni_dotted
arg2_start_uni_contemporaneous
arg2_start_uni_ptk-renilla
arg2_start_uni_below,
arg2_start_uni_work
arg2_start_uni_secretion
arg2_start_uni_interesting
arg2_start_uni_implied
arg2_start_uni_significantly
arg2_start_uni_taken
arg2_start_uni_regulation
arg2_start_uni_different
NP_->_NP_,_SBAR_,:2
NP_->_NP_NP:12
&_,
&_the
arg2_start_uni_on
arg2_start_uni_proteins
arg2_start_uni_gene
NP_->_NP_:_NP_.:12
NP_->_NP_,_NP_,:2
arg2_start_uni_and
VBP_->_are:12
VP_->_VBN_NP_PP:1
IN_->_at:12
at_,
at_at
from_from
arg2_start_uni_these
NP_->_NP_,_NP:1
arg2_start_uni_a
NP_->_DT:12
VP_->_VBN_NP_PP:2
VBD_->_was:12
NP_->_NNP_CD:12
,_'s
VP_->_VB_S:2
VP_->_MD_VP:12
NP_->_NP_NP:2
arg2_start_uni_cells
NP_->_NP_,_NP:12
arg2_start_uni_two
or_or
VP_->_VBD_SBAR:12
NP_->_NP_:_NP_.:1
arg2_start_uni_t
when_,
WRB_->_When:1
DT_->_The:12
VP_->_VB_S:1
VBN_->_based:2
NP_->_NNP_NNP:12
NP_->_CD_NN:12
a_%
NP_->_QP:12
arg2_start_uni_an
arg2_start_uni_one
arg2_start_uni_induction
arg2_start_uni_used
arg2_start_uni_at
arg2_start_uni_binding
ADJP_->_NP_JJ:1
in_<-_<pobj>:1
arg2_start_uni_levels
arg2_start_uni_cell
VBN_->_based:1
for_%
S_->_S_,_NP_VP_.:12
PRP_->_they:2
NP_->_NP_:_NP_.:2
arg2_start_uni_single
arg2_start_uni_il-10
arg2_start_uni_assay
arg2_start_uni_panel
share_share
arg2_start_uni_cytokines
arg2_start_uni_can
arg2_start_uni_studies
PRP_->_they:1
VP_->_VBD_NP_PP_PP:2
RB_->_not:12
arg2_start_uni_results
arg2_start_uni_although
the_''
arg2_start_uni_may
arg2_start_uni_shows
some_the
some_,
arg2_start_uni_because
levels_<-_<nn>:1
month_<-_<num>:1
compar_from
in_<-_<pobj>:2
arg2_start_uni_respect,
arg2_start_uni_other
arg2_start_uni_bmp-6
arg2_start_uni_increase
arg2_start_uni_tf
some_a
arg2_start_uni_whether
arg2_start_uni_determined
arg2_start_uni_il-17
QP_->_$_CD_CD:1
arg2_start_uni_final
arg2_start_uni_animals
arg2_start_uni_tested
arg2_start_uni_order
arg2_start_uni_than
arg2_start_uni_correlation
arg2_start_uni_observation
arg2_start_uni_given
share_from
arg2_start_uni_presented
arg2_start_uni_indicates
arg2_start_uni_their
arg2_start_uni_result
arg2_start_uni_differences
year_to
arg2_start_uni_u1a
arg2_start_uni_igm-ic
arg2_start_uni_case
arg2_start_uni_support
arg2_start_uni_finding
arg2_start_uni_consistent
some_at
arg2_start_uni_evaluate
arg2_start_uni_ews
arg2_start_uni_over
VP_->_VBN_NP_PP:12
arg2_start_uni_b)
arg2_start_uni_identifies
arg2_start_uni_photomicrograph
arg2_start_uni_1.6
arg2_start_uni_northern
arg2_start_uni_cho-n2
arg2_start_uni_panels
arg2_start_uni_rt–pcr
arg2_start_uni_intron
arg2_start_uni_trend
co._,
arg2_start_uni_maternal
arg2_start_uni_sensitivity
arg2_start_uni_rat
arg2_start_uni_increased
arg2_start_uni_organ
NNP_->_Co.:1
arg2_start_uni_major
arg2_start_uni_ameliorating
arg2_start_uni_done
arg2_start_uni_ebf
arg2_start_uni_factors
NP_->_NP_,_ADJP_,:2
arg2_start_uni_thymic
arg2_start_uni_al.
arg2_start_uni_induced
arg2_start_uni_contralateral
arg2_start_uni_6
arg2_start_uni_(5
arg2_start_uni_putative
arg2_start_uni_able
arg2_start_uni_charts
arg2_start_uni_lesion
arg2_start_uni_vβ6+
arg2_start_uni_months
arg2_start_uni_methylated
arg2_start_uni_together
arg2_start_uni_recently
arg2_start_uni_restriction
arg2_start_uni_gate
arg2_start_uni_testosterone-treated
arg2_start_uni_apoptosis
arg2_start_uni_experimentally
arg2_start_uni_representation
arg2_start_uni_schematic
arg2_start_uni_clear
arg2_start_uni_appeared
arg2_start_uni_pten
arg2_start_uni_tables
arg2_start_uni_showing
arg2_start_uni_plasmids
in_<-_<pobj>:12
arg2_start_uni_which
arg2_start_uni_did
arg2_start_uni_j-n2
arg2_start_uni_sequence
arg2_start_uni_i
arg2_start_uni_facs
arg2_start_uni_nuclear
arg2_start_uni_primary
arg2_start_uni_changes
,_later
arg2_start_uni_antibodies
arg2_start_uni_western
arg2_start_uni_amount
arg2_start_uni_antibody
arg2_start_uni_similar
arg2_start_uni_representative
CC_->_&:1
arg2_start_uni_line
ADJP_->_NP_JJ:2
arg2_start_uni_treatment
arg2_start_uni_all
arg2_start_uni_mice
NP_->_NNP_CD_,_CD:2
arg2_start_uni_from
NP_->_NP_,_CC_NP:2
arg2_start_uni_amplification
%_<-_<num>:1
%_from
WDT_->_which:12
S_->_NP_NP:2
%_<-_<num>:2
arg2_start_uni_activity
arg2_start_uni_four
of_'s
arg2_start_uni_breast
levels_<-_<nn>:2
arg2_start_uni_transcription
arg2_start_uni_performed
arg2_start_uni_pcr
arg2_start_uni_procedure
arg2_start_uni_tissue
arg2_start_uni_proliferation
or_%
arg2_start_uni_blood
arg2_start_uni_cd4+
arg2_start_uni_dna
arg2_start_uni_when
WRB_->_When:2
arg2_start_uni_first
arg2_start_uni_supershift
arg2_start_uni_after
S_->_NP_NP:1
arg2_start_uni_identified
arg2_start_uni_total
arg2_start_uni_cultured
arg2_start_uni_cpg
arg2_start_uni_methods
note_and
arg2_start_uni_sequences
arg2_start_uni_full
arg2_start_uni_analysed
arg2_start_uni_primer
arg2_start_uni_detection
arg2_start_uni_achieved
arg2_start_uni_activated
arg2_start_uni_evaluation
''_,
arg2_start_uni_nasba
cent_a
arg2_start_uni_addition
arg2_start_uni_hybridisation
arg2_start_uni_1
arg2_start_uni_patterns
arg2_start_uni_pathway
arg2_start_uni_many
arg2_start_uni_included
arg2_start_uni_percentage
arg2_start_uni_blot
arg2_start_uni_mean
arg2_start_uni_they
arg2_start_uni_be
arg2_start_uni_electrophoretic
arg2_start_uni_this,
arg2_start_uni_recent
arg2_start_uni_fetal
arg2_start_uni_emsa
arg2_start_uni_growth
arg2_start_uni_absence
arg2_start_uni_cluster
arg2_start_uni_expressed
arg2_start_uni_2
arg2_start_uni_genes
arg2_start_uni_numbers
arg2_start_uni_hhv-8
arg2_start_uni_bob.1/obf.1
arg2_start_uni_control
NP_->_NP_,_SBAR:12
arg2_start_uni_by
note_,
arg2_start_uni_been
note_the
arg2_start_uni_figure
arg2_start_uni_evidence
arg2_start_uni_both
arg2_start_uni_il-2
arg2_start_uni_stat3
arg2_start_uni_human
arg2_start_uni_5
arg2_start_uni_arthritis
arg2_start_uni_production
arg2_start_uni_shown
arg2_start_uni_capacity
arg2_start_uni_et
arg2_start_uni_preincubation
%_<-_<num>:12
arg2_start_uni_whereas
arg2_start_uni_only
arg2_start_uni_much
arg2_start_uni_include
arg2_start_uni_nf-κb
arg2_start_uni_signals
of_<-_<pobj>:1
arg2_start_uni_index
arg2_start_uni_p50-/-
arg2_start_uni_sites
arg2_start_uni_thymocyte
arg2_start_uni_ramos
arg2_start_uni_mice,
arg2_start_uni_showed
arg2_start_uni_stimulation
arg2_start_uni_five
arg2_start_uni_nucleotides
NNP_->_Co.:2
arg2_start_uni_relative
arg2_start_uni_bound
arg2_start_uni_once
arg2_start_uni_dnase
arg2_start_uni_cloning
arg2_start_uni_octamer
arg2_start_uni_subsequent
arg2_start_uni_products
arg2_start_uni_(b)
arg2_start_uni_second
arg2_start_uni_calcium
arg2_start_uni_sample
arg2_start_uni_red
arg2_start_uni_mouse
arg2_start_uni_containing
arg2_start_uni_underwent
arg2_start_uni_purified
arg2_start_uni_quantification
arg2_start_uni_highly
arg2_start_uni_motifs
arg2_start_uni_probe
arg2_start_uni_lines
arg2_start_uni_slides
arg2_start_uni_mrna
arg2_start_uni_there
arg2_start_uni_three
arg2_start_uni_between
arg2_start_uni_if
arg2_start_uni_majority
arg2_start_uni_ner
arg2_start_uni_following
arg2_start_uni_time
arg2_start_uni_samples
arg2_start_uni_or
arg2_start_uni_concentrations
arg2_start_uni_detected
arg2_start_uni_amounts
arg2_start_uni_remaining
arg2_start_uni_her
arg2_start_uni_lymph
arg2_start_uni_product
arg2_start_uni_resulting
arg2_start_uni_strength
arg2_start_uni_inflammatory
arg2_start_uni_achieve
arg2_start_uni_androgen
arg2_start_uni_il-10r1
arg2_start_uni_100
arg2_start_uni_sustained
arg2_start_uni_without
arg2_start_uni_participated
arg2_start_uni_(e)
arg2_start_uni_pcr-fragment
arg2_start_uni_beacon
arg2_start_uni_carried
arg2_start_uni_treated
arg2_start_uni_will
arg2_start_uni_predictive
%_ar
arg2_start_uni_specificity
arg2_start_uni_percentages
arg2_start_uni_situ
arg2_start_uni_colored
arg2_start_uni_read
arg2_start_uni_secondary
arg2_start_uni_lane
arg2_start_uni_constructs
arg2_start_uni_currently
arg2_start_uni_cbf1-reporter
arg2_start_uni_dose
arg2_start_uni_deficiency
arg2_start_uni_akt
arg2_start_uni_mobilization
arg2_start_uni_region
arg2_start_uni_parameters
arg2_start_uni_irf-4-positive
arg2_start_uni_optimal
arg2_start_uni_conditions
arg2_start_uni_see
arg2_start_uni_vivo,
arg2_start_uni_ages
arg2_start_uni_controls
from_<-_<pobj>:1
arg2_start_uni_six
arg2_start_uni_tgf-β
arg2_start_uni_authors
arg2_start_uni_fact
arg2_start_uni_confirm
arg2_start_uni_female
arg2_start_uni_histograms
arg2_start_uni_cytokine
arg2_start_uni_coupled
arg2_start_uni_cases
arg2_start_uni_initial
arg2_start_uni_clustering
arg2_start_uni_list
arg2_start_uni_nucleotide
arg2_start_uni_pbmncs
arg2_start_uni_sizes
arg2_start_uni_assays,
arg2_start_uni_monoclonal
arg2_start_uni_fragments
arg2_start_uni_elements
arg2_start_uni_predicted
arg2_start_uni_β-actin
arg2_start_uni_shift
arg2_start_uni_clinical
arg2_start_uni_importantly,
arg2_start_uni_more
arg2_start_uni_high
arg2_start_uni_previously
arg2_start_uni_lack
arg2_start_uni_injected
arg2_start_uni_important
arg2_start_uni_il-6
arg2_start_uni_here
arg2_start_uni_observed
arg2_start_uni_experiments,
includes_<-_<nsubj>_<dobj>:2
NP_->_NP_,_ADJP_,:1
arg2_start_uni_experimental
arg2_start_uni_receptor
arg2_start_uni_previous
arg2_start_uni_determine
arg2_start_uni_molecular
arg2_start_uni_despite
arg2_start_uni_recombinant
arg2_start_uni_ra
arg2_start_uni_serum
arg2_start_uni_out
arg2_start_uni_fragment
arg2_start_uni_(c)
arg2_start_uni_(d)
arg2_start_uni_androgens
arg2_start_uni_ipsilateral
arg2_start_uni_mammary
arg2_start_uni_normal
arg2_start_uni_endogenous
arg2_start_uni_spib
arg2_start_uni_vbcl-2
arg2_start_uni_knock-in
arg2_start_uni_sought
arg2_start_uni_note,
arg2_start_uni_status
arg2_start_uni_studies,
arg2_start_uni_all,
PRP_->_they:12
arg2_start_uni_response
arg2_start_uni_reported,
arg2_start_uni_inhibition
arg2_start_uni_pi3-k
arg2_start_uni_abnormal
arg2_start_uni_similarly,
arg2_start_uni_pretreatment
arg2_start_uni_frequency
arg2_start_uni_phosphorylation
arg2_start_uni_linear
arg2_start_uni_pi3k-akt
arg2_start_uni_propose
JJ_->_due:12
arg2_start_uni_mature
arg2_start_uni_another
arg2_start_uni_competition
CC_->_But:1
arg2_start_uni_smallest
or_cent
arg2_start_uni_heterogeneity
arg2_start_uni_e2f
arg2_start_uni_il-7
share_cent
arg2_start_uni_lag
arg2_start_uni_neurons,
arg2_start_uni_basis
arg2_start_uni_simulation
arg2_start_uni_favor
arg2_start_uni_impression
arg2_start_uni_differentiated
arg2_start_uni_lend
NN_->_vice:2
arg2_start_uni_regardless
arg2_start_uni_feature
arg2_start_uni_appears
arg2_start_uni_tyrosine
arg2_start_uni_depending
arg2_start_uni_simultaneous
arg2_start_uni_ability
arg2_start_uni_especially
arg2_start_uni_us
arg2_start_uni_exclude
arg2_start_uni_induces
arg2_start_uni_observation,
arg2_start_uni_explanation
arg2_start_uni_occurrence
arg2_start_uni_delayed
arg2_start_uni_reason
arg2_start_uni_scf
arg2_start_uni_answer
arg2_start_uni_means
arg2_start_uni_larger
arg2_start_uni_coordinate
arg2_start_uni_effective
at_<-_<pobj>:12
arg2_start_uni_concluded
arg2_start_uni_understanding
arg2_start_uni_reason,
arg2_start_uni_paradox
arg2_start_uni_analogous
arg2_start_uni_property
arg2_start_uni_presumably,
arg2_start_uni_assess
arg2_start_uni_early
arg2_start_uni_numerous
arg2_start_uni_dataset
arg2_start_uni_address
arg2_start_uni_draws
arg2_start_uni_validates
arg2_start_uni_considerations
arg2_start_uni_screen
arg2_start_uni_reinforce
arg2_start_uni_might
arg2_start_uni_highlight
arg2_start_uni_regulated
arg2_start_uni_efficacy
arg2_start_uni_then
arg2_start_uni_affected
arg2_start_uni_altogether,
arg2_start_uni_together,
month_<-_<num>:12
arg2_start_uni_conclude
arg2_start_uni_similarly
arg2_start_uni_active
arg2_start_uni_compared
arg2_start_uni_exposure
arg2_start_uni_leads
arg2_start_uni_relationship
arg2_start_uni_suggest
arg2_start_uni_provide
arg2_start_uni_stat1
arg2_start_uni_number
to_term
arg2_start_uni_anti-cd4
at_<-_<pobj>:1
arg2_start_uni_large
arg2_start_uni_limited
arg2_start_uni_conditional
arg2_start_uni_indicate
arg2_start_uni_coverage
arg2_start_uni_clearly
arg2_start_uni_do
arg2_start_uni_combined
at_<-_<pobj>:2
month_<-_<num>:2
arg2_start_uni_demonstrates
arg2_start_uni_rather
arg2_start_uni_phosphorylation,
arg2_start_uni_observations
arg2_start_uni_upon
arg2_start_uni_either
arg2_start_uni_resolution
arg2_start_uni_based
arg2_start_uni_positions
NP_->_NP_,_NP_,:12
arg2_start_uni_interaction
arg2_start_uni_presence
or_share
arg2_start_uni_term
arg2_start_uni_allowed
arg2_start_uni_defects
arg2_start_uni_contrasting
arg2_start_uni_studied
arg2_start_uni_pbmcs
arg2_start_uni_key
arg2_start_uni_such
arg2_start_uni_regard,
arg2_start_uni_low
arg2_start_uni_would
arg2_start_uni_elucidate
arg2_start_uni_suggests
arg2_start_uni_developed
arg2_start_uni_hoxa3+/-pax1-/-
arg2_start_uni_ews-erg
arg2_start_uni_tec
arg2_start_uni_testing
arg2_start_uni_potential
arg2_start_uni_preclinical
VP_->_VB_ADJP:12
arg2_start_uni_define
arg2_start_uni_compound
arg2_start_uni_mutants
arg2_start_uni_labeled
arg2_start_uni_168
arg2_start_uni_interest
arg2_start_uni_transactivates
arg2_start_uni_uds
arg2_start_uni_respond
earlier_%
arg2_start_uni_ablated
arg2_start_uni_month
VBN_->_based:12
arg2_start_uni_(a–c)
arg2_start_uni_jejunum,
arg2_start_uni_a:
arg2_start_uni_possess
arg2_start_uni_[3h]thymidine
arg2_start_uni_a.
arg2_start_uni_a,
arg2_start_uni_exciting
arg2_start_uni_binds
arg2_start_uni_act
arg2_start_uni_protocol,
arg2_start_uni_filtering
arg2_start_uni_inoculated
arg2_start_uni_marginal
arg2_start_uni_proliferating
arg2_start_uni_gm
arg2_start_uni_h,
arg2_start_uni_overall
arg2_start_uni_expressing
arg2_start_uni_cytokine-positive
arg2_start_uni_necrosis
arg2_start_uni_model,
arg2_start_uni_comprised
arg2_start_uni_occurrences
arg2_start_uni_she,
arg2_start_uni_kratochwil
arg2_start_uni_global
arg2_start_uni_discrete
arg2_start_uni_spleen:
arg2_start_uni_redundant
arg2_start_uni_length
co._of
arg2_start_uni_embryonic
arg2_start_uni_er-tr9
arg2_start_uni_phosphoimage
arg2_start_uni_system,
arg2_start_uni_briefly,
offer_of
arg2_start_uni_generally
arg2_start_uni_copies
arg2_start_uni_blotting
arg2_start_uni_footprint
arg2_start_uni_polymerase
arg2_start_uni_collagen-rich
arg2_start_uni_untranslated
arg2_start_uni_hsv-thymidine
arg2_start_uni_transactivation
arg2_start_uni_autoradiographs
arg2_start_uni_rinsed
arg2_start_uni_cμ
arg2_start_uni_particular
arg2_start_uni_asked
cent_to
arg2_start_uni_pattern
arg2_start_uni_−116
arg2_start_uni_cancer
arg2_start_uni_bob.1/obf.1-specific
arg2_start_uni_90%
issue_<-_<det>:2
arg2_start_uni_profiles
arg2_start_uni_presumed
NN_->_vice:1
arg2_start_uni_endocrine
arg2_start_uni_resuspending
arg2_start_uni_e15.5
arg2_start_uni_appropriate
arg2_start_uni_sample,
arg2_start_uni_id
arg2_start_uni_results,
arg2_start_uni_kb
arg2_start_uni_lymphocyte
arg2_start_uni_autocrine
arg2_start_uni_groups
arg2_start_uni_signaling
arg2_start_uni_poly-adp-ribose
arg2_start_uni_ir2
arg2_start_uni_nm
arg2_start_uni_examination
arg2_start_uni_ectopic
arg2_start_uni_need
arg2_start_uni_assembly
arg2_start_uni_brca1
arg2_start_uni_depicted
offer_the
arg2_start_uni_tests
arg2_start_uni_inhibits
arg2_start_uni_[estrogen
arg2_start_uni_t-dependent
arg2_start_uni_gata-1
arg2_start_uni_thirty
arg2_start_uni_a.1
arg2_start_uni_a-b
arg2_start_uni_heatmap
arg2_start_uni_profile
arg2_start_uni_mast
arg2_start_uni_factor
arg2_start_uni_mammogens
arg2_start_uni_simplified
arg2_start_uni_mediators
arg2_start_uni_begins
arg2_start_uni_added:
arg2_start_uni_histogram
arg2_start_uni_cassette
arg2_start_uni_3.1
arg2_start_uni_pre-existing
arg2_start_uni_swelling
arg2_start_uni_motif
arg2_start_uni_chart
arg2_start_uni_oct2-specific
from_<-_<pobj>:2
arg2_start_uni_extraction
arg2_start_uni_30/32
arg2_start_uni_scenario,
arg2_start_uni_generate
arg2_start_uni_bob.1/obf.1−/−
arg2_start_uni_4
arg2_start_uni_ionizing
arg2_start_uni_embryo,
arg2_start_uni_antigens,
arg2_start_uni_purely
arg2_start_uni_pieces
arg2_start_uni_orientation
loss_or
arg2_start_uni_p50
arg2_start_uni_thp-1
arg2_start_uni_dilution,
arg2_start_uni_infect
arg2_start_uni_stability
arg2_start_uni_illustration
arg2_start_uni_floxed
arg2_start_uni_(a)histopathology
arg2_start_uni_illustrating
arg2_start_uni_neurogenesis,
arg2_start_uni_(a),
arg2_start_uni_box
arg2_start_uni_(cd19+cd27-)
arg2_start_uni_types
arg2_start_uni_stimuli
arg2_start_uni_could
arg2_start_uni_contain
arg2_start_uni_mechanistically,
arg2_start_uni_gp130f759/f759
arg2_start_uni_aliquot
arg2_start_uni_local
,_he
co._the
arg2_start_uni_pooled
arg2_start_uni_attract
via_<-_<pobj>:1
arg2_start_uni_mab,
arg2_start_uni_useful
arg2_start_uni_(p
arg2_start_uni_earliest
arg2_start_uni_xid
arg2_start_uni_(a
VBN_->_named:1
arg2_start_uni_infected
arg2_start_uni_suspensions
arg2_start_uni_except
arg2_start_uni_scotet
arg2_start_uni_stroma
arg2_start_uni_enrolled
arg2_start_uni_appearance
arg2_start_uni_24-well
arg2_start_uni_open
:_->_...:1
arg2_start_uni_various
arg2_start_uni_cea
vice_,
arg2_start_uni_implies
arg2_start_uni_characteristics,
arg2_start_uni_(large
arg2_start_uni_buds,
arg2_start_uni_domains
arg2_start_uni_cunha
arg2_start_uni_haematopoietic
arg2_start_uni_cho
arg2_start_uni_µg
arg2_start_uni_them
arg2_start_uni_comparing
arg2_start_uni_stability-regulated
arg2_start_uni_clusters
arg2_start_uni_spleen
arg2_start_uni_time-point
arg2_start_uni_smears
arg2_start_uni_microliters
arg2_start_uni_digestion
arg2_start_uni_surface
NN_->_unit:2
arg2_start_uni_entire
arg2_start_uni_hours
arg2_start_uni_10
arg2_start_uni_extracted
arg2_start_uni_resuspended
arg2_start_uni_viability
arg2_start_uni_signalling
inc._the
arg2_start_uni_analyzed
arg2_start_uni_she
arg2_start_uni_probes
of_s
arg2_start_uni_reaction
CC_->_&:2
QP_->_$_CD_CD:2
arg2_start_uni_patient
,_&
arg2_start_uni_rna
arg2_start_uni_end
arg2_start_uni_mononuclear
arg2_start_uni_average
arg2_start_uni_each
arg2_start_uni_promoter
of_&
arg2_start_uni_signal
the_&
arg2_start_uni_genomic
to_&
arg2_start_uni_protein
arg2_start_uni_extracts
arg2_start_uni_prepared
arg2_start_uni_transgenic
arg2_start_uni_defined
arg2_start_uni_days
arg2_start_uni_pbmc
arg2_start_uni_(a)
arg2_start_uni_×
arg2_start_uni_splenocytes
arg2_start_uni_lysates
arg2_start_uni_cd19+
arg2_start_uni_wt
arg2_start_uni_24
arg2_start_uni_type
arg2_start_uni_composite
arg2_start_uni_first,
arg2_start_uni_(i)
arg2_start_uni_aa
arg2_start_uni_populations
arg2_start_uni_successful
arg2_start_uni_value
arg2_start_uni_hela
arg2_start_uni_top
arg2_start_uni_group
arg2_start_uni_arrows
arg2_start_uni_background
arg2_start_uni_structure
arg2_start_uni_utilized
arg2_start_uni_those
arg2_start_uni_proved
arg2_start_uni_size
arg2_start_uni_values
arg2_start_uni_time-to-positivity
arg2_start_uni_enrichment
arg2_start_uni_displays
arg2_start_uni_threshold
arg2_start_uni_chromosomal
arg2_start_uni_phenotype
share_or
arg2_start_uni_input
arg2_start_uni_erg
arg2_start_uni_staining
arg2_start_uni_primers
arg2_start_uni_score
arg2_start_uni_established
arg2_start_uni_position
arg2_start_uni_bar
arg2_start_uni_proinflammatory
,_who
arg2_start_uni_represents
arg2_start_uni_stimulatory
arg2_start_uni_extremely
arg2_start_uni_through
arg2_start_uni_amplified
arg2_start_uni_similarity
arg2_start_uni_originally
arg2_start_uni_w3/25
arg2_start_uni_socs3
arg2_start_uni_marker
arg2_start_uni_mobility
arg2_start_uni_itk
NP_->_NP_,_CC_NP_,:2
arg2_start_uni_several
arg2_start_uni_during
arg2_start_uni_contains
arg2_start_uni_cells,
arg2_start_uni_buds
arg2_start_uni_a)
earlier_to
arg2_start_uni_mab
arg2_start_uni_limit
arg2_start_uni_btk
arg2_start_uni_peripheral
arg2_start_uni_lower
arg2_start_uni_study,
arg2_start_uni_transfection
arg2_start_uni_null
arg2_start_uni_total,
arg2_start_uni_deficient
arg2_start_uni_mechanism
arg2_start_uni_analyses
arg2_start_uni_thymocytes
arg2_start_uni_accelerating
arg2_start_uni_unlike
arg2_start_uni_grain
arg2_start_uni_displayed
arg2_start_uni_neutrophils
arg2_start_uni_tumor
arg2_start_uni_therapeutic
arg2_start_uni_al
arg2_start_uni_kinase
arg2_start_uni_produced
arg2_start_uni_demonstrate
arg2_start_uni_mutations
arg2_start_uni_brdu
arg2_start_uni_beacons
arg2_start_uni_irf1
arg2_start_uni_set
arg2_start_uni_extended
arg2_start_uni_assay,
arg2_start_uni_accumulation
arg2_start_uni_known
arg2_start_uni_wild
includes_<-_<nsubj>_<dobj>:1
arg2_start_uni_influence
arg2_start_uni_increasing
arg2_start_uni_dose-dependent
ADJP_->_NP_JJ:12
arg2_start_uni_up-regulation
arg2_start_uni_highest
arg2_start_uni_prevented
arg2_start_uni_naïve
arg2_start_uni_28
arg2_start_uni_strong
arg2_start_uni_new
arg2_start_uni_within
arg2_start_uni_time-point,
arg2_start_uni_blocked
arg2_start_uni_visualize
arg2_start_uni_rinsing
arg2_start_uni_identity
arg2_start_uni_stat
arg2_start_uni_upstream
arg2_start_uni_released,
arg2_start_uni_phylogenetic
arg2_start_uni_orthologous
arg2_start_uni_firefly
arg2_start_uni_μg
arg2_start_uni_log
the_compani
arg2_start_uni_aliquout
arg2_start_uni_footprinting
arg2_start_uni_luciferase
arg2_start_uni_(score
arg2_start_uni_placed
arg2_start_uni_sacrificed
arg2_start_uni_tbs-t
arg2_start_uni_unlabelled
arg2_start_uni_106
arg2_start_uni_(mediacybernetics,
arg2_start_uni_membranes
arg2_start_uni_he
arg2_start_uni_fresh
arg2_start_uni_electrophoresed
arg2_start_uni_antisense
arg2_start_uni_stimulated,
arg2_start_uni_es
arg2_start_uni_establishing
arg2_start_uni_lysis
arg2_start_uni_phase
arg2_start_uni_undergone
arg2_start_uni_immediately
arg2_start_uni_pwm,
arg2_start_uni_carrier
arg2_start_uni_5-to10
arg2_start_uni_viable,
arg2_start_uni_aqueous
arg2_start_uni_sheath,
arg2_start_uni_(30–100
arg2_start_uni_bound/retarded
arg2_start_uni_hes1
arg2_start_uni_flow-through
arg2_start_uni_plates
arg2_start_uni_(107)
arg2_start_uni_individual
arg2_start_uni_densitometric
arg2_start_uni_filter
arg2_start_uni_subjected
arg2_start_uni_dried
arg2_start_uni_started
arg2_start_uni_extensive
arg2_start_uni_matrices
arg2_start_uni_microarrays
arg2_start_uni_ebf-binding
arg2_start_uni_encompassing
arg2_start_uni_calibration
arg2_start_uni_suspension
arg2_start_uni_incubation
arg2_start_uni_resolved
arg2_start_uni_seven
arg2_start_uni_arraypro
arg2_start_uni_centrifugation,
arg2_start_uni_q-rna
arg2_start_uni_purification
arg2_start_uni_forty-eight
arg2_start_uni_raw
corp._the
arg2_start_uni_collected
arg2_start_uni_pools
arg2_start_uni_apoptotic,
arg2_start_uni_amplification,
arg2_start_uni_extending
arg2_start_uni_chemoattractants,
arg2_start_uni_intensities
arg2_start_uni_streptavidin–alkaline
arg2_start_uni_(a.g.
arg2_start_uni_ethanol
arg2_start_uni_batch
arg2_start_uni_washing,
arg2_start_uni_microbeads
arg2_start_uni_fifty
arg2_start_uni_whole-blood
arg2_start_uni_preceding
arg2_start_uni_ortholog
arg2_start_uni_software
arg2_start_uni_reciprocally
arg2_start_uni_neighboring
arg2_start_uni_targeted
arg2_start_uni_staining,
arg2_start_uni_over-representation
arg2_start_uni_(0.8
arg2_start_uni_matching
arg2_start_uni_rt
arg2_start_uni_np12-bsa-biotin
arg2_start_uni_intracellular
arg2_start_uni_pfms
arg2_start_uni_nih/3t3
arg2_start_uni_1996
arg2_start_uni_immunoblot
arg2_start_uni_uv
arg2_start_uni_either,
arg2_start_uni_exposure,
arg2_start_uni_evaluation,
arg2_start_uni_purification,
arg2_start_uni_serial
arg2_start_uni_under
arg2_start_uni_exposed
arg2_start_uni_reactions,
arg2_start_uni_receptors
arg2_start_uni_transfer
arg2_start_uni_distances
arg2_start_uni_separated
arg2_start_uni_indicated,
arg2_start_uni_densities
arg2_start_uni_thawed
NN_->_unit:1
arg2_start_uni_stained
arg2_start_uni_blocking,
arg2_start_uni_fold
arg2_start_uni_surnatants
,_compani
arg2_start_uni_strand
arg2_start_uni_arrays
arg2_start_uni_enzyme
arg2_start_uni_founder
arg2_start_uni_lobes
arg2_start_uni_thousand
arg2_start_uni_dual-glo
arg2_start_uni_pathological
arg2_start_uni_oligo
arg2_start_uni_15 minutes
arg2_start_uni_70°c
arg2_start_uni_centrifuged
%_<-_<dep>:1
%_<-_<dep>:2
arg2_start_uni_reverse
arg2_start_uni_10 minutes
arg2_start_uni_cryosections
arg2_start_uni_piece
arg2_start_uni_d
arg2_start_uni_solutions
arg2_start_uni_left
arg2_start_uni_hybridization,
arg2_start_uni_digested
arg2_start_uni_extracts,
arg2_start_uni_(20
arg2_start_uni_anti-cd3-biotin
of_compani
arg2_start_uni_enhancement
arg2_start_uni_ultrasound
arg2_start_uni_radiolabelled
arg2_start_uni_followed
arg2_start_uni_removing
arg2_start_uni_absorbance
arg2_start_uni_steps,
arg2_start_uni_co-cultured
arg2_start_uni_pellet
arg2_start_uni_analyze
arg2_start_uni_whole
arg2_start_uni_stimulation,
arg2_start_uni_saturating
arg2_start_uni_microcentrifugation
arg2_start_uni_count
arg2_start_uni_scanning
arg2_start_uni_denaturation
arg2_start_uni_non-adherent
arg2_start_uni_phosophorylation
arg2_start_uni_gels
arg2_start_uni_actinomycin
arg2_start_uni_pooled,
arg2_start_uni_generated
arg2_start_uni_germ
arg2_start_uni_q-pcr
arg2_start_uni_(70–100
arg2_start_uni_supernatant
arg2_start_uni_pellets
arg2_start_uni_rehydration
arg2_start_uni_(200-μl
arg2_start_uni_2.5
arg2_start_uni_quantified
arg2_start_uni_measured
arg2_start_uni_synthesized
arg2_start_uni_ten
arg2_start_uni_mixture
arg2_start_uni_transformed
arg2_start_uni_single-stranded
arg2_start_uni_diluted
arg2_start_uni_phosphorylated
arg2_start_uni_later
arg2_start_uni_spun
arg2_start_uni_unincorporated
arg2_start_uni_july
arg2_start_uni_visualized
arg2_start_uni_computed
arg2_start_uni_notch
arg2_start_uni_genotypes
arg2_start_uni_30 minutes,
arg2_start_uni_pi3-k,
arg2_start_uni_oligomers
arg2_start_uni_(50 μg
arg2_start_uni_10–12
%_&
arg2_start_uni_mouse/human
arg2_start_uni_non-vertebrate
arg2_start_uni_cd3
arg2_start_uni_washing
arg2_start_uni_transfections
arg2_start_uni_µg)
arg2_start_uni_separation
arg2_start_uni_hybridized
arg2_start_uni_clustered
arg2_start_uni_gadolinium
arg2_start_uni_precipitated
arg2_start_uni_culled
arg2_start_uni_bacterial
arg2_start_uni_complimentary
arg2_start_uni_again
arg2_start_uni_reactions
arg2_start_uni_id1,
arg2_start_uni_equal
arg2_start_uni_aliquots
arg2_start_uni_day
NNP_->_Corp.:1
arg2_start_uni_synthesis
arg2_start_uni_ifn-γ
arg2_start_uni_over-represented
arg2_start_uni_algorithm
arg2_start_uni_lymphocytes
arg2_start_uni_sense
arg2_start_uni_washed
arg2_start_uni_mix
arg2_start_uni_comparisons
arg2_start_uni_concentration
arg2_start_uni_immunoprecipitated
arg2_start_uni_nro
arg2_start_uni_curve
arg2_start_uni_images
CC_->_&:12
arg2_start_uni_complexes
arg2_start_uni_construct
arg2_start_uni_made
arg2_start_uni_cdna
arg2_start_uni_blocking
arg2_start_uni_double-stranded
arg2_start_uni_oligonucleotides
arg2_start_uni_identification
arg2_start_uni_grand
arg2_start_uni_experiment
arg2_start_uni_pax5
arg2_start_uni_events
arg2_start_uni_reporter
arg2_start_uni_standard
arg2_start_uni_curves
arg2_start_uni_additional
arg2_start_uni_sections
arg2_start_uni_measure
arg2_start_uni_culture
arg2_start_uni_well
arg2_start_uni_analysis,
arg2_start_uni_test
arg2_start_uni_supernatants
arg2_start_uni_cultures
arg2_start_uni_chemotaxis
arg2_start_uni_purity
arg2_start_uni_bands
by_<-_<pobj>:2
arg2_start_uni_hybridization
arg2_start_uni_16
arg2_start_uni_eosinophils
arg2_start_uni_examine
by_<-_<pobj>:1
arg2_start_uni_(filled
arg2_start_uni_incubated
arg2_start_uni_competitors
arg2_start_uni_nuclei
arg2_start_uni_(1
arg2_start_uni_isolated
arg2_start_uni_stimulated
arg2_start_uni_diagnosis,
arg2_start_uni_oligonucleotide
arg2_start_uni_real-time
arg2_start_uni_(2
arg2_start_uni_mutant
arg2_start_uni_two-color
arg2_start_uni_hallmark
arg2_start_uni_hanks'
arg2_start_uni_inverted
arg2_start_uni_limits
arg2_start_uni_optical
arg2_start_uni_step
arg2_start_uni_targeting
arg2_start_uni_composition
arg2_start_uni_considering
arg2_start_uni_maintained
arg2_start_uni_tetsushi
arg2_start_uni_flow
arg2_start_uni_genetic
arg2_start_uni_contents
arg2_start_uni_supplementary
arg2_start_uni_age
arg2_start_uni_pertinent
arg2_start_uni_isindicated
arg2_start_uni_reticulocyte
arg2_start_uni_mopc21
arg2_start_uni_columns
arg2_start_uni_mounting
arg2_start_uni_transition,
arg2_start_uni_pi3k-activating
arg2_start_uni_cnt,
arg2_start_uni_healthy
arg2_start_uni_rounds
arg2_start_uni_arrows,
arg2_start_uni_element
arg2_start_uni_(1/200;
arg2_start_uni_bv
arg2_start_uni_cc
arg2_start_uni_bd
arg2_start_uni_informed
arg2_start_uni_latter
arg2_start_uni_cavity;
arg2_start_uni_e1-fl
arg2_start_uni_described
arg2_start_uni_histographic
arg2_start_uni_spearman
arg2_start_uni_microarray
arg2_start_uni_synovial
arg2_start_uni_stromal-epithelial
arg2_start_uni_bars
arg2_start_uni_go
arg2_start_uni_adjuvanticity
arg2_start_uni_blots
arg2_start_uni_ff
arg2_start_uni_surprisingly,
year_from
arg2_start_uni_g:
arg2_start_uni_cd69
arg2_start_uni_g,
arg2_start_uni_el
arg2_start_uni_bottom:
arg2_start_uni_models
arg2_start_uni_bilateral
arg2_start_uni_responded
arg2_start_uni_fitc-linked
arg2_start_uni_color
arg2_start_uni_cytometry,
arg2_start_uni_30–38
arg2_start_uni_ensembl
arg2_start_uni_motifs,
arg2_start_uni_existence
arg2_start_uni_two-step
arg2_start_uni_cytometry
arg2_start_uni_gradient
arg2_start_uni_grown
arg2_start_uni_elisa
arg2_start_uni_indo-1
arg2_start_uni_conceived
arg2_start_uni_simulations
arg2_start_uni_sv40
arg2_start_uni_**p
arg2_start_uni_should
arg2_start_uni_regulatory
arg2_start_uni_abundant
arg2_start_uni_0.01,
arg2_start_uni_fibroblast
arg2_start_uni_believed
arg2_start_uni_constant
arg2_start_uni_statistical
arg2_start_uni_investigated
arg2_start_uni_possibilities
arg2_start_uni_bmps
arg2_start_uni_annotations
arg2_start_uni_validation
arg2_start_uni_ensured
arg2_start_uni_stains
arg2_start_uni_sandwich
arg2_start_uni_sixteen
arg2_start_uni_abnormalities
arg2_start_uni_technique
arg2_start_uni_primarily
arg2_start_uni_stat4
arg2_start_uni_decrease
arg2_start_uni_arrow
arg2_start_uni_suggested
arg2_start_uni_eachgraph
arg2_start_uni_akira
arg2_start_uni_emsa,
arg2_start_uni_totals
arg2_start_uni_thirteen
arg2_start_uni_normalised
arg2_start_uni_werescanned
arg2_start_uni_(ttp)
arg2_start_uni_okamoto,
corp._,
arg2_start_uni_fluorescence
arg2_start_uni_magnification
arg2_start_uni_quality
arg2_start_uni_vgv
arg2_start_uni_exon
arg2_start_uni_elsewhere
arg2_start_uni_significance
arg2_start_uni_ethidium
arg2_start_uni_family
arg2_start_uni_recruited
arg2_start_uni_histology,
arg2_start_uni_macrophage-specific
arg2_start_uni_makino
arg2_start_uni_ruffled
arg2_start_uni_stat3-deficient
arg2_start_uni_shaded
arg2_start_uni_institutional
arg2_start_uni_assisted
arg2_start_uni_ratio
arg2_start_uni_volunteers
arg2_start_uni_weak
arg2_start_uni_6–8
arg2_start_uni_emergence
arg2_start_uni_mammographically
arg2_start_uni_contributed
arg2_start_uni_(mixed
arg2_start_uni_injections
arg2_start_uni_(100
arg2_start_uni_experiment,
arg2_start_uni_table
arg2_start_uni_id2
arg2_start_uni_id3
arg2_start_uni_genes,
arg2_start_uni_ifn-γ,
arg2_start_uni_id1
arg2_start_uni_(p65)
arg2_start_uni_5′-region
arg2_start_uni_standpoint
arg2_start_uni_initially
arg2_start_uni_substances
arg2_start_uni_horizontal
arg2_start_uni_methodology
arg2_start_uni_medications
arg2_start_uni_helped
arg2_start_uni_sampled
arg2_start_uni_designed
arg2_start_uni_processed
arg2_start_uni_(small
arg2_start_uni_thought
arg2_start_uni_hyk
note_rate
arg2_start_uni_control/s,
arg2_start_uni_file
arg2_start_uni_continuing
arg2_start_uni_hyp
arg2_start_uni_interferon
arg2_start_uni_ih
arg2_start_uni_information
arg2_start_uni_relation
arg2_start_uni_rela
arg2_start_uni_anti-tcrα/β
arg2_start_uni_sags
arg2_start_uni_resting
arg2_start_uni_jh
arg2_start_uni_jg
arg2_start_uni_overhang
arg2_start_uni_its
arg2_start_uni_released
arg2_start_uni_consequences
arg2_start_uni_jr
arg2_start_uni_maximal
arg2_start_uni_hour
arg2_start_uni_endo-toxin
arg2_start_uni_ifn-γ-stimulated
arg2_start_uni_1,000
arg2_start_uni_lf
arg2_start_uni_ld
arg2_start_uni_rank
arg2_start_uni_mc
arg2_start_uni_favorable
arg2_start_uni_suggestions
arg2_start_uni_poly
arg2_start_uni_bromide
arg2_start_uni_stainings
arg2_start_uni_glance,
arg2_start_uni_eas
arg2_start_uni_follow-up
arg2_start_uni_biological
arg2_start_uni_pg
arg2_start_uni_ebs
arg2_start_uni_pm
arg2_start_uni_organisation
arg2_start_uni_cycling
arg2_start_uni_sc
arg2_start_uni_≤
arg2_start_uni_features
arg2_start_uni_t,
arg2_start_uni_st
arg2_start_uni_(r1)
arg2_start_uni_sn
arg2_start_uni_mlc
arg2_start_uni_tw
arg2_start_uni_salt
arg2_start_uni_mll
arg2_start_uni_mkp
arg2_start_uni_masahiro
arg2_start_uni_rabbit
arg2_start_uni_share
arg2_start_uni_illustrate
arg2_start_uni_(mbps)
arg2_start_uni_outer
arg2_start_uni_mjr
arg2_start_uni_lacking
arg2_start_uni_fact,
arg2_start_uni_over-representations
arg2_start_uni_sake
arg2_start_uni_down-regulation
arg2_start_uni_anti-β-actin
arg2_start_uni_leukaemia/lymphoma
arg2_start_uni_sorted
arg2_start_uni_therapy
arg2_start_uni_induce
arg2_start_uni_calculated
arg2_start_uni_aks
arg2_start_uni_ajh
arg2_start_uni_peptides
arg2_start_uni_–
arg2_start_uni_critically
arg2_start_uni_(10 nm)
arg2_start_uni_expected
arg2_start_uni_strongest
arg2_start_uni_immunodetection
arg2_start_uni_r.b.c.
arg2_start_uni_one-year
arg2_start_uni_jmj
arg2_start_uni_median
arg2_start_uni_*mice
arg2_start_uni_earlier
arg2_start_uni_typical
arg2_start_uni_resembles
arg2_start_uni_combination
arg2_start_uni_neurotrophins
arg2_start_uni_course
arg2_start_uni_a-d:
arg2_start_uni_cytotoxic
arg2_start_uni_overlapping
arg2_start_uni_compiled
arg2_start_uni_publications
arg2_start_uni_becton
arg2_start_uni_cbf1-dependent
arg2_start_uni_nrm
arg2_start_uni_impaired
arg2_start_uni_overlays
arg2_start_uni_magnifications
arg2_start_uni_(icsat/pip/mum1/lsirf)
arg2_start_uni_dark
arg2_start_uni_shl
arg2_start_uni_shp
arg2_start_uni_control;
arg2_start_uni_otherwise
arg2_start_uni_drafted
arg2_start_uni_sgg
arg2_start_uni_transient
arg2_start_uni_connective
arg2_start_uni_nipple
arg2_start_uni_cd3+4+8+
arg2_start_uni_×250
arg2_start_uni_least
arg2_start_uni_dickinson
arg2_start_uni_contained,
arg2_start_uni_laboratory
arg2_start_uni_besides
arg2_start_uni_repeated
arg2_start_uni_3
arg2_start_uni_visualization
arg2_start_uni_<
arg2_start_uni_inserts
arg2_start_uni_noted,
arg2_start_uni_positive
arg2_start_uni_discovery
arg2_start_uni_pi3k
arg2_start_uni_splenic
arg2_start_uni_*
arg2_start_uni_p
arg2_start_uni_denote
arg2_start_uni_v
arg2_start_uni_t-test
arg2_start_uni_2407
arg2_start_uni_noon
arg2_start_uni_m
arg2_start_uni_streptavidin-cy5
arg2_start_uni_(igg1),
arg2_start_uni_infiltration
arg2_start_uni_medium
arg2_start_uni_main
arg2_start_uni_unfortunately,
arg2_start_uni_commonly
arg2_start_uni_focused
arg2_start_uni_polyclonal
arg2_start_uni_consent
arg2_start_uni_disrupted
arg2_start_uni_forward
arg2_start_uni_contained
arg2_start_uni_note
arg2_start_uni_fisher
arg2_start_uni_jc,
arg2_start_uni_foreskin
arg2_start_uni_unless
arg2_start_uni_population
arg2_start_uni_×40
arg2_start_uni_gave
arg2_start_uni_pathology
arg2_start_uni_model
arg2_start_uni_rtf
arg2_start_uni_pgk1
arg2_start_uni_×15
arg2_start_uni_dnmts
arg2_start_uni_divided
arg2_start_uni_asterisks
arg2_start_uni_yamamura
arg2_start_uni_chemotherapy
arg2_start_uni_chemical
arg2_start_uni_exons
arg2_start_uni_jhm
arg2_start_uni_added
arg2_start_uni_stringent
arg2_start_uni_fixed
arg2_start_uni_plays
arg2_start_uni_×20
arg2_start_uni_characterized
arg2_start_uni_detects
arg2_start_uni_mjr,
arg2_start_uni_previously,
arg2_start_uni_q1200x
arg2_start_uni_zone,
arg2_start_uni_evaluated
arg2_start_uni_consisted
arg2_start_uni_outcomes
arg2_start_uni_solid
arg2_start_uni_hirofumi
arg2_start_uni_integrity
arg2_start_uni_calculations
arg2_start_uni_defective
arg2_start_uni_future
arg2_start_uni_(asterisk)
arg2_start_uni_3b
arg2_start_uni_cytokines,
arg2_start_uni_28s
arg2_start_uni_proportion
arg2_start_uni_2a
arg2_start_uni_35
arg2_start_uni_modified
arg2_start_uni_20
arg2_start_uni_plasmid
arg2_start_uni_pbs
arg2_start_uni_markers
arg2_start_uni_11
arg2_start_uni_(ff)
arg2_start_uni_1;
arg2_start_uni_12
arg2_start_uni_balanced
arg2_start_uni_that,
arg2_start_uni_'open'
arg2_start_uni_annexin
arg2_start_uni_were:
arg2_start_uni_statistically
arg2_start_uni_il-12-induced
arg2_start_uni_amplicons
arg2_start_uni_*p
arg2_start_uni_boxes
arg2_start_uni_individualization
arg2_start_uni_lowest
arg2_start_uni_chosen,
arg2_start_uni_standards
arg2_start_uni_reduced
arg2_start_uni_student's
arg2_start_uni_histopathological
arg2_start_uni_period
arg2_start_uni_blunt-tipped
arg2_start_uni_gail
arg2_start_uni_owing
arg2_start_uni_diagram
arg2_start_uni_0.05
arg2_start_uni_depicts
arg2_start_uni_refer
arg2_start_uni_separate
arg2_start_uni_depletion/modulation
arg2_start_uni_joint
arg2_start_uni_lysate
arg2_start_uni_contribute
arg2_start_uni_yields
arg2_start_uni_noted
arg2_start_uni_fusion
arg2_start_uni_cml-t1
arg2_start_uni_description
arg2_start_uni_short
arg2_start_uni_conducted
arg2_start_uni_anti-phospho-p38
arg2_start_uni_very
arg2_start_uni_blue
arg2_start_uni_preparation
arg2_start_uni_ester
arg2_start_uni_points
arg2_start_uni_filled-in
arg2_start_uni_generation
arg2_start_uni_absolute
arg2_start_uni_complete
arg2_start_uni_alcian
arg2_start_uni_original
arg2_start_uni_upregulation
:_->_...:2
arg2_start_uni_treatment,
arg2_start_uni_unprogrammed
execut_,
arg2_start_uni_methyl-cpg-binding
arg2_start_uni_negative
note_at
arg2_start_uni_animal
arg2_start_uni_wsr
arg2_start_uni_get
arg2_start_uni_branches
arg2_start_uni_chy
arg2_start_uni_acetoxymethyl
arg2_start_uni_quantifications
arg2_start_uni_fibrous
arg2_start_uni_specimens
arg2_start_uni_error
arg2_start_uni_target
arg2_start_uni_relatively
arg2_start_uni_equivalency
arg2_start_uni_probably
arg2_start_uni_confirmed
arg2_start_uni_level
arg2_start_uni_chosen
arg2_start_uni_de
arg2_start_uni_patients
arg2_start_uni_rag1-/-
arg2_start_uni_situation
to_<-_<pobj>:2
arg2_start_uni_less
arg2_start_uni_translocations
arg2_start_uni_example
arg2_start_uni_elf3
arg2_start_uni_examples
arg2_start_uni_tumors
arg2_start_uni_il-10,
arg2_start_uni_occurs
arg2_start_uni_includes
arg2_start_uni_methylation
arg2_start_uni_dp
arg2_start_uni_invertor
arg2_start_uni_synthetic
arg2_start_uni_z
arg2_start_uni_current
arg2_start_uni_ratios
arg2_start_uni_socs1
yield_and
arg2_start_uni_comparative
arg2_start_uni_again,
arg2_start_uni_neutrophil
arg2_start_uni_approximately
arg2_start_uni_complex
arg2_start_uni_preventive
arg2_start_uni_mabs
arg2_start_uni_novo
arg2_start_uni_corresponding
arg2_start_uni_chromatin
arg2_start_uni_indicated
arg2_start_uni_intriguingly,
arg2_start_uni_hao
arg2_start_uni_colon,
arg2_start_uni_rajewsky
arg2_start_uni_p53,
arg2_start_uni_substitutions
arg2_start_uni_corroborating
arg2_start_uni_detailed
arg2_start_uni_reveal
arg2_start_uni_increases
arg2_start_uni_parallel
arg2_start_uni_cell-type-specific
arg2_start_uni_baar
arg2_start_uni_obligatory
arg2_start_uni_tissues
arg2_start_uni_epidemiology
arg2_start_uni_extend
arg2_start_uni_hepatocyte
arg2_start_uni_supported
arg2_start_uni_pre-dp
arg2_start_uni_lung
arg2_start_uni_agreement
arg2_start_uni_accordance
arg2_start_uni_eosinophil-specific
arg2_start_uni_il-10-mediated
arg2_start_uni_macrophages
arg2_start_uni_22343
of_who
arg2_start_uni_striking
arg2_start_uni_half
arg2_start_uni_alternative
arg2_start_uni_disagreement
arg2_start_uni_immunodeficient
arg2_start_uni_oct-1
arg2_start_uni_areb6
arg2_start_uni_interpretation,
arg2_start_uni_neutrophils,
arg2_start_uni_seem
RB_->_n't:2
arg2_start_uni_chemoattractants
arg2_start_uni_introduction
arg2_start_uni_seems
arg2_start_uni_nucleic
arg2_start_uni_3.2
arg2_start_uni_work,
arg2_start_uni_acid
arg2_start_uni_severe
wa_who
arg2_start_uni_(jackson
arg2_start_uni_others
arg2_start_uni_intra-articular
arg2_start_uni_injection
arg2_start_uni_sequence-based
arg2_start_uni_cross
arg2_start_uni_core
arg2_start_uni_biopsy
arg2_start_uni_elf3,
arg2_start_uni_micro-organisms,
arg2_start_uni_co-incident
arg2_start_uni_il-7r
arg2_start_uni_ews-fus
arg2_start_uni_4a,
arg2_start_uni_(il)-17
arg2_start_uni_family,
arg2_start_uni_recognized
arg2_start_uni_map
arg2_start_uni_variety
arg2_start_uni_computational
arg2_start_uni_overexpressing
arg2_start_uni_epidermal
arg2_start_uni_myocytes,
arg2_start_uni_illegitimate
arg2_start_uni_marchetti
arg2_start_uni_delivery
arg2_start_uni_al.,
arg2_start_uni_p38
arg2_start_uni_cml,
arg2_start_uni_iκb
arg2_start_uni_modelling
arg2_start_uni_interleukin
arg2_start_uni_mouse,
arg2_start_uni_ciofani
arg2_start_uni_tn1
arg2_start_uni_cis-regulatory
arg2_start_uni_loss
arg2_start_uni_vitro,
arg2_start_uni_nested
arg2_start_uni_release
arg2_start_uni_principal,
arg2_start_uni_describes
arg2_start_uni_egfr
arg2_start_uni_semi-quantitative
arg2_start_uni_azadc
arg2_start_uni_e6.1
arg2_start_uni_gene,
due_'s
arg2_start_uni_what
arg2_start_uni_rag1-cre
arg2_start_uni_lana
arg2_start_uni_review
arg2_start_uni_opposed
arg2_start_uni_ks
arg2_start_uni_nfkb1
arg2_start_uni_stages,
arg2_start_uni_considered
arg2_start_uni_jurkat
arg2_start_uni_bdnf
arg2_start_uni_fdc-m2
arg2_start_uni_polypeptides
arg2_start_uni_search
arg2_start_uni_vil-6
arg2_start_uni_lesions
arg2_start_uni_output
arg2_start_uni_small
arg2_start_uni_attempted
arg2_start_uni_bone
arg2_start_uni_carcinomas
of_<-_<pobj>:2
arg2_start_uni_indication
arg2_start_uni_c
arg2_start_uni_overexpressed
arg2_start_uni_focuses
arg2_start_uni_examined
arg2_start_uni_here,
arg2_start_uni_pore-mediated
arg2_start_uni_73
arg2_start_uni_55
arg2_start_uni_knockout
arg2_start_uni_databases
arg2_start_uni_constitute
arg2_start_uni_become
arg2_start_uni_encodes
arg2_start_uni_essential
arg2_start_uni_influx
arg2_start_uni_rt-pcr,
arg2_start_uni_speculated
arg2_start_uni_tempting
arg2_start_uni_oct
arg2_start_uni_paper
arg2_start_uni_prevents
arg2_start_uni_cellular
arg2_start_uni_development
arg2_start_uni_orf
arg2_start_uni_upper-outer
arg2_start_uni_over-expression
arg2_start_uni_b6
arg2_start_uni_competitor
arg2_start_uni_panels)
arg2_start_uni_trigger
arg2_start_uni_illustrated
arg2_start_uni_wereincubated
arg2_start_uni_pretreated
arg2_start_uni_sufficient
arg2_start_uni_(wt
arg2_start_uni_estimated
arg2_start_uni_localization
arg2_start_uni_oct1,
arg2_start_uni_cold
arg2_start_uni_igh
arg2_start_uni_agents
arg2_start_uni_efficiently
arg2_start_uni_blast
arg2_start_uni_inhibitor
arg2_start_uni_seen
arg2_start_uni_(top
arg2_start_uni_(29/104)
arg2_start_uni_dynamic
arg2_start_uni_βgal
arg2_start_uni_murine
arg2_start_uni_localize
arg2_start_uni_formation
arg2_start_uni_histomorphological
arg2_start_uni_block
arg2_start_uni_circles)
arg2_start_uni_clonal
arg2_start_uni_saw
earlier_from
arg2_start_uni_30%
arg2_start_uni_bearing
arg2_start_uni_7
arg2_start_uni_context
arg2_start_uni_cd19+cd27-
arg2_start_uni_organs
arg2_start_uni_transgene
arg2_start_uni_excluding
arg2_start_uni_completely
arg2_start_uni_end,
arg2_start_uni_collected,
arg2_start_uni_delta1-fc
arg2_start_uni_plate-bound
arg2_start_uni_cho-hdelta1
arg2_start_uni_28%
arg2_start_uni_investigation
arg2_start_uni_18
arg2_start_uni_stage-specific
arg2_start_uni_200
levels_<-_<nn>:12
arg2_start_uni_hypersensitive
arg2_start_uni_incidence
arg2_start_uni_purities
arg2_start_uni_cd19-positive
arg2_start_uni_s194
arg2_start_uni_mri,
arg2_start_uni_allele
arg2_start_uni_oct2
arg2_start_uni_(more
arg2_start_uni_73,
arg2_start_uni_polya
arg2_start_uni_ephb4,
arg2_start_uni_co-expressed
arg2_start_uni_muc1
a_cent
arg2_start_uni_results:
arg2_start_uni_conclusion:
arg2_start_uni_presentation:
arg2_start_uni_methods:
arg2_start_uni_21
arg2_start_uni_conclusions:
arg2_start_uni_success
arg2_start_uni_tf-mediated
arg2_start_uni_better
arg2_start_uni_alternate
arg2_start_uni_initiated
arg2_start_uni_require
arg2_start_uni_introduced
arg2_start_uni_t-47d
2.074232304874123
1.4785684108760295
1.4120872807818976
1.3994903665375438
1.4120872807818976
2.0882009012993596
1.9638436931298553
2.09688401835976
1.7822866818359742
1.5925064257384514
1.3994903665375438
1.6129600186640356
1.3317397565006224
1.6129600186640356
1.9539045096058107
1.4030253521297211
2.576497402749642
1.5136627460917362
2.5097554186235795
1.4816669764108708
1.496637511185905
2.0682506426835467
1.8232324842973908
1.9703148519721885
1.7616900100092334
2.2248365747312557
1.290202660209201
0.7450460743564932
1.8592147890824926
0.7268456284014703
1.6520762146233539
0.9154118487186311
1.4738998027407502
0.598667603717803
1.8201011483249487
0.6135539487681875
1.145379945703296
0.7999389474191473
1.4681448245530566
0.6421041829507507
-0.27712343901058567
0.1337901095954893
0.4741855699269567
-0.05884988611435588
-0.43581811841803875
-0.16292214819342124
-0.16156306417092076
0.10570363726652797
0.040246463819850926
-0.5929876656514728
0.08654435009899344
-0.566319201545268
0.02524969659132936
-0.21910808161671133
0.012060202032303236
0.1868022519352152
0.06456360474455508
-0.8942776058746336
-0.10562652998497793
-0.4199381542342243
-0.3953408508743146
-0.025320033574917404
-0.18168765344879437
0.09068343082411909
0.08776549603332649
0.013063510964272851
-0.14435169847421814
0.040393152355699666
0.07156022767300828
0.0794927548229845
-0.014141313711789767
-0.08219054773657154
-0.27820292914076966
-0.16313956927931642
0.03524284591685234
-0.05654088597106203
0.17856208133797527
-0.1386533359545755
-0.14210017647772002
-0.055217937318615386
-0.02198456312587851
-0.07624760557979725
-0.09463567608966288
0.26513042231657413
-1.1163774103225637
-0.036503665630666295
-0.16495190297383566
0.1937053929063459
0.1429204095499757
-0.14486937455005888
-0.35512403478535004
-0.09850889768675085
-0.8202836414343072
-0.3035778333544405
0.1835354065212045
0.4157175119880092
-0.030759453608794448
-0.03401805061206412
-0.0012774565818717747
0.27197621777880815
-0.18017898795839365
0.16622237121979844
0.21821908950837454
-0.6748353540345229
-0.4365864030578286
-0.0043841514914879625
0.25602105423891636
0.1741937730304023
-0.02564232774140334
-0.04308850066468059
0.05378635713241689
-0.209131620292064
0.19240551877418607
-0.16371289945740136
0.12444317219017292
0.1512522407575163
-0.14497383863837157
-0.43110061920332077
0.07402043737672862
-0.31771304212114687
0.18622766665576956
-0.1135620030147267
0.13528500687510933
0.10595790941403496
-0.5124250011164483
-0.17483339774719195
-0.47943751276506796
0.01099219374624269
0.14398273943078121
0.06454294683997167
0.07713620553488597
0.05671977729446977
0.21532489389486595
-0.23907189012642985
0.1388868829996231
0.05887656336783535
0.25099172791925733
0.1007317997223779
-0.3714764826653826
0.36292218472139465
-0.05107570815654036
-0.19988266076580719
0.1933809970959139
-0.3000994586323009
-0.13810597557004356
-0.25019120144107293
0.31317443386400046
0.25530371655000444
0.30749630827472474
-0.30543428238120884
-0.10754985756028078
0.19735550667971186
-0.23805935206348589
-0.17382597316134932
-0.17959845306079114
0.0482367441994486
-0.15944345805521593
0.393236991393705
0.0949632439779344
-0.155149710160969
-0.11485515004674535
-0.2066589242641667
-0.3641822524204766
0.0377528813478261
0.12342955562707425
-0.08357249104099809
0.07931728436608675
-0.005259249181725803
-0.0013967168929727028
0.266943040816715
-0.9301753216690772
-0.14780502169078585
0.07012960783384863
-0.28914184925971004
0.24759607113058188
-0.5075004434600375
-0.3849875569269286
-0.10288668332131333
0.07479065281676778
-0.012565046059563916
-0.3388595346089688
0.022246217627101796
-0.3833729849236081
-1.260303994848432
0.4879729093962074
0.2122663496663677
0.019251624955661743
-0.12448609447546456
-0.12321703118914962
-0.04654795900790039
0.10920337792913913
0.03151580359737297
0.03354153074655045
-0.1168168315219158
-0.28431253850972843
0.22827214343835417
0.23552803004067355
-0.40142581174085223
-0.06551239033483308
-0.03726191850794021
0.14415805364263043
-0.1093589393061681
-0.35128537107450925
0.10136237525302416
0.08392923227804693
0.19544113267176053
0.1291586844626412
-0.045930743612520426
-0.08374084940105006
-0.5843532329731103
0.20012915188342706
0.031821188801503864
-0.20286499243227582
0.03867772967445646
0.021808180206359443
0.10109622708289887
-0.24149306810810411
-0.2774098522795768
-0.29665772519259487
-0.15842938514259472
-0.07817594673981955
0.06783402202793684
0.0985304600127212
0.005726000432331035
-0.2891897299722663
-0.03869454800132175
-0.2797802135491912
0.06931381112592326
0.1477990282875104
0.16315260183728625
0.1954617203451554
0.2194881440919528
-0.059720393778729584
0.23732683975784918
-0.2393673513673363
-0.2690758993930763
0.03186613510210793
-0.174570040824737
-0.19248174215849786
0.04459457640448685
-0.6791914406521874
0.34511033988708983
0.6441219315850516
0.2961222102148859
0.09131740574710903
-0.11740568095088501
-0.33547811192573734
-0.04778574183055795
0.053375710845754876
-0.2866809725120675
0.2163451168679725
0.0791769367802375
-1.080353744292863
-0.05213757143990098
-0.3004128541295988
-0.3710359124544834
-0.28224546266053996
-0.5939797656880877
0.2833337489635741
-0.06333955414681597
0.11817790759337438
-0.013951437370987009
-0.03373284321144938
0.12096714822048188
-0.7042292429512598
-0.3735680059179047
0.22839974843072086
-0.10396717747194412
0.04246014557713293
-0.0371191206237605
0.10494869486168014
-0.019659810397422588
-0.35897571429490366
-0.14286646009974616
-0.0250202093209199
0.04011915816168196
0.3899388054150034
-0.16763919201778157
-0.21132078139022345
0.23926878263107046
0.1508561719581935
-0.25894945096851657
0.11309365065642782
-0.008841519756935196
-0.06787889266580122
0.11874015166007602
-0.0326927532949351
0.0625582737516564
0.11594699666510634
0.03442796253255352
-0.9130864764978136
-0.5202339337758836
0.0343789147518672
0.09642805077455505
-0.7192354397651436
0.08160104991216642
-0.042201788177974715
-0.1300549627165245
0.05377727404903067
0.1061399539579992
0.22505700029823467
-0.06509461009592445
-0.4962565898266347
0.07645569373038674
-0.3468404892765446
-0.07308366536613439
-0.07053151626794288
0.07239271566581934
-0.18714638267728254
0.015858122570836592
0.13809059450587396
0.025553595106038517
-0.44158294317793495
0.03682125222350707
0.172079826608753
-0.08383364669210923
-0.19551422229272278
-0.05128832498341982
-0.303137574371206
-0.011791032133939436
-0.01524796042323805
-0.12748534023834243
0.15624637928686952
0.06060965017296203
-0.17108287505548886
-0.6318225580432559
-0.35309822228555837
0.09339583579407372
-0.21760547713988324
0.1880213444852549
0.251077000651371
0.1616749737381802
-0.32114221457919695
-0.1258292983860229
0.00866478291813397
0.06775152795606476
0.09237010835871302
0.2021325266061902
-0.5530710457783062
-0.29246392860778464
-0.16631592352855157
-0.751868505040541
-0.16628991623024325
0.011125719457742343
-0.40622275396532276
0.16107799090600017
-0.11356458665695242
0.08299800452353075
-0.04369469943218203
-0.212167476127567
0.18357464073000257
0.04600885146661375
-0.0045658736303515555
-0.850689630445967
0.10036116396402374
-0.05818187369376967
0.11480163100255916
-0.020179124905821157
-0.4508723079662588
0.0012539318297701484
0.11900828377991762
-0.019425694168501397
0.05494183973066209
0.24524537079001277
-0.3066034650466842
-0.23585611487907865
-0.20317960024692203
-0.04836885977635225
0.11543120827289712
-0.07277299478907961
-0.06230195146842507
0.06297663698589083
0.11562784493877687
0.14871775329169606
-0.276746261374169
0.3706639635359887
-0.00734579203035437
0.04236038650488375
0.2420054839627688
0.047945594635940544
-0.08223221343232369
0.02585826824879567
-0.021606894836678974
0.08112660313194237
-0.4033436422882929
-0.1631939238622173
-0.1956117396001988
0.008388602270217578
-0.1174584198053541
-0.024620725136643238
0.26046258483762835
0.049613617574283536
0.16055292047241615
-0.11932553826742724
-0.25668207179241925
-0.6408266792856084
-0.29970464163463434
0.44383195518527085
-0.29354895897327765
0.121310800016607
0.36901337807270995
0.19026482185361498
-0.1401455864843886
0.003313849611427465
-0.13206288993734666
0.21700953273767093
0.07761994305121407
-0.09909058521396409
-0.19798157283108186
0.19092657533730037
0.06983983255957044
-0.06997997419484704
-0.17451260540261468
-0.5872106865150719
-0.14396932509045118
-0.07643287916525085
-0.38836547493614587
-0.08712929884618456
0.24088457710192163
0.03812202665094163
-0.6731457636514119
-0.147576818293756
-1.4100394369993947
-0.4013774528209476
0.043017769427172246
0.07685317683107735
0.15341967930764178
-0.029057109454151738
0.07985066975890788
0.1451000532783528
0.0482552287904879
-0.05287575258004706
-0.34331808989045387
0.0728502822666714
-0.043307271440909706
-0.09281939152323099
-0.02331929512673582
-0.04666591255728899
-0.2751727928345329
-0.06676168259105997
-0.46169976914135685
0.027499021985611553
-0.006108260223009764
0.06802056650044307
-0.4350548692849756
-0.2986861899704942
-0.7795805068959246
0.11160235498589424
0.36712064031394753
-0.23669824105182455
0.10897894967098762
-0.04906241540491418
0.05695787635858082
0.12713022299786908
-0.10235603614023044
-0.23977808437857365
-0.00460899507475622
0.09428168626113016
-0.15340634995993693
0.07029499898817104
0.2436378707730927
0.22899682153646944
-0.011396198146716168
-0.10825506366957784
0.2507526124881829
-0.20518170964275956
-0.6793213901422079
0.13373445435319942
0.0995072138443061
-0.12328036084692143
0.013421824336550278
-0.23157526400228715
0.03336105955565903
0.2523766795790294
-0.4907479662937489
0.14976245358720863
0.08405122490649275
0.18519740539405632
0.2137513869011849
-0.1789922437342771
-0.7296762061475305
-0.16203652444781705
-0.39006283604991077
-0.18513064114780328
0.16268932214470702
-0.5340383165261391
-1.079213152475495
0.042309635745869656
-0.34983220504184076
-0.038241048474815395
-0.19223904559416682
0.033980193397137606
-0.2666054071044611
0.15153599586579086
-0.4114687114798818
0.12096543524980082
0.2869245203820782
-0.1083804364523391
0.1372149498780452
-1.444449049886335
0.02616172059709264
-0.4603934014938096
0.27578798054329523
-0.25537903049176813
-0.036854423151269945
-0.3846444461876318
0.001919833934469164
-1.1483419570577276
-0.5582062624712903
0.2758704349906778
-0.990426703339231
-0.16189196675493733
-0.16775198320426898
-0.046391311743922636
0.035500702501195185
0.09012579443700708
0.05159707782389747
0.017936129254995294
0.062344317273845665
-0.19173527957473538
0.027565339802935143
0.0044368750127048795
-0.07305025733375307
0.17276653166262598
0.14591982969534573
0.15309207622419085
-0.09795498574845436
-0.1646588461265398
0.08953966627796395
-0.4703442068602968
0.09748214791760318
0.15180797885477146
-0.04325441985717535
-0.2704462146037849
0.3608636152563157
-0.24712393586974385
-0.21522789814196977
0.13975095000305482
0.22205662171300883
-0.1360040412277252
0.16468287080533484
-0.06422568018039494
-0.5755631926986199
0.07623684662586182
0.2146635877124621
-0.051889291391355986
0.4324987634872887
0.07121491372581318
-0.3218432869259102
-0.7098859236113668
0.4465130563189161
0.03191801657901822
-0.19429116968971707
0.19825958778026473
-0.0976385755732639
0.12002387890382225
0.12980668245566843
-0.35432867417993363
-0.545605074021062
0.017933099984531523
0.028221009086660573
-0.2050650345596153
0.6723025619865406
0.5858482057564238
0.09108854535167377
-0.1074958242703039
-0.1945726706569095
0.0556779757057617
-0.8319399485657547
0.2414882977228278
-0.05598642465137541
-0.4637978216892905
0.27092217574333416
0.11357001098985295
-0.6913605262592488
-0.829630159621741
-0.07308203122223901
0.10921900933360366
-0.028473962843597763
0.14626622682220577
-0.06441494258726452
0.01990006415855769
0.02755283916407192
-0.16827727937044967
-0.0393531649312772
-0.1306323325379346
-0.04427066781736906
0.1372516878667453
-0.15771324604645087
-0.17315615424810687
-0.7880243153679203
-0.18113453899515689
0.07958006705285278
-0.2786192380478561
0.34535954813295155
-0.09272263460583587
0.23027934994581742
0.1451275709082626
0.4296850534726152
0.25712003391581195
-0.09749526991358938
0.43910032260223375
0.6064884748638012
-0.04829288096742539
-0.042618364296827256
0.06380596869978486
-0.06383189099726226
0.053778496889984824
0.06680524366434748
0.17559550650239197
0.08365436418230704
-0.019438890567457238
-0.11939393405807877
-0.03684054958534616
-0.06987481807560182
0.30552391094840936
-0.21973228983308393
0.03088430918571971
-0.08186935912915613
0.050699973300247204
0.04524009358485172
0.05607275646235137
-0.14065454992512352
-0.27908436147825166
0.011366683659991232
0.04555360529805789
-0.07983183896352972
0.13792434693323627
-0.09851663348717325
-0.3001927048142488
-0.034786733099014984
-0.20450084051431097
0.11875712600026635
-0.02741755169384481
-0.006761334776722541
0.10020819358387781
-0.3648857906315128
-0.6922724956184345
-0.2266851122762611
0.26435891088267977
-0.8084813563397675
-0.1279734054491269
0.27274853041619934
-0.0899626351032394
-0.10869490425420247
0.06451171013012053
0.09274318273412493
-0.018905173350072964
0.21572318027095655
-0.013556840945411703
-0.4107148180334806
0.0940871040369553
0.013986292146005174
-0.06497571168017625
0.3146113427925365
-0.016362701477033764
0.12680709908205734
0.1630666933904154
-0.22239487515693152
0.4904367658844071
-0.38253512037617765
0.25976481946190677
-0.08714721507092749
0.33267394742522655
-0.6711977652148196
-0.9483427762342905
-0.04814340227644978
0.5901125238425645
-0.05312279609575501
-0.09651966286093823
-0.0649526299183974
0.18170814169840316
-0.16352522682894696
-0.05707072757225708
0.10014067195498146
-0.21542192246369285
-0.25416482743697894
0.13308506514151033
0.22499067161102457
0.2939183202045123
0.33299911360710177
0.033255307166460815
-0.01100600149284857
0.14540456221388648
0.07398813321575204
-0.10005425065227785
-0.11172262460084897
-0.2392698994214862
0.32512855579189304
-0.26435382165413845
0.22595987561562772
0.09052227263225643
-0.765642551443544
0.09479382570780083
-0.36944770594751913
0.008941140166837697
0.023871651750434136
0.01779356549935856
0.02650997724876015
0.04430718842685951
-0.0764206537923378
-0.09100860730833514
-0.36748323089242985
0.10507727177465272
0.0035131353878123345
0.07568235479361715
-0.14724201155255934
-0.29400253119438413
0.10399209842700992
0.16102739573017097
-0.030969613693677664
-0.5755829488111766
-0.12387822719478149
0.046449604362626115
0.12660781339568497
-0.10640114339563388
-0.808660194474482
0.2342421001813109
-0.05079325293448741
0.19688227075652534
0.043259578668255645
0.01426512228887891
0.0071424791243666465
-0.04587447906651651
0.005959767488607813
0.03820511123444713
0.010721611525846593
0.0852976095098847
-0.9840883780660866
0.06496608526333716
0.07190576489139369
0.05006510196192601
-0.30537165703349867
0.11243513052414926
-0.010440628010768865
-0.09358746647438138
-0.02646262212043276
-0.5521999544570964
0.07542853154949138
0.29012678559379107
0.15098684616249128
0.1160527252929675
-0.1288333846153542
-0.07494428133377243
-0.16819443939601073
0.4277010733532368
-0.043923296515873636
0.08551448643373949
-0.018965335150754714
-0.0021314920863112928
0.04818035746656948
-0.03583801573735977
-0.039696116035851686
0.0991698150163867
-0.05111155241065255
0.009688440550708806
-0.03780323841973292
-0.04715833720634934
-0.28884137591151426
-0.5821144564511506
0.03460649268262101
0.24407439361216582
0.1448418642095894
0.03138865989057109
-0.02001201608853093
-0.27968764601364565
0.40851471973359643
0.8215800796104626
-0.7465258352902762
-0.513298919142049
0.3501805986804849
0.6930521935552684
0.30381188294204037
0.00248125366811545
0.034706312317279185
-0.14133866493619654
0.01083956969650015
-0.03852809995482723
0.2551375272618467
-0.03428741870289811
-0.359676176284538
0.1938996016920767
0.10114525707086998
-0.21240124345941863
0.6069112493579369
0.05387868844099791
0.03056103501474903
-0.14409125320080654
0.1149946738509386
-0.07792062636769764
0.07417811689896756
-0.3269624427870826
-0.005835287360570431
-0.3769351267963895
0.028374903137876897
-0.08756270291890983
-0.0065368235654608775
-0.12570683182057601
-0.5314476193463291
0.12063825954253436
-0.24323787347356213
-0.19155812333346814
0.00928876290280165
0.14410720137597285
-0.34142017532255775
0.06398249402181395
-0.47122527640447676
-0.5455415689058116
0.052872729037802435
0.14535984236426033
-0.110576790303697
-0.12015295417772602
-0.1469305853843115
-0.16792755749290317
-0.03470139565437073
-0.012074691547592132
0.0712775997162243
0.3081278853477942
0.05087998821807677
0.18128511812695566
0.15751845349271812
0.11114321570111299
-0.4067786340914582
-0.26792049228231246
-0.34089607947850725
-0.1343592023080315
-0.6508716346481108
-0.11733557175477294
0.25758042944314474
0.04013192585659207
-0.010184896483911554
-0.44927818281496934
-1.3892311081419666
-0.20492767410484683
0.07689327788609701
-0.03556831136345273
-0.3077075131952031
0.04323096524812632
0.006058968539943854
0.13084255235792422
-0.04990702634604478
-0.06541635176861334
-0.019124972754568766
0.1252922183235105
0.05265985371533942
-0.1764409676542791
0.09899546566564807
0.0585961431100548
-0.01519636268664881
-0.3855441906154222
-0.11289615983140269
0.0595004465271877
0.07451421795631281
0.010611422679747668
-0.4111697289163402
0.08870778847605598
-0.05203932646620408
-0.3193635239023234
-0.14108470006553966
0.033866071263813136
-0.08438400712268684
-0.21003462181057347
0.01744276811921608
-0.0036016125639865247
-0.03349010041859559
0.07971202014334228
-0.038338846687551054
-0.1431089750032767
0.029905253375763028
0.09744292488847314
-0.015963854474307315
-0.038386523524190114
0.16550615628286852
0.09533092645847231
0.09051041104541098
-0.30437287489639336
-0.3748769406878659
-0.09286404943434286
0.07201817431265518
0.17737329652056
-0.06117047149491683
-0.07093203713654626
0.08295233536837877
-0.08690581434774801
0.039457996111860044
0.017745944208112166
0.12818125578760645
0.11798009654047913
-0.3150520440068611
0.042636063459136446
0.04321724596415165
-0.011353531490631962
-0.052183011951496626
0.10507662318730782
-0.031272109280510954
-0.023619121777616228
0.18769257136432563
-0.02030813884387491
-0.0894701639361055
-0.02630000055105312
-0.016883592670275952
-0.23607126499954248
0.1638131110342455
0.10465799513716914
0.009132543602550188
0.13567169002479773
0.04758699212181074
-0.133837671863485
-0.11847040851680882
0.22794372863545667
0.055873024018126445
0.016908587492245122
-0.1034861047052668
-0.00657079361875462
-0.09474932034885634
0.06898661307978037
0.23329155373780772
-0.18255465336788368
0.057895108140696774
-0.1502504805686735
0.0024844729258841017
0.054902520957055015
0.021545041104229293
-0.1254682251113268
-0.04892951694871339
-0.1515059577828265
0.11637599329050678
0.008449319748541993
0.12147008024670483
-0.08393353446651869
0.5093891923991412
0.1365039309829772
-0.008735254014668422
-0.07142197884689838
-0.01464485926245588
0.059215987827414086
-0.03455039452174924
0.07289988804461488
-0.03223814142466058
-0.08461053093335323
-0.012209164989660059
0.1739690633404953
-0.07645094486804001
-0.2865306659586204
0.15760574838165115
-0.02626320042132638
-0.01912290684754224
-0.05265900253346683
0.09421950688502986
-0.010179425538341051
-0.06492231385601378
0.026051329191739466
0.05979654259391375
0.14074902461841315
0.020889466692429956
0.11457666976436216
-0.24810672789043253
-0.24238649966540926
0.20792502581318667
0.09399389275373561
0.12530375284080014
0.15243557407075703
-0.1190534348954352
-0.7019853132166776
-0.19962270856999983
0.34400216177622855
-0.018928858962740647
0.29291862963585474
-0.0800649921205618
-1.1729721739334633
-0.2472142103909077
0.48083717442253604
0.6466142683587738
0.047775102786600465
0.04262154830361136
-0.11922112166943424
0.050785638359440624
0.08213240731897935
-0.02546030271008814
-0.11633847160145122
0.02606197607864383
0.018354788914856302
-0.06172660590778105
0.027218763132723877
-0.0488528723500762
-0.48969317518789707
-0.42235444755670193
0.16364470870514614
-0.18819418544470132
-0.007591484469063658
-0.03609207618311022
0.01381633618187366
-0.06836290090302502
0.04144617253811862
-0.18516782608685564
0.12964175713992804
0.19572495473416335
0.26624231953045924
0.14960935331893394
0.22079927925050177
0.275202332972079
-0.10633236566945643
-0.08110243170287074
0.10783366737178633
0.10757270092087581
-0.4740719919417273
-0.11278817589963022
-0.009292685541615718
-0.06658964405999548
0.0055848327736139495
-0.2382825281689573
0.32192470389832506
0.1444871996391594
-0.15027468920684564
0.36744508194659453
0.08966984299170992
0.006591833907838364
0.03058635105081104
-0.016015869817997408
0.012704437393513545
0.02673350775855604
-0.00980783826019117
-0.14930377320530774
0.12791168865993938
-0.01026895897261714
0.008536966711005555
0.02913650314747065
-0.2703162324226606
-0.01194406640059141
-0.11161272343403125
0.013034668506887519
-0.004043360659106473
0.09621823727286094
-0.1340659913300627
-0.1169865955940213
0.03055397919724743
0.10519491045168387
0.1263712499007056
0.09625559718200213
0.1534399863785122
-0.09235691403878135
-0.3753355214948891
0.20191843729692463
0.09372840079537022
0.024888239048655048
0.12257811266242269
-0.0043117672738561385
-0.07433468795764979
-0.05418565500375641
0.07465961793342354
0.05773222500031038
0.1009221504118793
0.0857732134596713
0.007389808846147301
0.0010095519843281169
0.10036821464221295
0.2919152066515561
0.0729871230872091
-0.00704953642920295
-0.08193985983573818
0.08353009968634242
0.021948401362446072
-0.0122690782391594
-0.010055593532158437
0.05574300467964594
0.023260645756613005
-0.042487452104144174
0.05016590848556006
-0.2122312831755986
-0.016003993409836475
0.016235402550016702
-0.029851515907486418
0.02840887672814889
0.058236948323781165
-0.029385665651555336
-0.05575350681754077
0.0470767361290317
0.04852077450433177
0.08813357033450403
-0.055732547228673573
-0.011383206913405544
-0.02804633854251498
-0.29311393377127515
-0.3322955396879946
-0.09787457678569857
0.11538187586305264
-0.012730085422990901
0.025920307948740673
0.06713287891489493
0.08629696342448105
-0.05254949934032194
0.00501309603340253
-0.028887565827107907
-0.11214933211413702
0.012358518445958606
-0.03542612308317466
-0.048729168844495324
0.007901803381849246
-0.24661053361558233
-0.31604355687077423
-0.5117927485146605
-0.03826311551229839
0.05431773501743977
0.004801428633077563
-0.038775512296082774
-0.05170861025402744
0.05744391742539147
-0.012516963580074777
0.005683163173391531
0.01602378378476255
-0.03140113437336802
-0.0012093868248165924
-0.04625834108727827
-0.2519325937814296
-0.30735087546400397
-0.4852614595097973
-0.05280990765994443
-0.04133974406788283
0.036779426301045956
0.018807403869414117
-0.5207044320678684
0.0378425087208408
0.13099219142782184
-0.11141596461067585
0.25228971560230523
0.18637769808851207
-0.1464160865184812
-0.11724376361495795
-0.23781429983686078
0.4315138575858096
0.5317429030483661
-0.03855507081443564
0.04702252825957466
0.026772476675435714
-0.07916521292683151
0.059325423895508295
0.04850521821649559
0.0012713145630427636
0.04831087718262801
-0.13323187063801362
-0.06706457670455093
-0.05695277908243146
-0.04215189573840493
-0.2576958912829289
-0.3754957298786105
-0.6394408462879282
-0.13822635004567593
0.07809337245293368
-0.07345607694347409
0.038882392119901146
0.00239441283765392
0.09499941915761166
-0.16525095770504633
-0.1613155694203034
-0.15058738218156464
-0.11649801656329907
-0.059317155367937656
-0.15926668970005975
-0.44515432660358534
-1.1109097254745743
-0.772909830845953
-0.13654085840942337
0.07865750517562219
-0.0724433910678262
0.03561668440593177
0.0024031126757721767
0.09534149571480495
-0.162814961937442
-0.1606260949377417
-0.15060782188687163
-0.1155667555124476
-0.058931744986232215
-0.15797904586775927
-0.442787527825328
-1.110855129310868
-0.7710765186239533
-0.0653017122747714
0.030234220868127566
-0.03577915371934407
-0.0025329552121915577
0.018583067149699307
0.06849490082533707
-0.08936226157117218
-0.07376596294809062
0.01134750007320066
-0.05724730122282507
-0.0039172424586478285
-0.10685565636585706
-0.4796505134601241
-0.49848393178567757
-0.7185786854197174
0.04321176811076543
0.026168470891475868
-1.9221050614736914E-5
0.02272879043866029
-0.008290448321217113
0.055175146190111476
-0.009930199592686633
-0.19237752990042978
0.0131813125428955
-0.055540302285922945
-0.031003197539078323
-0.005180365392603504
-0.8008308677679412
-0.5070231004664012
-0.7599205241546106
-0.39775290320113904
0.010721734282107894
0.0032760233782591274
0.021657180732873302
-0.012159601892638022
0.1416149865542441
-0.08143346882120416
-0.1720251785044928
-0.1162787991609293
-0.1928293884539572
-0.005093110797127766
-2.346729329268689
-0.09426959201559604
-0.5768311087052977
-0.7298198405162968
-0.13577990874539914
0.07891171083206905
-0.07672457551587078
0.03584328173857841
0.0025471875673204547
0.09563498954553948
-0.16245166321367416
-0.1602812669251537
-0.14970141358866604
-0.11529632785472833
-0.05869354725119307
-0.1577274048360461
-0.4418041480491544
-1.1070871161449969
-0.7708934854822544
-0.07720878664458097
0.05871298786926135
-0.0611547707251623
0.03141345624800753
0.022330504785540398
0.049449011696730494
-0.0856572315124791
-0.13338786378303974
-0.02463696406426068
-0.02984180762258666
-0.04886595738875717
-0.11112783469036398
-0.4415971424300559
-0.6102102391926905
-0.39891447755095855
-0.08015610283446671
0.0633234449275682
-0.05378893030779731
0.052135708089640284
0.015286741835565136
0.05532013735783966
-0.10896643461312872
-0.14080997486591804
-0.07486153797793366
-0.07379850932250565
-0.05722641588159474
-0.10325823663283533
-0.4116745317113331
-0.8461387094059402
-0.5577622754457452
-0.1277608104290139
0.06884014865288539
-0.07266205153111269
0.021573132845304422
0.016293308906770176
0.07837636346877484
-0.1314391458099656
-0.1391576374504897
-0.08963788286549952
-0.06977343466368684
-0.04723880640611742
-0.15201177443733546
-0.4117665918734971
-0.8265511042520097
-0.5667531544532146
-0.04120186903549787
0.0780881076611185
0.04818701712335905
0.028029854331292722
-0.01109575416719811
0.0011052198954162786
-0.14118886042324716
-0.0862057699215965
-0.11260550406539509
0.012101524021006152
-0.07860960287467696
-0.011937865972747451
0.28046092178647103
0.22497802718191023
0.08406575342598324
-0.2934365147930559
-0.050603496793597956
0.14547615596514524
-1.5330228180262189
-0.03445139092185742
0.4914862356998673
-0.12675192356616352
0.5108504447461429
-0.121248222682777
-0.04793850952714853
-0.383681002096258
0.12746764435462243
0.47518922936201335
0.08281739586519274
-0.04713043304013813
0.06429296610476666
0.03015567470690322
0.005683991503854566
-0.008052361225255563
0.06487723364053995
-0.09519816727684782
0.032086433790900634
0.0918858964576433
-0.03611831103422348
0.18955946071480045
0.15182956490757804
-0.45299223188273635
-0.06107474747357826
0.011406521605367339
0.1799576930337134
-0.002780443622066578
-0.1769275625730114
-0.10002484676621577
0.03435040051054846
0.08333139273945347
-0.061735128609094005
0.07157440010143482
0.08250106914910992
0.05599372014369522
-0.06706657188207427
-0.10343070286784566
0.07436245990575165
0.018669094662228408
-0.32369429133998806
-0.08377624686871447
0.08993884309195263
0.015615815278188243
-0.05836079320592481
0.018295662583999197
-0.8527241601992853
-0.028956859141547567
0.12898859983462724
0.05124265811769923
0.015324217748148255
-0.006418847273041102
-0.02157932043490704
0.0065223553833599745
0.06853496772696077
0.03370156861435006
-0.027015508095158288
0.058990692526911734
-0.0328123973093928
-0.054960796650335
-0.13715883719029792
-0.0015186182970087574
-0.10118492443811712
0.019431099816527436
-0.15955991682181794
-0.3283202902126347
-0.27618966258215827
0.001056662894450166
0.034602759857616704
-0.0972547284339861
0.0051267889279661754
0.09619958634657884
-0.0288293934463683
0.11663053537355134
-0.015550329134648383
-0.06703006087815104
0.022603645470899502
0.08741493983640757
-0.30970533325604904
-0.2285571931176327
-0.4000522917658287
0.04577997689104836
-0.11080442324878274
0.0547439030181235
-0.01654518393757744
0.11427475108085747
-0.21013334874362266
-0.0862218727306956
-0.4625821709901479
-0.028046289427046855
-0.03553755442743581
-0.08782705074875174
-0.40387486203871525
-0.3894345566623953
-0.05584075602079511
0.009811775221589701
0.09639651083633802
0.0255092569289292
-0.09330758465013543
-0.015533279160535634
-0.08060040889138975
0.151088517642533
0.08921008739697078
-0.026187653353529107
0.07729225093132543
-0.15771847032620814
0.11395595197608696
-0.03615563202900063
-0.11558411922849908
0.007850548928269198
-0.03665968053564532
0.09734689163036292
-0.03616433640809306
-0.053323142307297705
0.16878282949811144
-0.0409867029481763
0.014027129782258882
0.14690945268737346
-0.03166755082435236
-0.01645256897990325
-0.25817385352738054
0.16971333064920627
-0.33444733220363926
0.11417512571102083
0.02106718721732058
-0.0861984779948037
-0.017177265125941397
0.09735178899263587
-0.08541300669634637
-0.23100063771225013
0.13122589856137407
-0.15904073609374308
-0.19376961473302448
-0.38691654838718315
-0.2012492353724055
0.2267187320485027
-0.07431451701356344
0.02057159780444807
0.27179166409925215
-0.14230952316473652
-0.5266322862754002
-0.30088612036746126
0.2766273987920098
0.07890065675673597
0.12200051150835269
-0.028485926259546025
-7.55116193034155E-5
0.1856980699204511
0.2834977841374184
0.3301821567470489
-0.006805642846806013
0.05651295268388635
-0.05589718848088825
-0.00946102819845661
-0.31800294489814424
0.11447098769854505
0.0995665093587636
-0.26496020458877517
4.7869909230413733E-4
9.574821638527295E-4
-0.6500364506258149
0.08048760367520992
0.41642573692534324
0.14311164105208657
-0.5607704823390123
0.19012459227975764
-0.09228359793000152
-0.062054179785470925
0.07200787249587791
0.025160461887536224
0.00735713941858823
-0.11202654584316976
0.05534863634305075
-0.1350499176257328
-0.2233234455372599
-0.403195918309593
0.29508685912856764
0.680841475941092
0.1251134336609719
0.049063463999080216
0.07428623162145048
-0.0014797581876873868
-0.11843573600495845
0.03256008079911021
-0.10720507245708942
0.03204471643262416
-0.014261944137118905
-0.1059566695391083
0.032330346213252856
-0.09960064576564545
0.03056895997007508
-0.30768268196378834
0.17603220406697326
-0.10743703466765736
0.04187859759186845
-0.03688915531011376
-0.07011748345529245
-0.020199980518833337
-0.12992923235315643
0.09794546377416881
-0.6540043337420353
0.3519016988213066
-0.011945962881569268
0.10782244160580302
-0.20796807017752883
0.5150903363864969
-0.3904408954570024
-0.17018870012060058
-0.05013400253017621
0.035295983524696505
0.164295733964604
0.015401036411020069
-0.1977632667425497
0.17072680086515873
-0.34150605213725743
-0.022303015375885627
-0.09130813216009677
-0.2898542242908951
0.51295781255759
0.5272235835474446
-0.20400300413257286
0.07023676886979723
-0.13620913296514145
-0.04332226615221984
0.07114646297267592
0.121130818990649
-0.22986023029497518
-0.2983260270725341
0.04218572800460844
0.08198866245619622
-0.3946777843038808
-0.03226714648286924
-0.455545194001605
-0.19615126655144652
-0.226509334443234
-0.08633083179720305
0.0811030239383994
0.14579500122465838
0.08596265596819112
-0.1197341720588251
-0.08329544406040111
-0.028489866800350372
0.04525367768018274
0.06780861107863774
0.061994192566544634
-0.08446819536215026
0.42700348567886365
0.2701486083975184
0.1064397447286077
0.039159217241975054
0.09723763988665163
-0.05242554822161688
-0.032814627317032906
-0.005759695029722187
0.029946316855315493
0.1134364876921278
-0.05270142060242532
0.010970929566201654
-0.00982575629547523
-0.032844585181548966
-0.1372594253821238
-0.1141600577880067
0.2165056467212532
0.006908638959903118
-0.13451080023649145
-0.039916370689205595
0.09694415828396218
-0.002619286787093201
-0.043714888484915525
0.10059388541040862
-0.1768468870037389
0.2136587144877191
-0.15005617513921451
-0.7423494622745243
0.18180462587592433
0.17395722510330447
0.2247056946913867
-0.010094180650639951
0.39051747048187424
-0.1307799694397186
-0.2897376090366033
0.07917532734144485
-0.5359626721930408
-0.45158120347902886
-0.1124639550557884
-0.2645341945576086
-0.9433050662535187
0.04650923527027572
0.6776999548106426
0.4829215847598605
0.009579234305526114
-0.18279289324284664
0.07590775707578504
-0.47650533955569285
-0.03877508982150169
-0.17630909138296327
-0.0068712578359715224
0.305858923340492
0.17103570044573696
-0.2783421956004178
0.2810216889604893
0.9828010920944477
0.2851341929428759
-0.3619623984102897
0.5590845726333158
-0.052950881155827044
-0.6789953379806746
-0.17677044864007516
0.35484357947035994
-0.07045254959744875
-0.6377926053321913
-0.026254317327542943
-0.36641657530820043
-0.5010947711165703
0.824178313810687
0.30692210352549265
-0.06980029196278491
0.1385823501331348
0.01937531601711649
-0.1045675650226668
0.008587625841699583
0.04450488435273209
0.03341282690953535
-0.08349316274765754
0.17673962239984436
-0.29295252365703
-8.239102815586382E-4
0.2829376470566546
0.21015927965139064
-0.3437216197574268
-0.11503047085018288
0.12906842511644198
0.030709343968387016
0.16391525896184328
0.04420653481867534
-0.17485397102019
-0.17993083477648353
-0.04185566964181676
-0.21083384975677577
0.011070379670158495
0.35227789980627067
0.6774001643569791
0.05502512840621108
0.25392901004933965
0.14476239827062518
-0.005340488209993256
-0.3750920412191957
-0.018315255360388177
-0.7860066109212015
-0.24759708869911135
-0.5030644627870687
-0.1409501668421398
-0.22988882420095288
0.07654164822500327
1.042645561268621
-0.6662631129670578
-0.12644076311304703
0.15392202434983773
0.05157201877680982
-0.09824223821493296
-0.03223558874451487
0.09910523856987176
0.09890345279630913
0.15693973634024302
-0.19587863963994173
0.05155258193178745
0.3517484682419362
0.9889701811057752
-0.11989104865541254
-0.07014218870347569
0.05457688885524847
0.11603866070851286
-0.332544997570846
0.05707923371136559
-0.10696957297163341
0.11446440190964792
-0.029110705128827585
0.022191498944848845
0.19980081687025208
-0.11967168137479543
0.7506844457007258
0.3078998597649567
0.07274304070362177
-0.049056611393808396
0.08031309700505528
-0.02289736340116095
-0.11353007874621143
0.04420227234537717
0.14900659929727808
0.17816133228052425
0.04840703516087311
0.011216963125022652
0.08874293590814908
0.04127592613214973
0.2082801234640295
0.11993506970741723
0.13613587556668735
-0.9871998982326384
-0.34714983093679486
0.3120118455838415
0.24290547049287925
-0.4697364755481959
-0.32419765376078835
-0.3056641460917446
0.9773938536286946
0.19430194335644851
0.022694940696016835
0.0057817024240968545
-0.14082310213737426
0.04711026367844561
0.05199066100008991
-0.813698447565542
-0.06645318261161605
-0.6300580905400601
0.3727420637462119
-0.11705316433722449
0.5741840304256066
0.28819498924862064
0.056047085112029396
0.29820499941021505
-0.14298040166416068
-0.27605018191321146
-0.13424634879745156
0.2554131530741188
-0.5494059004681275
0.14861179395641586
0.08495963821503817
0.0031383640339264565
0.17301390088020693
0.734437128297243
-0.346285551770891
0.0895134755734216
-0.09965010291371204
-0.10625269776124072
0.01820702863094625
0.14155528409478116
-0.1353291241015043
-0.03717936267607347
-0.1682134215510508
0.025529832065495858
-0.21084432229142908
-0.16326366488953242
-0.240619418802578
0.5767314265837099
0.2913800961303247
-0.2146014581000438
-0.22055156847055268
-0.4628761941777469
-0.08486235015953572
-0.20156729096417952
0.24081832931181618
-0.6197965272158731
-0.7063523404052172
0.09184610702736307
0.5248377729997701
-0.044173030114425665
-0.0931203144292059
-0.5410769355943189
-0.305070478029862
0.3642437379417659
0.272580686392727
-0.13170390086406636
0.18277671255700947
0.7339494121667939
-0.6218353311718288
0.41482594778748955
-0.028424758220560974
-0.14690653412354038
8.468012565601826E-4
-0.07295670750748591
0.27093236939034926
0.19860553723811444
0.02243322161377115
0.22405228132853522
0.20919401763937745
-0.01768624852065034
0.19199463856120735
-0.34554241633271093
0.32005062416977054
-0.43089010933316135
-0.4171032450672653
-0.31330520526096406
-0.23281877473362456
0.7279076577319651
0.5751491262931263
-0.1666050041308893
-0.32751290072509376
0.31143099985345774
0.06525611217191289
0.20048081739299134
-0.3898421899528057
0.05875486467804006
0.09800046507698852
-0.5601299627276842
-0.7863220093269675
0.44736749530996384
-0.521119285228203
0.6226714239894332
0.056196726819604616
0.14026671288425405
-0.5768804368242624
-0.4678756186369095
-0.048806481031800866
0.5253952280602594
0.26430196114631155
0.5368474563166921
-0.07267848407282103
-0.965815921974499
0.08606260789692646
-0.19505601854455357
-0.11666577258864998
0.1292933921275815
0.06528114098069769
-0.8817592251744779
0.36105924473187023
-0.17672971785705527
0.014138436126516989
0.014248446540696782
-0.30903939114269097
0.4077190263663851
-0.037115998649067845
-0.47634668280581194
-0.41308778759742143
0.32993512345295894
0.05136455885021094
0.36306791230295515
-0.041361234415793986
-0.22376252333576585
-0.07253478135760572
0.11916895196170522
-0.06214217716751374
0.17485360011994072
0.13329240299077522
-0.04831088913678798
-0.5670022087869873
-0.2106143126419635
-0.21347195591628013
-0.39785150230313177
-0.1173665722944738
0.11801651997573123
-0.07749089734113139
-0.1405741402424967
0.1702936836741315
4.087333657753776E-4
-0.45603505779930664
-0.7408366874590898
0.1410324250003523
-0.20072747157482113
0.4704208862194276
0.3333370808094954
-0.08473477063332596
0.1434586827377442
0.16163546821221772
-0.017092451657956774
-0.039017774103255985
0.06651718139238082
-0.45505576937107167
-0.2631151688890108
0.08308866742477952
-0.27598620740884605
-0.5982256394273423
-0.1296596523592142
-1.1625524177750428
-0.13749049192546775
0.35333557767589563
-0.05020185100780762
-0.7487395206484839
-0.24788880774003502
-1.783449919597921
-0.455239897590324
-0.11318065551645373
-0.15114912872344663
-0.06781442441233855
-0.02590063433807221
0.03433063080043434
0.15990108068528214
-0.11450819267445016
0.38723472830106587
-0.33725388348052643
0.06254527035535776
0.06137712537748985
-0.3137490499090701
0.30579851915701456
0.05634888430130712
0.07011324171604036
0.16507080972729055
-0.04017226927144892
-0.10607140444943204
-0.25651238677678073
0.05267385282265705
0.01567727464481473
-0.10513346781545124
-0.354203020653297
0.5136938252251861
0.03536603842318701
0.04531370768739761
-0.35555946664299054
0.014354164191899528
0.09707520025637464
-0.09337297406826112
0.0409768695228927
-0.4908962626901713
0.03285019734428401
0.1842010530786189
-0.7076118110677146
0.503207273781755
0.2551513773383138
-0.02584607048095033
0.1439716512189073
-0.3524661727503016
-0.031526399742237185
0.017965355632844068
0.10187330472220181
0.18345693777910457
0.21422576241303357
-0.0226202448396577
0.26413099277220314
0.6823740056024126
0.06798078875247508
-0.07934561412924372
0.05711757165276208
0.04892572236415297
-0.3807749780925501
-0.19934589113598083
-0.16741309084768322
-0.33458786224954645
0.34565341035019975
0.24527595164153632
0.378578177920334
0.7106759656741535
-0.2433877934334856
0.03384746722720915
-0.13542960198374449
-0.30174449160514377
0.010590952949794662
