GIS
1
0.0
16
Purpose
Circumstance
Temporal
Concession
Contrast
Conjunction
Restatement
Continuation
Cause
Alternative
Instantiation
Exception
Condition
Reinforcement
Background
Similarity
56
344 0
2 0 1
1 0 1 2 3 4 5 6 8 9 11 12 14
1 0 1 2 4 5 8
1 0 2 3 4 5 7 8 9 13
2 0 2 3 5 7 8 13
1 0 2 3 8 12
1 0 2 5 7 8
5 0 2 8
1 0 4 8
5 0 8
5 1
74 1 2
1 1 2 3 4 5 6 8 9 12 13 14 15
5 1 2 8
6 1 2 12
2 1 3 4 14
4 1 12
2 1 13
219 2
3 2 3 4 5
1 2 4 5 6 8 10 13
1 2 4 6
48 2 5
1 2 5 6
1 2 5 7
3 2 5 8
4 2 6
6 2 8
3 2 8 14
4 2 12
64 3
15 3 4
1 3 8
39 4
1 4 6 10
1 4 8 10
138 5
1 5 7
5 5 8
1 5 9
35 6
3 6 8
5 6 8 14
1 6 10
6 7
1 7 13
191 8
1 8 11
5 8 14
49 9
18 10
11 11
25 12
9 13
4 15
1387
with_prev_full:branching_through
with_prev_full:responsible_for
with_prev_full:tool_in
with_prev_full:processed_for
with_prev_full:functions_by
with_prev_full:tissues_through
conn:particularly_through
conn:for
with_prev_full:aligned_by
with_prev_full:results_in
with_prev_full:-rrb-_in_order_to
with_prev_full:trials_in_order_to
with_prev_full:collected_for
with_prev_full:drawn_by
with_prev_full:,_in_order_to
with_prev_full:for_by
conn_lc:in_part_via
with_prev_full:t-cells_both_in_response_to
with_prev_full:disease_by
with_prev_full:androgens_by
conn:To
with_prev_full:site_for
with_prev_full:resorption_by
with_prev_full:function_by
with_prev_full:required_to
with_prev_full:act_through
with_prev_full:supported_to
conn:both_in_response_to
with_prev_full:gene_through
with_prev_full:smad2\/3_to
with_prev_full:affected_by
with_prev_full:inhibition_by
with_prev_full:ks_by
with_prev_full:calcium_through
with_prev_full:pathway_through
with_prev_full:formed_by
with_prev_full:agarose_to
with_prev_full:elongating_by
with_prev_full:phenotypes_by
with_prev_full:chosen_in_order_to
with_prev_full:sensitive_to
with_prev_full:phenotype_by
with_prev_full:footnote_for
conn_lc:for
with_prev_full:produced_by
with_prev_full:inverted_by
conn:specifically_to
with_prev_full:amplification_for
with_prev_full:shut-off_by
with_prev_full:signal_through
with_prev_full:signals_to
with_prev_full:cell_by
with_prev_full:parameters_in_order_to
with_prev_full:-lrb-_by
with_prev_full:stroma_by
with_prev_full:studied_by
with_prev_full:analysis_to
with_prev_full:that_by
with_prev_full:cells_by_means_of
with_prev_full:elicitation_to
with_prev_full:approach_to
with_prev_full:section_to
with_prev_full:buffer_to
with_prev_full:abolished_by
with_prev_full:quantitated_by
with_prev_full:round_to
with_prev_full:calculated_by
with_prev_full:mite_to
with_prev_full:naoh_in_order_to
conn_lc:in_large_part_by
with_prev_full:screen_to
with_prev_full:set_to
with_prev_full:ultrasound_to
with_prev_full:lap_to
with_prev_full:assay_to
with_prev_full:exemplified_by
with_prev_full:assays_in_order_to
with_prev_full:stimulation_by
with_prev_full:assessed_through
with_prev_full:blood_by
with_prev_full:transcription_in_order_to
with_prev_full:computed_to
with_prev_full:measure_to
with_prev_full:systems_to
with_prev_full:diminished_by
with_prev_full:established_by
with_prev_full:tested_by
with_prev_full:fails_to
with_prev_full:jak_by
with_prev_full:hybridisation_to
conn:primarily_by
with_prev_full:constructed_for
with_prev_full:enough_to
with_prev_full:,_in_part_via
with_prev_full:signaling_by
with_prev_full:cells_to
with_prev_full:hes-1_by
with_prev_full:simulation_to
with_prev_full:occur_by
conn:In_order_to
with_prev_full:ifn-γ_in_order_to
with_prev_full:clustering_to
with_prev_full:visualised_by
with_prev_full:inflammation_by
with_prev_full:controls_to
with_prev_full:cells_through
with_prev_full:proposed_to
with_prev_full:purified_by
with_prev_full:difficult_to
with_prev_full:coordinated_to
with_prev_full:centrifuged_to
with_prev_full:microarrays_in_order_to
with_prev_full:cultured_for
with_prev_full:added_by
conn:via
with_prev_full:arthritis_by
with_prev_full:defined_by
with_prev_full:responses_by
with_prev_full:cluster_to
with_prev_full:activity_by
with_prev_full:receptors_to
with_prev_full:pathologist_to
with_prev_full:controlled_by
conn:through
with_prev_full:useful_for
with_prev_full:useful_to
with_prev_full:production_in_part_by
with_prev_full:expression_by
with_prev_full:sarcoma_by
with_prev_full:instructive_by
with_prev_full:determined_by
with_prev_full:panel_for
with_prev_full:sequence_predominantly_via
with_prev_full:tolerance_to
with_prev_full:but_to
with_prev_full:protein_to
with_prev_full:,_through
with_prev_full:signals_through
with_prev_full:gene_by
with_prev_full:essential_for
with_prev_full:not_to
with_prev_full:,_particularly_through
with_prev_full:manipulated_to
with_prev_full:oligonucleotide_to
with_prev_full:collected_by
with_prev_full:completely_by
with_prev_full:investigated_by
with_prev_full:signalling_to
with_prev_full:-lrb-_via
conn:by_means_of
with_prev_full:bear_to
conn_lc:predominantly_via
conn_lc:in_order_for
with_prev_full:left_to
with_prev_full:population_to
with_prev_full:not_through
conn:For
with_prev_full:,_particularly_to
conn:Through
with_prev_full:blotting_to
with_prev_full:augmented_by
with_prev_full:verified_by
with_prev_full:employed_to
with_prev_full:gy_to
conn_lc:specifically_to
with_prev_full:estimated_by
with_prev_full:min_to
with_prev_full:selection_via
with_prev_full:experiment_by
with_prev_full:loop_to
with_prev_full:neurons_by
with_prev_full:rescued_by
with_prev_full:developed_for
with_prev_full:measured_by
with_prev_full:induced_by
with_prev_full:depleted_by
with_prev_full:identified_by
with_prev_full:tissue_through
with_prev_full:ligand_to
with_prev_full:used_to
with_prev_full:performed_to
with_prev_full:tissues_by
with_prev_full:,_to
with_prev_full:undertaken_to
with_prev_full:fusion_to
with_prev_full:depicted_by
conn:in_part_via
with_prev_full:out_by
conn_lc:particularly_through
with_prev_full:included_to
conn:to
with_prev_full:standard_to
with_prev_full:ensured_by
with_prev_full:procedure_to
with_prev_full:signals_by
with_prev_full:cells_by
with_prev_full::_in_order_to
with_prev_full:encoded_by
with_prev_full:selected_by
with_prev_full:regulated_by
with_prev_full:confirmed_by
with_prev_full:paraformaldehyde_to
with_prev_full:-rrb-_to
with_prev_full:panel_to
conn_lc:in_order_to
with_prev_full:studies_to
with_prev_full:calcium_for
conn_POS:IN_DT_NN_TO
with_prev_full:made_by
with_prev_full:-rsb-_to
with_prev_full:plated_for
with_prev_full:conceived_by
with_prev_full:-rrb-_specifically_to
with_prev_full:simulations_to
with_prev_full:shown_by
with_prev_full:homogenized_by
with_prev_full:evaluated_by
conn_POS:IN_NNS_IN
with_prev_full:specificity_by
with_prev_full:pbmncs_to
with_prev_full:captured_by
with_prev_full:marker_for
with_prev_full:test_by
conn:in
with_prev_full:mediated_by
with_prev_full:derived_by
with_prev_full:pathway_to
with_prev_full:prepared_by
with_prev_full:constructed_by
with_prev_full:organogenesis_through
with_prev_full:stopped_by
with_prev_full:coagulation_by
with_prev_full:excluded_by
conn:predominantly_via
with_prev_full:level_to
conn:mainly_by
conn:in_large_part_by
with_prev_full:numbers\/activity_to
with_prev_full:normalized_by
with_prev_full:normally_by
with_prev_full:response_by
with_prev_full:cd69_to
conn_lc:by_means_of
with_prev_full:achieved_by
with_prev_full:seb_by
with_prev_full:annotated_by
with_prev_full:tissue_by
with_prev_full:primers_to
with_prev_full:accomplished_in_large_part_by
conn_lc:in_an_effort_to
with_prev_full:expressed_by
with_prev_full:gene_to
conn_lc:primarily_by
with_prev_full:leukaemogenesis_by
conn_POS:TO
with_prev_full:done_by
with_prev_full:,_in_part_by
with_prev_full:reduced_by
with_prev_full:overcome_by
with_prev_full:erg_to
with_prev_full:reversed_by
conn_lc:to
with_prev_full:activated_by
conn:In_an_effort_to
with_prev_full:dnase_to
with_prev_full:treg_to
with_prev_full:branching_by
with_prev_full:function_in_order_to
with_prev_full:,_mainly_by
conn:By
with_prev_full:treated_by
with_prev_full:around_to
with_prev_full:right_to
conn:In_order_for
with_prev_full:strategies_for
with_prev_full:performed_by
conn_POS:DT_IN_NN_TO
with_prev_full:crucial_for
with_prev_full:,_by_means_of
with_prev_full:primarily_via
with_prev_full:observed_in_order_to
with_prev_full:,_via
conn:particularly_to
with_prev_full:dnas_for
with_prev_full:suppression_to
with_prev_full:follicles_for
with_prev_full:assessed_by
with_prev_full:translocations_by
with_prev_full:isolated_by
with_prev_full:indirectly_by
with_prev_full:abrogated_by
with_prev_full:sensitivity_to
with_prev_full:strategy_for
with_prev_full:-rrb-_by
with_prev_full:sites_by
with_prev_full:mrna_for
with_prev_full:amplification_to
conn_lc:mainly_by
with_prev_full:other_to
with_prev_full:neutralized_by
with_prev_full:stimulated_by
conn_lc:both_in_response_to
with_prev_full:unresponsiveness_by
with_prev_full:achieved_primarily_by
with_prev_full:obtained_by
with_prev_full:extended_to
with_prev_full:death_through
with_prev_full:triggered_by
with_prev_full:respond_by
with_prev_full:occur_through
with_prev_full:results_to
with_prev_full:pathway_by
with_prev_full:evaluated_to
with_prev_full:detected_by
with_prev_full:initiated_by
with_prev_full:micropipette_to
with_prev_full:generated_by
with_prev_full:genes_through
conn:in_order_to
conn_lc:particularly_to
with_prev_full:background_to
with_prev_full:pbmc_by
with_prev_full:cells_via
with_prev_full:hours_to
with_prev_full:samples_by
with_prev_full:sufficient_to
with_prev_full:recombination_to
with_prev_full:quantitatively_by
with_prev_full:analyzed_by
with_prev_full:chosen_to
with_prev_full:,_by
conn_lc:via
with_prev_full:recombinase_to
with_prev_full:field_in_order_to
with_prev_full:species_by
with_prev_full:downstream_by
with_prev_full:curation_to
with_prev_full:osteoclasts_through
with_prev_full:probe_in_order_to
with_prev_full:dictated_by
with_prev_full:quantified_by
with_prev_full:levels_by
with_prev_full:tumors_by
conn_lc:through
conn:In
conn_lc:in
conn_POS:IN
conn_POS:IN_NN_TO
conn_POS:CC
conn:and
conn_lc:and
conn_POS:RB_IN
with_prev_full:,_and
conn_POS:RB_TO
conn_lc:by
conn_lc:as
conn:by
conn:As
conn_POS:IN_NN_IN
with_prev_full:inhibited_by
conn_POS:IN_JJ_NN_IN
conn_lc:in_part_by
conn:in_part_by
with_prev_full:activation_by
with_prev_full:but_once
with_prev_full:produced_in_response_to
with_prev_full:pdcs_once
with_prev_full:identically_when
with_prev_full:animals_in_response_to
with_prev_full:activity_after
with_prev_full:mrna_upon
with_prev_full:equivalent_when
with_prev_full:phosphorylated_upon
with_prev_full:cases_after
with_prev_full:-rrb-_when
with_prev_full:obtained_when
conn:both_upon
with_prev_full:,_when
with_prev_full:that_when
with_prev_full:cells_after
with_prev_full:ability_once
with_prev_full:ifn-γ_after
with_prev_full:apoptosis_when
with_prev_full:cells_when
with_prev_full:upregulation_four_hours_after
with_prev_full:supershift_when
with_prev_full:efficient_when
with_prev_full:cells_both_upon
conn_lc:between_1_2_h_after
conn_POS:RB_WRB
with_prev_full:achieved_after
conn_lc:only_when
with_prev_full:cell_after
conn_lc:both_upon
with_prev_full:phosphorylation_in_response_to
with_prev_full:bmp-6_upon
conn_POS:IN_CD_CD_NN_IN
conn_POS:CD_NNS_IN
with_prev_full:aa_upon
with_prev_full:eliminated_when
with_prev_full:cells_once
with_prev_full:confirmed_when
with_prev_full:event_in_response_to
conn:Upon
with_prev_full:observed_when
with_prev_full:amplified_after
with_prev_full:marker_when
with_prev_full:post-induction_when
conn:In_response_to
with_prev_full:shifted_after
conn:between_1_2_h_after
conn:upon
with_prev_full:il-2_in_response_to
conn:four_hours_after
with_prev_full:tip_when
with_prev_full:level_after
with_prev_full:vivo_when
with_prev_full:h_after
with_prev_full:tissues_in_response_to
conn_POS:DT_IN
with_prev_full:gamma_after
with_prev_full:detected_when
with_prev_full:which_when
with_prev_full:transcripts_after
conn:after
with_prev_full:hours_after
with_prev_full:responsiveness_upon
conn_lc:upon
with_prev_full:induced_after
with_prev_full:detected_after
with_prev_full:activity_when
with_prev_full:secretion_upon
with_prev_full:higher_when
with_prev_full:occurring_between_1_2_h_after
conn_lc:four_hours_after
with_prev_full:%_when
conn:only_when
with_prev_full:seen_after
with_prev_full:increased_when
with_prev_full:p56lck_after
with_prev_full:mrna_after
with_prev_full:aa_after
with_prev_full:augmented_only_when
conn_POS:RB
conn:in_response_to
with_prev_full:stability_in_response_to
conn_lc:in_response_to
conn_lc:after
conn:After
conn_POS:WRB
conn_lc:when
conn:when
conn:When
conn_lc:once
conn:once
conn_lc:however
conn:However
with_prev_full:mice_if
conn:If
conn_lc:if
conn:if
conn_lc:indeed
conn:Indeed
with_prev_full:to_after
with_prev_full:inflammation_following
with_prev_full:differentiation_after
conn_lc:two_years_after
conn_lc:after_which
conn_lc:30_minutes_prior_to
with_prev_full:enhanced_upon
with_prev_full:protein_then
with_prev_full:thymidine_after
conn:20_min_later
with_prev_full:delivered_prior_to
with_prev_full:and_in_turn
with_prev_full:for_after
conn:during
conn_lc:before
conn_POS:CD_CD_NNS_IN
conn:On
with_prev_full:detected_upon
conn:Since_then
with_prev_full:and_when
with_prev_full:ends_after
conn:three_days_before
with_prev_full:il-2_following
conn_lc:on
with_prev_full:she_subsequently
conn_lc:thereafter
with_prev_full:-rrb-_after_which
conn:Three_days_after
conn:8_12_weeks_after
with_prev_full:column_after
with_prev_full:slip_before
with_prev_full:this_then
with_prev_full:line_after
with_prev_full:clefts_before
conn:until
with_prev_full:pdcs_after
conn_POS:CD_NNS_RB_TO
with_prev_full:,_after
with_prev_full:also_after
with_prev_full:subcutaneously_three_days_before
conn_POS:IN_RB
with_prev_full:ancrod_prior_to
with_prev_full:c_followed_by
conn_lc:hereafter
conn_lc:immediately_after
with_prev_full:,_followed_4_hours_later_by
with_prev_full:c_until
with_prev_full:augmented_after
conn:30_minutes_prior_to
with_prev_full:regulated_following
with_prev_full:nodes_following
with_prev_full:responses_following
conn:thereafter
with_prev_full:tasks_during
with_prev_full:mainly_after
with_prev_full:arthritis_in_response_to
with_prev_full:permeabilized_prior_to
conn:During
conn_lc:2_hours_following
with_prev_full:-rrb-_following
conn_lc:subsequently
conn_lc:prior_to
conn:One_day_after
with_prev_full:assessed_before
with_prev_full:cdna_then
with_prev_full:regression_before
conn:prior_to
with_prev_full:induction_followed_by
conn_lc:one_day_after
with_prev_full:retained_after
conn_POS:CD_NNS_RBR
conn_lc:until
with_prev_full:analyzed_8_12_weeks_after
with_prev_full:cassette_after
with_prev_full:c._following
with_prev_full:synthesis_after
conn:followed_4_hours_later_by
with_prev_full:cluster_before
with_prev_full:upregulation_two_hours_after
with_prev_full:-rrb-_two_hours_before
with_prev_full::_as
with_prev_full:longer_before
with_prev_full:staining_following
with_prev_full:activated_following
with_prev_full:healthy_since
with_prev_full:hours_followed_by
with_prev_full:hour_prior_to
conn_POS:CC_IN
conn_POS:CD_NN_RB
conn_lc:20_min_later
with_prev_full:pathway_following
with_prev_full:s_followed_by
with_prev_full:was_next
conn:after_which
with_prev_full:c-jun_following
with_prev_full:separately_when
with_prev_full:min_after
with_prev_full:expand_following
with_prev_full:rt-pcr_after
with_prev_full:cells_180_seconds_after
with_prev_full:contact_while
with_prev_full:,_before
conn_lc:following
with_prev_full:accumulate_following
conn:180_seconds_after
conn_lc:three_days_before
conn_lc:during
with_prev_full:breast_two_years_after
conn:following
with_prev_full:observed_until
with_prev_full:hour_following
with_prev_full:delay_after
conn:hereafter
with_prev_full:smads_then
with_prev_full:done_after
with_prev_full:we_then
conn_lc:followed_4_hours_later_by
with_prev_full:-rrb-_prior_to
with_prev_full:was_subsequently
with_prev_full:measured_after
with_prev_full:il-10_before
with_prev_full:stochastically_after
with_prev_full:signal_after
with_prev_full:were_thereafter
with_prev_full:expression_2_hours_following
with_prev_full:were_then
conn:well_before
with_prev_full:bound_following
with_prev_full:role_during
with_prev_full:and_after
with_prev_full:and_finally
with_prev_full:thymus_after
conn:immediately_after
with_prev_full:,_well_before
with_prev_full:activation_following
conn_lc:two_hours_after
with_prev_full:and_subsequently
with_prev_full:staining_after
with_prev_full:mixture_prior_to
with_prev_full:synthesis_following
with_prev_full:analyses_hereafter
with_prev_full:night_before
conn:before
with_prev_full:similarities_during
with_prev_full:harvested_20_min_later
conn_lc:well_before
with_prev_full:gene_after
with_prev_full:observed_after
with_prev_full:follicles_following
conn:Four_days_after
with_prev_full:hysterectomy_followed_by
with_prev_full:c._finally
with_prev_full:treated_while
with_prev_full:complicatedly_upon
with_prev_full:pbmncs_prior_to
conn:2_hours_following
with_prev_full:changes_when
conn:Four_hours_later
conn_lc:8_12_weeks_after
with_prev_full:infants_after
with_prev_full:secretion_following
with_prev_full:enrichment_prior_to
with_prev_full:lumpectomy_followed_by
with_prev_full:observed_following
with_prev_full:hours_before
with_prev_full:which_subsequently
conn:two_hours_after
conn:two_years_after
with_prev_full:,_following
with_prev_full:,_both_upon
conn:Following
with_prev_full:occurs_when
with_prev_full:;_subsequently
conn:Once
with_prev_full:production_upon
with_prev_full:-rrb-_before
with_prev_full:amplification_when
with_prev_full:points_before
conn_lc:two_hours_before
with_prev_full:c._four_hours_later
with_prev_full:account_when
with_prev_full:analysis_after
with_prev_full:was_then
with_prev_full:sick_following
conn_lc:four_hours_later
conn:subsequently
conn_lc:since_then
with_prev_full:phospho-p38_upon
with_prev_full:added_following
with_prev_full:and_then
with_prev_full:-rrb-_after
with_prev_full:synovium_following
with_prev_full:cross-linking_after
with_prev_full:cells_subsequently
with_prev_full:cells_following
with_prev_full:occurring_immediately_after
with_prev_full:less_after
with_prev_full:seen_following
conn_POS:CD_NNS_VBG
with_prev_full:performed_following
with_prev_full:transfected_after
conn:Then
conn_lc:three_days_after
conn_POS:VBD_CD_NNS_RB_IN
conn:two_hours_before
with_prev_full:secreted_following
with_prev_full:twice_prior_to
with_prev_full:apoptosis_after
with_prev_full:that_during
with_prev_full:h_before
with_prev_full:ug\/ml_30_minutes_prior_to
with_prev_full:induction_upon
with_prev_full:rna_when
with_prev_full:performed_prior_to
conn:Two_hours_after
conn_lc:180_seconds_after
conn:Subsequently
with_prev_full:visible_following
conn_lc:four_days_after
with_prev_full:,_while
conn_lc:while
conn:while
conn_POS:IN_NN
conn_POS:VBG
conn_lc:finally
with_prev_full:naoh_and
with_prev_full:c_and
with_prev_full:i.v._and
conn:next
with_prev_full:,_finally
conn_POS:VBD_IN
with_prev_full:probe_and
with_prev_full:filters_and
conn_lc:second
with_prev_full:extracted_and
with_prev_full:densitometry_and
conn_lc:next
with_prev_full:mice_and
conn:Finally
with_prev_full:h_and
with_prev_full:sieve_and
with_prev_full:we_next
with_prev_full:mats_and
conn_lc:10_min_before
conn_POS:CD_NN_IN
conn_lc:followed_by
conn:10_min_before
with_prev_full:later_and
with_prev_full:electronically_and
conn:Next
conn_POS:LS
with_prev_full:isolated_and
with_prev_full:added_10_min_before
with_prev_full:were_finally
conn:Second
conn:followed_by
with_prev_full:harvested_and
conn:In_turn
with_prev_full:sample_and
with_prev_full:medium_and
with_prev_full:times_and
with_prev_full:added_and
with_prev_full:seb_and
with_prev_full:sacrificed_and
with_prev_full:igm-ic_and
conn:finally
with_prev_full:,_followed_by
with_prev_full:growth_while
with_prev_full:ice_and
with_prev_full:activation_and
with_prev_full:,_in_turn
with_prev_full:nuclei\/ml_and
conn_POS:JJ
with_prev_full:-rrb-_and
with_prev_full:this_in_turn
conn_lc:in_turn
conn:in_turn
with_prev_full:,_then
conn_POS:IN_WDT
conn:then
conn_lc:then
with_prev_full:diagnosed_as
conn:as
with_prev_full:decreased_by
with_prev_full:practice_as
conn:Since
with_prev_full:,_as
conn:since
conn_lc:since
conn_POS:VBN_IN
with_prev_full:arise_when
with_prev_full:model_when
with_prev_full:,_once
with_prev_full:dangerous_when
conn:none-the-less
with_prev_full:,_regardless_of
with_prev_full:yet_still
conn_lc:despite_the_fact_that
with_prev_full:treg_although
with_prev_full:-rrb-_but
with_prev_full:,_although_although_these_cells_still
conn:despite
conn_lc:despite
with_prev_full:performed_but
conn_lc:none-the-less
with_prev_full:that_whilst
with_prev_full:that_while
conn:nevertheless
with_prev_full:that_although
conn:although_although_these_cells_still
conn:albeit
with_prev_full:-lrb-_although
with_prev_full:vivo_albeit
with_prev_full:phenotypes_but
conn_lc:even_though
conn:regardless_of
with_prev_full:has_however
conn:Despite
with_prev_full:gene_but
with_prev_full:tested_and
with_prev_full:weaker_but
conn:Nonetheless
with_prev_full:heterozygotes_despite
with_prev_full:cells_but
with_prev_full:but_none-the-less
with_prev_full:-rrb-_even_though
with_prev_full:cells_although
conn_lc:albeit
conn:Even_though
conn_lc:nonetheless
with_prev_full:observed_despite
with_prev_full:is_nevertheless
with_prev_full:,_even_though
with_prev_full:arthritis_despite
conn:Despite_the_fact_that
conn:Regardless_of
conn:even_though
conn_lc:nevertheless
with_prev_full:conclusion_although
with_prev_full:might_nevertheless
with_prev_full:,_however
conn_POS:IN_IN_DT_NNS_RB
conn:still
conn_lc:still
with_prev_full:similar_but
with_prev_full:marker_but
conn_lc:though
with_prev_full:it_nevertheless
with_prev_full:should_however
with_prev_full:,_albeit
conn_lc:regardless_of
conn_lc:although_although_these_cells_still
with_prev_full:,_despite
conn:Nevertheless
with_prev_full:noted_however
with_prev_full:could_still
conn:Though
with_prev_full:tested_but
conn:however
with_prev_full:;_however
conn_lc:on_the_other_hand
conn:While
conn_POS:IN_DT_JJ_NN
conn:Although
with_prev_full:,_but
conn_lc:whilst
conn_lc:but
conn:but
conn:although
conn_lc:although
conn:whilst
conn:On_the_other_hand
with_prev_full:,_although
conn_POS:IN_DT_NN_IN
conn_POS:IN_DT_JJ
conn_lc:in_comparison_to
conn_lc:in_contrast
with_prev_full:-rsb-_but
with_prev_full:,_whereas
with_prev_full:synthesis_while
conn:in_comparison_to
conn:By_contrast
with_prev_full:metastasis_but
with_prev_full:disease_while
conn_lc:in_contrast_to
with_prev_full:-rrb-_whereas
conn_lc:by_contrast
with_prev_full:,_on_the_other_hand
with_prev_full:,_in_contrast_to
with_prev_full:but_while
with_prev_full:data_however
with_prev_full:genes_while
conn_lc:whereas
conn_lc:in_comparison_with
conn:In_contrast_to
with_prev_full:,_whilst
with_prev_full:stimulation_while
with_prev_full::_whereas
with_prev_full:not_however
with_prev_full:-rrb-_while
conn:Whereas
conn_lc:on_the_contrary
with_prev_full:that_whereas
conn:In_contrast
conn:On_the_contrary
with_prev_full:detected_whereas
conn:Whilst
conn:In_comparison_with
conn:on_the_other_hand
with_prev_full:that_in_comparison_to
conn:whereas
with_prev_full:cells_while
conn:in_contrast_to
conn_POS:NNP
conn_POS:IN_DT_NN
with_prev_full:data_also
with_prev_full:lethal_and
with_prev_full:%_and
with_prev_full:patients_and
with_prev_full:wells_and
with_prev_full:but_also
conn_POS:RB_JJ_JJ_IN_DT_NN_VBN_CC_RB
with_prev_full:tissue_and
conn:In_addition_to
conn_lc:additionally
with_prev_full:depends_not_only_only_on_the_marker_used_but_also
conn_lc:moreover
with_prev_full:cases_and
with_prev_full:,_in_addition_to
with_prev_full:pdcs_and
with_prev_full:buds_and
with_prev_full:bound_and
with_prev_full:replication_and
conn:Further
conn_lc:furthermore
conn_lc:not_only_only_act_as_mediators_of_negative_feedback_inhibition_,_but_also
with_prev_full:cell_and
with_prev_full:will_also
with_prev_full:was_also
with_prev_full:has_also
with_prev_full:treg_also
with_prev_full:was_further
with_prev_full:buffer_and
with_prev_full:described_and
with_prev_full:axis_and
with_prev_full:ifn-α_and
with_prev_full:we_also
with_prev_full:can_also
conn:furthermore
with_prev_full:specific_and
with_prev_full:that_not_only_only_act_as_mediators_of_negative_feedback_inhibition_,_but_also
with_prev_full:solution_also
with_prev_full:fibrosis_and
conn:Conversely
with_prev_full:which_also
with_prev_full:20_and
with_prev_full:constellation_and
with_prev_full:receptors_and
with_prev_full:development_and
with_prev_full:may_also
with_prev_full:to_also
conn:further
with_prev_full:would_also
with_prev_full:experiments_and
conn:Furthermore
with_prev_full:,_furthermore
with_prev_full:were_also
conn:Moreover
with_prev_full:activity_and
conn_lc:not_only_only_can_tgf-β_mediate_cell_cell_suppression_between_the_regulatory_t_cells_and_cd4_+_cd25_-_or_cd8_+_t_cells_,_but_but_new_evidence_also
with_prev_full:might_also
with_prev_full:are_also
with_prev_full:products_and
with_prev_full:analysis_and
conn:Not_only_only_can_TGF-β_mediate_cell_cell_suppression_between_the_regulatory_T_cells_and_CD4_+_CD25_-_or_CD8_+_T_cells_,_but_but_new_evidence_also
with_prev_full:tumours_and
with_prev_full:bmps_and
conn_lc:not_only_only_on_the_marker_used_but_also
with_prev_full:and_also
conn_lc:further
with_prev_full:arrows_and
with_prev_full:mice_also
with_prev_full:disappeared_and
with_prev_full:obtained_also
with_prev_full:breasts_and
with_prev_full:preincubation_and
conn:In_addition
conn_lc:also
with_prev_full:is_also
with_prev_full:tumours_also
with_prev_full:polypeptides_also
with_prev_full:low_and
conn:Also
conn_lc:conversely
with_prev_full:notch_also
with_prev_full:assay_also
conn_POS:RB_JJ_JJ_MD_NNP_VB_NN_NN_NN_IN_DT_JJ_NNP_NNS_CC_NNP_NNP_NNP_:_CC_CD_NNP_NNP_NNS_,_CC_CC_JJ_NN_RB
with_prev_full:colleagues_also
with_prev_full:fk506_also
conn_lc:in_addition_to
conn:in_addition_to
with_prev_full:,_in_addition
with_prev_full:studies_also
with_prev_full:findings_and
with_prev_full:they_also
with_prev_full:immunocytochemistry_and
with_prev_full:il-15_also
with_prev_full:function_and
with_prev_full:markers_and
with_prev_full:pbs_and
with_prev_full:hybridisation_and
conn:also
with_prev_full:;_second
conn:Additionally
with_prev_full:centrifuged_and
with_prev_full:concentrations_and
conn:second
conn_POS:RB_JJ_JJ_VBP_IN_NNS_IN_JJ_NN_NN_,_CC_RB
with_prev_full:course_and
with_prev_full:are_further
with_prev_full:mrna_also
with_prev_full:origin_and
conn_lc:in_addition
with_prev_full:formation_also
conn_POS:RBR
with_prev_full:mutants_also
with_prev_full:amplicons_and
with_prev_full:,_also
with_prev_full:have_also
with_prev_full:differentiation_and
with_prev_full:reaction_and
with_prev_full:it_also
with_prev_full:thermocycling_and
with_prev_full:offspring_and
with_prev_full:ra_also
with_prev_full:points_and
with_prev_full:antibodies_and
with_prev_full:;_and
with_prev_full:technique_also
with_prev_full:injection_and
with_prev_full:size_and
conn:Meanwhile
conn_lc:meanwhile
with_prev_full:results_also
with_prev_full:gene_and
with_prev_full:cells_and
with_prev_full:hours_and
conn:not_only_only_act_as_mediators_of_negative_feedback_inhibition_,_but_also
with_prev_full:markers_also
with_prev_full:ly294002_also
conn:not_only_only_on_the_marker_used_but_also
with_prev_full:study_further
with_prev_full:cells_also
with_prev_full:-rsb-_and
with_prev_full:consuming_and
with_prev_full:perfect_and
with_prev_full:reduced_and
with_prev_full:vitro_and
with_prev_full:samples_and
conn_POS:NN
conn:In_brief
conn_lc:briefly
with_prev_full:by_specifically
conn:In_outline
with_prev_full:;_i.e.
conn:namely
conn:Notably
with_prev_full:,_i.e.
conn_lc:notably
with_prev_full:,_specifically
conn:with
conn_lc:in_brief
conn:In_particular
conn_lc:in_that
conn_POS:VBZ
conn:In_conclusion
with_prev_full:-lrb-_specifically
conn:specifically
conn:In_summary
conn:in_that
with_prev_full:e2_therefore
conn:Briefly
with_prev_full:,_in_that
with_prev_full:,_with
conn_lc:in_summary
with_prev_full:,_namely
conn_lc:in_outline
conn_lc:specifically
conn_lc:i.e.
conn:i.e.
conn_lc:with
conn:Specifically
conn_lc:in_conclusion
with_prev_full:we_specifically
conn_lc:namely
conn_POS:IN_JJ
conn_lc:thus
conn:Thus
conn:therefore
conn_POS:VBN
conn:Therefore
conn_lc:therefore
with_prev_full:we_therefore
conn_lc:in_particular
with_prev_full:panel_and
with_prev_full:observed_and
with_prev_full:stroma_and
with_prev_full:treg_and
with_prev_full:analysed_and
with_prev_full:antibody_and
with_prev_full:assay_and
with_prev_full:,_as_demonstrated_by
with_prev_full:is_due_to
conn:particularly_since
with_prev_full:-rrb-_because
conn:not_due_to
with_prev_full:extent_because
with_prev_full:translated_due_to
with_prev_full:nf-κb_by
conn_lc:appears_to_be_due_at_least_in_part_to
conn:due_mainly_to
conn_lc:in_particular_because_of
conn:as_demonstrated_by
with_prev_full:activation_therefore
with_prev_full:are_therefore
with_prev_full:and_therefore
conn_lc:not_due_merely_to
conn_POS:JJ_IN
conn:presumably_as_result_of
with_prev_full:mastectomy_because_of
with_prev_full:-lrb-_particularly_since
conn_lc:presumably_due_to
with_prev_full:downregulated_by
conn_lc:such_that
with_prev_full:mice_thus
with_prev_full:undisputed_because
conn:by_the_fact_that
conn_lc:due_mainly_to
conn:because_of
with_prev_full:chosen_in_large_part_for
conn:in_large_part_for
with_prev_full:amounts_and
with_prev_full:not_therefore
conn_POS:JJ_TO
conn:Now_that
with_prev_full:euthanized_due_to
conn_lc:accordingly
with_prev_full:unsuccessful_due_to
conn_lc:now_that
conn:In_short
with_prev_full:events_because
with_prev_full:chosen_as
conn_lc:as_a_result_of
with_prev_full:and_thus
with_prev_full:-rrb-_due_to
conn_lc:thereby
conn_lc:presumably_as_result_of
conn:consequently
with_prev_full:micrometastases_because
with_prev_full:choice_because
with_prev_full:,_on_the_basis_of
with_prev_full:over-representation_since
with_prev_full:feasible_due_to
with_prev_full:,_due_to
conn_POS:PDT_DT
with_prev_full:-rsb-_because
with_prev_full:interaction_thus
conn_POS:IN_VBN_IN
with_prev_full:and_since
with_prev_full:but_because
with_prev_full:susceptibility_due_to
with_prev_full:are_not_due_merely_to
with_prev_full:cycles_presumably_due_to
with_prev_full:1997_as_a_result_of
with_prev_full:was_due_to
with_prev_full:il-10_due_to
with_prev_full:and_so
conn:not_due_merely_to
with_prev_full:targets_since
conn_POS:RB_JJ_TO
conn:Accordingly
conn:Because
with_prev_full:,_thus
conn_lc:as_inferred_by
with_prev_full:was_therefore
with_prev_full:,_presumably_as_result_of
conn_lc:probably_because_of
with_prev_full:elucidated_since
conn_lc:in_consequence_of
with_prev_full:occurring_as_a_result_of
conn:insofar_as
conn:On_the_basis_of
conn:Consequently
conn:such_that
with_prev_full:,_in_particular_because_of
with_prev_full:;_consequently
with_prev_full:were_due_to
with_prev_full:vivo_on_the_basis_of
with_prev_full:positives_due_to
conn_lc:in_short
with_prev_full:can_therefore
conn:due_to
with_prev_full:may_therefore
with_prev_full:measurements_since
conn:As_a_consequence
with_prev_full:niches_in_response_to
with_prev_full:risk_due_to
conn_POS:IN_DT_JJ_NN_IN
with_prev_full:production_due_to
conn_lc:not_due_to
with_prev_full:unsuitable_as
with_prev_full:proliferation_as_a_consequence_of
with_prev_full:;_thus
conn:As_a_result
with_prev_full:either_as_a_result_of
with_prev_full:cells_as
conn:so
with_prev_full:striking_insofar_as
conn_lc:probably_due_to
conn_lc:as_a_direct_consequence_of
with_prev_full:mri_due_to
with_prev_full:,_probably_due_to
conn:appears_to_be_due_at_least_in_part_to
with_prev_full:study_due_to
conn_lc:because_of
conn:on_the_basis_of
conn:as_a_consequence_of
with_prev_full:development_due_to
with_prev_full:will_therefore
with_prev_full:correct_and
conn:probably_due_to
conn_POS:JJ_RB_TO
with_prev_full:those_due_to
with_prev_full:we_thus
conn:In_view_of_the_fact_that
conn:as_a_result_of
conn_lc:in_large_part_for
conn_lc:as_a_result
with_prev_full:-rrb-_thus
with_prev_full:fdcs_by
with_prev_full:therefore_appears_to_be_due_at_least_in_part_to
with_prev_full:,_thereby
with_prev_full:,_so
with_prev_full:,_as_inferred_by
with_prev_full:w3\/25_therefore
conn:as_a_direct_consequence_of
with_prev_full:dependent_as
with_prev_full:analysis_since
with_prev_full:expression_due_to
conn:because
conn_lc:because
with_prev_full:appear_in_consequence_of
with_prev_full:,_because
with_prev_full:must_therefore
with_prev_full:generated_as_a_direct_consequence_of
with_prev_full:transition_therefore
conn_POS:IN_NN_IN_DT_NN_IN
conn_lc:by_the_fact_that
with_prev_full:may_thus
conn_POS:RB_JJ_RB_TO
with_prev_full:appealing_because
conn_lc:due_to
conn_lc:as_a_consequence
conn_POS:RB_RB_IN
with_prev_full:were_thus
conn:probably_because_of
with_prev_full:is_therefore
with_prev_full:,_due_mainly_to
conn_lc:particularly_since
conn_lc:as_a_consequence_of
with_prev_full:part_due_to
conn:thereby
conn_lc:insofar_as
with_prev_full:,_such_that
with_prev_full:reactions_due_to
conn_POS:IN_JJ_RB_IN
with_prev_full:,_therefore
conn:in_consequence_of
conn_lc:so
with_prev_full:be_due_to
conn:as_inferred_by
conn_lc:in_view_of_the_fact_that
with_prev_full:is_not_due_to
conn:thus
conn:presumably_due_to
conn:in_particular_because_of
conn:Due_to
with_prev_full:caused_in_part_by
with_prev_full:,_probably_because_of
with_prev_full:pronounced_as_a_result_of
conn_lc:on_the_basis_of
with_prev_full:,_as_a_result_of
with_prev_full:and_thereby
with_prev_full:could_therefore
conn_POS:RB_IN_NN_IN
with_prev_full:complicated_by_the_fact_that
with_prev_full:is_thus
conn_lc:consequently
conn_lc:as_demonstrated_by
conn_POS:VBZ_TO_VB_JJ_IN_JJS_IN_NN_TO
conn:Because_of
with_prev_full:primarily_by
conn_POS:IN_IN
conn:Given
with_prev_full:,_since
conn_lc:based_on
conn:Based_on
conn_lc:given
conn_lc:rather
with_prev_full:suggest_either_either_that_activation_of_pdcs_is_not_associated_with_nuclear_translocation_and_transcriptional_activity_of_relb_or
conn_POS:RB_RB_IN_NN_IN_NNS_VBZ_RB_VBN_IN_JJ_NN_CC_NN_NN_IN_NNP_CC
with_prev_full:ccr3_unless
conn_lc:either_either_purified_total_t_cells_were_directly_used_for_proliferation_assays_,_or
with_prev_full:experiments_unless
conn_lc:or
conn_POS:RB_RB_IN_NNP_MD_VB_TO_NNP_IN_DT_RB_JJ_NN_NN_IN_NNP_NNP_NNS_,_CC
with_prev_full:responses_and\/or
with_prev_full:,_and\/or
conn_lc:either_either_as_a_result_of_a_genetic_lesion_-lrb-_cd19-deficient_mice_-rrb-_that_inhibited_mz_b_cell_survival_,_or
conn:Either_Either_purified_total_T_cells_were_directly_used_for_proliferation_assays_,_or
conn:unless
conn_POS:RB_RB_IN_NN_NN_,_CC
conn_lc:either_either_by_n1-ic_expression_,_or
conn_lc:and\/or
conn:and\/or
conn:Alternatively
conn_lc:instead
with_prev_full:tgf-β_and\/or
conn_POS:DT_DT_JJ_JJ_NNP_NNS_VBD_RB_VBN_IN_NN_NNS_,_CC
with_prev_full:cells_or
conn_lc:either_either_that_activation_of_pdcs_is_not_associated_with_nuclear_translocation_and_transcriptional_activity_of_relb_or
conn:rather
conn:Besides
conn:nor
conn_lc:nor
with_prev_full:smad2\/3_and\/or
with_prev_full:reduced_or
conn_lc:besides
conn_POS:CC_CC_IN_DT_NN_IN_DT_JJ_NN_-LRB-_NN_NNS_-RRB-_WDT_VBD_NNP_NNP_NN_NN_,_CC
conn:either_either_by_N1-IC_expression_,_or
conn_lc:alternatively
with_prev_full:,_either_either_as_a_result_of_a_genetic_lesion_-lrb-_cd19-deficient_mice_-rrb-_that_inhibited_mz_b_cell_survival_,_or
with_prev_full:,_or
conn_lc:unless
conn:or
with_prev_full:but_rather
with_prev_full:indicate_either_either_that_igm-ic_can_traffic_to_fdcs_by_a_previously_unanticipated_mechanism_independent_of_mz_b_cells_,_or
conn_POS:VB
conn:Instead
with_prev_full:triggered_either_either_by_n1-ic_expression_,_or
with_prev_full:present_or
conn:Unless
conn_lc:either_either_that_igm-ic_can_traffic_to_fdcs_by_a_previously_unanticipated_mechanism_independent_of_mz_b_cells_,_or
conn:either_either_that_activation_of_pDCs_is_not_associated_with_nuclear_translocation_and_transcriptional_activity_of_RelB_or
with_prev_full:,_nor
conn:either_either_that_IgM-IC_can_traffic_to_FDCs_by_a_previously_unanticipated_mechanism_independent_of_MZ_B_cells_,_or
conn:either_either_as_a_result_of_a_genetic_lesion_-LRB-_CD19-deficient_mice_-RRB-_that_inhibited_MZ_B_cell_survival_,_or
conn:for_instance
conn:in_particular
with_prev_full:is_for_example
with_prev_full:,_e.g.
with_prev_full:in_for_example
with_prev_full:,_for_example
conn:for_example
conn:For_example
conn_lc:as_an_example
with_prev_full:,_in_particular
with_prev_full:;_for_example
conn_lc:for_instance
conn_lc:e.g.
conn_lc:for_example
with_prev_full:,_for_instance
conn:e.g.
conn:As_an_example
with_prev_full:include_for_example
with_prev_full:,_except_for
conn_lc:except_that
with_prev_full:,_except_that
conn:except_that
with_prev_full:hematoxylin_except
conn:except
conn_lc:except
conn_lc:except_for
conn:except_for
with_prev_full:examined_except_for
with_prev_full:,_except
conn_lc:particularly_if
with_prev_full:,_particularly_if
conn_POS:IN_IN_DT_NN_IN_DT_NN_NNS_VBD_CD_CC_JJR_NNS_IN_NN_,_RB
conn:particularly_if
conn_lc:provided_that
conn:If_If_breast_tumors_from_hereditary_patients_exhibit_NER_deficiency_similar_to_that_observed_in_sporadic_patients_,_while_their_normal_tissues_exhibit_normal_levels_of_this_type_of_DNA_repair_,_then
with_prev_full:and_if
with_prev_full:cells_if
conn:only_if
conn:If_If_the_nuclei_over_the_foreskin_fibroblasts_averaged_50_or_more_grains_per_nucleus_,_then
conn:Provided_that
with_prev_full:monkeys_if
conn_lc:if_if_the_nuclei_over_the_foreskin_fibroblasts_averaged_50_or_more_grains_per_nucleus_,_then
conn_POS:VBG_IN
with_prev_full:reaction_only_if
with_prev_full:amplification_if
conn_lc:if_if_breast_tumors_from_hereditary_patients_exhibit_ner_deficiency_similar_to_that_observed_in_sporadic_patients_,_while_their_normal_tissues_exhibit_normal_levels_of_this_type_of_dna_repair_,_then
with_prev_full:-rrb-_if
with_prev_full:that_if
with_prev_full:significant_if
with_prev_full:improved_if
with_prev_full:,_if
conn_POS:IN_IN_NN_NNS_IN_JJ_NNS_VB_NNP_NN_JJ_TO_WDT_VBD_IN_JJ_NNS_,_IN_PRP$_JJ_NNS_VB_JJ_NNS_IN_DT_NN_IN_NN_NN_,_RB
with_prev_full:possible_if
conn_lc:only_if
conn:in_fact
with_prev_full:does_in_fact
conn:In_fact
with_prev_full:were_in_fact
conn_POS:UH
with_prev_full:does_indeed
conn_lc:in_fact
with_prev_full:,_in_fact
conn:indeed
conn:similarly
conn:Similarly
conn_lc:similarly
with_prev_full:may_similarly
1.9686356157038136
1.8625362391792986
2.3091270093331744
1.8625362391792986
1.94543755978041
1.9686356157038136
2.142319444633299
1.8625362391793026
1.94543755978041
5.169373549669985
1.75489024557857
1.75489024557857
1.8625362391792986
1.94543755978041
1.75489024557857
1.94543755978041
1.9341183915956963
1.8284717079083652
1.94543755978041
1.94543755978041
2.656632762998219
1.8625362391792986
1.94543755978041
1.94543755978041
1.699385129417993
1.9686356157038136
1.6993851294179936
1.8284717079083652
1.9686356157038136
1.6993851294179936
1.94543755978041
1.94543755978041
1.94543755978041
1.9686356157038136
1.9686356157038136
1.94543755978041
1.6993851294179936
1.94543755978041
1.94543755978041
1.75489024557857
1.6993851294179936
1.94543755978041
1.8625362391792986
2.370664081812163
1.94543755978041
1.94543755978041
2.232151220719632
1.8625362391792986
1.94543755978041
1.9686356157038136
1.6993851294179936
1.94543755978041
1.75489024557857
1.94543755978041
1.7953312604887777
1.94543755978041
1.6993851294179936
1.94543755978041
1.8284717079083657
1.6993851294179936
1.6993851294179936
1.6993851294179936
1.6993851294179936
1.94543755978041
1.94543755978041
1.6993851294179936
1.94543755978041
1.6993851294179936
1.75489024557857
1.9593420165272164
1.6993851294179936
1.6993851294179936
1.6993851294179936
1.6993851294179936
1.6993851294179936
1.94543755978041
1.75489024557857
1.94543755978041
1.9686356157038136
1.94543755978041
1.75489024557857
1.6993851294179936
1.6993851294179936
1.6993851294179936
1.94543755978041
1.9454375597804092
1.94543755978041
1.6993851294179936
1.94543755978041
1.6993851294179936
2.142319444633299
1.8625362391792986
1.6993851294179918
1.9341183915956963
1.94543755978041
1.6993851294179918
1.94543755978041
1.6993851294179936
1.94543755978041
2.70737667320874
1.75489024557857
1.6993851294179936
1.94543755978041
1.9454375597804092
1.6993851294179936
1.9686356157038134
1.6993851294179936
1.9454375597804119
1.6993851294179936
1.6993851294179936
1.6993851294179936
1.75489024557857
1.8625362391792986
1.94543755978041
1.9810114230600382
1.94543755978041
1.9454375597804119
1.94543755978041
1.6993851294179936
1.9454375597804119
1.6993851294179936
1.6993851294179936
1.94543755978041
1.9686356157038138
1.8625362391792986
1.6993851294179936
2.9190714587383546
1.94543755978041
1.94543755978041
1.94543755978041
1.9454375597804088
1.8625362391792983
2.142319444633299
1.6993851294179936
1.6993851294179936
1.6993851294179936
1.9686356157038134
1.9686356157038136
1.9454375597804119
1.8625362391792986
1.6993851294179936
2.142319444633299
1.6993851294179936
1.6993851294179936
1.94543755978041
1.94543755978041
1.94543755978041
1.6993851294179936
1.98101142306004
1.8284717079083648
1.6993851294179936
2.142319444633299
2.686191376474169
1.6993851294179936
1.6993851294179936
1.9686356157038134
2.9916412638576952
2.232151220719632
3.2051907951716445
1.6993851294179936
1.94543755978041
1.9454375597804119
1.6993851294179936
1.6993851294179936
2.232151220719632
1.94543755978041
1.6993851294179936
1.9810114230600402
1.94543755978041
1.6993851294179936
1.94543755978041
1.94543755978041
1.8625362391792983
1.94543755978041
1.9454375597804119
1.94543755978041
1.9454375597804092
1.9686356157038136
1.699385129417993
1.6993851294179976
1.6993851294179936
1.94543755978041
1.6993851294179905
1.6993851294179936
1.699385129417993
1.94543755978041
1.9341183915956963
1.94543755978041
2.142319444633299
1.6993851294179936
1.699385129417999
1.6993851294179936
1.94543755978041
1.6993851294179945
1.94543755978041
1.9454375597804088
1.4908102820139744
1.94543755978041
1.94543755978041
1.94543755978041
1.94543755978041
1.6993851294179936
1.6993851294179945
1.6993851294179936
2.3120045244765963
1.6993851294179936
1.8625362391792986
2.3380564142998983
1.9454375597804097
1.699385129417993
1.8625362391792986
1.9454375597804099
2.232151220719632
1.6993851294179936
1.9454375597804099
1.9454375597804099
1.9454375597804097
1.8284717079083648
1.9454375597804099
1.6993851294179936
1.9454375597804099
1.8625362391792986
1.9454375597804099
2.3091270093331744
1.9454375597804097
1.9454375597804099
1.6993851294179936
1.9454375597804083
1.9454375597804114
1.9686356157038136
1.9454375597804097
1.9454375597804099
1.9454375597804097
2.142319444633299
1.699385129417993
2.142319444633299
1.9593420165272164
1.6993851294179936
1.9454375597804099
1.9454375597804099
1.9454375597804092
1.6993851294179936
1.8284717079083648
1.9454375597804074
1.9454375597804099
1.9454375597804099
1.9454375597804099
1.6993851294179936
1.9593420165272164
2.3380564142998983
1.9454375597804099
1.6993851294179936
2.142319444633299
1.9454375597804099
2.050219817599282
1.9454375597804083
2.9190714587383546
1.9454375597804099
1.9454375597804099
1.6993851294179934
1.9454375597804097
2.050219817599282
1.9454375597804097
2.3380564142998983
1.6993851294179934
1.6993851294179934
1.9454375597804099
1.75489024557857
2.142319444633299
2.9417832443065697
1.9454375597804099
1.6993851294179934
1.6993851294179934
2.686191376474169
1.8625362391792986
1.9454375597804088
1.8284717079083652
1.8625362391792986
1.8284717079083657
1.9810114230600402
1.75489024557857
1.9810114230600402
2.232151220719632
1.8625362391792986
1.6993851294179934
1.8625362391792983
1.9454375597804099
1.9454375597804099
1.9454375597804097
1.9454375597804097
1.9454375597804099
1.6993851294179934
1.8625362391792986
1.9454375597804099
1.9454375597804099
1.8625362391792986
1.699385129417993
2.142319444633299
1.6993851294179934
1.9454375597804097
1.9454375597804097
1.8284717079083652
1.9454375597804099
2.142319444633299
1.9454375597804088
1.6993851294179934
1.9686356157038136
1.9454375597804099
1.9454375597804099
1.9686356157038136
1.439001351687541
1.9454375597804099
1.6993851294179934
1.9454375597804099
1.9454375597804099
1.6993851294179934
1.9454375597804092
1.9686356157038136
1.7548902455785642
2.232151220719632
1.6993851294179934
1.9454375597804099
1.98101142306004
1.6993851294179934
1.9454375597804099
1.6993851294179945
1.6993851294179934
1.9454375597804099
1.9454375597804097
1.6993851294179934
1.9454375597804074
1.9810114230600382
1.6993851294179934
1.75489024557857
1.9454375597804099
1.9454375597804099
1.6993851294179934
1.9686356157038136
1.75489024557857
1.9454375597804099
1.9454375597804099
1.9454375597804097
1.9454375597804097
2.0214475660840883
0.9461293565593824
3.643887955076414
1.5978073628405003
2.9653857025370165
1.1258742653724687
-0.3968508106876345
1.240486642654365
0.6069716238014284
0.3798360076228011
-1.8424827268539707
-3.119752623844718
0.7981812512422539
-2.3208398452897847
-3.1197526238447213
-1.1388283960996413
-3.910154611490337
1.8561329403681204
0.7451193440484686
0.6313670824202962
0.8225335431988197
0.4218348199327478
-0.5539455099792886
-1.4180687010982713
0.8273671429964795
1.1523427905526025
-0.6040602447248142
1.5509581888647537
0.47130004196655595
-0.06255436917872204
-1.2180205341046482
-1.4660323042634333
-0.09131323286851302
1.0154332572089988
-1.4151785335863583
1.6406519065230385
0.7444383615949597
0.4764846318374999
-0.1769408974906679
-0.09131323286851302
1.0154332572089988
-1.4151785335863583
1.6406519065230385
0.7444383615949597
0.4764846318374999
-0.1769408974906679
1.104587055086763
0.6608982228551973
1.6135177034923902
1.2041152411888456
0.6608982228551966
3.0792023448556134
1.6267194645719698
1.4849690477100805
2.231536588068235
0.5901320499605828
0.7097845549577799
1.6982927288544594
1.127854562303586
1.8360370911216828
-1.5870888122419484
-0.3004431819860872
-0.31772454332338856
1.197934793663943
2.089846650597933
1.8180826291648866
-1.151856757230063
-0.15131835586219355
3.1320061641762074
1.548483814525687
2.4703769623339373
1.6952103870461233
1.2623137958742976
1.189402697073523
1.2566634470840814
4.56470153983169
1.5517514968197728
1.5517514968197728
1.6074385315439734
1.352927659575862
1.6074385315439734
1.352927659575862
0.5263954796194065
4.933045861034771
4.520427930046265
3.563280476141736
4.520427930046265
3.8821421150461237
3.563280476141736
2.9502360404946173
1.2609270790163942
2.685591378241421
1.1848013580958918
2.0183948907693026
1.4011634140254896
2.685591378241421
1.1848013580958918
3.1981394995975143
0.8156833575595677
2.0183948907693043
1.4011634140254907
2.0183948907693026
1.4011634140254896
1.3340306488627902
1.7643762134068963
2.0183948907693057
1.4011634140254925
2.0183948907693026
1.4011634140254896
2.8391435254434803
1.3729781152793947
2.1374374302713735
2.236973658185029
2.9502360404946173
1.2609270790163942
2.0183948907693026
1.4011634140254896
2.0183948907693017
1.4011634140254887
2.008010117835825
1.4796442571959418
2.0183948907693026
1.4011634140254896
2.0183948907693026
1.4011634140254896
1.8982811072223222
1.4699872854041625
1.6381269717586473
1.6381269717586473
1.6381269717586473
1.6381269717586473
3.1981394995975143
0.8156833575595677
1.6381269717586473
1.6381269717586473
3.1981394995975143
0.8156833575595677
1.3340306488627902
1.7643762134068963
2.1517782443120406
2.43164680837018
2.685591378241421
1.1848013580958918
1.6381269717586473
1.6381269717586473
0.43257007603857084
2.020896584500095
2.685591378241419
1.1848013580958903
1.3909271667540002
1.8723079786779444
2.1374374302713735
2.236973658185029
2.0183948907693026
1.4011634140254894
2.1517782443120406
2.43164680837018
3.7726904040373195
2.3836602014422934
2.0183948907693043
1.401163414025491
3.1981394995975143
0.8156833575595677
2.0183948907693026
1.4011634140254894
2.0183948907693026
1.4011634140254894
3.235437229286717
3.402823219615751
3.1981394995975143
0.8156833575595677
1.6381269717586473
1.6381269717586473
1.7373217358235877
1.853191146158966
2.1517782443120406
2.43164680837018
2.008010117835825
1.4796442571959418
2.0183948907693026
1.4011634140254894
3.1981394995975134
0.8156833575595671
2.0183948907693026
1.4011634140254894
3.1981394995975134
0.8156833575595671
2.1517782443120406
2.43164680837018
1.8982811072223222
1.4699872854041625
3.1981394995975134
0.8156833575595671
2.0183948907693026
1.4011634140254894
2.0183948907693026
1.4011634140254894
3.1981394995975134
0.8156833575595672
1.540489239662806
1.7841890276172012
2.950236040494618
1.2609270790163942
2.685591378241421
1.1848013580958918
2.1590476290319156
1.921260052230008
2.950236040494618
1.2609270790163942
3.1981394995975134
0.8156833575595669
2.0183948907693026
1.4011634140254894
2.685591378241421
1.1848013580958916
2.0183948907693026
1.4011634140254894
1.6381269717586473
1.6381269717586473
2.008010117835825
1.4796442571959418
2.0183948907693017
1.4011634140254887
1.6381269717586473
1.6381269717586473
3.1981394995975134
0.8156833575595669
2.0183948907693026
1.4011634140254894
3.1981394995975134
0.8156833575595669
3.1981394995975134
0.8156833575595669
3.1981394995975134
0.8156833575595669
1.6381269717586473
1.6381269717586473
-1.7361879592156542
0.7978530913649806
0.8945689198259712
-0.3261199585795006
1.1678533693399311
0.2631334354392103
1.0103111849893935
-1.019070404013515
-2.9631606785947255
-1.0462453676926298
-1.4099506889218403
-1.7301553756051022
1.8779823326461562
1.7641698754318795
1.660165864101959
1.2984485312686045
1.5783170953267438
3.4739410822058225
2.0383511191977886
1.9832206585631393
1.3623146766886567
1.6338731582950359
2.1552869798548784
-1.4694366449486613
2.4524279183133215
2.7721010954761565
2.9681104005410384
1.5830787871433576
1.7674305849735483
0.5843438875501913
1.5830787871433576
1.7674305849735483
0.5843438875501913
1.3980080156862522
1.655239939745337
0.025505194634436956
2.473529338545426
2.33270530613786
2.382074611432675
2.220080288352934
1.9677904751929416
1.5032653572785208
2.594395115443758
1.1117148445210463
2.057992159705394
1.4160491001266098
2.5694576990351763
2.4229417392415065
1.6551489286938477
2.3067328405912058
2.7925049349942794
2.7837833731938533
2.434349601278089
4.195788401844247
1.9397899510842045
3.5703658603804382
4.21069584616413
1.689961074348377
2.8930161754977863
0.12458712796497254
2.6356226440908603
2.8699531169728343
3.647619995979464
3.028527774050692
3.782693658774974
2.311616489684487
1.7554452561679004
2.311616489684487
1.7932870507431349
2.023625309148987
1.8284717079083652
2.7247745449447733
2.0956078426708027
2.311616489684487
1.8284717079083652
1.9116759326311674
3.8055890306064892
2.311616489684487
1.8380352075208208
1.9602010904910077
1.8284717079083652
2.7256175054072536
2.7247745449447733
2.3380564142998983
3.14523253580535
2.311616489684487
1.7932870507431349
1.7554452561679004
2.7256175054072536
2.0361432156228054
2.104234220235261
2.023625309148987
2.4729471222982773
1.8284717079083652
2.311616489684487
1.9602010904910068
2.0956078426708027
2.311616489684487
1.9602010904910068
1.96020109049101
2.311616489684487
1.8284717079083652
2.311616489684482
2.311616489684487
1.7932870507431349
2.3380564142998983
1.9116759326311674
1.8855865298840642
2.104234220235261
2.2831683997456893
1.8284717079083652
1.9602010904910105
2.311616489684487
1.8284717079083652
1.7554452561679004
1.7554452561679004
1.7554452561679004
2.104234220235261
1.8380352075208226
2.311616489684487
3.891361004005955
1.9116759326311674
2.938580549044952
1.8284717079083652
1.7554452561679004
2.319606775617838
1.9116759326311676
2.541698525692025
1.9602010904910068
2.0956078426708027
1.9602010904910068
1.9116759326311676
1.8855865298840642
2.541698525692025
2.311616489684487
1.8284717079083652
1.96020109049101
1.8284717079083652
2.311616489684487
1.4952852692126335
2.311616489684487
1.8284717079083652
1.9602010904910068
1.6922068630253877
1.7932870507431349
4.76054571220037
1.9602010904910068
1.9950537667465633
1.7554452561679004
6.658184400104276
1.8855865298840642
1.9116759326311674
2.100444326196739
1.8284717079083652
1.8284717079083652
1.7554452561678993
1.8855865298840642
2.3086814657552654
2.023625309148987
1.7554452561679004
3.14523253580535
2.311616489684487
1.9950537667465633
2.311616489684487
1.7932870507431349
5.455305128351825
1.9602010904910097
1.9626361976127442
1.8811094075428108
1.7932870507431349
1.7932870507431349
2.3686235313497193
1.7932870507431349
1.7853466043382107
1.9602010904910057
1.7554452561679004
2.311616489684487
2.104234220235261
2.0956078426708027
2.311616489684487
2.0956078426708027
1.8284717079083652
1.9116759326311699
2.0361432156228054
2.311616489684487
1.960201090491007
2.311616489684487
2.311616489684487
2.104234220235261
1.8284717079083652
2.095607842670801
2.2831683997456893
1.7554452561679004
1.8380352075208226
2.311616489684488
2.952094476141894
2.311616489684487
2.2831683997456893
2.2831683997456893
1.7554452561679004
2.1551822511120684
2.0361432156228045
2.311616489684487
1.9116759326311674
1.7554452561679004
2.104234220235261
1.9602010904910097
1.9602010904910077
1.8380352075208226
1.8284717079083652
2.2831683997456893
2.311616489684487
2.311616489684487
1.7554452561679004
2.4729471222982773
1.8855865298840642
3.3071912607804728
5.455305128351825
2.7247745449447733
1.9116759326311674
1.8284717079083652
3.14523253580535
1.8284717079083652
1.8284717079083652
2.311616489684487
1.7554452561678993
1.9116759326311674
2.675114023409431
1.7554452561679004
1.9602010904910068
2.0361432156228054
1.6922068630253877
1.7932870507431349
1.7554452561679004
2.100444326196739
2.7092886552558926
3.14523253580535
2.0361432156228054
3.5177492547132694
2.7247745449447733
1.960201090491007
3.14523253580535
1.960201090491007
1.7932870507431349
1.8284717079083652
3.14523253580535
2.311616489684487
2.095607842670805
1.9950537667465635
1.8284717079083652
2.036143215622812
2.3380564142998983
2.7247745449447733
1.7554452561679004
2.0956078426707996
2.311616489684487
1.7554452561679004
2.311616489684487
2.0361432156228054
1.7554452561678993
2.2831683997456893
2.311616489684487
1.7554452561679004
1.8284717079083652
1.7554452561679004
2.311616489684487
3.445973530137128
2.4729471222982773
1.8284717079083652
1.7932870507431349
1.7554452561679004
1.9116759326311674
2.311616489684487
1.8380352075208226
1.960201090491007
1.8284717079083652
2.7247745449447733
3.14523253580535
1.9116759326311674
2.6495325555953055
1.7932870507431349
3.3362765027748504
1.7554452561679004
2.4729471222982773
1.1384266771620124
1.037994034869137
2.2993598438380394
0.9918750981951283
-0.48551450357821424
2.1837639684257395
1.9942184219570214
2.4864439000472967
1.6889668050787177
0.44813874433168727
1.6229126386634203
3.388232389984888
-0.2608337126089242
1.7544709903900775
1.6229010653772862
0.5922264973885676
-1.9389112467979543
0.7153429454846364
0.25032390000454685
1.9061713679039087
-0.022923388355893796
0.02668484476498528
2.353459723247288
2.1005371890833633
3.2526818392186447
1.2944793405389117
2.9472274849585434
1.6821721668385334
3.2526818392186447
1.2944793405389117
1.8347483939320641
1.3119195253281333
1.8327281703993679
1.272632896096849
1.3318302925937118
3.462185941472296
3.252681839218646
1.294479340538913
3.252681839218646
1.294479340538913
1.8274891468984016
2.087352243171409
3.252681839218646
1.294479340538913
3.252681839218646
1.294479340538913
2.2805098983062315
1.7954251287392275
3.252681839218646
1.294479340538913
2.6080549023387762
2.381817406088611
3.252681839218646
1.294479340538913
3.2526818392186465
1.2944793405389132
1.722969723778904
1.6648103678656503
3.2526818392186465
1.2944793405389132
1.5204942183418244
1.7346945247041137
1.9952343881333119
1.351083973276783
1.8619288721787457
0.17392266027876208
1.5204942183418244
1.7346945247041137
3.2526818392186465
1.2944793405389132
3.2526818392186465
1.2944793405389132
2.873255225680751
2.295857504081024
2.192434267224477
2.0629304628442044
2.947227484958544
1.6821721668385337
1.5204942183418244
1.7346945247041137
1.2871563136946471
2.1133554005115736
2.192434267224477
2.0629304628442044
1.8619288721787457
0.17392266027876208
3.252681839218645
1.2944793405389126
3.7259786834263844
2.7204842987078752
3.252681839218645
1.2944793405389126
3.2526818392186465
1.2944793405389132
3.2526818392186465
1.2944793405389132
3.2526818392186465
1.2944793405389132
3.2526818392186465
1.2944793405389132
2.947227484958544
1.6821721668385337
3.2526818392186465
1.2944793405389132
1.9113005010938304
0.9612939372875796
1.7615239630500008
1.8560842091348417
5.014700151274652
3.481854211188321
3.2526818392186465
1.2944793405389132
2.947227484958544
1.6821721668385337
1.7989060942590969
2.411013008787299
3.2526818392186465
1.2944793405389132
1.6576348445527387
0.4259883253439024
1.3285807371627083
2.2338120957803813
1.4542645934419167
2.4331641111686126
1.9049905061256842
1.1308030595344403
3.6561281932683465
2.569347345374088
1.6932340531370296
1.8762778109093492
2.305119643837253
1.3736386564277723
2.2132954581344997
1.921699932269663
4.616408047809116
1.3469974047391806
1.6797438380279803
2.0649325016190176
-0.1757346324369801
2.1082622305571173
-0.5477168490086168
2.6013471316267016
1.1754928774895557
0.9744851945977415
1.9613345173445431
8.354217627438823
6.510146120015956
2.6013471316267016
1.1754928774895554
1.5152968743739341
3.057744985599321
1.2065799105835013
1.9266642160479899
-0.4948326878264104
1.858779462140554
2.753772697635184
0.4808527141501908
2.3807517209202933
1.7625189558112606
1.9308673091636308
0.7998160556988504
0.7998160556988504
2.0246612849319754
5.991415095660844
2.0246612849319754
5.991415095660844
2.3716154226807133
5.640652150203857
2.024661284931976
5.9914150956608445
2.0788493480161643
1.8587405208423975
2.0788493480161643
2.9970218039940884
2.0230970595381446
3.061069677794949
1.8284717079083652
2.0050046015621774
2.6135325024303078
3.061069677794949
2.0788493480161643
4.340606106284027
4.596572418659872
1.9672822781718007
2.286064688875405
1.8284717079083652
2.152129325504962
2.286064688875404
2.152129325504964
3.061069677794949
2.396427606510849
1.8587405208423975
2.3538964011850148
3.2712902523666982
3.061069677794949
9.432454465353882
3.061069677794949
2.9047501997824705
2.00500460156218
3.061069677794949
2.0788493480161643
1.8587405208423975
2.286064688875404
2.152129325504962
2.9766428331535026
2.9047501997824705
2.00500460156218
1.9672822781717978
1.8587405208423975
2.00500460156218
2.9970218039940884
2.9766428331535035
1.858740520842397
2.4367128868265513
2.0230970595381446
1.9672822781717978
2.353896401185014
1.8284717079083652
2.0788493480161643
2.0788493480161643
3.0610696777949484
3.0610696777949484
3.0154042581449514
1.9672822781717978
2.3538964011850148
2.152129325504963
2.3964276065108496
1.8284717079083652
2.005004601562179
3.1960926880992098
2.3538964011850148
2.0788493480161643
3.0154042581449514
3.0610696777949484
1.8908940942341639
0.8923016851053209
1.2080282946861383
3.150078857897376
2.010151315288946
2.0067178809020763
3.06604955260558
2.9669442522262646
2.010151315288946
2.0067178809020763
3.0789345957337373
2.0346362666374485
2.19696288422343
1.1396878469870286
1.1784477493707048
2.4420320707346796
1.8355334753187866
2.587485589036813
1.8355334753187866
2.587485589036813
1.9549719766136409
0.732759922365184
2.6034619732730704
1.5886541600056643
1.6478928303410958
1.683912964557868
2.32635061644831
1.9308283767789343
1.8839751953004122
1.8931075963167237
0.9603614370360327
1.7887904772781678
2.1046849878563227
2.2125767481638143
2.666320256425426
4.239345827306233
2.1564994213047175
3.722680037393567
2.2125767481638143
2.6663202564254282
4.239345827306233
3.722680037393567
2.6248353592184452
2.1612789392635383
2.6663202564254282
2.223042606146901
2.079859266203256
3.722680037393567
5.357156449627594
3.722680037393567
2.4141270434668645
2.917886260015852
3.4163895874895527
2.960793741876867
3.722680037393567
2.161278939263538
5.357156449627594
3.722680037393567
3.5825346517048406
2.604965010070035
2.1612789392635383
2.666320256425426
2.604965010070035
2.1612789392635383
4.246146158178552
2.917886260015852
2.223042606146901
2.2125767481638143
2.157068332487956
3.722680037393567
2.079859266203256
1.0880973553613649
1.4072916953842918
1.2531212296758958
1.9823937481908263
1.7286087801729755
1.372378186346736
1.9827346658533993
2.622785913535854
2.622785913535854
2.622785913535854
2.622785913535854
1.9827346658533986
1.8284717079083652
2.622785913535854
3.443776161428661
2.7645749850492987
1.8284717079083652
2.764574985049296
2.622785913535854
2.096516989837058
2.622785913535854
2.622785913535854
2.622785913535854
2.622785913535854
2.78402196029666
2.7465800617272076
1.8284717079083652
2.622785913535854
1.9827346658533993
1.9827346658533942
1.9827346658533982
1.9827346658533993
1.56230321106958
2.622785913535854
2.622785913535854
2.622785913535854
2.622785913535854
1.9827346658533982
1.9827346658533993
1.7565292519730056
2.622785913535854
1.8284717079083652
1.9827346658533993
2.622785913535854
2.764574985049295
1.9827346658533993
2.622785913535854
2.622785913535854
2.622785913535854
2.622785913535854
1.9827346658533993
1.9827346658533993
1.8647383645813473
1.9827346658533993
2.622785913535854
2.7753855819907796
1.7565292519730056
1.9827346658533977
2.764574985049296
2.622785913535854
2.3380564142998983
1.9827346658533993
1.9827346658533995
2.622785913535854
2.622785913535854
2.3380564142998983
2.622785913535854
2.622785913535854
1.8284717079083652
1.9827346658533986
2.377235215914067
2.622785913535854
1.9827346658533993
2.622785913535854
1.9827346658533993
2.622785913535854
2.622785913535854
2.7248731323239723
1.9957093910520658
1.9827346658533977
1.9827346658533993
1.9827346658533993
2.622785913535854
3.2313961301882133
2.764574985049295
1.9827346658533993
1.9827346658533993
2.3380564142998983
1.9827346658533993
1.9827346658533993
3.0817839113181726
2.096516989837058
1.4741066526029203
1.9827346658533993
2.622785913535854
1.9827346658533993
2.622785913535854
1.9827346658533993
2.622785913535854
2.622785913535854
2.622785913535854
2.622785913535854
1.9827346658533946
2.142635228578041
2.7645749850492987
2.622785913535854
2.622785913535854
2.142635228578041
1.8284717079083652
2.622785913535854
2.5047388477665646
1.9827346658533993
2.622785913535854
2.7248731323239723
1.9827346658533993
1.9519614745935268
1.9827346658533993
2.622785913535854
1.9827346658533993
1.9827346658533982
2.622785913535854
2.622785913535854
1.9827346658533986
2.622785913535854
2.622785913535854
1.9827346658533993
2.622785913535854
2.622785913535854
2.622785913535854
1.9827346658533993
2.622785913535854
2.622785913535854
2.764574985049295
2.764574985049295
1.9827346658533993
2.622785913535854
2.622785913535854
2.622785913535854
1.8284717079083652
1.9827346658533986
1.9827346658533993
1.8284717079083652
1.56230321106958
1.9827346658533986
2.1829212448654425
3.4241850270595453
1.4698627304755922
5.387210088096969
1.4698627304755922
5.387210088096969
1.4698627304755922
5.387210088096969
1.469862730475592
5.387210088096968
1.469862730475592
5.387210088096968
1.2298941123439058
1.7452242369390032
3.2321605853738036
3.209405444055476
2.2242579805371276
3.2321605853738045
1.9454778280973983
2.281263969066357
3.2094054440554753
2.145513447167143
3.2094054440554753
2.224257980537128
3.341387064234802
3.2321605853738036
2.589808953036642
1.9128404173002096
1.5282733993930229
3.2321605853738045
2.2242579805371276
2.2242579805371245
3.2321605853738054
1.9128404173002096
6.466175118355729
3.209405444055476
1.9128404173002096
3.341387064234802
3.2321605853738054
2.281263969066357
3.2321605853738045
2.4543975372721136
2.125344630864408
2.125344630864408
3.341387064234802
3.707525375099149
3.2321605853738045
2.2242579805371276
2.281263969066357
2.3228296325868585
1.5366337158366519
1.9643746694285475
2.4564543471974765
2.8001853852603946
2.752290278426141
-0.08869448884250458
1.922338693518733
1.3644654656337272
1.1280894399070134
2.043228898032262
1.7553112557671788
2.623202634793639
2.954468592628324
2.9708346589352774
1.4341980998008759
2.206149679410222
1.6519111891109293
2.2836481395141783
1.4838872763706201
3.673475689242478
2.3113860224978278
1.499606510137627
5.9550471823251945
5.9550471823251945
5.9550471823251945
5.9550471823251945
5.9550471823251945
5.9550471823251945
5.168695353308606
8.94082147631808
1.8284717079083652
1.7770535469204707
2.1116091878950636
2.0125146311258817
1.828471707908364
2.0125146311258817
1.7770535469204707
7.218968798653506
1.8284717079083652
1.8284717079083652
1.8284717079083652
1.8284717079083652
2.251879573368364
2.2518795733683645
2.251879573368367
1.8284717079083652
1.828471707908367
1.8284717079083652
1.9962899384724055
2.1116091878950636
1.8284717079083652
7.218968798653506
1.828471707908364
2.038903426976452
2.0125146311258817
1.8649053855133824
1.8284717079083652
1.9962899384724055
1.9593420165272164
1.9593420165272164
6.98167971419218
2.251879573368364
1.8585573951736407
2.9537196070036917
1.7770535469204707
2.847090709331577
2.3465227677107956
2.9537196070036917
2.8240407495623447
2.0125146311258817
2.677402106476928
1.8649053855133808
2.038903426976457
1.7770535469204707
2.0405051082751786
1.8284717079083652
1.8371396943809204
2.0125146311258817
2.0125146311258817
1.8649053855133824
2.1192694572272717
1.7770535469204707
2.3465227677107956
1.8284717079083659
2.0125146311258817
2.038903426976452
1.8284717079083639
2.1192694572272717
2.0125146311258812
1.7770535469204707
1.8284717079083652
1.8284717079083652
1.8649053855133835
1.7770535469204698
1.7770535469204707
1.9947876963684203
1.8284717079083652
2.1192694572272717
1.8284717079083646
2.847090709331577
3.2867251307952903
2.0389034269764554
1.8284717079083652
2.251879573368364
1.8284717079083652
1.8284717079083652
2.1192694572272717
2.0934176506881963
1.8649053855133835
2.1116091878950636
1.8649053855133824
2.9357426818241477
1.828471707908364
1.8284717079083652
1.8371396943809204
1.7770535469204707
1.8649053855133824
1.7770535469204698
2.8240407495623447
2.251879573368364
1.840416422972912
2.2518795733683636
2.1192694572272717
2.7519740596344286
5.786385203271563
1.7770535469204707
1.8284717079083652
1.7770535469204707
1.828471707908364
2.677402106476928
1.8649053855133824
2.038903426976452
2.751974059634427
1.8649053855133835
2.8878557356421375
2.0879376544356236
2.1116091878950636
1.8284717079083652
1.8284717079083652
1.7770535469204707
1.8284717079083652
1.8284717079083652
1.7770535469204707
2.4628963671344635
1.8649053855133824
1.8649053855133824
1.7770535469204707
2.251879573368364
6.98167971419218
1.8284717079083652
1.8284717079083652
1.7770535469204707
2.038903426976452
2.3380564142998983
1.8649053855133808
1.9593420165272164
2.751974059634427
2.038903426976452
7.218968798653506
1.8284717079083652
2.0405051082751786
2.1067585864370724
1.8284717079083652
2.251879573368364
1.8284717079083652
2.677402106476928
2.1192694572272717
1.7770535469204707
2.012514631125884
2.3675653143362325
2.0934176506881963
2.0125146311258777
2.251879573368364
1.8284717079083652
2.251879573368364
2.3380564142998983
1.8649053855133824
2.038903426976452
1.8284717079083652
2.0125146311258817
1.909134478645405
2.7519740596344286
1.8284717079083652
2.038903426976452
1.8284717079083652
2.251879573368362
1.8284717079083652
2.1116091878950636
1.8649053855133824
2.3465227677107956
2.0405051082751786
2.1116091878950636
1.828471707908364
1.7770535469204707
1.8284717079083652
2.251879573368364
2.0934176506881963
2.0879376544356236
1.7770535469204725
1.8284717079083652
2.3380564142998983
1.828471707908364
2.0389034269764563
1.8284717079083652
1.8284717079083652
2.8565278613812257
4.248788097351481
1.8284717079083652
1.8649053855133835
1.8649053855133824
1.8649053855133835
2.0405051082751786
2.251879573368364
1.8284717079083652
1.8649053855133824
2.038903426976452
2.7024734721660324
1.8284717079083652
1.8284717079083652
2.7111702584613213
7.218968798653506
1.8561693083661202
1.6596375608394518
2.280612027703405
2.077822106419393
1.9865767009946134
3.515188271149528
2.7241821877634513
2.7241821877634513
2.7241821877634513
2.7241821877634513
2.280612027703405
2.077822106419393
2.689034450918849
1.8284717079083652
1.8284717079083652
2.9102901282944824
2.3380564142998983
2.9102901282944824
2.78879086047065
1.8284717079083652
1.9028349397244027
1.7989248549349677
1.8284717079083652
2.3380564142998983
2.910290128294482
1.8284717079083652
1.8284717079083652
1.8767083550180368
1.8767083550180368
3.822243760286728
3.8222437602867307
1.9028349397244027
2.3380564142998983
2.7887908604706517
1.8284717079083652
2.689034450918849
4.421859908309874
2.7887908604706513
2.7887908604706513
1.9028349397244027
2.788790860470652
4.421859908309874
1.8284717079083652
1.8284717079083652
3.822243760286728
1.8284717079083652
2.788790860470652
3.5659054030819908
2.78879086047065
2.689034450918849
1.8284717079083652
1.7989248549349677
3.8222437602867307
1.8284717079083652
2.788790860470652
5.069640046351132
1.8284717079083652
1.8284717079083652
2.7887908604706513
1.8284717079083652
1.8284717079083652
2.2567803688994137
2.74255929779797
2.1088897578684196
2.068865000060295
2.108889757868419
2.1088897578684183
2.1088897578684174
3.4749573620148753
2.926557285738282
2.74255929779797
2.1088897578684183
2.2567803688994137
2.068865000060295
2.710145717939104
2.2567803688994137
2.068865000060295
2.926557285738282
2.108889757868419
1.9481082193071773
1.9481082193071766
1.9481082193071766
1.9481082193071766
3.3413870642348025
3.341387064234802
3.341387064234802
1.9481082193071766
1.9481082193071766
1.9481082193071773
3.3413870642348025
2.2831683997456897
2.2831683997456897
2.3380564142998983
2.2831683997456897
2.3380564142998983
2.3380564142998983
2.761254292650167
2.761254292650167
2.2831683997456897
2.3380564142998983
2.3380564142998983
2.761254292650167
2.3380564142998983
2.3380564142998983
2.2831683997456897
2.761254292650167
2.3380564142998983
2.761254292650167
2.761254292650167
2.761254292650167
2.7612542926501664
2.7612542926501664
2.3380564142998983
2.761254292650167
2.2831683997456897
2.187493191628543
2.187493191628541
3.6275797397544047
2.187493191628541
2.2258421376749187
2.412840291980573
3.0542447630431417
2.187493191628541
2.412840291980573
2.545068580613624
4.334288786844757
3.936971768782828
2.545068580613624
