GIS
1
0.0
15
Concession
Conjunction
Cause
Restatement
Temporal
Continuation
Reinforcement
Contrast
Instantiation
Background
Circumstance
NoRel
Alternative
Purpose
Exception
360
30 0
6 0 1
15 0 1 2 3 4 5 6 7 8 9 10
29 0 1 2 3 4 5 6 7 8 9 10 11
39 0 1 2 3 4 5 6 7 8 9 10 11 12
17 0 1 2 3 4 5 6 7 8 9 10 11 12 13
10 0 1 2 3 4 5 6 7 8 9 10 11 12 13 14
12 0 1 2 3 4 5 6 7 8 9 10 11 12 14
4 0 1 2 3 4 5 6 7 8 9 10 11 13
1 0 1 2 3 4 5 6 7 8 9 10 11 14
3 0 1 2 3 4 5 6 7 8 9 10 12
1 0 1 2 3 4 5 6 7 8 9 10 12 13
1 0 1 2 3 4 5 6 7 8 9 10 14
1 0 1 2 3 4 5 6 7 8 9 11
2 0 1 2 3 4 5 6 7 8 10 11
1 0 1 2 3 4 5 6 7 8 10 11 12
5 0 1 2 3 4 5 6 7 9 10
2 0 1 2 3 4 5 6 7 9 10 11
2 0 1 2 3 4 5 6 7 9 10 11 12
1 0 1 2 3 4 5 6 7 9 10 12
1 0 1 2 3 4 5 6 7 10 11
1 0 1 2 3 4 5 6 8 9
1 0 1 2 3 4 5 6 8 9 10 11
1 0 1 2 3 4 5 6 9 10 11
2 0 1 2 3 4 5 7 8 9
6 0 1 2 3 4 5 7 8 9 10
1 0 1 2 3 4 5 7 8 9 10 11
1 0 1 2 3 4 5 7 8 9 10 11 12
1 0 1 2 3 4 5 7 8 10
1 0 1 2 3 4 5 7 9 10
1 0 1 2 3 4 5 7 10
2 0 1 2 3 4 5 9
1 0 1 2 3 4 7 9
2 0 1 2 3 5 6 7 8 9 10
1 0 1 2 3 5 6 7 8 9 12
2 0 1 2 3 5 6 7 9 10 11
1 0 1 2 3 5 6 7 10
1 0 1 2 3 5 6 8 9 10
1 0 1 2 3 5 6 8 9 10 11
2 0 1 2 3 5 6 8 9 11
1 0 1 2 3 5 6 8 10
1 0 1 2 3 5 7 8
1 0 1 2 3 5 7 8 9
1 0 1 2 3 5 7 8 9 10
1 0 1 2 3 5 7 9 10 11
1 0 1 2 3 6
1 0 1 2 3 7 8 10 11
1 0 1 2 4 5 6 7
1 0 1 2 5 6
1 0 1 2 6
1 0 1 3
1 0 1 3 4 5 6
2 0 1 3 4 5 6 7 8 9 10
1 0 1 3 4 5 6 7 10
2 0 1 3 4 5 6 9 10
1 0 1 3 4 5 7 8 9 10
2 0 1 3 4 5 7 9
3 0 1 3 4 5 7 9 10
2 0 1 3 4 5 7 10
1 0 1 3 4 5 9
1 0 1 3 4 5 10
1 0 1 3 5 6 7 8 9 10
1 0 1 3 5 6 8
1 0 1 3 5 7 9
1 0 1 3 5 7 9 10
1 0 1 3 5 8
1 0 1 3 5 9
1 0 1 3 5 10
1 0 1 3 7 10
3 0 1 4 5
1 0 1 4 5 6 8
1 0 1 4 5 10
2 0 1 5
1 0 1 5 6 7 8
1 0 1 5 6 9 10
1 0 1 5 7 8
1 0 1 5 7 8 10
1 0 1 5 9 10
1 0 1 9
1 0 2
1 0 2 3
2 0 2 3 4 5 10
1 0 2 3 5
1 0 2 3 5 6 10 11
1 0 2 3 5 7 9 10
1 0 2 3 5 9
1 0 2 3 10
1 0 2 4 10
1 0 2 5 6
1 0 2 5 6 9 10 11
1 0 2 9
1 0 2 10
1 0 2 11
2 0 3
1 0 3 4 5 8
1 0 3 5
1 0 3 5 6
1 0 3 8 10
1 0 4 5
3 0 5
1 0 5 10
1 0 6
2 0 7 9
1 0 9
1 0 10
310 1
6 1 2
2 1 2 3
3 1 2 3 4 5
5 1 2 3 4 5 6 7 8 9 10
6 1 2 3 4 5 6 7 8 9 10 11
1 1 2 3 4 5 6 7 8 11
3 1 2 3 4 5 6 7 9 10
1 1 2 3 4 5 6 7 9 10 11
1 1 2 3 4 5 6 7 9 10 11 12
1 1 2 3 4 5 6 8 9
4 1 2 3 4 5 6 8 9 10 11
5 1 2 3 4 5 6 10
1 1 2 3 4 5 7
3 1 2 3 4 5 7 8 9 10
1 1 2 3 4 5 7 8 9 10 12
3 1 2 3 4 5 7 9 10
1 1 2 3 4 5 7 9 10 12
2 1 2 3 4 5 8
1 1 2 3 4 5 8 9
1 1 2 3 4 5 8 9 10 14
1 1 2 3 4 5 9
4 1 2 3 4 5 9 10
1 1 2 3 4 5 9 10 11 12
1 1 2 3 4 5 9 10 14
1 1 2 3 4 5 10 11
1 1 2 3 4 10
5 1 2 3 5
1 1 2 3 5 6 7 9 10 11
1 1 2 3 5 6 7 10
1 1 2 3 5 6 7 10 11
1 1 2 3 5 6 9 11
1 1 2 3 5 6 10
1 1 2 3 5 6 10 11
1 1 2 3 5 6 13
1 1 2 3 5 7
1 1 2 3 5 7 8 9
1 1 2 3 5 8 10
3 1 2 3 5 9
1 1 2 3 5 9 10
3 1 2 3 5 10
1 1 2 3 5 11
1 1 2 3 6
1 1 2 3 7
1 1 2 3 8
1 1 2 3 8 10
1 1 2 3 9
2 1 2 4
1 1 2 4 5
1 1 2 4 5 8
1 1 2 4 5 9
1 1 2 4 5 9 11
1 1 2 4 5 10
4 1 2 5
1 1 2 5 7
1 1 2 5 7 9
1 1 2 5 8
2 1 2 5 9
1 1 2 5 10
1 1 2 6
1 1 2 6 9 10
1 1 2 7 8
2 1 2 9
42 1 3
7 1 3 4
10 1 3 4 5
1 1 3 4 5 6 7
1 1 3 4 5 6 7 8 10
2 1 3 4 5 6 7 9 10
2 1 3 4 5 6 7 9 10 11
1 1 3 4 5 6 7 10
2 1 3 4 5 6 8 10
1 1 3 4 5 6 9 10
1 1 3 4 5 7
1 1 3 4 5 7 8
1 1 3 4 5 7 8 9
1 1 3 4 5 7 9
1 1 3 4 5 7 9 10
2 1 3 4 5 7 10
1 1 3 4 5 7 10 11
1 1 3 4 5 8 9
1 1 3 4 5 8 9 10
1 1 3 4 5 8 10 11
1 1 3 4 5 8 11 12
3 1 3 4 5 9
3 1 3 4 5 9 10
6 1 3 4 5 10
1 1 3 4 7
1 1 3 4 7 10
1 1 3 4 8 10
2 1 3 4 10
25 1 3 5
3 1 3 5 6
1 1 3 5 6 9
2 1 3 5 6 10
2 1 3 5 7
1 1 3 5 7 8
1 1 3 5 7 8 9 10
1 1 3 5 7 9
2 1 3 5 7 10
2 1 3 5 8
2 1 3 5 8 10
2 1 3 5 9
1 1 3 5 9 10
6 1 3 5 10
1 1 3 6
1 1 3 6 7
1 1 3 6 8
2 1 3 7
2 1 3 7 10
1 1 3 7 12
4 1 3 8
1 1 3 8 9
2 1 3 8 10
1 1 3 9 10
8 1 3 10
10 1 4
12 1 4 5
1 1 4 5 6 7 10
1 1 4 5 6 10
1 1 4 5 7 8
1 1 4 5 7 10
1 1 4 5 9 10
6 1 4 5 10
1 1 4 9
2 1 4 10
63 1 5
2 1 5 6
1 1 5 6 7
1 1 5 6 8
1 1 5 6 10
2 1 5 7
2 1 5 7 9 10
4 1 5 7 10
5 1 5 8
4 1 5 9
1 1 5 9 10
8 1 5 10
4 1 5 11
4 1 6
3 1 7
1 1 7 8
2 1 8
6 1 9
8 1 10
1 1 10 11
3 1 11
2 1 12
65 2
10 2 3
1 2 3 4
1 2 3 4 5 6 8 10
1 2 3 4 5 7 9
1 2 3 4 5 10
1 2 3 4 6
3 2 3 5
1 2 3 5 6
1 2 3 5 8
1 2 3 6
1 2 3 7
1 2 3 7 12
2 2 3 10
4 2 4
4 2 4 5
1 2 4 5 7
1 2 4 5 10
13 2 5
1 2 5 6
1 2 5 6 7 9
1 2 5 7 8
1 2 5 8 9
2 2 5 9
1 2 5 9 10
3 2 5 10
1 2 6 7
2 2 8
2 2 9
1 2 10
1 2 10 11
194 3
14 3 4
8 3 4 5
1 3 4 5 7
2 3 4 5 7 10
1 3 4 5 7 10 11
2 3 4 5 9
1 3 4 5 9 10
6 3 4 5 10
1 3 4 5 10 11
2 3 4 5 11
1 3 4 6 8
1 3 4 7 10
1 3 4 9 10
4 3 4 10
1 3 4 11
37 3 5
4 3 5 6
1 3 5 6 8
1 3 5 6 8 9
2 3 5 7
1 3 5 7 8
1 3 5 7 9
1 3 5 8
2 3 5 9
7 3 5 10
3 3 6
3 3 6 10
3 3 7
2 3 7 10
5 3 8
1 3 8 9
1 3 8 9 10
7 3 9
1 3 9 11
7 3 10
2 3 11
205 4
34 4 5
1 4 5 6 9
2 4 5 8
1 4 5 9
6 4 5 10
1 4 6 8
1 4 7
3 4 9
12 4 10
2 4 11
427 5
2 5 6
1 5 6 10
5 5 7
1 5 7 8 10
1 5 7 9
8 5 8
1 5 8 10
12 5 9
1 5 9 11
12 5 10
27 6
1 6 7 8 9
1 6 8
23 7
1 7 9
2 7 10
1 7 11
31 8
1 8 9
1 8 12
57 9
3 9 10
69 10
7 11
6 12
1 13
1 14
2482
arg2_start_uni_upper
arg2_start_uni_silencing
arg2_start_uni_validate
arg2_start_uni_hypothesis
arg2_start_uni_fully
arg2_start_uni_thymoma
arg2_start_uni_association
arg2_start_uni_remains
arg2_start_uni_hs1
incom_from
arg2_start_uni_example,
arg2_start_uni_awaits
arg2_start_uni_hme
RB_->_Now:2
arg2_start_uni_preliminary
arg2_start_uni_novel
arg2_start_uni_flurry
arg2_start_uni_unclear
arg2_start_uni_cannot
arg2_start_uni_protection
arg2_start_uni_report,
arg2_start_uni_does
arg2_start_uni_elucidation
arg2_start_uni_extent
arg2_start_uni_improve
arg2_start_uni_serologic
incom_to
arg2_start_uni_against
arg2_start_uni_draw
arg2_start_uni_spite
arg2_start_uni_relevance
arg2_start_uni_due
arg2_start_uni_site
arg2_start_uni_difference
arg2_start_uni_mgb1
arg2_start_uni_conclusions
or_to
VP_->_VBD_NP_PP_PP:1
NP_->_NNP_NNP:2
VBP_->_are:1
ar_the
of_by
NP_->_CD_NN:2
1_the
ar_,
NP_->_NP_,_NP:2
ar_of
ar_in
VP_->_VBZ_NP:12
NP_->_QP:2
NP_->_PRP:12
IN_->_from:12
VBD_->_was:1
NP_->_NNP_NNP:1
from_to
at_,
WDT_->_which:1
IN_->_by:12
to_from
DT_->_The:2
arg2_start_uni_in
NP_->_NP_,_SBAR:1
NP_->_NP_,_SBAR:2
NP_->_NNP_NNP_NNP:1
VP_->_VBD_SBAR:2
VP_->_VBD_SBAR:1
at_the
which_the
IN_->_by:2
IN_->_at:1
NP_->_CD:1
NP_->_CD:2
,_from
arg2_start_uni_the
arg2_start_uni_our
,_at
VP_->_VBD_VP:1
,_by
in_from
which_of
NP_->_NNP_CD:2
a_the
NP_->_DT_NN:1
,_and
VP_->_VBZ_NP:1
VP_->_VBZ_NP:2
by_is
VBP_->_are:2
and_the
WDT_->_which:2
NP_->_DT_NN:12
NP_->_NNP:1
NP_->_NNP:2
the_wa
of_the
the_from
by_,
DT_->_The:1
by_the
NP_->_NNP:12
SBAR_->_IN_S:12
the_the
IN_->_by:1
of_is
,_,
arg2_start_uni_was
NP_->_CD_NNS:12
,_a
IN_->_from:2
IN_->_from:1
,_the
NP_->_CD_NNS:1
NP_->_CD_NNS:2
VP_->_VBD_VP:2
,_of
,_is
,_in
,_wa
of_and
,_->_,:12
SBAR_->_IN_S:1
a_,
and_,
of_,
IN_->_of:1
IN_->_that:1
,_->_,:2
,_->_,:1
VP_->_TO_VP:1
NP_->_NP_PP:1
NP_->_PRP:1
NP_->_NP_PP:12
of_in
S_->_NP_VP_.:2
IN_->_of:12
the_,
S_->_NP_VP:1
IN_->_of:2
VBZ_->_is:1
._->_.:1
._->_.:2
NP_->_NP_PP:2
._->_.:12
PP_->_IN_NP:12
PP_->_IN_NP:2
PP_->_IN_NP:1
VP_->_MD_VP:1
S_->_NP_VP:2
SBAR_->_IN_S:2
VBD_->_was:2
NP_->_DT_NN:2
S_->_NP_VP:12
IN_->_that:2
VBZ_->_is:2
VBZ_->_is:12
NP_->_PRP:2
IN_->_at:2
S_->_NP_VP_.:1
VP_->_MD_VP:2
VP_->_TO_VP:12
VP_->_TO_VP:2
arg2_start_uni_this
NP_->_DT:1
S_->_NP_VP_.:12
arg2_start_uni_of
RB_->_not:1
NP_->_DT:2
RB_->_not:2
VP_->_VB_ADJP:1
S_->_S_,_NP_VP_.:1
which_,
IN_->_that:12
arg2_start_uni_with
arg2_start_uni_to
NP_->_NP_,_CC_NP:1
NP_->_QP:1
arg2_start_uni_that
the_we
at_and
NP_->_NNP_CD:1
a_from
NP_->_NP_NP:1
VP_->_VBD_VP:12
ADJP_->_JJ_NP:1
for_from
S_->_S_,_NP_VP_.:2
%_the
NN_->_%:1
some_of
of_%
%_to
the_%
ADJP_->_JJ_NP:2
%_,
NP_->_CD_NN:1
of_at
arg2_start_uni_expression
or_from
NP_->_NP_,_NP_,:1
arg2_start_uni_activation
arg2_start_uni_effects
NP_->_NNP_CD_,_CD:1
VP_->_VB_ADJP:2
ar_a
arg2_start_uni_is
arg2_start_uni_we
JJ_->_due:1
arg2_start_uni_no
arg2_start_uni_although
arg2_start_uni_have
arg2_start_uni_it
JJ_->_due:2
the_even
some_to
arg2_start_uni_has
some_in
arg2_start_uni_as
arg2_start_uni_effect
arg2_start_uni_show
arg2_start_uni_interestingly,
arg2_start_uni_possible
share_,
arg2_start_uni_ccr3
arg2_start_uni_not
NP_->_CD:12
NP_->_NNP_NNP_NNP:2
NP_->_NNP_NNP_NNP:12
arg2_start_uni_analysis
arg2_start_uni_using
NN_->_%:2
NN_->_%:12
%_%
in_%
,_%
to_%
of_p
from_%
arg2_start_uni_since
arg2_start_uni_were
arg2_start_uni_studies
arg2_start_uni_recent
arg2_start_uni_numbers
arg2_start_uni_while
arg2_start_uni_treg
arg2_start_uni_contrast
arg2_start_uni_transcripts
arg2_start_uni_revealed
arg2_start_uni_irf-4
arg2_start_uni_intensity
arg2_start_uni_assays
arg2_start_uni_had
arg2_start_uni_vitro
arg2_start_uni_comparison
arg2_start_uni_notably,
arg2_start_uni_recently,
arg2_start_uni_found
arg2_start_uni_some
arg2_start_uni_specific
arg2_start_uni_despite
arg2_start_uni_function
arg2_start_uni_direct
arg2_start_uni_inversion
arg2_start_uni_mz
arg2_start_uni_b
due_ar
due_the
arg2_start_uni_present
arg2_start_uni_findings
arg2_start_uni_even
arg2_start_uni_band
arg2_start_uni_role
due_to
arg2_start_uni_method
month_from
due_at
arg2_start_uni_though
arg2_start_uni_suppressor
NP_->_NP_,_CC_NP_,:1
ar_%
arg2_start_uni_deletion
arg2_start_uni_rt-pcr
arg2_start_uni_significant
arg2_start_uni_cause
arg2_start_uni_cre-mediated
share_to
arg2_start_uni_mutation
arg2_start_uni_now
arg2_start_uni_strikingly,
arg2_start_uni_ephb4
arg2_start_uni_also
arg2_start_uni_demonstrated
arg2_start_uni_preparations
arg2_start_uni_recognition
arg2_start_uni_explants
arg2_start_uni_over
arg2_start_uni_iodide
arg2_start_uni_bob.1/obf.1,
arg2_start_uni_cre
arg2_start_uni_accurate
arg2_start_uni_enriched
arg2_start_uni_(ii)
arg2_start_uni_health
arg2_start_uni_equally,
arg2_start_uni_2-forward:
arg2_start_uni_b,
arg2_start_uni_b.
arg2_start_uni_5′-aaggtgaactgaagtctggaagtga-3′,
arg2_start_uni_importance
arg2_start_uni_il-3
arg2_start_uni_lod
arg2_start_uni_neurons
arg2_start_uni_system
arg2_start_uni_apart
arg2_start_uni_af4
arg2_start_uni_(b),
arg2_start_uni_apoptotic
arg2_start_uni_adherence
arg2_start_uni_f.
arg2_start_uni_applied
arg2_start_uni_inhibitors
arg2_start_uni_e:
arg2_start_uni_question
arg2_start_uni_poly-adp
arg2_start_uni_failure
arg2_start_uni_e.
arg2_start_uni_robustness
arg2_start_uni_bc
arg2_start_uni_d,
arg2_start_uni_adult
arg2_start_uni_d)
arg2_start_uni_cell-surface
arg2_start_uni_c)
arg2_start_uni_c.
arg2_start_uni_presumably
arg2_start_uni_evident
arg2_start_uni_above,
arg2_start_uni_gw
arg2_start_uni_i.
arg2_start_uni_rearrangement
arg2_start_uni_gh
arg2_start_uni_ecori,
arg2_start_uni_surprisingly
arg2_start_uni_bisulfite
ADJP_->_JJ_NP:12
arg2_start_uni_h.
arg2_start_uni_transition
arg2_start_uni_ex
arg2_start_uni_hypersensitivity
arg2_start_uni_g.
arg2_start_uni_eb
arg2_start_uni_competitive
arg2_start_uni_long-standing
arg2_start_uni_cd44
arg2_start_uni_lc,
arg2_start_uni_immunoblotting
arg2_start_uni_investigate,
arg2_start_uni_pn1-ic
arg2_start_uni_inhibited
arg2_start_uni_hippocampal
arg2_start_uni_cd21
arg2_start_uni_wistar–prob
arg2_start_uni_synergistic
arg2_start_uni_anti-cd3
arg2_start_uni_r2,
arg2_start_uni_r3,
arg2_start_uni_below,
arg2_start_uni_still
arg2_start_uni_hypermethylation
arg2_start_uni_il-15
arg2_start_uni_non-t
arg2_start_uni_(wt)
arg2_start_uni_regulate
arg2_start_uni_phytohemagglutinin
arg2_start_uni_mutated
arg2_start_uni_bottom
arg2_start_uni_immunofluorescence
arg2_start_uni_vital
arg2_start_uni_bv-173
arg2_start_uni_r1,
arg2_start_uni_inappropriate
arg2_start_uni_others,
arg2_start_uni_kidney,
arg2_start_uni_conversion
arg2_start_uni_bromodeoxyuridine/propidium
arg2_start_uni_hierarchical
arg2_start_uni_chamber
arg2_start_uni_lek
arg2_start_uni_therapeutically
arg2_start_uni_(iv)
arg2_start_uni_irf-4-negative
arg2_start_uni_fk506,
arg2_start_uni_pathogens
arg2_start_uni_regression
arg2_start_uni_pten-transfected
arg2_start_uni_buffy
arg2_start_uni_cona
arg2_start_uni_ys
arg2_start_uni_cases,
arg2_start_uni_igg
ar_''
arg2_start_uni_impact
arg2_start_uni_sera
arg2_start_uni_sensitivity
arg2_start_uni_pyrrolidine
arg2_start_uni_pu.1
arg2_start_uni_endotoxin
arg2_start_uni_parp-cleaved
arg2_start_uni_cho-delta1
arg2_start_uni_and/or
arg2_start_uni_frequencies
NP_->_NP_,_ADJP_,:12
arg2_start_uni_concomitant
arg2_start_uni_text
arg2_start_uni_super
arg2_start_uni_characterize
arg2_start_uni_p10xcbf1-luc
arg2_start_uni_unexpectedly,
arg2_start_uni_(c),
arg2_start_uni_infiltrate
arg2_start_uni_sites,
arg2_start_uni_f2-reverse:
arg2_start_uni_fine
arg2_start_uni_cousin
arg2_start_uni_notch's
arg2_start_uni_tochemotaxis,
arg2_start_uni_unaffected
arg2_start_uni_high-level
arg2_start_uni_mfi
arg2_start_uni_major
arg2_start_uni_xbai
arg2_start_uni_mer
arg2_start_uni_reveals
arg2_start_uni_(iii)
arg2_start_uni_instructive
arg2_start_uni_inducible
arg2_start_uni_gene-specific
arg2_start_uni_ly
S_->_NP_NP:12
arg2_start_uni_rodent
arg2_start_uni_nz
arg2_start_uni_diseased
arg2_start_uni_tumour
arg2_start_uni_(gagakt)
arg2_start_uni_decreasing
arg2_start_uni_sb
arg2_start_uni_pivotal
arg2_start_uni_dramatically,
arg2_start_uni_(pha),
arg2_start_uni_sp
arg2_start_uni_sf
arg2_start_uni_largest
arg2_start_uni_young
arg2_start_uni_same
arg2_start_uni_hands,
arg2_start_uni_expanded
arg2_start_uni_wb
arg2_start_uni_c-jun
arg2_start_uni_constitutively-active
arg2_start_uni_a.2
arg2_start_uni_myeloma
arg2_start_uni_f2-forward:
arg2_start_uni_ctctcttccctccggactct
arg2_start_uni_mother
arg2_start_uni_c-e
arg2_start_uni_al,
arg2_start_uni_b-cell-specific
arg2_start_uni_preventing
arg2_start_uni_whilst
arg2_start_uni_medial
arg2_start_uni_vivo
arg2_start_uni_**mouse
arg2_start_uni_transforms
arg2_start_uni_jnk
arg2_start_uni_hes-1,
arg2_start_uni_smad7
arg2_start_uni_papers
arg2_start_uni_bs-ii-reverse
arg2_start_uni_2-reverse:
arg2_start_uni_constructed
arg2_start_uni_cycle
arg2_start_uni_phenotypes
arg2_start_uni_optimal
arg2_start_uni_pcna
arg2_start_uni_inbred
arg2_start_uni_replicability
arg2_start_uni_nucleus
arg2_start_uni_bs-ii-forward
arg2_start_uni_203580
arg2_start_uni_differential
arg2_start_uni_apc
arg2_start_uni_sem
arg2_start_uni_***mouse
arg2_start_uni_simple
arg2_start_uni_careful
arg2_start_uni_suppress
arg2_start_uni_vijh
arg2_start_uni_missing
arg2_start_uni_third
arg2_start_uni_acceptor
arg2_start_uni_catalyzes
arg2_start_uni_six
arg2_start_uni_variation
arg2_start_uni_v-d-j
arg2_start_uni_294002
arg2_start_uni_kinetics
arg2_start_uni_thymomas
arg2_start_uni_ribose
arg2_start_uni_none
arg2_start_uni_view
arg2_start_uni_=
arg2_start_uni_dc-enriched
arg2_start_uni_1.6-kb
arg2_start_uni_mixed
arg2_start_uni_southern
arg2_start_uni_monocyte
arg2_start_uni_immunohistochemistry
arg2_start_uni_vβ8+
arg2_start_uni_sequencing
arg2_start_uni_ly294002,
arg2_start_uni_h
arg2_start_uni_higher
arg2_start_uni_blockade
arg2_start_uni_±
arg2_start_uni_5′-agtttaatagtttaagggagttgggt-3′,
arg2_start_uni_hypothesize
arg2_start_uni_clones
arg2_start_uni_central
arg2_start_uni_towards
arg2_start_uni_rt,
arg2_start_uni_noti
arg2_start_uni_vs.
arg2_start_uni_normalise
arg2_start_uni_coats
arg2_start_uni_measurement
arg2_start_uni_appear
arg2_start_uni_thymus,
arg2_start_uni_intense
arg2_start_uni_including
arg2_start_uni_elemental
arg2_start_uni_node:
arg2_start_uni_sb203580,
arg2_start_uni_lower,
arg2_start_uni_summary
arg2_start_uni_72
arg2_start_uni_transforming
arg2_start_uni_igg4
arg2_start_uni_multiple
VP_->_VBD_NP_PP_PP:12
arg2_start_uni_motifs
arg2_start_uni_physiological
arg2_start_uni_histological
arg2_start_uni_proportion
arg2_start_uni_2)
arg2_start_uni_like
arg2_start_uni_(which
WRB_->_When:12
arg2_start_uni_across
arg2_start_uni_insert
arg2_start_uni_wild-type
arg2_start_uni_acellular
arg2_start_uni_regions
arg2_start_uni_cd11c+cd123-
arg2_start_uni_cases
arg2_start_uni_fourth
arg2_start_uni_found,
arg2_start_uni_tn2
arg2_start_uni_tn3
arg2_start_uni_boxed
arg2_start_uni_representation
arg2_start_uni_reported
S_->_NP_VP_:_.:2
S_->_NP_VP_:_.:1
arg2_start_uni_(b
arg2_start_uni_tcrb
arg2_start_uni_concentrations,
arg2_start_uni_injury
VBN_->_named:2
arg2_start_uni_padtata-luc
arg2_start_uni_cyclosporin
arg2_start_uni_hes-1
arg2_start_uni_constitutive
arg2_start_uni_variable
arg2_start_uni_graphical
arg2_start_uni_reflects
arg2_start_uni_mature
arg2_start_uni_erosion
arg2_start_uni_lines,
arg2_start_uni_died
arg2_start_uni_3′
arg2_start_uni_distinction
arg2_start_uni_btk,
NP_->_NNP_CD_,_CD:12
arg2_start_uni_5′-agcggtgaaactgagagtgcgaggt-3′,
arg2_start_uni_equally
arg2_start_uni_end-point
arg2_start_uni_latent
arg2_start_uni_live-cell
arg2_start_uni_autoradiograph
arg2_start_uni_showing
arg2_start_uni_contemporaneous
arg2_start_uni_ptk-renilla
arg2_start_uni_differentiated
arg2_start_uni_given
arg2_start_uni_work
arg2_start_uni_secretion
arg2_start_uni_interesting
arg2_start_uni_implied
arg2_start_uni_taken
arg2_start_uni_regulation
NP_->_NP_NP:12
&_,
&_the
NP_->_DT:12
NP_->_NP_,_NP_,:2
arg2_start_uni_and
VBP_->_are:12
VP_->_VBN_NP_PP:1
IN_->_at:12
at_at
from_from
arg2_start_uni_these
NP_->_NP_,_NP:1
arg2_start_uni_a
arg2_start_uni_data
PRP_->_they:1
arg2_start_uni_cells
VP_->_VBN_NP_PP:2
VBD_->_was:12
NP_->_NNP_CD:12
,_'s
VP_->_VB_S:2
VP_->_MD_VP:12
arg2_start_uni_for
NP_->_NP_NP:2
NP_->_NP_,_NP:12
arg2_start_uni_two
or_or
VP_->_VBD_SBAR:12
arg2_start_uni_t
when_,
NP_->_NNP_NNP:12
DT_->_The:12
some_the
VP_->_VB_S:1
NP_->_CD_NN:12
a_%
NP_->_QP:12
arg2_start_uni_an
arg2_start_uni_by
WRB_->_When:1
some_,
arg2_start_uni_one
arg2_start_uni_induction
arg2_start_uni_at
arg2_start_uni_binding
ADJP_->_NP_JJ:1
arg2_start_uni_levels
PRP_->_they:2
arg2_start_uni_cell
S_->_S_,_NP_VP_.:12
arg2_start_uni_single
arg2_start_uni_assay
arg2_start_uni_panel
arg2_start_uni_use
arg2_start_uni_activated
arg2_start_uni_cytokines
VP_->_VBD_NP_PP_PP:2
RB_->_not:12
arg2_start_uni_results
the_''
NP_->_NP_:_NP_.:1
arg2_start_uni_absence
arg2_start_uni_may
arg2_start_uni_shows
arg2_start_uni_are
in_<-_<pobj>:2
arg2_start_uni_il-10
year_to
arg2_start_uni_because
in_<-_<pobj>:1
levels_<-_<nn>:1
month_<-_<num>:1
compar_from
NP_->_NP_:_NP_.:2
arg2_start_uni_support
arg2_start_uni_increase
arg2_start_uni_tf
some_a
arg2_start_uni_whether
arg2_start_uni_determined
NP_->_NP_,_SBAR_,:2
arg2_start_uni_il-17
arg2_start_uni_animals
arg2_start_uni_tested
arg2_start_uni_order
arg2_start_uni_on
QP_->_$_CD_CD:1
share_from
arg2_start_uni_presented
NP_->_NP_:_NP_.:12
arg2_start_uni_result
arg2_start_uni_observation
arg2_start_uni_differences
arg2_start_uni_further
arg2_start_uni_u1a
arg2_start_uni_igm-ic
arg2_start_uni_finding
arg2_start_uni_consistent
some_at
arg2_start_uni_evaluate
arg2_start_uni_ews
VP_->_VBN_NP_PP:12
arg2_start_uni_b)
arg2_start_uni_photomicrograph
arg2_start_uni_1.6
arg2_start_uni_northern
arg2_start_uni_expressing
arg2_start_uni_cho-n2
arg2_start_uni_panels
arg2_start_uni_rt–pcr
arg2_start_uni_intron
arg2_start_uni_trend
co._,
arg2_start_uni_full
arg2_start_uni_maternal
arg2_start_uni_rat
arg2_start_uni_increased
arg2_start_uni_organ
NNP_->_Co.:1
arg2_start_uni_ameliorating
arg2_start_uni_evaluation
arg2_start_uni_myeloid
NP_->_NP_,_ADJP_,:2
arg2_start_uni_al.
arg2_start_uni_contralateral
arg2_start_uni_6
arg2_start_uni_putative
arg2_start_uni_lesion
arg2_start_uni_vβ6+
arg2_start_uni_months
arg2_start_uni_methylated
arg2_start_uni_different
arg2_start_uni_together
arg2_start_uni_restriction
arg2_start_uni_gate
arg2_start_uni_testosterone-treated
arg2_start_uni_foxp3
arg2_start_uni_apoptosis
arg2_start_uni_schematic
arg2_start_uni_clear
arg2_start_uni_appeared
arg2_start_uni_pten
arg2_start_uni_plasmids
arg2_start_uni_which
arg2_start_uni_stimulation
arg2_start_uni_did
arg2_start_uni_j-n2
arg2_start_uni_sequence
arg2_start_uni_i
arg2_start_uni_facs
arg2_start_uni_primary
arg2_start_uni_changes
,_later
arg2_start_uni_antibodies
arg2_start_uni_dna
arg2_start_uni_proteins
arg2_start_uni_western
arg2_start_uni_antibody
arg2_start_uni_gene
CC_->_&:1
arg2_start_uni_line
ADJP_->_NP_JJ:2
arg2_start_uni_treatment
NP_->_NP_,_CC_NP:2
arg2_start_uni_all
arg2_start_uni_mice
arg2_start_uni_experiments
arg2_start_uni_most
NP_->_NNP_CD_,_CD:2
arg2_start_uni_from
arg2_start_uni_amplification
%_<-_<num>:1
%_from
S_->_NP_NP:2
%_<-_<num>:2
arg2_start_uni_after
arg2_start_uni_activity
arg2_start_uni_four
of_'s
arg2_start_uni_breast
WDT_->_which:12
arg2_start_uni_transcription
arg2_start_uni_performed
arg2_start_uni_pcr
arg2_start_uni_used
arg2_start_uni_tissue
arg2_start_uni_proliferation
or_%
arg2_start_uni_blood
arg2_start_uni_cd4+
arg2_start_uni_when
for_%
WRB_->_When:2
arg2_start_uni_first
arg2_start_uni_supershift
arg2_start_uni_nuclear
levels_<-_<nn>:2
S_->_NP_NP:1
arg2_start_uni_total
arg2_start_uni_cpg
arg2_start_uni_methods
arg2_start_uni_inflammatory
%_ar
note_and
arg2_start_uni_sequences
arg2_start_uni_primer
arg2_start_uni_detection
arg2_start_uni_achieved
arg2_start_uni_human
arg2_start_uni_factors
arg2_start_uni_thymic
arg2_start_uni_phenotype
arg2_start_uni_nasba
arg2_start_uni_addition
arg2_start_uni_hybridisation
arg2_start_uni_1
arg2_start_uni_patterns
arg2_start_uni_pathway
arg2_start_uni_many
arg2_start_uni_included
arg2_start_uni_percentage
arg2_start_uni_representative
arg2_start_uni_mean
arg2_start_uni_they
arg2_start_uni_be
arg2_start_uni_electrophoretic
arg2_start_uni_this,
arg2_start_uni_fetal
arg2_start_uni_emsa
arg2_start_uni_growth
arg2_start_uni_expressed
arg2_start_uni_2
arg2_start_uni_genes
arg2_start_uni_dcs
arg2_start_uni_hhv-8
arg2_start_uni_bob.1/obf.1
arg2_start_uni_control
arg2_start_uni_been
note_,
note_the
arg2_start_uni_figure
arg2_start_uni_similar
arg2_start_uni_evidence
arg2_start_uni_both
arg2_start_uni_il-2
arg2_start_uni_stat3
arg2_start_uni_5
arg2_start_uni_arthritis
arg2_start_uni_production
arg2_start_uni_shown
arg2_start_uni_null
arg2_start_uni_other
arg2_start_uni_et
arg2_start_uni_preincubation
%_<-_<num>:12
arg2_start_uni_cd11c+
arg2_start_uni_only
arg2_start_uni_much
arg2_start_uni_include
arg2_start_uni_nf-κb
arg2_start_uni_recently
arg2_start_uni_experimentally
arg2_start_uni_vitro,
arg2_start_uni_whereas
arg2_start_uni_mice,
of_<-_<pobj>:1
arg2_start_uni_index
ADJP_->_NP_JJ:12
arg2_start_uni_p50-/-
arg2_start_uni_cultured
arg2_start_uni_signals
arg2_start_uni_sites
arg2_start_uni_thymocyte
arg2_start_uni_showed
NNP_->_Co.:2
arg2_start_uni_relative
arg2_start_uni_bound
arg2_start_uni_once
arg2_start_uni_quantitate
arg2_start_uni_dnase
arg2_start_uni_polymorphonuclear
arg2_start_uni_cloning
arg2_start_uni_octamer
arg2_start_uni_subsequent
arg2_start_uni_products
arg2_start_uni_(b)
arg2_start_uni_second
arg2_start_uni_calcium
arg2_start_uni_sample
arg2_start_uni_containing
arg2_start_uni_underwent
arg2_start_uni_tgf-β
arg2_start_uni_infiltration
arg2_start_uni_probe
arg2_start_uni_slides
arg2_start_uni_final
arg2_start_uni_there
arg2_start_uni_three
arg2_start_uni_if
arg2_start_uni_or
arg2_start_uni_ner
arg2_start_uni_following
arg2_start_uni_time
arg2_start_uni_samples
arg2_start_uni_concentrations
arg2_start_uni_detected
arg2_start_uni_amounts
arg2_start_uni_her
arg2_start_uni_lymph
arg2_start_uni_product
arg2_start_uni_strength
arg2_start_uni_achieve
arg2_start_uni_androgen
arg2_start_uni_il-10r1
arg2_start_uni_100
arg2_start_uni_synovial
arg2_start_uni_sustained
arg2_start_uni_participated
year_from
arg2_start_uni_(e)
arg2_start_uni_high
arg2_start_uni_pcr-fragment
arg2_start_uni_beacon
arg2_start_uni_carried
arg2_start_uni_between
arg2_start_uni_treated
arg2_start_uni_will
arg2_start_uni_specificity
arg2_start_uni_analysed
arg2_start_uni_situ
arg2_start_uni_colored
arg2_start_uni_read
arg2_start_uni_secondary
arg2_start_uni_lane
arg2_start_uni_constructs
arg2_start_uni_cbf1-reporter
arg2_start_uni_deficiency
arg2_start_uni_akt
arg2_start_uni_mobilization
arg2_start_uni_region
''_,
arg2_start_uni_irf-4-positive
arg2_start_uni_conditions
arg2_start_uni_see
arg2_start_uni_vivo,
arg2_start_uni_quantification
arg2_start_uni_ages
arg2_start_uni_antigen-presenting
arg2_start_uni_controls
arg2_start_uni_authors
arg2_start_uni_play
arg2_start_uni_contained
arg2_start_uni_fact
arg2_start_uni_confirm
arg2_start_uni_female
arg2_start_uni_histograms
arg2_start_uni_cytokine
arg2_start_uni_apparently
arg2_start_uni_coupled
arg2_start_uni_initial
arg2_start_uni_clustering
arg2_start_uni_nucleotide
arg2_start_uni_apc,
arg2_start_uni_pbmncs
arg2_start_uni_involvement
arg2_start_uni_cell;
arg2_start_uni_sizes
arg2_start_uni_assays,
arg2_start_uni_monoclonal
arg2_start_uni_fragments
arg2_start_uni_elements
arg2_start_uni_important
arg2_start_uni_β-actin
arg2_start_uni_shift
arg2_start_uni_without
arg2_start_uni_more
arg2_start_uni_clinical
arg2_start_uni_previously
arg2_start_uni_lack
arg2_start_uni_injected
arg2_start_uni_il-6
arg2_start_uni_normal
arg2_start_uni_here
arg2_start_uni_observed
arg2_start_uni_pb
arg2_start_uni_experiments,
includes_<-_<nsubj>_<dobj>:2
arg2_start_uni_tnf-α
arg2_start_uni_among
NP_->_NP_,_ADJP_,:1
arg2_start_uni_experimental
arg2_start_uni_receptor
arg2_start_uni_previous
arg2_start_uni_determine
arg2_start_uni_molecular
arg2_start_uni_ra
PRP_->_they:12
arg2_start_uni_percentages
arg2_start_uni_response
arg2_start_uni_recombinant
from_<-_<pobj>:1
arg2_start_uni_serum
arg2_start_uni_out
arg2_start_uni_fragment
arg2_start_uni_(c)
arg2_start_uni_(d)
arg2_start_uni_case
NP_->_NP_,_SBAR:12
arg2_start_uni_adding
arg2_start_uni_importantly,
arg2_start_uni_capacity
arg2_start_uni_macrophages
arg2_start_uni_relb+
arg2_start_uni_androgens
arg2_start_uni_ipsilateral
arg2_start_uni_mammary
arg2_start_uni_depletion
arg2_start_uni_cd4+cd25-
arg2_start_uni_vbcl-2
arg2_start_uni_knock-in
arg2_start_uni_small
arg2_start_uni_sought
arg2_start_uni_status
arg2_start_uni_studies,
arg2_start_uni_cd123+
arg2_start_uni_reported,
arg2_start_uni_pi3-k
arg2_start_uni_abnormal
arg2_start_uni_similarly,
arg2_start_uni_pretreatment
arg2_start_uni_frequency
arg2_start_uni_phosphorylation
arg2_start_uni_linear
arg2_start_uni_pi3k-akt
arg2_start_uni_propose
JJ_->_due:12
arg2_start_uni_possibility
arg2_start_uni_competition
CC_->_But:1
arg2_start_uni_smallest
arg2_start_uni_heterogeneity
arg2_start_uni_coercion
arg2_start_uni_il-7
arg2_start_uni_opportunities
arg2_start_uni_engagement
arg2_start_uni_lag
arg2_start_uni_neurons,
arg2_start_uni_context-dependent
arg2_start_uni_where,
arg2_start_uni_favor
arg2_start_uni_allowed
arg2_start_uni_impression
arg2_start_uni_lend
arg2_start_uni_conclude
NN_->_vice:2
arg2_start_uni_regardless
arg2_start_uni_feature
arg2_start_uni_how,
arg2_start_uni_appears
arg2_start_uni_tyrosine
arg2_start_uni_depending
arg2_start_uni_simultaneous
arg2_start_uni_ability
arg2_start_uni_especially
arg2_start_uni_us
arg2_start_uni_induces
arg2_start_uni_observation,
arg2_start_uni_explanation
arg2_start_uni_occurrence
arg2_start_uni_delayed
arg2_start_uni_recruitment
arg2_start_uni_reason
arg2_start_uni_scf
arg2_start_uni_answer
arg2_start_uni_larger
arg2_start_uni_aspect
arg2_start_uni_coordinate
arg2_start_uni_effective
at_<-_<pobj>:12
arg2_start_uni_concluded
arg2_start_uni_respect,
arg2_start_uni_reason,
arg2_start_uni_paradox
arg2_start_uni_analogous
arg2_start_uni_property
arg2_start_uni_intersecting
arg2_start_uni_presumably,
arg2_start_uni_assess
arg2_start_uni_unique
arg2_start_uni_early
arg2_start_uni_numerous
arg2_start_uni_address
arg2_start_uni_draws
arg2_start_uni_validates
arg2_start_uni_hypothesized
arg2_start_uni_considerations
arg2_start_uni_reinforce
arg2_start_uni_might
arg2_start_uni_highlight
arg2_start_uni_regulated
arg2_start_uni_efficacy
arg2_start_uni_then
arg2_start_uni_affected
arg2_start_uni_together,
month_<-_<num>:12
arg2_start_uni_significantly
arg2_start_uni_limited
arg2_start_uni_similarly
arg2_start_uni_active
arg2_start_uni_compared
arg2_start_uni_exposure
arg2_start_uni_relationship
arg2_start_uni_provide
arg2_start_uni_stat1
arg2_start_uni_number
VBN_->_based:2
arg2_start_uni_anti-cd4
at_<-_<pobj>:1
arg2_start_uni_large
arg2_start_uni_conditional
arg2_start_uni_indicate
arg2_start_uni_do
arg2_start_uni_regard,
arg2_start_uni_suggest
arg2_start_uni_combined
at_<-_<pobj>:2
month_<-_<num>:2
arg2_start_uni_demonstrates
arg2_start_uni_phosphorylation,
arg2_start_uni_upon
arg2_start_uni_either
arg2_start_uni_resolution
arg2_start_uni_rather
NP_->_NP_,_NP_,:12
arg2_start_uni_observations
arg2_start_uni_interaction
arg2_start_uni_presence
arg2_start_uni_than
arg2_start_uni_based
arg2_start_uni_basis
arg2_start_uni_positions
arg2_start_uni_correlation
arg2_start_uni_defects
arg2_start_uni_means
arg2_start_uni_contrasting
arg2_start_uni_studied
arg2_start_uni_understanding
arg2_start_uni_pbmcs
arg2_start_uni_contribute
arg2_start_uni_key
arg2_start_uni_indicates
arg2_start_uni_their
arg2_start_uni_study
arg2_start_uni_such
arg2_start_uni_current
arg2_start_uni_would
arg2_start_uni_suggests
arg2_start_uni_pdcs
arg2_start_uni_hoxa3+/-pax1-/-
arg2_start_uni_ews-erg
arg2_start_uni_tec
arg2_start_uni_clearly
arg2_start_uni_testing
arg2_start_uni_preclinical
VP_->_VB_ADJP:12
arg2_start_uni_define
arg2_start_uni_compound
arg2_start_uni_mutants
arg2_start_uni_labeled
arg2_start_uni_168
arg2_start_uni_interest
arg2_start_uni_transactivates
arg2_start_uni_uds
arg2_start_uni_respond
earlier_%
arg2_start_uni_ablated
arg2_start_uni_month
arg2_start_uni_tgf-β-converted
arg2_start_uni_(a–c)
arg2_start_uni_jejunum,
arg2_start_uni_possess
arg2_start_uni_[3h]thymidine
arg2_start_uni_identifies
arg2_start_uni_a.
arg2_start_uni_a,
arg2_start_uni_exciting
arg2_start_uni_first,
arg2_start_uni_binds
arg2_start_uni_protocol,
arg2_start_uni_inoculated
arg2_start_uni_fashion,
arg2_start_uni_marginal
arg2_start_uni_proliferating
arg2_start_uni_gm
arg2_start_uni_h,
arg2_start_uni_overall
arg2_start_uni_cytokine-positive
arg2_start_uni_necrosis
arg2_start_uni_model,
arg2_start_uni_comprised
arg2_start_uni_total,
arg2_start_uni_she,
arg2_start_uni_dendritic
arg2_start_uni_kratochwil
arg2_start_uni_global
arg2_start_uni_discrete
arg2_start_uni_spleen:
arg2_start_uni_length
co._of
arg2_start_uni_embryonic
arg2_start_uni_er-tr9
arg2_start_uni_phosphoimage
arg2_start_uni_system,
arg2_start_uni_briefly,
offer_of
arg2_start_uni_generally
arg2_start_uni_copies
arg2_start_uni_blotting
arg2_start_uni_footprint
arg2_start_uni_polymerase
arg2_start_uni_provided
arg2_start_uni_collagen-rich
arg2_start_uni_untranslated
arg2_start_uni_hsv-thymidine
arg2_start_uni_transactivation
arg2_start_uni_autoradiographs
arg2_start_uni_rinsed
arg2_start_uni_cμ
arg2_start_uni_particular
arg2_start_uni_asked
arg2_start_uni_pattern
arg2_start_uni_−116
arg2_start_uni_efforts,
arg2_start_uni_cancer
arg2_start_uni_bob.1/obf.1-specific
arg2_start_uni_90%
issue_<-_<det>:2
arg2_start_uni_profiles
arg2_start_uni_presumed
NN_->_vice:1
arg2_start_uni_endocrine
arg2_start_uni_resuspending
arg2_start_uni_e15.5
arg2_start_uni_appropriate
arg2_start_uni_sample,
arg2_start_uni_results,
arg2_start_uni_counted
arg2_start_uni_kb
arg2_start_uni_lymphocyte
arg2_start_uni_autocrine
arg2_start_uni_triggering
arg2_start_uni_groups
arg2_start_uni_poly-adp-ribose
arg2_start_uni_nm
arg2_start_uni_examination
arg2_start_uni_ectopic
arg2_start_uni_need
arg2_start_uni_assembly
arg2_start_uni_brca1
arg2_start_uni_depicted
NP_->_NP_,_SBAR_,:1
offer_the
arg2_start_uni_tests
arg2_start_uni_displays
arg2_start_uni_inhibits
arg2_start_uni_[estrogen
arg2_start_uni_t-dependent
arg2_start_uni_gata-1
arg2_start_uni_thirty
arg2_start_uni_threshold
arg2_start_uni_a.1
arg2_start_uni_a-b
arg2_start_uni_heatmap
arg2_start_uni_profile
arg2_start_uni_factor
arg2_start_uni_mammogens
arg2_start_uni_simplified
arg2_start_uni_mediators
arg2_start_uni_begins
arg2_start_uni_added:
arg2_start_uni_initially,
arg2_start_uni_cassette
arg2_start_uni_3.1
arg2_start_uni_pre-existing
arg2_start_uni_swelling
arg2_start_uni_motif
arg2_start_uni_oct2-specific
arg2_start_uni_scenario,
arg2_start_uni_generate
arg2_start_uni_bob.1/obf.1−/−
arg2_start_uni_4
arg2_start_uni_ionizing
arg2_start_uni_embryo,
arg2_start_uni_(5
arg2_start_uni_antigens,
arg2_start_uni_purely
arg2_start_uni_pieces
arg2_start_uni_able
arg2_start_uni_orientation
loss_or
arg2_start_uni_relates
arg2_start_uni_p50
arg2_start_uni_thp-1
arg2_start_uni_dilution,
arg2_start_uni_infect
arg2_start_uni_leads
arg2_start_uni_stability
arg2_start_uni_floxed
arg2_start_uni_(a)histopathology
arg2_start_uni_illustrating
arg2_start_uni_neurogenesis,
arg2_start_uni_(a),
arg2_start_uni_box
arg2_start_uni_types
arg2_start_uni_stimuli
arg2_start_uni_could
arg2_start_uni_procedure
arg2_start_uni_mechanistically,
arg2_start_uni_extracted
arg2_start_uni_gp130f759/f759
arg2_start_uni_aliquot
arg2_start_uni_local
arg2_start_uni_th1
,_he
co._the
arg2_start_uni_pooled
arg2_start_uni_attract
via_<-_<pobj>:1
arg2_start_uni_mab,
arg2_start_uni_useful
arg2_start_uni_(p
arg2_start_uni_earliest
arg2_start_uni_xid
arg2_start_uni_(a
VBN_->_named:1
arg2_start_uni_infected
arg2_start_uni_suspensions
arg2_start_uni_except
arg2_start_uni_scotet
arg2_start_uni_stroma
arg2_start_uni_enrolled
arg2_start_uni_appearance
arg2_start_uni_24-well
arg2_start_uni_open
arg2_start_uni_smad
arg2_start_uni_various
arg2_start_uni_cea
vice_,
arg2_start_uni_implies
arg2_start_uni_characteristics,
arg2_start_uni_(large
arg2_start_uni_buds,
arg2_start_uni_domains
arg2_start_uni_cunha
arg2_start_uni_haematopoietic
arg2_start_uni_cho
arg2_start_uni_µg
arg2_start_uni_engaging
arg2_start_uni_them
arg2_start_uni_continued
arg2_start_uni_comparing
arg2_start_uni_stability-regulated
arg2_start_uni_fixation
arg2_start_uni_lysates
arg2_start_uni_frozen
arg2_start_uni_spleen
arg2_start_uni_time-point
arg2_start_uni_smears
arg2_start_uni_microliters
arg2_start_uni_digestion
arg2_start_uni_surface
NN_->_unit:2
arg2_start_uni_entire
arg2_start_uni_hours
arg2_start_uni_24
arg2_start_uni_resuspended
inc._the
arg2_start_uni_analyzed
arg2_start_uni_she
arg2_start_uni_probes
arg2_start_uni_reaction
arg2_start_uni_10
CC_->_&:2
arg2_start_uni_sections
arg2_start_uni_patient
arg2_start_uni_days
,_&
arg2_start_uni_rna
arg2_start_uni_end
VBN_->_based:1
arg2_start_uni_mononuclear
arg2_start_uni_each
arg2_start_uni_promoter
of_&
the_&
arg2_start_uni_genomic
to_&
arg2_start_uni_protein
arg2_start_uni_extracts
arg2_start_uni_prepared
arg2_start_uni_transgenic
arg2_start_uni_pbmc
arg2_start_uni_(a)
arg2_start_uni_purification
arg2_start_uni_×
arg2_start_uni_splenocytes
arg2_start_uni_wt
arg2_start_uni_within
arg2_start_uni_beyond
arg2_start_uni_(i)
arg2_start_uni_aa
arg2_start_uni_populations
arg2_start_uni_hela
arg2_start_uni_contains
arg2_start_uni_top
arg2_start_uni_group
arg2_start_uni_background
arg2_start_uni_structure
arg2_start_uni_utilized
arg2_start_uni_those
arg2_start_uni_proved
arg2_start_uni_size
arg2_start_uni_time-to-positivity
arg2_start_uni_enrichment
arg2_start_uni_chromosomal
arg2_start_uni_input
arg2_start_uni_erg
arg2_start_uni_staining
arg2_start_uni_primers
arg2_start_uni_amount
arg2_start_uni_established
arg2_start_uni_position
arg2_start_uni_pathology
of_s
arg2_start_uni_proinflammatory
arg2_start_uni_represents
arg2_start_uni_stimulatory
arg2_start_uni_extremely
arg2_start_uni_through
arg2_start_uni_amplified
arg2_start_uni_originally
arg2_start_uni_w3/25
arg2_start_uni_blot
arg2_start_uni_socs3
arg2_start_uni_marker
arg2_start_uni_mobility
arg2_start_uni_itk
arg2_start_uni_can
NP_->_NP_,_CC_NP_,:2
QP_->_$_CD_CD:2
arg2_start_uni_during
arg2_start_uni_arrows
arg2_start_uni_several
,_who
to_term
arg2_start_uni_cells,
arg2_start_uni_highly
arg2_start_uni_buds
arg2_start_uni_a)
earlier_to
arg2_start_uni_mab
arg2_start_uni_limit
arg2_start_uni_btk
arg2_start_uni_peripheral
arg2_start_uni_lower
arg2_start_uni_transfection
arg2_start_uni_deficient
arg2_start_uni_mechanism
arg2_start_uni_analyses
arg2_start_uni_thymocytes
arg2_start_uni_accelerating
arg2_start_uni_unlike
arg2_start_uni_grain
arg2_start_uni_displayed
arg2_start_uni_neutrophils
arg2_start_uni_tumor
arg2_start_uni_therapeutic
arg2_start_uni_al
arg2_start_uni_cd4+cd25+
arg2_start_uni_kinase
arg2_start_uni_produced
arg2_start_uni_demonstrate
arg2_start_uni_mutations
arg2_start_uni_brdu
arg2_start_uni_beacons
arg2_start_uni_signaling
from_<-_<pobj>:2
arg2_start_uni_extended
arg2_start_uni_assay,
arg2_start_uni_accumulation
arg2_start_uni_wild
includes_<-_<nsubj>_<dobj>:1
arg2_start_uni_influence
arg2_start_uni_increasing
arg2_start_uni_dose-dependent
arg2_start_uni_highest
arg2_start_uni_prevented
arg2_start_uni_strong
arg2_start_uni_type
arg2_start_uni_new
arg2_start_uni_time-point,
arg2_start_uni_blocked
arg2_start_uni_rinsing
arg2_start_uni_released,
arg2_start_uni_firefly
arg2_start_uni_μg
arg2_start_uni_log
arg2_start_uni_aliquout
arg2_start_uni_luciferase
arg2_start_uni_placed
arg2_start_uni_sacrificed
arg2_start_uni_tbs-t
arg2_start_uni_unlabelled
arg2_start_uni_106
arg2_start_uni_hybridization
arg2_start_uni_(mediacybernetics,
arg2_start_uni_membranes
arg2_start_uni_he
arg2_start_uni_fresh
arg2_start_uni_electrophoresed
arg2_start_uni_stimulated,
arg2_start_uni_es
arg2_start_uni_establishing
arg2_start_uni_lysis
arg2_start_uni_phase
arg2_start_uni_undergone
arg2_start_uni_immediately
arg2_start_uni_carrier
arg2_start_uni_harvested
arg2_start_uni_5-to10
arg2_start_uni_viable,
arg2_start_uni_aqueous
arg2_start_uni_sheath,
arg2_start_uni_defined
arg2_start_uni_bound/retarded
arg2_start_uni_counterstained
arg2_start_uni_hes1
arg2_start_uni_flow-through
arg2_start_uni_plates
arg2_start_uni_hla-dr+cd14-cd123+
arg2_start_uni_(107)
arg2_start_uni_subjected
arg2_start_uni_dried
NNP_->_Corp.:1
arg2_start_uni_started
arg2_start_uni_extensive
arg2_start_uni_microarrays
arg2_start_uni_double
arg2_start_uni_ultrathin
arg2_start_uni_encompassing
arg2_start_uni_calibration
arg2_start_uni_suspension
arg2_start_uni_incubation
arg2_start_uni_resolved
arg2_start_uni_seven
arg2_start_uni_arraypro
arg2_start_uni_five
arg2_start_uni_centrifugation,
arg2_start_uni_q-rna
arg2_start_uni_hla-dr+cd14-
arg2_start_uni_forty-eight
arg2_start_uni_raw
corp._the
arg2_start_uni_collected
arg2_start_uni_pools
arg2_start_uni_apoptotic,
arg2_start_uni_amplification,
arg2_start_uni_extending
arg2_start_uni_chemoattractants,
arg2_start_uni_intensities
arg2_start_uni_nucleotides
arg2_start_uni_streptavidin–alkaline
arg2_start_uni_(a.g.
arg2_start_uni_ethanol
arg2_start_uni_batch
arg2_start_uni_washing,
arg2_start_uni_microbeads
arg2_start_uni_fifty
arg2_start_uni_whole-blood
arg2_start_uni_preceding
arg2_start_uni_software
arg2_start_uni_neighboring
arg2_start_uni_formalin-fixed
arg2_start_uni_targeted
arg2_start_uni_staining,
arg2_start_uni_(0.8
arg2_start_uni_rt
arg2_start_uni_np12-bsa-biotin
arg2_start_uni_intracellular
arg2_start_uni_nih/3t3
arg2_start_uni_1996
arg2_start_uni_immunoblot
arg2_start_uni_uv
arg2_start_uni_either,
arg2_start_uni_exposure,
arg2_start_uni_evaluation,
arg2_start_uni_purification,
arg2_start_uni_serial
arg2_start_uni_under
arg2_start_uni_exposed
arg2_start_uni_reactions,
arg2_start_uni_transfer
arg2_start_uni_separated
arg2_start_uni_indicated,
arg2_start_uni_densities
arg2_start_uni_thawed
NN_->_unit:1
arg2_start_uni_stained
arg2_start_uni_fold
arg2_start_uni_surnatants
arg2_start_uni_strand
arg2_start_uni_arrays
arg2_start_uni_basophils
CC_->_&:12
arg2_start_uni_founder
arg2_start_uni_lobes
arg2_start_uni_thousand
arg2_start_uni_dual-glo
arg2_start_uni_pathological
arg2_start_uni_oligo
arg2_start_uni_15 minutes
arg2_start_uni_70°c
arg2_start_uni_centrifuged
arg2_start_uni_reverse
arg2_start_uni_10 minutes
arg2_start_uni_cryosections
arg2_start_uni_piece
arg2_start_uni_d
arg2_start_uni_solutions
arg2_start_uni_left
arg2_start_uni_hybridization,
arg2_start_uni_digested
arg2_start_uni_extracts,
arg2_start_uni_(20
arg2_start_uni_anti-cd3-biotin
arg2_start_uni_removed
arg2_start_uni_four-color
arg2_start_uni_enhancement
arg2_start_uni_ultrasound
arg2_start_uni_radiolabelled
arg2_start_uni_(50
arg2_start_uni_followed
arg2_start_uni_removing
arg2_start_uni_absorbance
arg2_start_uni_co-cultured
arg2_start_uni_pellet
arg2_start_uni_analyze
arg2_start_uni_whole
arg2_start_uni_stimulation,
arg2_start_uni_saturating
arg2_start_uni_microcentrifugation
arg2_start_uni_oligonucleotides
arg2_start_uni_count
arg2_start_uni_scanning
arg2_start_uni_denaturation
arg2_start_uni_non-adherent
arg2_start_uni_phosophorylation
arg2_start_uni_gels
arg2_start_uni_actinomycin
arg2_start_uni_pooled,
arg2_start_uni_generated
arg2_start_uni_germ
arg2_start_uni_q-pcr
arg2_start_uni_(70–100
arg2_start_uni_supernatant
arg2_start_uni_pellets
arg2_start_uni_rehydration
arg2_start_uni_(200-μl
arg2_start_uni_16
arg2_start_uni_2.5
arg2_start_uni_quantified
arg2_start_uni_measured
arg2_start_uni_synthesized
arg2_start_uni_ten
arg2_start_uni_mixture
arg2_start_uni_single-stranded
arg2_start_uni_diluted
arg2_start_uni_phosphorylated
arg2_start_uni_spun
arg2_start_uni_unincorporated
arg2_start_uni_july
arg2_start_uni_visualized
arg2_start_uni_notch
arg2_start_uni_genotypes
arg2_start_uni_30 minutes,
arg2_start_uni_pi3-k,
arg2_start_uni_oligomers
arg2_start_uni_(50 μg
arg2_start_uni_10–12
%_&
arg2_start_uni_cd3
arg2_start_uni_washing
arg2_start_uni_viability
arg2_start_uni_transfections
arg2_start_uni_µg)
arg2_start_uni_separation
arg2_start_uni_hybridized
arg2_start_uni_paraffin-embedded
arg2_start_uni_gadolinium
arg2_start_uni_precipitated
arg2_start_uni_culled
arg2_start_uni_bacterial
arg2_start_uni_complimentary
arg2_start_uni_signalling
arg2_start_uni_again
arg2_start_uni_reactions
arg2_start_uni_t-cell
arg2_start_uni_equal
arg2_start_uni_aliquots
arg2_start_uni_day
arg2_start_uni_live
arg2_start_uni_ifn-γ
arg2_start_uni_red
arg2_start_uni_lymphocytes
arg2_start_uni_well
arg2_start_uni_washed
arg2_start_uni_mix
arg2_start_uni_comparisons
arg2_start_uni_purified
arg2_start_uni_concentration
arg2_start_uni_immunoprecipitated
arg2_start_uni_nro
arg2_start_uni_curve
arg2_start_uni_images
arg2_start_uni_complexes
arg2_start_uni_construct
arg2_start_uni_made
arg2_start_uni_cdna
arg2_start_uni_blocking
arg2_start_uni_double-stranded
arg2_start_uni_identification
arg2_start_uni_pax5
arg2_start_uni_events
arg2_start_uni_reporter
arg2_start_uni_standard
arg2_start_uni_lines
arg2_start_uni_curves
arg2_start_uni_additional
arg2_start_uni_culture
arg2_start_uni_analysis,
arg2_start_uni_ifn-γ,
arg2_start_uni_il-10,
arg2_start_uni_examine
arg2_start_uni_supernatants
arg2_start_uni_cultures
arg2_start_uni_chemotaxis
arg2_start_uni_purity
arg2_start_uni_signal
arg2_start_uni_bands
by_<-_<pobj>:2
arg2_start_uni_remaining
arg2_start_uni_test
arg2_start_uni_eosinophils
by_<-_<pobj>:1
arg2_start_uni_identified
arg2_start_uni_average
arg2_start_uni_(filled
arg2_start_uni_incubated
arg2_start_uni_competitors
arg2_start_uni_nuclei
arg2_start_uni_(1
arg2_start_uni_isolated
arg2_start_uni_stimulated
arg2_start_uni_diagnosis,
arg2_start_uni_resulting
arg2_start_uni_oligonucleotide
arg2_start_uni_real-time
arg2_start_uni_(2
arg2_start_uni_mutant
arg2_start_uni_two-color
arg2_start_uni_hallmark
arg2_start_uni_hanks'
arg2_start_uni_inverted
arg2_start_uni_limits
arg2_start_uni_optical
arg2_start_uni_targeting
arg2_start_uni_composition
arg2_start_uni_considering
arg2_start_uni_maintained
arg2_start_uni_tetsushi
arg2_start_uni_flow
arg2_start_uni_genetic
arg2_start_uni_contents
arg2_start_uni_age
arg2_start_uni_pertinent
arg2_start_uni_gated
arg2_start_uni_isindicated
arg2_start_uni_reticulocyte
arg2_start_uni_mopc21
arg2_start_uni_columns
arg2_start_uni_sorting,
arg2_start_uni_mounting
arg2_start_uni_transition,
arg2_start_uni_pi3k-activating
arg2_start_uni_years
arg2_start_uni_cnt,
arg2_start_uni_healthy
arg2_start_uni_rounds
arg2_start_uni_arrows,
arg2_start_uni_element
arg2_start_uni_(1/200;
arg2_start_uni_bv
arg2_start_uni_cc
arg2_start_uni_bd
arg2_start_uni_informed
arg2_start_uni_latter
arg2_start_uni_duration
arg2_start_uni_cavity;
arg2_start_uni_e1-fl
arg2_start_uni_described
arg2_start_uni_histographic
arg2_start_uni_spearman
arg2_start_uni_microarray
arg2_start_uni_scatter
arg2_start_uni_stromal-epithelial
arg2_start_uni_bars
arg2_start_uni_adjuvanticity
arg2_start_uni_successful
arg2_start_uni_blots
arg2_start_uni_ff
arg2_start_uni_surprisingly,
arg2_start_uni_g:
arg2_start_uni_cd14-hla-dr+
arg2_start_uni_cd69
arg2_start_uni_g,
arg2_start_uni_bottom:
arg2_start_uni_models
arg2_start_uni_bilateral
arg2_start_uni_responded
arg2_start_uni_fitc-linked
arg2_start_uni_color
arg2_start_uni_cytometry,
arg2_start_uni_value
arg2_start_uni_cytometry
arg2_start_uni_mode
arg2_start_uni_gradient
arg2_start_uni_grown
arg2_start_uni_elisa
arg2_start_uni_indo-1
arg2_start_uni_conceived
arg2_start_uni_sv40
arg2_start_uni_**p
arg2_start_uni_should
arg2_start_uni_regulatory
arg2_start_uni_abundant
arg2_start_uni_0.01,
arg2_start_uni_fibroblast
arg2_start_uni_constant
arg2_start_uni_statistical
arg2_start_uni_possibilities
arg2_start_uni_ensured
arg2_start_uni_stains
arg2_start_uni_sandwich
arg2_start_uni_sixteen
arg2_start_uni_abnormalities
arg2_start_uni_technique
arg2_start_uni_primarily
arg2_start_uni_stat4
arg2_start_uni_decrease
arg2_start_uni_arrow
arg2_start_uni_eachgraph
arg2_start_uni_akira
arg2_start_uni_emsa,
arg2_start_uni_totals
arg2_start_uni_thirteen
arg2_start_uni_werescanned
arg2_start_uni_(ttp)
arg2_start_uni_okamoto,
arg2_start_uni_fluorescence
arg2_start_uni_magnification
arg2_start_uni_quality
arg2_start_uni_vgv
arg2_start_uni_exon
arg2_start_uni_elsewhere
arg2_start_uni_significance
arg2_start_uni_ethidium
arg2_start_uni_family
arg2_start_uni_recruited
arg2_start_uni_mouse
arg2_start_uni_unstimulated
arg2_start_uni_histology,
arg2_start_uni_macrophage-specific
arg2_start_uni_depict
arg2_start_uni_makino
arg2_start_uni_ruffled
arg2_start_uni_stat3-deficient
arg2_start_uni_represent
arg2_start_uni_shaded
arg2_start_uni_institutional
arg2_start_uni_assisted
arg2_start_uni_translocation
arg2_start_uni_ratio
arg2_start_uni_volunteers
arg2_start_uni_weak
arg2_start_uni_6–8
arg2_start_uni_emergence
arg2_start_uni_mammographically
arg2_start_uni_contributed
arg2_start_uni_(mixed
arg2_start_uni_injections
arg2_start_uni_(100
arg2_start_uni_experiment,
arg2_start_uni_table
arg2_start_uni_genes,
arg2_start_uni_(p65)
arg2_start_uni_5′-region
arg2_start_uni_standpoint
arg2_start_uni_initially
arg2_start_uni_substances
arg2_start_uni_algorithm
arg2_start_uni_horizontal
arg2_start_uni_methodology
arg2_start_uni_values
arg2_start_uni_medications
arg2_start_uni_helped
arg2_start_uni_sampled
arg2_start_uni_processed
arg2_start_uni_(small
arg2_start_uni_thought
arg2_start_uni_infectious,
arg2_start_uni_hyk
note_rate
arg2_start_uni_control/s,
arg2_start_uni_file
arg2_start_uni_continuing
arg2_start_uni_hyp
arg2_start_uni_interferon
arg2_start_uni_ih
arg2_start_uni_relb
arg2_start_uni_relation
arg2_start_uni_rela
arg2_start_uni_anti-tcrα/β
arg2_start_uni_sags
arg2_start_uni_jh
arg2_start_uni_jg
arg2_start_uni_overhang
arg2_start_uni_currently
arg2_start_uni_its
arg2_start_uni_released
arg2_start_uni_consequences
arg2_start_uni_jr
arg2_start_uni_maximal
arg2_start_uni_sense
arg2_start_uni_hour
arg2_start_uni_endo-toxin
arg2_start_uni_ifn-γ-stimulated
arg2_start_uni_anchored
arg2_start_uni_ld
arg2_start_uni_rank
arg2_start_uni_mc
arg2_start_uni_favorable
arg2_start_uni_suggestions
arg2_start_uni_poly
arg2_start_uni_bromide
arg2_start_uni_stainings
arg2_start_uni_glance,
arg2_start_uni_follow-up
arg2_start_uni_biological
arg2_start_uni_pg
arg2_start_uni_pm
arg2_start_uni_organisation
arg2_start_uni_cycling
arg2_start_uni_sc
arg2_start_uni_≤
arg2_start_uni_dose
arg2_start_uni_t,
arg2_start_uni_st
arg2_start_uni_(r1)
arg2_start_uni_mlc
arg2_start_uni_tw
arg2_start_uni_salt
arg2_start_uni_mll
arg2_start_uni_mkp
arg2_start_uni_masahiro
arg2_start_uni_rabbit
arg2_start_uni_share
arg2_start_uni_derivation
arg2_start_uni_illustrate
arg2_start_uni_listmode
arg2_start_uni_(mbps)
arg2_start_uni_outer
arg2_start_uni_mjr
arg2_start_uni_lacking
arg2_start_uni_fact,
arg2_start_uni_sake
arg2_start_uni_down-regulation
arg2_start_uni_feedback
arg2_start_uni_leukaemia/lymphoma
arg2_start_uni_therapy
arg2_start_uni_induce
arg2_start_uni_calculated
arg2_start_uni_aks
arg2_start_uni_ajh
arg2_start_uni_peptides
arg2_start_uni_–
arg2_start_uni_critically
arg2_start_uni_(10 nm)
arg2_start_uni_expected
arg2_start_uni_phenotypic
arg2_start_uni_strongest
arg2_start_uni_immunodetection
arg2_start_uni_r.b.c.
arg2_start_uni_tissue,
arg2_start_uni_plots
arg2_start_uni_one-year
arg2_start_uni_jmj
arg2_start_uni_median
arg2_start_uni_*mice
arg2_start_uni_earlier
arg2_start_uni_typical
arg2_start_uni_resembles
arg2_start_uni_smad2
arg2_start_uni_smad3
arg2_start_uni_neurotrophins
arg2_start_uni_course
arg2_start_uni_a-d:
arg2_start_uni_parameters
arg2_start_uni_cytotoxic
arg2_start_uni_overlapping
arg2_start_uni_compiled
arg2_start_uni_publications
arg2_start_uni_cbf1-dependent
arg2_start_uni_nrm
arg2_start_uni_impaired
arg2_start_uni_overlays
arg2_start_uni_magnifications
arg2_start_uni_(icsat/pip/mum1/lsirf)
arg2_start_uni_dark
arg2_start_uni_shl
arg2_start_uni_shp
arg2_start_uni_control;
arg2_start_uni_otherwise
arg2_start_uni_drafted
arg2_start_uni_sgg
arg2_start_uni_transient
arg2_start_uni_connective
arg2_start_uni_nipple
arg2_start_uni_cd3+4+8+
arg2_start_uni_×250
arg2_start_uni_subset
arg2_start_uni_least
arg2_start_uni_contained,
arg2_start_uni_laboratory
arg2_start_uni_besides
arg2_start_uni_3
arg2_start_uni_visualization
arg2_start_uni_<
arg2_start_uni_inserts
arg2_start_uni_noted,
arg2_start_uni_positive
arg2_start_uni_discovery
arg2_start_uni_disparate
arg2_start_uni_pi3k
arg2_start_uni_*
arg2_start_uni_p
arg2_start_uni_v
arg2_start_uni_t-test
arg2_start_uni_dissection
arg2_start_uni_noon
arg2_start_uni_level
arg2_start_uni_m
arg2_start_uni_streptavidin-cy5
arg2_start_uni_(igg1),
arg2_start_uni_medium
arg2_start_uni_main
arg2_start_uni_unfortunately,
arg2_start_uni_focused
arg2_start_uni_polyclonal
arg2_start_uni_consent
arg2_start_uni_disrupted
arg2_start_uni_forward
arg2_start_uni_note
arg2_start_uni_jc,
arg2_start_uni_foreskin
arg2_start_uni_unless
arg2_start_uni_population
arg2_start_uni_×40
arg2_start_uni_gave
arg2_start_uni_facilitating
arg2_start_uni_bar
arg2_start_uni_model
arg2_start_uni_rtf
arg2_start_uni_smad2,
arg2_start_uni_×15
arg2_start_uni_dnmts
arg2_start_uni_divided
arg2_start_uni_asterisks
arg2_start_uni_yamamura
arg2_start_uni_chemotherapy
arg2_start_uni_chemical
arg2_start_uni_exons
arg2_start_uni_added
arg2_start_uni_fixed
arg2_start_uni_plays
arg2_start_uni_×20
arg2_start_uni_characterized
arg2_start_uni_detects
arg2_start_uni_mjr,
arg2_start_uni_q1200x
arg2_start_uni_zone,
arg2_start_uni_evaluated
arg2_start_uni_consisted
arg2_start_uni_smad2/3
arg2_start_uni_outcomes
arg2_start_uni_solid
arg2_start_uni_hirofumi
arg2_start_uni_integrity
arg2_start_uni_calculations
arg2_start_uni_defective
arg2_start_uni_configuration,
arg2_start_uni_(asterisk)
arg2_start_uni_3b
arg2_start_uni_cytokines,
arg2_start_uni_30
arg2_start_uni_28s
arg2_start_uni_2a
arg2_start_uni_modified
arg2_start_uni_20
arg2_start_uni_plasmid
arg2_start_uni_experiment
arg2_start_uni_pbs
arg2_start_uni_markers
arg2_start_uni_regarding
arg2_start_uni_11
arg2_start_uni_(ff)
arg2_start_uni_1;
arg2_start_uni_12
arg2_start_uni_balanced
arg2_start_uni_that,
arg2_start_uni_'open'
arg2_start_uni_annexin
arg2_start_uni_were:
arg2_start_uni_statistically
arg2_start_uni_il-12-induced
arg2_start_uni_amplicons
arg2_start_uni_*p
arg2_start_uni_boxes
arg2_start_uni_individualization
arg2_start_uni_standards
arg2_start_uni_reduced
arg2_start_uni_student's
arg2_start_uni_histopathological
arg2_start_uni_period
arg2_start_uni_blunt-tipped
arg2_start_uni_gail
arg2_start_uni_owing
arg2_start_uni_diagram
arg2_start_uni_0.05
arg2_start_uni_depicts
arg2_start_uni_separate
arg2_start_uni_depletion/modulation
arg2_start_uni_joint
arg2_start_uni_lysate
arg2_start_uni_noted
arg2_start_uni_fusion
arg2_start_uni_cml-t1
arg2_start_uni_short
arg2_start_uni_conducted
arg2_start_uni_anti-phospho-p38
arg2_start_uni_very
arg2_start_uni_blue
arg2_start_uni_preparation
arg2_start_uni_similarity
arg2_start_uni_ester
arg2_start_uni_points
arg2_start_uni_filled-in
arg2_start_uni_generation
arg2_start_uni_absolute
arg2_start_uni_complete
arg2_start_uni_alcian
arg2_start_uni_original
arg2_start_uni_upregulation
arg2_start_uni_treatment,
arg2_start_uni_unprogrammed
execut_,
arg2_start_uni_methyl-cpg-binding
arg2_start_uni_negative
arg2_start_uni_micrographs
note_at
arg2_start_uni_measure
arg2_start_uni_wsr
arg2_start_uni_get
arg2_start_uni_scale
arg2_start_uni_branches
arg2_start_uni_chy
arg2_start_uni_acetoxymethyl
arg2_start_uni_predicted
arg2_start_uni_fibrous
arg2_start_uni_specimens
arg2_start_uni_thick
arg2_start_uni_error
arg2_start_uni_target
arg2_start_uni_relatively
arg2_start_uni_equivalency
arg2_start_uni_probably
arg2_start_uni_existence
arg2_start_uni_confirmed
arg2_start_uni_patients
arg2_start_uni_rag1-/-
arg2_start_uni_situation
arg2_start_uni_less
arg2_start_uni_translocations
arg2_start_uni_denote
arg2_start_uni_elf3
to_<-_<pobj>:2
arg2_start_uni_example
arg2_start_uni_these,
arg2_start_uni_tumors
arg2_start_uni_occurs
arg2_start_uni_delivery
arg2_start_uni_splenic
arg2_start_uni_includes
arg2_start_uni_animal
arg2_start_uni_methylation
arg2_start_uni_low
arg2_start_uni_dp
arg2_start_uni_inhibitory
arg2_start_uni_invertor
arg2_start_uni_elucidate
arg2_start_uni_synthetic
arg2_start_uni_considered
arg2_start_uni_z
arg2_start_uni_ratios
arg2_start_uni_plasmacytoid
arg2_start_uni_mrna
arg2_start_uni_socs1
arg2_start_uni_developed
yield_and
arg2_start_uni_again,
arg2_start_uni_neutrophil
arg2_start_uni_sorted
arg2_start_uni_approximately
arg2_start_uni_complex
arg2_start_uni_preventive
arg2_start_uni_mabs
arg2_start_uni_corresponding
arg2_start_uni_chromatin
arg2_start_uni_indicated
arg2_start_uni_intriguingly,
arg2_start_uni_study,
arg2_start_uni_hao
arg2_start_uni_de
arg2_start_uni_colon,
arg2_start_uni_rajewsky
arg2_start_uni_p53,
arg2_start_uni_substitutions
arg2_start_uni_corroborating
arg2_start_uni_detailed
arg2_start_uni_reveal
arg2_start_uni_increases
arg2_start_uni_intercession
arg2_start_uni_cell-type-specific
arg2_start_uni_baar
arg2_start_uni_obligatory
arg2_start_uni_tissues
arg2_start_uni_epidemiology
arg2_start_uni_extend
arg2_start_uni_credence
arg2_start_uni_hepatocyte
arg2_start_uni_supported
arg2_start_uni_pre-dp
arg2_start_uni_lung
arg2_start_uni_eosinophil-specific
arg2_start_uni_chosen
arg2_start_uni_adequate
arg2_start_uni_il-10-mediated
of_who
arg2_start_uni_striking
arg2_start_uni_half
arg2_start_uni_alternative
arg2_start_uni_immunodeficient
arg2_start_uni_interpretation,
arg2_start_uni_neutrophils,
arg2_start_uni_comprise
arg2_start_uni_seem
RB_->_n't:2
arg2_start_uni_chemoattractants
arg2_start_uni_introduction
arg2_start_uni_nucleic
arg2_start_uni_3.2
arg2_start_uni_work,
arg2_start_uni_acid
arg2_start_uni_severe
wa_who
arg2_start_uni_(jackson
arg2_start_uni_others
arg2_start_uni_encouraging
arg2_start_uni_intra-articular
arg2_start_uni_injection
arg2_start_uni_thin
arg2_start_uni_sequence-based
arg2_start_uni_contrasts
arg2_start_uni_core
arg2_start_uni_biopsy
arg2_start_uni_elf3,
arg2_start_uni_co-incident
arg2_start_uni_il-7r
arg2_start_uni_ews-fus
arg2_start_uni_4a,
include_<-_<nsubj>_<dobj>:1
include_<-_<nsubj>_<dobj>:2
arg2_start_uni_examples
arg2_start_uni_(il)-17
arg2_start_uni_family,
arg2_start_uni_pervasive
arg2_start_uni_il-1β
arg2_start_uni_map
arg2_start_uni_variety
arg2_start_uni_overexpressing
arg2_start_uni_epidermal
arg2_start_uni_myocytes,
arg2_start_uni_illegitimate
arg2_start_uni_undergo
arg2_start_uni_marchetti
arg2_start_uni_al.,
arg2_start_uni_p38
arg2_start_uni_elicited
arg2_start_uni_cml,
arg2_start_uni_iκb
arg2_start_uni_likely
arg2_start_uni_interleukin
arg2_start_uni_mouse,
arg2_start_uni_ciofani
arg2_start_uni_tn1
arg2_start_uni_endogenous
arg2_start_uni_naive
arg2_start_uni_nested
arg2_start_uni_release
arg2_start_uni_precursors
arg2_start_uni_cd123+hla-dr+
arg2_start_uni_describes
arg2_start_uni_egfr
arg2_start_uni_semi-quantitative
arg2_start_uni_azadc
arg2_start_uni_e6.1
arg2_start_uni_mxa+
arg2_start_uni_majority
arg2_start_uni_gene,
due_'s
arg2_start_uni_what
arg2_start_uni_rag1-cre
arg2_start_uni_lana
arg2_start_uni_review
arg2_start_uni_loss
arg2_start_uni_opposed
arg2_start_uni_ks
arg2_start_uni_nfkb1
arg2_start_uni_stages,
arg2_start_uni_jurkat
arg2_start_uni_exhibit
arg2_start_uni_bdnf
arg2_start_uni_fdc-m2
arg2_start_uni_polypeptides
arg2_start_uni_search
arg2_start_uni_vil-6
arg2_start_uni_lesions
arg2_start_uni_output
arg2_start_uni_set
arg2_start_uni_attempted
arg2_start_uni_bone
arg2_start_uni_carcinomas
of_<-_<pobj>:2
arg2_start_uni_indication
arg2_start_uni_analyse
arg2_start_uni_c
arg2_start_uni_overexpressed
arg2_start_uni_focuses
arg2_start_uni_here,
arg2_start_uni_pore-mediated
arg2_start_uni_previously,
arg2_start_uni_73
arg2_start_uni_55
arg2_start_uni_constitute
arg2_start_uni_become
arg2_start_uni_encodes
arg2_start_uni_essential
arg2_start_uni_influx
arg2_start_uni_rt-pcr,
arg2_start_uni_note,
arg2_start_uni_speculated
arg2_start_uni_tempting
arg2_start_uni_oct
arg2_start_uni_paper
arg2_start_uni_known
arg2_start_uni_prevents
arg2_start_uni_cellular
arg2_start_uni_development
arg2_start_uni_orf
arg2_start_uni_upper-outer
arg2_start_uni_over-expression
arg2_start_uni_b6
arg2_start_uni_comparative
arg2_start_uni_competitor
arg2_start_uni_panels)
arg2_start_uni_trigger
arg2_start_uni_illustrated
arg2_start_uni_wereincubated
arg2_start_uni_pretreated
arg2_start_uni_relb-cd123+
arg2_start_uni_sensitized
arg2_start_uni_sufficient
arg2_start_uni_(wt
arg2_start_uni_estimated
arg2_start_uni_localization
arg2_start_uni_oct1,
arg2_start_uni_cold
arg2_start_uni_igh
arg2_start_uni_agents
arg2_start_uni_efficiently
arg2_start_uni_blast
arg2_start_uni_inhibitor
arg2_start_uni_seen
arg2_start_uni_(top
or_share
arg2_start_uni_dynamic
arg2_start_uni_βgal
arg2_start_uni_murine
arg2_start_uni_localize
arg2_start_uni_formation
arg2_start_uni_histomorphological
arg2_start_uni_block
arg2_start_uni_microscopic
arg2_start_uni_inhibition
arg2_start_uni_circles)
arg2_start_uni_clonal
arg2_start_uni_saw
earlier_from
arg2_start_uni_30%
arg2_start_uni_bearing
arg2_start_uni_7
arg2_start_uni_context
arg2_start_uni_organs
arg2_start_uni_transgene
arg2_start_uni_excluding
arg2_start_uni_completely
arg2_start_uni_end,
arg2_start_uni_collected,
arg2_start_uni_delta1-fc
arg2_start_uni_plate-bound
arg2_start_uni_cho-hdelta1
arg2_start_uni_investigation
arg2_start_uni_electron
arg2_start_uni_stage-specific
arg2_start_uni_200
levels_<-_<nn>:12
arg2_start_uni_hypersensitive
arg2_start_uni_cd123+cd11c-
arg2_start_uni_incidence
arg2_start_uni_purities
arg2_start_uni_s194
arg2_start_uni_mri,
arg2_start_uni_allele
arg2_start_uni_oct2
arg2_start_uni_freshly
arg2_start_uni_(more
arg2_start_uni_73,
arg2_start_uni_polya
arg2_start_uni_ephb4,
arg2_start_uni_muc1
arg2_start_uni_results:
arg2_start_uni_conclusion:
arg2_start_uni_presentation:
arg2_start_uni_methods:
arg2_start_uni_conclusions:
arg2_start_uni_success
arg2_start_uni_tf-mediated
arg2_start_uni_another
arg2_start_uni_better
arg2_start_uni_alternate
arg2_start_uni_initiated
arg2_start_uni_require
arg2_start_uni_t-47d
2.0841037051875766
1.3392147238995937
1.4437429417557537
1.4671688999135428
1.4437429417557537
1.8073585092925954
2.0978032668968547
1.722078927574037
1.610549516731586
0.8245360857418245
2.0128559778743416
1.4671688999135428
1.4984359771467615
1.322207306010709
2.4927313115078706
1.4984359771467615
2.2269554861563616
1.423151882764945
1.5527701445910034
1.7757609566363117
2.3176732972532132
1.5030834498293244
1.618246013405847
2.278718861805845
1.8333297976870986
2.2678816839780547
0.8245360857418245
1.7757609566363117
1.7821153854218783
2.28307680395573
1.9985461832834603
0.6600155107937087
1.8855231257974234
0.7257565291843647
1.4619349926053862
0.6127301915112011
1.591097624424503
0.7873072550926207
1.2328868034865021
0.7725484783291462
1.5487529152610175
0.6783589377984433
-0.36682184321270506
-0.5064604199344978
0.21518278650692205
-0.19930535000159919
-0.0010625936320766106
-0.012369289088159627
-0.7009729511267694
0.392221854192579
-0.2130742159777939
0.1501737030433729
0.5629116020283257
-0.35546300148638416
0.13834537748527784
0.39740957278714073
-0.0025731966552435047
-0.9087022965906865
-0.1375551335283707
-0.15185891041722818
0.1343636755659148
-0.0979021877073616
-0.6071227788276804
0.15769866851340708
-0.492814483203189
0.058610241813935184
-0.23520476904723253
0.05582503203491523
0.1736684413857817
0.03359244776377566
-0.884819088602851
-0.30277579079490113
-0.018719766491121705
-0.46065201910722786
-0.0017415841489929864
-0.15850712144459075
-0.08620711945204426
0.11397269613110865
-0.052872473992682384
-0.3973531995937331
0.14892899238920979
-0.014463365107379658
0.07711495355696824
0.1386237099008285
-0.006956290087191845
-0.02804970257342259
-0.30021232503850104
0.017847242732910173
0.1602214254783395
-0.011349968394016368
-0.25740811064701424
0.053755276262934616
0.17550762625126395
0.12580220286106297
-0.20766817610583338
0.012815785339867942
-0.026434571784283305
-0.09477098712756007
0.012116109820856091
-0.014813776786361626
0.16703047947565738
-0.10275397138981926
-0.13708878335338145
-0.015088095371755891
0.009805170000080564
-0.08424053292921248
-0.09370275234591818
0.259294242957942
-1.1270630940588844
-0.009206577884710613
-0.17835737977565475
0.1526854377664529
0.1487554603777516
-0.10839216119205225
-0.6621319583536118
-0.24098740195656126
-0.06123233415660178
-0.2681024854764428
0.15561158806817485
0.375377319874554
-0.03558462416270265
-0.09031284161217087
0.018304293077322235
0.30666555008536417
-0.17742329162226886
0.17115686612409028
0.1231685531763803
-0.7304002497923188
-0.42056117366274004
0.025957662345541768
0.2066456499405667
0.06890516328376774
-0.0968513849844728
-0.0034971554259710515
-0.14759170723133092
-0.10071952597000197
0.17648683721158986
-0.14411949539373928
0.21473077779150548
0.24550240216831623
0.027400292334302377
-0.4187012804308
0.05625155167402241
-0.7290157584045623
0.23630450222775154
-0.03840376589774605
0.1083761925968704
0.17032981451047408
-0.5200613905692176
-0.30154945827971297
-0.49801429893033916
-0.034397946438359715
0.16914946173821313
-0.05556931748406723
0.10109505444553843
0.07250125982570083
-0.3438484664186078
-0.03351808951198752
0.11138388903592007
-0.06511854408703494
-0.023085824723002822
0.2206929515104417
-0.07302360204645093
0.07180431841008994
0.08400375947658953
0.061623720412053044
0.03290238756681
0.06503421542502197
-0.09192514027487969
0.08428104096379964
-0.1542855902965967
0.27733387559023503
0.10097776052195086
-0.27002784987766787
0.33244650532693226
0.019413356717988828
-0.21722946385816957
0.13147112932064794
0.33059338186635223
-0.14496018983442635
-0.2662664566098288
0.016357898100755854
0.22353509051939002
0.2834607137172198
-0.20321952345059816
-0.2627265762125292
-0.11861837293344933
-0.5464834946706031
0.06115177771746982
0.004391390923229333
0.07651214951770216
-0.8452473667248689
-0.18575708367629143
-0.15054104465760632
0.04492092265286265
0.3896449759810145
-0.45119845942478043
0.1858845325627279
0.08893997037455378
0.20116102345080142
-0.08232484685982187
-0.068937034504321
-0.7046891234877232
0.022908780509750926
-0.29308075526363875
-0.4094666500337015
0.1680142081422359
-0.15737631531491814
0.2093561751944985
-0.270980104383304
-0.17033673714107264
-0.11251648705706402
0.013448430872546234
-0.16870615777087386
0.4115284519141965
-0.24157943503508425
-0.22186168805400092
-0.13873804918842003
-0.2242066961784908
-0.3630686430185996
0.05288090682846651
0.1499552545833618
-0.04453287303502938
0.07609655900340179
-0.03462403984031036
-0.07953047979152122
0.19575788071769165
-1.0451057801066068
-0.22408764810065895
0.11312849094168467
-0.1897600922305701
-0.24592560559901283
-0.037093115719847296
0.030568127666853902
-0.05785045907679294
0.19430140001177296
0.10945445098502692
-0.3475155439218498
-0.43773267756693
-1.326016956150475
-0.11273591448147749
-0.22629458063531147
-0.3815804587220559
-0.39937298957876494
-0.14384689213036292
0.06976883719515287
0.005125265318477328
0.0019533534142127038
0.0342536462857978
0.030890645046368046
-0.1643505520799933
-0.10123560490837194
0.11088046021927629
0.26371134724779516
-0.3370987920489871
-0.5306408176328391
0.010918047915662027
-0.04973280685062656
0.04513064515822392
0.18712204202465604
-0.18046833322614098
0.327560213173278
-0.20166461516123257
0.06167419478470627
-0.018801267459769767
-0.30272383235742534
-0.29470783328066863
-0.328768723671045
-0.10421632803321515
0.053777640221851164
0.01511039792199203
0.14129485170601463
0.0719211573643459
-0.17556923970513658
-0.02050172950184326
-0.11427940320827822
-0.23034860838236257
0.07533156887100716
0.37547210962085187
-0.012785016916649211
0.16903468254399284
-0.13845144905245882
-0.16200614814913586
0.19186075338079403
-0.015597963411546225
-0.6913591381042783
-0.7591556864617639
-0.4600421625184106
-0.0049362898370440755
-0.23945047493538388
0.43806228528904373
0.29798669196235067
-0.06729992717279451
0.050280384961966545
0.17874035619387188
-0.058934267916942534
-0.010010081916842991
0.08554856200019563
-0.43078665830724855
-0.5732016279336578
-0.16763234392305448
0.03224876322154687
-0.21274860075410768
0.14100793577701443
0.035557385737812516
-0.10041823103479426
0.01382996301400089
0.041540780064501126
0.08995027499394663
-0.1891302009241406
-0.17897357622901797
-0.42496977936216107
-0.15494285385192588
-0.023641918597972638
-0.09794618289952922
0.1438719738822354
0.04247716306049412
-0.2993474788062401
0.034159250392580234
-0.38381187575748554
0.11968442962886383
-0.4436729784702742
-0.011203410893129753
0.2103158292486871
0.16118647408407186
-0.05285500900241966
0.1035502261507613
-3.25607886511549E-4
0.17162625414512842
0.15128765829903168
-0.011631519540678245
-0.19735857603494836
0.028814986397057884
-0.8045913030327014
-0.15810902590055717
-0.5802695872892493
0.036473487304939725
-0.15074725176540088
0.060769923124460216
-0.2551100812981068
-0.13373452192801785
0.08262338594946098
-0.10693215884311369
-0.5047148714708758
-0.03930632687687768
-0.2359640806177719
0.34832922542902794
0.6167015247227855
0.13907418068435415
0.10118984215905764
-0.1342681445520608
0.24119310371681021
-0.002838209884804186
0.013524058524360633
0.04605813366555304
-0.048897867626921776
0.10892044774746938
-0.7955012847661047
-0.19681257915963546
0.12721548869946944
-0.06951727576700908
-0.04208049986266359
-0.126066614587083
-0.12244023041828107
-0.042370802962266564
-0.23419807260580602
-0.14002037867711775
0.04072929290107404
-0.01585411527255915
0.43709697779727447
-0.03687097512761556
-0.1456562720192182
0.33719589503972247
0.06273847424677696
-0.2062449631173472
0.11526067060221443
-0.12530667139789575
-0.0029585127632600237
0.1621716068581875
-0.1496866801027994
0.10407412152224611
0.1337983044402031
-0.08254404819905631
-0.8422977632556709
-0.43837654515705626
0.05473840422442862
0.15267664514004017
-0.23322745520468244
0.14852220996036425
0.014110365875377945
-0.11525282309449511
0.07404162994007144
0.009586797828631581
0.18883002265689758
-0.20085187823937517
-0.5553115948257094
0.058326053329271633
-0.3440699051573644
-0.016496492500474642
-0.6237010238743711
-0.08588070443326394
0.13564776973670253
0.10205485896174558
0.0014027399361822208
-0.036334447365378775
0.1455999243926319
0.04958401053146145
0.08233007463859175
-0.27467442341831233
0.016110729139307667
0.3782956536216727
-0.03734232630496283
0.038616444315999025
-0.18256922239887374
0.020615834536945942
0.15562501647874824
0.024841592851374324
-0.2772085420913642
0.16385690873657865
0.06647002983853222
-0.052752945033472866
-0.16665297452957992
-0.13558689016016584
-0.07135640812701297
-0.008385832775786669
-0.0324662758636434
-0.10420990746243018
0.1719747802716829
0.04222391237648858
-0.15092088827037337
-0.860651099187482
-0.3078024295820573
0.06703607647095738
-0.2581164665009116
0.10992785575477793
0.23993514487156378
0.13408053725829652
-0.262566461414239
-0.1354106907029375
0.03244571061585913
0.0953301175971678
0.10451330519746314
0.22813158501405284
-0.5959173232040321
-0.37745420097083715
-0.20567403553710234
-0.6987135532305501
-0.16050901352896438
0.0021776880613082594
-0.4142828279632998
0.17679792140665743
-0.11165709593232584
0.08164234509772866
-0.0018257136303870816
-0.33991981003623073
0.16782915355756256
0.07600826905587753
-0.021806455839094595
-0.7639394367814185
-0.2785118980463476
-0.019497157006559455
0.07384419850130804
-0.09136792965882819
-0.04832776249826613
0.08067422613645905
0.14287924752412332
-0.009987312317300746
0.19349120979900525
0.28807933240997663
-0.027812464702334838
0.026504287940342926
0.22932003024776756
0.03654933941800763
-0.0237045490774869
0.026581888085035345
-0.03913412040878262
0.0873551335997779
-0.3411930667780453
-0.173215479045502
-0.2616790361661152
-0.010134932489436694
-0.0789275473087667
-0.04632949180364261
0.23317383258725533
0.01494328837771358
0.09630784846872865
-0.19193752601514427
-0.07757283330973543
-0.42570200077605586
-0.24301014145058578
0.48495487520096203
-0.3263125582921273
0.1686330035953594
0.45227873453340994
0.2513171082819648
-0.12987634638975887
0.031971260192841515
-0.021936020252910842
0.19572049870764216
0.08044203003673096
-0.13181021911171803
-0.41339201260763647
0.15717998495355393
0.09327295223272344
-0.044208957409509586
-0.16877481071648037
-0.5588081812393298
-0.1618791364718654
-0.06709666681911401
-0.3318148389152715
-0.1179843006082524
0.23458488338049535
0.07221268593226136
-0.7275411831960147
-0.11487856610907482
-1.5516009485373397
-0.7938585898175169
0.04872090259462694
0.09298405575279302
0.19495321884720138
-0.06339539964924994
0.10025515116868186
0.10946273061957458
0.07902008066506461
-0.056804225703397215
-0.09338043087752243
0.12302284169857376
0.0734103733052656
-0.0528693736933011
-0.03676681930981947
-0.31020930620885795
0.10718032452003942
-0.049565121079024756
0.05627625418031488
0.13902679566083523
-0.20490271071840477
-0.25756464285740815
-0.06334084193478391
0.02694073867031052
0.10051788510386646
0.14724575209663837
0.2521124147097914
0.19867879664110566
-0.009863917894332932
-0.10587590274370742
0.19279162038697634
-0.17230251483086942
-0.5303182651189462
0.15013106632322995
0.14010145752809341
-0.3392068862678607
0.16941058725626107
-0.2450960265512073
-0.04496302277993044
0.278565085346197
-1.0527070544095187
0.05908561687021893
-0.33228799563818934
-0.1315660397899819
-0.1513657717974196
0.025056099843142665
-0.19704384238195294
0.20460725722898734
-0.4688563445712886
0.17541411928208533
0.3114286322670723
-0.04083817586599581
0.13695992546430438
-0.09441852014855555
0.0873599882173131
0.060249932748056796
0.03594669975334676
-0.008464742450737545
-0.01711347909952182
-0.11163649634430528
-0.05266559404100962
-0.1310789960657033
0.017474319167790738
-0.07440838596473216
0.0746180953376594
0.28867268921682715
-0.22108399785894034
0.013322633879185674
-0.007575556705635796
-0.09770602487410215
0.023242353307089434
0.09718433477249414
0.008019446899777084
0.15047969011737122
0.004888242849103249
-0.05758054113613913
-0.019348137543362943
0.09763867606040942
-0.28998461332639475
-0.13104873516132642
-0.058934173546351366
0.05165520167028871
0.0573444123975169
0.07970224960569344
0.012107292716419794
0.06831459490066323
-0.14260063297501804
0.16404486576101615
0.008049446051221485
-0.07314786794051964
0.058114861944276376
0.10526990055873081
0.13111541620996986
-0.15359584088521439
-0.23451539056778822
0.09842952352051836
-0.3573101874529937
0.12139953989859217
0.08398863986889768
-0.03673474030472575
-0.10773508105779861
0.3360533981646304
-0.24108250300297226
-0.21604341499860044
0.1280049088957875
0.11297297144038258
-0.13167318417547022
0.2304498409684243
-0.1328399017191126
-0.508291646746158
0.09483318413383937
0.17039561057760463
-0.08072563182399876
0.3345816637072042
0.13874344965570207
-0.4213978250692707
-0.6580553198982805
0.44656118265626915
0.2163114270402166
-0.3663061771682915
0.19747774987900413
-0.06922432377974243
0.19583947466935323
0.07092035929870753
-0.5065826757683801
-0.2672282920923027
0.09014618891411078
0.21223749668829964
-0.10028505835218411
0.7151038849948632
0.5944079696353606
0.0858841230490351
-0.06494853893607423
-0.16836408706269934
0.07876612634645858
-1.28439968012799
0.23055151079797373
-0.22461879306081678
-0.5459769846614431
0.20358254444877658
0.08808075639938184
-0.7866092968634586
-0.7940887315732832
-0.05029808704829464
0.08605808397359854
-0.02851583166574512
0.12857831601705816
-0.07610300321752575
0.033933993403756836
0.02388753343044491
-0.20728948384381798
0.019904324313367423
0.04070727090704898
-0.05405617875713143
0.13350608637286912
-0.11248065019077225
-0.20877453650120303
-0.723486163350359
-0.027707149035130028
0.1807914681399413
-0.3788936493674611
0.2277696737656173
-0.15588410161946203
0.29184456333874426
0.13830960882397508
0.44537679808246416
0.12928112868063021
-0.16292458264652304
0.4931265933287528
0.6073772421430893
-0.008514480842764483
-0.044674641644999444
0.03948178993261061
-0.08100968705967938
0.05261864865728547
0.0834242446828905
0.18329940322069588
0.08103389481863804
0.015757759678916915
-0.09175319701758114
-0.06888629408318475
0.0037036667832689996
0.2999932189469543
-0.3321683795785044
0.03313493157776842
-0.045435171428932476
0.01971912779933571
-0.00342182594745803
0.12088479717036675
-0.19187592358196695
-0.05013177575747439
-0.3189145448515891
-0.056655422836924485
-0.0436847960670247
-0.01904901589906277
-0.4104233782892936
-0.17277377807230365
0.045662590625532136
-0.07171678148953335
0.02401443368282815
0.03363451940239833
0.06388245664295386
-0.10886975401402062
-0.28688662423681704
-0.06986940936476115
0.018719742152330843
-0.04467169312663331
0.11630630480319816
-0.10254379215345448
-0.3149769127782389
0.024892212127700312
-0.24556386171381095
0.10393951257134752
-0.09388504969828866
-0.01599265308327047
0.11911064896875966
-0.45478390458187656
-0.9490991763094118
-0.19995261242478227
0.2799195573532231
-0.7407589894365626
-0.1114607150276695
-0.08068672997573713
0.010412121198426579
0.0953948536940613
0.02736766290382613
-0.10457002016788532
-0.025924798144973275
-0.04487336693069936
0.19524439979509187
0.06748763833849766
-0.0197701961461677
0.09667227928699924
-0.1522980278506124
0.11575536465764481
0.24608031462550897
-0.09633236403027494
-0.09964922703911305
0.08773685174908749
0.06157703977254427
-0.04346295085612559
0.2253693232430878
-0.005031205846674593
0.00925185796229509
0.1110857520529708
0.019914037787790963
-0.04054141198126999
0.29346169451215715
-0.0013370711526392793
-0.1275676578710567
-0.02304296973886153
0.17593256773470403
-0.10496394783448273
-0.03697322407052311
0.038934620796621675
-0.2608197226754216
-0.15760302376025204
0.07833493908041458
0.1827465804968614
0.34646643418374407
0.3385315716267704
-0.1696369740068817
0.1013853422523829
-0.002671789515100792
-0.06716521511827339
-0.0364625051880168
0.08464532671277228
-0.05160546228746114
-0.11563780176817862
0.20085462122195571
-0.02345465916594875
-0.2680811620101377
-0.5273183691032244
-0.16680719322009813
-0.030790257232590407
-0.015620131485369598
0.15855399686124655
0.06389179775729055
-0.09824946138229833
-0.0923399033377787
-0.09597708531706786
0.30312593653264325
-0.2927309343869331
0.17461676558566058
0.08852534352109653
-0.7892101974961769
0.06951628773220196
-0.3052326679688889
-0.010460387329836812
0.053285795597361636
0.004697716804342976
0.018200607593954338
0.06540372888432318
-0.14741876354027827
-0.09368855313678977
-0.49086019226235666
0.07967393139550934
0.04312973417423805
0.10561248853809434
-0.14281502139830315
-0.22028211698612005
0.09371017124048682
0.15488787496341622
-0.05309604396159627
-0.15432382728965138
-0.22745443779804325
0.13338359067288905
0.27383194450173975
-0.10819799873664869
-1.1420423790380492
0.271543930092068
-0.100512347272969
0.1746277132508291
0.07362936469575193
0.05141797189104899
0.05902291803448888
0.02103836316042064
-0.10177715831469164
0.014184286940068513
-0.05826390706799727
0.03244954868640388
-0.0689539058278427
-0.07103501442529205
0.042762934472592364
-0.07696661264910135
0.027757194934501583
0.07300399573290352
-0.014603699677035224
-0.00815883735016078
-0.034687964122771475
0.03846156552214822
0.028217258740617184
0.004504916635436705
0.023605991100408442
-0.42336162257624327
0.0768476787314652
0.08249137272148926
0.09305849227140495
-0.2888653423798258
0.17959936366585896
0.01603590742421599
-0.06642236828018117
-0.018798322970568607
-0.4870020071448932
0.035799318443834376
0.3509246569949465
-0.09870100404179769
0.11233619332770514
-0.10398309117619546
-0.08668794871559925
-0.16515275421666858
0.4277990795908936
-0.050367647663485886
0.09004538194578329
-0.02138569268877453
-0.017500699275674016
0.0433429303278827
-0.015288021079273887
-0.08204330147382076
0.0651893751632576
0.005374802328302924
-0.0052921247873231585
-0.03137948662899995
-0.023645376175565964
-0.2946778536532738
-0.552600600744594
-0.024524630756211245
0.3247568412266528
0.08731627771794072
0.0569686569254982
-0.011210507805949831
-0.1501293446939494
0.4298432255751774
0.7857035819006888
-0.6775228815748069
-0.39655712977900015
0.36607404164207114
0.6987481399123873
0.19720219645361498
0.004880484675764857
-0.04107179715043175
-0.10256626918568396
0.01123307677318319
0.05965828046177519
0.014751837851352223
-0.37702863248030355
-0.36404767123484716
0.11372847336886806
0.10149546165156507
-0.17838544887849767
0.6740211785030793
-0.3150083752625758
-0.05738725956665465
0.09242849814187856
0.1398434138482841
0.09381263803189321
-0.13239702957829155
-0.06662495847783026
0.00904328068838366
0.06701371709039407
-0.06830348277617296
0.09065827046321885
0.006801171612205626
0.43964465073795506
0.029720429862674078
0.0289394666905572
-0.226570838494166
0.10480651009100092
-0.0866244241888992
0.08300109710280607
-0.291836225656558
-0.01742355197579766
-0.24925539379123016
0.04277541166388741
-0.059824769833819236
0.011468086742827318
-0.123042770397074
-0.3880323039375608
0.12191275947745732
-0.13046590597291777
-0.18544102138017468
0.046072491844921945
0.10774335901805358
-0.3344680383743937
0.1522339823571155
-0.3292960018071161
-0.5870880236297777
0.03027011488619516
0.17445810079553647
-0.1670028837410602
0.053455066903665166
0.046760774817623044
0.10122685215273321
-0.06228463099937933
-0.014814592265820494
-0.006423955007028037
0.02978412224775099
0.14744713207012722
-0.04969408276343221
-0.01655800568359589
8.366384525111762E-5
-0.048519663702705614
-0.13201762739195846
0.248532711728653
-0.021528507569234984
-0.11752362582384389
-0.07037519494142866
0.11520581994674718
0.049833933797761826
-0.17975723408264316
-0.030210504242161495
-0.14823101323577068
0.20381846952424898
-0.16124350576694269
-0.6738848002977005
0.218548145982908
-0.14656608249431238
-0.13975491437312634
-0.17850687872186327
-0.08124281987298199
0.00976978367210978
0.08105814597753686
0.3661197723763079
0.03995471358859554
0.1785165965080723
0.14693289422367556
0.10425152759885924
-0.34588792501725885
-0.2276277259089577
-0.29114462006596237
-0.15117717950906137
-0.7223928962959094
-0.10621782772831473
0.2536067509558546
0.05086592772002752
0.041511959941178435
-0.4866666531200435
-0.5517624122260938
-0.2575822345049433
0.0968033996886259
-0.12908453137359044
-0.28633026385081567
0.002692205635960084
1.3761356046163145E-4
0.14277934666043296
-0.04744366133059878
-0.06582426409429709
-0.0018464231162203144
0.05126868999546712
0.06493833983915868
-0.09072859178823735
0.09123310923374746
0.05503472930374472
-0.08219832979742027
-0.37419095222937127
-0.09988572601375802
0.04319625652571492
0.04738026331585657
0.020186184588716367
-0.3694901265460296
0.07508779850063668
0.08961270431223801
-0.5333415229411832
-0.12199864733505698
0.07797618415967027
-0.12184875366643999
-0.17867844879127237
-0.006717596667205731
0.07532294660713305
-0.025278293460733733
0.06592432268351706
-0.021906855059222508
-0.13628702404136878
0.015887920815125474
0.024099983175419747
-0.03479166932607913
0.07017376786013857
0.13616300435696238
0.09420129254228851
0.10059872522634322
-0.31431868112298816
0.02134610609263839
0.07987986215654382
-0.367045250663661
-0.041546265097569285
0.05665327398347127
-0.08193577811519552
0.06849048543495717
-0.7010375619011004
-0.6437531082364049
0.02640639910922455
0.20967239746918476
-0.633924766000579
0.5131697592771497
-0.2823176299532826
-0.12451147028783346
0.08130094295869103
0.1609828965339082
-0.01432449042482451
-0.06369197684769122
0.13207599656510355
-0.13548405550506254
0.016404983917938737
0.026936425595674985
0.13219890865058448
0.09930235825889573
-0.34389626975557513
0.06857659452981298
0.04713436601165203
-0.022998087518815265
-0.060943076765285
0.10827503868157942
-0.019312154640883004
-0.04493068119785902
0.17201975961876267
-0.030399374529091135
-0.04757497292409572
-0.049041087640657816
0.01347837814940228
-0.2328127769677399
0.16180827163719705
0.08843147303493062
-0.006556996690880837
0.12687849086267136
0.04110528166829865
-0.09245773898619022
-0.09645687217894734
0.2336502568805188
0.08795300061738652
0.00912172193032282
-0.1551416231873673
0.014402421844190686
-0.08032041846051158
0.06735501769882771
0.2188918831701307
-0.08586354192657883
0.05693875690972514
-0.15605224138087456
0.00873352209553377
0.02818003487309278
0.037785290152415
-0.21860501731932053
0.008442531670759793
-0.23454323731015805
0.12752935409523466
-0.002120270507755315
0.06748038885061042
-0.06968870128456812
0.5262291625872542
0.10110861489863937
-0.009660855997030022
-0.06010569390087542
-0.027459714606312743
0.06065600407126791
-0.022941452028414577
0.06947331085410605
-0.011123552832189236
0.06240998888385676
-0.022092161274290444
0.15018205775938062
-0.13923577280275629
-0.3185749266543638
0.11373681551186784
-0.03208537349033733
-0.01484444684672606
-0.030193218120333192
0.0978687218043965
-0.0537865741646784
-0.04684896529920967
0.007786402487687385
0.04081086996721624
0.06047910890278886
0.030860234532971223
0.12158173273438387
-0.25507808327913756
-0.27162527876285514
0.18574846851370067
-0.05489504674507936
0.04903633702616477
0.02433658263205845
-0.03299649868000124
-0.042478657220466946
0.0528235191619089
-0.03670178943330535
0.031377482166303074
-0.023612377254270487
0.0025386942008835843
-0.002020058817758882
-0.049985189916154915
-0.24051990164026255
-0.30393604620920456
0.0975157104418013
0.13123601537578328
0.1444414798684847
-0.11447700808720584
-0.9011806392662459
-0.1908299347972814
0.3836508295171203
-0.028443175333829944
0.28718671026304043
-0.13262712309192892
-1.4159382184721292
-0.18973601724012595
0.4867657801815417
0.6459869169925964
0.056464766489437004
0.0409751024938115
-0.11781114492439095
0.0631783127423389
0.07584760941207201
-0.012125213415482257
-0.16667913689091596
-0.030748794738105052
0.019818801475941672
-0.05893142446079995
0.01168136629498425
-0.03222708697391159
-0.48680730831878977
-0.4159029884477766
-0.02343491415791074
0.0529968120390984
0.03365322244123618
-0.10007703259679222
0.06440102034057622
0.04911619119211974
0.018234493298827713
0.052747191483261034
-0.10083543226646086
-0.04152784740363275
-0.07048025802526486
-0.06104030302858987
-0.24388390693235978
-0.3666980517358631
0.11706929494714843
-0.21554531201070234
-0.02096035844130199
-0.03907313897569087
0.046306313803407884
-0.04462375922178019
-0.04164647021912557
-0.12864357262735937
0.11719520159647953
0.1978657571348992
0.2772144999931841
0.04166771630741447
0.23027209306903576
0.2892540543791045
-0.059648257415791606
0.03134362848047849
-0.050920721858342455
0.009831249526884404
0.01580704778177089
0.06631983065004098
-0.1064005679761449
-0.05553571629343297
-2.058927539561274E-4
-0.02230813374631955
-0.008746435587169433
-0.1372127070143756
-0.4667926961369516
-0.49190905136307894
-0.11805845082410985
-0.04547563708470048
0.11499125132465321
0.08865257043206484
-0.4211804124552202
-0.1609510246336377
0.06615801032561201
0.04445172705176295
-0.07805660920931368
-0.22755707154570762
0.3152729726042212
-0.01951522102789335
-0.1172085704566853
0.38589130584466347
0.11237359952014876
0.004234149490799159
0.007662897698016443
-0.004040042589505464
0.00815634430814243
0.024559470379506974
0.005356247587852324
-0.06325182211330821
0.08346060219101328
0.006988063311331967
-2.9368875481959478E-5
-0.0017766607896218456
-0.2598256828413275
-0.0036781198653026313
-0.03642492999268934
0.009970862741857777
-0.0028212044475267946
0.10942666145463531
-0.18874290553624973
-0.12521064243159713
0.026247138473290205
0.11595203577392715
0.1262752686322576
0.11366678826229852
0.1508961908981868
-0.08461009885903904
-0.3771727791287602
0.20031164524323222
-0.42820671831694784
0.005937293839016866
0.0230620768290321
0.01992611126244333
-0.026193336729497526
0.1401838615493664
-0.052779594761403904
-0.12824283154252442
-0.11129020151641068
-0.20433789896491816
0.01791551633895743
-2.244512186883054
-0.07362673817675527
-0.5436333299076654
0.06732337608073821
0.026070322184803537
0.13816633713141063
0.011610276386368013
-0.06355354546031297
-0.065742267907448
0.06785259724150722
0.11542983422307937
0.08988923729932763
0.07238836135219129
-0.010350469226441627
-0.034402770163948264
0.10253018740724605
0.3007279675107216
0.038797124360162624
0.019991697541856077
-0.1013811727739306
0.09858825538931128
0.014936403489841066
-0.020955379365560092
0.003854670146158139
0.07099126325090609
-0.025602497552361495
-0.06898348691325981
0.03723015720648562
-0.20154396276967443
-0.0258926294957513
0.0045203308786646666
-0.0020126883980326415
0.0015570608057221406
0.08730553083556407
-0.01965954369485442
-0.05669700660096552
0.05049312760956049
0.04256540176677818
0.07490037889816704
-0.025149342926711466
-0.07178092391684289
0.006702043655695276
-0.24823890790587297
-0.3131781271079437
-0.09979027779569183
-0.20449290975795073
-0.005196758756793807
0.033543593080739544
0.05335771040009989
0.0814698340764076
-0.047847413591303976
0.007976794557409189
-0.05865577574369104
-0.11068212078822404
0.04583550364147511
-0.050799849882336365
-0.046922502067274725
-0.03678889230402444
-0.24299735578750112
-0.3071888911071227
-0.3361312558495877
-0.10211704736443006
-0.042308989937071655
0.017690187250745098
0.02995397978563477
-0.40290711433731485
0.04746356187810565
0.11254499318044503
-0.09206999592132831
0.18673133625632646
0.18625787749294584
-0.15000467369053347
-0.055125957127115176
-0.253869244234238
0.41575153248013325
0.2487975238966579
-0.14157175210727127
0.07903181845297119
-0.07273861567452512
0.03580559024896525
-0.003423078662912955
0.10159010349557279
-0.1701292435542852
-0.16817211836727208
-0.16105681817310133
-0.10872531051005613
-0.053490765413206944
-0.18112841742523633
-0.4331531177762842
-1.0995915162913432
-1.157827234376378
-0.1391925600655579
0.07962178988359055
-0.07207021483174939
0.032359876834037786
-0.003400746691672787
0.10185224834741133
-0.1670491895388766
-0.16746416286807916
-0.1604041579477678
-0.10778623604263621
-0.05297582399048148
-0.17934455647670333
-0.4307986424223922
-1.0986539784933411
-1.1548347644525812
0.050956454892657564
0.028087371701403088
-0.0066650152518008
0.021074488602738597
-0.013413266962170513
0.06207616754573921
0.008073167175627961
-0.19692932032677085
-0.023509106290995157
-0.06700918651158988
-0.027732117863540157
-0.03422902797405669
-0.7916537967202003
-0.49586634868403173
-0.5438042594741431
-0.13852583593054302
0.0798780144424442
-0.07627121470116216
0.03254951677955275
-0.0032361646120041593
0.10215584047262033
-0.16667504502619263
-0.16704442029164532
-0.15977413170150026
-0.10751009954572119
-0.05274931467772876
-0.17910600985804037
-0.4298559536426575
-1.0956909444594172
-1.1541438255225902
-0.09186882320204565
0.05875428015109563
-0.06469205606156278
0.03281773916299281
0.025931332457909753
0.04678464893536247
-0.09507440658440774
-0.08577857413456182
-0.028626056623308894
-0.01900197984738168
-0.050269659042866524
-0.11426996432634033
-0.4316198631812521
-0.6016242178005988
-0.7248074165103746
-0.08494082779723823
0.06274473235479212
-0.05942348249998166
0.05597958971625499
0.01430924060238051
0.05798023120536045
-0.11289411491902207
-0.14866702542826302
-0.08172877092383413
-0.06103783059524109
-0.05591513429804653
-0.11890544782608291
-0.3959615058107449
-0.8311089046642388
-0.874115459389975
-0.14045804327641645
0.06723291334289139
-0.07067285755850847
0.016964128236097005
0.016286843442922923
0.08231969050244299
-0.14168216038285844
-0.09577975774910692
-0.09609155467621881
-0.06519794087299262
-0.044081158850309686
-0.1611355407338833
-0.40660935852325913
-0.8266897170684385
-0.9734189977047994
0.025477624679986436
-0.3024637079261919
-0.0771202502991503
0.15298476389925264
-1.4203981342591003
0.009439233523249603
0.5253106189595484
-0.2139256332275396
0.4890472781488562
-0.15614670348669402
-0.09941223687990788
-0.33321486469885303
0.107076475790818
0.6708229723472957
0.11473325318340771
-0.0389946490515897
0.04343655727933584
0.030784078472102974
-0.003815202439605303
0.005255163496900905
0.0743589168903571
-0.11226370077667268
0.011593225564501897
0.07631942156195348
-0.05420838282485207
0.17426432501919226
0.15022447207738165
-0.19297375709193393
0.07955713806363286
0.02185193726338906
0.17046617763875685
0.01316173200514005
-0.11070323169011596
-0.1378139373694398
0.0639468481517452
-0.05575594071272264
-0.016425288667346192
0.014530946602609316
0.08520517711343849
0.08905631046956054
-0.0838946495159072
0.06961898308610544
0.1333572252920898
0.038101380963151396
-0.36782045190112167
-0.11482217409060098
0.07421283896842071
0.020441960268466897
-0.05385003504821018
0.056834329542265784
-0.5633332644484695
-0.02168588943859515
0.12523692131261246
0.11969692065783635
0.019542842318893187
0.18493928738056475
0.01340728641700168
-0.002380345644111268
0.06965701574370299
0.04374226682371207
0.012812971270761324
0.04590874999440525
-0.060156941660585356
-0.0895322891693826
-0.08883618652123554
-0.019270424635293857
-0.08433892565867555
-0.06533575652434068
-0.16999006698402305
-0.18668733381138902
-0.11319070090115302
0.008413497761287516
-0.02401798685468723
0.10655184499421978
-0.02118309277882014
-0.026024278282511852
0.1375346285809808
-0.09982200960064601
-0.005472337963130665
0.05631530012368295
-0.04063579269061579
-0.014370448115163116
-0.25560630825969255
0.4023368782953463
-0.05160647955084731
0.013073389524938184
0.2545759779871767
-0.10227763455376059
-0.8078152873856563
-0.3139614892819253
0.3014175480720149
0.06075226420672863
0.27679267187863715
-0.054668319836046385
-0.012447963116651787
0.22794990462347547
0.26924377080271716
0.47182418300913376
-0.008603791558490769
0.07054634875498227
-0.030261859560633528
-0.020176965746511084
-0.390878046137034
0.10313688120781359
0.19439454185663907
-0.393768301896283
-0.08622679432956493
-0.023743510772625955
-0.6396115945489174
0.11898979387087547
0.4079422148280842
0.27320990749406593
-0.2794957143914159
0.16337285714857885
-0.20270299677394146
-0.10226905955667469
0.08533214701378711
0.07332521451815559
0.07865233576196398
-0.2192126920123683
-0.04394465803411391
-0.07291251109539645
-0.16241960108541426
-0.41919386985333607
0.27979913067726425
0.8206310881852436
0.18550767208317284
-0.06858300178987055
0.03136381754815075
-0.08716589706827507
-0.10155053858138165
-0.02588319687758766
-0.09017993310753689
-0.013602073352957374
-0.6149502757589513
0.4006919068557769
0.0023463896577288197
0.0850601922800922
-0.19743557547243054
0.4394153241712834
-0.38172438443792006
-0.18082767066879038
-0.07338615803582986
0.05834185896875955
0.14841366963271108
0.03897881034973123
-0.2926954629733137
0.16317539958389726
-0.25373991726579753
0.011566739055196323
-0.11737170276828779
-0.25693698554189437
0.5170307058461608
0.6377137177711676
-0.2140528297313897
0.0679718280470437
-0.14193820615886477
-0.02548591751497715
0.06679788550409965
0.12784703090155478
-0.26108118141982084
-0.3422837362823589
0.020702658149319954
0.10206382617178125
-0.4191382511620116
-0.028710045774503815
-0.44118759381551514
-0.4854034136960552
0.20485631188700396
-0.0677563928159439
0.37959674946021726
-0.12591557969209158
-0.09594418265740065
0.10003669632217918
-0.6400823884240806
-0.6048434946642848
-0.0364665335519655
-0.17008368229022713
-0.8907454884130436
0.05770425680947257
0.6408112319426041
0.27007625881713265
0.0317392318346658
-0.32838451506304156
0.15507647950360598
-0.577669386606799
-0.029618779540362225
0.044690653569140086
0.08934054504004173
0.24004789990284095
0.1685435378647871
-0.30977046305050143
0.39875326021515967
1.0046803140521665
0.24410548761335277
-0.03118450336633158
0.1164651963018904
0.035571866943292826
-0.11901775318377891
0.00430282151457767
-0.04507624467656347
0.03961709275209568
-0.024320733996124062
0.2038099893491626
-0.2984610504504017
-0.02054023726653978
0.31286187887724415
0.21698909601426944
-0.42112661718425265
0.5696214446362423
-0.0211034016103338
-0.8410818897320429
-0.24376790929208345
0.4644861319570691
0.08431222905477113
-0.493696612456986
0.006077287915426538
-0.4445668611136654
-0.4570510141533168
0.8030004816867131
0.13820908110098176
-0.032123308190178605
0.10752628224180578
0.1490894568935289
-0.4037644478501928
0.01327436856354049
0.03350487532961779
0.019409403913371148
-0.15507467465967076
-0.12295624549898398
0.13356074366896598
-0.1785180355987396
0.798479891151994
-0.3416669812236601
0.0747617915659288
-0.10585025375546854
-0.09699544624375872
0.011915404210984703
0.15374200651817888
-0.12546779993492593
-0.05116764246834405
-0.11244522983888224
0.00917244092626816
-0.20240671932428755
-0.14432122196641523
0.3253123744242334
0.07038100561672893
-0.030782517984726226
0.07031118025628988
-0.014386071597903633
-0.0851916791488616
0.1063533462259306
0.10864337068166122
-0.04503516178323253
0.019827121932899736
0.02083004245291825
0.11051139294248101
0.026772258280336546
0.20609993164129314
0.07089376146716375
0.13695927853104956
-0.7721466540376903
-0.3520665908934401
0.28911957312597364
0.4399637049490974
-0.2642792625250203
-0.2958752765013815
-0.5386246107323465
0.9731910556237814
0.22859473743240255
0.057386752794997734
0.23801199429151795
-0.10049626249875039
-0.20153817081519512
-0.1294383344700695
0.1810429094513965
-0.2560838306861587
0.18934220220866624
0.18087638946549017
-0.01985419156751871
0.13520569188268172
0.7137385854504439
0.5488726170793916
0.2848771105588259
-0.18509555867244237
-0.22185300477842235
-0.6217747386322691
-0.056822942529470885
-0.16475729528209968
-0.0233629188111823
-0.6045485650725659
-0.6706572966720271
0.13088496388661866
0.6560294005755622
0.010168199792704396
-0.13286541463707413
-0.04877978218693252
-0.40127044159957515
0.3963413084177411
0.2019595225115428
-0.06645382727434657
0.2792273245133709
0.6724694155664861
-0.6160393383849112
0.41210151305426085
0.07628094892919543
-0.40076470463237507
-0.17483762732469232
-0.0486613299779851
0.04013840056618602
0.004650952503320196
-0.17035118876741606
0.10215081291906208
-0.3940370926100298
0.49592567890538064
0.3377110508329875
-0.009410515040828562
-0.01941811965400562
0.05389864997709758
-0.08083257817567814
0.24519547707508207
0.15633988845128263
0.1200355253848349
0.1704416384779819
0.0802018502683538
-0.05291466234632897
0.22626832141219005
0.13739042902672877
0.1142041625767433
0.12108832982433003
-0.09330156413523068
0.5345866694042436
-0.5580518949786919
0.4147934570851195
0.04140120632778654
0.22376997480721694
-0.7657605175728504
-0.04352674420911344
0.5842676842056277
-0.2885806670649573
0.3255058846950858
-0.3637832289773548
-0.39022272724306173
-0.3692651355852573
-0.06458839132666823
0.685411441284252
0.48948329394162815
-0.12298316260038206
-0.49879314011056547
0.4551450089451844
0.01744809639013125
0.2578933535368507
-0.29275560988357674
-0.036809727037183104
0.030975324060017555
-0.12734953144705952
-0.7762422004337692
0.45134784048172244
-0.35600204758770915
0.2948288530425112
-0.04176265538106229
0.1940722894568925
-1.0184003571667588
-0.27855621309481704
0.11310135596687221
0.3974753762893685
0.3080073821300321
0.517729795639735
-0.07375929692659479
-0.9118329802266754
0.03743422161079824
-0.2932191239557473
-0.06942937179862646
0.14877278255472626
0.08056240028872468
-0.4332420549322897
0.32276610254158283
-0.11280587941711362
0.051205010053359055
0.04116248414971988
-0.2508737640368139
0.4596488190750593
-0.10324612520982172
-0.3064027165717828
-0.40495527137723114
-0.5360514656044979
-0.2678782391024001
0.42116283903711044
0.010341605498182097
0.29835462141190056
0.014589434186665425
0.11260306559372675
-0.32266141578660246
-1.0071692145976248
0.04027036369496968
0.2182057019523716
0.008173482263596005
0.2672714749270482
0.002854485687350311
0.1684114009936951
0.17065333472286448
-0.13249580139553188
0.06771823090400594
0.00993769667550611
0.16435976109268188
-0.06576799823962073
0.3622573839446554
-0.19434371429400918
-0.003185607814575132
-0.05595587145171438
-0.2610900084942569
-1.4198374528027458
0.01951095928210433
-0.4031332857824214
0.3086233575113907
-0.38886868205480374
-0.009000316029916995
-0.3154556040936913
0.008997122293061805
-0.4999082231294061
0.2894930001881873
-0.8527680831718699
-0.12674044239584994
0.28194123913714453
0.032271081577693844
-0.2318376755539855
0.2003224412193
-0.06260638691006354
-0.06446096510895236
-0.15400143803823194
0.07109436093463355
0.03578188029856631
-0.04693544962483954
-0.31082361632728567
0.5286953107907466
0.28893036447600795
0.002969736203552674
-0.09092964896649436
-0.08442371882580722
-0.0028448684213121817
0.09691586879333726
-0.33086106641502555
0.023443654975708175
0.2928483297449065
0.03138827170692119
0.5522074124204732
-0.5511509102298058
-0.10888051462682373
-1.0845921910936906
-0.12005228023991958
0.3394321557246997
-3.499115760131852E-4
-0.6271424798150403
-0.20204847520250543
-0.3810442403188421
-0.02499838818808013
0.7183413980128682
0.17368894034727486
0.2986633911703861
-0.17440920655998754
-0.20571391874421277
-0.37280494309287476
0.34097128840247976
0.4651180786083796
0.680849017962481
-0.37890716825897297
-0.22864331118318207
-0.3084620400340011
0.18953646024092127
-0.06511855876064977
0.1403343161904399
0.18993546940771697
-0.11288877564040259
-0.2784779622657503
0.10191846849428329
0.7440081610963776
-0.33625562965510103
-0.10582057980332532
0.27160711323375925
-0.6666068680437746
0.18225324189136033
0.16207928869271598
-0.16991990050663672
0.4529049279722013
-0.3733595369148369
-0.2527414943746803
0.061502898698749905
0.23591539163425054
-0.9210478161140944
0.11078384968635639
0.028798408266485435
0.011283708302400098
0.39022900456534404
0.01792470246588078
0.192059466698755
-0.1930129318714269
0.11400553233813142
-0.4359086429581441
0.05948448340866918
0.2265317291466601
-0.05412099519714839
2.1017557193383867E-4
-0.26146345592764053
-0.11474526872164559
-0.0662862493726114
0.06212618555952432
0.13404449924997075
0.046374460287624875
-0.21286456292546993
0.1420444096372711
-0.10224462028757786
0.2486289061459763
-0.22071400337327338
-0.1295672077796492
0.002400790297715066
-0.2696883175615554
-0.5490260760628874
0.0933385385071413
-0.015979996821577955
0.09393769440256984
-0.2622973770840672
-0.0357342767991501
0.0776755390015926
0.2985445582618746
-0.07822117317802652
0.04835367379611787
-0.2845837638961693
-0.16038978643862145
0.27747621298503833
-0.31367266318887327
-0.33049146746874775
0.27644690862637167
0.3932241532694542
-0.31495699887342493
-0.025951280089021877
0.014783839972890464
-0.43540767945350944
0.15157257255174184
0.06113790627520915
0.035485541124562446
0.06436710837675211
0.011828225472034598
-0.08506550906674643
0.01338060270036245
0.36755176952461055
-0.13927557276197075
-0.0012603004475653383
0.08400679317917371
-0.23089239611071766
0.16931882860411082
0.14127550799129954
0.24429381313199142
0.5190195175652802
-0.35942834545276536
0.2607863168747428
0.03305142488453442
-0.14755066289985933
-0.8096807848496619
0.14864731951862933
0.10658435482130389
0.18550827691033195
