GIS
1
0.0
15
Concession
Conjunction
Cause
Restatement
Temporal
Continuation
Reinforcement
Contrast
Instantiation
Background
Circumstance
NoRel
Alternative
Purpose
Exception
358
29 0
5 0 1
14 0 1 2 3 4 5 6 7 8 9 10
24 0 1 2 3 4 5 6 7 8 9 10 11
29 0 1 2 3 4 5 6 7 8 9 10 11 12
13 0 1 2 3 4 5 6 7 8 9 10 11 12 13
14 0 1 2 3 4 5 6 7 8 9 10 11 12 13 14
19 0 1 2 3 4 5 6 7 8 9 10 11 12 14
2 0 1 2 3 4 5 6 7 8 9 10 11 13
1 0 1 2 3 4 5 6 7 8 9 10 11 13 14
3 0 1 2 3 4 5 6 7 8 9 10 11 14
4 0 1 2 3 4 5 6 7 8 9 10 12
1 0 1 2 3 4 5 6 7 8 9 10 12 13
3 0 1 2 3 4 5 6 7 8 9 10 12 14
1 0 1 2 3 4 5 6 7 8 9 10 13
2 0 1 2 3 4 5 6 7 8 9 10 14
1 0 1 2 3 4 5 6 7 8 10
1 0 1 2 3 4 5 6 7 8 10 11
1 0 1 2 3 4 5 6 7 8 11
6 0 1 2 3 4 5 6 7 9 10
2 0 1 2 3 4 5 6 7 9 10 11
1 0 1 2 3 4 5 6 7 9 10 11 12
2 0 1 2 3 4 5 6 7 9 10 11 14
1 0 1 2 3 4 5 6 8 9
1 0 1 2 3 4 5 6 8 9 10
1 0 1 2 3 4 5 6 8 9 10 11
1 0 1 2 3 4 5 6 8 9 10 11 12
1 0 1 2 3 4 5 6 8 9 11
1 0 1 2 3 4 5 6 9 10
1 0 1 2 3 4 5 7 8 9
8 0 1 2 3 4 5 7 8 9 10
1 0 1 2 3 4 5 7 8 9 10 12
1 0 1 2 3 4 5 7 8 10
4 0 1 2 3 4 5 7 9 10
1 0 1 2 3 4 5 7 10
2 0 1 2 3 4 5 9
1 0 1 2 3 5 6 7 8 9
2 0 1 2 3 5 6 7 8 9 10
1 0 1 2 3 5 6 7 8 9 10 11
1 0 1 2 3 5 6 7 8 9 12
2 0 1 2 3 5 6 8 9
1 0 1 2 3 5 6 8 9 11
1 0 1 2 3 5 6 8 10
1 0 1 2 3 5 6 9
3 0 1 2 3 5 6 9 10
1 0 1 2 3 5 7 8 9
1 0 1 2 3 5 7 8 9 10
1 0 1 2 3 5 8
1 0 1 2 3 6
1 0 1 2 3 7
1 0 1 2 3 8 10 11
1 0 1 2 4 5 6 7 10
1 0 1 2 5
1 0 1 2 5 6
1 0 1 2 5 9
1 0 1 3
1 0 1 3 4 5 6 7 8 9 10
1 0 1 3 4 5 6 7 9 10
1 0 1 3 4 5 6 7 10
1 0 1 3 4 5 6 8 10
1 0 1 3 4 5 6 10
2 0 1 3 4 5 7 9
2 0 1 3 4 5 7 10
1 0 1 3 4 5 9
1 0 1 3 4 5 10
1 0 1 3 4 6 9 10
1 0 1 3 5
1 0 1 3 5 6 8
1 0 1 3 5 7 9 10
1 0 1 3 5 7 9 10 11
1 0 1 3 5 8
2 0 1 3 5 9
1 0 1 3 5 10
1 0 1 3 7 10
2 0 1 4 5
1 0 1 4 5 6 8
1 0 1 4 5 9
1 0 1 5
1 0 1 5 6 7 8
1 0 1 5 6 7 10
1 0 1 5 6 9 10
1 0 1 5 7 8
1 0 1 5 7 8 10
1 0 1 5 9 10
1 0 1 5 10
1 0 1 9
1 0 1 12
2 0 2
2 0 2 3
1 0 2 3 4 5 10
1 0 2 3 4 5 10 11
1 0 2 3 5
1 0 2 3 5 6 10
1 0 2 3 5 7 9 10
1 0 2 5 6 7 9
1 0 2 5 6 8
1 0 2 5 6 9 10
2 0 2 10
2 0 3
1 0 3 4 5 8
2 0 3 5 6
1 0 3 8 10
1 0 4 5
2 0 5
1 0 5 10
1 0 6
2 0 7 9
1 0 9
1 0 10
327 1
6 1 2
4 1 2 3
1 1 2 3 4
6 1 2 3 4 5
5 1 2 3 4 5 6 7 8 9 10
3 1 2 3 4 5 6 7 8 9 10 11
1 1 2 3 4 5 6 7 8 9 10 11 14
1 1 2 3 4 5 6 7 8 9 10 12
4 1 2 3 4 5 6 7 9 10
1 1 2 3 4 5 6 7 9 10 12
1 1 2 3 4 5 6 8 9 10
2 1 2 3 4 5 6 8 9 10 11
5 1 2 3 4 5 6 10
1 1 2 3 4 5 7
1 1 2 3 4 5 7 8
4 1 2 3 4 5 7 8 9 10
1 1 2 3 4 5 7 8 10 12
1 1 2 3 4 5 7 9
6 1 2 3 4 5 7 9 10
1 1 2 3 4 5 7 9 10 12
1 1 2 3 4 5 7 10
1 1 2 3 4 5 8
2 1 2 3 4 5 8 9
1 1 2 3 4 5 8 9 10 14
2 1 2 3 4 5 9
3 1 2 3 4 5 9 10
1 1 2 3 4 5 9 10 11 12
1 1 2 3 4 5 9 10 14
1 1 2 3 4 5 9 14
3 1 2 3 4 5 10
1 1 2 3 4 5 11
3 1 2 3 5
1 1 2 3 5 6
1 1 2 3 5 6 7 10
1 1 2 3 5 6 7 10 11
1 1 2 3 5 6 9 11
1 1 2 3 5 6 10 11
1 1 2 3 5 6 13
1 1 2 3 5 7
1 1 2 3 5 7 9 10 11
1 1 2 3 5 8 10
3 1 2 3 5 9
1 1 2 3 5 10
2 1 2 3 6 7
1 1 2 3 6 7 8 10
1 1 2 3 8
1 1 2 3 9
1 1 2 3 10
1 1 2 4
2 1 2 4 5
1 1 2 4 5 8
1 1 2 4 5 9 11
1 1 2 4 5 10
1 1 2 4 7 9
1 1 2 4 9
6 1 2 5
1 1 2 5 6
1 1 2 5 7 9
1 1 2 5 9
1 1 2 5 10
1 1 2 5 11
1 1 2 6
1 1 2 6 9 10
1 1 2 7
3 1 2 9
49 1 3
6 1 3 4
8 1 3 4 5
1 1 3 4 5 6 7
2 1 3 4 5 6 7 9 10
1 1 3 4 5 6 7 9 10 11
2 1 3 4 5 6 8 10
1 1 3 4 5 6 9 10
1 1 3 4 5 7
1 1 3 4 5 7 8
1 1 3 4 5 7 8 9
1 1 3 4 5 7 8 10 11
1 1 3 4 5 7 9
2 1 3 4 5 7 9 10
4 1 3 4 5 7 10
1 1 3 4 5 8 9
1 1 3 4 5 8 9 10
1 1 3 4 5 8 11 12
4 1 3 4 5 9
2 1 3 4 5 9 10
6 1 3 4 5 10
1 1 3 4 7
1 1 3 4 7 10
7 1 3 4 10
22 1 3 5
3 1 3 5 6
2 1 3 5 6 10
3 1 3 5 7
1 1 3 5 7 8
1 1 3 5 7 8 9 10
2 1 3 5 7 10
1 1 3 5 8
1 1 3 5 8 9
2 1 3 5 8 10
1 1 3 5 9 10
7 1 3 5 10
3 1 3 6
2 1 3 7
1 1 3 7 8 10
2 1 3 7 10
5 1 3 8
1 1 3 8 9
1 1 3 8 10
1 1 3 9
2 1 3 9 10
6 1 3 10
10 1 4
18 1 4 5
1 1 4 5 6 7 8
1 1 4 5 6 7 10
1 1 4 5 6 10
1 1 4 5 7
1 1 4 5 7 8
1 1 4 5 7 10
2 1 4 5 9
1 1 4 5 9 10
5 1 4 5 10
1 1 4 7
1 1 4 9
1 1 4 10
65 1 5
3 1 5 6
1 1 5 6 7
1 1 5 6 8
1 1 5 6 10
3 1 5 7
1 1 5 7 8
2 1 5 7 9 10
3 1 5 7 10
5 1 5 8
1 1 5 9
1 1 5 9 10
7 1 5 10
2 1 5 11
2 1 6
1 1 6 8
3 1 7
1 1 7 8
3 1 8
7 1 9
11 1 10
2 1 11
2 1 12
72 2
8 2 3
1 2 3 4
1 2 3 4 5 6 10
1 2 3 4 5 7 9
1 2 3 4 5 10
1 2 3 4 6
6 2 3 5
1 2 3 5 6 7
1 2 3 5 8
1 2 3 5 10
1 2 3 6
2 2 3 7
1 2 3 7 12
2 2 3 10
5 2 4
6 2 4 5
1 2 4 5 7 8
1 2 4 5 10
9 2 5
1 2 5 7 8
1 2 5 8 9
4 2 5 9
1 2 5 9 10
1 2 5 10
3 2 8
2 2 9
190 3
16 3 4
8 3 4 5
1 3 4 5 6 8
2 3 4 5 7 10
1 3 4 5 9
1 3 4 5 9 10
9 3 4 5 10
2 3 4 5 10 11
2 3 4 5 11
1 3 4 6 8
1 3 4 7
1 3 4 7 10
1 3 4 9 10
7 3 4 10
41 3 5
3 3 5 6
1 3 5 6 7
1 3 5 6 8
1 3 5 7
1 3 5 8 10
1 3 5 9
6 3 5 10
3 3 6
2 3 6 10
4 3 7
2 3 7 10
4 3 8
1 3 8 9
1 3 8 9 10
6 3 9
10 3 10
1 3 11
224 4
37 4 5
1 4 5 6
1 4 5 6 8
2 4 5 8
2 4 5 9
5 4 5 10
1 4 6 8
2 4 7
2 4 9
10 4 10
1 4 11
444 5
3 5 6
4 5 7
2 5 7 8
1 5 7 8 10
1 5 7 9
8 5 8
1 5 8 10
10 5 9
18 5 10
27 6
1 6 7 8 9
1 6 8
24 7
1 7 9
2 7 10
1 7 11
1 7 12
33 8
2 8 9
1 8 12
45 9
1 9 10
67 10
11 11
5 12
1 13
2 14
2557
arg2_start_uni_upper
arg2_start_uni_silencing
arg2_start_uni_validate
arg2_start_uni_hypothesis
arg2_start_uni_fully
arg2_start_uni_thymoma
arg2_start_uni_association
arg2_start_uni_remains
arg2_start_uni_hs1
incom_from
arg2_start_uni_awaits
arg2_start_uni_hme
RB_->_Now:2
arg2_start_uni_preliminary
arg2_start_uni_novel
arg2_start_uni_flurry
arg2_start_uni_unclear
arg2_start_uni_bind
arg2_start_uni_cannot
arg2_start_uni_protection
arg2_start_uni_report,
arg2_start_uni_does
arg2_start_uni_elucidation
arg2_start_uni_likely,
arg2_start_uni_extent
arg2_start_uni_improve
incom_to
arg2_start_uni_against
arg2_start_uni_spite
arg2_start_uni_relevance
arg2_start_uni_due
arg2_start_uni_site
arg2_start_uni_difference
arg2_start_uni_mgb1
or_to
NP_->_NNP_NNP:2
ar_the
of_by
NP_->_NP_,_SBAR:2
NP_->_CD_NN:2
1_the
ar_,
NP_->_NP_,_NP:2
NP_->_CD:1
ar_in
arg2_start_uni_our
VP_->_VBZ_NP:12
,_at
IN_->_from:12
VBD_->_was:1
S_->_S_,_NP_VP_.:1
NP_->_NNP_NNP:1
from_to
VBP_->_are:1
IN_->_by:12
to_from
DT_->_The:2
arg2_start_uni_in
NP_->_CD_NN:1
VP_->_VBD_SBAR:2
VP_->_VBD_SBAR:1
IN_->_by:2
NP_->_CD:2
ar_of
,_from
arg2_start_uni_the
VP_->_VBD_VP:1
,_by
NP_->_QP:2
in_from
which_of
NP_->_PRP:12
NP_->_NNP_CD:2
,_and
VP_->_VBZ_NP:1
VP_->_VBZ_NP:2
VBP_->_are:2
and_the
WDT_->_which:2
NP_->_DT_NN:12
NP_->_NNP:2
the_wa
the_from
IN_->_that:12
by_,
by_the
NP_->_NNP:12
SBAR_->_IN_S:12
IN_->_by:1
of_is
,_,
arg2_start_uni_was
IN_->_from:2
IN_->_from:1
NP_->_CD_NNS:2
VP_->_VBD_VP:2
,_of
,_is
,_in
,_wa
of_and
,_->_,:12
SBAR_->_IN_S:1
a_,
and_,
of_,
IN_->_that:1
,_->_,:2
VP_->_TO_VP:1
NP_->_PRP:1
NP_->_NP_PP:12
of_in
IN_->_of:12
the_,
S_->_NP_VP:1
IN_->_of:2
IN_->_of:1
VBZ_->_is:1
,_->_,:1
._->_.:1
._->_.:2
NP_->_NP_PP:1
NP_->_NP_PP:2
S_->_NP_VP_.:2
._->_.:12
PP_->_IN_NP:12
PP_->_IN_NP:2
PP_->_IN_NP:1
a_the
VP_->_MD_VP:1
S_->_NP_VP:2
SBAR_->_IN_S:2
VBD_->_was:2
NP_->_DT_NN:2
NP_->_DT_NN:1
NP_->_NNP:1
of_the
S_->_NP_VP:12
DT_->_The:1
IN_->_that:2
VBZ_->_is:2
the_the
NP_->_PRP:2
S_->_NP_VP_.:1
,_a
,_the
NP_->_CD_NNS:1
VP_->_MD_VP:2
VP_->_TO_VP:12
VP_->_TO_VP:2
WDT_->_which:1
which_the
NP_->_DT:1
arg2_start_uni_of
RB_->_not:1
NP_->_CD_NNS:12
NP_->_NP_NP:1
NP_->_DT:2
VBZ_->_is:12
S_->_NP_VP_.:12
IN_->_at:2
arg2_start_uni_this
NP_->_NP_,_SBAR:1
RB_->_not:2
VP_->_VBD_NP_PP_PP:1
which_,
arg2_start_uni_data
at_,
arg2_start_uni_to
at_the
NP_->_NP_,_CC_NP:1
at_and
arg2_start_uni_that
VP_->_VBD_VP:12
IN_->_at:1
a_from
the_we
arg2_start_uni_we
ADJP_->_JJ_NP:1
arg2_start_uni_for
for_from
by_is
VP_->_VB_ADJP:1
S_->_S_,_NP_VP_.:2
%_the
some_of
of_%
%_to
NP_->_NNP_NNP_NNP:1
the_%
NN_->_%:1
NN_->_%:2
%_,
of_at
arg2_start_uni_expression
in_%
,_%
or_from
to_%
NP_->_NP_,_NP_,:1
arg2_start_uni_activation
arg2_start_uni_effects
arg2_start_uni_are
VP_->_VB_ADJP:2
arg2_start_uni_studies
ar_a
arg2_start_uni_is
share_,
JJ_->_due:2
arg2_start_uni_it
the_even
arg2_start_uni_findings
arg2_start_uni_although
JJ_->_due:1
arg2_start_uni_have
arg2_start_uni_has
some_in
share_to
arg2_start_uni_effect
some_to
arg2_start_uni_show
arg2_start_uni_interestingly,
arg2_start_uni_use
arg2_start_uni_possible
arg2_start_uni_further
arg2_start_uni_ccr3
NP_->_CD:12
NP_->_NNP_NNP_NNP:2
arg2_start_uni_experiments
arg2_start_uni_most
arg2_start_uni_analysis
NN_->_%:12
%_%
NP_->_NNP_NNP_NNP:12
from_%
arg2_start_uni_since
arg2_start_uni_were
arg2_start_uni_using
ar_%
arg2_start_uni_recent
arg2_start_uni_while
arg2_start_uni_as
arg2_start_uni_treg
arg2_start_uni_contrast
arg2_start_uni_numbers
arg2_start_uni_transcripts
arg2_start_uni_revealed
arg2_start_uni_irf-4
arg2_start_uni_assays
arg2_start_uni_had
arg2_start_uni_intensity
arg2_start_uni_notably,
arg2_start_uni_recently,
arg2_start_uni_no
arg2_start_uni_found
arg2_start_uni_some
arg2_start_uni_specific
arg2_start_uni_despite
arg2_start_uni_vitro
arg2_start_uni_function
arg2_start_uni_possibility
due_at
arg2_start_uni_direct
arg2_start_uni_inversion
arg2_start_uni_even
arg2_start_uni_mz
arg2_start_uni_b
due_ar
due_the
arg2_start_uni_present
arg2_start_uni_study
arg2_start_uni_role
due_to
arg2_start_uni_band
month_from
arg2_start_uni_though
arg2_start_uni_suppressor
NP_->_NP_,_CC_NP_,:1
arg2_start_uni_not
arg2_start_uni_deletion
arg2_start_uni_rt-pcr
arg2_start_uni_significant
arg2_start_uni_cause
arg2_start_uni_cre-mediated
arg2_start_uni_mutation
arg2_start_uni_now
arg2_start_uni_strikingly,
arg2_start_uni_ephb4
arg2_start_uni_example,
arg2_start_uni_demonstrated
arg2_start_uni_preparations
arg2_start_uni_recognition
arg2_start_uni_explants
arg2_start_uni_iodide
arg2_start_uni_bob.1/obf.1,
arg2_start_uni_cre
arg2_start_uni_enriched
arg2_start_uni_(ii)
arg2_start_uni_health
arg2_start_uni_equally,
arg2_start_uni_2-forward:
arg2_start_uni_b.
arg2_start_uni_5′-aaggtgaactgaagtctggaagtga-3′,
arg2_start_uni_importance
arg2_start_uni_il-3
arg2_start_uni_anti-proliferative
arg2_start_uni_neurons
arg2_start_uni_system
arg2_start_uni_apart
arg2_start_uni_af4
arg2_start_uni_(b),
arg2_start_uni_apoptotic
arg2_start_uni_adherence
arg2_start_uni_applied
arg2_start_uni_inhibitors
arg2_start_uni_question
arg2_start_uni_poly-adp
arg2_start_uni_e)
arg2_start_uni_failure
arg2_start_uni_bc
arg2_start_uni_d)
arg2_start_uni_c:
arg2_start_uni_cell-surface
arg2_start_uni_c)
arg2_start_uni_c.
arg2_start_uni_presumably
arg2_start_uni_b:
arg2_start_uni_evident
arg2_start_uni_gw
arg2_start_uni_rearrangement
arg2_start_uni_gh
arg2_start_uni_ecori,
arg2_start_uni_bisulfite
ADJP_->_JJ_NP:12
arg2_start_uni_ex
arg2_start_uni_hypersensitivity
arg2_start_uni_antiproliferative
arg2_start_uni_eb
arg2_start_uni_competitive
arg2_start_uni_long-standing
arg2_start_uni_lc,
arg2_start_uni_immunoblotting
arg2_start_uni_investigate,
arg2_start_uni_pn1-ic
arg2_start_uni_inhibited
arg2_start_uni_hippocampal
arg2_start_uni_cd21
arg2_start_uni_wistar–prob
arg2_start_uni_synergistic
arg2_start_uni_"ebf"
arg2_start_uni_anti-cd3
arg2_start_uni_r2,
arg2_start_uni_r3,
arg2_start_uni_still
arg2_start_uni_hypermethylation
arg2_start_uni_il-15
arg2_start_uni_non-t
arg2_start_uni_(wt)
arg2_start_uni_(m)
arg2_start_uni_regulate
arg2_start_uni_phytohemagglutinin
arg2_start_uni_mutated
arg2_start_uni_bottom
arg2_start_uni_trend
arg2_start_uni_immunofluorescence
arg2_start_uni_vital
arg2_start_uni_thresholds
arg2_start_uni_bv-173
arg2_start_uni_r1,
arg2_start_uni_datasets
arg2_start_uni_inappropriate
arg2_start_uni_others,
arg2_start_uni_kidney,
arg2_start_uni_conversion
arg2_start_uni_bromodeoxyuridine/propidium
arg2_start_uni_hierarchical
arg2_start_uni_chamber
arg2_start_uni_lek
arg2_start_uni_therapeutically
arg2_start_uni_where
arg2_start_uni_(iv)
arg2_start_uni_irf-4-negative
arg2_start_uni_fk506,
arg2_start_uni_pathogens
arg2_start_uni_cut-off
arg2_start_uni_pten-transfected
arg2_start_uni_buffy
arg2_start_uni_cona
arg2_start_uni_ys
arg2_start_uni_cases,
arg2_start_uni_igg
arg2_start_uni_optimization
ar_''
arg2_start_uni_impact
arg2_start_uni_five
arg2_start_uni_sera
arg2_start_uni_pyrrolidine
arg2_start_uni_pu.1
arg2_start_uni_endotoxin
arg2_start_uni_parp-cleaved
arg2_start_uni_dependent
arg2_start_uni_cho-delta1
arg2_start_uni_and/or
arg2_start_uni_frequencies
NP_->_NP_,_ADJP_,:12
arg2_start_uni_concomitant
arg2_start_uni_text
arg2_start_uni_super
arg2_start_uni_primer
arg2_start_uni_characterize
arg2_start_uni_5'-agccacctctcagccgttttgtgg-3'
arg2_start_uni_p10xcbf1-luc
arg2_start_uni_unexpectedly,
arg2_start_uni_generally,
arg2_start_uni_(c),
arg2_start_uni_infiltrate
arg2_start_uni_technical
arg2_start_uni_sites,
arg2_start_uni_f2-reverse:
arg2_start_uni_12239
arg2_start_uni_fine
arg2_start_uni_antisense:
arg2_start_uni_cousin
arg2_start_uni_notch's
arg2_start_uni_tochemotaxis,
arg2_start_uni_unaffected
arg2_start_uni_high-level
arg2_start_uni_mfi
arg2_start_uni_achieved
arg2_start_uni_xbai
arg2_start_uni_mer
arg2_start_uni_reveals
arg2_start_uni_(iii)
arg2_start_uni_instructive
arg2_start_uni_inducible
arg2_start_uni_gene-specific
arg2_start_uni_ly
arg2_start_uni_constituted
S_->_NP_NP:12
arg2_start_uni_nz
arg2_start_uni_diseased
arg2_start_uni_tumour
arg2_start_uni_(gagakt)
arg2_start_uni_decreasing
arg2_start_uni_sb
arg2_start_uni_pivotal
arg2_start_uni_(pha),
arg2_start_uni_sp
arg2_start_uni_sf
arg2_start_uni_largest
arg2_start_uni_young
arg2_start_uni_same
arg2_start_uni_hands,
arg2_start_uni_expanded
arg2_start_uni_conclusions
arg2_start_uni_wb
arg2_start_uni_c-jun
arg2_start_uni_constitutively-active
arg2_start_uni_a.2
arg2_start_uni_myeloma
arg2_start_uni_f2-forward:
arg2_start_uni_ctctcttccctccggactct
arg2_start_uni_mother
arg2_start_uni_critical
arg2_start_uni_al,
arg2_start_uni_aim
arg2_start_uni_name
arg2_start_uni_b-cell-specific
arg2_start_uni_explore
arg2_start_uni_preventing
arg2_start_uni_whilst
arg2_start_uni_medial
arg2_start_uni_vivo
arg2_start_uni_**mouse
arg2_start_uni_category
arg2_start_uni_jnk
arg2_start_uni_hes-1,
arg2_start_uni_smad7
arg2_start_uni_bs-ii-reverse
arg2_start_uni_2-reverse:
arg2_start_uni_constructed
arg2_start_uni_cycle
arg2_start_uni_markov
arg2_start_uni_phenotypes
arg2_start_uni_pcna
arg2_start_uni_inbred
arg2_start_uni_knowledge,
arg2_start_uni_triangles
arg2_start_uni_replicability
arg2_start_uni_nucleus
arg2_start_uni_bs-ii-forward
arg2_start_uni_203580
arg2_start_uni_differential
arg2_start_uni_apc
arg2_start_uni_sem
arg2_start_uni_***mouse
arg2_start_uni_simple
arg2_start_uni_careful
arg2_start_uni_suppress
arg2_start_uni_vijh
arg2_start_uni_missing
arg2_start_uni_third
arg2_start_uni_acceptor
arg2_start_uni_catalyzes
arg2_start_uni_point
arg2_start_uni_fetal
arg2_start_uni_v-d-j
arg2_start_uni_294002
arg2_start_uni_kinetics
arg2_start_uni_thymomas
arg2_start_uni_ribose
arg2_start_uni_chain
arg2_start_uni_none
arg2_start_uni_view
arg2_start_uni_=
arg2_start_uni_dc-enriched
arg2_start_uni_1.6-kb
arg2_start_uni_9/13
arg2_start_uni_mixed
arg2_start_uni_kidney-specific
arg2_start_uni_southern
arg2_start_uni_windows
arg2_start_uni_monocyte
arg2_start_uni_immunohistochemistry
arg2_start_uni_vβ8+
arg2_start_uni_sequencing
arg2_start_uni_ly294002,
arg2_start_uni_h
arg2_start_uni_higher
arg2_start_uni_blockade
arg2_start_uni_annotation
arg2_start_uni_±
arg2_start_uni_5′-agtttaatagtttaagggagttgggt-3′,
arg2_start_uni_hypothesize
arg2_start_uni_clones
arg2_start_uni_central
arg2_start_uni_fdr
arg2_start_uni_towards
arg2_start_uni_rt,
arg2_start_uni_noti
arg2_start_uni_coats
arg2_start_uni_measurement
arg2_start_uni_mb-1sense:
arg2_start_uni_appear
arg2_start_uni_nfkappab
arg2_start_uni_thymus,
arg2_start_uni_intense
arg2_start_uni_bmp-6-induced
arg2_start_uni_removal
arg2_start_uni_including
arg2_start_uni_elemental
arg2_start_uni_node:
arg2_start_uni_sb203580,
arg2_start_uni_hl60
arg2_start_uni_summary
arg2_start_uni_72
arg2_start_uni_transforming
arg2_start_uni_igg4
arg2_start_uni_multiple
arg2_start_uni_66
VP_->_VBD_NP_PP_PP:12
arg2_start_uni_cross-comparison
arg2_start_uni_physiological
arg2_start_uni_histological
arg2_start_uni_aligning
arg2_start_uni_2)
arg2_start_uni_like
arg2_start_uni_(which
arg2_start_uni_29%
WRB_->_When:12
arg2_start_uni_15
arg2_start_uni_across
arg2_start_uni_wild-type
arg2_start_uni_noggin
arg2_start_uni_acellular
arg2_start_uni_regions
arg2_start_uni_cd11c+cd123-
arg2_start_uni_fourth
arg2_start_uni_found,
arg2_start_uni_boxed
arg2_start_uni_5'-ccacaattcccctgagaggtggct-3'
arg2_start_uni_reported
arg2_start_uni_(b
arg2_start_uni_tcrb
arg2_start_uni_concentrations,
arg2_start_uni_injury
VBN_->_named:2
arg2_start_uni_padtata-luc
arg2_start_uni_cyclosporin
arg2_start_uni_hes-1
arg2_start_uni_constitutive
JJ_->_due:12
arg2_start_uni_variable
arg2_start_uni_graphical
arg2_start_uni_reflects
arg2_start_uni_line:
arg2_start_uni_erosion
arg2_start_uni_lines,
arg2_start_uni_died
arg2_start_uni_3′
arg2_start_uni_distinction
arg2_start_uni_btk,
NP_->_NNP_CD_,_CD:12
arg2_start_uni_5′-agcggtgaaactgagagtgcgaggt-3′,
arg2_start_uni_equally
arg2_start_uni_mammals,
arg2_start_uni_mb-1
arg2_start_uni_end-point
arg2_start_uni_denotes
arg2_start_uni_latent
arg2_start_uni_live-cell
arg2_start_uni_autoradiograph
arg2_start_uni_dotted
arg2_start_uni_contemporaneous
arg2_start_uni_plasmids
arg2_start_uni_ptk-renilla
arg2_start_uni_β-actin
arg2_start_uni_below,
arg2_start_uni_differentiated
share_from
arg2_start_uni_secretion
arg2_start_uni_interesting
arg2_start_uni_implied
arg2_start_uni_significantly
arg2_start_uni_taken
arg2_start_uni_regulation
arg2_start_uni_different
NP_->_NP_,_SBAR_,:2
NP_->_NP_NP:12
&_,
&_the
arg2_start_uni_proteins
arg2_start_uni_gene
NP_->_NP_:_NP_.:12
NP_->_DT:12
NP_->_NP_,_NP_,:2
arg2_start_uni_and
VBP_->_are:12
VP_->_VBN_NP_PP:1
from_from
arg2_start_uni_these
NP_->_NP_,_NP:1
arg2_start_uni_a
NP_->_NNP_CD:1
VBD_->_was:12
arg2_start_uni_with
NP_->_QP:1
VP_->_VBN_NP_PP:2
NP_->_NNP_CD:12
VP_->_MD_VP:12
VP_->_VB_S:2
NP_->_NP_NP:2
NP_->_NP_,_NP:12
or_or
VP_->_VBD_SBAR:12
NP_->_NP_:_NP_.:1
arg2_start_uni_t
when_,
WRB_->_When:1
NP_->_NNP_NNP:12
DT_->_The:12
some_the
ADJP_->_JJ_NP:2
VP_->_VB_S:1
VBN_->_based:2
NP_->_CD_NN:12
a_%
IN_->_at:12
at_at
PRP_->_they:1
arg2_start_uni_cells
arg2_start_uni_an
NP_->_QP:12
arg2_start_uni_by
some_,
,_'s
arg2_start_uni_one
arg2_start_uni_induction
arg2_start_uni_levels
arg2_start_uni_binding
ADJP_->_NP_JJ:1
in_<-_<pobj>:1
PRP_->_they:2
arg2_start_uni_cell
VBN_->_based:1
arg2_start_uni_at
arg2_start_uni_on
for_%
NP_->_NP_:_NP_.:2
arg2_start_uni_panel
arg2_start_uni_activated
share_share
arg2_start_uni_can
RB_->_not:12
arg2_start_uni_results
the_''
arg2_start_uni_absence
arg2_start_uni_may
arg2_start_uni_shows
VP_->_VBD_NP_PP_PP:2
in_<-_<pobj>:2
arg2_start_uni_il-10
year_to
arg2_start_uni_used
month_<-_<num>:1
arg2_start_uni_respect,
arg2_start_uni_other
arg2_start_uni_bmp-6
arg2_start_uni_tf
arg2_start_uni_whether
some_a
arg2_start_uni_final
arg2_start_uni_il-17
QP_->_$_CD_CD:1
arg2_start_uni_animals
arg2_start_uni_order
arg2_start_uni_than
NP_->_NNP_CD_,_CD:1
arg2_start_uni_tested
arg2_start_uni_correlation
arg2_start_uni_given
arg2_start_uni_result
arg2_start_uni_presented
arg2_start_uni_cytokines
arg2_start_uni_indicates
arg2_start_uni_their
arg2_start_uni_observation
arg2_start_uni_because
arg2_start_uni_igm-ic
arg2_start_uni_case
arg2_start_uni_finding
arg2_start_uni_consistent
some_at
arg2_start_uni_evaluate
arg2_start_uni_ews
arg2_start_uni_method
arg2_start_uni_over
VP_->_VBN_NP_PP:12
arg2_start_uni_b)
arg2_start_uni_identifies
arg2_start_uni_photomicrograph
arg2_start_uni_1.6
arg2_start_uni_northern
arg2_start_uni_expressing
arg2_start_uni_cho-n2
arg2_start_uni_rt–pcr
arg2_start_uni_intron
co._,
arg2_start_uni_did
arg2_start_uni_maternal
arg2_start_uni_rat
arg2_start_uni_increased
NNP_->_Co.:1
arg2_start_uni_major
arg2_start_uni_ameliorating
arg2_start_uni_done
arg2_start_uni_ebf
NP_->_NP_,_SBAR_,:1
arg2_start_uni_myeloid
NP_->_NP_,_ADJP_,:2
arg2_start_uni_al.
arg2_start_uni_induced
arg2_start_uni_contralateral
arg2_start_uni_hybridisation
arg2_start_uni_6
arg2_start_uni_(5
arg2_start_uni_putative
arg2_start_uni_able
arg2_start_uni_charts
arg2_start_uni_lesion
arg2_start_uni_vβ6+
arg2_start_uni_months
arg2_start_uni_methylated
arg2_start_uni_together
arg2_start_uni_restriction
arg2_start_uni_testosterone-treated
arg2_start_uni_foxp3
arg2_start_uni_apoptosis
arg2_start_uni_representation
arg2_start_uni_schematic
arg2_start_uni_appeared
arg2_start_uni_pten
arg2_start_uni_tables
arg2_start_uni_showing
in_<-_<pobj>:12
arg2_start_uni_which
arg2_start_uni_stimulation
arg2_start_uni_j-n2
arg2_start_uni_sequence
arg2_start_uni_i
arg2_start_uni_facs
arg2_start_uni_primary
,_later
arg2_start_uni_antibodies
arg2_start_uni_western
arg2_start_uni_amount
arg2_start_uni_antibody
arg2_start_uni_representative
CC_->_&:1
arg2_start_uni_line
arg2_start_uni_treatment
arg2_start_uni_all
arg2_start_uni_mice
ADJP_->_NP_JJ:2
NP_->_NNP_CD_,_CD:2
arg2_start_uni_from
arg2_start_uni_amplification
%_<-_<num>:1
%_from
WDT_->_which:12
S_->_NP_NP:2
%_<-_<num>:2
NP_->_NP_,_CC_NP:2
arg2_start_uni_after
arg2_start_uni_activity
of_p
arg2_start_uni_four
of_'s
arg2_start_uni_breast
arg2_start_uni_transcription
arg2_start_uni_performed
arg2_start_uni_highly
arg2_start_uni_similar
arg2_start_uni_pcr
arg2_start_uni_tissue
or_%
arg2_start_uni_blood
arg2_start_uni_cd4+
arg2_start_uni_two
arg2_start_uni_dna
arg2_start_uni_when
WRB_->_When:2
arg2_start_uni_supershift
arg2_start_uni_nuclear
S_->_NP_NP:1
arg2_start_uni_identified
arg2_start_uni_total
arg2_start_uni_single
arg2_start_uni_cultured
arg2_start_uni_first
S_->_S_,_NP_VP_.:12
arg2_start_uni_cpg
arg2_start_uni_methods
arg2_start_uni_inflammatory
note_and
arg2_start_uni_sequences
arg2_start_uni_full
arg2_start_uni_analysed
arg2_start_uni_factors
arg2_start_uni_evaluation
''_,
arg2_start_uni_phenotype
cent_a
arg2_start_uni_addition
arg2_start_uni_2
arg2_start_uni_1
arg2_start_uni_patterns
arg2_start_uni_pathway
arg2_start_uni_many
arg2_start_uni_included
arg2_start_uni_percentage
arg2_start_uni_blot
arg2_start_uni_they
arg2_start_uni_be
arg2_start_uni_electrophoretic
arg2_start_uni_this,
arg2_start_uni_emsa
arg2_start_uni_growth
arg2_start_uni_cluster
arg2_start_uni_expressed
NP_->_NP_,_SBAR:12
arg2_start_uni_genes
arg2_start_uni_dcs
arg2_start_uni_bob.1/obf.1
arg2_start_uni_control
note_,
arg2_start_uni_been
note_the
arg2_start_uni_figure
arg2_start_uni_both
arg2_start_uni_il-2
levels_<-_<nn>:1
arg2_start_uni_stat3
arg2_start_uni_human
arg2_start_uni_5
arg2_start_uni_arthritis
arg2_start_uni_production
arg2_start_uni_null
arg2_start_uni_support
arg2_start_uni_capacity
arg2_start_uni_preincubation
%_<-_<num>:12
arg2_start_uni_whereas
arg2_start_uni_cd11c+
arg2_start_uni_only
arg2_start_uni_include
arg2_start_uni_et
arg2_start_uni_nf-κb
arg2_start_uni_recently
arg2_start_uni_experimentally
arg2_start_uni_vitro,
arg2_start_uni_mice,
arg2_start_uni_evidence
arg2_start_uni_signals
of_<-_<pobj>:1
arg2_start_uni_index
ADJP_->_NP_JJ:12
arg2_start_uni_p50-/-
arg2_start_uni_sites
arg2_start_uni_ramos
arg2_start_uni_showed
arg2_start_uni_nucleotides
NNP_->_Co.:2
arg2_start_uni_relative
arg2_start_uni_bound
arg2_start_uni_quantitate
arg2_start_uni_dnase
arg2_start_uni_polymorphonuclear
arg2_start_uni_cloning
arg2_start_uni_octamer
arg2_start_uni_subsequent
arg2_start_uni_changes
arg2_start_uni_products
arg2_start_uni_(b)
arg2_start_uni_second
arg2_start_uni_calcium
arg2_start_uni_sample
arg2_start_uni_red
arg2_start_uni_mouse
arg2_start_uni_containing
arg2_start_uni_underwent
arg2_start_uni_purified
arg2_start_uni_quantification
arg2_start_uni_tgf-β
arg2_start_uni_infiltration
arg2_start_uni_motifs
arg2_start_uni_probe
arg2_start_uni_lines
arg2_start_uni_slides
arg2_start_uni_mrna
arg2_start_uni_there
arg2_start_uni_three
arg2_start_uni_between
arg2_start_uni_if
arg2_start_uni_or
arg2_start_uni_majority
arg2_start_uni_procedure
arg2_start_uni_ner
arg2_start_uni_following
arg2_start_uni_time
arg2_start_uni_concentrations
arg2_start_uni_detected
arg2_start_uni_amounts
arg2_start_uni_remaining
arg2_start_uni_her
arg2_start_uni_lymph
arg2_start_uni_strength
arg2_start_uni_androgen
arg2_start_uni_il-10r1
arg2_start_uni_comparison
arg2_start_uni_100
arg2_start_uni_synovial
arg2_start_uni_sustained
arg2_start_uni_participated
year_from
arg2_start_uni_(e)
arg2_start_uni_pcr-fragment
arg2_start_uni_carried
arg2_start_uni_treated
arg2_start_uni_will
arg2_start_uni_predictive
arg2_start_uni_receptor
arg2_start_uni_colored
arg2_start_uni_read
arg2_start_uni_secondary
arg2_start_uni_lane
arg2_start_uni_detection
arg2_start_uni_constructs
arg2_start_uni_currently
arg2_start_uni_cbf1-reporter
arg2_start_uni_dose
arg2_start_uni_deficiency
arg2_start_uni_akt
arg2_start_uni_mobilization
arg2_start_uni_region
arg2_start_uni_parameters
arg2_start_uni_irf-4-positive
arg2_start_uni_optimal
arg2_start_uni_conditions
arg2_start_uni_see
arg2_start_uni_vivo,
arg2_start_uni_ages
arg2_start_uni_antigen-presenting
arg2_start_uni_controls
arg2_start_uni_six
arg2_start_uni_authors
arg2_start_uni_play
arg2_start_uni_contained
arg2_start_uni_fact
arg2_start_uni_confirm
arg2_start_uni_female
arg2_start_uni_histograms
arg2_start_uni_cytokine
arg2_start_uni_apparently
arg2_start_uni_proportion
arg2_start_uni_coupled
arg2_start_uni_cases
arg2_start_uni_initial
arg2_start_uni_clustering
arg2_start_uni_list
arg2_start_uni_nucleotide
arg2_start_uni_apc,
arg2_start_uni_pbmncs
arg2_start_uni_involvement
arg2_start_uni_cell;
arg2_start_uni_sizes
arg2_start_uni_monoclonal
arg2_start_uni_fragments
arg2_start_uni_elements
arg2_start_uni_predicted
arg2_start_uni_mean
arg2_start_uni_shift
arg2_start_uni_without
arg2_start_uni_importantly,
arg2_start_uni_more
arg2_start_uni_clinical
arg2_start_uni_previously
arg2_start_uni_differences
arg2_start_uni_lack
arg2_start_uni_injected
arg2_start_uni_important
arg2_start_uni_il-6
arg2_start_uni_normal
arg2_start_uni_here
arg2_start_uni_observed
arg2_start_uni_pb
includes_<-_<nsubj>_<dobj>:2
arg2_start_uni_tnf-α
arg2_start_uni_among
NP_->_NP_,_ADJP_,:1
arg2_start_uni_experimental
arg2_start_uni_determine
arg2_start_uni_ra
PRP_->_they:12
arg2_start_uni_response
arg2_start_uni_recombinant
from_<-_<pobj>:1
arg2_start_uni_serum
arg2_start_uni_experiments,
arg2_start_uni_out
arg2_start_uni_(c)
arg2_start_uni_(d)
arg2_start_uni_adding
arg2_start_uni_macrophages
arg2_start_uni_high
arg2_start_uni_relb+
arg2_start_uni_androgens
arg2_start_uni_ipsilateral
arg2_start_uni_mammary
arg2_start_uni_depletion
arg2_start_uni_cd4+cd25-
arg2_start_uni_endogenous
arg2_start_uni_spib
arg2_start_uni_knock-in
arg2_start_uni_small
arg2_start_uni_sought
arg2_start_uni_note,
arg2_start_uni_status
arg2_start_uni_studies,
arg2_start_uni_all,
arg2_start_uni_cd123+
arg2_start_uni_reported,
arg2_start_uni_inhibition
arg2_start_uni_pi3-k
arg2_start_uni_similarly,
arg2_start_uni_pretreatment
arg2_start_uni_frequency
arg2_start_uni_resulting
arg2_start_uni_phosphorylation
arg2_start_uni_fragment
arg2_start_uni_pi3k-akt
arg2_start_uni_propose
arg2_start_uni_another
arg2_start_uni_competition
CC_->_But:1
arg2_start_uni_smallest
or_cent
arg2_start_uni_heterogeneity
arg2_start_uni_e2f
arg2_start_uni_coercion
arg2_start_uni_opportunities
arg2_start_uni_engagement
share_cent
arg2_start_uni_lag
arg2_start_uni_neurons,
arg2_start_uni_context-dependent
arg2_start_uni_simulation
arg2_start_uni_where,
arg2_start_uni_favor
arg2_start_uni_impression
arg2_start_uni_lend
NN_->_vice:2
arg2_start_uni_regardless
arg2_start_uni_feature
arg2_start_uni_how,
arg2_start_uni_appears
arg2_start_uni_tyrosine
arg2_start_uni_depending
arg2_start_uni_simultaneous
arg2_start_uni_ability
arg2_start_uni_especially
arg2_start_uni_us
arg2_start_uni_exclude
arg2_start_uni_induces
arg2_start_uni_observation,
arg2_start_uni_explanation
arg2_start_uni_occurrence
arg2_start_uni_delayed
arg2_start_uni_recruitment
arg2_start_uni_reason
arg2_start_uni_answer
arg2_start_uni_larger
arg2_start_uni_aspect
arg2_start_uni_coordinate
arg2_start_uni_work
arg2_start_uni_effective
at_<-_<pobj>:12
arg2_start_uni_concluded
arg2_start_uni_compared
arg2_start_uni_reason,
arg2_start_uni_paradox
arg2_start_uni_analogous
arg2_start_uni_intersecting
arg2_start_uni_presumably,
arg2_start_uni_suggests
arg2_start_uni_assess
arg2_start_uni_relationship
arg2_start_uni_unique
arg2_start_uni_early
arg2_start_uni_numerous
arg2_start_uni_dataset
arg2_start_uni_address
arg2_start_uni_draws
arg2_start_uni_validates
arg2_start_uni_hypothesized
arg2_start_uni_considerations
arg2_start_uni_screen
arg2_start_uni_contribute
arg2_start_uni_reinforce
arg2_start_uni_might
arg2_start_uni_highlight
arg2_start_uni_regulated
arg2_start_uni_efficacy
arg2_start_uni_then
arg2_start_uni_affected
arg2_start_uni_altogether,
arg2_start_uni_together,
month_<-_<num>:12
arg2_start_uni_conclude
arg2_start_uni_similarly
arg2_start_uni_active
arg2_start_uni_exposure
arg2_start_uni_leads
arg2_start_uni_provide
arg2_start_uni_stat1
arg2_start_uni_number
to_term
arg2_start_uni_anti-cd4
at_<-_<pobj>:1
arg2_start_uni_do
arg2_start_uni_assay
arg2_start_uni_large
arg2_start_uni_conditional
arg2_start_uni_indicate
arg2_start_uni_coverage
arg2_start_uni_clearly
arg2_start_uni_regard,
compar_from
arg2_start_uni_suggest
arg2_start_uni_combined
arg2_start_uni_increase
at_<-_<pobj>:2
month_<-_<num>:2
arg2_start_uni_demonstrates
arg2_start_uni_phosphorylation,
arg2_start_uni_determined
arg2_start_uni_upon
arg2_start_uni_either
arg2_start_uni_resolution
arg2_start_uni_rather
arg2_start_uni_based
arg2_start_uni_positions
NP_->_NP_,_NP_,:12
arg2_start_uni_observations
arg2_start_uni_interaction
arg2_start_uni_presence
or_share
arg2_start_uni_term
arg2_start_uni_basis
arg2_start_uni_allowed
arg2_start_uni_limited
arg2_start_uni_means
arg2_start_uni_contrasting
arg2_start_uni_studied
arg2_start_uni_understanding
arg2_start_uni_key
arg2_start_uni_such
arg2_start_uni_current
arg2_start_uni_low
arg2_start_uni_would
arg2_start_uni_elucidate
arg2_start_uni_developed
arg2_start_uni_pdcs
arg2_start_uni_ews-erg
arg2_start_uni_testing
arg2_start_uni_potential
arg2_start_uni_preclinical
VP_->_VB_ADJP:12
arg2_start_uni_define
arg2_start_uni_168
arg2_start_uni_study,
arg2_start_uni_interest
arg2_start_uni_transactivates
arg2_start_uni_uds
arg2_start_uni_respond
earlier_%
arg2_start_uni_ablated
arg2_start_uni_month
VBN_->_based:12
arg2_start_uni_tgf-β-converted
arg2_start_uni_(a–c)
arg2_start_uni_jejunum,
arg2_start_uni_a:
arg2_start_uni_possess
arg2_start_uni_[3h]thymidine
arg2_start_uni_a.
arg2_start_uni_exciting
arg2_start_uni_binds
arg2_start_uni_act
arg2_start_uni_protocol,
arg2_start_uni_filtering
arg2_start_uni_inoculated
arg2_start_uni_fashion,
arg2_start_uni_marginal
arg2_start_uni_proliferating
arg2_start_uni_gm
arg2_start_uni_h,
arg2_start_uni_cytokine-positive
arg2_start_uni_necrosis
arg2_start_uni_model,
arg2_start_uni_comprised
arg2_start_uni_occurrences
arg2_start_uni_she,
arg2_start_uni_dendritic
arg2_start_uni_kratochwil
arg2_start_uni_global
arg2_start_uni_discrete
arg2_start_uni_spleen:
arg2_start_uni_redundant
arg2_start_uni_length
co._of
arg2_start_uni_er-tr9
arg2_start_uni_phosphoimage
arg2_start_uni_system,
arg2_start_uni_briefly,
arg2_start_uni_generally
arg2_start_uni_blotting
arg2_start_uni_footprint
arg2_start_uni_polymerase
arg2_start_uni_provided
arg2_start_uni_collagen-rich
arg2_start_uni_untranslated
arg2_start_uni_hsv-thymidine
arg2_start_uni_transactivation
arg2_start_uni_autoradiographs
arg2_start_uni_rinsed
arg2_start_uni_cμ
arg2_start_uni_particular
arg2_start_uni_asked
arg2_start_uni_sensitivity
cent_to
arg2_start_uni_pattern
arg2_start_uni_−116
arg2_start_uni_efforts,
arg2_start_uni_cancer
arg2_start_uni_bob.1/obf.1-specific
arg2_start_uni_proved
issue_<-_<det>:2
arg2_start_uni_profiles
arg2_start_uni_presumed
NN_->_vice:1
arg2_start_uni_endocrine
arg2_start_uni_resuspending
arg2_start_uni_appropriate
arg2_start_uni_organ
arg2_start_uni_sample,
arg2_start_uni_id
arg2_start_uni_results,
arg2_start_uni_counted
arg2_start_uni_kb
arg2_start_uni_lymphocyte
arg2_start_uni_autocrine
arg2_start_uni_triggering
arg2_start_uni_groups
arg2_start_uni_poly-adp-ribose
arg2_start_uni_ir2
arg2_start_uni_nm
arg2_start_uni_examination
arg2_start_uni_ectopic
arg2_start_uni_need
arg2_start_uni_assembly
arg2_start_uni_brca1
arg2_start_uni_depicted
arg2_start_uni_tests
arg2_start_uni_inhibits
arg2_start_uni_[estrogen
arg2_start_uni_t-dependent
arg2_start_uni_gata-1
arg2_start_uni_thirty
arg2_start_uni_a.1
arg2_start_uni_heatmap
arg2_start_uni_profile
arg2_start_uni_mast
arg2_start_uni_factor
arg2_start_uni_mammogens
arg2_start_uni_simplified
arg2_start_uni_mediators
arg2_start_uni_begins
arg2_start_uni_surface
arg2_start_uni_added:
arg2_start_uni_histogram
arg2_start_uni_initially,
arg2_start_uni_cassette
arg2_start_uni_3.1
arg2_start_uni_pre-existing
arg2_start_uni_swelling
arg2_start_uni_motif
arg2_start_uni_chart
arg2_start_uni_oct2-specific
arg2_start_uni_extraction
arg2_start_uni_30/32
arg2_start_uni_scenario,
arg2_start_uni_bob.1/obf.1−/−
arg2_start_uni_4
arg2_start_uni_ionizing
arg2_start_uni_antigens,
arg2_start_uni_purely
arg2_start_uni_pieces
arg2_start_uni_orientation
loss_or
arg2_start_uni_relates
arg2_start_uni_p50
arg2_start_uni_thp-1
arg2_start_uni_stability
arg2_start_uni_illustration
arg2_start_uni_floxed
arg2_start_uni_(a)histopathology
arg2_start_uni_illustrating
arg2_start_uni_neurogenesis,
arg2_start_uni_(a),
arg2_start_uni_gate
arg2_start_uni_box
arg2_start_uni_(cd19+cd27-)
arg2_start_uni_types
arg2_start_uni_stimuli
arg2_start_uni_could
arg2_start_uni_contain
arg2_start_uni_mechanistically,
arg2_start_uni_gp130f759/f759
arg2_start_uni_aliquot
arg2_start_uni_local
arg2_start_uni_th1
co._the
arg2_start_uni_pooled
arg2_start_uni_attract
via_<-_<pobj>:1
arg2_start_uni_mab,
arg2_start_uni_useful
arg2_start_uni_(p
arg2_start_uni_xid
arg2_start_uni_(a
VBN_->_named:1
arg2_start_uni_suspensions
arg2_start_uni_except
arg2_start_uni_scotet
arg2_start_uni_stroma
arg2_start_uni_enrolled
arg2_start_uni_appearance
arg2_start_uni_24-well
arg2_start_uni_open
arg2_start_uni_smad
:_->_...:1
arg2_start_uni_various
arg2_start_uni_cea
vice_,
arg2_start_uni_implies
arg2_start_uni_characteristics,
arg2_start_uni_(large
arg2_start_uni_buds,
arg2_start_uni_domains
arg2_start_uni_cunha
arg2_start_uni_haematopoietic
arg2_start_uni_cho
arg2_start_uni_µg
arg2_start_uni_known
arg2_start_uni_engaging
arg2_start_uni_them
arg2_start_uni_continued
arg2_start_uni_stability-regulated
arg2_start_uni_clusters
arg2_start_uni_fixation
arg2_start_uni_type
arg2_start_uni_frozen
arg2_start_uni_spleen
arg2_start_uni_smears
arg2_start_uni_microliters
arg2_start_uni_digestion
NN_->_unit:2
arg2_start_uni_entire
arg2_start_uni_hours
arg2_start_uni_extracted
arg2_start_uni_resuspended
arg2_start_uni_viability
arg2_start_uni_within
arg2_start_uni_signalling
arg2_start_uni_proliferation
arg2_start_uni_analyzed
arg2_start_uni_she
arg2_start_uni_probes
of_s
arg2_start_uni_reaction
CC_->_&:2
arg2_start_uni_sections
QP_->_$_CD_CD:2
arg2_start_uni_days
,_&
arg2_start_uni_end
arg2_start_uni_mononuclear
levels_<-_<nn>:2
arg2_start_uni_average
arg2_start_uni_each
arg2_start_uni_promoter
of_&
arg2_start_uni_signal
the_&
arg2_start_uni_genomic
to_&
arg2_start_uni_protein
arg2_start_uni_rna
arg2_start_uni_extracts
arg2_start_uni_prepared
arg2_start_uni_transgenic
arg2_start_uni_defined
arg2_start_uni_pbmc
arg2_start_uni_(a)
arg2_start_uni_purification
arg2_start_uni_×
arg2_start_uni_splenocytes
arg2_start_uni_lysates
arg2_start_uni_cd19+
arg2_start_uni_wt
arg2_start_uni_24
arg2_start_uni_composite
arg2_start_uni_beyond
arg2_start_uni_first,
arg2_start_uni_(i)
arg2_start_uni_aa
arg2_start_uni_populations
arg2_start_uni_successful
arg2_start_uni_value
arg2_start_uni_hela
arg2_start_uni_top
arg2_start_uni_group
%_ar
arg2_start_uni_background
arg2_start_uni_structure
arg2_start_uni_utilized
arg2_start_uni_those
arg2_start_uni_size
arg2_start_uni_values
arg2_start_uni_enrichment
arg2_start_uni_displays
arg2_start_uni_chromosomal
share_or
arg2_start_uni_erg
arg2_start_uni_staining
arg2_start_uni_primers
arg2_start_uni_score
arg2_start_uni_established
arg2_start_uni_position
arg2_start_uni_bar
arg2_start_uni_pathology
arg2_start_uni_proinflammatory
arg2_start_uni_represents
arg2_start_uni_stimulatory
arg2_start_uni_extremely
arg2_start_uni_through
arg2_start_uni_amplified
arg2_start_uni_similarity
arg2_start_uni_originally
arg2_start_uni_w3/25
arg2_start_uni_socs3
arg2_start_uni_marker
arg2_start_uni_mobility
arg2_start_uni_itk
NP_->_NP_,_CC_NP_,:2
arg2_start_uni_several
arg2_start_uni_during
arg2_start_uni_arrows
arg2_start_uni_cells,
arg2_start_uni_buds
arg2_start_uni_a)
earlier_to
arg2_start_uni_mab
arg2_start_uni_btk
arg2_start_uni_peripheral
arg2_start_uni_shown
arg2_start_uni_transfection
arg2_start_uni_deficient
arg2_start_uni_mechanism
arg2_start_uni_analyses
arg2_start_uni_accelerating
arg2_start_uni_contains
arg2_start_uni_unlike
arg2_start_uni_grain
arg2_start_uni_displayed
arg2_start_uni_neutrophils
arg2_start_uni_tumor
arg2_start_uni_therapeutic
arg2_start_uni_al
arg2_start_uni_cd4+cd25+
arg2_start_uni_kinase
arg2_start_uni_demonstrate
arg2_start_uni_mutations
arg2_start_uni_signaling
arg2_start_uni_irf1
arg2_start_uni_set
from_<-_<pobj>:2
arg2_start_uni_assay,
arg2_start_uni_accumulation
includes_<-_<nsubj>_<dobj>:1
arg2_start_uni_influence
arg2_start_uni_increasing
arg2_start_uni_dose-dependent
arg2_start_uni_up-regulation
arg2_start_uni_highest
arg2_start_uni_prevented
arg2_start_uni_naïve
arg2_start_uni_28
arg2_start_uni_strong
arg2_start_uni_new
arg2_start_uni_blocked
arg2_start_uni_visualize
arg2_start_uni_rinsing
arg2_start_uni_identity
arg2_start_uni_stat
arg2_start_uni_upstream
arg2_start_uni_released,
arg2_start_uni_phylogenetic
arg2_start_uni_orthologous
arg2_start_uni_firefly
arg2_start_uni_μg
arg2_start_uni_log
arg2_start_uni_aliquout
the_compani
arg2_start_uni_footprinting
arg2_start_uni_luciferase
arg2_start_uni_(score
arg2_start_uni_placed
arg2_start_uni_sacrificed
arg2_start_uni_tbs-t
arg2_start_uni_unlabelled
arg2_start_uni_106
arg2_start_uni_(mediacybernetics,
arg2_start_uni_membranes
arg2_start_uni_fresh
arg2_start_uni_electrophoresed
arg2_start_uni_antisense
arg2_start_uni_stimulated,
arg2_start_uni_es
arg2_start_uni_establishing
arg2_start_uni_lysis
arg2_start_uni_phase
arg2_start_uni_undergone
arg2_start_uni_immediately
arg2_start_uni_pwm,
arg2_start_uni_carrier
arg2_start_uni_harvested
arg2_start_uni_viable,
arg2_start_uni_aqueous
arg2_start_uni_sheath,
arg2_start_uni_(30–100
arg2_start_uni_bound/retarded
arg2_start_uni_counterstained
arg2_start_uni_hes1
arg2_start_uni_flow-through
arg2_start_uni_real-time
arg2_start_uni_plates
arg2_start_uni_hla-dr+cd14-cd123+
arg2_start_uni_(107)
arg2_start_uni_individual
arg2_start_uni_densitometric
arg2_start_uni_filter
arg2_start_uni_subjected
arg2_start_uni_dried
arg2_start_uni_extensive
arg2_start_uni_matrices
arg2_start_uni_microarrays
arg2_start_uni_double
arg2_start_uni_ultrathin
arg2_start_uni_ebf-binding
arg2_start_uni_encompassing
arg2_start_uni_suspension
arg2_start_uni_incubation
arg2_start_uni_resolved
arg2_start_uni_seven
arg2_start_uni_arraypro
arg2_start_uni_centrifugation,
arg2_start_uni_hla-dr+cd14-
arg2_start_uni_forty-eight
arg2_start_uni_raw
corp._the
arg2_start_uni_apoptotic,
arg2_start_uni_amplification,
arg2_start_uni_extending
arg2_start_uni_chemoattractants,
arg2_start_uni_intensities
arg2_start_uni_streptavidin–alkaline
arg2_start_uni_(a.g.
arg2_start_uni_ethanol
arg2_start_uni_batch
arg2_start_uni_washing,
arg2_start_uni_microbeads
arg2_start_uni_fifty
arg2_start_uni_whole-blood
arg2_start_uni_preceding
arg2_start_uni_ortholog
arg2_start_uni_software
arg2_start_uni_reciprocally
arg2_start_uni_neighboring
arg2_start_uni_formalin-fixed
arg2_start_uni_targeted
arg2_start_uni_staining,
arg2_start_uni_over-representation
arg2_start_uni_(0.8
arg2_start_uni_matching
arg2_start_uni_rt
arg2_start_uni_np12-bsa-biotin
arg2_start_uni_intracellular
arg2_start_uni_once
arg2_start_uni_pfms
arg2_start_uni_nih/3t3
arg2_start_uni_immunoblot
arg2_start_uni_uv
arg2_start_uni_either,
arg2_start_uni_exposure,
arg2_start_uni_evaluation,
arg2_start_uni_purification,
arg2_start_uni_serial
arg2_start_uni_mix
arg2_start_uni_under
arg2_start_uni_exposed
arg2_start_uni_reactions,
arg2_start_uni_receptors
arg2_start_uni_transfer
arg2_start_uni_distances
arg2_start_uni_separated
arg2_start_uni_indicated,
arg2_start_uni_concentration
arg2_start_uni_thawed
NN_->_unit:1
arg2_start_uni_stained
arg2_start_uni_blocking,
arg2_start_uni_fold
arg2_start_uni_surnatants
,_compani
arg2_start_uni_strand
arg2_start_uni_arrays
arg2_start_uni_basophils
arg2_start_uni_enzyme
arg2_start_uni_founder
arg2_start_uni_thousand
arg2_start_uni_dual-glo
arg2_start_uni_pathological
arg2_start_uni_oligo
arg2_start_uni_15 minutes
arg2_start_uni_70°c
arg2_start_uni_centrifuged
%_<-_<dep>:1
%_<-_<dep>:2
arg2_start_uni_reverse
arg2_start_uni_10 minutes
arg2_start_uni_cryosections
arg2_start_uni_piece
arg2_start_uni_d
arg2_start_uni_solutions
arg2_start_uni_left
arg2_start_uni_hybridization,
arg2_start_uni_digested
arg2_start_uni_extracts,
arg2_start_uni_(20
arg2_start_uni_anti-cd3-biotin
arg2_start_uni_removed
arg2_start_uni_four-color
of_compani
arg2_start_uni_enhancement
arg2_start_uni_ultrasound
arg2_start_uni_radiolabelled
arg2_start_uni_(50
arg2_start_uni_followed
arg2_start_uni_removing
arg2_start_uni_absorbance
arg2_start_uni_steps,
arg2_start_uni_co-cultured
arg2_start_uni_pellet
arg2_start_uni_analyze
arg2_start_uni_whole
arg2_start_uni_stimulation,
arg2_start_uni_saturating
arg2_start_uni_microcentrifugation
arg2_start_uni_count
arg2_start_uni_scanning
arg2_start_uni_denaturation
arg2_start_uni_non-adherent
arg2_start_uni_phosophorylation
arg2_start_uni_gels
arg2_start_uni_actinomycin
arg2_start_uni_pooled,
arg2_start_uni_generated
arg2_start_uni_germ
arg2_start_uni_q-pcr
arg2_start_uni_(70–100
arg2_start_uni_supernatant
arg2_start_uni_pellets
arg2_start_uni_rehydration
arg2_start_uni_(200-μl
arg2_start_uni_2.5
arg2_start_uni_quantified
arg2_start_uni_measured
arg2_start_uni_synthesized
arg2_start_uni_ten
arg2_start_uni_mixture
arg2_start_uni_transformed
arg2_start_uni_single-stranded
arg2_start_uni_diluted
arg2_start_uni_phosphorylated
arg2_start_uni_spun
arg2_start_uni_later
arg2_start_uni_unincorporated
arg2_start_uni_visualized
arg2_start_uni_computed
arg2_start_uni_notch
arg2_start_uni_genotypes
arg2_start_uni_30 minutes,
arg2_start_uni_pi3-k,
arg2_start_uni_curves
arg2_start_uni_oligomers
arg2_start_uni_(50 μg
arg2_start_uni_10–12
%_&
arg2_start_uni_mouse/human
arg2_start_uni_non-vertebrate
arg2_start_uni_cd3
arg2_start_uni_washing
arg2_start_uni_transfections
arg2_start_uni_µg)
arg2_start_uni_separation
arg2_start_uni_hybridized
arg2_start_uni_clustered
arg2_start_uni_paraffin-embedded
arg2_start_uni_gadolinium
arg2_start_uni_culled
arg2_start_uni_bacterial
arg2_start_uni_complimentary
arg2_start_uni_again
arg2_start_uni_t-cell
arg2_start_uni_id1,
arg2_start_uni_aliquots
arg2_start_uni_patient
arg2_start_uni_day
arg2_start_uni_live
NNP_->_Corp.:1
arg2_start_uni_synthesis
inc._the
arg2_start_uni_ifn-γ
arg2_start_uni_over-represented
arg2_start_uni_algorithm
arg2_start_uni_lymphocytes
arg2_start_uni_sense
arg2_start_uni_washed
arg2_start_uni_cultures
arg2_start_uni_immunoprecipitated
arg2_start_uni_nro
arg2_start_uni_images
CC_->_&:12
arg2_start_uni_complexes
arg2_start_uni_construct
arg2_start_uni_cdna
arg2_start_uni_blocking
arg2_start_uni_double-stranded
arg2_start_uni_oligonucleotides
arg2_start_uni_identification
arg2_start_uni_grand
arg2_start_uni_experiment
arg2_start_uni_10
arg2_start_uni_pax5
arg2_start_uni_events
arg2_start_uni_reporter
arg2_start_uni_standard
arg2_start_uni_additional
arg2_start_uni_measure
arg2_start_uni_culture
arg2_start_uni_analysis,
arg2_start_uni_well
arg2_start_uni_ifn-γ,
arg2_start_uni_il-10,
arg2_start_uni_test
arg2_start_uni_examine
arg2_start_uni_supernatants
arg2_start_uni_samples
arg2_start_uni_chemotaxis
arg2_start_uni_purity
arg2_start_uni_bands
by_<-_<pobj>:2
arg2_start_uni_hybridization
arg2_start_uni_16
arg2_start_uni_eosinophils
by_<-_<pobj>:1
arg2_start_uni_(filled
arg2_start_uni_incubated
arg2_start_uni_competitors
arg2_start_uni_nuclei
arg2_start_uni_product
arg2_start_uni_(1
arg2_start_uni_isolated
arg2_start_uni_stimulated
arg2_start_uni_diagnosis,
arg2_start_uni_oligonucleotide
arg2_start_uni_(2
arg2_start_uni_mutant
arg2_start_uni_two-color
arg2_start_uni_hallmark
arg2_start_uni_hanks'
arg2_start_uni_reactions
arg2_start_uni_inverted
arg2_start_uni_limits
arg2_start_uni_optical
arg2_start_uni_step
arg2_start_uni_targeting
arg2_start_uni_composition
arg2_start_uni_considering
arg2_start_uni_maintained
arg2_start_uni_tetsushi
arg2_start_uni_flow
arg2_start_uni_genetic
arg2_start_uni_contents
arg2_start_uni_supplementary
arg2_start_uni_age
arg2_start_uni_pertinent
arg2_start_uni_gated
arg2_start_uni_isindicated
arg2_start_uni_reticulocyte
arg2_start_uni_columns
arg2_start_uni_mopc21
arg2_start_uni_sorting,
arg2_start_uni_pi3k-activating
arg2_start_uni_equal
arg2_start_uni_achieve
arg2_start_uni_years
arg2_start_uni_cnt,
arg2_start_uni_healthy
arg2_start_uni_rounds
arg2_start_uni_arrows,
arg2_start_uni_element
arg2_start_uni_(1/200;
arg2_start_uni_bv
arg2_start_uni_cc
arg2_start_uni_bd
arg2_start_uni_informed
arg2_start_uni_latter
arg2_start_uni_duration
arg2_start_uni_cavity;
arg2_start_uni_e1-fl
arg2_start_uni_described
arg2_start_uni_histographic
arg2_start_uni_spearman
arg2_start_uni_microarray
arg2_start_uni_rag1-/-
arg2_start_uni_scatter
arg2_start_uni_stromal-epithelial
arg2_start_uni_bars
arg2_start_uni_go
arg2_start_uni_adjuvanticity
arg2_start_uni_blots
arg2_start_uni_ff
arg2_start_uni_surprisingly,
arg2_start_uni_g:
arg2_start_uni_cd14-hla-dr+
arg2_start_uni_cd69
arg2_start_uni_g,
arg2_start_uni_el
arg2_start_uni_bottom:
arg2_start_uni_models
arg2_start_uni_bilateral
arg2_start_uni_responded
arg2_start_uni_fitc-linked
arg2_start_uni_color
arg2_start_uni_cytometry,
arg2_start_uni_30–38
arg2_start_uni_ensembl
arg2_start_uni_motifs,
arg2_start_uni_two-step
arg2_start_uni_cytometry
arg2_start_uni_mode
arg2_start_uni_gradient
arg2_start_uni_grown
arg2_start_uni_elisa
arg2_start_uni_indo-1
arg2_start_uni_conceived
arg2_start_uni_simulations
arg2_start_uni_sv40
arg2_start_uni_**p
arg2_start_uni_should
arg2_start_uni_regulatory
arg2_start_uni_abundant
arg2_start_uni_0.01,
arg2_start_uni_fibroblast
arg2_start_uni_believed
arg2_start_uni_constant
arg2_start_uni_statistical
arg2_start_uni_investigated
arg2_start_uni_possibilities
arg2_start_uni_bmps
arg2_start_uni_annotations
arg2_start_uni_validation
arg2_start_uni_specificity
arg2_start_uni_ensured
arg2_start_uni_stains
arg2_start_uni_sandwich
arg2_start_uni_sixteen
arg2_start_uni_abnormalities
arg2_start_uni_technique
arg2_start_uni_stat4
arg2_start_uni_arrow
arg2_start_uni_suggested
arg2_start_uni_eachgraph
arg2_start_uni_akira
arg2_start_uni_emsa,
arg2_start_uni_totals
arg2_start_uni_thirteen
arg2_start_uni_normalised
arg2_start_uni_werescanned
arg2_start_uni_okamoto,
corp._,
arg2_start_uni_magnification
arg2_start_uni_vgv
arg2_start_uni_exon
arg2_start_uni_significance
arg2_start_uni_ethidium
arg2_start_uni_family
arg2_start_uni_recruited
arg2_start_uni_unstimulated
arg2_start_uni_histology,
arg2_start_uni_macrophage-specific
arg2_start_uni_depict
arg2_start_uni_makino
arg2_start_uni_ruffled
arg2_start_uni_stat3-deficient
arg2_start_uni_represent
arg2_start_uni_shaded
arg2_start_uni_institutional
arg2_start_uni_assisted
arg2_start_uni_translocation
arg2_start_uni_ratio
arg2_start_uni_volunteers
arg2_start_uni_weak
arg2_start_uni_6–8
arg2_start_uni_emergence
arg2_start_uni_mammographically
arg2_start_uni_(mixed
arg2_start_uni_injections
arg2_start_uni_(100
arg2_start_uni_experiment,
arg2_start_uni_table
arg2_start_uni_id2
arg2_start_uni_id3
arg2_start_uni_genes,
arg2_start_uni_id1
arg2_start_uni_(p65)
arg2_start_uni_5′-region
arg2_start_uni_standpoint
arg2_start_uni_initially
arg2_start_uni_substances
arg2_start_uni_horizontal
arg2_start_uni_methodology
arg2_start_uni_medications
arg2_start_uni_helped
arg2_start_uni_sampled
arg2_start_uni_designed
arg2_start_uni_processed
arg2_start_uni_(small
arg2_start_uni_thought
arg2_start_uni_infectious,
arg2_start_uni_hyk
note_rate
arg2_start_uni_control/s,
arg2_start_uni_file
arg2_start_uni_continuing
arg2_start_uni_hyp
arg2_start_uni_interferon
arg2_start_uni_ih
arg2_start_uni_relb
arg2_start_uni_information
arg2_start_uni_rela
arg2_start_uni_anti-tcrα/β
arg2_start_uni_sags
arg2_start_uni_resting
arg2_start_uni_jh
arg2_start_uni_its
arg2_start_uni_released
arg2_start_uni_consequences
arg2_start_uni_jr
arg2_start_uni_maximal
arg2_start_uni_hour
arg2_start_uni_endo-toxin
arg2_start_uni_ifn-γ-stimulated
arg2_start_uni_1,000
arg2_start_uni_lf
arg2_start_uni_anchored
arg2_start_uni_ld
arg2_start_uni_rank
arg2_start_uni_favorable
arg2_start_uni_suggestions
arg2_start_uni_poly
arg2_start_uni_bromide
arg2_start_uni_stainings
arg2_start_uni_eas
arg2_start_uni_follow-up
arg2_start_uni_biological
arg2_start_uni_pg
arg2_start_uni_ebs
arg2_start_uni_pm
arg2_start_uni_organisation
arg2_start_uni_cycling
arg2_start_uni_sc
arg2_start_uni_≤
arg2_start_uni_features
arg2_start_uni_t,
arg2_start_uni_st
arg2_start_uni_(r1)
arg2_start_uni_sn
arg2_start_uni_mlc
arg2_start_uni_tw
arg2_start_uni_salt
arg2_start_uni_mll
arg2_start_uni_mkp
arg2_start_uni_masahiro
arg2_start_uni_rabbit
arg2_start_uni_share
arg2_start_uni_derivation
arg2_start_uni_illustrate
arg2_start_uni_listmode
arg2_start_uni_(mbps)
arg2_start_uni_outer
arg2_start_uni_mjr
arg2_start_uni_lacking
arg2_start_uni_fact,
arg2_start_uni_over-representations
arg2_start_uni_sake
arg2_start_uni_down-regulation
arg2_start_uni_thymic
arg2_start_uni_feedback
arg2_start_uni_anti-β-actin
arg2_start_uni_threshold
arg2_start_uni_leukaemia/lymphoma
arg2_start_uni_therapy
arg2_start_uni_comparisons
arg2_start_uni_induce
arg2_start_uni_calculated
arg2_start_uni_aks
arg2_start_uni_ajh
arg2_start_uni_peptides
arg2_start_uni_–
arg2_start_uni_critically
arg2_start_uni_(10 nm)
arg2_start_uni_expected
arg2_start_uni_phenotypic
arg2_start_uni_strongest
arg2_start_uni_immunodetection
arg2_start_uni_r.b.c.
arg2_start_uni_tissue,
arg2_start_uni_plots
arg2_start_uni_one-year
arg2_start_uni_jmj
arg2_start_uni_median
arg2_start_uni_*mice
arg2_start_uni_earlier
arg2_start_uni_resembles
arg2_start_uni_smad2
arg2_start_uni_smad3
arg2_start_uni_combination
arg2_start_uni_neurotrophins
arg2_start_uni_course
arg2_start_uni_cytotoxic
arg2_start_uni_overlapping
arg2_start_uni_publications
arg2_start_uni_becton
arg2_start_uni_cbf1-dependent
arg2_start_uni_impaired
arg2_start_uni_curve
arg2_start_uni_overlays
arg2_start_uni_magnifications
arg2_start_uni_(icsat/pip/mum1/lsirf)
arg2_start_uni_dark
arg2_start_uni_shl
arg2_start_uni_shp
arg2_start_uni_control;
arg2_start_uni_otherwise
arg2_start_uni_drafted
arg2_start_uni_sgg
arg2_start_uni_transient
arg2_start_uni_connective
arg2_start_uni_nipple
arg2_start_uni_×250
arg2_start_uni_subset
arg2_start_uni_least
arg2_start_uni_dickinson
arg2_start_uni_repeated
arg2_start_uni_3
arg2_start_uni_made
arg2_start_uni_visualization
arg2_start_uni_<
arg2_start_uni_noted,
arg2_start_uni_positive
arg2_start_uni_discovery
arg2_start_uni_disparate
arg2_start_uni_pi3k
arg2_start_uni_*
arg2_start_uni_p
arg2_start_uni_v
arg2_start_uni_t-test
arg2_start_uni_dissection
arg2_start_uni_2407
arg2_start_uni_m
arg2_start_uni_streptavidin-cy5
arg2_start_uni_(igg1),
arg2_start_uni_medium
arg2_start_uni_main
arg2_start_uni_commonly
arg2_start_uni_polyclonal
arg2_start_uni_consent
arg2_start_uni_disrupted
arg2_start_uni_forward
arg2_start_uni_note
arg2_start_uni_fisher
arg2_start_uni_jc,
arg2_start_uni_foreskin
arg2_start_uni_unless
arg2_start_uni_×40
arg2_start_uni_gave
arg2_start_uni_facilitating
arg2_start_uni_model
arg2_start_uni_rtf
arg2_start_uni_smad2,
arg2_start_uni_pgk1
arg2_start_uni_×15
arg2_start_uni_dnmts
arg2_start_uni_divided
arg2_start_uni_asterisks
arg2_start_uni_yamamura
arg2_start_uni_chemotherapy
arg2_start_uni_chemical
arg2_start_uni_exons
arg2_start_uni_jhm
arg2_start_uni_added
arg2_start_uni_stringent
arg2_start_uni_fixed
arg2_start_uni_plays
arg2_start_uni_×20
arg2_start_uni_characterized
arg2_start_uni_detects
arg2_start_uni_mjr,
arg2_start_uni_q1200x
arg2_start_uni_zone,
arg2_start_uni_evaluated
arg2_start_uni_smad2/3
arg2_start_uni_outcomes
arg2_start_uni_hirofumi
arg2_start_uni_integrity
arg2_start_uni_calculations
arg2_start_uni_defective
arg2_start_uni_future
arg2_start_uni_configuration,
arg2_start_uni_(asterisk)
arg2_start_uni_3b
arg2_start_uni_cytokines,
arg2_start_uni_30
arg2_start_uni_28s
arg2_start_uni_35
arg2_start_uni_modified
arg2_start_uni_20
arg2_start_uni_plasmid
arg2_start_uni_pbs
arg2_start_uni_markers
arg2_start_uni_regarding
arg2_start_uni_11
arg2_start_uni_(ff)
arg2_start_uni_1;
arg2_start_uni_12
arg2_start_uni_balanced
arg2_start_uni_that,
arg2_start_uni_'open'
arg2_start_uni_annexin
arg2_start_uni_statistically
arg2_start_uni_il-12-induced
arg2_start_uni_tec
arg2_start_uni_*p
arg2_start_uni_boxes
arg2_start_uni_individualization
arg2_start_uni_lowest
arg2_start_uni_chosen,
arg2_start_uni_standards
arg2_start_uni_reduced
arg2_start_uni_student's
arg2_start_uni_histopathological
arg2_start_uni_period
arg2_start_uni_blunt-tipped
arg2_start_uni_gail
arg2_start_uni_owing
arg2_start_uni_diagram
arg2_start_uni_0.05
arg2_start_uni_depicts
arg2_start_uni_refer
arg2_start_uni_separate
arg2_start_uni_depletion/modulation
arg2_start_uni_joint
arg2_start_uni_lysate
arg2_start_uni_yields
arg2_start_uni_noted
arg2_start_uni_fusion
arg2_start_uni_cml-t1
arg2_start_uni_description
arg2_start_uni_short
arg2_start_uni_conducted
arg2_start_uni_anti-phospho-p38
arg2_start_uni_very
arg2_start_uni_assays,
arg2_start_uni_blue
arg2_start_uni_preparation
arg2_start_uni_chosen
arg2_start_uni_ester
arg2_start_uni_points
arg2_start_uni_filled-in
arg2_start_uni_generation
arg2_start_uni_absolute
arg2_start_uni_molecular
arg2_start_uni_complete
arg2_start_uni_alcian
arg2_start_uni_original
arg2_start_uni_upregulation
:_->_...:2
arg2_start_uni_treatment,
arg2_start_uni_unprogrammed
execut_,
arg2_start_uni_methyl-cpg-binding
arg2_start_uni_negative
arg2_start_uni_micrographs
note_at
arg2_start_uni_wsr
arg2_start_uni_get
arg2_start_uni_scale
arg2_start_uni_branches
arg2_start_uni_chy
arg2_start_uni_acetoxymethyl
arg2_start_uni_quantifications
arg2_start_uni_fibrous
arg2_start_uni_specimens
arg2_start_uni_thick
arg2_start_uni_error
arg2_start_uni_target
arg2_start_uni_relatively
arg2_start_uni_equivalency
arg2_start_uni_probably
arg2_start_uni_existence
arg2_start_uni_confirmed
arg2_start_uni_level
arg2_start_uni_situation
arg2_start_uni_less
arg2_start_uni_translocations
arg2_start_uni_denote
arg2_start_uni_example
,_who
arg2_start_uni_elf3
to_<-_<pobj>:2
arg2_start_uni_examples
arg2_start_uni_these,
arg2_start_uni_tumors
arg2_start_uni_occurs
arg2_start_uni_delivery
arg2_start_uni_splenic
arg2_start_uni_includes
arg2_start_uni_animal
arg2_start_uni_methylation
arg2_start_uni_inhibitory
arg2_start_uni_invertor
arg2_start_uni_synthetic
arg2_start_uni_considered
arg2_start_uni_previous
arg2_start_uni_z
arg2_start_uni_previously,
arg2_start_uni_ratios
arg2_start_uni_plasmacytoid
arg2_start_uni_socs1
yield_and
arg2_start_uni_de
arg2_start_uni_comparative
arg2_start_uni_again,
arg2_start_uni_patients
arg2_start_uni_percentages
arg2_start_uni_neutrophil
arg2_start_uni_sorted
arg2_start_uni_approximately
arg2_start_uni_complex
arg2_start_uni_preventive
arg2_start_uni_mabs
arg2_start_uni_novo
arg2_start_uni_corresponding
arg2_start_uni_chromatin
arg2_start_uni_indicated
arg2_start_uni_lower
arg2_start_uni_intriguingly,
arg2_start_uni_hao
arg2_start_uni_colon,
arg2_start_uni_rajewsky
arg2_start_uni_total,
arg2_start_uni_p53,
arg2_start_uni_substitutions
arg2_start_uni_corroborating
arg2_start_uni_detailed
arg2_start_uni_reveal
arg2_start_uni_increases
arg2_start_uni_parallel
arg2_start_uni_intercession
arg2_start_uni_cell-type-specific
arg2_start_uni_obligatory
arg2_start_uni_tissues
arg2_start_uni_epidemiology
arg2_start_uni_extend
arg2_start_uni_credence
arg2_start_uni_hepatocyte
arg2_start_uni_supported
arg2_start_uni_lung
arg2_start_uni_agreement
arg2_start_uni_accordance
arg2_start_uni_eosinophil-specific
arg2_start_uni_adequate
arg2_start_uni_il-10-mediated
arg2_start_uni_22343
of_who
arg2_start_uni_striking
arg2_start_uni_half
arg2_start_uni_alternative
arg2_start_uni_disagreement
arg2_start_uni_immunodeficient
arg2_start_uni_oct-1
arg2_start_uni_areb6
arg2_start_uni_interpretation,
arg2_start_uni_neutrophils,
arg2_start_uni_comprise
arg2_start_uni_seem
RB_->_n't:2
arg2_start_uni_chemoattractants
arg2_start_uni_introduction
arg2_start_uni_seems
arg2_start_uni_3.2
arg2_start_uni_work,
arg2_start_uni_severe
wa_who
arg2_start_uni_others
arg2_start_uni_encouraging
arg2_start_uni_intra-articular
arg2_start_uni_injection
arg2_start_uni_thin
arg2_start_uni_cross
arg2_start_uni_contrasts
arg2_start_uni_core
arg2_start_uni_biopsy
arg2_start_uni_elf3,
arg2_start_uni_much
arg2_start_uni_micro-organisms,
arg2_start_uni_co-incident
arg2_start_uni_ews-fus
arg2_start_uni_4a,
include_<-_<nsubj>_<dobj>:1
include_<-_<nsubj>_<dobj>:2
arg2_start_uni_(il)-17
arg2_start_uni_family,
arg2_start_uni_recognized
arg2_start_uni_pervasive
arg2_start_uni_il-1β
arg2_start_uni_map
arg2_start_uni_variety
arg2_start_uni_computational
arg2_start_uni_overexpressing
arg2_start_uni_epidermal
arg2_start_uni_myocytes,
arg2_start_uni_illegitimate
arg2_start_uni_undergo
arg2_start_uni_marchetti
arg2_start_uni_al.,
arg2_start_uni_p38
arg2_start_uni_elicited
arg2_start_uni_cml,
arg2_start_uni_iκb
arg2_start_uni_likely
arg2_start_uni_modelling
arg2_start_uni_interleukin
arg2_start_uni_mouse,
arg2_start_uni_ciofani
arg2_start_uni_naive
arg2_start_uni_produced
arg2_start_uni_cis-regulatory
arg2_start_uni_loss
arg2_start_uni_nested
arg2_start_uni_release
arg2_start_uni_precursors
arg2_start_uni_cd123+hla-dr+
arg2_start_uni_principal,
arg2_start_uni_egfr
arg2_start_uni_development
arg2_start_uni_azadc
arg2_start_uni_e6.1
arg2_start_uni_mxa+
arg2_start_uni_gene,
arg2_start_uni_what
arg2_start_uni_rag1-cre
arg2_start_uni_review
arg2_start_uni_opposed
arg2_start_uni_nfkb1
arg2_start_uni_jurkat
arg2_start_uni_exhibit
arg2_start_uni_bdnf
arg2_start_uni_fdc-m2
arg2_start_uni_polypeptides
arg2_start_uni_search
arg2_start_uni_output
arg2_start_uni_attempted
arg2_start_uni_bone
arg2_start_uni_carcinomas
of_<-_<pobj>:2
arg2_start_uni_indication
arg2_start_uni_extended
arg2_start_uni_analyse
arg2_start_uni_c
arg2_start_uni_overexpressed
arg2_start_uni_focuses
arg2_start_uni_examined
arg2_start_uni_here,
arg2_start_uni_pore-mediated
arg2_start_uni_55
arg2_start_uni_knockout
arg2_start_uni_databases
arg2_start_uni_constitute
arg2_start_uni_become
arg2_start_uni_influx
arg2_start_uni_rt-pcr,
arg2_start_uni_speculated
arg2_start_uni_tempting
arg2_start_uni_oct
arg2_start_uni_prevents
arg2_start_uni_cellular
arg2_start_uni_upper-outer
arg2_start_uni_over-expression
arg2_start_uni_b6
arg2_start_uni_competitor
arg2_start_uni_panels)
arg2_start_uni_trigger
arg2_start_uni_illustrated
arg2_start_uni_wereincubated
arg2_start_uni_pretreated
arg2_start_uni_relb-cd123+
arg2_start_uni_sensitized
arg2_start_uni_sufficient
arg2_start_uni_(wt
arg2_start_uni_estimated
arg2_start_uni_localization
arg2_start_uni_oct1,
arg2_start_uni_cold
arg2_start_uni_igh
arg2_start_uni_agents
arg2_start_uni_efficiently
arg2_start_uni_inhibitor
arg2_start_uni_seen
arg2_start_uni_(top
arg2_start_uni_(29/104)
arg2_start_uni_βgal
arg2_start_uni_murine
arg2_start_uni_localize
arg2_start_uni_formation
arg2_start_uni_histomorphological
arg2_start_uni_block
arg2_start_uni_microscopic
arg2_start_uni_circles)
arg2_start_uni_clonal
arg2_start_uni_saw
earlier_from
arg2_start_uni_limit
arg2_start_uni_30%
arg2_start_uni_bearing
arg2_start_uni_7
arg2_start_uni_context
arg2_start_uni_cd19+cd27-
arg2_start_uni_organs
arg2_start_uni_transgene
arg2_start_uni_completely
arg2_start_uni_end,
arg2_start_uni_collected,
arg2_start_uni_delta1-fc
arg2_start_uni_plate-bound
arg2_start_uni_cho-hdelta1
arg2_start_uni_28%
arg2_start_uni_investigation
arg2_start_uni_18
arg2_start_uni_electron
arg2_start_uni_200
levels_<-_<nn>:12
arg2_start_uni_hypersensitive
arg2_start_uni_cd123+cd11c-
arg2_start_uni_incidence
arg2_start_uni_purities
arg2_start_uni_cd19-positive
arg2_start_uni_s194
arg2_start_uni_mri,
arg2_start_uni_allele
arg2_start_uni_oct2
arg2_start_uni_freshly
arg2_start_uni_(more
arg2_start_uni_polya
arg2_start_uni_ephb4,
arg2_start_uni_co-expressed
arg2_start_uni_muc1
a_cent
arg2_start_uni_results:
arg2_start_uni_conclusion:
arg2_start_uni_presentation:
arg2_start_uni_methods:
arg2_start_uni_21
arg2_start_uni_conclusions:
arg2_start_uni_mature
arg2_start_uni_success
arg2_start_uni_tf-mediated
arg2_start_uni_better
arg2_start_uni_alternate
arg2_start_uni_initiated
arg2_start_uni_require
arg2_start_uni_introduced
arg2_start_uni_t-47d
2.178486828344021
1.4081808013911197
1.4217103994890843
1.594207688439088
1.4217103994890843
1.953929715487418
2.2045932790795493
1.831271954394223
1.6202200391515273
0.9282123843152223
1.594207688439088
1.4945628193831169
1.4403648498596415
2.4307824273072187
1.4945628193831169
2.0299528234303055
1.6484706668985698
2.3576831375707705
1.5653736243058358
1.716847214784703
2.466360655808541
1.6360037492442947
1.8643588743861437
1.493064573737403
2.1958136105232384
1.8417311038845694
0.9282123843152223
1.716847214784703
2.1352459673509996
2.0692944177487282
0.6214304473735831
1.6474683706164246
0.956646993514069
1.4711693274755893
0.6495227314001363
2.071732617584251
0.5553374263877847
1.1755495838663865
0.8725680585716165
-0.4124414815385447
-0.44987582506436596
0.3055215676778609
-0.20513657937453214
-0.046550364169027254
0.018239479249850706
-0.7713422699101078
0.24571399778936273
0.0017282523697176228
0.11641058519785942
0.4857080888256115
-0.4196505429749517
0.006857176844115369
-0.27617997052880017
0.07580557704317864
0.16623338190060244
0.05307641716136982
-0.9376887819376983
-0.17815868013507144
-0.00873732112649019
-0.3462097047061066
-0.02582652274785073
-0.21351393733590412
0.06105892241651808
0.12953141033981053
-0.04223536993727532
-0.17384870789943604
0.05141911636707424
0.1298866615388116
0.1137434162907175
-0.16121922008081474
0.017171400408121786
-0.20262977292924148
-0.07189783435568112
0.010094015451929823
-0.008269534077584703
0.17552605749806266
-0.18159698636968424
-0.13482102539518293
-0.030710628856377084
-0.029311669029968755
-0.13431623428170453
-0.0519681765070311
0.28316101958714385
0.1030896047827567
-0.1971012090972707
0.08849669697746566
-0.1218455382898905
-0.20163902704191067
-0.032794861457545975
-0.2721919079597579
0.23745746462947126
0.6393719380557503
0.22501237677650887
0.10852043384029579
-1.1038107823694558
-0.028843258421500984
-0.27072521204835004
0.13280607153834165
0.13577456467336432
-0.07415698075531356
-0.5565902579728912
-0.0614896316223609
-0.11495820167039546
-0.24278638059895952
0.15926345406660158
0.2759886170547557
-0.02474843814509031
-0.0512666108196834
0.04367157637528254
0.27368399702011026
-0.19025346231332338
0.20256611693228713
-0.03605602040140538
-0.7505981735091538
-0.3836222536895604
0.07010719993089637
0.11777147212957671
0.06425358810171664
-0.050222497663311695
-0.049039205910461195
-0.07203612123216237
-0.04409074589828964
0.2034431931278801
-0.2073489971490286
0.16880887337306608
0.2682972412484856
-0.1703291144867865
-0.418814458695672
0.03646810328637864
-0.2567909300190229
0.20487983739649557
-0.026209852304323846
0.10715484674363802
0.0927368207906231
-0.31728996004805127
-0.2828335745354108
-0.8380211047676822
-0.01962045689954748
0.27002388340321554
0.12366217846926333
-0.29159438240626917
-0.12034130689617893
-0.004047107259299957
0.10051001551669803
0.21346903400955877
0.19455410989432945
-0.5665884173846947
-0.24793427689668218
-0.15721825291807368
0.17981460402811383
0.018820829407649804
0.059788460104245475
0.05310813324200368
0.1620584999982204
-0.14549179214078312
0.1462145697990368
0.03149042885752374
0.2842900277004865
0.02423260313751377
-0.12973288913678074
0.25384590910032284
0.11212449857869766
0.17897657307232567
-0.6100282285600523
-0.18094832769916466
-0.34118790677664423
-0.14052004456747041
0.36056975269218544
-0.27599008275010894
0.23372684513583786
0.4271091175940887
0.33388190199954926
0.06402559668978917
-0.17034894539972467
0.15007116789385877
0.3366785496023249
-0.2310674462799812
-0.24474933813065639
-0.020282481969312934
0.31690637111101677
0.2622557817693758
-0.06959688287612173
-0.2332461990436873
0.03616764651468078
0.005763951207764294
0.1839907060500873
0.08820723521412345
-0.10659766191422419
-0.7536172841159761
0.07902387166209963
0.03662110654996778
0.00693410257409167
-0.14112021878592113
-0.18619267716164523
0.24490060308422062
-0.3072120231899733
-0.21063436194462035
-0.16523468287104073
0.007036105129108314
0.028501336128321196
0.3078522030495243
-0.23458700235879468
0.025180579749087523
-0.15440943938028795
-0.07720587733407623
-0.24722206521115925
0.02128630093135506
0.09837230698993268
-0.03879049459147558
0.063002516612263
0.006845480592414014
-0.07268850470921592
0.26529446756579556
-1.1055223161456815
-0.24576577482352835
0.09388856665539018
-0.2887031151279369
0.07819476834318795
-0.38035338446734607
-0.28190681167832443
-0.17559276386905567
0.02402288100011386
-0.029177567964638898
-0.7531305411299377
0.11875712762893995
-0.46384869168226955
-1.1492791535544105
0.522161519614377
0.037730601815093454
-0.17195039683969143
-0.0424126757960998
0.09790114982368602
-0.09465354728380361
0.16461795157191195
0.11648233808036264
-0.09119299255134056
-0.4141298059084888
-1.272086050680328
-0.17689280260769627
-0.2720590692401753
-0.21203022682406916
-0.29540974862458325
-0.17344050326905
0.0780385222181486
-0.061540016073793044
0.05041321215096365
0.06027873132061662
-0.10273241246738066
-0.07211739533230639
-0.5740196459956972
0.14708412298748108
0.25228955077890897
-0.22870102050193442
-0.13315710675850412
-0.03205090697791851
0.09469181115905334
-0.10984554327530503
-0.3654940773615751
0.11887724884330067
0.01020251983565122
0.18254938641704177
0.13907046354215738
-0.04529578677070703
-0.004006249275819325
-0.53105993648444
0.06574131846112248
0.09968679300866887
-0.14121474089876326
-0.1806071712314462
0.1886326112655165
0.05341823318084861
-0.6892247285644292
-0.7090667188337297
-0.36221184308041005
0.017173088725471047
-0.2797256455138925
0.4387419567942465
0.3129062186624808
-0.14731057108540152
0.17096194840047504
0.20440065326030551
-0.05793687905027757
0.0034504221664784906
-0.1512285264927576
-0.46621221214968167
-0.6079862768416613
-0.2876457265311256
0.04476239955038679
-0.2255794632643009
0.2914868757299888
0.026908913688101384
-0.1386971636959665
0.01093577350300182
0.014567856982286156
0.07874815956941567
-0.17136270347659124
-0.34018860323083855
-0.2778379001346282
-0.042889181485376245
-0.02864891560001258
0.24459772827097112
0.052392839983023985
0.030197073996254615
-0.3391870376776535
-0.004319618419976826
-0.4225192296937682
0.07896684853518425
0.053564882605161374
0.1410349156861489
0.27207827353289693
0.18165944255737926
-0.05933829956548897
0.3485163069511903
-0.315370274803787
-0.03341277909313952
-0.022042649200311046
-0.2807826965854481
0.21482501488326286
0.06871911722168873
-1.075090285745962
-0.09871824472158827
-0.35908673289013593
-0.3273885155512529
-0.25832190349196277
-0.3401909616532085
0.10877279312257186
-0.04265124903840605
-0.23509829251993963
-0.15350134819594555
-0.024232211660708262
0.007088493145355208
0.3683053575568922
0.08826783237352151
0.014600759224089502
0.2606450693105322
0.0906704595718841
-0.19966331075777838
-0.04369385701910208
-0.007618383793424542
-0.024274697314534546
0.18726838830968137
-0.04744933207436547
0.03422557337718615
0.023134688195630432
0.06318583169335264
-0.8625362701839648
-0.5458833456509614
0.008688592487047616
0.16254790827523125
-0.043017484423564956
0.06139158879001026
-0.18000101419799608
-0.005936979437765362
0.14248616922796853
0.024511270040249895
-0.3234807258280455
0.09296654323671942
0.10476325462081723
-0.059191559971277216
-0.16809065397069514
0.05101978660754966
-0.5275737895673164
-0.04197681126742694
-0.4359823331696369
0.17613381797239813
-0.10022428535278781
0.1124636486403217
-0.10902244680907092
-0.21300647432879277
0.1697021925798672
0.011188046667096765
0.040684474800858225
-0.6580958980317302
0.029602841775728327
-0.07002964570858776
0.1306075827098922
0.039765154119089666
-0.5174045423526424
-0.007426232413977634
0.14593522152763053
-0.007583333240749649
-0.0034199146502293227
0.21487787661119168
-0.27855459684409495
-0.1383301047855629
-0.18979821806255334
-0.05202108776091627
0.041376947223237606
-0.030578915435657838
-0.08923250924810221
0.08552800081567688
-0.003580644076256378
0.1484494195294861
0.1773436184025155
0.3304089494427864
-0.054644272918893726
0.0030220399000105347
0.2635990127495012
0.021328794677253154
-0.015169415572379828
-0.006437691496594161
-0.009581149019798193
0.08392861572444577
-0.3220069693146908
-0.10620734543867959
-0.3433889132332631
0.09820204533542633
-0.14868967617488843
0.12043728251616928
-0.21957285739944704
-0.05275151225421496
-0.3843719794037097
-0.09902655660593837
0.2362378437827627
0.0505939994037354
-0.6418981856050587
-0.2110156405153485
-1.5993988145508535
-0.6018103658339475
0.02749203747150532
0.07435127311163325
0.1980707647343328
-0.04190627311609449
0.0981119232740308
0.10185916555710983
0.07252064943926104
-0.07182087263684989
-0.18346801285904088
0.04932758536225988
0.06630825416907196
-0.041795161937928066
-0.007118758238972595
2.0604028459601993E-4
-0.31516057582756135
-0.06057044989727607
-0.5359733216802047
0.08533585289254536
0.02853304104297774
-0.0015738219923135982
-0.40378385646170084
-0.5902204333931054
-0.1305849144478604
-0.024009089742780553
0.38695509205196255
-0.025371271952646247
0.09672291584753488
-0.04751266980526322
0.02430627473700525
0.12637830684865933
-0.18400798609725985
-0.32380837869777124
-0.08214138342607005
0.1373586610662051
0.15725332433715097
0.14586221438460453
0.28794377404818794
0.297410055886549
-0.014619316331173146
-0.05725220399218812
0.21770657237195962
-0.15284899264875193
-0.6716198108811281
0.10778629242144912
0.07667612292804103
-0.04460535023220611
0.04424151389562414
-0.22051708617837168
0.0021122264704004482
0.2645687174496147
-0.4946503365956867
0.17888346548001066
0.004154629550883113
0.19497099926365322
0.1863146135076479
-0.22077636305399
-1.0936319581795637
-0.09514657501982317
-0.46312161744757524
-0.13978898274658233
0.20724662815075331
-0.2731968940285549
-1.188782530655718
0.08367071700780922
-0.49256040350113905
-0.031174675433434253
-0.2212852620839805
0.02318933861446225
-0.20612682084228623
0.20844754272948562
-0.38766170411510054
-0.07667441984752008
0.3068239630800567
-0.3877135592415954
0.15375613613366823
-0.18911413242931058
-0.050721702373908814
0.024304369438304423
0.03870761194232038
0.061315639039725325
0.03121303241781242
0.12539722636387104
-0.1623908372668984
0.10501379445385303
0.04154947893462151
-0.07788924223696744
0.15985461031396833
0.12789561010082312
0.06418178912843352
-0.1307875818989661
-0.2270406996476647
0.10592591274239976
-0.46397224163816353
0.12904195219602393
0.1555671210796301
0.03065091112437144
-0.11417617501911216
0.3138021337381357
-0.28934584136918284
-0.10232919497139607
0.15201236969438056
0.20861663516705492
-0.09671380004775657
0.17622664842582186
-0.07233975635622605
-0.4735797623814393
0.08906833785486085
0.1765087835575149
-0.022481042685608778
0.33049678374752345
-0.008257239932007972
-0.42913720931102367
-0.5040307508588066
0.4450482416051508
0.08574742417730714
-0.09015804497475874
-0.295988173240524
0.09176489586162546
-0.8466760443390973
0.23897897135068444
-0.10229240421524707
-0.3430959825807265
0.2680958605999643
0.06952448730871501
-0.7238592820088152
-0.69795274715128
-0.0863888682255132
0.06831738983757688
-0.018724747733101243
0.13410194884337326
-0.08536320421624548
0.028032267326490376
0.021454379975531318
-0.1970343809294962
0.01923211819655065
-0.025477986814398352
-0.06576032748704912
0.14416624681205376
-0.14236386823413794
-0.1959917482027447
-0.3582469441529301
-0.1297888983434834
0.14605777615022394
-0.35397710878367505
0.31170115166179846
-0.12137119052181695
0.30149443512373114
-0.09805378603253118
0.35732661073982686
0.2833501936343814
-0.07420433099016606
0.4854080137900848
0.596343005925105
-0.020622307778357964
0.020209026347048846
0.04134505976516664
-0.05289998046066965
0.03663768207742262
0.030219850782818757
0.11855064359286867
0.07289285753264134
-0.0029371527367090923
-0.045230297875313276
-0.06240938383316312
-0.12368610115995816
0.3355061025507836
-0.1779245717607672
0.025373839744390062
-0.08008538031740296
0.044189770684412155
0.053792960421977065
0.07074997621848221
-0.0947130854586399
-0.2650947745757873
-0.06565425286906133
-0.012744755439641894
-0.06814757710292825
0.0634205801888368
-0.11534567847637978
-0.4271035380522091
-0.018411449267625467
-0.20385325580029462
0.11048193601555271
-0.04236437297997375
0.0012978191290824847
0.13748211220352932
-0.3338800693938284
-0.39951063860447816
-0.15932431673186181
0.2376346102195166
-0.6496017472125803
-0.12889616781803942
0.25821614077810157
-0.11579652938410388
-0.0699587331528849
0.05399118101807798
0.00400031319619594
-0.017605101947797124
0.21599715165894412
0.10956998788192597
8.250764459492555E-4
0.17297292803237568
0.026050859402113533
0.007209227262243607
0.3061735303432559
0.13756982653578226
0.12241094586178407
0.15023515175802016
-0.14011354543557292
0.29556247881674713
-0.5241411477493837
0.33187107202235105
-0.2989336468871029
0.2727305167047033
-0.7257142572263864
-0.9446476716716088
-0.026889968732560787
0.6035266310373519
-0.0016562482930098203
-0.08585541447486397
-0.051380922524851325
0.14232095919606463
-0.15759488783709377
-0.031123394051004165
0.09585428233296317
-0.4238786046885394
-0.20564914620062183
0.1293112215528848
0.2273062842045735
0.38561927464399254
0.3214517566918996
-0.05238484431399407
0.03548755208111117
0.12820935817222723
0.08924166451146846
-0.17913079135188453
-0.09180508722398056
-0.15177735711121845
0.3060530939752929
-0.357116578027058
0.14068932666513073
0.10576462229657833
-0.6999306102574457
0.10223128150465746
-0.41258545783196987
-0.00649235744330629
0.0474149418575345
-0.008490906600818224
0.03762393374938054
0.07380063648873385
-0.1728097487994461
-0.05037136204276266
-0.37047317632074867
0.010665547250442713
0.04594026309422805
0.015728746216242283
-0.18216885955306625
-0.23798234486785003
0.07579873889071642
0.167530804557876
-0.07827312708808565
-0.17812954914826243
-0.12593605816758058
0.09316684715300155
0.127361002411406
0.03282280761394537
-0.8245016439370739
0.22767379287186493
-0.020799946647488923
0.18601870064729054
0.07135927995795885
-0.0010465441546525422
-0.026388173359967692
-0.026826497190934186
0.011896328536474484
0.03944606687947656
0.042088213524078405
0.02135616659452482
-0.5117918311661755
0.10666750192673062
0.0543185334153307
0.012055035073847567
-0.31456609217517434
0.18323520170129018
-0.027025768842381125
-0.0883737908225591
0.013938063801091971
-0.48016800204879606
0.0466495661939674
0.31027562594725816
0.014725912640560715
0.06692557362578026
-0.07428721469581709
-0.13735161909782329
0.03035343806230972
0.4434032751380691
-0.03584211361435107
0.06823440700823782
-0.024455880728550903
-0.008099680299262118
0.055926798938436585
-0.014933831650589209
-0.011628678169194854
0.09908135343095976
-0.012033658594320028
-0.005910391038687953
-0.053419530541212526
-0.05323111821811738
-0.301911598271725
-0.4842392138369505
0.01807069554413058
0.21431960945222475
0.16748254147549352
0.0253112383881812
-0.021037366744138614
-0.2643494363563477
0.34673343504335524
0.6284061068173542
-0.7777903327111467
-0.4644045211304719
0.4212388173589404
0.6791783863302204
0.04763946701841327
0.03205607498334867
-0.14107710328405249
0.09582373387589772
-0.12295029563827042
0.08549731652839679
-0.41139051852444564
-0.015789133780185653
-0.24741410355700644
0.07617372289612694
-0.05707411917453044
0.06855416256802162
-0.12190961011914425
-0.40832156856593615
0.11000183425987997
-0.22108398641963567
-0.23395806264272834
0.05084856118057835
0.13519183049117833
-0.41779582253508407
0.11746129509811003
-0.42248852238579093
-0.5335807075364244
0.06573330913238967
0.05457733915587421
-0.14695022487464224
-0.12395087022602823
-0.14236928385616437
-0.16671925156745449
-0.007079742647913437
-5.643122222906492E-5
0.07777109894007306
0.33307386886693835
0.061948760230460295
0.12245308142324877
0.10536679663878393
0.06907809770258358
-0.990006756609979
-0.23889377499114317
-0.4370902575922535
-0.1320430740822355
-0.7339279002110877
-0.12373586199541244
0.250052698738313
0.042668624509283055
-0.15559975723212432
-0.4854489940864608
-0.6410469483360487
-0.15464928901222808
0.1222024610856786
-0.047867016118998906
-0.31013315000245256
0.0387049124335193
-0.007957343768714226
0.13746043507596872
-0.046610059855304586
-0.04864547520098892
-0.018911328260234426
0.11633834093946498
0.04304865534490852
-0.09715494064917872
0.10448462097376764
0.050331634246193975
0.023695779481533712
-0.3945283531786678
-0.0813816324934499
-0.03259473224217094
0.037722160339325315
0.021527578534963062
-0.36150627396481133
0.11219915375823108
0.120200220356704
-0.37595223671404937
-0.11372022416732966
0.05696666675182838
-0.07602787661478218
-0.17859476898239995
0.03810471376612104
0.07187771330531227
-0.024750323268795255
0.09236068686719535
-0.04250032652729814
-0.15815461687812965
4.651153624695032E-4
0.0989423157147376
-0.03837903428552926
0.07605252694349719
0.1693208285761722
0.09893011011060103
0.16071243549822983
-0.3176153257858244
0.0591154199095996
0.05593973226648843
-0.4100042311900072
0.03366826980239062
0.07458348157266097
-0.0978228805447204
0.0736690879315121
-0.4519194666613823
-0.8076311171138563
0.007043810256464042
0.17280825679294431
-0.6180630048378281
0.48269876824495456
-0.35462938935536154
-0.07832815824690413
0.0718063412249053
0.18459578789129502
-0.06525759438228841
-0.07497555446840674
0.0828959082572099
-0.14193196091350282
0.035609858152368466
0.0566538908193543
0.11802521867478255
0.009818606283699837
-0.309350552022985
0.017083078206354567
0.042241641276782545
-0.012093712284061824
-0.0374840126075896
0.1132830304070498
-0.015550725729286547
-0.01731815120345898
0.12716746869258636
-0.04744086300884225
-0.1150151751542426
-0.0564124363148259
-0.033512210289999435
-0.23492750464936588
0.1582517564230278
0.02438820641930383
-0.007436672620046202
0.14436460471037452
0.034239587460528915
-0.06223497409895632
-0.08044186373554918
0.21583794502144432
-0.033330102017544244
-0.04378796213030735
-0.12630293775836168
0.01726473134450351
0.03339614146704704
0.06972612451784622
0.22888603264301755
-0.038610813994455234
0.04054139981599065
-0.14416646410480458
-0.0012613196665980592
0.06026431550651024
0.028757214443177206
-0.08186169277014956
0.07338866997400927
-0.20599524795160318
0.0428055202440738
-0.015556210499607185
0.24423279440768725
-0.0889144585000884
0.5038679451748953
0.13543080924195566
-0.01006205638199788
-0.07016135412579896
-0.04954383839900874
0.05687899483675546
-0.019584148036359685
0.05926927584125166
-0.020953653540299925
-0.025999858675552517
-0.020992468542085797
0.1831876211782026
-0.03869143678498424
-0.3179306164743645
0.11750143804227413
-0.03154084877329842
-0.009169435882661009
-0.06934336909435918
0.10072181989064914
-0.014537330562512928
-0.058197307530333836
0.02257729754768024
0.05061327771833616
0.07318084598721147
0.045239719119210105
0.10398515491526548
-0.36619711701311036
-0.2599248211398813
0.19049701913102976
0.1954771288969178
0.13670061607939507
0.16945466635351944
-0.11522002330799917
-0.6982303626226842
-0.2523331319558525
0.33756356917217045
0.05232522181008439
0.1583135988751234
-0.06755528205187712
-1.1223015120439206
-0.13516571899417126
0.47863353439169193
0.6535902814627637
0.04492053073514826
0.05100764242434138
-0.13483030021635747
0.05711014321349381
0.08232752515517165
-0.015154083673304312
-0.15993612699910378
-0.010860355544029077
-0.037251112846002334
-0.041418778802441714
0.010360000380162769
-0.04920351414269506
-0.49238186301299414
-0.4307314354307242
0.16527970747411683
-0.15584608628916602
-0.004166495103064046
-0.03438421999733079
-0.011792182942673276
-0.07524433468340261
-0.014994050979862507
-0.25049108149526433
0.14340561973263877
0.15184577207511166
0.29774593303155084
0.20170154649150648
0.20253450291127176
0.27344079147720934
-0.09739492497153815
-0.08741760703164268
0.08957687158622066
0.11097854014903749
-0.429208515891746
-0.08975829011661728
-0.06050439229074793
-0.06497711267367824
-0.047712560070794385
-0.1042899307773235
0.32087200957323003
0.029337621505781373
-0.13891813590256882
0.38096171216913605
0.11667769516441523
0.007694173984122054
0.03419985116527114
-0.015312924542777096
0.008364252131878958
0.026402042086186954
-0.011947176097685286
-0.1359942562660715
0.09619592095884882
-0.008540984147271682
0.003390966201161337
-0.030014437418386882
-0.28076657376890446
-0.007460097937899346
-0.03769139141721777
0.008630339427547058
-0.028150809632415074
0.11369258034589308
-0.13858838495269193
-0.14311453212754113
0.06038774738686435
0.09339076736828295
0.0503124304989813
0.1624016938235705
0.1633006037752108
-0.1506035850440858
-0.3859906882192478
0.20958066955165233
0.08806851097219391
0.039897037887159516
0.13629982441266209
0.033109631593651455
-0.056614521113894596
-0.08732324501920269
0.07343709344333489
0.07149153408148493
0.07405157078759143
0.06129237292150253
-0.013778382998755338
-0.4000232260435626
0.08745172164174003
0.30208025934638427
0.052588720044953824
0.004647450750356443
-0.10660320527569143
0.10665181008259633
0.018866709098873547
-0.013456073214765118
-0.04515918490154433
0.07966883149515144
0.0036865165349828717
-0.08344143791801625
0.04174006278077095
-0.22671537279870368
-0.01613439941558468
0.015034971748438859
-0.088702089232862
0.025563801601860503
0.06388094930613622
-0.01175909672587307
-0.037916403803120634
0.053707721899267626
0.020490479859088147
0.012040374969756431
-0.11289530379508136
-0.043510741304567196
0.0017844250514939982
-0.3827679410263636
-0.3390510141111747
-0.10985964983312344
0.10136643116899607
-0.03738200506167736
0.029030407925049576
0.06277168903453946
0.0975166077718952
-0.04209820012575339
-0.004889865555822905
-0.019953606550968176
-0.12647184943084527
0.029604295069727494
-0.03073816415142256
-0.04750513123484743
-0.0854669964939785
-0.2570054426502431
-0.31537078327949963
-0.530702146508583
-0.04281683418183637
0.05955839152388614
0.015779625309689793
-0.029581338573587114
-0.03529077521878577
0.04303909418145588
-0.022436388656091086
0.03241486757538077
-0.01710822433311285
-0.03226472723192064
-0.003995896520008302
-0.1644691811855655
-0.25759368519729486
-0.30588251473205574
-0.4714832595446445
-0.009490669248972421
-0.06996569892465503
0.09272522764782828
0.008921018845485558
-0.5481544530833135
0.030317917507997522
0.1503934055466486
-0.02949654094046997
0.1927345201301066
0.20459917831411356
-0.17354407315489193
-0.07199688203099795
-0.16694123506989383
0.48266438982112836
0.5519567688696312
-0.04348471423663591
0.03940500931424778
0.03117687842026423
-0.08526469952940174
0.068115977951704
0.05672806056856509
0.02825985242842707
0.018368053765878276
-0.0947539211007415
-0.09871730227563612
-0.07843856152536335
-0.006916391817439009
-0.26594283138847413
-0.37971163566584365
-0.6513068956329617
-0.14881423300627833
0.07994897460880632
-0.07367853082798823
0.03327257846499932
6.056290359724415E-4
0.09749793894630104
-0.16774061364850656
-0.155787274519145
-0.13933514501768
-0.12094368803807279
-0.052096108581318086
-0.1970917383796693
-0.4360126774024582
-1.109163979269058
-0.7672964404690501
-0.14678416304060668
0.0804688785426712
-0.07332104449081245
0.030172499451685403
5.988801376835477E-4
0.0978333024304569
-0.16574500375955478
-0.15515788894398613
-0.1389602001723692
-0.11989513887890915
-0.05159597548005612
-0.19560903145894148
-0.43327393806658315
-1.1080690283490142
-0.7653925001812649
-0.05647676431902924
0.022520730518527363
-0.03251995803880241
-0.008184216926875125
0.02091689006966257
0.07089844884910164
-0.10777516573687071
-0.063718049102313
0.010864387824673265
-0.03279088965188454
-0.0015368231822482704
-0.15245030598407255
-0.48111648179659555
-0.49910148898629814
-0.7123614756369612
0.044206666609700164
0.03635402243559013
0.0061040010423178545
0.01870146873563157
-0.015580991548424829
0.05578287212679618
-0.004727892561589466
-0.1879153673607691
-0.0026467533568593922
-0.06663886463909362
-0.03575755624498505
-0.06590256676985833
-0.8045945522272449
-0.5036595765184289
-0.7705748465573032
-0.4364448331446772
-0.005219391807985265
0.036661759574578685
0.012038973397747376
-0.011346165075297456
0.13668129372232346
-0.0572690430400778
-0.17450787492101535
-0.07278022306236975
-0.19906861921686556
0.014725642020620957
-2.154938711324898
-0.08653000303523797
-0.5677045623363459
-0.7207416988330124
-0.14601127501270902
0.0807244995322657
-0.07723884168774073
0.030375774354039035
7.496456716460775E-4
0.09805767267555368
-0.1653472031518276
-0.15480445065984136
-0.13827279896021147
-0.119534066589949
-0.051377632053980576
-0.19538076506725174
-0.43234369738558626
-1.1050942444950527
-0.765211630304122
-0.07579141797104577
0.0596896200957816
-0.06217812018545171
0.023839532520864203
0.025390298023537382
0.04823925645186811
-0.08914548524689578
-0.12745632183630728
-0.009338119027856969
-0.02979706070904789
-0.04131698926511834
-0.15302365166076515
-0.4118663747728132
-0.5865224707204554
-0.37998336590135445
-0.08913453422267596
0.06525215729113425
-0.05188419002007632
0.0472209833560706
0.01790049021105258
0.055107601037362654
-0.11389352493887964
-0.14257656804137164
-0.06359984086033495
-0.07964662582841799
-0.049288645509388204
-0.1322849720796997
-0.3927129093886516
-0.8394024156711326
-0.5500511545603382
-0.1260912165008238
0.06762114499142972
-0.0757647666722753
0.012511492995276345
0.014888216275342338
0.0816707698707271
-0.13248540921020843
-0.1241837160796212
-0.07285482203871177
-0.069168496091971
-0.03984880644085528
-0.1956678315840293
-0.39641324111967613
-0.8183858936521253
-0.5544585216360622
0.0022564677930755474
0.07221165943182585
0.09199850210866499
0.02998349398392137
-0.018730883095257493
-0.03622758761513776
-0.05424898150894016
-0.03526875385903785
-0.04565727132602392
-0.010787030816978694
-0.0797401837629864
0.10629067730992395
0.2918606958204839
0.2342388151738656
-0.17401135422448843
-0.3467229244663558
-0.0802290151622124
0.1519324631849421
-1.5436555981616669
0.07535328198738077
0.4130688593779915
-0.14037088311534662
0.5625260269667268
-0.33372433703409404
-0.06122672246557283
-0.5513564977249952
0.17191325763814322
0.48592345850665114
0.1437054570197433
-0.02642008333026088
0.019127141145786866
0.015457089587703818
7.63377413303479E-4
-0.003160695139603994
0.06967768706582135
-0.027351820928357445
-0.0036860067632496106
0.09788789744286855
-0.03152331436474777
0.14065342931764607
0.1323310196148743
-0.4639549507326511
0.024111758129821418
0.02782295579493806
0.1511352023334106
0.002609830574090714
-0.1673161495952602
-0.1168928736799379
0.04986816703045517
0.0437529625623508
-0.06777750138211765
0.08489486797340616
0.07943157515939042
0.16541057062088796
-0.08061284239302045
-0.12327566709334095
0.09364059019433221
0.05913477777123576
-0.3226277412697911
-0.09126573902598557
0.08653568124918508
-0.0023078946686340097
3.560350120240869E-4
0.01419055890272738
-0.6771737715870171
-0.022628153923470097
0.08811367265152625
0.0499716077462541
0.012096648004956837
0.008424181133291532
0.040482707971619285
0.029469739990027197
0.04757598982164561
0.038595176513533155
-0.033785623819157805
0.043560350020377725
-0.104120464646213
-0.022556584110986655
-0.09263624336069111
-0.04960636236626558
-0.06551433189409854
0.020041868008615734
-0.14347804590663882
-0.31173429078398385
-0.3265345740093356
0.033513642850502075
0.017335156795101628
-0.09618630487264741
0.019182712493743655
0.07521153495975176
-0.009756155231474646
0.1093321090905323
0.0595974936571875
-0.055304390446573856
-0.02227621730368213
0.19029502980176916
-0.2811404293747207
-0.20247804749226528
-0.3966533129757756
0.03873799651713063
-0.06539370849344972
0.03984245395640922
-0.006804457236368076
0.1210418757836194
-0.22819079209343593
-0.10681611861879547
-0.3410805719156751
-0.04887694014756692
-0.04103057128730331
-0.16673904232367334
-0.4331031440854407
-0.4068642291020989
-0.0955540228880394
0.01296695481262398
0.09573662377714426
0.02824690935448768
-0.09462058104167029
-0.02248361446278203
-0.035753637775118585
0.1638700994329578
0.0473508770684757
-0.018269044151182627
0.07620954641395138
-0.15378025805227946
0.12635112954171251
-0.029658893959304072
-0.05919547638074114
0.014742352312808016
-0.0397913065090536
0.10377586709942213
-0.04272129229552397
-0.046403012639646336
0.1593102678016626
-0.00590295784726096
-0.07076079009331705
0.13493801724335738
-0.032367980237558915
-0.2277860827568131
-0.29713740793943855
0.1456889396212551
-0.42734869408991066
0.08082053612494422
0.10792042627929951
-0.1603298752130456
-0.017162863626183703
0.09139798200249173
-0.028622930481071958
-0.0906396625830591
0.20013711090587236
-0.037172150138781786
-0.1831898899954737
-0.7663470939104349
-0.18529056882087455
0.2625380144769167
-0.1376920690814586
0.04255554198688489
0.2708522842002565
-0.12853189780174873
-0.5345355640112551
-0.3288278429239056
0.3010947357515637
0.0121105423056179
0.25985578892341976
-0.09363358101540598
-0.013272488483403526
0.23820549828037266
0.28326379034032756
0.3215256463645544
-0.05554113634049114
0.03417665757223714
-0.05160836680870334
-0.00806570167084955
-0.3374420934722773
0.1450126065890587
0.12774136126177293
-0.4522831338789504
-0.10391790502783138
0.006124580208494863
-0.8831043632721157
0.07455583385724722
0.4488076560183804
0.16219028312866096
0.08458700273285537
0.03477844137630606
0.0779091590139779
0.007979122821701233
-0.12750070237654104
0.040743149062084656
-0.09115485198244315
0.06880798142693687
-0.02626965430821661
-0.12322429066859093
0.022567696680432688
-0.03610264044131261
0.06750975435969518
-0.279536787011532
0.2029862379053279
-0.12027040792802404
0.045001325972080994
-0.07039967397541988
-0.06304505775866269
-0.02996896845348737
-0.23674083924894834
0.12338067888460495
-0.5323586667262163
0.3662414327224864
0.049050910220673496
0.25298052001356464
-0.2034727159069692
0.5299206029257064
-0.2167096339787113
0.06593411297991336
-0.12381462834317278
-0.042860428773410376
0.06858378831723995
0.12505395291750127
-0.25983468061323595
-0.2362500402560239
-0.019454118431700945
0.10790676042266853
-0.383459296631026
-0.07606979494638248
-0.45397611335784166
-0.19423983613964355
-0.10708760515586166
-0.12104015928433438
0.07491060886006419
0.1210154702385031
0.102387620997124
-0.07675802465170946
-0.07570296246351525
0.01269750861691796
0.04089368846801296
0.052996539407905115
0.05071127142607058
-0.3045718331072958
0.4077306811490765
0.24707612459432532
0.06217108651544263
0.03240809748058091
0.10004185835303225
-0.05639500150614743
-0.01825699058186308
-0.0015861261990767247
0.017725119459134107
0.1579254511001533
-0.035018161128690765
-0.004081747579436655
-0.0209739858851144
-0.024190374923292464
-0.14361705258530638
-0.1238810125795694
0.17446031723890373
0.01221918510937459
-0.12708118077085542
-0.08167327507968436
0.1124440964231577
0.03187599107150264
-0.035985814778725464
-0.044254374712279436
-0.1265271637433429
0.19635445784854247
-0.17710028182881005
-0.9439934080910604
0.20966372223505522
0.17176807044219913
0.3347580098021923
-0.02982248069618203
0.389976209586666
-0.171676782860933
-0.05132495015162445
-0.012254862158420083
-0.38273909654998955
-0.47447938019332303
-0.04722795277723639
-0.10893202861516564
-0.9235131308205768
0.0568051555798458
0.6820772297439274
0.48305814814810116
0.009427298840080724
-0.153758604385668
0.07492091801303695
-0.49650851696671167
-0.0020360007119499222
-0.38476335724741
0.07145542284816568
0.2743229954837227
0.1650012125462977
-0.2873541969983242
0.08921734304152641
0.9801990495675419
0.2590379617386456
-0.07734111472937878
0.14859733462427582
0.056743696838078055
-0.14731664499997688
-3.784691701406256E-4
0.05660495394103393
0.02323854942117565
0.051598947461812136
0.1871627587063389
-0.3613470615131573
0.01789139691914455
0.290581909299454
0.20032351072725676
-0.3196660931286428
-0.04010276243186932
0.0349427280465471
0.04594772956568233
0.16413804210085872
0.06291856179457117
-0.2080350679619766
-0.11078400925381485
-0.07079379107423078
-0.33582181151916857
0.02592908595252008
0.34911170868641517
0.6549538634655376
-0.6576154682211134
-0.0711690731461139
0.15732626078237838
0.04349605580982922
-0.10182580970754435
-0.02170923617310527
0.04848641912068787
0.1241820300765738
0.10535057835498753
-0.1915821276574211
0.05077392163159243
0.24958902920587497
0.9496118786274639
0.15803938034749387
-0.051474298376286504
0.06753523206406588
0.09976833554082695
-0.4069563507529801
0.05471835291179127
0.0702433795737987
0.05121902455545032
-0.07171090161505238
-0.017129338093195563
0.114485867468168
-0.0445972418923536
0.713812682925289
0.2607998648896758
0.09151936659321183
-0.09063073090042507
0.017812418173392793
-0.04610746513852797
-0.05167589097386611
0.10073869014205333
0.06383440992469128
0.06463148684134909
0.0013392892454051392
0.05293548689021867
0.09501585933968236
0.12507901029388205
0.2129183442393823
0.05147761370439986
0.12341157083923816
-0.7277401931800513
-0.3019929411760122
0.19953341890958015
0.31484566946319986
-0.3293454999208776
-0.1959967880060961
-0.2757217218444162
0.9535774789971321
0.15759998279956325
-0.026287668247349856
-0.03490821779953345
-0.1052983379731335
0.017505010623338167
0.020574417308978313
0.32891564666476447
-0.009096904243164065
-0.38798557867940064
0.10467105310957112
0.09538091638401358
0.6151491800075571
0.0782552424721637
-0.01096684107974425
-0.04581448939403157
-0.1890509409082899
0.06180799398560943
0.07798070436355216
-0.37503441913323676
-0.022812098432544586
-0.6127997275515464
0.33357604183230233
0.036791902453072116
0.6027909336984237
0.09385503204933739
0.07345311825281299
0.2693909093393667
-0.06740305450251488
-0.2476292858082339
-0.16536275429077893
0.25324903935748494
-0.3205906801024042
0.26424118694360077
0.12496105391068736
-0.06229206151964528
0.14243582572421531
0.7357343618399095
-0.22301654110265592
0.16856130956898752
-0.18106665181218604
-0.036995220379644124
-0.10008472907140628
0.03781701111750381
0.03301951363980377
-0.11299048669254472
0.06557075284108325
0.017726236143576084
-0.514231006558313
0.38762992419030967
0.704037095654427
-0.35865494936471876
0.06393961202853583
-0.07478378703014425
-0.09764830026425965
0.015587970990771392
0.13336261348032652
-0.15277864289628998
0.04522625355848949
-0.09659970975778531
0.05768651589034102
-0.18285794781442566
-0.17186127777905855
-0.24443583532863097
-0.4641034440160398
-0.21454363481061076
-0.0024891743168021733
0.07990345350119805
0.16073730409620182
0.037883661559760036
-0.3865881837671001
0.13659166583654497
-0.9246546585097675
-0.04846198185734469
-0.10852810602100571
0.5355594468876453
0.548012026384331
0.20040276708237229
-0.3245047957942206
0.550130808694579
0.0017944124823988056
-0.6574172029947106
-0.19091016407770087
0.3752778256198501
-0.07462613042371373
-0.2858061011356927
0.004427322168000159
-0.3332778789937958
0.8562292067040197
-0.004380063141159527
0.23980995134934424
0.07939900927357944
-0.007682548214142115
-0.3344841777774147
0.034478286945259354
-0.8243738617642552
-0.07743035962204689
-0.6053976986409797
-0.06761801857886857
-0.2076018826723455
1.016609289493605
0.5513648964426042
0.2753450263683883
-0.15220002449250036
-0.2629348341340359
-0.5597056673078833
-0.04984459461986506
-0.09710036391726296
0.11251372223465292
-0.4339930331741866
-0.7167981965196153
0.09585770565437088
0.4924471597427843
-0.3144973180391007
0.15831461439539757
0.2982244954982374
0.09592367244581645
-0.8482135036926609
-0.159271357257791
0.14921148670119685
0.2981343434579267
-0.02350381242471061
0.19056625411209355
-0.01336786855378919
-0.08631905100099314
-0.04669670907861448
-0.13089856666017266
0.25829808010412286
0.1770966000802752
0.006353382963752724
0.2098305248535452
0.16178540632351948
-0.015304950699087827
0.1932417535245119
-0.18151389386683714
-0.5497331371793197
0.285177505634924
0.5169482303054306
-0.2415822036967214
0.08731757595023576
-0.5080184844496062
-0.043931363100663146
-0.10812106521822648
0.36523544888766113
-0.4473542109407858
0.07825793255260025
-0.10967277973350963
-0.0032161641951218897
0.18497600497843636
-0.07594123552303476
0.37829851074248955
-0.24707790144601904
-0.6260154116058366
-0.2402110044101585
0.32577036294218154
0.0021471637605968335
0.29053658459083986
-0.2770448854355728
0.05466484038622105
0.07530581979480455
-0.6292094793957584
-0.7699203519465017
0.4273512631866116
-0.383946505321404
-0.21649889106664336
0.11042303263815774
-0.04058784721420172
-0.23071529920648817
0.07561806040187531
0.12301477532461517
0.3249900352959543
-0.18093696697999118
0.05509741635936673
-0.2998921513534835
0.21465120174359115
0.09369717731444417
0.18285286563353922
-0.6207628052819871
-0.5372409951594906
0.05125433927667255
0.6437950065163858
0.24748114041090866
0.4597673842739158
-0.12319359558738609
0.2695245864212883
-0.11605388556341184
0.04853827439455761
-0.12605668559646427
0.17908923896261603
-0.09170633152898795
0.5306426125453277
-0.5457453133175301
0.0874988697606792
0.06113963718603742
-0.04255450488489963
-0.29567008635420394
0.3971500479155575
0.06529959694680684
-0.5317771547569354
-0.34766134963996503
0.41033678557667674
0.009391605431478834
0.22596260843671548
-0.0502781800761441
-0.560379982218294
-0.1086302741579511
-1.1405714594814251
-0.13955278064147975
0.34658283993333855
-0.039996511198643066
-0.6840819580015222
-0.3672065118370348
-1.7357975315910257
-0.41241588731117323
-0.3650326697782005
0.0032714136203663225
-0.013050479587503298
-0.04499520933015423
-0.05985796616574281
0.17346066778164523
0.06504853245784314
-0.38280460415468487
-0.6851246750247048
0.0019210424158078317
-0.16914933610189087
-0.2545068107562927
0.2628871534815688
0.10602394279449208
0.08062041678255484
0.17180364118054767
-0.044993030743827205
-0.1690289184911561
-0.1333913184741709
0.11897464167713874
-0.06552555148588927
-0.0899410118152851
-0.37011055832994244
0.5093178333239303
0.2479915138260765
-0.044759400739662815
0.1562570863996265
-0.46139342980855547
0.07246465879260877
0.027456863498439753
-0.007133740181520737
0.17995698559417403
0.23950351464210312
-0.01768376618965101
0.43201613584853243
0.7046678143687063
0.08721998748839709
-0.08431226847259167
0.12183021867945361
0.04077166369642757
-0.3364075972948056
-0.3828751230979537
-0.0864956450770806
-0.3513498152481406
0.39684437462064365
0.2571333973175158
0.4739403797071426
0.7069876762571087
0.6422011896543373
0.113471004857592
0.35786345045176016
-0.0369100320999613
-0.21255654151978262
-0.13324153923482412
0.19914329621864782
0.24069860889982156
0.45821132368700224
0.016885420001493675
-0.02481644405060752
-0.029594904188212718
-0.6624260152503078
0.023556522195262372
0.3708844962301143
0.3431278229074121
-0.12498007668415621
-0.3391920998384716
-0.300627447195598
-0.37850639866665475
-0.4100467936469183
0.10594492730929461
0.20472856616933977
-0.13975005511857969
0.13841346465657925
0.3660664360212632
-0.0715707537816773
-0.2203588399905502
0.13298516162210894
0.7976924196562875
0.23715842802343395
-0.24535518796004738
0.15225389962363942
-0.0836584850414329
-0.1947944804962371
0.09622010433564931
-0.2028567535327666
0.006310216235309023
0.2830804894441382
-0.00949419258388672
0.6809961821597209
0.5690422123184846
-0.02570227635922777
