GIS
1
0.0
16
Purpose
Circumstance
Temporal
Concession
Contrast
Conjunction
Restatement
Continuation
Cause
Alternative
Instantiation
Exception
Condition
Reinforcement
Background
Similarity
56
351 0
2 0 1
1 0 1 2 3 4 5 6 8 9 11 12 14
1 0 1 2 4 5 8
1 0 2 3 4 5 7 8 9 13
2 0 2 3 5 7 8 13
1 0 2 3 8 12
1 0 2 5 7 8
5 0 2 8
1 0 4 6 10
1 0 4 8
5 0 8
5 1
71 1 2
1 1 2 3 4 5 6 8 9 12 13 14 15
5 1 2 8
6 1 2 12
2 1 3 4 14
4 1 12
2 1 13
216 2
3 2 3 4 5
1 2 3 8
1 2 4 5 6 8 10 13
1 2 4 6
50 2 5
1 2 5 6
1 2 5 7
3 2 5 8
1 2 5 9
4 2 6
5 2 8
2 2 8 14
3 2 12
65 3
15 3 4
39 4
1 4 8 10
131 5
1 5 7
5 5 8
37 6
4 6 8
3 6 8 14
1 6 10
5 7
1 7 13
183 8
1 8 11
8 8 14
51 9
18 10
10 11
20 12
9 13
4 15
1372
with_prev_full:branching_through
with_prev_full:responsible_for
with_prev_full:tool_in
with_prev_full:processed_for
with_prev_full:functions_by
with_prev_full:tissues_through
conn:particularly_through
conn:for
with_prev_full:aligned_by
with_prev_full:results_in
with_prev_full:trials_in_order_to
with_prev_full:collected_for
with_prev_full:drawn_by
with_prev_full:reference_for
with_prev_full:for_by
conn_lc:in_part_via
with_prev_full:t-cells_both_in_response_to
with_prev_full:disease_by
conn:To
with_prev_full:digested_by
with_prev_full:site_for
with_prev_full:resorption_by
with_prev_full:function_by
with_prev_full:required_to
with_prev_full:act_through
with_prev_full:supported_to
conn:both_in_response_to
with_prev_full:gene_through
with_prev_full:smad2\/3_to
with_prev_full:affected_by
with_prev_full:inhibition_by
with_prev_full:ks_by
with_prev_full:calcium_through
with_prev_full:pathway_through
with_prev_full:formed_by
with_prev_full:agarose_to
with_prev_full:elongating_by
with_prev_full:phenotypes_by
with_prev_full:chosen_in_order_to
with_prev_full:sensitive_to
with_prev_full:phenotype_by
with_prev_full:footnote_for
conn_lc:for
with_prev_full:produced_by
with_prev_full:inverted_by
conn:specifically_to
with_prev_full:amplification_for
with_prev_full:shut-off_by
with_prev_full:signal_through
with_prev_full:signals_to
with_prev_full:cell_by
with_prev_full:parameters_in_order_to
with_prev_full:-lrb-_by
with_prev_full:stroma_by
with_prev_full:studied_by
with_prev_full:that_by
with_prev_full:cells_by_means_of
with_prev_full:elicitation_to
with_prev_full:approach_to
with_prev_full:section_to
with_prev_full:buffer_to
with_prev_full:abolished_by
with_prev_full:quantitated_by
with_prev_full:checked_via
with_prev_full:round_to
with_prev_full:calculated_by
with_prev_full:mite_to
with_prev_full:naoh_in_order_to
conn_lc:in_large_part_by
with_prev_full:screen_to
with_prev_full:lap_to
with_prev_full:exemplified_by
with_prev_full:assays_in_order_to
with_prev_full:stimulation_by
with_prev_full:assessed_through
with_prev_full:blood_by
with_prev_full:transcription_in_order_to
with_prev_full:computed_to
with_prev_full:measure_to
with_prev_full:systems_to
with_prev_full:diminished_by
with_prev_full:established_by
with_prev_full:tested_by
with_prev_full:fails_to
with_prev_full:jak_by
with_prev_full:hybridisation_to
conn:primarily_by
with_prev_full:constructed_for
with_prev_full:enough_to
with_prev_full:,_in_part_via
with_prev_full:signaling_by
conn:Via
with_prev_full:cells_to
with_prev_full:fragments_by
with_prev_full:hes-1_by
with_prev_full:region_for
with_prev_full:simulation_to
with_prev_full:occur_by
conn:In_order_to
with_prev_full:clustering_to
with_prev_full:visualised_by
with_prev_full:h._for
with_prev_full:inflammation_by
with_prev_full:controls_to
with_prev_full:cells_through
with_prev_full:proposed_to
with_prev_full:purified_by
with_prev_full:difficult_to
with_prev_full:coordinated_to
with_prev_full:centrifuged_to
with_prev_full:microarrays_in_order_to
with_prev_full:added_by
conn:via
with_prev_full:arthritis_by
with_prev_full:defined_by
with_prev_full:responses_by
with_prev_full:cluster_to
with_prev_full:activity_by
with_prev_full:receptors_to
with_prev_full:controlled_by
conn:through
with_prev_full:useful_for
with_prev_full:cause_for
with_prev_full:useful_to
with_prev_full:production_in_part_by
with_prev_full:expression_by
with_prev_full:sarcoma_by
with_prev_full:instructive_by
with_prev_full:determined_by
with_prev_full:panel_for
with_prev_full:sequence_predominantly_via
with_prev_full:tolerance_to
with_prev_full:but_to
with_prev_full:silenced_by
with_prev_full:protein_to
with_prev_full:,_through
with_prev_full:signals_through
with_prev_full:gene_by
with_prev_full:essential_for
with_prev_full:not_to
with_prev_full:,_particularly_through
with_prev_full:manipulated_to
with_prev_full:oligonucleotide_to
with_prev_full:collected_by
with_prev_full:completely_by
with_prev_full:investigated_by
with_prev_full:signalling_to
with_prev_full:-lrb-_via
conn:by_means_of
with_prev_full:down-regulation_via
with_prev_full:bear_to
conn_lc:predominantly_via
conn_lc:in_order_for
with_prev_full:left_to
with_prev_full:population_to
with_prev_full:not_through
conn:For
with_prev_full:,_particularly_to
with_prev_full:azadc_to
conn:Through
with_prev_full:blotting_to
with_prev_full:augmented_by
with_prev_full:verified_by
with_prev_full:employed_to
with_prev_full:gy_to
with_prev_full:expression_to
conn_lc:specifically_to
with_prev_full:estimated_by
with_prev_full:min_to
with_prev_full:selection_via
with_prev_full:loop_to
with_prev_full:neurons_by
with_prev_full:rescued_by
with_prev_full:developed_for
with_prev_full:measured_by
with_prev_full:induced_by
with_prev_full:depleted_by
with_prev_full:identified_by
with_prev_full:tissue_through
with_prev_full:ligand_to
with_prev_full:used_to
with_prev_full:performed_to
with_prev_full:tissues_by
with_prev_full:,_to
with_prev_full:fusion_to
with_prev_full:depicted_by
conn:in_part_via
with_prev_full:out_by
conn_lc:particularly_through
with_prev_full:included_to
conn:to
with_prev_full:standard_to
with_prev_full:ensured_by
with_prev_full:procedure_to
with_prev_full:signals_by
with_prev_full:cells_by
with_prev_full::_in_order_to
with_prev_full:encoded_by
with_prev_full:selected_by
with_prev_full:regulated_by
with_prev_full:confirmed_by
with_prev_full:paraformaldehyde_to
with_prev_full:-rrb-_to
with_prev_full:panel_to
conn_lc:in_order_to
with_prev_full:studies_to
with_prev_full:calcium_for
conn_POS:IN_DT_NN_TO
with_prev_full:made_by
with_prev_full:failed_to
with_prev_full:-rsb-_to
with_prev_full:plated_for
with_prev_full:conceived_by
with_prev_full:-rrb-_specifically_to
with_prev_full:role_for
with_prev_full:simulations_to
with_prev_full:shown_by
with_prev_full:homogenized_by
with_prev_full:evaluated_by
conn_POS:IN_NNS_IN
with_prev_full:specificity_by
with_prev_full:pbmncs_to
with_prev_full:captured_by
with_prev_full:marker_for
with_prev_full:test_by
conn:in
with_prev_full:mediated_by
with_prev_full:derived_by
with_prev_full:pathway_to
with_prev_full:prepared_by
with_prev_full:constructed_by
with_prev_full:organogenesis_through
with_prev_full:stopped_by
with_prev_full:coagulation_by
with_prev_full:excluded_by
conn:predominantly_via
with_prev_full:level_to
conn:mainly_by
conn:in_large_part_by
with_prev_full:numbers\/activity_to
with_prev_full:normally_by
with_prev_full:response_by
with_prev_full:cd69_to
conn_lc:by_means_of
with_prev_full:achieved_by
with_prev_full:seb_by
with_prev_full:annotated_by
with_prev_full:tissue_by
with_prev_full:primers_to
with_prev_full:accomplished_in_large_part_by
conn_lc:in_an_effort_to
with_prev_full:expressed_by
with_prev_full:gene_to
conn_lc:primarily_by
with_prev_full:c_to
with_prev_full:leukaemogenesis_by
conn_POS:TO
with_prev_full:done_by
with_prev_full:,_in_part_by
with_prev_full:reduced_by
with_prev_full:overcome_by
with_prev_full:erg_to
with_prev_full:reversed_by
conn_lc:to
with_prev_full:activated_by
conn:In_an_effort_to
with_prev_full:dnase_to
with_prev_full:treg_to
with_prev_full:branching_by
with_prev_full:function_in_order_to
with_prev_full:,_mainly_by
conn:By
with_prev_full:treated_by
with_prev_full:around_to
with_prev_full:right_to
conn:In_order_for
with_prev_full:strategies_for
with_prev_full:performed_by
conn_POS:DT_IN_NN_TO
with_prev_full:crucial_for
with_prev_full:,_by_means_of
with_prev_full:primarily_via
with_prev_full:observed_in_order_to
with_prev_full:,_via
conn:particularly_to
with_prev_full:dnas_for
with_prev_full:suppression_to
with_prev_full:follicles_for
with_prev_full:population_through
with_prev_full:detected_via
with_prev_full:assessed_by
with_prev_full:translocations_by
with_prev_full:isolated_by
with_prev_full:indirectly_by
with_prev_full:abrogated_by
with_prev_full:sensitivity_to
with_prev_full:strategy_for
with_prev_full:-rrb-_by
with_prev_full:sites_by
with_prev_full:mrna_for
with_prev_full:explained_by
with_prev_full:amplification_to
conn_lc:mainly_by
with_prev_full:other_to
with_prev_full:neutralized_by
with_prev_full:stimulated_by
conn_lc:both_in_response_to
with_prev_full:unresponsiveness_by
with_prev_full:achieved_primarily_by
with_prev_full:obtained_by
with_prev_full:extended_to
with_prev_full:death_through
with_prev_full:triggered_by
with_prev_full:explanation_for
with_prev_full:respond_by
with_prev_full:occur_through
with_prev_full:results_to
with_prev_full:pathway_by
with_prev_full:detected_by
with_prev_full:initiated_by
with_prev_full:micropipette_to
with_prev_full:generated_by
with_prev_full:genes_through
conn:in_order_to
conn_lc:particularly_to
with_prev_full:background_to
with_prev_full:pbmc_by
with_prev_full:cells_via
with_prev_full:samples_by
with_prev_full:sufficient_to
with_prev_full:recombination_to
with_prev_full:quantitatively_by
with_prev_full:analyzed_by
with_prev_full:methylation_via
with_prev_full:chosen_to
with_prev_full:,_by
conn_lc:via
with_prev_full:recombinase_to
with_prev_full:field_in_order_to
with_prev_full:species_by
with_prev_full:downstream_by
with_prev_full:curation_to
with_prev_full:osteoclasts_through
with_prev_full:transientlyco-expressed_via
with_prev_full:regulation_via
with_prev_full:probe_in_order_to
with_prev_full:dictated_by
with_prev_full:quantified_by
with_prev_full:levels_by
with_prev_full:used_for
conn_lc:through
conn:In
conn_lc:in
conn_POS:IN
conn_POS:IN_NN_TO
conn_POS:CC
conn:and
conn_lc:and
conn_POS:RB_IN
with_prev_full:,_and
conn_POS:RB_TO
conn_lc:by
conn_lc:as
conn:by
conn:As
conn_POS:NNP
conn_POS:IN_NN_IN
with_prev_full:inhibited_by
conn_POS:IN_JJ_NN_IN
conn_lc:in_part_by
conn:in_part_by
with_prev_full:activation_by
with_prev_full:but_once
with_prev_full:produced_in_response_to
with_prev_full:pdcs_once
with_prev_full:identically_when
with_prev_full:animals_in_response_to
with_prev_full:activity_after
with_prev_full:mrna_upon
with_prev_full:equivalent_when
with_prev_full:phosphorylated_upon
with_prev_full:cases_after
with_prev_full:-rrb-_when
with_prev_full:obtained_when
conn:both_upon
with_prev_full:,_when
with_prev_full:that_when
with_prev_full:cells_after
with_prev_full:ability_once
with_prev_full:ifn-γ_after
with_prev_full:upregulation_four_hours_after
with_prev_full:supershift_when
with_prev_full:efficient_when
with_prev_full:cells_both_upon
conn_lc:between_1_2_h_after
conn_POS:RB_WRB
with_prev_full:achieved_after
conn_lc:only_when
with_prev_full:cell_after
conn_lc:both_upon
with_prev_full:phosphorylation_in_response_to
with_prev_full:bmp-6_upon
conn_POS:IN_CD_CD_NN_IN
conn_POS:CD_NNS_IN
with_prev_full:aa_upon
with_prev_full:eliminated_when
with_prev_full:cells_once
with_prev_full:confirmed_when
with_prev_full:event_in_response_to
conn:Upon
with_prev_full:observed_when
with_prev_full:amplified_after
with_prev_full:marker_when
with_prev_full:post-induction_when
conn:In_response_to
with_prev_full:shifted_after
conn:between_1_2_h_after
conn:upon
with_prev_full:il-2_in_response_to
conn:four_hours_after
with_prev_full:tip_when
with_prev_full:level_after
with_prev_full:vivo_when
with_prev_full:h_after
with_prev_full:tissues_in_response_to
conn_POS:DT_IN
with_prev_full:gamma_after
with_prev_full:detected_when
with_prev_full:transcripts_after
conn:after
with_prev_full:hours_after
with_prev_full:formation_when
with_prev_full:responsiveness_upon
conn_lc:upon
with_prev_full:induced_after
with_prev_full:detected_after
with_prev_full:-_when
with_prev_full:activity_when
with_prev_full:secretion_upon
with_prev_full:higher_when
with_prev_full:occurring_between_1_2_h_after
conn_lc:four_hours_after
conn:only_when
with_prev_full:seen_after
with_prev_full:p56lck_after
with_prev_full:mrna_after
with_prev_full:aa_after
with_prev_full:augmented_only_when
conn_POS:RB
conn:in_response_to
with_prev_full:stability_in_response_to
conn_lc:in_response_to
conn_lc:after
conn:After
conn_POS:WRB
conn_lc:when
conn:when
conn:When
conn_lc:once
conn:once
conn_lc:however
conn:However
with_prev_full:mice_if
conn:If
conn_lc:if
conn:if
conn_lc:indeed
conn:Indeed
with_prev_full:to_after
with_prev_full:inflammation_following
with_prev_full:differentiation_after
with_prev_full:occurred_after
conn_lc:after_which
conn_lc:30_minutes_prior_to
with_prev_full:enhanced_upon
with_prev_full:protein_then
with_prev_full:thymidine_after
conn:at_some_point_after
conn:20_min_later
with_prev_full:delivered_prior_to
with_prev_full:and_in_turn
with_prev_full:for_after
conn:during
conn_lc:forty-eight_hours_after
conn_lc:before
conn_POS:CD_CD_NNS_IN
with_prev_full:sequenced_after
conn:On
with_prev_full:detected_upon
conn:Since_then
with_prev_full:and_when
with_prev_full:ends_after
conn:three_days_before
with_prev_full:il-2_following
conn_lc:on
conn_lc:thereafter
with_prev_full:-rrb-_after_which
conn:Three_days_after
conn:8_12_weeks_after
with_prev_full:column_after
with_prev_full:slip_before
with_prev_full:this_then
with_prev_full:line_after
with_prev_full:clefts_before
conn:until
with_prev_full:pdcs_after
conn_POS:CD_NNS_RB_TO
with_prev_full:,_after
with_prev_full:also_after
with_prev_full:subcutaneously_three_days_before
conn_POS:IN_RB
with_prev_full:ancrod_prior_to
with_prev_full:c_followed_by
with_prev_full:observed_as_early_as_24_h_after
conn_lc:hereafter
conn_lc:immediately_after
with_prev_full:,_followed_4_hours_later_by
with_prev_full:death_after
with_prev_full:c_until
with_prev_full:augmented_after
conn:30_minutes_prior_to
with_prev_full:regulated_following
with_prev_full:nodes_following
with_prev_full:responses_following
with_prev_full:tasks_during
with_prev_full:mainly_after
with_prev_full:arthritis_in_response_to
with_prev_full:permeabilized_prior_to
conn:During
conn_lc:as_early_as_24_h_after
conn_lc:2_hours_following
with_prev_full:-rrb-_following
conn_lc:subsequently
conn_lc:prior_to
conn:One_day_after
with_prev_full:assessed_before
with_prev_full:cdna_then
with_prev_full:regression_before
conn:prior_to
with_prev_full:induction_followed_by
conn_lc:one_day_after
with_prev_full:retained_after
conn_lc:until
with_prev_full:analyzed_8_12_weeks_after
with_prev_full:h._thereafter
with_prev_full:cassette_after
with_prev_full:c._following
conn:followed_4_hours_later_by
with_prev_full:cluster_before
with_prev_full:upregulation_two_hours_after
with_prev_full:-rrb-_two_hours_before
conn_POS:RB_RB_IN_CD_NN_IN
conn:Thereafter
with_prev_full:staining_following
with_prev_full:activated_following
with_prev_full:hour_prior_to
conn_POS:CC_IN
conn_POS:CD_NN_RB
conn_lc:20_min_later
with_prev_full:pathway_following
with_prev_full:s_followed_by
with_prev_full:was_next
conn:after_which
with_prev_full:c-jun_following
with_prev_full:separately_when
with_prev_full:min_after
with_prev_full:expand_following
conn:as_early_as_24_h_after
with_prev_full:rt-pcr_after
with_prev_full:cells_180_seconds_after
with_prev_full:,_before
conn_lc:following
with_prev_full:accumulate_following
conn:180_seconds_after
conn_lc:three_days_before
conn_lc:during
conn:following
with_prev_full:observed_until
with_prev_full:hour_following
with_prev_full:function_while
with_prev_full:occurring_at_some_point_after
conn:hereafter
with_prev_full:smads_then
with_prev_full:done_after
with_prev_full:we_then
conn_lc:followed_4_hours_later_by
with_prev_full:-rrb-_prior_to
with_prev_full:was_subsequently
with_prev_full:dnmts_during
with_prev_full:measured_after
with_prev_full:il-10_before
with_prev_full:stochastically_after
with_prev_full:signal_after
with_prev_full:expression_2_hours_following
with_prev_full:were_then
conn:well_before
with_prev_full:bound_following
with_prev_full:role_during
with_prev_full:and_after
with_prev_full:thymus_after
conn:immediately_after
with_prev_full:,_well_before
with_prev_full:activation_following
conn_lc:two_hours_after
with_prev_full:and_subsequently
with_prev_full:staining_after
with_prev_full:analyses_hereafter
with_prev_full:night_before
conn:before
with_prev_full:similarities_during
with_prev_full:harvested_20_min_later
conn_lc:well_before
with_prev_full:gene_after
with_prev_full:observed_after
with_prev_full:follicles_following
conn:Four_days_after
with_prev_full:c._finally
with_prev_full:treated_while
with_prev_full:complicatedly_upon
with_prev_full:pbmncs_prior_to
conn:2_hours_following
with_prev_full:changes_when
conn_lc:8_12_weeks_after
with_prev_full:1994_when
with_prev_full:secretion_following
with_prev_full:enrichment_prior_to
with_prev_full:observed_following
with_prev_full:hours_before
with_prev_full:which_subsequently
conn:two_hours_after
with_prev_full:,_following
with_prev_full:,_both_upon
conn:Following
conn:Forty-eight_hours_after
with_prev_full:occurs_when
with_prev_full:;_subsequently
conn:Once
with_prev_full:immunoblotting_after
with_prev_full:production_upon
with_prev_full:-rrb-_before
with_prev_full:amplification_when
with_prev_full:points_before
conn_lc:two_hours_before
with_prev_full:account_when
with_prev_full:analysis_after
conn_POS:JJ_NNS_IN
with_prev_full:was_then
with_prev_full:sick_following
conn:subsequently
conn_lc:since_then
with_prev_full:phospho-p38_upon
with_prev_full:added_following
with_prev_full:and_then
with_prev_full:-rrb-_after
with_prev_full:synovium_following
with_prev_full:cross-linking_after
with_prev_full:cells_subsequently
with_prev_full:cells_following
with_prev_full:occurring_immediately_after
conn_lc:at_some_point_after
with_prev_full:less_after
with_prev_full:seen_following
conn_POS:CD_NNS_VBG
with_prev_full:performed_following
with_prev_full:transfected_after
conn:Then
conn_lc:three_days_after
conn_POS:VBD_CD_NNS_RB_IN
with_prev_full:pcr_after
conn:two_hours_before
with_prev_full:secreted_following
with_prev_full:twice_prior_to
with_prev_full:apoptosis_after
with_prev_full:that_during
with_prev_full:h_before
with_prev_full:ug\/ml_30_minutes_prior_to
with_prev_full:induction_upon
with_prev_full:rna_when
with_prev_full:performed_prior_to
conn:Two_hours_after
conn_lc:180_seconds_after
conn:Subsequently
with_prev_full:visible_following
conn_lc:four_days_after
with_prev_full:,_while
conn_lc:while
conn:while
conn_POS:IN_DT_NN_IN
conn_POS:IN_NN
conn_POS:VBG
conn_lc:finally
with_prev_full:naoh_and
with_prev_full:c_and
with_prev_full:i.v._and
conn:next
with_prev_full:,_finally
conn_POS:VBD_IN
with_prev_full:probe_and
with_prev_full:filters_and
conn_lc:second
with_prev_full:extracted_and
with_prev_full:densitometry_and
conn:Third
conn_lc:next
with_prev_full:mice_and
conn:Finally
with_prev_full:h_and
with_prev_full:sieve_and
with_prev_full:we_next
with_prev_full:mats_and
conn_lc:10_min_before
conn_POS:CD_NN_IN
conn_lc:followed_by
conn:10_min_before
with_prev_full:later_and
with_prev_full:electronically_and
conn:Next
conn_POS:LS
with_prev_full:isolated_and
with_prev_full:added_10_min_before
with_prev_full:were_finally
conn:Second
conn:followed_by
with_prev_full:harvested_and
conn:In_turn
with_prev_full:sample_and
with_prev_full:medium_and
with_prev_full:times_and
with_prev_full:added_and
with_prev_full:seb_and
with_prev_full:sacrificed_and
with_prev_full:igm-ic_and
conn:finally
with_prev_full:,_followed_by
with_prev_full:growth_while
with_prev_full:ice_and
with_prev_full:activation_and
with_prev_full:,_in_turn
with_prev_full:nuclei\/ml_and
conn_lc:third
conn_POS:JJ
with_prev_full:-rrb-_and
with_prev_full:this_in_turn
conn_lc:in_turn
conn:in_turn
conn_POS:NN
with_prev_full:,_then
conn_POS:IN_WDT
conn:then
conn_lc:then
with_prev_full:occur_in_response_to
conn:as
with_prev_full:decreased_by
conn:Since
with_prev_full:,_as
conn_lc:since
conn_POS:VBN_IN
with_prev_full:arise_when
with_prev_full:model_when
with_prev_full:,_once
conn:none-the-less
with_prev_full:,_regardless_of
with_prev_full:yet_still
conn_lc:despite_the_fact_that
with_prev_full:treg_although
with_prev_full:-rrb-_but
with_prev_full:,_although_although_these_cells_still
conn:despite
conn_lc:despite
with_prev_full:performed_but
conn_lc:none-the-less
with_prev_full:that_whilst
with_prev_full:that_while
conn:nevertheless
with_prev_full:that_although
conn:although_although_these_cells_still
conn:albeit
with_prev_full:-lrb-_although
with_prev_full:vivo_albeit
with_prev_full:phenotypes_but
conn_lc:even_though
conn:regardless_of
with_prev_full:has_however
conn:Despite
with_prev_full:gene_but
with_prev_full:tested_and
with_prev_full:weaker_but
conn:Still
conn:Nonetheless
with_prev_full:cells_but
with_prev_full:but_none-the-less
with_prev_full:-rrb-_even_though
with_prev_full:cells_although
conn_lc:albeit
conn:Even_though
conn_lc:nonetheless
with_prev_full:observed_despite
with_prev_full:is_nevertheless
with_prev_full:,_even_though
with_prev_full:arthritis_despite
conn:Despite_the_fact_that
conn:Regardless_of
conn:even_though
conn_lc:nevertheless
with_prev_full:conclusion_although
with_prev_full:abstract_although
with_prev_full:might_nevertheless
with_prev_full:,_however
conn_POS:IN_IN_DT_NNS_RB
conn:still
conn_lc:still
with_prev_full:marker_but
conn_lc:though
with_prev_full:it_nevertheless
with_prev_full:should_however
with_prev_full:,_albeit
conn_lc:regardless_of
conn_lc:although_although_these_cells_still
with_prev_full:,_despite
conn:But
conn:Nevertheless
with_prev_full:noted_however
with_prev_full:could_still
conn:Though
with_prev_full:tested_but
conn:however
with_prev_full:;_however
conn_lc:on_the_other_hand
conn:While
conn_POS:IN_DT_JJ_NN
conn:Although
with_prev_full:,_but
conn_lc:whilst
conn_lc:but
conn:but
conn:although
conn_lc:although
conn:whilst
conn:On_the_other_hand
with_prev_full:,_although
conn_lc:in_comparison_to
conn_lc:in_contrast
with_prev_full:-rsb-_but
with_prev_full:,_whereas
with_prev_full:synthesis_while
conn:in_comparison_to
conn:By_contrast
with_prev_full:metastasis_but
with_prev_full:disease_while
conn_lc:in_contrast_to
conn_lc:by_contrast
with_prev_full:,_on_the_other_hand
with_prev_full:,_in_contrast_to
with_prev_full:but_while
with_prev_full:data_however
with_prev_full:genes_while
conn_lc:whereas
conn_lc:in_comparison_with
with_prev_full:cells_whereas
conn:In_contrast_to
with_prev_full:,_whilst
with_prev_full:stimulation_while
with_prev_full::_whereas
with_prev_full:not_however
with_prev_full:-rrb-_while
conn:Whereas
conn_lc:on_the_contrary
with_prev_full:that_whereas
conn:In_contrast
conn:On_the_contrary
with_prev_full:detected_whereas
conn:Whilst
conn:In_comparison_with
with_prev_full:but_in_contrast_to
conn:on_the_other_hand
with_prev_full:that_in_comparison_to
conn:whereas
with_prev_full:cells_while
conn:in_contrast_to
conn_POS:IN_DT_NN
with_prev_full:data_also
with_prev_full:lethal_and
with_prev_full:patients_and
with_prev_full:wells_and
with_prev_full:but_also
conn_POS:RB_JJ_JJ_IN_DT_NN_VBN_CC_RB
with_prev_full:tissue_and
with_prev_full:while_also
conn:In_addition_to
conn_lc:additionally
with_prev_full:depends_not_only_only_on_the_marker_used_but_also
conn_lc:moreover
with_prev_full:cases_and
with_prev_full:,_in_addition_to
with_prev_full:pdcs_and
with_prev_full:buds_and
with_prev_full:bound_and
conn_lc:accordingly
with_prev_full:replication_and
conn:Further
conn_lc:furthermore
conn_lc:not_only_only_act_as_mediators_of_negative_feedback_inhibition_,_but_also
with_prev_full:cell_and
with_prev_full:will_also
with_prev_full:was_also
with_prev_full:has_also
with_prev_full:treg_also
with_prev_full:was_further
with_prev_full:buffer_and
with_prev_full:described_and
with_prev_full:axis_and
with_prev_full:ifn-α_and
with_prev_full:we_also
with_prev_full:can_also
conn:furthermore
with_prev_full:specific_and
with_prev_full:that_not_only_only_act_as_mediators_of_negative_feedback_inhibition_,_but_also
with_prev_full:solution_also
with_prev_full:fibrosis_and
conn:Conversely
with_prev_full:which_also
conn:Accordingly
with_prev_full:20_and
with_prev_full:constellation_and
with_prev_full:receptors_and
with_prev_full:development_and
with_prev_full:may_also
conn:further
with_prev_full:would_also
with_prev_full:experiments_and
conn:Furthermore
with_prev_full:,_furthermore
with_prev_full:were_also
conn:Moreover
with_prev_full:activity_and
conn_lc:not_only_only_can_tgf-β_mediate_cell_cell_suppression_between_the_regulatory_t_cells_and_cd4_+_cd25_-_or_cd8_+_t_cells_,_but_but_new_evidence_also
with_prev_full:might_also
with_prev_full:are_also
with_prev_full:products_and
with_prev_full:analysis_and
conn:Not_only_only_can_TGF-β_mediate_cell_cell_suppression_between_the_regulatory_T_cells_and_CD4_+_CD25_-_or_CD8_+_T_cells_,_but_but_new_evidence_also
with_prev_full:tumours_and
with_prev_full:bmps_and
conn_lc:not_only_only_on_the_marker_used_but_also
with_prev_full:and_also
conn_lc:further
with_prev_full:arrows_and
with_prev_full:mice_also
with_prev_full:disappeared_and
with_prev_full:preincubation_and
conn:In_addition
conn_lc:also
with_prev_full:is_also
with_prev_full:tumours_also
with_prev_full:polypeptides_also
with_prev_full:low_and
conn_lc:conversely
with_prev_full:notch_also
with_prev_full:assay_also
conn_POS:RB_JJ_JJ_MD_NNP_VB_NN_NN_NN_IN_DT_JJ_NNP_NNS_CC_NNP_NNP_NNP_:_CC_CD_NNP_NNP_NNS_,_CC_CC_JJ_NN_RB
with_prev_full:colleagues_also
with_prev_full:fk506_also
conn_lc:in_addition_to
conn:in_addition_to
with_prev_full:studies_also
with_prev_full:they_also
with_prev_full:il-15_also
with_prev_full:function_and
with_prev_full:markers_and
with_prev_full:pbs_and
with_prev_full:hybridisation_and
conn:also
with_prev_full:;_second
conn:Additionally
with_prev_full:centrifuged_and
with_prev_full:concentrations_and
conn:second
conn_POS:RB_JJ_JJ_VBP_IN_NNS_IN_JJ_NN_NN_,_CC_RB
with_prev_full:course_and
with_prev_full:are_further
with_prev_full:mrna_also
with_prev_full:origin_and
conn_lc:in_addition
with_prev_full:formation_also
conn_POS:RBR
with_prev_full:mutants_also
with_prev_full:amplicons_and
with_prev_full:,_also
with_prev_full:have_also
with_prev_full:differentiation_and
with_prev_full:reaction_and
with_prev_full:it_also
with_prev_full:thermocycling_and
with_prev_full:offspring_and
with_prev_full:ra_also
with_prev_full:points_and
with_prev_full:antibodies_and
with_prev_full:;_and
with_prev_full:injection_and
with_prev_full:size_and
conn:Meanwhile
conn_lc:meanwhile
with_prev_full:gene_and
with_prev_full:cells_and
with_prev_full:hours_and
conn:not_only_only_act_as_mediators_of_negative_feedback_inhibition_,_but_also
with_prev_full:markers_also
with_prev_full:ly294002_also
conn:not_only_only_on_the_marker_used_but_also
with_prev_full:study_further
with_prev_full:cells_also
with_prev_full:-rsb-_and
with_prev_full:consuming_and
with_prev_full:perfect_and
with_prev_full:reduced_and
with_prev_full:vitro_and
with_prev_full:samples_and
conn:So
conn:In_brief
conn_lc:briefly
with_prev_full:by_specifically
conn:In_outline
conn:In_general
with_prev_full:;_i.e.
conn:namely
conn:Notably
with_prev_full:,_i.e.
conn_lc:notably
with_prev_full:,_specifically
conn:with
conn_lc:in_brief
conn:In_particular
conn_lc:in_that
conn_POS:VBZ
conn:In_conclusion
with_prev_full:-lrb-_specifically
conn:specifically
conn:In_summary
conn:in_that
conn:Briefly
with_prev_full:,_in_that
with_prev_full:,_with
conn_lc:in_summary
with_prev_full:,_namely
conn_lc:in_outline
conn_lc:in_general
conn_lc:specifically
conn_lc:i.e.
conn:i.e.
conn_lc:with
conn:Specifically
conn_lc:in_conclusion
with_prev_full:we_specifically
conn_lc:namely
conn_POS:IN_JJ
conn_lc:thus
conn:Thus
conn_lc:so
conn_POS:VBN
conn:Therefore
conn_lc:therefore
conn_lc:in_particular
with_prev_full:panel_and
with_prev_full:observed_and
with_prev_full:stroma_and
with_prev_full:treg_and
with_prev_full:antibody_and
with_prev_full:assay_and
with_prev_full:,_as_demonstrated_by
conn:particularly_since
with_prev_full:-rrb-_because
conn:not_due_to
with_prev_full:extent_because
with_prev_full:translated_due_to
with_prev_full:nf-κb_by
conn_lc:appears_to_be_due_at_least_in_part_to
conn:due_mainly_to
conn_lc:in_particular_because_of
conn:as_demonstrated_by
with_prev_full:activation_therefore
with_prev_full:are_therefore
with_prev_full:and_therefore
conn_lc:not_due_merely_to
conn_POS:JJ_IN
conn:presumably_as_result_of
with_prev_full:-lrb-_particularly_since
conn_lc:presumably_due_to
with_prev_full:downregulated_by
conn_lc:such_that
with_prev_full:mice_thus
with_prev_full:undisputed_because
conn:by_the_fact_that
conn_lc:due_mainly_to
with_prev_full:chosen_in_large_part_for
conn:in_large_part_for
with_prev_full:amounts_and
with_prev_full:not_therefore
conn_POS:JJ_TO
conn:Now_that
with_prev_full:euthanized_due_to
with_prev_full:unsuccessful_due_to
conn_lc:now_that
conn:In_short
with_prev_full:events_because
with_prev_full:chosen_as
conn_lc:as_a_result_of
with_prev_full:and_thus
with_prev_full:-rrb-_due_to
conn_lc:thereby
conn_lc:presumably_as_result_of
with_prev_full:micrometastases_because
with_prev_full:choice_because
with_prev_full:,_on_the_basis_of
with_prev_full:strand_due_to
with_prev_full:over-representation_since
with_prev_full:feasible_due_to
with_prev_full:,_due_to
conn_POS:PDT_DT
with_prev_full:-rsb-_because
with_prev_full:interaction_thus
conn_POS:IN_VBN_IN
with_prev_full:and_since
with_prev_full:but_because
with_prev_full:are_not_due_merely_to
with_prev_full:cycles_presumably_due_to
with_prev_full:1997_as_a_result_of
with_prev_full:was_due_to
with_prev_full:il-10_due_to
with_prev_full:and_so
conn:not_due_merely_to
with_prev_full:targets_since
conn_POS:RB_JJ_TO
conn:Because
with_prev_full:,_thus
conn_lc:as_inferred_by
with_prev_full:,_presumably_as_result_of
conn_lc:probably_because_of
with_prev_full:elucidated_since
conn_lc:in_consequence_of
with_prev_full:occurring_as_a_result_of
conn:insofar_as
conn:On_the_basis_of
conn:Consequently
conn:such_that
with_prev_full:,_in_particular_because_of
with_prev_full:were_due_to
with_prev_full:vivo_on_the_basis_of
with_prev_full:positives_due_to
conn_lc:in_short
with_prev_full:can_therefore
conn:due_to
with_prev_full:may_therefore
with_prev_full:measurements_since
conn:As_a_consequence
with_prev_full:niches_in_response_to
conn_POS:IN_DT_JJ_NN_IN
with_prev_full:production_due_to
conn_lc:not_due_to
with_prev_full:unsuitable_as
with_prev_full:proliferation_as_a_consequence_of
with_prev_full:;_thus
conn:As_a_result
with_prev_full:either_as_a_result_of
with_prev_full:cells_as
conn:so
with_prev_full:striking_insofar_as
conn_lc:probably_due_to
conn_lc:as_a_direct_consequence_of
with_prev_full:,_probably_due_to
conn:appears_to_be_due_at_least_in_part_to
conn_lc:because_of
conn:on_the_basis_of
conn:as_a_consequence_of
with_prev_full:development_due_to
with_prev_full:will_therefore
with_prev_full:correct_and
conn:probably_due_to
conn_POS:JJ_RB_TO
with_prev_full:those_due_to
with_prev_full:we_thus
conn:In_view_of_the_fact_that
conn:as_a_result_of
conn_lc:in_large_part_for
conn_lc:as_a_result
with_prev_full:-rrb-_thus
with_prev_full:fdcs_by
with_prev_full:therefore_appears_to_be_due_at_least_in_part_to
with_prev_full:,_thereby
with_prev_full:,_so
with_prev_full:,_as_inferred_by
with_prev_full:w3\/25_therefore
conn:as_a_direct_consequence_of
with_prev_full:dependent_as
with_prev_full:analysis_since
with_prev_full:expression_due_to
conn:because
conn_lc:because
with_prev_full:appear_in_consequence_of
with_prev_full:,_because
with_prev_full:must_therefore
with_prev_full:irf-4-expression_since
with_prev_full:generated_as_a_direct_consequence_of
with_prev_full:transition_therefore
conn_POS:IN_NN_IN_DT_NN_IN
with_prev_full:development_because
conn_lc:by_the_fact_that
with_prev_full:may_thus
conn_POS:RB_JJ_RB_TO
with_prev_full:appealing_because
conn_lc:due_to
conn_lc:as_a_consequence
conn_POS:RB_RB_IN
with_prev_full:were_thus
conn:probably_because_of
with_prev_full:is_therefore
with_prev_full:,_due_mainly_to
conn_lc:particularly_since
conn_lc:as_a_consequence_of
with_prev_full:part_due_to
conn:thereby
conn_lc:insofar_as
with_prev_full:,_such_that
with_prev_full:reactions_due_to
conn_POS:IN_JJ_RB_IN
with_prev_full:,_therefore
conn:in_consequence_of
with_prev_full:be_due_to
conn:as_inferred_by
conn_lc:in_view_of_the_fact_that
with_prev_full:is_not_due_to
conn:thus
conn:presumably_due_to
conn:in_particular_because_of
conn:Due_to
with_prev_full:caused_in_part_by
with_prev_full:,_probably_because_of
with_prev_full:pronounced_as_a_result_of
conn_lc:on_the_basis_of
with_prev_full:,_as_a_result_of
with_prev_full:and_thereby
with_prev_full:could_therefore
with_prev_full:it_therefore
conn_POS:RB_IN_NN_IN
with_prev_full:complicated_by_the_fact_that
with_prev_full:is_thus
conn_lc:consequently
conn_lc:as_demonstrated_by
with_prev_full:hypermethylation_due_to
conn_POS:VBZ_TO_VB_JJ_IN_JJS_IN_NN_TO
conn:Because_of
with_prev_full:primarily_by
conn_POS:IN_IN
conn:Given
conn:therefore
conn:since
with_prev_full:,_since
conn_lc:based_on
conn:Based_on
with_prev_full:we_therefore
conn_lc:given
conn_lc:rather
with_prev_full:suggest_either_either_that_activation_of_pdcs_is_not_associated_with_nuclear_translocation_and_transcriptional_activity_of_relb_or
conn_POS:RB_RB_IN_NN_IN_NNS_VBZ_RB_VBN_IN_JJ_NN_CC_NN_NN_IN_NNP_CC
with_prev_full:ccr3_unless
conn_lc:either_either_purified_total_t_cells_were_directly_used_for_proliferation_assays_,_or
with_prev_full:experiments_unless
conn_lc:or
conn_POS:RB_RB_IN_NNP_MD_VB_TO_NNP_IN_DT_RB_JJ_NN_NN_IN_NNP_NNP_NNS_,_CC
with_prev_full:responses_and\/or
with_prev_full:observed_instead
with_prev_full:,_and\/or
conn_lc:either_either_as_a_result_of_a_genetic_lesion_-lrb-_cd19-deficient_mice_-rrb-_that_inhibited_mz_b_cell_survival_,_or
conn:Either_Either_purified_total_T_cells_were_directly_used_for_proliferation_assays_,_or
conn:unless
conn_POS:RB_RB_IN_NN_NN_,_CC
conn_lc:either_either_by_n1-ic_expression_,_or
conn_lc:and\/or
conn:and\/or
conn:Alternatively
conn_lc:instead
with_prev_full:tgf-β_and\/or
conn_POS:DT_DT_JJ_JJ_NNP_NNS_VBD_RB_VBN_IN_NN_NNS_,_CC
with_prev_full:cells_or
conn_lc:either_either_that_activation_of_pdcs_is_not_associated_with_nuclear_translocation_and_transcriptional_activity_of_relb_or
conn:rather
conn:Besides
conn:nor
conn_lc:nor
with_prev_full:smad2\/3_and\/or
with_prev_full:reduced_or
conn_lc:besides
conn_POS:CC_CC_IN_DT_NN_IN_DT_JJ_NN_-LRB-_NN_NNS_-RRB-_WDT_VBD_NNP_NNP_NN_NN_,_CC
conn:either_either_by_N1-IC_expression_,_or
conn_lc:alternatively
with_prev_full:,_either_either_as_a_result_of_a_genetic_lesion_-lrb-_cd19-deficient_mice_-rrb-_that_inhibited_mz_b_cell_survival_,_or
with_prev_full:,_or
conn_lc:unless
conn:or
with_prev_full:but_rather
with_prev_full:indicate_either_either_that_igm-ic_can_traffic_to_fdcs_by_a_previously_unanticipated_mechanism_independent_of_mz_b_cells_,_or
conn:instead
conn_POS:VB
conn:Instead
with_prev_full:triggered_either_either_by_n1-ic_expression_,_or
with_prev_full:present_or
conn:Unless
conn_lc:either_either_that_igm-ic_can_traffic_to_fdcs_by_a_previously_unanticipated_mechanism_independent_of_mz_b_cells_,_or
conn:either_either_that_activation_of_pDCs_is_not_associated_with_nuclear_translocation_and_transcriptional_activity_of_RelB_or
with_prev_full:,_nor
conn:either_either_that_IgM-IC_can_traffic_to_FDCs_by_a_previously_unanticipated_mechanism_independent_of_MZ_B_cells_,_or
conn:either_either_as_a_result_of_a_genetic_lesion_-LRB-_CD19-deficient_mice_-RRB-_that_inhibited_MZ_B_cell_survival_,_or
conn:for_instance
conn:in_particular
with_prev_full:is_for_example
with_prev_full:,_e.g.
with_prev_full:in_for_example
with_prev_full:,_for_example
conn:for_example
conn:For_example
conn_lc:as_an_example
with_prev_full:,_in_particular
with_prev_full:;_for_example
conn_lc:for_instance
conn_lc:e.g.
conn_lc:for_example
with_prev_full:,_for_instance
conn:e.g.
conn:As_an_example
with_prev_full:include_for_example
conn_lc:except_that
with_prev_full:,_except_that
conn:except_that
with_prev_full:hematoxylin_except
conn:except
conn_lc:except
conn_lc:except_for
conn:except_for
with_prev_full:examined_except_for
with_prev_full:,_except
conn_lc:particularly_if
with_prev_full:,_particularly_if
with_prev_full:dnmts_if
conn:particularly_if
conn_lc:provided_that
with_prev_full:and_if
with_prev_full:cells_if
conn:only_if
conn:Provided_that
with_prev_full:monkeys_if
conn_POS:VBG_IN
with_prev_full:reaction_only_if
with_prev_full:amplification_if
with_prev_full:-rrb-_if
with_prev_full:that_if
with_prev_full:significant_if
with_prev_full:improved_if
with_prev_full:,_if
with_prev_full:possible_if
conn_lc:only_if
conn:in_fact
with_prev_full:does_in_fact
conn:In_fact
with_prev_full:were_in_fact
conn_POS:UH
with_prev_full:does_indeed
conn_lc:in_fact
with_prev_full:,_in_fact
conn:indeed
conn:similarly
conn:Similarly
conn_lc:similarly
with_prev_full:may_similarly
1.9518539208932164
1.8653787601579255
2.293316501104335
1.8653787601579237
1.9266050570009934
1.9518539208932164
2.133400607835961
1.8653787601579226
1.9266050570009934
5.16340525013927
1.7495829417705078
1.8653787601579237
1.9266050570009934
1.8653787601579237
1.9266050570009934
1.9341183915956963
1.8284717079083652
1.9266050570009934
2.6501925257848766
1.9266050570009934
1.8653787601579237
1.9266050570009934
1.9266050570009934
1.6961211392085989
1.9518539208932164
1.6961211392085997
1.8284717079083652
1.9518539208932164
1.6961211392085997
1.9266050570009934
1.9266050570009932
1.9266050570009934
1.9518539208932164
1.9518539208932164
1.9266050570009934
1.6961211392085997
1.9266050570009934
1.9266050570009934
1.7495829417705078
1.6961211392085997
1.9266050570009934
1.8653787601579237
2.2893078799981943
1.9266050570009934
1.9266050570009932
2.220570608469352
1.8653787601579237
1.9266050570009934
1.9518539208932164
1.6961211392085997
1.9266050570009934
1.7495829417705078
1.9266050570009934
1.77382970539689
1.9266050570009934
1.9266050570009934
1.8284717079083657
1.6961211392085997
1.6961211392085997
1.6961211392085997
1.6961211392085997
1.9266050570009932
1.9266050570009932
1.9450777643873125
1.6961211392085997
1.9266050570009934
1.6961211392085997
1.7495829417705078
1.9593420165272164
1.6961211392085997
1.6961211392085997
1.9266050570009934
1.7495829417705078
1.9266050570009932
1.9518539208932164
1.9266050570009932
1.7495829417705078
1.6961211392085997
1.6961211392085997
1.6961211392085997
1.9266050570009934
1.926605057000993
1.9266050570009934
1.6961211392085997
1.9266050570009932
1.6961211392085997
2.133400607835961
1.8653787601579237
1.6961211392085984
1.9341183915956963
1.9266050570009934
3.1633011353883145
1.6961211392085986
1.9266050570009932
1.9266050570009934
1.8653787601579237
1.6961211392085997
1.9266050570009934
2.699040455391364
1.6961211392085997
1.9266050570009934
1.5338499557439322
1.926605057000993
1.6961211392085997
1.9518539208932162
1.6961211392085997
1.9266050570009956
1.6961211392085997
1.6961211392085997
1.6961211392085997
1.7495829417705078
1.9266050570009934
1.9450777643873067
1.9266050570009934
1.926605057000993
1.9266050570009934
1.6961211392085997
1.9266050570009956
1.6961211392085997
1.9266050570009934
1.951853920893222
1.8653787601579237
1.8653787601579237
1.6961211392085997
2.9190714587383546
1.9266050570009934
1.9266050570009934
1.9266050570009934
1.926605057000993
1.8653787601579237
2.133400607835961
1.6961211392085997
1.6961211392085997
1.9266050570009934
1.6961211392085997
1.9518539208932162
1.9518539208932164
1.9266050570009956
1.8653787601579237
1.6961211392085997
2.133400607835961
1.6961211392085997
1.6961211392085997
1.9266050570009934
1.9266050570009934
1.9266050570009934
1.6961211392085997
1.9450777643873125
1.8284717079083648
1.9450777643873132
1.6961211392085997
2.133400607835961
2.686191376474169
1.6961211392085997
1.6961211392085997
1.9518539208932162
2.966056971773058
2.220570608469352
1.6961211392085997
3.172007114873309
1.6961211392085997
1.9266050570009934
1.926605057000993
1.6961211392085997
1.6961211392085997
1.6961211392085997
2.220570608469352
1.9266050570009934
1.6961211392085997
1.9450777643873132
1.6961211392085997
1.9266050570009934
1.9266050570009934
1.8653787601579237
1.9266050570009934
1.926605057000993
1.9266050570009934
1.926605057000993
1.9518539208932164
1.6961211392085989
1.6961211392086022
1.6961211392085997
1.9266050570009934
1.6961211392085984
1.6961211392085989
1.9266050570009934
1.9341183915956963
1.9266050570009932
2.133400607835961
1.6961211392085997
1.6961211392086042
1.6961211392085997
1.9266050570009932
1.6961211392086013
1.9266050570009934
1.926605057000993
1.48802691727191
1.9266050570009932
1.9266050570009934
1.9266050570009934
1.9266050570009932
1.6961211392085997
1.6961211392086013
1.6961211392085997
2.3689021410011932
1.6961211392085997
1.8653787601579237
2.3380564142998983
1.9266050570009932
1.6961211392085997
1.6961211392085989
1.8653787601579237
1.9266050570009936
2.220570608469352
1.8653787601579237
1.6961211392085997
1.9266050570009936
1.9266050570009936
1.9266050570009932
1.8284717079083648
1.9266050570009936
1.6961211392085997
1.9266050570009936
1.8653787601579237
1.9266050570009936
2.293316501104335
1.9266050570009932
1.9266050570009936
1.6961211392085997
1.926605057000993
1.9266050570009956
1.9518539208932164
1.9266050570009932
1.9266050570009936
1.9266050570009956
2.133400607835961
1.6961211392085989
2.133400607835961
1.9593420165272164
1.6961211392085997
1.9266050570009936
1.9266050570009956
1.6961211392085997
1.8284717079083648
1.9266050570009905
1.9266050570009936
1.9266050570009936
1.9266050570009936
1.6961211392085997
1.9593420165272164
2.3380564142998983
1.9266050570009936
1.6961211392085997
2.133400607835961
1.6961211392085997
1.9266050570009936
2.0559022638094304
1.926605057000993
2.9190714587383546
1.9266050570009936
1.9266050570009936
1.6961211392085997
1.9266050570009932
2.0559022638094304
1.9266050570009932
2.3380564142998983
1.6961211392085997
1.6961211392085997
1.9266050570009936
1.7495829417705078
2.133400607835961
2.948440823113203
1.9266050570009936
1.6961211392085997
1.6961211392085997
2.686191376474169
1.8653787601579237
1.926605057000993
1.8284717079083652
1.8653787601579237
1.8284717079083657
1.9450777643873132
1.7495829417705078
1.9450777643873132
2.220570608469352
1.8653787601579237
1.6961211392085997
1.8653787601579237
1.9518539208932164
1.9450777643873132
1.9266050570009936
1.9266050570009936
1.9266050570009932
1.9266050570009932
1.9266050570009936
1.6961211392085997
1.8653787601579237
1.9266050570009936
1.9266050570009936
1.8653787601579237
1.9266050570009936
1.6961211392085989
2.133400607835961
1.6961211392085997
1.9266050570009932
1.9266050570009932
1.8284717079083652
1.9266050570009936
2.133400607835961
1.926605057000993
1.6961211392085997
1.9518539208932164
1.9266050570009936
1.8653787601579237
1.9266050570009936
1.9518539208932164
1.437204859841193
1.9266050570009936
1.9266050570009936
1.9266050570009936
1.6961211392085997
1.926605057000993
1.9518539208932164
1.7495829417705115
2.220570608469352
1.6961211392085997
1.9266050570009936
1.9450777643873125
1.9266050570009936
1.6961211392086013
1.6961211392085997
1.9266050570009936
1.9266050570009932
1.9450777643873132
1.6961211392085997
1.926605057000993
2.0181295696713173
1.6961211392085997
1.7495829417705078
1.9266050570009936
1.9266050570009936
1.6961211392085997
1.9518539208932164
1.9450777643873132
1.9450777643873132
1.7495829417705078
1.9266050570009936
1.9266050570009936
1.9266050570009932
1.8653787601579237
2.001736053379744
0.9180703543372746
3.6440686374048834
1.57555322530514
2.966828694126165
1.1675893959632822
-0.411584449991827
1.1862271335296164
0.5272336816049075
0.4137925911127489
-2.141773825619976
-3.148493396003765
0.7975039010810951
-2.3311004629599057
-2.7501130571032815
-1.1690513968015497
-3.9218572014612207
1.8553625334644572
0.7069151229172773
0.7340934340909758
0.8912184385547773
0.4248516166233494
-0.21291935510603582
-1.38859022281945
0.8456747497530989
1.1460568490594567
-0.5950273744243824
1.5546192742446048
0.43267548618866214
-0.04531068407961042
-1.196803781825113
-1.436214947205908
-0.09582275401335555
1.0268951055687499
-1.4015899856341436
1.6413498025808924
0.7156413884980001
0.47535853432542974
-0.18068283085248577
-0.09582275401335555
1.0268951055687499
-1.4015899856341436
1.6413498025808924
0.7156413884980001
0.47535853432542974
-0.18068283085248577
1.1348075446701182
0.6952536533153953
1.6433496574883721
1.1111059244378658
0.6952536533153948
3.0876517457847035
1.6148110961078397
1.5008923465734205
2.21346360986771
0.6040322047593826
0.7525408180662148
1.6882737617536492
1.1597687542747774
1.8236810853372096
-1.624190212621533
-0.3336973211934175
-0.10888451717091978
1.049107547238511
2.129593434792582
1.8015713588895834
-1.1022545347424737
-0.14850949060586893
2.955009153644322
1.7905344532725358
2.504344194464058
1.7688726793510374
1.0117470749807271
1.3351236820485264
1.0658968260088233
1.6952103870461233
1.2623137958742976
1.189402697073523
1.3675003604094622
4.431657360256967
1.5517514968197728
1.5517514968197728
1.6074385315439734
1.352927659575862
1.6074385315439734
1.352927659575862
0.5015262317971778
4.951977592764129
4.474860316276625
3.826436163769124
4.474860316276625
3.9490463858692473
3.8264361637691247
2.947169048429991
1.2833747012110563
2.6883629603616837
1.2006199939757476
2.0568105935850176
1.3353207818452537
2.6883629603616837
1.2006199939757476
3.197252614011932
0.8403110862332746
2.0568105935850176
1.3353207818452537
2.0568105935850176
1.3353207818452537
1.3340306488627902
1.7643762134068963
2.1247225318542124
1.2209111633205523
2.0568105935850176
1.3353207818452537
2.9471690484299895
1.283374701211055
2.1637736856480307
2.213474324095176
2.947169048429991
1.2833747012110563
1.9890397102309885
1.47515647456774
2.0568105935850176
1.3353207818452537
2.0568105935850176
1.3353207818452537
1.8982811072223222
1.4699872854041625
1.6381269717586473
1.6381269717586473
1.6381269717586473
1.6381269717586473
3.197252614011932
0.8403110862332746
1.6381269717586473
1.6381269717586473
3.197252614011932
0.8403110862332746
1.3340306488627902
1.7643762134068963
2.4710221494550018
2.368216073927216
2.6883629603616837
1.2006199939757476
1.6381269717586473
1.6381269717586473
0.49783721125361835
2.042674015065153
2.688362960361683
1.200619993975747
1.4439850395421092
1.8211075164701027
2.1637736856480307
2.213474324095176
2.0568105935850176
1.3353207818452537
2.4710221494550018
2.368216073927216
3.7773314189195846
2.413736377703557
2.056810593585018
1.3353207818452546
2.947169048429991
1.2833747012110563
2.0568105935850176
1.3353207818452537
2.0568105935850176
1.3353207818452537
3.395693852513149
3.337118895962222
3.197252614011932
0.8403110862332746
1.6381269717586473
1.6381269717586473
1.7389161374539548
1.8672712445839847
2.4710221494550018
2.368216073927216
1.9890397102309885
1.47515647456774
2.0568105935850176
1.3353207818452537
3.1972526140119313
0.840311086233274
2.0568105935850176
1.3353207818452537
3.1972526140119313
0.840311086233274
2.4710221494550018
2.368216073927216
1.8982811072223222
1.4699872854041625
3.1972526140119313
0.840311086233274
2.0568105935850176
1.3353207818452537
3.1972526140119313
0.8403110862332737
1.5303046955884498
1.8045846681263729
2.9471690484299904
1.283374701211056
2.0568105935850176
1.3353207818452537
2.6883629603616837
1.2006199939757476
2.1613002622853457
1.9373894529942082
2.9471690484299904
1.283374701211056
3.197252614011932
0.8403110862332746
2.0568105935850176
1.3353207818452537
2.0568105935850176
1.3353207818452537
2.688362960361684
1.200619993975748
2.0568105935850176
1.3353207818452537
1.6381269717586473
1.6381269717586473
1.9890397102309885
1.47515647456774
1.6381269717586473
1.6381269717586473
3.197252614011932
0.8403110862332746
3.197252614011932
0.8403110862332746
3.197252614011932
0.8403110862332746
3.197252614011932
0.8403110862332746
1.6381269717586473
1.6381269717586473
-1.6737208165149293
0.7033833027610424
0.9404600494935266
-0.26540945590341336
1.1800138911505975
0.10722955634801012
1.0488933354186896
-0.9014109756397253
-2.908252539098586
-0.8290882112157997
-1.3513385926233727
-1.6743900579855913
1.7479093537228438
1.7933195489520495
1.6824378481833957
1.5774408396794972
1.474634764151711
3.0711823721479172
1.9411936220804358
1.9740390691796739
1.421278614801182
1.646612429952703
2.1513190751735767
-1.4785329481627079
2.532104809442522
2.795226290139659
3.0555541932771066
1.6042689646399804
1.8014841406601676
0.857049536299671
1.6042689646399804
1.8014841406601676
0.857049536299671
1.339198201622772
1.6761438981499392
-0.5006326320203542
2.4311804410467595
2.242265454567014
2.4175033829815757
2.208529901389068
1.9960831491963655
1.508054745094636
2.5805109413811227
1.147719980507043
2.05861331368765
1.4569269349884912
2.5753170145342015
2.4229097225739284
1.6911131157650696
2.207762343960925
2.7587135880195084
2.727043836026009
2.3440658051930443
4.262243788480869
1.9682874952776488
3.8305072906333724
4.157057180118274
1.701744779762504
2.82805323687533
0.02492741968575936
2.666212785654725
2.7717217793719846
3.5769149500280406
2.9169520373260642
3.689157870963178
2.331510550944645
1.782152221974816
2.331510550944645
2.331510550944645
2.023625309148987
1.8284717079083652
2.7366169916661724
2.138527151795425
2.331510550944645
2.2844085628843804
1.8284717079083652
1.9170843917892573
3.800955404413242
2.331510550944645
1.8628128954447105
2.3380564142998983
1.9739044822699094
1.8284717079083652
2.331510550944645
2.746332285785852
2.7366169916661724
2.3380564142998983
3.0817122557943195
2.331510550944645
1.7899281337006276
1.782152221974816
2.746332285785852
2.1362527220307004
2.023625309148987
2.4678121014864596
1.8284717079083652
2.331510550944645
1.973904482269915
2.138527151795425
2.331510550944645
1.973904482269915
1.9739044822699165
2.331510550944645
1.8284717079083652
2.331510550944643
2.331510550944645
1.7899281337006276
2.3380564142998983
1.9170843917892573
1.9246493159347762
1.8284717079083652
2.1362527220307004
2.273054607424965
1.8284717079083652
2.331510550944645
1.9739044822699152
2.331510550944645
1.8284717079083652
1.782152221974816
1.782152221974816
1.782152221974816
1.8628128954447123
2.331510550944645
3.746412199919328
1.9170843917892573
2.9882280913683226
1.8284717079083652
1.8284717079083652
1.782152221974816
2.3940486517627826
1.9170843917892602
2.541698525692025
1.973904482269915
2.138527151795425
1.973904482269915
1.9170843917892602
1.9246493159347762
2.541698525692025
2.331510550944645
1.9739044822699165
1.8284717079083652
2.1362527220307004
2.331510550944645
1.5266158822961833
1.8284717079083652
1.973904482269915
1.689325505796155
1.7899281337006276
1.8284717079083652
2.1362527220307004
1.9998738866275936
1.782152221974816
1.917084391789257
2.100444326196739
1.8284717079083652
1.8284717079083652
1.7821522219748163
1.9246493159347762
2.27603797565796
2.023625309148987
1.782152221974816
3.0817122557943195
2.331510550944645
1.9998738866275936
1.8284717079083652
2.331510550944645
1.7899281337006276
1.9739044822699165
1.9295891427430338
1.8957933042690875
1.7899281337006276
1.7899281337006276
2.343167912860672
1.810169239862116
1.9739044822699108
1.782152221974816
5.5112692743125455
2.2844085628843804
2.1362527220307004
2.138527151795425
2.331510550944645
2.138527151795425
1.8284717079083652
1.9170843917892588
2.0540767769381154
1.8628128954447123
2.331510550944645
1.9739044822699143
2.331510550944645
2.331510550944645
1.8284717079083652
2.1385271517954254
2.273054607424965
1.782152221974816
1.8628128954447123
2.3315105509446434
2.331510550944645
2.273054607424965
2.273054607424965
1.782152221974816
2.150827275428079
2.054076776938115
2.331510550944645
2.1362527220307004
1.9739044822699165
1.9739044822699094
1.8628128954447123
1.8284717079083652
2.273054607424965
2.331510550944645
2.331510550944645
1.782152221974816
2.4678121014864596
3.2712119593199174
5.477198635037299
2.7366169916661724
1.917084391789257
1.8284717079083652
3.0817122557943195
1.8284717079083652
3.0817122557943195
1.7821522219748163
1.917084391789257
1.782152221974816
1.973904482269915
2.0540767769381154
1.689325505796155
1.782152221974816
2.100444326196739
2.7052521524404503
2.3380564142998983
3.0817122557943195
2.0540767769381154
3.530419971634827
2.331510550944645
2.7366169916661724
1.9739044822699143
3.0817122557943195
1.9739044822699143
1.7899281337006276
3.0817122557943195
2.331510550944645
2.3380564142998983
2.1385271517954254
1.9998738866275936
2.0540767769381105
2.3380564142998983
2.7366169916661724
1.782152221974816
2.1385271517954236
2.331510550944645
1.782152221974816
2.331510550944645
2.0540767769381154
1.7821522219748163
2.273054607424965
2.2844085628843804
2.331510550944645
1.782152221974816
1.8284717079083652
1.782152221974816
2.331510550944645
3.523050757056526
2.4678121014864596
1.8284717079083652
2.3315105509446417
1.7899281337006276
1.782152221974816
1.917084391789257
2.331510550944645
1.8628128954447123
1.9739044822699143
1.8284717079083652
2.7366169916661724
3.0817122557943195
1.917084391789257
2.643642495547969
1.7899281337006276
3.371352329962784
1.782152221974816
2.4678121014864596
1.0729230341450324
0.5553551727782186
2.2841615113125333
-0.7812158686125242
-0.3999250693360032
2.3086355238062257
2.031278499385639
2.6537852965156192
1.8042729762061598
0.2746058833798694
1.7129287074260982
3.9833005279891665
0.5122516608803496
0.8899486836372079
1.7506068584922696
-0.2568246968724305
1.769690313217442
1.5774342543460969
0.6696284709709488
-1.934513031067284
0.7720938903807908
0.25342146072938787
1.8646781816427818
0.10091991597560147
0.07525450299508392
2.385948774970434
2.0919170183169244
3.201391672128741
1.279184151415636
2.894999770554225
1.6659394304008432
3.201391672128741
1.279184151415636
1.8582709775835824
1.3128270144878171
1.9299093978887591
1.0769228550875765
1.222755953163629
3.567376091593017
3.2013916721287408
1.2791841514156352
3.2013916721287408
1.2791841514156352
1.675799226455764
2.2570194067200617
3.2013916721287408
1.2791841514156352
3.2013916721287408
1.2791841514156352
2.026836281401812
2.1302857925545036
2.3197404077170702
1.79397311980961
3.2013916721287408
1.2791841514156352
2.680994546961224
2.3389152531211574
3.20139167212874
1.2791841514156344
3.201391672128741
1.279184151415636
1.7597684769909578
1.6585757196000848
3.201391672128741
1.279184151415636
1.5204942183418244
1.7346945247041137
1.9952343881333119
1.351083973276783
1.8650615350016508
0.5250995403678468
1.5204942183418244
1.7346945247041137
3.201391672128741
1.279184151415636
3.201391672128741
1.279184151415636
2.934863587694797
2.291893819515283
2.213045983392148
2.00415460140132
2.8949997705542243
1.6659394304008424
1.5204942183418244
1.7346945247041137
1.537112767223044
1.7827385130896185
2.3069509862494693
1.9415000853701199
1.8650615350016508
0.5250995403678468
3.20139167212874
1.2791841514156346
3.7304032841571924
2.7541345386194753
3.20139167212874
1.2791841514156346
3.201391672128741
1.279184151415636
3.201391672128741
1.279184151415636
3.201391672128741
1.279184151415636
3.201391672128741
1.279184151415636
2.8949997705542243
1.6659394304008424
3.201391672128741
1.279184151415636
1.8226846544614799
1.3954685503053128
1.8458986083360802
1.0555210607290515
5.122375921904198
3.2682370191466417
3.201391672128741
1.279184151415636
2.8949997705542243
1.6659394304008424
1.801619407026071
2.4258218924591435
3.201391672128741
1.279184151415636
2.026836281401812
2.1302857925545036
1.6568815941916797
0.43605033326149834
1.3148062251480928
2.1179128849152558
1.5174612041840465
2.4542011342077195
1.9100584055324008
1.147966529846027
3.6593679512045028
2.5719558570498724
1.7159008133683313
1.879526156722926
2.3072756897762385
1.3930671457481731
2.2162804080737266
2.506911670880653
-0.17552009845206484
1.7493231890919303
1.9430919064579073
4.565065637981307
1.3469974047391806
1.6797438380279803
2.102791747720803
-0.05682130509391316
2.138436217124472
-0.32074307609836716
2.7325562727797776
4.329103880775985
0.3577216061652717
1.9811752012042283
8.403572286816146
6.548839212683041
2.6332607810923463
3.0293321176008665
2.0158852811114216
1.8575644892273129
-0.6515565741844338
2.4007776354925716
1.7328796721235884
1.9328375880210844
0.9493710697589166
0.9493710697589166
1.9407153377988415
5.976487967558984
1.9407153377988415
5.976487967558984
2.429758177147029
5.608601632265581
2.066290576553686
1.850797509739733
1.9306198556250642
3.038858612195027
2.0717795094302676
3.118720783108158
1.8284717079083652
2.0246716131125106
2.6421393668971587
3.118720783108158
2.066290576553686
4.355024513738792
4.9233975699517245
1.9560759420852034
2.3239776207362293
1.8284717079083652
2.17465318302472
2.323977620736227
2.174653183024723
3.118720783108158
2.384969678444103
1.850797509739733
2.4302251085191933
3.3102765106999428
3.118720783108158
9.41529241465589
3.118720783108158
3.1222766294212736
2.8857800095122457
3.118720783108158
2.066290576553686
1.850797509739733
2.323977620736227
2.17465318302472
2.961066976766481
2.8857800095122457
2.024671613112511
1.9560759420852007
1.850797509739733
2.024671613112511
3.038858612195027
2.9610669767664812
1.8507975097397322
2.4213201824070554
2.0717795094302676
2.0717795094302676
1.9560759420852007
2.430225108519196
1.8284717079083652
1.9306198556250642
2.503864140411906
3.118720783108158
3.049323184170709
1.9560759420852007
2.4302251085191937
2.174653183024721
2.384969678444102
1.8284717079083652
2.024671613112511
3.6994357122516726
3.173673369296236
2.4302251085191937
1.9306198556250642
3.049323184170709
3.118720783108158
1.8447924346169882
1.120127175136739
1.2588423480366981
2.9201612261644008
2.010151315288946
2.0067178809020763
3.0453409850512663
2.919880263588236
2.010151315288946
2.0067178809020763
3.0885772669025124
2.0503320572662362
2.205341513831609
1.192569477842947
1.2068444794058188
2.411804841665767
1.8536707475707548
2.5857961739807918
1.7939020826141632
2.6459964517009658
1.9751380422092124
0.7285934153758632
2.628154819812784
1.5980598075225911
1.6779317417529696
1.6731034423992122
2.32635061644831
1.9308283767789343
1.8892586781308691
1.963659611446854
2.1985056493470956
2.6618168796026196
4.16248241169831
2.1385518653505606
3.7000825857060744
2.1985056493470956
2.661816879602617
4.16248241169831
3.7000825857060744
2.559065844868975
2.661816879602617
2.223042606146901
2.082779679553525
3.7000825857060744
5.121439329723761
3.7000825857060744
2.421178949118487
2.917886260015852
2.139410667577816
3.4228261820963017
2.952295046230784
3.7000825857060744
2.139410667577815
5.121439329723761
3.7000825857060744
3.541229039982626
2.7866807543430805
2.139410667577816
2.6618168796026196
2.7866807543430805
2.139410667577816
4.164304880709467
2.917886260015852
2.082779679553525
2.223042606146901
2.1985056493470956
2.13864943894519
3.7000825857060744
2.082779679553523
1.6686607550981436
1.8584378860488062
1.6686607550981436
1.9837541560235465
2.61908231648321
2.61908231648321
2.61908231648321
1.9837541560235445
1.8284717079083652
2.61908231648321
1.9837541560235465
3.45525878810918
2.7615183372676366
1.8284717079083652
2.7615183372676366
2.61908231648321
2.1024457595373254
2.61908231648321
2.61908231648321
2.61908231648321
2.7615183372676384
2.61908231648321
2.7817970138503694
2.7444463215948645
1.8284717079083652
2.6190823164832095
1.9837541560235465
1.9837541560235445
1.983754156023545
1.9837541560235465
1.5626842107605257
2.61908231648321
2.6190823164832095
2.61908231648321
2.61908231648321
1.9837541560235445
1.9837541560235465
1.7547502087162805
2.61908231648321
1.8284717079083652
1.9837541560235465
2.61908231648321
2.7615183372676384
1.9837541560235465
2.7615183372676384
2.61908231648321
2.61908231648321
2.61908231648321
2.61908231648321
1.9837541560235465
1.8636056396841503
1.9837541560235465
2.61908231648321
2.771766210043391
1.7547502087162805
1.9837541560235445
2.7615183372676366
2.61908231648321
2.3380564142998983
1.9837541560235465
1.9837541560235477
2.61908231648321
2.61908231648321
2.3380564142998983
2.6190823164832095
2.61908231648321
1.8284717079083652
1.9837541560235445
2.375487911209626
2.61908231648321
1.9837541560235465
2.61908231648321
2.6190823164832095
2.759960791983132
1.9837541560235512
1.9837541560235445
1.9837541560235465
1.9837541560235465
2.61908231648321
2.7615183372676384
1.9837541560235465
1.9837541560235465
2.3380564142998983
1.9837541560235465
1.9837541560235465
3.0915745957564376
2.1024457595373254
1.9837541560235465
1.9837541560235465
1.9837541560235465
2.61908231648321
2.61908231648321
2.61908231648321
2.61908231648321
1.9837541560235512
2.935985386522864
2.7615183372676366
2.61908231648321
2.61908231648321
2.935985386522864
1.8284717079083652
2.61908231648321
2.5004548270627454
1.9837541560235465
2.61908231648321
2.759960791983132
1.9837541560235465
1.952784290441807
1.9837541560235465
2.61908231648321
1.9837541560235465
1.9837541560235437
2.61908231648321
2.61908231648321
1.983754156023545
2.61908231648321
2.61908231648321
1.9837541560235465
2.61908231648321
2.61908231648321
2.61908231648321
2.61908231648321
2.61908231648321
2.7615183372676384
2.7615183372676384
2.61908231648321
2.61908231648321
2.61908231648321
1.8284717079083652
1.983754156023545
1.9837541560235465
1.8284717079083652
1.5626842107605257
1.9837541560235477
2.191755545934869
3.533960584066576
1.4635297849074431
5.370690687825122
1.4635297849074431
5.370690687825122
1.4635297849074438
5.370690687825123
1.4635297849074438
5.370690687825123
1.4635297849074438
5.370690687825123
4.109148827961157
3.198362166589646
3.284951963428796
2.2608269387051387
3.198362166589647
3.198362166589647
1.9377175548794772
2.331484031414847
3.2849519634287976
2.1639451259226483
3.2849519634287976
2.2608269387051387
3.3457119105168927
3.198362166589646
2.886974779756934
1.9128404173002096
1.5151329249031618
3.198362166589647
2.2608269387051387
2.2608269387051365
3.198362166589648
1.9128404173002096
3.284951963428796
1.9128404173002096
3.3457119105168927
3.198362166589648
2.331484031414847
3.198362166589647
3.198362166589647
2.5437476201193867
2.141104441423293
2.141104441423293
3.3457119105168927
3.7797760078436355
3.198362166589647
2.2608269387051387
2.331484031414847
2.2041524876542766
2.0042293000743507
1.951516725755136
2.421792519269598
2.9149737804670286
2.762392024948855
2.7747488099237865
1.8668346601153554
1.109700874294917
2.044674129574834
1.7576549299364927
3.3552864894010326
2.9320642025570214
2.9012461154405202
0.45111558103755656
2.2490858612999336
1.669935316783611
2.1604183786749918
1.9427532219870283
6.054558182415873
6.054558182415873
6.054558182415873
6.054558182415873
6.054558182415873
5.270767201233148
8.924569795131923
1.8284717079083652
2.143483980106495
2.0120978040727673
1.828471707908364
2.0120978040727673
1.7713845961845343
7.257408308569172
1.8284717079083652
1.8284717079083652
1.8284717079083652
1.8284717079083652
2.143733412015947
2.1437334120159486
2.143733412015952
1.8284717079083652
1.828471707908367
1.8284717079083652
2.143483980106495
1.8284717079083652
7.257408308569172
1.828471707908364
2.0205229763757497
2.0120978040727673
1.8830853494191058
1.8284717079083652
1.9593420165272164
1.9593420165272164
6.967503352330793
2.143733412015947
1.86385199971614
3.0016393251117885
1.7713845961845343
2.3231108163906784
3.0016393251117885
2.617722834772045
2.0120978040727673
2.358802543632622
1.883085349419104
2.0205229763757493
1.7713845961845343
2.0299061283513447
1.8284717079083652
2.0120978040727673
2.0120978040727673
1.8830853494191058
1.7713845961845343
2.0260398500298673
1.7713845961845343
2.3231108163906784
1.8284717079083659
2.0120978040727673
2.0205229763757497
1.8284717079083639
2.0260398500298673
2.0120978040727673
1.8284717079083652
1.8284717079083652
1.8830853494191067
1.7713845961845338
1.7713845961845343
2.3421227886320666
1.8284717079083652
2.0260398500298673
1.8284717079083646
3.2859797965309814
2.0205229763757493
1.8284717079083652
1.8284717079083652
1.8284717079083652
2.0260398500298673
2.0934176506881963
1.8830853494191067
2.143483980106495
1.8830853494191058
2.8310873227179636
1.828471707908364
1.8284717079083652
1.7713845961845343
1.8830853494191058
1.7713845961845338
2.617722834772045
2.143733412015947
1.8409064598250304
2.1437334120159464
2.0260398500298673
2.6924314704530583
5.362581430631038
1.8284717079083652
1.7713845961845343
1.828471707908364
2.358802543632622
1.8830853494191058
2.0205229763757497
2.6924314704530583
1.8830853494191067
2.8263562264658195
2.22012777173807
2.143483980106495
1.8284717079083652
1.8284717079083652
1.8284717079083652
1.8284717079083652
2.7168917058915425
1.8830853494191058
1.8830853494191058
1.7713845961845343
2.143733412015947
6.967503352330793
1.8284717079083652
1.8284717079083652
1.7713845961845343
2.0205229763757497
2.3380564142998983
1.883085349419104
1.9593420165272164
2.6924314704530583
2.0205229763757497
7.257408308569172
1.8284717079083652
2.0299061283513447
2.1798373110207105
1.8284717079083652
2.143733412015947
1.8284717079083652
2.358802543632622
2.0260398500298673
1.7713845961845343
2.0120978040727637
2.356748080353974
2.0934176506881963
2.012097804072768
2.143733412015947
2.0260398500298673
1.8284717079083652
2.143733412015947
2.3380564142998983
2.0120978040727673
1.8830853494191058
2.020522976375749
1.8284717079083652
2.0120978040727673
1.9172824942389453
2.6924314704530583
1.8284717079083652
2.0205229763757493
1.8284717079083652
2.1437334120159455
1.8284717079083652
2.143483980106495
1.8830853494191058
2.3231108163906784
2.0299061283513447
2.143483980106495
1.828471707908364
1.7713845961845343
1.8284717079083652
2.143733412015947
2.0934176506881963
1.7713845961845367
1.8284717079083652
2.3380564142998983
1.828471707908364
2.020522976375746
1.8284717079083652
1.8284717079083652
2.8484160366240108
4.248788097351481
1.8284717079083652
1.8830853494191067
1.8830853494191053
1.8830853494191067
2.029906128351346
2.143733412015947
2.143733412015947
1.8284717079083652
1.8830853494191058
2.0205229763757493
2.8310873227179636
1.8284717079083652
1.7713845961845343
1.8284717079083652
2.7168917058915425
7.257408308569172
1.6194858857642314
1.716829161413285
2.279355344546988
2.0761208564876212
1.9507767764940072
1.4133302121795053
1.9288149769030023
2.7571400025139985
1.8933587856488001
3.4935014347915954
2.663525003005082
2.663525003005082
2.663525003005082
2.663525003005082
1.4793410620791523
3.8749888448407157
2.279355344546988
2.0761208564876212
2.6530143449887893
1.8284717079083652
1.8284717079083652
2.91004216230596
2.3380564142998983
2.91004216230596
2.7821741702442377
1.8284717079083652
2.0184344891920514
2.4440310979594346
1.759353201147176
1.8284717079083652
2.3380564142998983
2.9100421623059596
1.8284717079083652
1.8284717079083652
1.953013432526013
1.953013432526013
3.7681628582859235
3.2456261590112936
2.0184344891920514
2.3380564142998983
2.7821741702442377
1.8284717079083652
2.6530143449887893
4.421512218811854
2.7821741702442377
2.7821741702442377
2.0184344891920514
2.7821741702442377
4.421512218811854
1.8284717079083652
1.8284717079083652
3.7681628582859235
1.8284717079083652
2.7821741702442377
3.565668024436017
2.7821741702442377
2.6530143449887893
1.8284717079083652
2.4440310979594346
1.759353201147176
4.139837499096502
1.8284717079083652
2.7821741702442377
5.069213693093316
1.8284717079083652
1.8284717079083652
2.7821741702442377
1.8284717079083652
1.8284717079083652
2.240805310573775
2.528335555405823
2.0835360207644507
2.167928096176291
2.0835360207644507
2.0835360207644498
2.0835360207644484
3.4241828942697787
2.78668075434308
2.528335555405823
2.0835360207644498
2.240805310573775
2.167928096176291
2.725053967591396
2.240805310573775
2.167928096176291
2.78668075434308
2.0835360207644507
1.9171936576499595
1.9171936576499595
1.9171936576499595
3.2182011253433234
3.2182011253433265
3.2182011253433265
1.9171936576499593
1.9171936576499593
1.9171936576499593
3.218201125343321
2.273054607424966
2.273054607424966
2.7826131511346848
2.273054607424966
2.3380564142998983
2.7826131511346848
2.7826131511346848
2.273054607424966
2.3380564142998983
2.7826131511346848
2.3380564142998983
2.273054607424966
2.7826131511346848
2.7826131511346848
2.7826131511346848
2.7826131511346848
2.782613151134684
2.782613151134684
2.7826131511346848
2.273054607424966
2.188361889789731
2.1883618897897263
3.6292543699623643
2.1883618897897263
2.207810113592446
2.3462788090047786
3.0555545994165945
2.188361889789727
2.3462788090047786
2.5322540340956126
4.308796904657729
3.9146161836312596
2.5322540340956126
