GIS
1
0.0
16
Purpose
Circumstance
Temporal
Concession
Contrast
Conjunction
Restatement
Continuation
Cause
Alternative
Instantiation
Exception
Condition
Reinforcement
Background
Similarity
56
367 0
2 0 1
1 0 1 2 3 4 5 6 8 9 11 12 14
1 0 1 2 4 5 8
1 0 2 3 4 5 7 8 9 13
2 0 2 3 5 7 8 13
1 0 2 3 8 12
1 0 2 5 7 8
5 0 2 8
1 0 4 6 10
1 0 4 8
5 0 8
5 1
76 1 2
1 1 2 3 4 5 6 8 9 12 13 14 15
5 1 2 8
6 1 2 12
2 1 3 4 14
4 1 12
2 1 13
239 2
3 2 3 4 5
1 2 3 8
1 2 4 5 6 8 10 13
1 2 4 6
50 2 5
1 2 5 6
1 2 5 7
3 2 5 8
1 2 5 9
4 2 6
7 2 8
3 2 8 14
4 2 12
67 3
15 3 4
41 4
1 4 8 10
139 5
1 5 7
7 5 8
38 6
4 6 8
5 6 8 14
1 6 10
6 7
1 7 13
193 8
1 8 11
5 8 14
51 9
18 10
11 11
26 12
9 13
4 15
1452
with_prev_full:branching_through
with_prev_full:responsible_for
with_prev_full:tool_in
with_prev_full:processed_for
with_prev_full:functions_by
with_prev_full:tissues_through
conn:particularly_through
conn:for
with_prev_full:aligned_by
with_prev_full:results_in
with_prev_full:-rrb-_in_order_to
with_prev_full:trials_in_order_to
with_prev_full:collected_for
with_prev_full:drawn_by
with_prev_full:reference_for
with_prev_full:,_in_order_to
with_prev_full:for_by
conn_lc:in_part_via
with_prev_full:t-cells_both_in_response_to
with_prev_full:disease_by
with_prev_full:androgens_by
conn:To
with_prev_full:digested_by
with_prev_full:site_for
with_prev_full:resorption_by
with_prev_full:function_by
with_prev_full:required_to
with_prev_full:act_through
with_prev_full:supported_to
conn:both_in_response_to
with_prev_full:gene_through
with_prev_full:smad2\/3_to
with_prev_full:affected_by
with_prev_full:inhibition_by
with_prev_full:ks_by
with_prev_full:calcium_through
with_prev_full:pathway_through
with_prev_full:formed_by
with_prev_full:agarose_to
with_prev_full:elongating_by
with_prev_full:phenotypes_by
with_prev_full:chosen_in_order_to
with_prev_full:sensitive_to
with_prev_full:phenotype_by
with_prev_full:footnote_for
conn_lc:for
with_prev_full:produced_by
with_prev_full:inverted_by
conn:specifically_to
with_prev_full:amplification_for
with_prev_full:shut-off_by
with_prev_full:signal_through
with_prev_full:signals_to
with_prev_full:cell_by
with_prev_full:parameters_in_order_to
with_prev_full:-lrb-_by
with_prev_full:stroma_by
with_prev_full:studied_by
with_prev_full:analysis_to
with_prev_full:that_by
with_prev_full:cells_by_means_of
with_prev_full:elicitation_to
with_prev_full:approach_to
with_prev_full:section_to
with_prev_full:buffer_to
with_prev_full:abolished_by
with_prev_full:quantitated_by
with_prev_full:checked_via
with_prev_full:round_to
with_prev_full:calculated_by
with_prev_full:mite_to
with_prev_full:naoh_in_order_to
conn_lc:in_large_part_by
with_prev_full:screen_to
with_prev_full:set_to
with_prev_full:ultrasound_to
with_prev_full:lap_to
with_prev_full:assay_to
with_prev_full:exemplified_by
with_prev_full:assays_in_order_to
with_prev_full:stimulation_by
with_prev_full:assessed_through
with_prev_full:blood_by
with_prev_full:transcription_in_order_to
with_prev_full:computed_to
with_prev_full:measure_to
with_prev_full:systems_to
with_prev_full:diminished_by
with_prev_full:established_by
with_prev_full:tested_by
with_prev_full:fails_to
with_prev_full:jak_by
with_prev_full:hybridisation_to
conn:primarily_by
with_prev_full:constructed_for
with_prev_full:enough_to
with_prev_full:,_in_part_via
with_prev_full:signaling_by
conn:Via
with_prev_full:cells_to
with_prev_full:fragments_by
with_prev_full:hes-1_by
with_prev_full:region_for
with_prev_full:simulation_to
with_prev_full:occur_by
conn:In_order_to
with_prev_full:ifn-γ_in_order_to
with_prev_full:clustering_to
with_prev_full:visualised_by
with_prev_full:h._for
with_prev_full:inflammation_by
with_prev_full:controls_to
with_prev_full:cells_through
with_prev_full:proposed_to
with_prev_full:purified_by
with_prev_full:difficult_to
with_prev_full:coordinated_to
with_prev_full:centrifuged_to
with_prev_full:microarrays_in_order_to
with_prev_full:cultured_for
with_prev_full:added_by
conn:via
with_prev_full:arthritis_by
with_prev_full:defined_by
with_prev_full:responses_by
with_prev_full:cluster_to
with_prev_full:activity_by
with_prev_full:receptors_to
with_prev_full:pathologist_to
with_prev_full:controlled_by
conn:through
with_prev_full:useful_for
with_prev_full:cause_for
with_prev_full:useful_to
with_prev_full:production_in_part_by
with_prev_full:expression_by
with_prev_full:sarcoma_by
with_prev_full:instructive_by
with_prev_full:determined_by
with_prev_full:panel_for
with_prev_full:sequence_predominantly_via
with_prev_full:tolerance_to
with_prev_full:but_to
with_prev_full:silenced_by
with_prev_full:protein_to
with_prev_full:,_through
with_prev_full:signals_through
with_prev_full:gene_by
with_prev_full:essential_for
with_prev_full:not_to
with_prev_full:,_particularly_through
with_prev_full:manipulated_to
with_prev_full:oligonucleotide_to
with_prev_full:collected_by
with_prev_full:completely_by
with_prev_full:investigated_by
with_prev_full:signalling_to
with_prev_full:-lrb-_via
conn:by_means_of
with_prev_full:down-regulation_via
with_prev_full:bear_to
conn_lc:predominantly_via
conn_lc:in_order_for
with_prev_full:left_to
with_prev_full:population_to
with_prev_full:not_through
conn:For
with_prev_full:,_particularly_to
with_prev_full:azadc_to
conn:Through
with_prev_full:blotting_to
with_prev_full:augmented_by
with_prev_full:verified_by
with_prev_full:employed_to
with_prev_full:gy_to
with_prev_full:expression_to
conn_lc:specifically_to
with_prev_full:estimated_by
with_prev_full:min_to
with_prev_full:selection_via
with_prev_full:experiment_by
with_prev_full:loop_to
with_prev_full:neurons_by
with_prev_full:rescued_by
with_prev_full:developed_for
with_prev_full:measured_by
with_prev_full:induced_by
with_prev_full:depleted_by
with_prev_full:identified_by
with_prev_full:tissue_through
with_prev_full:ligand_to
with_prev_full:used_to
with_prev_full:performed_to
with_prev_full:tissues_by
with_prev_full:,_to
with_prev_full:undertaken_to
with_prev_full:fusion_to
with_prev_full:depicted_by
conn:in_part_via
with_prev_full:out_by
conn_lc:particularly_through
with_prev_full:included_to
conn:to
with_prev_full:standard_to
with_prev_full:ensured_by
with_prev_full:procedure_to
with_prev_full:signals_by
with_prev_full:cells_by
with_prev_full::_in_order_to
with_prev_full:encoded_by
with_prev_full:selected_by
with_prev_full:regulated_by
with_prev_full:confirmed_by
with_prev_full:paraformaldehyde_to
with_prev_full:-rrb-_to
with_prev_full:panel_to
conn_lc:in_order_to
with_prev_full:studies_to
with_prev_full:calcium_for
conn_POS:IN_DT_NN_TO
with_prev_full:made_by
with_prev_full:failed_to
with_prev_full:-rsb-_to
with_prev_full:plated_for
with_prev_full:conceived_by
with_prev_full:-rrb-_specifically_to
with_prev_full:role_for
with_prev_full:simulations_to
with_prev_full:shown_by
with_prev_full:homogenized_by
with_prev_full:evaluated_by
conn_POS:IN_NNS_IN
with_prev_full:specificity_by
with_prev_full:pbmncs_to
with_prev_full:captured_by
with_prev_full:marker_for
with_prev_full:test_by
conn:in
with_prev_full:mediated_by
with_prev_full:derived_by
with_prev_full:pathway_to
with_prev_full:prepared_by
with_prev_full:constructed_by
with_prev_full:organogenesis_through
with_prev_full:stopped_by
with_prev_full:coagulation_by
with_prev_full:excluded_by
conn:predominantly_via
with_prev_full:level_to
conn:mainly_by
conn:in_large_part_by
with_prev_full:numbers\/activity_to
with_prev_full:normalized_by
with_prev_full:normally_by
with_prev_full:response_by
with_prev_full:cd69_to
conn_lc:by_means_of
with_prev_full:achieved_by
with_prev_full:seb_by
with_prev_full:annotated_by
with_prev_full:tissue_by
with_prev_full:primers_to
with_prev_full:accomplished_in_large_part_by
conn_lc:in_an_effort_to
with_prev_full:expressed_by
with_prev_full:gene_to
conn_lc:primarily_by
with_prev_full:c_to
with_prev_full:leukaemogenesis_by
conn_POS:TO
with_prev_full:done_by
with_prev_full:,_in_part_by
with_prev_full:reduced_by
with_prev_full:overcome_by
with_prev_full:erg_to
with_prev_full:reversed_by
conn_lc:to
with_prev_full:activated_by
conn:In_an_effort_to
with_prev_full:dnase_to
with_prev_full:treg_to
with_prev_full:branching_by
with_prev_full:function_in_order_to
with_prev_full:,_mainly_by
conn:By
with_prev_full:treated_by
with_prev_full:around_to
with_prev_full:right_to
conn:In_order_for
with_prev_full:strategies_for
with_prev_full:performed_by
conn_POS:DT_IN_NN_TO
with_prev_full:crucial_for
with_prev_full:,_by_means_of
with_prev_full:primarily_via
with_prev_full:observed_in_order_to
with_prev_full:,_via
conn:particularly_to
with_prev_full:dnas_for
with_prev_full:suppression_to
with_prev_full:follicles_for
with_prev_full:population_through
with_prev_full:detected_via
with_prev_full:assessed_by
with_prev_full:translocations_by
with_prev_full:isolated_by
with_prev_full:indirectly_by
with_prev_full:abrogated_by
with_prev_full:sensitivity_to
with_prev_full:strategy_for
with_prev_full:-rrb-_by
with_prev_full:sites_by
with_prev_full:mrna_for
with_prev_full:explained_by
with_prev_full:amplification_to
conn_lc:mainly_by
with_prev_full:other_to
with_prev_full:neutralized_by
with_prev_full:stimulated_by
conn_lc:both_in_response_to
with_prev_full:unresponsiveness_by
with_prev_full:achieved_primarily_by
with_prev_full:obtained_by
with_prev_full:extended_to
with_prev_full:death_through
with_prev_full:triggered_by
with_prev_full:explanation_for
with_prev_full:respond_by
with_prev_full:occur_through
with_prev_full:results_to
with_prev_full:pathway_by
with_prev_full:evaluated_to
with_prev_full:detected_by
with_prev_full:initiated_by
with_prev_full:micropipette_to
with_prev_full:generated_by
with_prev_full:genes_through
conn:in_order_to
conn_lc:particularly_to
with_prev_full:background_to
with_prev_full:pbmc_by
with_prev_full:cells_via
with_prev_full:hours_to
with_prev_full:samples_by
with_prev_full:sufficient_to
with_prev_full:recombination_to
with_prev_full:quantitatively_by
with_prev_full:analyzed_by
with_prev_full:methylation_via
with_prev_full:chosen_to
with_prev_full:,_by
conn_lc:via
with_prev_full:recombinase_to
with_prev_full:field_in_order_to
with_prev_full:species_by
with_prev_full:downstream_by
with_prev_full:curation_to
with_prev_full:osteoclasts_through
with_prev_full:transientlyco-expressed_via
with_prev_full:regulation_via
with_prev_full:probe_in_order_to
with_prev_full:dictated_by
with_prev_full:quantified_by
with_prev_full:levels_by
with_prev_full:tumors_by
with_prev_full:used_for
conn_lc:through
conn:In
conn_lc:in
conn_POS:IN
conn_POS:IN_NN_TO
conn_POS:CC
conn:and
conn_lc:and
conn_POS:RB_IN
with_prev_full:,_and
conn_POS:RB_TO
conn_lc:by
conn_lc:as
conn:by
conn:As
conn_POS:NNP
conn_POS:IN_NN_IN
with_prev_full:inhibited_by
conn_POS:IN_JJ_NN_IN
conn_lc:in_part_by
conn:in_part_by
with_prev_full:activation_by
with_prev_full:but_once
with_prev_full:produced_in_response_to
with_prev_full:pdcs_once
with_prev_full:identically_when
with_prev_full:animals_in_response_to
with_prev_full:activity_after
with_prev_full:mrna_upon
with_prev_full:equivalent_when
with_prev_full:phosphorylated_upon
with_prev_full:cases_after
with_prev_full:-rrb-_when
with_prev_full:obtained_when
conn:both_upon
with_prev_full:,_when
with_prev_full:that_when
with_prev_full:cells_after
with_prev_full:ability_once
with_prev_full:ifn-γ_after
with_prev_full:apoptosis_when
with_prev_full:cells_when
with_prev_full:upregulation_four_hours_after
with_prev_full:supershift_when
with_prev_full:efficient_when
with_prev_full:cells_both_upon
conn_lc:between_1_2_h_after
conn_POS:RB_WRB
with_prev_full:achieved_after
conn_lc:only_when
with_prev_full:cell_after
conn_lc:both_upon
with_prev_full:phosphorylation_in_response_to
with_prev_full:bmp-6_upon
conn_POS:IN_CD_CD_NN_IN
conn_POS:CD_NNS_IN
with_prev_full:aa_upon
with_prev_full:eliminated_when
with_prev_full:cells_once
with_prev_full:confirmed_when
with_prev_full:event_in_response_to
conn:Upon
with_prev_full:observed_when
with_prev_full:amplified_after
with_prev_full:marker_when
with_prev_full:post-induction_when
conn:In_response_to
with_prev_full:shifted_after
conn:between_1_2_h_after
conn:upon
with_prev_full:il-2_in_response_to
conn:four_hours_after
with_prev_full:tip_when
with_prev_full:level_after
with_prev_full:vivo_when
with_prev_full:h_after
with_prev_full:tissues_in_response_to
conn_POS:DT_IN
with_prev_full:gamma_after
with_prev_full:detected_when
with_prev_full:which_when
with_prev_full:transcripts_after
conn:after
with_prev_full:hours_after
with_prev_full:formation_when
with_prev_full:responsiveness_upon
conn_lc:upon
with_prev_full:induced_after
with_prev_full:detected_after
with_prev_full:-_when
with_prev_full:activity_when
with_prev_full:secretion_upon
with_prev_full:higher_when
with_prev_full:occurring_between_1_2_h_after
conn_lc:four_hours_after
with_prev_full:%_when
conn:only_when
with_prev_full:seen_after
with_prev_full:increased_when
with_prev_full:p56lck_after
with_prev_full:mrna_after
with_prev_full:aa_after
with_prev_full:augmented_only_when
conn_POS:RB
conn:in_response_to
with_prev_full:stability_in_response_to
conn_lc:in_response_to
conn_lc:after
conn:After
conn_POS:WRB
conn_lc:when
conn:when
conn:When
conn_lc:once
conn:once
conn_lc:however
conn:However
with_prev_full:mice_if
conn:If
conn_lc:if
conn:if
conn_lc:indeed
conn:Indeed
with_prev_full:to_after
with_prev_full:inflammation_following
with_prev_full:differentiation_after
conn_lc:two_years_after
with_prev_full:occurred_after
conn_lc:after_which
conn_lc:30_minutes_prior_to
with_prev_full:enhanced_upon
with_prev_full:protein_then
with_prev_full:thymidine_after
conn:at_some_point_after
conn:20_min_later
with_prev_full:delivered_prior_to
with_prev_full:and_in_turn
with_prev_full:for_after
conn:during
conn_lc:forty-eight_hours_after
conn_lc:before
conn_POS:CD_CD_NNS_IN
with_prev_full:sequenced_after
conn:On
with_prev_full:detected_upon
conn:Since_then
with_prev_full:and_when
with_prev_full:ends_after
conn:three_days_before
with_prev_full:il-2_following
conn_lc:on
with_prev_full:she_subsequently
conn_lc:thereafter
with_prev_full:-rrb-_after_which
conn:Three_days_after
conn:8_12_weeks_after
with_prev_full:column_after
with_prev_full:slip_before
with_prev_full:this_then
with_prev_full:line_after
with_prev_full:clefts_before
conn:until
with_prev_full:pdcs_after
conn_POS:CD_NNS_RB_TO
with_prev_full:,_after
with_prev_full:also_after
with_prev_full:subcutaneously_three_days_before
conn_POS:IN_RB
with_prev_full:ancrod_prior_to
with_prev_full:c_followed_by
with_prev_full:observed_as_early_as_24_h_after
conn_lc:hereafter
conn_lc:immediately_after
with_prev_full:,_followed_4_hours_later_by
with_prev_full:death_after
with_prev_full:c_until
with_prev_full:augmented_after
conn:30_minutes_prior_to
with_prev_full:regulated_following
with_prev_full:nodes_following
with_prev_full:responses_following
conn:thereafter
with_prev_full:tasks_during
with_prev_full:mainly_after
with_prev_full:arthritis_in_response_to
with_prev_full:permeabilized_prior_to
conn:During
conn_lc:as_early_as_24_h_after
conn_lc:2_hours_following
with_prev_full:-rrb-_following
conn_lc:subsequently
conn_lc:prior_to
conn:One_day_after
with_prev_full:assessed_before
with_prev_full:cdna_then
with_prev_full:regression_before
conn:prior_to
with_prev_full:induction_followed_by
conn_lc:one_day_after
with_prev_full:retained_after
conn_POS:CD_NNS_RBR
conn_lc:until
with_prev_full:analyzed_8_12_weeks_after
with_prev_full:h._thereafter
with_prev_full:cassette_after
with_prev_full:c._following
with_prev_full:synthesis_after
conn:followed_4_hours_later_by
with_prev_full:cluster_before
with_prev_full:upregulation_two_hours_after
with_prev_full:-rrb-_two_hours_before
with_prev_full::_as
conn_POS:RB_RB_IN_CD_NN_IN
conn:Thereafter
with_prev_full:longer_before
with_prev_full:staining_following
with_prev_full:activated_following
with_prev_full:healthy_since
with_prev_full:hours_followed_by
with_prev_full:hour_prior_to
conn_POS:CC_IN
conn_POS:CD_NN_RB
conn_lc:20_min_later
with_prev_full:pathway_following
with_prev_full:s_followed_by
with_prev_full:was_next
conn:after_which
with_prev_full:c-jun_following
with_prev_full:separately_when
with_prev_full:min_after
with_prev_full:expand_following
conn:as_early_as_24_h_after
with_prev_full:rt-pcr_after
with_prev_full:cells_180_seconds_after
with_prev_full:contact_while
with_prev_full:,_before
conn_lc:following
with_prev_full:accumulate_following
conn:180_seconds_after
conn_lc:three_days_before
conn_lc:during
with_prev_full:breast_two_years_after
conn:following
with_prev_full:observed_until
with_prev_full:hour_following
with_prev_full:function_while
with_prev_full:delay_after
with_prev_full:occurring_at_some_point_after
conn:hereafter
with_prev_full:smads_then
with_prev_full:done_after
with_prev_full:we_then
conn_lc:followed_4_hours_later_by
with_prev_full:-rrb-_prior_to
with_prev_full:was_subsequently
with_prev_full:dnmts_during
with_prev_full:measured_after
with_prev_full:il-10_before
with_prev_full:stochastically_after
with_prev_full:signal_after
with_prev_full:were_thereafter
with_prev_full:expression_2_hours_following
with_prev_full:were_then
conn:well_before
with_prev_full:bound_following
with_prev_full:role_during
with_prev_full:and_after
with_prev_full:and_finally
with_prev_full:thymus_after
conn:immediately_after
with_prev_full:,_well_before
with_prev_full:activation_following
conn_lc:two_hours_after
with_prev_full:and_subsequently
with_prev_full:staining_after
with_prev_full:mixture_prior_to
with_prev_full:synthesis_following
with_prev_full:analyses_hereafter
with_prev_full:night_before
conn:before
with_prev_full:similarities_during
with_prev_full:harvested_20_min_later
conn_lc:well_before
with_prev_full:gene_after
with_prev_full:observed_after
with_prev_full:follicles_following
conn:Four_days_after
with_prev_full:hysterectomy_followed_by
with_prev_full:c._finally
with_prev_full:treated_while
with_prev_full:complicatedly_upon
with_prev_full:pbmncs_prior_to
conn:2_hours_following
with_prev_full:changes_when
conn:Four_hours_later
conn_lc:8_12_weeks_after
with_prev_full:infants_after
with_prev_full:1994_when
with_prev_full:secretion_following
with_prev_full:enrichment_prior_to
with_prev_full:lumpectomy_followed_by
with_prev_full:observed_following
with_prev_full:hours_before
with_prev_full:which_subsequently
conn:two_hours_after
conn:two_years_after
with_prev_full:,_following
with_prev_full:,_both_upon
conn:Following
conn:Forty-eight_hours_after
with_prev_full:occurs_when
with_prev_full:;_subsequently
conn:Once
with_prev_full:immunoblotting_after
with_prev_full:production_upon
with_prev_full:-rrb-_before
with_prev_full:amplification_when
with_prev_full:points_before
conn_lc:two_hours_before
with_prev_full:c._four_hours_later
with_prev_full:account_when
with_prev_full:analysis_after
conn_POS:JJ_NNS_IN
with_prev_full:was_then
with_prev_full:sick_following
conn_lc:four_hours_later
conn:subsequently
conn_lc:since_then
with_prev_full:phospho-p38_upon
with_prev_full:added_following
with_prev_full:and_then
with_prev_full:-rrb-_after
with_prev_full:synovium_following
with_prev_full:cross-linking_after
with_prev_full:cells_subsequently
with_prev_full:cells_following
with_prev_full:occurring_immediately_after
conn_lc:at_some_point_after
with_prev_full:less_after
with_prev_full:seen_following
conn_POS:CD_NNS_VBG
with_prev_full:performed_following
with_prev_full:transfected_after
conn:Then
conn_lc:three_days_after
conn_POS:VBD_CD_NNS_RB_IN
with_prev_full:pcr_after
conn:two_hours_before
with_prev_full:secreted_following
with_prev_full:twice_prior_to
with_prev_full:apoptosis_after
with_prev_full:that_during
with_prev_full:h_before
with_prev_full:ug\/ml_30_minutes_prior_to
with_prev_full:induction_upon
with_prev_full:rna_when
with_prev_full:performed_prior_to
conn:Two_hours_after
conn_lc:180_seconds_after
conn:Subsequently
with_prev_full:visible_following
conn_lc:four_days_after
with_prev_full:,_while
conn_lc:while
conn:while
conn_POS:IN_DT_NN_IN
conn_POS:IN_NN
conn_POS:VBG
conn_lc:finally
with_prev_full:naoh_and
with_prev_full:c_and
with_prev_full:i.v._and
conn:next
with_prev_full:,_finally
conn_POS:VBD_IN
with_prev_full:probe_and
with_prev_full:filters_and
conn_lc:second
with_prev_full:extracted_and
with_prev_full:densitometry_and
conn:Third
conn_lc:next
with_prev_full:mice_and
conn:Finally
with_prev_full:h_and
with_prev_full:sieve_and
with_prev_full:we_next
with_prev_full:mats_and
conn_lc:10_min_before
conn_POS:CD_NN_IN
conn_lc:followed_by
conn:10_min_before
with_prev_full:later_and
with_prev_full:electronically_and
conn:Next
conn_POS:LS
with_prev_full:isolated_and
with_prev_full:added_10_min_before
with_prev_full:were_finally
conn:Second
conn:followed_by
with_prev_full:harvested_and
conn:In_turn
with_prev_full:sample_and
with_prev_full:medium_and
with_prev_full:times_and
with_prev_full:added_and
with_prev_full:seb_and
with_prev_full:sacrificed_and
with_prev_full:igm-ic_and
conn:finally
with_prev_full:,_followed_by
with_prev_full:growth_while
with_prev_full:ice_and
with_prev_full:activation_and
with_prev_full:,_in_turn
with_prev_full:nuclei\/ml_and
conn_lc:third
conn_POS:JJ
with_prev_full:-rrb-_and
with_prev_full:this_in_turn
conn_lc:in_turn
conn:in_turn
conn_POS:NN
with_prev_full:,_then
conn_POS:IN_WDT
conn:then
conn_lc:then
with_prev_full:diagnosed_as
with_prev_full:occur_in_response_to
conn:as
with_prev_full:decreased_by
with_prev_full:practice_as
conn:Since
with_prev_full:,_as
conn:since
conn_lc:since
conn_POS:VBN_IN
with_prev_full:arise_when
with_prev_full:model_when
with_prev_full:,_once
with_prev_full:dangerous_when
conn:none-the-less
with_prev_full:,_regardless_of
with_prev_full:yet_still
conn_lc:despite_the_fact_that
with_prev_full:treg_although
with_prev_full:-rrb-_but
with_prev_full:,_although_although_these_cells_still
conn:despite
conn_lc:despite
with_prev_full:performed_but
conn_lc:none-the-less
with_prev_full:that_whilst
with_prev_full:that_while
conn:nevertheless
with_prev_full:that_although
conn:although_although_these_cells_still
conn:albeit
with_prev_full:-lrb-_although
with_prev_full:vivo_albeit
with_prev_full:phenotypes_but
conn_lc:even_though
conn:regardless_of
with_prev_full:has_however
conn:Despite
with_prev_full:gene_but
with_prev_full:tested_and
with_prev_full:weaker_but
conn:Still
conn:Nonetheless
with_prev_full:heterozygotes_despite
with_prev_full:cells_but
with_prev_full:but_none-the-less
with_prev_full:-rrb-_even_though
with_prev_full:cells_although
conn_lc:albeit
conn:Even_though
conn_lc:nonetheless
with_prev_full:observed_despite
with_prev_full:is_nevertheless
with_prev_full:,_even_though
with_prev_full:arthritis_despite
conn:Despite_the_fact_that
conn:Regardless_of
conn:even_though
conn_lc:nevertheless
with_prev_full:conclusion_although
with_prev_full:abstract_although
with_prev_full:might_nevertheless
with_prev_full:,_however
conn_POS:IN_IN_DT_NNS_RB
conn:still
conn_lc:still
with_prev_full:similar_but
with_prev_full:marker_but
conn_lc:though
with_prev_full:it_nevertheless
with_prev_full:should_however
with_prev_full:,_albeit
conn_lc:regardless_of
conn_lc:although_although_these_cells_still
with_prev_full:,_despite
conn:But
conn:Nevertheless
with_prev_full:noted_however
with_prev_full:could_still
conn:Though
with_prev_full:tested_but
conn:however
with_prev_full:;_however
conn_lc:on_the_other_hand
conn:While
conn_POS:IN_DT_JJ_NN
conn:Although
with_prev_full:,_but
conn_lc:whilst
conn_lc:but
conn:but
conn:although
conn_lc:although
conn:whilst
conn:On_the_other_hand
with_prev_full:,_although
conn_POS:IN_DT_JJ
conn_lc:in_comparison_to
conn_lc:in_contrast
with_prev_full:-rsb-_but
with_prev_full:,_whereas
with_prev_full:synthesis_while
conn:in_comparison_to
conn:By_contrast
with_prev_full:metastasis_but
with_prev_full:disease_while
conn_lc:in_contrast_to
with_prev_full:-rrb-_whereas
conn_lc:by_contrast
with_prev_full:,_on_the_other_hand
with_prev_full:,_in_contrast_to
with_prev_full:but_while
with_prev_full:data_however
with_prev_full:genes_while
conn_lc:whereas
conn_lc:in_comparison_with
with_prev_full:cells_whereas
conn:In_contrast_to
with_prev_full:,_whilst
with_prev_full:stimulation_while
with_prev_full::_whereas
with_prev_full:not_however
with_prev_full:-rrb-_while
conn:Whereas
conn_lc:on_the_contrary
with_prev_full:that_whereas
conn:In_contrast
conn:On_the_contrary
with_prev_full:detected_whereas
conn:Whilst
conn:In_comparison_with
with_prev_full:but_in_contrast_to
conn:on_the_other_hand
with_prev_full:that_in_comparison_to
conn:whereas
with_prev_full:cells_while
conn:in_contrast_to
conn_POS:IN_DT_NN
with_prev_full:data_also
with_prev_full:lethal_and
with_prev_full:%_and
with_prev_full:patients_and
with_prev_full:wells_and
with_prev_full:but_also
conn_POS:RB_JJ_JJ_IN_DT_NN_VBN_CC_RB
with_prev_full:tissue_and
with_prev_full:while_also
conn:In_addition_to
conn_lc:additionally
with_prev_full:depends_not_only_only_on_the_marker_used_but_also
conn_lc:moreover
with_prev_full:cases_and
with_prev_full:,_in_addition_to
with_prev_full:pdcs_and
with_prev_full:buds_and
with_prev_full:bound_and
with_prev_full:replication_and
conn:Further
conn_lc:furthermore
conn_lc:not_only_only_act_as_mediators_of_negative_feedback_inhibition_,_but_also
with_prev_full:cell_and
with_prev_full:will_also
with_prev_full:was_also
with_prev_full:has_also
with_prev_full:treg_also
with_prev_full:was_further
with_prev_full:buffer_and
with_prev_full:described_and
with_prev_full:axis_and
with_prev_full:ifn-α_and
with_prev_full:we_also
with_prev_full:can_also
conn:furthermore
with_prev_full:specific_and
with_prev_full:that_not_only_only_act_as_mediators_of_negative_feedback_inhibition_,_but_also
with_prev_full:solution_also
with_prev_full:fibrosis_and
conn:Conversely
with_prev_full:which_also
with_prev_full:20_and
with_prev_full:constellation_and
with_prev_full:receptors_and
with_prev_full:development_and
with_prev_full:may_also
with_prev_full:to_also
conn:further
with_prev_full:would_also
with_prev_full:experiments_and
conn:Furthermore
with_prev_full:,_furthermore
with_prev_full:were_also
conn:Moreover
with_prev_full:activity_and
conn_lc:not_only_only_can_tgf-β_mediate_cell_cell_suppression_between_the_regulatory_t_cells_and_cd4_+_cd25_-_or_cd8_+_t_cells_,_but_but_new_evidence_also
with_prev_full:might_also
with_prev_full:are_also
with_prev_full:products_and
with_prev_full:analysis_and
conn:Not_only_only_can_TGF-β_mediate_cell_cell_suppression_between_the_regulatory_T_cells_and_CD4_+_CD25_-_or_CD8_+_T_cells_,_but_but_new_evidence_also
with_prev_full:tumours_and
with_prev_full:bmps_and
conn_lc:not_only_only_on_the_marker_used_but_also
with_prev_full:and_also
conn_lc:further
with_prev_full:arrows_and
with_prev_full:mice_also
with_prev_full:disappeared_and
with_prev_full:obtained_also
with_prev_full:breasts_and
with_prev_full:preincubation_and
conn:In_addition
conn_lc:also
with_prev_full:is_also
with_prev_full:tumours_also
with_prev_full:polypeptides_also
with_prev_full:low_and
conn:Also
conn_lc:conversely
with_prev_full:notch_also
with_prev_full:assay_also
conn_POS:RB_JJ_JJ_MD_NNP_VB_NN_NN_NN_IN_DT_JJ_NNP_NNS_CC_NNP_NNP_NNP_:_CC_CD_NNP_NNP_NNS_,_CC_CC_JJ_NN_RB
with_prev_full:colleagues_also
with_prev_full:fk506_also
conn_lc:in_addition_to
conn:in_addition_to
with_prev_full:,_in_addition
with_prev_full:studies_also
with_prev_full:findings_and
with_prev_full:they_also
with_prev_full:immunocytochemistry_and
with_prev_full:il-15_also
with_prev_full:function_and
with_prev_full:markers_and
with_prev_full:pbs_and
with_prev_full:hybridisation_and
conn:also
with_prev_full:;_second
conn:Additionally
with_prev_full:centrifuged_and
with_prev_full:concentrations_and
conn:second
conn_POS:RB_JJ_JJ_VBP_IN_NNS_IN_JJ_NN_NN_,_CC_RB
with_prev_full:course_and
with_prev_full:are_further
with_prev_full:mrna_also
with_prev_full:origin_and
conn_lc:in_addition
with_prev_full:formation_also
conn_POS:RBR
with_prev_full:mutants_also
with_prev_full:amplicons_and
with_prev_full:,_also
with_prev_full:have_also
with_prev_full:differentiation_and
with_prev_full:reaction_and
with_prev_full:it_also
with_prev_full:thermocycling_and
with_prev_full:offspring_and
with_prev_full:ra_also
with_prev_full:points_and
with_prev_full:antibodies_and
with_prev_full:;_and
with_prev_full:technique_also
with_prev_full:injection_and
with_prev_full:size_and
conn:Meanwhile
conn_lc:meanwhile
with_prev_full:results_also
with_prev_full:gene_and
with_prev_full:cells_and
with_prev_full:hours_and
conn:not_only_only_act_as_mediators_of_negative_feedback_inhibition_,_but_also
with_prev_full:markers_also
with_prev_full:ly294002_also
conn:not_only_only_on_the_marker_used_but_also
with_prev_full:study_further
with_prev_full:cells_also
with_prev_full:-rsb-_and
conn_lc:accordingly
with_prev_full:consuming_and
with_prev_full:perfect_and
conn:Accordingly
with_prev_full:reduced_and
with_prev_full:vitro_and
with_prev_full:samples_and
conn:So
conn:In_brief
conn_lc:briefly
with_prev_full:by_specifically
conn:In_outline
conn:In_general
with_prev_full:;_i.e.
conn:namely
conn:Notably
with_prev_full:,_i.e.
conn_lc:notably
with_prev_full:,_specifically
conn:with
conn_lc:in_brief
conn:In_particular
conn_lc:in_that
conn_POS:VBZ
conn:In_conclusion
with_prev_full:-lrb-_specifically
conn:specifically
conn:In_summary
conn:in_that
with_prev_full:e2_therefore
conn:Briefly
with_prev_full:,_in_that
with_prev_full:,_with
conn_lc:in_summary
with_prev_full:,_namely
conn_lc:in_outline
conn_lc:in_general
conn_lc:specifically
conn_lc:i.e.
conn:i.e.
conn_lc:with
conn:Specifically
conn_lc:in_conclusion
with_prev_full:we_specifically
conn_lc:namely
conn_POS:IN_JJ
conn_lc:thus
conn:Thus
conn_lc:so
conn:therefore
conn_POS:VBN
conn:Therefore
conn_lc:therefore
with_prev_full:we_therefore
conn_lc:in_particular
with_prev_full:panel_and
with_prev_full:observed_and
with_prev_full:stroma_and
with_prev_full:treg_and
with_prev_full:analysed_and
with_prev_full:antibody_and
with_prev_full:assay_and
with_prev_full:,_as_demonstrated_by
with_prev_full:is_due_to
conn:particularly_since
with_prev_full:-rrb-_because
conn:not_due_to
with_prev_full:extent_because
with_prev_full:translated_due_to
with_prev_full:nf-κb_by
conn_lc:appears_to_be_due_at_least_in_part_to
conn:due_mainly_to
conn_lc:in_particular_because_of
conn:as_demonstrated_by
with_prev_full:activation_therefore
with_prev_full:are_therefore
with_prev_full:and_therefore
conn_lc:not_due_merely_to
conn_POS:JJ_IN
conn:presumably_as_result_of
with_prev_full:mastectomy_because_of
with_prev_full:-lrb-_particularly_since
conn_lc:presumably_due_to
with_prev_full:downregulated_by
conn_lc:such_that
with_prev_full:mice_thus
with_prev_full:undisputed_because
conn:by_the_fact_that
conn_lc:due_mainly_to
conn:because_of
with_prev_full:chosen_in_large_part_for
conn:in_large_part_for
with_prev_full:amounts_and
with_prev_full:not_therefore
conn_POS:JJ_TO
conn:Now_that
with_prev_full:euthanized_due_to
with_prev_full:unsuccessful_due_to
conn_lc:now_that
conn:In_short
with_prev_full:events_because
with_prev_full:chosen_as
conn_lc:as_a_result_of
with_prev_full:and_thus
with_prev_full:-rrb-_due_to
conn_lc:thereby
conn_lc:presumably_as_result_of
conn:consequently
with_prev_full:micrometastases_because
with_prev_full:choice_because
with_prev_full:,_on_the_basis_of
with_prev_full:strand_due_to
with_prev_full:over-representation_since
with_prev_full:feasible_due_to
with_prev_full:,_due_to
conn_POS:PDT_DT
with_prev_full:-rsb-_because
with_prev_full:interaction_thus
conn_POS:IN_VBN_IN
with_prev_full:and_since
with_prev_full:but_because
with_prev_full:susceptibility_due_to
with_prev_full:are_not_due_merely_to
with_prev_full:cycles_presumably_due_to
with_prev_full:1997_as_a_result_of
with_prev_full:was_due_to
with_prev_full:il-10_due_to
with_prev_full:and_so
conn:not_due_merely_to
with_prev_full:targets_since
conn_POS:RB_JJ_TO
conn:Because
with_prev_full:,_thus
conn_lc:as_inferred_by
with_prev_full:was_therefore
with_prev_full:,_presumably_as_result_of
conn_lc:probably_because_of
with_prev_full:elucidated_since
conn_lc:in_consequence_of
with_prev_full:occurring_as_a_result_of
conn:insofar_as
conn:On_the_basis_of
conn:Consequently
conn:such_that
with_prev_full:,_in_particular_because_of
with_prev_full:;_consequently
with_prev_full:were_due_to
with_prev_full:vivo_on_the_basis_of
with_prev_full:positives_due_to
conn_lc:in_short
with_prev_full:can_therefore
conn:due_to
with_prev_full:may_therefore
with_prev_full:measurements_since
conn:As_a_consequence
with_prev_full:niches_in_response_to
with_prev_full:risk_due_to
conn_POS:IN_DT_JJ_NN_IN
with_prev_full:production_due_to
conn_lc:not_due_to
with_prev_full:unsuitable_as
with_prev_full:proliferation_as_a_consequence_of
with_prev_full:;_thus
conn:As_a_result
with_prev_full:either_as_a_result_of
with_prev_full:cells_as
conn:so
with_prev_full:striking_insofar_as
conn_lc:probably_due_to
conn_lc:as_a_direct_consequence_of
with_prev_full:mri_due_to
with_prev_full:,_probably_due_to
conn:appears_to_be_due_at_least_in_part_to
with_prev_full:study_due_to
conn_lc:because_of
conn:on_the_basis_of
conn:as_a_consequence_of
with_prev_full:development_due_to
with_prev_full:will_therefore
with_prev_full:correct_and
conn:probably_due_to
conn_POS:JJ_RB_TO
with_prev_full:those_due_to
with_prev_full:we_thus
conn:In_view_of_the_fact_that
conn:as_a_result_of
conn_lc:in_large_part_for
conn_lc:as_a_result
with_prev_full:-rrb-_thus
with_prev_full:fdcs_by
with_prev_full:therefore_appears_to_be_due_at_least_in_part_to
with_prev_full:,_thereby
with_prev_full:,_so
with_prev_full:,_as_inferred_by
with_prev_full:w3\/25_therefore
conn:as_a_direct_consequence_of
with_prev_full:dependent_as
with_prev_full:analysis_since
with_prev_full:expression_due_to
conn:because
conn_lc:because
with_prev_full:appear_in_consequence_of
with_prev_full:,_because
with_prev_full:must_therefore
with_prev_full:irf-4-expression_since
with_prev_full:generated_as_a_direct_consequence_of
with_prev_full:transition_therefore
conn_POS:IN_NN_IN_DT_NN_IN
with_prev_full:development_because
conn_lc:by_the_fact_that
with_prev_full:may_thus
conn_POS:RB_JJ_RB_TO
with_prev_full:appealing_because
conn_lc:due_to
conn_lc:as_a_consequence
conn_POS:RB_RB_IN
with_prev_full:were_thus
conn:probably_because_of
with_prev_full:is_therefore
with_prev_full:,_due_mainly_to
conn_lc:particularly_since
conn_lc:as_a_consequence_of
with_prev_full:part_due_to
conn:thereby
conn_lc:insofar_as
with_prev_full:,_such_that
with_prev_full:reactions_due_to
conn_POS:IN_JJ_RB_IN
with_prev_full:,_therefore
conn:in_consequence_of
with_prev_full:be_due_to
conn:as_inferred_by
conn_lc:in_view_of_the_fact_that
with_prev_full:is_not_due_to
conn:thus
conn:presumably_due_to
conn:in_particular_because_of
conn:Due_to
with_prev_full:caused_in_part_by
with_prev_full:,_probably_because_of
with_prev_full:pronounced_as_a_result_of
conn_lc:on_the_basis_of
with_prev_full:,_as_a_result_of
with_prev_full:and_thereby
with_prev_full:could_therefore
with_prev_full:it_therefore
conn_POS:RB_IN_NN_IN
with_prev_full:complicated_by_the_fact_that
with_prev_full:is_thus
conn_lc:consequently
conn_lc:as_demonstrated_by
with_prev_full:hypermethylation_due_to
conn_POS:VBZ_TO_VB_JJ_IN_JJS_IN_NN_TO
conn:Because_of
with_prev_full:primarily_by
conn_POS:IN_IN
conn:Given
with_prev_full:,_since
conn_lc:based_on
conn:Based_on
conn_lc:given
conn_lc:rather
with_prev_full:suggest_either_either_that_activation_of_pdcs_is_not_associated_with_nuclear_translocation_and_transcriptional_activity_of_relb_or
conn_POS:RB_RB_IN_NN_IN_NNS_VBZ_RB_VBN_IN_JJ_NN_CC_NN_NN_IN_NNP_CC
with_prev_full:ccr3_unless
conn_lc:either_either_purified_total_t_cells_were_directly_used_for_proliferation_assays_,_or
with_prev_full:experiments_unless
conn_lc:or
conn_POS:RB_RB_IN_NNP_MD_VB_TO_NNP_IN_DT_RB_JJ_NN_NN_IN_NNP_NNP_NNS_,_CC
with_prev_full:responses_and\/or
with_prev_full:observed_instead
with_prev_full:,_and\/or
conn_lc:either_either_as_a_result_of_a_genetic_lesion_-lrb-_cd19-deficient_mice_-rrb-_that_inhibited_mz_b_cell_survival_,_or
conn:Either_Either_purified_total_T_cells_were_directly_used_for_proliferation_assays_,_or
conn:unless
conn_POS:RB_RB_IN_NN_NN_,_CC
conn_lc:either_either_by_n1-ic_expression_,_or
conn_lc:and\/or
conn:and\/or
conn:Alternatively
conn_lc:instead
with_prev_full:tgf-β_and\/or
conn_POS:DT_DT_JJ_JJ_NNP_NNS_VBD_RB_VBN_IN_NN_NNS_,_CC
with_prev_full:cells_or
conn_lc:either_either_that_activation_of_pdcs_is_not_associated_with_nuclear_translocation_and_transcriptional_activity_of_relb_or
conn:rather
conn:Besides
conn:nor
conn_lc:nor
with_prev_full:smad2\/3_and\/or
with_prev_full:reduced_or
conn_lc:besides
conn_POS:CC_CC_IN_DT_NN_IN_DT_JJ_NN_-LRB-_NN_NNS_-RRB-_WDT_VBD_NNP_NNP_NN_NN_,_CC
conn:either_either_by_N1-IC_expression_,_or
conn_lc:alternatively
with_prev_full:,_either_either_as_a_result_of_a_genetic_lesion_-lrb-_cd19-deficient_mice_-rrb-_that_inhibited_mz_b_cell_survival_,_or
with_prev_full:,_or
conn_lc:unless
conn:or
with_prev_full:but_rather
with_prev_full:indicate_either_either_that_igm-ic_can_traffic_to_fdcs_by_a_previously_unanticipated_mechanism_independent_of_mz_b_cells_,_or
conn:instead
conn_POS:VB
conn:Instead
with_prev_full:triggered_either_either_by_n1-ic_expression_,_or
with_prev_full:present_or
conn:Unless
conn_lc:either_either_that_igm-ic_can_traffic_to_fdcs_by_a_previously_unanticipated_mechanism_independent_of_mz_b_cells_,_or
conn:either_either_that_activation_of_pDCs_is_not_associated_with_nuclear_translocation_and_transcriptional_activity_of_RelB_or
with_prev_full:,_nor
conn:either_either_that_IgM-IC_can_traffic_to_FDCs_by_a_previously_unanticipated_mechanism_independent_of_MZ_B_cells_,_or
conn:either_either_as_a_result_of_a_genetic_lesion_-LRB-_CD19-deficient_mice_-RRB-_that_inhibited_MZ_B_cell_survival_,_or
conn:for_instance
conn:in_particular
with_prev_full:is_for_example
with_prev_full:,_e.g.
with_prev_full:in_for_example
with_prev_full:,_for_example
conn:for_example
conn:For_example
conn_lc:as_an_example
with_prev_full:,_in_particular
with_prev_full:;_for_example
conn_lc:for_instance
conn_lc:e.g.
conn_lc:for_example
with_prev_full:,_for_instance
conn:e.g.
conn:As_an_example
with_prev_full:include_for_example
with_prev_full:,_except_for
conn_lc:except_that
with_prev_full:,_except_that
conn:except_that
with_prev_full:hematoxylin_except
conn:except
conn_lc:except
conn_lc:except_for
conn:except_for
with_prev_full:examined_except_for
with_prev_full:,_except
conn_lc:particularly_if
with_prev_full:,_particularly_if
conn_POS:IN_IN_DT_NN_IN_DT_NN_NNS_VBD_CD_CC_JJR_NNS_IN_NN_,_RB
with_prev_full:dnmts_if
conn:particularly_if
conn_lc:provided_that
conn:If_If_breast_tumors_from_hereditary_patients_exhibit_NER_deficiency_similar_to_that_observed_in_sporadic_patients_,_while_their_normal_tissues_exhibit_normal_levels_of_this_type_of_DNA_repair_,_then
with_prev_full:and_if
with_prev_full:cells_if
conn:only_if
conn:If_If_the_nuclei_over_the_foreskin_fibroblasts_averaged_50_or_more_grains_per_nucleus_,_then
conn:Provided_that
with_prev_full:monkeys_if
conn_lc:if_if_the_nuclei_over_the_foreskin_fibroblasts_averaged_50_or_more_grains_per_nucleus_,_then
conn_POS:VBG_IN
with_prev_full:reaction_only_if
with_prev_full:amplification_if
conn_lc:if_if_breast_tumors_from_hereditary_patients_exhibit_ner_deficiency_similar_to_that_observed_in_sporadic_patients_,_while_their_normal_tissues_exhibit_normal_levels_of_this_type_of_dna_repair_,_then
with_prev_full:-rrb-_if
with_prev_full:that_if
with_prev_full:significant_if
with_prev_full:improved_if
with_prev_full:,_if
conn_POS:IN_IN_NN_NNS_IN_JJ_NNS_VB_NNP_NN_JJ_TO_WDT_VBD_IN_JJ_NNS_,_IN_PRP$_JJ_NNS_VB_JJ_NNS_IN_DT_NN_IN_NN_NN_,_RB
with_prev_full:possible_if
conn_lc:only_if
conn:in_fact
with_prev_full:does_in_fact
conn:In_fact
with_prev_full:were_in_fact
conn_POS:UH
with_prev_full:does_indeed
conn_lc:in_fact
with_prev_full:,_in_fact
conn:indeed
conn:similarly
conn:Similarly
conn_lc:similarly
with_prev_full:may_similarly
1.960926992555911
1.8727176835928256
2.298378235064205
1.8727176835928232
1.9295834298227552
1.960926992555911
2.142319444633299
1.8727176835928296
1.9295834298227552
5.1668023483296555
1.757009019068327
1.757009019068327
1.8727176835928232
1.9295834298227552
1.8727176835928232
1.757009019068327
1.9295834298227552
1.9341183915956963
1.8284717079083652
1.9295834298227552
1.9295834298227552
2.6564047458800606
1.9295834298227552
1.8727176835928232
1.9295834298227552
1.9295834298227552
1.6990664629109966
1.960926992555911
1.6990664629109966
1.8284717079083652
1.960926992555911
1.6990664629109966
1.9295834298227552
1.9295834298227545
1.9295834298227552
1.960926992555911
1.960926992555911
1.9295834298227552
1.6990664629109966
1.9295834298227552
1.9295834298227552
1.757009019068327
1.6990664629109966
1.9295834298227552
1.8727176835928232
2.303548408107707
1.9295834298227552
1.9295834298227545
2.2322475073828176
1.8727176835928232
1.9295834298227552
1.960926992555911
1.6990664629109966
1.9295834298227552
1.757009019068327
1.9295834298227552
1.7769776207589174
1.9295834298227552
1.6990664629109966
1.9295834298227552
1.8284717079083657
1.6990664629109966
1.6990664629109966
1.6990664629109966
1.6990664629109966
1.9295834298227545
1.9295834298227545
1.9544017620606047
1.6990664629109966
1.9295834298227545
1.6990664629109966
1.757009019068327
1.9593420165272164
1.6990664629109966
1.6990664629109966
1.6990664629109966
1.6990664629109966
1.6990664629109966
1.9295834298227552
1.757009019068327
1.9295834298227545
1.960926992555911
1.9295834298227545
1.757009019068327
1.6990664629109966
1.6990664629109966
1.6990664629109966
1.9295834298227552
1.9295834298227537
1.9295834298227552
1.6990664629109966
1.9295834298227545
1.6990664629109966
2.142319444633299
1.8727176835928232
1.6990664629109962
1.9341183915956963
1.9295834298227552
3.158718407105929
1.699066462910996
1.9295834298227545
1.9295834298227552
1.8727176835928232
1.6990664629109966
1.9295834298227552
2.71416103891924
1.757009019068327
1.6990664629109966
1.9295834298227552
1.5376511613879769
1.9295834298227537
1.6990664629109966
1.9609269925559112
1.6990664629109966
1.9295834298227565
1.6990664629109966
1.6990664629109966
1.6990664629109966
1.757009019068327
1.8727176835928232
1.9295834298227552
1.9544017620605993
1.9295834298227552
1.9295834298227537
1.9295834298227552
1.6990664629109966
1.9295834298227565
1.6990664629109966
1.6990664629109966
1.9295834298227552
1.9609269925559158
1.8727176835928234
1.8727176835928232
1.6990664629109966
2.9190714587383546
1.9295834298227552
1.9295834298227552
1.9295834298227552
1.929583429822753
1.8727176835928234
2.142319444633299
1.6990664629109966
1.6990664629109966
1.9295834298227552
1.6990664629109966
1.9609269925559112
1.960926992555911
1.9295834298227565
1.8727176835928232
1.6990664629109966
2.142319444633299
1.6990664629109966
1.6990664629109966
1.9295834298227552
1.9295834298227552
1.9295834298227552
1.6990664629109966
1.9544017620606047
1.8284717079083648
1.9544017620606056
1.6990664629109966
2.142319444633299
2.686191376474169
1.6990664629109966
1.6990664629109966
1.9609269925559112
2.9817787337361557
2.2322475073828176
1.6990664629109966
3.189941187223644
1.6990664629109966
1.9295834298227552
1.929583429822752
1.6990664629109966
1.6990664629109966
1.6990664629109966
2.2322475073828176
1.9295834298227552
1.6990664629109966
1.9544017620606056
1.9295834298227552
1.6990664629109966
1.9295834298227552
1.9295834298227552
1.8727176835928234
1.9295834298227552
1.929583429822752
1.9295834298227552
1.9295834298227537
1.960926992555911
1.6990664629109966
1.6990664629109995
1.6990664629109966
1.9295834298227552
1.699066462910996
1.6990664629109966
1.6990664629109966
1.9295834298227552
1.9341183915956963
1.9295834298227545
2.142319444633299
1.6990664629109966
1.6990664629109873
1.6990664629109966
1.9295834298227545
1.6990664629109982
1.9295834298227552
1.929583429822754
1.4916155823999289
1.9295834298227545
1.9295834298227552
1.9295834298227552
1.9295834298227545
1.6990664629109966
1.6990664629109982
1.6990664629109966
2.327420680016997
1.6990664629109966
1.8727176835928232
2.3380564142998983
1.9295834298227545
1.6990664629109966
1.6990664629109966
1.8727176835928232
1.9295834298227552
2.2322475073828176
1.8727176835928232
1.6990664629109966
1.9295834298227552
1.9295834298227552
1.9295834298227545
1.8284717079083648
1.9295834298227552
1.6990664629109966
1.9295834298227552
1.8727176835928234
1.9295834298227552
2.298378235064205
1.9295834298227545
1.9295834298227552
1.6990664629109966
1.929583429822752
1.9295834298227565
1.960926992555911
1.9295834298227545
1.9295834298227552
1.9295834298227565
2.142319444633299
1.6990664629109966
2.142319444633299
1.9593420165272164
1.6990664629109966
1.9295834298227552
1.9295834298227552
1.9295834298227537
1.6990664629109966
1.8284717079083648
1.9295834298227517
1.9295834298227552
1.9295834298227552
1.9295834298227552
1.6990664629109966
1.9593420165272164
2.3380564142998983
1.9295834298227552
1.6990664629109966
2.142319444633299
1.6990664629109966
1.9295834298227552
2.0507589751375614
1.929583429822752
2.9190714587383546
1.9295834298227552
1.9295834298227552
1.6990664629109966
1.9295834298227545
2.0507589751375614
1.9295834298227545
2.3380564142998983
1.6990664629109966
1.6990664629109966
1.9295834298227552
1.757009019068327
2.142319444633299
2.958998927141062
1.9295834298227552
1.6990664629109966
1.6990664629109966
2.686191376474169
1.8727176835928232
1.929583429822753
1.8284717079083652
1.8727176835928232
1.8284717079083657
1.9544017620606056
1.757009019068327
1.9544017620606056
2.2322475073828176
1.8727176835928232
1.6990664629109966
1.8727176835928234
1.960926992555911
1.9544017620606056
1.9295834298227552
1.9295834298227552
1.9295834298227545
1.9295834298227545
1.9295834298227552
1.6990664629109966
1.8727176835928232
1.9295834298227552
1.9295834298227552
1.8727176835928232
1.9295834298227552
1.6990664629109966
2.142319444633299
1.6990664629109966
1.9295834298227545
1.9295834298227545
1.8284717079083652
1.9295834298227552
2.142319444633299
1.929583429822753
1.6990664629109966
1.960926992555911
1.9295834298227552
1.8727176835928232
1.9295834298227552
1.960926992555911
1.43871301800755
1.9295834298227552
1.6990664629109966
1.9295834298227552
1.9295834298227552
1.6990664629109966
1.929583429822752
1.960926992555911
1.7570090190683214
2.2322475073828176
1.6990664629109966
1.9295834298227552
1.9544017620606047
1.6990664629109966
1.9295834298227552
1.6990664629109982
1.6990664629109966
1.9295834298227552
1.9295834298227545
1.9544017620606056
1.6990664629109966
1.9295834298227517
2.0266825121003205
1.6990664629109966
1.757009019068327
1.9295834298227552
1.9295834298227552
1.6990664629109966
1.960926992555911
1.9544017620606056
1.9544017620606056
1.757009019068327
1.9295834298227552
1.9295834298227552
1.9295834298227545
1.9295834298227545
1.8727176835928232
2.011148169930694
0.9328495887131599
3.669933902401994
1.5856209815395788
3.001102266220399
1.1435701495566197
-0.468195439040338
1.2264660244156254
0.5498996192789332
0.38756890872359917
-1.786047944838887
-3.2222312517699008
0.7988011347837607
-2.398567733838573
-2.8176518834558175
-1.162683840252619
-3.990254723551942
1.851363996413624
0.6723088961836249
0.6992459336944484
0.8571711796100503
0.38588157081310087
-0.2516500905156724
-1.4365736902939992
0.8223985930448303
1.179394267753748
-0.6312357081636361
1.5503252535798322
0.4799215231942551
-0.07449521773723022
-1.2396788637753857
-1.4859400095633488
-0.09080670898692626
1.0140586704636223
-1.4402142499323125
1.6402113800387645
0.7520189378709539
0.4745692538698893
-0.17977975183185296
-0.09080670898692626
1.0140586704636223
-1.4402142499323125
1.6402113800387645
0.7520189378709539
0.4745692538698893
-0.17977975183185296
1.104587055086763
0.6608982228551973
1.6135177034923902
1.2041152411888456
0.6608982228551966
3.063612859651142
1.601433381287102
1.485339917362238
2.239335639149041
0.5728040769633339
0.7096476951108036
1.6982470539245123
1.1296774501635984
1.8303470768530867
-1.664644407154508
-0.35423021410235617
-0.3407323944375317
1.1984467563986545
2.084834028938886
1.808964434306603
-1.1421521342573078
-0.17159567799283487
3.1237408611012185
1.5482906882676817
2.461322481082822
1.7668556913042113
1.003127657855512
1.3369301144248527
1.0664891776974317
1.6952103870461233
1.2623137958742976
1.189402697073523
1.3719884687658148
4.4684626261489795
1.5517514968197728
1.5517514968197728
1.6074385315439734
1.352927659575862
1.6074385315439734
1.352927659575862
0.5054375065186576
4.988206025021268
4.5223627157836335
3.828902320398435
4.5223627157836335
3.8897931599098454
3.8289023203984356
3.082904348225204
1.2302808807908774
2.700827808363296
1.1887422336869184
2.023735808554715
1.3947545588630181
2.700827808363296
1.1887422336869184
3.3231867614616966
0.7774161134676474
2.023735808554717
1.3947545588630201
2.023735808554715
1.3947545588630181
1.3340306488627902
1.7643762134068963
2.0237358085547177
1.394754558863021
2.023735808554715
1.3947545588630181
2.8740963108740742
1.426937951547782
2.16084996483615
2.231497502774168
3.082904348225204
1.2302808807908774
2.023735808554715
1.3947545588630181
2.023735808554714
1.394754558863017
2.008010117835825
1.4796442571959418
2.023735808554715
1.3947545588630181
2.023735808554714
1.3947545588630172
1.8982811072223222
1.4699872854041625
1.6381269717586473
1.6381269717586473
1.6381269717586473
1.6381269717586473
3.3231867614616966
0.7774161134676474
1.6381269717586473
1.6381269717586473
3.3231867614616966
0.7774161134676474
1.3340306488627902
1.7643762134068963
2.476369093775172
2.3740896819818795
2.700827808363296
1.1887422336869184
1.6381269717586473
1.6381269717586473
0.43257007603857084
2.020896584500095
2.700827808363296
1.1887422336869182
1.3979663522618957
1.8675973912379562
2.16084996483615
2.231497502774168
2.0237358085547146
1.3947545588630175
2.476369093775172
2.3740896819818795
3.80914722577247
2.386978909110705
2.0237358085547164
1.3947545588630192
3.082904348225204
1.2302808807908774
2.0237358085547146
1.3947545588630175
2.0237358085547146
1.3947545588630175
3.4080399112042814
3.349814936415496
3.3231867614616966
0.7774161134676474
1.6381269717586473
1.6381269717586473
1.7597378037690339
1.8536754876602315
2.476369093775172
2.3740896819818795
2.008010117835825
1.4796442571959418
2.0237358085547146
1.3947545588630175
3.3231867614616966
0.7774161134676474
2.0237358085547146
1.3947545588630175
3.3231867614616966
0.7774161134676474
2.476369093775172
2.3740896819818795
1.8982811072223222
1.4699872854041625
3.3231867614616966
0.7774161134676474
2.0237358085547146
1.3947545588630175
2.0237358085547146
1.3947545588630175
3.323186761461696
0.7774161134676467
1.488708007072749
1.794749674652403
3.0829043482252034
1.2302808807908772
2.0237358085547146
1.3947545588630175
2.700827808363296
1.1887422336869184
2.184089447534313
1.9221290293193865
3.0829043482252034
1.2302808807908772
3.323186761461697
0.7774161134676473
2.0237358085547146
1.3947545588630175
2.0237358085547146
1.3947545588630175
2.700827808363296
1.1887422336869184
2.0237358085547146
1.3947545588630175
1.6381269717586473
1.6381269717586473
2.008010117835825
1.4796442571959418
2.023735808554714
1.394754558863017
1.6381269717586473
1.6381269717586473
3.323186761461697
0.7774161134676473
2.0237358085547146
1.3947545588630175
3.323186761461697
0.7774161134676473
3.323186761461697
0.7774161134676473
3.323186761461697
0.7774161134676473
1.6381269717586473
1.6381269717586473
-1.7801202870920385
0.7771200640929758
0.8941044932400943
-0.3252891608123958
1.1681947376385255
0.24766954827971277
1.0262680127479344
-0.994329636004683
-3.002985335919169
-0.8507264871429531
-1.4544257554812794
-1.7699717398089314
1.7554518775993686
1.8006831381463277
1.6922423864636569
1.5855044735460546
1.483225061752762
3.0773588344429132
1.9492512178286803
1.9819806590171831
1.4331330717052178
1.5917825320824734
2.157674887750604
-1.575917180969831
2.4650630277028784
2.784419702938501
2.9735637029836135
1.5855257812291264
1.7697281581110547
0.759034778707381
1.5855257812291264
1.7697281581110547
0.759034778707381
1.3958364989439405
1.665256187425327
-0.30928516777777154
2.439113270153813
2.2761142495612177
2.5819444176690287
2.243850926479732
1.971270353428077
1.512331172606495
2.610689422190421
1.1199531046331241
2.0671133945287345
1.4366618912043032
2.5730482117421793
2.442171260632058
1.6747782747937427
2.3037553476147727
2.79077348975361
2.791506440733533
2.4328628552645193
4.273245559318947
1.9451359172084568
3.6269205047109416
4.228527879612938
1.694180840344504
2.8885268758712925
0.0997418419554038
2.644248049915683
2.791722617410765
3.5965076380653898
2.927121485371052
3.7021811305939756
2.2600642785511256
1.7552461102700714
2.2600642785511256
1.7932870507431349
2.2600642785511256
2.023625309148987
1.8284717079083652
2.721117113172321
2.103227965794535
2.2600642785511256
2.2844085628843804
1.8284717079083652
1.9117489674658448
3.815288138615566
2.2600642785511256
1.851615344944545
2.3380564142998983
1.9613089006585738
1.8284717079083652
2.2600642785511256
2.7273262593014413
2.721117113172321
2.3380564142998983
3.1384860339521903
2.2600642785511256
1.7932870507431349
1.7552461102700714
2.7273262593014413
2.0432162558311555
2.1117564133346938
2.023625309148987
2.4729471222982773
1.8284717079083652
2.2600642785511256
1.9613089006585758
2.103227965794535
2.260064278551125
1.9613089006585758
1.9613089006585755
2.2600642785511256
1.8284717079083652
2.2600642785511225
2.2600642785511256
1.7932870507431349
2.3380564142998983
1.9117489674658448
1.8855865298840642
1.8284717079083652
2.111756413334694
2.2831683997456893
1.8284717079083652
2.2600642785511256
1.9613089006585782
2.2600642785511256
1.8284717079083652
1.7552461102700714
1.7552461102700714
1.7552461102700714
2.111756413334694
1.8516153449445478
2.2600642785511256
3.7494555362993367
1.9117489674658448
2.966130222397366
1.8284717079083652
1.8284717079083652
1.7552461102700714
2.3280992182780924
1.911748967465849
2.541698525692025
1.9613089006585758
2.103227965794535
1.9613089006585758
1.911748967465849
1.8855865298840642
2.541698525692025
2.2600642785511256
1.8284717079083652
1.9613089006585755
1.8284717079083652
2.111756413334694
2.2600642785511256
1.4951747625654124
2.2600642785511256
1.8284717079083652
1.9613089006585758
1.6922068630253877
1.7932870507431349
4.760600373058016
1.8284717079083652
2.111756413334694
1.9613089006585758
1.9944355966901384
1.7552461102700714
6.773833076800665
1.8855865298840642
1.911748967465845
2.100444326196739
1.8284717079083652
1.8284717079083652
1.755246110270071
1.8855865298840642
2.3013495206209105
2.023625309148987
1.7552461102700714
3.1384860339521903
2.2600642785511256
1.9944355966901384
1.8284717079083652
2.2600642785511256
1.7932870507431349
5.225788278536976
1.961308900658576
1.962351691575381
1.88067760344776
1.7932870507431349
1.7932870507431349
2.3274927927666025
1.7932870507431349
1.7850939722944235
1.9613089006585747
1.7552461102700716
5.131196854579802
2.2600642785511256
2.2844085628843804
2.111756413334694
2.103227965794535
2.2600642785511256
2.1032279657945345
1.8284717079083652
1.9117489674658472
2.0432162558311555
1.8516153449445478
2.2600642785511256
1.961308900658575
2.2600642785511256
2.2600642785511256
2.111756413334694
1.8284717079083652
2.1032279657945336
2.2831683997456893
1.7552461102700716
1.8516153449445478
2.2600642785511273
2.957819984418331
2.2600642785511256
2.2831683997456893
2.2831683997456893
1.7552461102700716
2.1551822511120684
2.0432162558311533
2.2600642785511256
1.911748967465845
1.7552461102700716
2.111756413334694
1.961308900658576
1.9613089006585738
1.8516153449445478
1.8284717079083652
2.2831683997456893
2.2600642785511256
2.2600642785511256
1.7552461102700716
2.4729471222982773
1.8855865298840642
3.3083568511666503
5.225788278536976
2.721117113172321
1.911748967465845
1.8284717079083652
3.1384860339521903
1.8284717079083652
1.8284717079083652
2.2600642785511256
3.1384860339521903
1.755246110270071
1.911748967465845
2.675114023409431
1.7552461102700716
1.9613089006585755
2.0432162558311555
1.6922068630253877
1.7932870507431349
1.7552461102700716
2.100444326196739
2.7088722615926297
2.3380564142998983
3.1384860339521903
2.0432162558311555
3.512251669083451
2.2600642785511256
2.721117113172321
1.961308900658575
3.1384860339521903
1.961308900658575
1.7932870507431349
1.8284717079083652
3.1384860339521903
2.2600642785511256
2.3380564142998983
2.103227965794538
1.9944355966901384
1.8284717079083652
2.043216255831163
2.3380564142998983
2.721117113172321
1.7552461102700716
2.103227965794532
2.2600642785511256
1.7552461102700716
2.2600642785511256
2.0432162558311555
1.755246110270071
2.2831683997456893
2.2844085628843804
2.2600642785511256
1.7552461102700716
1.8284717079083652
1.7552461102700716
2.2600642785511256
3.461219051674722
2.4729471222982773
1.8284717079083652
2.2600642785511234
1.7932870507431349
1.7552461102700716
1.911748967465845
2.2600642785511256
1.8516153449445478
1.961308900658575
1.8284717079083652
2.721117113172321
3.1384860339521903
1.911748967465845
2.6495325555953055
1.7932870507431349
3.3502725686830144
1.7552461102700716
2.4729471222982773
0.8145024827996642
0.9667647123610046
2.3111490860761794
0.9941411636170003
-0.28018867650035933
2.2097409814653686
1.9868798238239136
2.43500278696072
1.724828873752825
0.4527719804875139
1.638417105766356
3.2862952309350977
0.5122516608803496
0.8899486836372079
1.7506068584922696
-0.2926720034170893
1.7429124829298757
1.6296489815363018
0.6339141136840948
-1.9720860271986071
0.7466641739844253
0.22001844059658415
1.9062145165986761
-0.02133309422441843
0.007349782786449787
2.364494892668733
2.102251734918024
3.2628589359629205
1.2983106591340492
2.956574012193251
1.6851729159241027
3.2628589359629205
1.2983106591340492
1.8404276194107747
1.3131061080782347
1.8394236277045428
1.2733497506651517
1.3318302925937118
3.462185941472296
3.2628589359629214
1.2983106591340496
3.2628589359629214
1.2983106591340496
1.7097767338536174
2.2305159394677885
3.2628589359629214
1.2983106591340496
3.2628589359629214
1.2983106591340496
2.0322953892572855
2.1250634780590985
2.2899437617796163
1.7968743163718248
3.2628589359629214
1.2983106591340496
2.621677680450779
2.383757820759506
3.2628589359629214
1.2983106591340496
3.2628589359629214
1.2983106591340496
1.7317150636782124
1.665010403434715
3.2628589359629214
1.2983106591340496
1.5204942183418244
1.7346945247041137
1.9952343881333119
1.351083973276783
1.8619288721787457
0.17392266027876208
1.5204942183418244
1.7346945247041137
3.2628589359629214
1.2983106591340496
3.2628589359629214
1.2983106591340496
2.888025918137534
2.297603842787753
2.2016468980150394
2.014406701833252
2.9565740121932516
1.685172915924103
1.5204942183418244
1.7346945247041137
1.2945433662723624
2.1147638503524173
2.287049105539461
1.959447803776051
1.8619288721787457
0.17392266027876208
3.262858935962921
1.2983106591340494
3.7457988590175213
2.716421578071876
3.262858935962921
1.2983106591340494
3.2628589359629214
1.2983106591340496
3.2628589359629214
1.2983106591340496
3.2628589359629214
1.2983106591340496
3.2628589359629214
1.2983106591340496
2.9565740121932516
1.685172915924103
3.2628589359629214
1.2983106591340496
1.9179720364115795
0.96221771157145
1.7615239630500008
1.8560842091348417
4.81147897547502
3.60482329517291
3.2628589359629214
1.2983106591340496
2.9565740121932516
1.685172915924103
1.808437830834978
2.4092752156767205
3.2628589359629214
1.2983106591340496
2.0322953892572855
2.1250634780590985
1.658067771981841
0.429164179351975
1.3159642590882976
2.157458259464196
1.51466582261722
2.32535688808055
1.915749646600732
1.1302926703230292
3.662098144949525
2.5811992773457013
1.6904494757662905
1.8920488457657316
2.315365529277178
1.3712259146064436
2.2258329842560847
2.349613474592425
0.09491718596758698
1.7356536235687
1.9298668998371464
4.631509242176775
1.3469974047391806
1.6797438380279803
2.0729994991593426
-0.17580695318662642
2.1160537003112805
-0.5439663459446257
2.6010296388841057
1.1707337815202334
2.736532648071616
4.330666420761767
0.9754680697206852
1.957713325308231
8.433512570882067
6.5809883045424575
2.6010296388841057
1.1707337815202332
1.4482485163652625
3.053440241773195
1.2088002987864375
1.923118405800724
-0.5417814360427454
1.860025923819006
2.7485364082381665
0.42361226657613404
2.3861379338243967
1.7168906137455957
1.9308673091636308
0.7998160556988504
0.7998160556988504
2.0119606996909956
5.978466560431413
2.0119606996909956
5.978466560431413
2.380746724570928
5.662322529048396
2.0119606996909947
5.978466560431413
2.0798805045589113
1.8587405208423975
1.9424400298950542
3.038858612195027
2.0305515764296698
3.037633048303838
1.8284717079083652
2.0187603729462835
2.6335317215840632
3.037633048303838
2.0798805045589113
4.3514132869917095
4.6285696042424584
1.9682271854254942
2.299489177658929
1.8284717079083652
2.1678775520507405
2.299489177658927
2.1678775520507423
3.037633048303838
2.396427606510849
1.8587405208423975
2.355053598437988
3.2985472915443763
3.037633048303838
9.453281941878094
3.037633048303838
3.1458407949552254
2.906294021035681
2.018760372946284
3.037633048303838
2.0798805045589113
1.8587405208423975
2.299489177658927
2.1678775520507405
2.9766428331535026
2.906294021035681
2.018760372946284
1.9682271854254916
1.8587405208423975
2.018760372946284
3.038858612195027
2.9766428331535035
1.858740520842397
2.437952273361403
2.03055157642967
2.03055157642967
1.9682271854254916
2.3550535984379866
1.8284717079083652
1.942440029895054
2.521195163389889
3.037633048303838
3.037633048303838
3.03911963479568
1.9682271854254918
2.355053598437988
2.1678775520507423
2.3964276065108496
1.8284717079083652
2.0187603729462835
3.6576525228353325
3.1979043007576875
2.355053598437988
1.9424400298950542
3.03911963479568
3.037633048303838
1.8919168860460476
0.8803663583689267
1.207408972956276
3.145468921081196
2.010151315288946
2.0067178809020763
3.1145832211353635
2.98392736041172
2.010151315288946
2.0067178809020763
3.090564021732418
2.0127316759957217
2.1798043353802825
1.151944226065282
1.196774668612058
2.4375186814702534
1.861573017006818
2.5720491404079766
1.8105377591886556
2.628939134331055
1.968830831250055
0.7304756825183473
2.6229441341767767
1.5737975463126361
1.672012326486938
1.6766560744452834
2.32635061644831
1.9308283767789343
1.8979268647087144
1.8927900884770432
2.1046849878563227
2.2048948826623307
2.6729750928108027
4.261411879478839
2.150264189242906
3.699782255967169
2.2048948826623307
2.6729750928108
4.261411879478839
3.699782255967169
2.566752904911082
2.1514180856466374
2.6729750928108
2.223042606146901
2.0885678246407196
3.699782255967169
5.352703975480407
3.699782255967169
2.4205231912364154
2.917886260015852
2.1514180856466374
3.4342702795926066
2.954910440148528
3.699782255967169
2.151418085646637
5.352703975480407
3.699782255967169
3.564923317792353
2.604965010070035
2.1514180856466374
2.6729750928108027
2.604965010070035
2.1514180856466374
4.25006925546427
2.917886260015852
2.0885678246407204
2.223042606146901
2.2048948826623307
2.1504114819723252
3.699782255967169
2.088567824640718
1.9823937481908263
1.7286087801729755
1.372378186346736
1.9836174040254595
2.6206679099357535
2.6206679099357535
2.6206679099357535
2.6206679099357535
1.9836174040254584
1.8284717079083652
2.6206679099357535
1.9836174040254595
3.4680306609721177
2.7657997756730004
1.8284717079083652
2.7657997756730004
2.6206679099357535
2.1089091805137863
2.6206679099357535
2.6206679099357535
2.6206679099357535
2.6206679099357535
2.785191757875126
2.749115488389925
1.8284717079083652
2.6206679099357535
1.9836174040254595
1.983617404025455
1.9836174040254586
1.9836174040254595
1.5624046643093261
2.6206679099357535
2.6206679099357535
2.6206679099357535
2.6206679099357535
1.983617404025459
1.9836174040254595
1.7567940388404575
2.6206679099357535
1.8284717079083652
1.9836174040254595
2.6206679099357535
2.765799775672998
1.9836174040254595
2.6206679099357535
2.6206679099357535
2.6206679099357535
2.6206679099357535
1.9836174040254595
1.9836174040254595
1.86405720599246
1.9836174040254595
2.6206679099357535
2.7758254262522866
1.7567940388404575
1.9836174040254577
2.7657997756730004
2.6206679099357535
2.3380564142998983
1.9836174040254595
1.9836174040254613
2.6206679099357535
2.6206679099357535
2.3380564142998983
2.6206679099357535
2.6206679099357535
1.8284717079083652
1.9836174040254584
2.377551313879151
2.6206679099357535
1.9836174040254595
2.6206679099357535
1.9836174040254595
2.6206679099357535
2.6206679099357535
2.722739578529948
1.9963169204887148
1.9836174040254577
1.9836174040254595
1.9836174040254595
2.6206679099357535
3.233098501932134
2.765799775672998
1.9836174040254595
1.9836174040254595
2.3380564142998983
1.9836174040254595
1.9836174040254595
3.1025224478007645
2.1089091805137863
1.472929921787258
1.9836174040254595
2.6206679099357535
1.9836174040254595
2.6206679099357535
1.9836174040254595
2.6206679099357535
2.6206679099357535
2.6206679099357535
2.6206679099357535
1.9836174040254546
2.8180714871355526
2.7657997756730004
2.6206679099357535
2.6206679099357535
2.8180714871355526
1.8284717079083652
2.6206679099357535
2.50242250208336
1.9836174040254593
2.6206679099357535
2.722739578529948
1.9836174040254593
1.9514507231845641
1.9836174040254593
2.6206679099357535
1.9836174040254593
1.9836174040254582
2.6206679099357535
2.6206679099357535
1.9836174040254584
2.6206679099357535
2.6206679099357535
1.9836174040254593
2.6206679099357535
2.6206679099357535
2.6206679099357535
1.9836174040254593
2.6206679099357535
2.6206679099357535
2.765799775672998
2.765799775672998
1.9836174040254593
2.6206679099357535
2.6206679099357535
2.6206679099357535
1.8284717079083652
1.9836174040254584
1.9836174040254593
1.8284717079083652
1.562404664309326
1.9836174040254613
2.1782003273466057
3.3943565009179704
2.3282784237661116
2.3991472360540063
1.468995218137925
5.4006464641960585
1.468995218137925
5.4006464641960585
2.3282784237661116
2.3991472360540063
1.468995218137925
5.4006464641960585
1.4689952181379256
5.4006464641960585
1.4689952181379256
5.4006464641960585
4.136416259135174
3.2130630074479147
3.217289180047902
2.2292694581167463
3.2130630074479165
3.2130630074479165
1.9383721563446312
2.286503913617909
3.2172891800479015
2.161642026554142
3.2172891800479015
2.2292694581167454
3.370198197592646
3.2130630074479147
2.590574967529882
1.9128404173002096
1.5163155804113222
3.2130630074479165
2.2292694581167463
2.2292694581167436
3.213063007447917
1.9128404173002096
6.549628770610186
3.217289180047902
1.9128404173002096
3.370198197592646
3.213063007447917
2.286503913617909
3.2130630074479165
3.2130630074479165
2.4601225054858347
2.139102013975525
2.139102013975525
3.370198197592646
3.717479017422549
3.2130630074479165
2.2292694581167463
2.286503913617909
2.3235325420750055
1.5361825090863277
1.892393452219854
2.4290355368419285
2.854935941760265
2.759083890897365
2.6264440376623486
1.9400382019442128
-0.13673051978162495
1.9205555322337604
1.3448723264722218
1.1114427218525824
2.0445230555783884
1.7574184995830344
2.6220861962542457
2.9542196495907147
2.988511531289928
1.4114952200389124
2.20262299719359
1.6393590929472601
2.3660548573361373
1.4698906355176473
3.746319863770427
2.3080354503550637
1.4959313165876933
5.931814326041139
5.931814326041139
5.931814326041139
5.931814326041139
5.931814326041139
5.931814326041139
5.143456112092938
8.964759391981394
1.8284717079083652
1.7806434603306367
2.1116091878950636
2.0148143032544765
1.828471707908364
2.0148143032544765
1.7806434603306367
7.2893788745255685
1.8284717079083652
1.8284717079083652
1.8284717079083652
1.8284717079083652
2.228933362354732
2.2289333623547303
2.2289333623547365
1.8284717079083652
1.828471707908367
1.8284717079083652
1.9962899384724055
2.1116091878950636
1.8284717079083652
7.2893788745255685
1.828471707908364
2.0324603779534893
2.0148143032544765
1.8830853494191058
1.8284717079083652
1.9962899384724055
1.9593420165272164
1.9593420165272164
6.996314820783371
2.228933362354732
1.856161517223549
2.9537196070036917
1.7806434603306367
2.34910901183368
2.9537196070036917
2.8242517213390457
2.0148143032544765
2.6743470865986194
1.883085349419104
2.0324603779534898
1.7806434603306367
2.0359608282483146
1.8284717079083652
1.8260055895796594
2.0148143032544765
2.0148143032544765
1.8830853494191058
1.7806434603306367
2.0947094334739718
1.7806434603306367
2.34910901183368
1.8284717079083659
2.0148143032544765
2.0324603779534893
1.8284717079083639
2.0947094334739718
2.0148143032544765
1.7806434603306367
1.8284717079083652
1.8284717079083652
1.8830853494191067
1.7806434603306358
1.7806434603306367
2.322051757204061
1.8284717079083652
2.0947094334739718
1.8284717079083646
3.2913932538345567
2.032460377953491
1.8284717079083652
2.228933362354732
1.8284717079083652
1.8284717079083652
2.0947094334739718
2.0934176506881963
1.8830853494191067
2.1116091878950636
1.8830853494191058
2.913479325765007
1.828471707908364
1.8284717079083652
1.8260055895796594
1.7806434603306367
1.8830853494191058
1.7806434603306358
2.8242517213390457
2.228933362354732
1.839356869583946
2.2289333623547303
2.0947094334739718
2.7519740596344286
5.363130827434003
1.7806434603306367
1.8284717079083652
1.7806434603306367
1.828471707908364
2.6743470865986194
1.8830853494191058
2.0324603779534893
2.751974059634427
1.8830853494191067
2.8868467619853555
2.182423689850861
2.1116091878950636
1.8284717079083652
1.8284717079083652
1.7806434603306367
1.8284717079083652
1.8284717079083652
1.7806434603306367
2.4628963671344635
1.8830853494191058
1.8830853494191058
1.7806434603306367
2.228933362354732
6.996314820783371
1.8284717079083652
1.8284717079083652
1.7806434603306367
2.0324603779534893
2.3380564142998983
1.883085349419104
1.9593420165272164
2.751974059634427
2.0324603779534893
7.289378874525568
1.8284717079083652
2.0359608282483137
2.1547652415028766
1.8284717079083652
2.228933362354732
1.8284717079083652
2.67434708659862
2.094709433473972
1.7806434603306367
2.0148143032544796
2.3503928667737
2.0934176506881963
2.0148143032544725
2.228933362354732
2.094709433473972
1.8284717079083652
2.228933362354732
2.3380564142998983
2.0148143032544765
1.8830853494191058
2.0324603779534893
1.8284717079083652
2.0148143032544765
1.9038230903309348
2.7519740596344286
1.8284717079083652
2.0324603779534898
1.8284717079083652
2.2289333623547303
1.8284717079083652
2.1116091878950636
1.8830853494191058
2.34910901183368
2.0359608282483146
2.1116091878950636
1.828471707908364
1.7806434603306367
1.8284717079083652
2.228933362354732
2.0934176506881963
1.7806434603306378
1.8284717079083652
2.3380564142998983
1.828471707908364
2.0324603779534938
1.8284717079083652
1.8284717079083652
2.8612299182350833
4.248788097351481
1.8284717079083652
1.8830853494191067
1.8830853494191053
1.8830853494191067
2.035960828248315
2.228933362354732
2.228933362354732
1.8284717079083652
1.8830853494191058
2.0324603779534898
2.720561044883909
1.8284717079083652
1.7806434603306367
1.8284717079083652
2.7111702584613213
7.289378874525568
1.8561693083661202
1.6596375608394518
2.2794601737378053
2.0762676695170397
1.973748041371043
3.534785042555541
2.7241821877634513
2.7241821877634513
2.7241821877634513
2.7241821877634513
2.2794601737378053
2.0762676695170397
2.6816119542859655
1.8284717079083652
1.8284717079083652
2.9310702363152252
2.3380564142998983
2.9310702363152252
2.795990053767523
1.8284717079083652
2.0075029131277633
2.469100479271201
1.7619303313003258
1.8284717079083652
2.3380564142998983
2.9310702363152252
1.8284717079083652
1.8284717079083652
1.9454855323888745
1.9454855323888745
3.8111079411864512
3.2815692873145292
2.0075029131277633
2.3380564142998983
2.795990053767526
1.8284717079083652
2.6816119542859655
4.45571062067761
2.7959900537675253
2.7959900537675253
2.0075029131277633
2.795990053767526
4.45571062067761
1.8284717079083652
1.8284717079083652
3.8111079411864512
1.8284717079083652
2.795990053767525
3.5921411105217484
2.795990053767523
2.6816119542859655
1.8284717079083652
2.469100479271201
1.7619303313003258
4.189601202476253
1.8284717079083652
2.795990053767526
5.1109589461462726
1.8284717079083652
1.8284717079083652
2.7959900537675253
1.8284717079083652
1.8284717079083652
2.247533893379807
2.7364376999024613
2.089417304572035
2.1675083140038964
2.089417304572035
2.089417304572035
2.0894173045720343
3.4358411062832896
2.926557285738282
2.7364376999024613
2.089417304572035
2.247533893379807
2.1675083140038964
2.7335842259973133
2.247533893379807
2.1675083140038964
2.926557285738282
2.089417304572035
1.9481082193071773
1.9481082193071766
1.9481082193071766
1.9481082193071766
3.241069466977391
3.241069466977395
3.241069466977395
1.9481082193071766
1.9481082193071766
1.9481082193071773
3.241069466977391
2.2831683997456897
2.2831683997456897
2.3380564142998983
2.76087105964753
2.2831683997456897
2.3380564142998983
2.3380564142998983
2.76087105964753
2.76087105964753
2.2831683997456897
2.3380564142998983
2.3380564142998983
2.76087105964753
2.3380564142998983
2.3380564142998983
2.2831683997456897
2.76087105964753
2.3380564142998983
2.76087105964753
2.76087105964753
2.76087105964753
2.7608710596475294
2.7608710596475294
2.3380564142998983
2.76087105964753
2.2831683997456897
2.196091436431762
2.1960914364317587
3.6446120174276437
2.1960914364317587
2.199528124447234
2.3434426056418376
3.0677072820525773
2.1960914364317587
2.3434426056418376
2.556132280192951
4.356125392558096
3.9560489426017145
2.556132280192951
