GIS
1
0.0
13
Concession
Conjunction
Restatement
Cause
Continuation
Reinforcement
Contrast
Instantiation
Background
Temporal
Circumstance
Alternative
Exception
313
31 0
6 0 1
1 0 1 2
1 0 1 2 3 4
1 0 1 2 3 4 5 6 7 8 9
69 0 1 2 3 4 5 6 7 8 9 10
20 0 1 2 3 4 5 6 7 8 9 10 11
23 0 1 2 3 4 5 6 7 8 9 10 11 12
19 0 1 2 3 4 5 6 7 8 9 10 12
3 0 1 2 3 4 5 6 7 8 10
1 0 1 2 3 4 5 6 7 8 11
1 0 1 2 3 4 5 6 7 9 10
7 0 1 2 3 4 5 6 8 9 10
2 0 1 2 3 4 5 6 8 9 10 12
2 0 1 2 3 4 5 6 8 10
1 0 1 2 3 4 5 6 10
2 0 1 2 3 4 5 7 8
1 0 1 2 3 4 5 7 8 9 10
2 0 1 2 3 4 5 7 8 10
1 0 1 2 3 4 5 7 10
1 0 1 2 3 4 5 8 9 10
1 0 1 2 3 4 6 7
1 0 1 2 3 4 6 7 8
7 0 1 2 3 4 6 7 8 9 10
1 0 1 2 3 4 6 7 8 10
1 0 1 2 3 4 6 7 9
1 0 1 2 3 4 6 7 9 10
6 0 1 2 3 4 6 8 9 10
1 0 1 2 3 4 6 8 10
1 0 1 2 3 4 6 9 10
1 0 1 2 3 4 7
1 0 1 2 3 4 7 8 9
1 0 1 2 3 4 8
1 0 1 2 3 4 8 9
1 0 1 2 3 6 7 10
1 0 1 2 4
2 0 1 2 4 5 6 7 8 9 10
1 0 1 2 4 5 6 7 8 10
1 0 1 2 4 5 6 8 9 10
2 0 1 2 4 5 6 9 10
1 0 1 2 4 5 7
1 0 1 2 4 5 7 8
1 0 1 2 4 5 7 10
3 0 1 2 4 5 8 9 10
1 0 1 2 4 6 7 8
1 0 1 2 4 6 8
3 0 1 2 4 6 8 9
2 0 1 2 4 6 8 9 10
1 0 1 2 4 6 8 10
1 0 1 2 4 6 9 10
1 0 1 2 4 7
1 0 1 2 4 8
2 0 1 2 4 8 9
1 0 1 2 4 9
1 0 1 2 4 9 10
1 0 1 2 4 10
1 0 1 2 5
1 0 1 2 6 10
1 0 1 3 4 5
1 0 1 3 4 8
2 0 1 4
1 0 1 4 5 6 7
1 0 1 4 5 6 10
1 0 1 4 5 7 9
1 0 1 4 5 8 10
1 0 1 4 6 7
1 0 1 4 6 10
1 0 1 4 8 9
1 0 1 4 8 10
2 0 1 4 9
1 0 1 4 9 10
2 0 1 8
2 0 2
1 0 2 3
1 0 2 3 4
1 0 2 3 4 6 8 10
1 0 2 3 4 9 10
2 0 2 3 4 10
1 0 2 3 10
1 0 2 4 5
1 0 2 4 7 9
1 0 2 7 10
2 0 3
1 0 3 4 5 7
1 0 3 4 8 10
1 0 3 9 10
2 0 4
1 0 4 5 6 8
1 0 4 9
1 0 4 10
1 0 5
2 0 6 8
2 0 8
2 0 10
358 1
56 1 2
2 1 2 3
5 1 2 3 4
1 1 2 3 4 5
3 1 2 3 4 5 6 7 8 9 10
1 1 2 3 4 5 6 7 8 9 10 11
1 1 2 3 4 5 6 7 8 9 10 12
1 1 2 3 4 5 6 7 8 10
1 1 2 3 4 5 6 7 9 10
4 1 2 3 4 5 6 8 9 10
1 1 2 3 4 5 6 8 9 10 11
1 1 2 3 4 5 6 8 10
2 1 2 3 4 5 6 10
1 1 2 3 4 5 7 8 9
1 1 2 3 4 5 7 8 9 10
1 1 2 3 4 5 8
4 1 2 3 4 5 9 10
1 1 2 3 4 5 10
5 1 2 3 4 6 7 8 9 10
5 1 2 3 4 6 8 9 10
1 1 2 3 4 6 9
1 1 2 3 4 7 8 9
1 1 2 3 4 7 8 9 10
1 1 2 3 4 7 8 9 10 12
1 1 2 3 4 7 9
2 1 2 3 4 8
2 1 2 3 4 8 9
4 1 2 3 4 8 9 10
1 1 2 3 4 8 9 10 12
1 1 2 3 4 8 9 12
3 1 2 3 4 9
2 1 2 3 4 9 10
1 1 2 3 4 10
2 1 2 3 5 6
1 1 2 3 5 6 7 10
1 1 2 3 7
1 1 2 3 8
1 1 2 3 9 10
32 1 2 4
1 1 2 4 5
2 1 2 4 5 6 7 8 9 10
5 1 2 4 5 6 8 9 10
1 1 2 4 5 7 8 9 10
1 1 2 4 5 8
1 1 2 4 5 8 9 10
2 1 2 4 5 9 10
2 1 2 4 5 10
6 1 2 4 6
1 1 2 4 6 7 8 9 10
1 1 2 4 6 7 8 10
1 1 2 4 6 7 9
2 1 2 4 6 7 9 10
1 1 2 4 6 8
2 1 2 4 6 8 9
1 1 2 4 6 8 9 10
3 1 2 4 6 9
4 1 2 4 6 9 10
2 1 2 4 6 10
1 1 2 4 7
1 1 2 4 7 8
1 1 2 4 7 8 9
1 1 2 4 7 8 9 10
1 1 2 4 7 9 10
1 1 2 4 7 9 11
2 1 2 4 7 10
2 1 2 4 8
5 1 2 4 8 9
5 1 2 4 8 9 10
1 1 2 4 8 10
12 1 2 4 9
8 1 2 4 9 10
10 1 2 4 10
2 1 2 5
1 1 2 5 7
3 1 2 6
1 1 2 6 7 10
1 1 2 6 8 9
1 1 2 6 9
1 1 2 6 9 10
2 1 2 6 10
1 1 2 6 11
3 1 2 7
1 1 2 7 8
1 1 2 7 10
2 1 2 8 10
8 1 2 9
4 1 2 9 10
7 1 2 10
3 1 3
5 1 3 4
1 1 3 4 5
1 1 3 4 6 7
1 1 3 4 7 9
1 1 3 4 8
2 1 3 4 8 9
3 1 3 4 9
2 1 3 8
1 1 3 8 10
1 1 3 9
74 1 4
3 1 4 5
1 1 4 5 6
1 1 4 5 6 7 8 9
1 1 4 5 6 10
2 1 4 5 7
1 1 4 5 9 10
1 1 4 5 10
3 1 4 6
1 1 4 6 7
1 1 4 6 7 9
2 1 4 6 8 10
1 1 4 6 9
1 1 4 6 9 10
4 1 4 6 10
3 1 4 7
4 1 4 8
1 1 4 8 9
1 1 4 8 9 10
1 1 4 8 10
17 1 4 9
6 1 4 9 10
10 1 4 10
3 1 5
3 1 6
2 1 6 7
1 1 6 9
3 1 7
1 1 7 10
8 1 8
1 1 8 9
11 1 9
3 1 9 10
11 1 10
1 1 11
202 2
9 2 3
4 2 3 4
1 2 3 4 5
1 2 3 4 5 7 9 10
1 2 3 4 8
1 2 3 4 8 9
1 2 3 9
44 2 4
3 2 4 5
2 2 4 5 6
1 2 4 5 7 8
1 2 4 5 7 9
2 2 4 6
1 2 4 6 7
1 2 4 6 9
3 2 4 6 9 10
1 2 4 7
1 2 4 7 10
1 2 4 8
1 2 4 8 9
1 2 4 8 9 10
11 2 4 9
10 2 4 9 10
7 2 4 10
5 2 5
1 2 5 7 9
3 2 5 10
5 2 6
1 2 6 9
1 2 6 9 10
2 2 6 10
4 2 7
1 2 7 8
1 2 7 8 10
11 2 8
1 2 8 9 10
18 2 9
7 2 9 10
11 2 10
40 3
9 3 4
1 3 4 6
4 3 4 8
1 3 4 8 10
2 3 4 9
1 3 4 9 10
2 3 4 10
3 3 7
1 3 8
2 3 10
470 4
4 4 5
1 4 5 7 9
1 4 5 8 9
2 4 5 10
6 4 6
1 4 6 7 9
1 4 6 7 10
1 4 6 8
5 4 7
2 4 7 9
1 4 7 10
12 4 8
2 4 8 9
43 4 9
5 4 9 10
15 4 10
24 5
1 5 7 9
27 6
1 6 7 8
2 6 9
2 6 10
32 7
2 7 8
56 8
2 8 9
3 8 10
227 9
9 9 10
72 10
3 11
2 12
2635
arg2_start_uni_upper
arg2_start_uni_silencing
arg2_start_uni_validate
arg2_start_uni_hypothesis
arg2_start_uni_fully
arg2_start_uni_thymoma
arg2_start_uni_association
arg2_start_uni_remains
arg2_start_uni_hs1
incom_from
arg2_start_uni_awaits
arg2_start_uni_hme
RB_->_Now:2
arg2_start_uni_preliminary
arg2_start_uni_novel
arg2_start_uni_flurry
arg2_start_uni_unclear
arg2_start_uni_bind
arg2_start_uni_cannot
arg2_start_uni_possibility
arg2_start_uni_protection
arg2_start_uni_report,
arg2_start_uni_does
arg2_start_uni_elucidation
arg2_start_uni_likely,
arg2_start_uni_extent
arg2_start_uni_improve
arg2_start_uni_serologic
incom_to
arg2_start_uni_against
arg2_start_uni_draw
arg2_start_uni_relevance
arg2_start_uni_due
arg2_start_uni_site
arg2_start_uni_difference
arg2_start_uni_mgb1
arg2_start_uni_conclusions
arg2_start_uni_ccr3
arg2_start_uni_use
VP_->_VB_ADJP:1
or_to
VP_->_MD_VP:2
VBD_->_was:1
S_->_S_,_NP_VP_.:1
SBAR_->_IN_S:1
VP_->_TO_VP:12
NP_->_NNP_NNP:1
NP_->_NNP_NNP:2
a_,
from_to
at_,
VP_->_VBZ_NP:1
by_is
VBP_->_are:1
VBP_->_are:2
and_the
WDT_->_which:2
and_,
NP_->_DT_NN:12
ar_the
the_from
to_from
by_,
DT_->_The:2
of_by
arg2_start_uni_in
IN_->_that:1
by_the
arg2_start_uni_of
NP_->_NP_,_SBAR:2
NP_->_CD_NN:2
NP_->_CD_NN:1
NP_->_NNP_NNP_NNP:1
VP_->_VBD_SBAR:2
VP_->_VBD_SBAR:1
SBAR_->_IN_S:12
NP_->_PRP:1
at_the
IN_->_by:2
IN_->_by:1
IN_->_at:1
ar_,
NP_->_NP_PP:12
NP_->_NP_,_NP:2
of_in
of_is
IN_->_of:12
NP_->_CD:1
NP_->_CD:2
ar_of
IN_->_from:2
IN_->_from:1
,_from
ar_in
arg2_start_uni_the
arg2_start_uni_our
NP_->_DT:2
VP_->_VBZ_NP:12
,_at
VP_->_VBD_VP:1
,_by
,_of
NP_->_QP:2
,_is
,_in
arg2_start_uni_this
in_from
which_of
NP_->_PRP:12
NP_->_NNP_CD:2
,_->_,:12
,_and
VP_->_VBZ_NP:2
of_,
NP_->_NNP:2
the_wa
,_->_,:2
NP_->_NNP:12
VP_->_TO_VP:1
,_,
RB_->_not:1
arg2_start_uni_was
NP_->_CD_NNS:12
the_,
NP_->_CD_NNS:2
VP_->_VBD_VP:2
NP_->_NP_NP:1
,_wa
of_and
S_->_NP_VP:2
VBD_->_was:2
NP_->_NNP:1
of_the
IN_->_of:1
DT_->_The:1
VBZ_->_is:2
,_->_,:1
S_->_NP_VP_.:12
._->_.:1
._->_.:2
NP_->_NP_PP:1
the_the
IN_->_at:2
S_->_NP_VP_.:2
S_->_NP_VP_.:1
,_a
,_the
._->_.:12
PP_->_IN_NP:12
NP_->_CD_NNS:1
PP_->_IN_NP:2
PP_->_IN_NP:1
a_the
VP_->_MD_VP:1
S_->_NP_VP:1
SBAR_->_IN_S:2
NP_->_DT_NN:2
NP_->_DT_NN:1
WDT_->_which:1
S_->_NP_VP:12
IN_->_of:2
IN_->_that:2
VBZ_->_is:1
VBZ_->_is:12
NP_->_NP_,_SBAR:1
VP_->_TO_VP:2
NP_->_NP_PP:2
NP_->_PRP:2
which_the
RB_->_not:2
NP_->_DT:1
IN_->_that:12
VP_->_VB_ADJP:2
ar_a
arg2_start_uni_is
which_,
a_from
arg2_start_uni_to
1_the
VP_->_VBD_VP:12
NP_->_NP_,_CC_NP:1
at_and
NP_->_QP:1
the_we
arg2_start_uni_we
JJ_->_due:1
arg2_start_uni_that
arg2_start_uni_no
arg2_start_uni_it
share_,
for_from
arg2_start_uni_although
arg2_start_uni_have
the_even
S_->_S_,_NP_VP_.:2
some_to
arg2_start_uni_are
IN_->_from:12
some_of
IN_->_by:12
of_%
of_at
the_%
NN_->_%:2
some_in
arg2_start_uni_data
arg2_start_uni_expression
VP_->_VBD_NP_PP_PP:1
in_%
%_to
,_%
to_%
NN_->_%:1
arg2_start_uni_as
NP_->_NP_,_NP_,:1
share_to
ADJP_->_JJ_NP:1
arg2_start_uni_findings
arg2_start_uni_effects
arg2_start_uni_show
ar_%
NP_->_CD:12
NP_->_NNP_NNP_NNP:2
arg2_start_uni_studies
arg2_start_uni_with
NP_->_NNP_NNP_NNP:12
arg2_start_uni_experiments
arg2_start_uni_recent
JJ_->_due:2
arg2_start_uni_most
arg2_start_uni_analysis
arg2_start_uni_for
arg2_start_uni_using
arg2_start_uni_has
arg2_start_uni_numbers
NN_->_%:12
%_the
%_%
or_from
%_,
arg2_start_uni_while
from_%
arg2_start_uni_treg
arg2_start_uni_contrast
arg2_start_uni_activation
arg2_start_uni_since
arg2_start_uni_not
arg2_start_uni_were
arg2_start_uni_transcripts
arg2_start_uni_effect
arg2_start_uni_revealed
arg2_start_uni_possible
arg2_start_uni_further
arg2_start_uni_comparison
arg2_start_uni_notably,
arg2_start_uni_recently,
arg2_start_uni_interestingly,
arg2_start_uni_had
arg2_start_uni_found
arg2_start_uni_some
arg2_start_uni_specific
arg2_start_uni_intensity
arg2_start_uni_despite
arg2_start_uni_irf-4
arg2_start_uni_assays
arg2_start_uni_vitro
arg2_start_uni_method
arg2_start_uni_function
arg2_start_uni_though
arg2_start_uni_suppressor
arg2_start_uni_inversion
due_ar
arg2_start_uni_present
arg2_start_uni_b
due_the
arg2_start_uni_mz
arg2_start_uni_even
arg2_start_uni_deletion
NP_->_NP_,_CC_NP_,:1
arg2_start_uni_rt-pcr
due_at
arg2_start_uni_direct
arg2_start_uni_role
due_to
arg2_start_uni_band
arg2_start_uni_cause
arg2_start_uni_cre-mediated
arg2_start_uni_study
arg2_start_uni_significant
arg2_start_uni_mutation
arg2_start_uni_now
arg2_start_uni_strikingly,
arg2_start_uni_ephb4
arg2_start_uni_example,
arg2_start_uni_also
month_from
arg2_start_uni_demonstrated
arg2_start_uni_preparations
arg2_start_uni_recognition
arg2_start_uni_explants
arg2_start_uni_iodide
arg2_start_uni_bob.1/obf.1,
arg2_start_uni_cre
arg2_start_uni_accurate
arg2_start_uni_enriched
arg2_start_uni_(ii)
arg2_start_uni_health
arg2_start_uni_equally,
arg2_start_uni_2-forward:
arg2_start_uni_b,
arg2_start_uni_b.
arg2_start_uni_5′-aaggtgaactgaagtctggaagtga-3′,
arg2_start_uni_importance
arg2_start_uni_il-3
arg2_start_uni_lod
arg2_start_uni_anti-proliferative
arg2_start_uni_neurons
arg2_start_uni_system
arg2_start_uni_apart
arg2_start_uni_af4
arg2_start_uni_(b),
arg2_start_uni_apoptotic
arg2_start_uni_adherence
arg2_start_uni_f.
arg2_start_uni_applied
arg2_start_uni_inhibitors
arg2_start_uni_e:
arg2_start_uni_question
arg2_start_uni_poly-adp
arg2_start_uni_e)
arg2_start_uni_failure
arg2_start_uni_e.
arg2_start_uni_robustness
arg2_start_uni_bc
arg2_start_uni_d,
arg2_start_uni_adult
arg2_start_uni_d)
arg2_start_uni_c:
arg2_start_uni_cell-surface
arg2_start_uni_c)
arg2_start_uni_c.
arg2_start_uni_presumably
arg2_start_uni_b:
arg2_start_uni_evident
arg2_start_uni_above,
arg2_start_uni_gw
arg2_start_uni_i.
arg2_start_uni_rearrangement
arg2_start_uni_gh
arg2_start_uni_ecori,
arg2_start_uni_surprisingly
arg2_start_uni_bisulfite
ADJP_->_JJ_NP:12
arg2_start_uni_h.
arg2_start_uni_transition
arg2_start_uni_ex
arg2_start_uni_hypersensitivity
arg2_start_uni_antiproliferative
arg2_start_uni_g.
arg2_start_uni_eb
arg2_start_uni_competitive
arg2_start_uni_long-standing
arg2_start_uni_cd44
arg2_start_uni_lc,
arg2_start_uni_immunoblotting
arg2_start_uni_investigate,
arg2_start_uni_pn1-ic
arg2_start_uni_inhibited
arg2_start_uni_hippocampal
arg2_start_uni_cd21
arg2_start_uni_wistar–prob
arg2_start_uni_synergistic
arg2_start_uni_"ebf"
arg2_start_uni_anti-cd3
arg2_start_uni_r2,
arg2_start_uni_r3,
arg2_start_uni_still
arg2_start_uni_hypermethylation
arg2_start_uni_il-15
arg2_start_uni_non-t
arg2_start_uni_(wt)
arg2_start_uni_(m)
arg2_start_uni_regulate
arg2_start_uni_phytohemagglutinin
arg2_start_uni_mutated
arg2_start_uni_bottom
arg2_start_uni_immunofluorescence
arg2_start_uni_vital
arg2_start_uni_thresholds
arg2_start_uni_bv-173
arg2_start_uni_r1,
arg2_start_uni_datasets
arg2_start_uni_inappropriate
arg2_start_uni_others,
arg2_start_uni_kidney,
arg2_start_uni_conversion
arg2_start_uni_bromodeoxyuridine/propidium
arg2_start_uni_hierarchical
arg2_start_uni_chamber
arg2_start_uni_lek
arg2_start_uni_therapeutically
arg2_start_uni_where
arg2_start_uni_(iv)
arg2_start_uni_irf-4-negative
arg2_start_uni_fk506,
arg2_start_uni_pathogens
arg2_start_uni_another
arg2_start_uni_regression
arg2_start_uni_cut-off
arg2_start_uni_pten-transfected
arg2_start_uni_buffy
arg2_start_uni_cona
arg2_start_uni_ys
arg2_start_uni_cases,
arg2_start_uni_igg
arg2_start_uni_optimization
ar_''
arg2_start_uni_impact
arg2_start_uni_sera
arg2_start_uni_pyrrolidine
arg2_start_uni_pu.1
arg2_start_uni_endotoxin
arg2_start_uni_parp-cleaved
arg2_start_uni_dependent
arg2_start_uni_cho-delta1
arg2_start_uni_and/or
arg2_start_uni_frequencies
NP_->_NP_,_ADJP_,:12
arg2_start_uni_concomitant
arg2_start_uni_text
arg2_start_uni_super
arg2_start_uni_characterize
arg2_start_uni_5'-agccacctctcagccgttttgtgg-3'
arg2_start_uni_p10xcbf1-luc
arg2_start_uni_unexpectedly,
arg2_start_uni_generally,
arg2_start_uni_(c),
arg2_start_uni_infiltrate
arg2_start_uni_technical
arg2_start_uni_sites,
arg2_start_uni_f2-reverse:
arg2_start_uni_12239
arg2_start_uni_fine
arg2_start_uni_antisense:
arg2_start_uni_cousin
arg2_start_uni_notch's
arg2_start_uni_tochemotaxis,
arg2_start_uni_unaffected
arg2_start_uni_high-level
arg2_start_uni_mfi
arg2_start_uni_xbai
arg2_start_uni_mer
arg2_start_uni_reveals
arg2_start_uni_(iii)
arg2_start_uni_instructive
arg2_start_uni_inducible
arg2_start_uni_pi3k-akt
arg2_start_uni_gene-specific
arg2_start_uni_ly
arg2_start_uni_constituted
S_->_NP_NP:12
arg2_start_uni_rodent
arg2_start_uni_nz
arg2_start_uni_diseased
arg2_start_uni_tumour
arg2_start_uni_(gagakt)
arg2_start_uni_decreasing
arg2_start_uni_sb
arg2_start_uni_finding
arg2_start_uni_pivotal
arg2_start_uni_dramatically,
arg2_start_uni_(pha),
arg2_start_uni_sp
arg2_start_uni_sf
arg2_start_uni_largest
arg2_start_uni_young
arg2_start_uni_same
NP_->_NP_,_ADJP_,:2
arg2_start_uni_hands,
arg2_start_uni_expanded
arg2_start_uni_wb
arg2_start_uni_c-jun
arg2_start_uni_constitutively-active
arg2_start_uni_a.2
arg2_start_uni_myeloma
arg2_start_uni_f2-forward:
arg2_start_uni_ctctcttccctccggactct
arg2_start_uni_mother
arg2_start_uni_critical
arg2_start_uni_c-e
arg2_start_uni_al,
arg2_start_uni_dnase
arg2_start_uni_aim
arg2_start_uni_name
arg2_start_uni_b-cell-specific
arg2_start_uni_explore
arg2_start_uni_preventing
arg2_start_uni_whilst
arg2_start_uni_medial
arg2_start_uni_vivo
arg2_start_uni_**mouse
arg2_start_uni_category
arg2_start_uni_transforms
arg2_start_uni_jnk
arg2_start_uni_hes-1,
arg2_start_uni_smad7
arg2_start_uni_papers
arg2_start_uni_bs-ii-reverse
arg2_start_uni_2-reverse:
arg2_start_uni_constructed
arg2_start_uni_cycle
arg2_start_uni_markov
arg2_start_uni_phenotypes
arg2_start_uni_pcna
arg2_start_uni_inbred
arg2_start_uni_knowledge,
arg2_start_uni_triangles
arg2_start_uni_replicability
arg2_start_uni_nucleus
arg2_start_uni_bs-ii-forward
arg2_start_uni_203580
arg2_start_uni_differential
arg2_start_uni_apc
arg2_start_uni_sem
arg2_start_uni_***mouse
arg2_start_uni_simple
arg2_start_uni_careful
arg2_start_uni_suppress
arg2_start_uni_vijh
arg2_start_uni_missing
arg2_start_uni_acceptor
arg2_start_uni_catalyzes
arg2_start_uni_work
arg2_start_uni_variation
arg2_start_uni_point
arg2_start_uni_v-d-j
arg2_start_uni_294002
arg2_start_uni_kinetics
arg2_start_uni_thymomas
arg2_start_uni_ribose
arg2_start_uni_chain
arg2_start_uni_none
arg2_start_uni_view
arg2_start_uni_=
arg2_start_uni_dc-enriched
arg2_start_uni_1.6-kb
arg2_start_uni_9/13
arg2_start_uni_mixed
arg2_start_uni_kidney-specific
arg2_start_uni_southern
arg2_start_uni_windows
arg2_start_uni_monocyte
arg2_start_uni_immunohistochemistry
arg2_start_uni_vβ8+
arg2_start_uni_sequencing
arg2_start_uni_ly294002,
arg2_start_uni_h
arg2_start_uni_higher
arg2_start_uni_blockade
arg2_start_uni_annotation
arg2_start_uni_±
arg2_start_uni_5′-agtttaatagtttaagggagttgggt-3′,
arg2_start_uni_hypothesize
arg2_start_uni_clones
arg2_start_uni_central
arg2_start_uni_fdr
arg2_start_uni_towards
arg2_start_uni_rt,
arg2_start_uni_noti
arg2_start_uni_vs.
arg2_start_uni_secretion
arg2_start_uni_normalise
arg2_start_uni_coats
arg2_start_uni_measurement
arg2_start_uni_mb-1sense:
arg2_start_uni_appear
arg2_start_uni_nfkappab
arg2_start_uni_thymus,
arg2_start_uni_intense
arg2_start_uni_bmp-6-induced
arg2_start_uni_removal
arg2_start_uni_including
arg2_start_uni_elemental
arg2_start_uni_node:
arg2_start_uni_sb203580,
arg2_start_uni_hl60
arg2_start_uni_lower,
arg2_start_uni_summary
arg2_start_uni_72
arg2_start_uni_transforming
arg2_start_uni_igg4
arg2_start_uni_multiple
arg2_start_uni_66
VP_->_VBD_NP_PP_PP:12
arg2_start_uni_cross-comparison
arg2_start_uni_physiological
arg2_start_uni_histological
arg2_start_uni_aligning
arg2_start_uni_2)
arg2_start_uni_like
arg2_start_uni_(which
arg2_start_uni_29%
WRB_->_When:12
arg2_start_uni_15
arg2_start_uni_across
arg2_start_uni_insert
arg2_start_uni_wild-type
arg2_start_uni_noggin
arg2_start_uni_acellular
arg2_start_uni_regions
arg2_start_uni_cd11c+cd123-
arg2_start_uni_found,
arg2_start_uni_tn2
arg2_start_uni_tn3
arg2_start_uni_boxed
arg2_start_uni_5'-ccacaattcccctgagaggtggct-3'
arg2_start_uni_reported
S_->_NP_VP_:_.:2
S_->_NP_VP_:_.:1
arg2_start_uni_propose
arg2_start_uni_(b
arg2_start_uni_tcrb
arg2_start_uni_concentrations,
arg2_start_uni_injury
VBN_->_named:2
arg2_start_uni_padtata-luc
arg2_start_uni_cyclosporin
arg2_start_uni_hes-1
arg2_start_uni_constitutive
JJ_->_due:12
arg2_start_uni_variable
arg2_start_uni_graphical
arg2_start_uni_reflects
arg2_start_uni_line:
arg2_start_uni_mature
arg2_start_uni_erosion
arg2_start_uni_lines,
arg2_start_uni_died
arg2_start_uni_3′
arg2_start_uni_distinction
arg2_start_uni_btk,
NP_->_NNP_CD_,_CD:12
arg2_start_uni_5′-agcggtgaaactgagagtgcgaggt-3′,
arg2_start_uni_equally
arg2_start_uni_mammals,
arg2_start_uni_mb-1
arg2_start_uni_implied
arg2_start_uni_end-point
arg2_start_uni_denotes
arg2_start_uni_latent
arg2_start_uni_live-cell
arg2_start_uni_autoradiograph
arg2_start_uni_dotted
arg2_start_uni_contemporaneous
arg2_start_uni_ptk-renilla
arg2_start_uni_over
VP_->_VBN_NP_PP:12
arg2_start_uni_b)
arg2_start_uni_identifies
arg2_start_uni_photomicrograph
arg2_start_uni_1.6
arg2_start_uni_include
arg2_start_uni_northern
arg2_start_uni_expressing
arg2_start_uni_cho-n2
arg2_start_uni_panels
arg2_start_uni_rt–pcr
arg2_start_uni_intron
arg2_start_uni_trend
co._,
arg2_start_uni_maternal
arg2_start_uni_sensitivity
arg2_start_uni_rat
arg2_start_uni_increased
arg2_start_uni_organ
NNP_->_Co.:1
arg2_start_uni_major
arg2_start_uni_ameliorating
arg2_start_uni_done
arg2_start_uni_ebf
NP_->_NP_,_SBAR_,:1
arg2_start_uni_myeloid
arg2_start_uni_taken
arg2_start_uni_al.
arg2_start_uni_induced
arg2_start_uni_contralateral
arg2_start_uni_regulation
arg2_start_uni_6
arg2_start_uni_(5
arg2_start_uni_putative
arg2_start_uni_able
arg2_start_uni_charts
arg2_start_uni_lesion
arg2_start_uni_vβ6+
arg2_start_uni_months
arg2_start_uni_methylated
arg2_start_uni_together
arg2_start_uni_restriction
arg2_start_uni_gate
arg2_start_uni_testosterone-treated
arg2_start_uni_foxp3
arg2_start_uni_apoptosis
arg2_start_uni_representation
arg2_start_uni_schematic
arg2_start_uni_clear
arg2_start_uni_appeared
arg2_start_uni_pten
arg2_start_uni_tables
arg2_start_uni_showing
arg2_start_uni_plasmids
in_<-_<pobj>:12
arg2_start_uni_significantly
arg2_start_uni_different
arg2_start_uni_assay
arg2_start_uni_activated
share_share
arg2_start_uni_cytokines
arg2_start_uni_can
arg2_start_uni_may
IN_->_at:12
arg2_start_uni_and
NP_->_NP_,_NP:1
NP_->_NNP_CD:1
arg2_start_uni_a
VBP_->_are:12
NP_->_DT:12
VBD_->_was:12
arg2_start_uni_these
arg2_start_uni_cells
VP_->_VBN_NP_PP:2
NP_->_NNP_CD:12
VP_->_VBD_NP_PP_PP:2
RB_->_not:12
arg2_start_uni_results
,_'s
VP_->_MD_VP:12
the_''
NP_->_NP_,_NP:12
arg2_start_uni_two
or_or
arg2_start_uni_t
arg2_start_uni_absence
NP_->_NNP_NNP:12
DT_->_The:12
from_from
VP_->_VB_S:1
VP_->_VBN_NP_PP:1
NP_->_CD_NN:12
arg2_start_uni_an
a_%
NP_->_QP:12
some_the
when_,
some_,
NP_->_NP_NP:2
arg2_start_uni_one
arg2_start_uni_by
arg2_start_uni_because
arg2_start_uni_used
arg2_start_uni_induction
VBN_->_based:2
arg2_start_uni_at
PRP_->_they:2
in_<-_<pobj>:1
arg2_start_uni_levels
arg2_start_uni_cell
VBN_->_based:1
NP_->_NP_NP:12
arg2_start_uni_proteins
arg2_start_uni_gene
arg2_start_uni_on
for_%
in_<-_<pobj>:2
arg2_start_uni_respect,
arg2_start_uni_other
arg2_start_uni_bmp-6
arg2_start_uni_tf
arg2_start_uni_whether
arg2_start_uni_single
arg2_start_uni_cpg
arg2_start_uni_methods
arg2_start_uni_inflammatory
arg2_start_uni_be
%_ar
note_and
arg2_start_uni_sequences
arg2_start_uni_full
arg2_start_uni_analysed
arg2_start_uni_panel
arg2_start_uni_primer
arg2_start_uni_detection
arg2_start_uni_achieved
arg2_start_uni_factors
arg2_start_uni_evaluation
arg2_start_uni_thymic
''_,
arg2_start_uni_phenotype
arg2_start_uni_nasba
cent_a
arg2_start_uni_addition
arg2_start_uni_hybridisation
arg2_start_uni_1
arg2_start_uni_patterns
arg2_start_uni_pathway
arg2_start_uni_many
arg2_start_uni_included
arg2_start_uni_this,
arg2_start_uni_percentage
arg2_start_uni_blot
arg2_start_uni_mean
arg2_start_uni_they
arg2_start_uni_electrophoretic
at_at
NP_->_NP_,_NP_,:2
PRP_->_they:1
arg2_start_uni_treatment
arg2_start_uni_all
NP_->_NP_,_CC_NP:2
arg2_start_uni_mice
VP_->_VB_S:2
arg2_start_uni_fetal
arg2_start_uni_from
VP_->_VBD_SBAR:12
NP_->_NP_:_NP_.:1
arg2_start_uni_emsa
arg2_start_uni_growth
arg2_start_uni_cluster
arg2_start_uni_expressed
arg2_start_uni_genes
arg2_start_uni_2
NP_->_NP_,_SBAR:12
arg2_start_uni_shows
ADJP_->_JJ_NP:2
arg2_start_uni_dcs
WRB_->_When:1
WDT_->_which:12
ADJP_->_NP_JJ:2
arg2_start_uni_hhv-8
S_->_NP_NP:2
%_from
%_<-_<num>:2
arg2_start_uni_amplification
%_<-_<num>:1
arg2_start_uni_line
arg2_start_uni_after
arg2_start_uni_activity
of_p
arg2_start_uni_four
arg2_start_uni_bob.1/obf.1
arg2_start_uni_control
note_,
arg2_start_uni_been
of_'s
arg2_start_uni_breast
NP_->_NNP_CD_,_CD:2
arg2_start_uni_transcription
note_the
arg2_start_uni_figure
year_to
arg2_start_uni_evidence
arg2_start_uni_performed
arg2_start_uni_highly
arg2_start_uni_similar
arg2_start_uni_pcr
arg2_start_uni_procedure
arg2_start_uni_tissue
arg2_start_uni_proliferation
arg2_start_uni_binding
ADJP_->_NP_JJ:1
or_%
arg2_start_uni_both
arg2_start_uni_primary
arg2_start_uni_changes
,_later
arg2_start_uni_antibodies
&_the
NP_->_NP_:_NP_.:2
arg2_start_uni_western
arg2_start_uni_amount
arg2_start_uni_antibody
arg2_start_uni_representative
NP_->_NP_:_NP_.:12
CC_->_&:1
arg2_start_uni_blood
levels_<-_<nn>:2
arg2_start_uni_cd4+
arg2_start_uni_dna
arg2_start_uni_when
WRB_->_When:2
arg2_start_uni_first
S_->_S_,_NP_VP_.:12
arg2_start_uni_il-2
levels_<-_<nn>:1
arg2_start_uni_stat3
month_<-_<num>:1
arg2_start_uni_human
arg2_start_uni_5
arg2_start_uni_arthritis
compar_from
arg2_start_uni_production
arg2_start_uni_shown
arg2_start_uni_null
arg2_start_uni_capacity
arg2_start_uni_et
arg2_start_uni_preincubation
arg2_start_uni_increase
%_<-_<num>:12
arg2_start_uni_whereas
NP_->_NNP_CD_,_CD:1
arg2_start_uni_supershift
arg2_start_uni_nuclear
arg2_start_uni_cd11c+
arg2_start_uni_only
arg2_start_uni_much
arg2_start_uni_nf-κb
arg2_start_uni_recently
arg2_start_uni_experimentally
arg2_start_uni_vitro,
arg2_start_uni_mice,
arg2_start_uni_signals
of_<-_<pobj>:1
arg2_start_uni_which
arg2_start_uni_stimulation
arg2_start_uni_did
NP_->_NP_,_SBAR_,:2
arg2_start_uni_j-n2
arg2_start_uni_sequence
arg2_start_uni_i
arg2_start_uni_facs
S_->_NP_NP:1
arg2_start_uni_identified
arg2_start_uni_total
arg2_start_uni_cultured
arg2_start_uni_index
ADJP_->_NP_JJ:12
arg2_start_uni_p50-/-
arg2_start_uni_sites
arg2_start_uni_thymocyte
arg2_start_uni_ramos
arg2_start_uni_showed
arg2_start_uni_below,
arg2_start_uni_differentiated
arg2_start_uni_interesting
arg2_start_uni_correlation
arg2_start_uni_case
arg2_start_uni_observation
arg2_start_uni_given
arg2_start_uni_presented
arg2_start_uni_their
arg2_start_uni_differences
arg2_start_uni_animals
arg2_start_uni_u1a
arg2_start_uni_tested
arg2_start_uni_order
arg2_start_uni_il-17
QP_->_$_CD_CD:1
arg2_start_uni_final
arg2_start_uni_evaluate
arg2_start_uni_ews
arg2_start_uni_consistent
arg2_start_uni_determined
arg2_start_uni_strength
arg2_start_uni_achieve
arg2_start_uni_androgen
arg2_start_uni_il-10r1
arg2_start_uni_100
arg2_start_uni_synovial
arg2_start_uni_sustained
arg2_start_uni_(c)
arg2_start_uni_participated
year_from
arg2_start_uni_(e)
arg2_start_uni_(d)
includes_<-_<nsubj>_<dobj>:2
arg2_start_uni_pcr-fragment
arg2_start_uni_beacon
arg2_start_uni_carried
arg2_start_uni_second
arg2_start_uni_treated
arg2_start_uni_will
arg2_start_uni_predictive
arg2_start_uni_specificity
arg2_start_uni_situ
arg2_start_uni_colored
arg2_start_uni_read
arg2_start_uni_secondary
arg2_start_uni_lane
arg2_start_uni_constructs
arg2_start_uni_currently
arg2_start_uni_among
arg2_start_uni_cbf1-reporter
arg2_start_uni_dose
arg2_start_uni_deficiency
arg2_start_uni_akt
arg2_start_uni_mobilization
arg2_start_uni_region
arg2_start_uni_parameters
arg2_start_uni_irf-4-positive
arg2_start_uni_optimal
arg2_start_uni_conditions
arg2_start_uni_see
arg2_start_uni_vivo,
arg2_start_uni_ages
arg2_start_uni_antigen-presenting
arg2_start_uni_controls
arg2_start_uni_six
share_from
arg2_start_uni_authors
arg2_start_uni_play
arg2_start_uni_contained
arg2_start_uni_fact
arg2_start_uni_confirm
arg2_start_uni_female
arg2_start_uni_histograms
arg2_start_uni_cytokine
arg2_start_uni_apparently
arg2_start_uni_proportion
arg2_start_uni_coupled
arg2_start_uni_cases
arg2_start_uni_initial
arg2_start_uni_clustering
arg2_start_uni_list
arg2_start_uni_nucleotide
arg2_start_uni_apc,
arg2_start_uni_pbmncs
arg2_start_uni_involvement
arg2_start_uni_cell;
arg2_start_uni_sizes
arg2_start_uni_assays,
arg2_start_uni_monoclonal
arg2_start_uni_fragments
arg2_start_uni_elements
arg2_start_uni_predicted
arg2_start_uni_β-actin
arg2_start_uni_indicates
arg2_start_uni_shift
arg2_start_uni_without
arg2_start_uni_importantly,
arg2_start_uni_more
arg2_start_uni_mrna
arg2_start_uni_there
arg2_start_uni_high
arg2_start_uni_clinical
arg2_start_uni_three
arg2_start_uni_previously
arg2_start_uni_result
arg2_start_uni_lack
arg2_start_uni_injected
arg2_start_uni_important
arg2_start_uni_if
arg2_start_uni_il-6
arg2_start_uni_normal
arg2_start_uni_between
arg2_start_uni_or
arg2_start_uni_here
arg2_start_uni_observed
arg2_start_uni_pb
arg2_start_uni_experiments,
arg2_start_uni_tnf-α
NP_->_NP_,_ADJP_,:1
arg2_start_uni_experimental
arg2_start_uni_receptor
arg2_start_uni_previous
arg2_start_uni_determine
arg2_start_uni_molecular
arg2_start_uni_majority
arg2_start_uni_ner
arg2_start_uni_ra
arg2_start_uni_products
arg2_start_uni_(b)
arg2_start_uni_calcium
&_,
arg2_start_uni_sample
arg2_start_uni_red
arg2_start_uni_mouse
arg2_start_uni_containing
arg2_start_uni_underwent
arg2_start_uni_purified
arg2_start_uni_quantification
arg2_start_uni_tgf-β
arg2_start_uni_infiltration
arg2_start_uni_motifs
arg2_start_uni_probe
arg2_start_uni_lines
arg2_start_uni_slides
arg2_start_uni_following
arg2_start_uni_time
arg2_start_uni_samples
arg2_start_uni_concentrations
arg2_start_uni_detected
arg2_start_uni_amounts
PRP_->_they:12
arg2_start_uni_percentages
arg2_start_uni_response
arg2_start_uni_recombinant
from_<-_<pobj>:1
arg2_start_uni_serum
arg2_start_uni_out
arg2_start_uni_than
arg2_start_uni_igm-ic
arg2_start_uni_fragment
arg2_start_uni_support
arg2_start_uni_adding
arg2_start_uni_macrophages
arg2_start_uni_relb+
arg2_start_uni_androgens
arg2_start_uni_ipsilateral
some_at
arg2_start_uni_mammary
arg2_start_uni_remaining
arg2_start_uni_depletion
arg2_start_uni_cd4+cd25-
arg2_start_uni_endogenous
some_a
arg2_start_uni_spib
arg2_start_uni_vbcl-2
arg2_start_uni_knock-in
arg2_start_uni_small
arg2_start_uni_sought
arg2_start_uni_note,
arg2_start_uni_status
arg2_start_uni_studies,
arg2_start_uni_her
arg2_start_uni_five
arg2_start_uni_nucleotides
NNP_->_Co.:2
arg2_start_uni_relative
arg2_start_uni_bound
arg2_start_uni_once
arg2_start_uni_quantitate
arg2_start_uni_polymorphonuclear
arg2_start_uni_cloning
arg2_start_uni_octamer
arg2_start_uni_subsequent
arg2_start_uni_lymph
arg2_start_uni_product
arg2_start_uni_resulting
arg2_start_uni_all,
arg2_start_uni_linear
arg2_start_uni_cd123+
arg2_start_uni_reported,
arg2_start_uni_inhibition
arg2_start_uni_pi3-k
arg2_start_uni_abnormal
arg2_start_uni_similarly,
arg2_start_uni_pretreatment
arg2_start_uni_frequency
arg2_start_uni_phosphorylation
arg2_start_uni_competition
arg2_start_uni_labeled
arg2_start_uni_168
arg2_start_uni_interest
arg2_start_uni_transactivates
arg2_start_uni_uds
arg2_start_uni_respond
earlier_%
arg2_start_uni_ablated
arg2_start_uni_month
VBN_->_based:12
arg2_start_uni_tgf-β-converted
arg2_start_uni_(a–c)
arg2_start_uni_jejunum,
arg2_start_uni_a:
arg2_start_uni_possess
arg2_start_uni_[3h]thymidine
arg2_start_uni_a.
arg2_start_uni_a,
arg2_start_uni_exciting
arg2_start_uni_binds
arg2_start_uni_act
arg2_start_uni_filtering
arg2_start_uni_inoculated
arg2_start_uni_marginal
arg2_start_uni_proliferating
arg2_start_uni_gm
arg2_start_uni_h,
arg2_start_uni_overall
arg2_start_uni_cytokine-positive
arg2_start_uni_necrosis
arg2_start_uni_model,
arg2_start_uni_comprised
arg2_start_uni_occurrences
arg2_start_uni_she,
arg2_start_uni_dendritic
arg2_start_uni_kratochwil
arg2_start_uni_global
arg2_start_uni_discrete
arg2_start_uni_spleen:
arg2_start_uni_redundant
arg2_start_uni_length
co._of
arg2_start_uni_embryonic
arg2_start_uni_er-tr9
arg2_start_uni_phosphoimage
arg2_start_uni_system,
arg2_start_uni_briefly,
offer_of
arg2_start_uni_generally
arg2_start_uni_together,
arg2_start_uni_copies
arg2_start_uni_blotting
arg2_start_uni_footprint
arg2_start_uni_polymerase
arg2_start_uni_provided
arg2_start_uni_collagen-rich
arg2_start_uni_untranslated
arg2_start_uni_hsv-thymidine
arg2_start_uni_transactivation
arg2_start_uni_autoradiographs
month_<-_<num>:12
arg2_start_uni_rinsed
arg2_start_uni_cμ
arg2_start_uni_particular
arg2_start_uni_asked
cent_to
arg2_start_uni_pattern
arg2_start_uni_−116
arg2_start_uni_efforts,
arg2_start_uni_cancer
arg2_start_uni_bob.1/obf.1-specific
arg2_start_uni_90%
issue_<-_<det>:2
arg2_start_uni_profiles
arg2_start_uni_presumed
NN_->_vice:1
arg2_start_uni_endocrine
arg2_start_uni_resuspending
arg2_start_uni_e15.5
arg2_start_uni_appropriate
arg2_start_uni_sample,
arg2_start_uni_id
arg2_start_uni_results,
arg2_start_uni_counted
arg2_start_uni_kb
arg2_start_uni_lymphocyte
arg2_start_uni_autocrine
arg2_start_uni_triggering
arg2_start_uni_groups
arg2_start_uni_poly-adp-ribose
arg2_start_uni_ir2
arg2_start_uni_nm
arg2_start_uni_examination
arg2_start_uni_ectopic
arg2_start_uni_need
arg2_start_uni_assembly
arg2_start_uni_brca1
arg2_start_uni_depicted
offer_the
arg2_start_uni_tests
arg2_start_uni_inhibits
arg2_start_uni_[estrogen
arg2_start_uni_t-dependent
arg2_start_uni_gata-1
arg2_start_uni_thirty
arg2_start_uni_a.1
arg2_start_uni_a-b
arg2_start_uni_heatmap
arg2_start_uni_profile
arg2_start_uni_mast
arg2_start_uni_factor
arg2_start_uni_mammogens
arg2_start_uni_simplified
arg2_start_uni_mediators
arg2_start_uni_begins
arg2_start_uni_added:
arg2_start_uni_histogram
arg2_start_uni_initially,
arg2_start_uni_cassette
arg2_start_uni_3.1
arg2_start_uni_pre-existing
arg2_start_uni_swelling
arg2_start_uni_motif
arg2_start_uni_chart
arg2_start_uni_oct2-specific
arg2_start_uni_extraction
arg2_start_uni_30/32
arg2_start_uni_scenario,
arg2_start_uni_generate
arg2_start_uni_bob.1/obf.1−/−
arg2_start_uni_4
arg2_start_uni_ionizing
arg2_start_uni_embryo,
arg2_start_uni_antigens,
arg2_start_uni_purely
arg2_start_uni_pieces
arg2_start_uni_orientation
loss_or
arg2_start_uni_relates
arg2_start_uni_p50
arg2_start_uni_thp-1
arg2_start_uni_dilution,
arg2_start_uni_new
arg2_start_uni_infect
arg2_start_uni_stability
arg2_start_uni_illustration
arg2_start_uni_floxed
arg2_start_uni_(a)histopathology
arg2_start_uni_illustrating
arg2_start_uni_neurogenesis,
arg2_start_uni_(a),
arg2_start_uni_box
arg2_start_uni_(cd19+cd27-)
arg2_start_uni_types
arg2_start_uni_stimuli
arg2_start_uni_could
arg2_start_uni_contain
arg2_start_uni_gp130f759/f759
arg2_start_uni_aliquot
arg2_start_uni_local
arg2_start_uni_th1
,_he
co._the
arg2_start_uni_pooled
arg2_start_uni_attract
via_<-_<pobj>:1
arg2_start_uni_mab,
arg2_start_uni_useful
arg2_start_uni_(p
arg2_start_uni_earliest
arg2_start_uni_xid
arg2_start_uni_(a
VBN_->_named:1
arg2_start_uni_infected
arg2_start_uni_suspensions
arg2_start_uni_except
arg2_start_uni_scotet
arg2_start_uni_stroma
arg2_start_uni_enrolled
arg2_start_uni_appearance
arg2_start_uni_24-well
arg2_start_uni_open
arg2_start_uni_smad
arg2_start_uni_within
:_->_...:1
arg2_start_uni_various
arg2_start_uni_cea
vice_,
arg2_start_uni_implies
arg2_start_uni_characteristics,
arg2_start_uni_(large
arg2_start_uni_buds,
arg2_start_uni_domains
arg2_start_uni_cunha
arg2_start_uni_haematopoietic
arg2_start_uni_cho
arg2_start_uni_µg
arg2_start_uni_engaging
arg2_start_uni_them
arg2_start_uni_continued
arg2_start_uni_comparing
arg2_start_uni_stability-regulated
arg2_start_uni_conclude
arg2_start_uni_similarly
arg2_start_uni_active
arg2_start_uni_compared
arg2_start_uni_exposure
arg2_start_uni_leads
arg2_start_uni_relationship
arg2_start_uni_suggest
arg2_start_uni_provide
arg2_start_uni_large
arg2_start_uni_limited
arg2_start_uni_conditional
arg2_start_uni_coverage
arg2_start_uni_do
arg2_start_uni_number
arg2_start_uni_il-10
to_term
at_<-_<pobj>:1
arg2_start_uni_composite
arg2_start_uni_beyond
arg2_start_uni_first,
arg2_start_uni_(i)
arg2_start_uni_aa
arg2_start_uni_populations
arg2_start_uni_successful
arg2_start_uni_value
arg2_start_uni_hela
arg2_start_uni_top
arg2_start_uni_background
arg2_start_uni_structure
arg2_start_uni_utilized
arg2_start_uni_those
arg2_start_uni_proved
arg2_start_uni_size
arg2_start_uni_values
arg2_start_uni_time-to-positivity
arg2_start_uni_enrichment
arg2_start_uni_displays
arg2_start_uni_threshold
arg2_start_uni_chromosomal
share_or
arg2_start_uni_input
arg2_start_uni_erg
arg2_start_uni_staining
arg2_start_uni_primers
arg2_start_uni_score
arg2_start_uni_established
arg2_start_uni_position
arg2_start_uni_bar
arg2_start_uni_pathology
arg2_start_uni_proinflammatory
arg2_start_uni_indicate
arg2_start_uni_represents
arg2_start_uni_stimulatory
arg2_start_uni_extremely
arg2_start_uni_through
arg2_start_uni_amplified
arg2_start_uni_similarity
arg2_start_uni_originally
arg2_start_uni_w3/25
arg2_start_uni_socs3
arg2_start_uni_marker
arg2_start_uni_mobility
arg2_start_uni_itk
NP_->_NP_,_CC_NP_,:2
arg2_start_uni_several
arg2_start_uni_clearly
arg2_start_uni_during
QP_->_$_CD_CD:2
arg2_start_uni_contains
arg2_start_uni_arrows
,_who
arg2_start_uni_patient
arg2_start_uni_days
arg2_start_uni_rna
,_&
arg2_start_uni_regard,
arg2_start_uni_cells,
arg2_start_uni_buds
arg2_start_uni_end
arg2_start_uni_mononuclear
inc._the
arg2_start_uni_extracts
arg2_start_uni_prepared
arg2_start_uni_analyzed
arg2_start_uni_she
arg2_start_uni_probes
of_s
arg2_start_uni_reaction
arg2_start_uni_10
CC_->_&:2
arg2_start_uni_sections
arg2_start_uni_average
arg2_start_uni_each
arg2_start_uni_anti-cd4
arg2_start_uni_promoter
of_&
arg2_start_uni_protein
arg2_start_uni_signal
the_&
arg2_start_uni_genomic
to_&
arg2_start_uni_a)
earlier_to
arg2_start_uni_mab
arg2_start_uni_limit
arg2_start_uni_btk
arg2_start_uni_peripheral
arg2_start_uni_lower
arg2_start_uni_study,
arg2_start_uni_transfection
arg2_start_uni_total,
arg2_start_uni_deficient
arg2_start_uni_mechanism
arg2_start_uni_transgenic
arg2_start_uni_analyses
arg2_start_uni_thymocytes
arg2_start_uni_accelerating
arg2_start_uni_combined
arg2_start_uni_unlike
arg2_start_uni_grain
at_<-_<pobj>:2
arg2_start_uni_displayed
arg2_start_uni_defined
arg2_start_uni_pbmc
arg2_start_uni_neutrophils
arg2_start_uni_tumor
arg2_start_uni_al
arg2_start_uni_cd4+cd25+
arg2_start_uni_kinase
arg2_start_uni_produced
arg2_start_uni_demonstrate
arg2_start_uni_mutations
arg2_start_uni_wild
arg2_start_uni_brdu
arg2_start_uni_beacons
arg2_start_uni_signaling
arg2_start_uni_irf1
arg2_start_uni_set
from_<-_<pobj>:2
arg2_start_uni_extended
arg2_start_uni_assay,
arg2_start_uni_accumulation
arg2_start_uni_known
arg2_start_uni_(a)
arg2_start_uni_clusters
arg2_start_uni_fixation
arg2_start_uni_type
arg2_start_uni_stat1
arg2_start_uni_frozen
arg2_start_uni_spleen
arg2_start_uni_time-point
arg2_start_uni_smears
arg2_start_uni_microliters
arg2_start_uni_digestion
arg2_start_uni_surface
NN_->_unit:2
arg2_start_uni_entire
arg2_start_uni_hours
arg2_start_uni_extracted
arg2_start_uni_resuspended
arg2_start_uni_viability
arg2_start_uni_signalling
arg2_start_uni_purification
arg2_start_uni_×
arg2_start_uni_splenocytes
arg2_start_uni_lysates
arg2_start_uni_cd19+
arg2_start_uni_wt
arg2_start_uni_24
includes_<-_<nsubj>_<dobj>:1
arg2_start_uni_influence
arg2_start_uni_increasing
arg2_start_uni_dose-dependent
month_<-_<num>:2
arg2_start_uni_up-regulation
arg2_start_uni_highest
arg2_start_uni_prevented
arg2_start_uni_naïve
arg2_start_uni_28
arg2_start_uni_strong
CC_->_But:1
arg2_start_uni_smallest
or_cent
arg2_start_uni_heterogeneity
arg2_start_uni_e2f
arg2_start_uni_il-7
arg2_start_uni_opportunities
share_cent
arg2_start_uni_neurons,
arg2_start_uni_simulation
arg2_start_uni_where,
arg2_start_uni_impression
arg2_start_uni_lend
arg2_start_uni_feature
arg2_start_uni_how,
arg2_start_uni_tyrosine
arg2_start_uni_depending
arg2_start_uni_ability
arg2_start_uni_exclude
arg2_start_uni_induces
arg2_start_uni_occurrence
arg2_start_uni_recruitment
arg2_start_uni_scf
arg2_start_uni_larger
arg2_start_uni_effective
arg2_start_uni_concluded
arg2_start_uni_analogous
arg2_start_uni_intersecting
arg2_start_uni_presumably,
arg2_start_uni_assess
arg2_start_uni_numerous
arg2_start_uni_dataset
arg2_start_uni_address
arg2_start_uni_draws
arg2_start_uni_hypothesized
arg2_start_uni_screen
arg2_start_uni_reinforce
arg2_start_uni_regulated
arg2_start_uni_efficacy
arg2_start_uni_affected
arg2_start_uni_rather
arg2_start_uni_term
arg2_start_uni_means
arg2_start_uni_contrasting
arg2_start_uni_studied
arg2_start_uni_understanding
arg2_start_uni_pbmcs
arg2_start_uni_contribute
arg2_start_uni_key
arg2_start_uni_such
arg2_start_uni_low
arg2_start_uni_would
arg2_start_uni_elucidate
arg2_start_uni_developed
arg2_start_uni_pdcs
arg2_start_uni_based
arg2_start_uni_positions
or_share
arg2_start_uni_hoxa3+/-pax1-/-
arg2_start_uni_ews-erg
arg2_start_uni_testing
arg2_start_uni_potential
arg2_start_uni_preclinical
arg2_start_uni_define
arg2_start_uni_compound
arg2_start_uni_mutants
arg2_start_uni_mutant
arg2_start_uni_two-color
arg2_start_uni_hallmark
arg2_start_uni_hanks'
arg2_start_uni_inverted
arg2_start_uni_limits
arg2_start_uni_optical
arg2_start_uni_step
arg2_start_uni_targeting
arg2_start_uni_composition
arg2_start_uni_considering
arg2_start_uni_maintained
arg2_start_uni_tetsushi
arg2_start_uni_flow
arg2_start_uni_genetic
arg2_start_uni_contents
arg2_start_uni_supplementary
arg2_start_uni_age
arg2_start_uni_pertinent
arg2_start_uni_gated
arg2_start_uni_isindicated
arg2_start_uni_reticulocyte
arg2_start_uni_columns
arg2_start_uni_mopc21
arg2_start_uni_sorting,
arg2_start_uni_mounting
arg2_start_uni_transition,
arg2_start_uni_pi3k-activating
arg2_start_uni_years
arg2_start_uni_cnt,
arg2_start_uni_healthy
arg2_start_uni_rounds
arg2_start_uni_arrows,
arg2_start_uni_element
arg2_start_uni_(1/200;
arg2_start_uni_bv
arg2_start_uni_cc
arg2_start_uni_bd
arg2_start_uni_informed
arg2_start_uni_latter
arg2_start_uni_duration
arg2_start_uni_cavity;
arg2_start_uni_e1-fl
arg2_start_uni_described
arg2_start_uni_histographic
arg2_start_uni_spearman
arg2_start_uni_microarray
arg2_start_uni_scatter
arg2_start_uni_stromal-epithelial
arg2_start_uni_bars
arg2_start_uni_go
arg2_start_uni_adjuvanticity
arg2_start_uni_blots
arg2_start_uni_ff
arg2_start_uni_surprisingly,
arg2_start_uni_g:
arg2_start_uni_cd14-hla-dr+
arg2_start_uni_cd69
arg2_start_uni_g,
arg2_start_uni_el
arg2_start_uni_bottom:
arg2_start_uni_models
arg2_start_uni_bilateral
arg2_start_uni_responded
arg2_start_uni_fitc-linked
arg2_start_uni_color
arg2_start_uni_cytometry,
arg2_start_uni_30–38
arg2_start_uni_ensembl
arg2_start_uni_motifs,
arg2_start_uni_two-step
arg2_start_uni_cytometry
arg2_start_uni_mode
arg2_start_uni_gradient
arg2_start_uni_grown
arg2_start_uni_elisa
arg2_start_uni_indo-1
arg2_start_uni_conceived
arg2_start_uni_simulations
arg2_start_uni_sv40
arg2_start_uni_**p
arg2_start_uni_examples
arg2_start_uni_should
arg2_start_uni_regulatory
arg2_start_uni_basis
arg2_start_uni_abundant
arg2_start_uni_0.01,
arg2_start_uni_fibroblast
arg2_start_uni_group
arg2_start_uni_believed
arg2_start_uni_constant
arg2_start_uni_statistical
arg2_start_uni_investigated
arg2_start_uni_possibilities
arg2_start_uni_bmps
arg2_start_uni_annotations
arg2_start_uni_validation
arg2_start_uni_ensured
arg2_start_uni_stains
arg2_start_uni_sandwich
arg2_start_uni_sixteen
arg2_start_uni_abnormalities
arg2_start_uni_technique
arg2_start_uni_primarily
arg2_start_uni_stat4
arg2_start_uni_decrease
arg2_start_uni_arrow
arg2_start_uni_suggested
arg2_start_uni_eachgraph
arg2_start_uni_akira
arg2_start_uni_emsa,
arg2_start_uni_totals
arg2_start_uni_thirteen
arg2_start_uni_allowed
arg2_start_uni_normalised
arg2_start_uni_werescanned
arg2_start_uni_(ttp)
arg2_start_uni_okamoto,
corp._,
arg2_start_uni_fluorescence
arg2_start_uni_magnification
arg2_start_uni_quality
arg2_start_uni_vgv
arg2_start_uni_exon
arg2_start_uni_elsewhere
arg2_start_uni_significance
arg2_start_uni_ethidium
arg2_start_uni_family
arg2_start_uni_recruited
arg2_start_uni_unstimulated
arg2_start_uni_histology,
arg2_start_uni_macrophage-specific
arg2_start_uni_depict
arg2_start_uni_makino
arg2_start_uni_ruffled
arg2_start_uni_stat3-deficient
arg2_start_uni_represent
arg2_start_uni_shaded
arg2_start_uni_institutional
arg2_start_uni_assisted
arg2_start_uni_translocation
arg2_start_uni_ratio
arg2_start_uni_volunteers
arg2_start_uni_weak
arg2_start_uni_6–8
arg2_start_uni_emergence
arg2_start_uni_mammographically
arg2_start_uni_contributed
arg2_start_uni_(mixed
arg2_start_uni_injections
arg2_start_uni_(100
arg2_start_uni_experiment,
arg2_start_uni_table
arg2_start_uni_id2
arg2_start_uni_id3
arg2_start_uni_genes,
arg2_start_uni_id1
arg2_start_uni_(p65)
arg2_start_uni_5′-region
arg2_start_uni_standpoint
arg2_start_uni_initially
arg2_start_uni_substances
arg2_start_uni_horizontal
arg2_start_uni_methodology
arg2_start_uni_medications
arg2_start_uni_helped
arg2_start_uni_sampled
arg2_start_uni_designed
arg2_start_uni_processed
arg2_start_uni_(small
arg2_start_uni_thought
arg2_start_uni_infectious,
arg2_start_uni_hyk
note_rate
arg2_start_uni_control/s,
arg2_start_uni_file
arg2_start_uni_continuing
arg2_start_uni_hyp
arg2_start_uni_interferon
arg2_start_uni_ih
arg2_start_uni_relb
arg2_start_uni_information
arg2_start_uni_relation
arg2_start_uni_rela
arg2_start_uni_anti-tcrα/β
arg2_start_uni_sags
arg2_start_uni_resting
arg2_start_uni_jh
arg2_start_uni_jg
arg2_start_uni_overhang
arg2_start_uni_its
arg2_start_uni_released
arg2_start_uni_consequences
arg2_start_uni_jr
arg2_start_uni_maximal
arg2_start_uni_hour
arg2_start_uni_endo-toxin
arg2_start_uni_ifn-γ-stimulated
arg2_start_uni_1,000
arg2_start_uni_lf
arg2_start_uni_anchored
arg2_start_uni_ld
arg2_start_uni_rank
arg2_start_uni_these,
arg2_start_uni_mc
arg2_start_uni_favorable
arg2_start_uni_suggestions
arg2_start_uni_poly
arg2_start_uni_bromide
arg2_start_uni_stainings
arg2_start_uni_glance,
arg2_start_uni_eas
arg2_start_uni_follow-up
arg2_start_uni_biological
arg2_start_uni_pg
arg2_start_uni_ebs
arg2_start_uni_pm
arg2_start_uni_organisation
arg2_start_uni_cycling
arg2_start_uni_sc
arg2_start_uni_≤
arg2_start_uni_features
arg2_start_uni_t,
arg2_start_uni_st
arg2_start_uni_(r1)
arg2_start_uni_sn
arg2_start_uni_mlc
arg2_start_uni_tw
arg2_start_uni_salt
arg2_start_uni_mll
arg2_start_uni_mkp
arg2_start_uni_masahiro
arg2_start_uni_rabbit
arg2_start_uni_share
arg2_start_uni_derivation
arg2_start_uni_illustrate
arg2_start_uni_listmode
arg2_start_uni_(mbps)
arg2_start_uni_outer
arg2_start_uni_mjr
arg2_start_uni_lacking
arg2_start_uni_fact,
arg2_start_uni_over-representations
arg2_start_uni_sake
arg2_start_uni_down-regulation
arg2_start_uni_feedback
arg2_start_uni_anti-β-actin
arg2_start_uni_leukaemia/lymphoma
arg2_start_uni_therapy
arg2_start_uni_induce
arg2_start_uni_calculated
arg2_start_uni_aks
arg2_start_uni_ajh
arg2_start_uni_peptides
arg2_start_uni_–
arg2_start_uni_critically
arg2_start_uni_(10 nm)
arg2_start_uni_expected
arg2_start_uni_phenotypic
arg2_start_uni_strongest
arg2_start_uni_immunodetection
arg2_start_uni_r.b.c.
arg2_start_uni_tissue,
arg2_start_uni_plots
arg2_start_uni_one-year
arg2_start_uni_jmj
arg2_start_uni_median
arg2_start_uni_*mice
arg2_start_uni_earlier
arg2_start_uni_typical
arg2_start_uni_resembles
arg2_start_uni_smad2
arg2_start_uni_smad3
arg2_start_uni_combination
arg2_start_uni_neurotrophins
arg2_start_uni_course
arg2_start_uni_a-d:
arg2_start_uni_cytotoxic
arg2_start_uni_overlapping
arg2_start_uni_compiled
arg2_start_uni_publications
arg2_start_uni_becton
arg2_start_uni_cbf1-dependent
arg2_start_uni_nrm
arg2_start_uni_impaired
arg2_start_uni_overlays
arg2_start_uni_magnifications
arg2_start_uni_(icsat/pip/mum1/lsirf)
arg2_start_uni_dark
arg2_start_uni_shl
arg2_start_uni_shp
arg2_start_uni_defects
arg2_start_uni_control;
arg2_start_uni_otherwise
arg2_start_uni_drafted
arg2_start_uni_sgg
arg2_start_uni_transient
arg2_start_uni_connective
arg2_start_uni_nipple
arg2_start_uni_cd3+4+8+
arg2_start_uni_×250
arg2_start_uni_subset
arg2_start_uni_least
arg2_start_uni_dickinson
arg2_start_uni_contained,
arg2_start_uni_laboratory
arg2_start_uni_besides
arg2_start_uni_repeated
arg2_start_uni_3
arg2_start_uni_visualization
arg2_start_uni_<
arg2_start_uni_inserts
arg2_start_uni_noted,
arg2_start_uni_positive
arg2_start_uni_discovery
arg2_start_uni_disparate
arg2_start_uni_pi3k
arg2_start_uni_*
arg2_start_uni_p
arg2_start_uni_v
arg2_start_uni_t-test
arg2_start_uni_dissection
arg2_start_uni_2407
arg2_start_uni_noon
arg2_start_uni_m
arg2_start_uni_streptavidin-cy5
arg2_start_uni_(igg1),
arg2_start_uni_medium
arg2_start_uni_main
arg2_start_uni_unfortunately,
arg2_start_uni_commonly
arg2_start_uni_focused
arg2_start_uni_polyclonal
arg2_start_uni_consent
arg2_start_uni_disrupted
arg2_start_uni_interaction
arg2_start_uni_forward
arg2_start_uni_note
arg2_start_uni_fisher
arg2_start_uni_jc,
arg2_start_uni_foreskin
arg2_start_uni_unless
arg2_start_uni_population
arg2_start_uni_×40
arg2_start_uni_gave
arg2_start_uni_facilitating
arg2_start_uni_model
arg2_start_uni_rtf
arg2_start_uni_smad2,
arg2_start_uni_pgk1
arg2_start_uni_×15
arg2_start_uni_dnmts
arg2_start_uni_divided
arg2_start_uni_asterisks
arg2_start_uni_yamamura
arg2_start_uni_chemotherapy
arg2_start_uni_chemical
arg2_start_uni_exons
arg2_start_uni_jhm
arg2_start_uni_added
arg2_start_uni_stringent
arg2_start_uni_fixed
arg2_start_uni_plays
arg2_start_uni_×20
arg2_start_uni_characterized
arg2_start_uni_detects
arg2_start_uni_mjr,
arg2_start_uni_q1200x
arg2_start_uni_zone,
arg2_start_uni_includes
arg2_start_uni_evaluated
arg2_start_uni_consisted
arg2_start_uni_smad2/3
arg2_start_uni_outcomes
arg2_start_uni_solid
arg2_start_uni_hirofumi
arg2_start_uni_integrity
arg2_start_uni_calculations
arg2_start_uni_defective
arg2_start_uni_future
arg2_start_uni_configuration,
arg2_start_uni_(asterisk)
arg2_start_uni_3b
arg2_start_uni_cytokines,
arg2_start_uni_30
arg2_start_uni_28s
arg2_start_uni_2a
arg2_start_uni_35
arg2_start_uni_modified
arg2_start_uni_20
arg2_start_uni_plasmid
arg2_start_uni_pbs
arg2_start_uni_markers
arg2_start_uni_regarding
arg2_start_uni_11
arg2_start_uni_(ff)
arg2_start_uni_1;
arg2_start_uni_12
arg2_start_uni_balanced
arg2_start_uni_that,
arg2_start_uni_'open'
arg2_start_uni_annexin
arg2_start_uni_were:
arg2_start_uni_statistically
arg2_start_uni_il-12-induced
arg2_start_uni_amplicons
arg2_start_uni_*p
arg2_start_uni_boxes
arg2_start_uni_individualization
arg2_start_uni_lowest
arg2_start_uni_chosen,
arg2_start_uni_standards
arg2_start_uni_reduced
arg2_start_uni_student's
arg2_start_uni_histopathological
arg2_start_uni_period
arg2_start_uni_blunt-tipped
arg2_start_uni_gail
arg2_start_uni_owing
arg2_start_uni_diagram
arg2_start_uni_0.05
arg2_start_uni_depicts
arg2_start_uni_refer
arg2_start_uni_separate
arg2_start_uni_depletion/modulation
arg2_start_uni_joint
arg2_start_uni_lysate
arg2_start_uni_yields
arg2_start_uni_noted
arg2_start_uni_fusion
arg2_start_uni_cml-t1
arg2_start_uni_description
arg2_start_uni_short
arg2_start_uni_conducted
arg2_start_uni_anti-phospho-p38
arg2_start_uni_very
arg2_start_uni_blue
arg2_start_uni_preparation
arg2_start_uni_ester
arg2_start_uni_points
arg2_start_uni_filled-in
arg2_start_uni_generation
arg2_start_uni_absolute
arg2_start_uni_complete
arg2_start_uni_alcian
arg2_start_uni_original
arg2_start_uni_upregulation
:_->_...:2
arg2_start_uni_treatment,
arg2_start_uni_unprogrammed
execut_,
arg2_start_uni_methyl-cpg-binding
arg2_start_uni_negative
arg2_start_uni_micrographs
note_at
arg2_start_uni_wsr
arg2_start_uni_get
arg2_start_uni_scale
arg2_start_uni_branches
arg2_start_uni_chy
arg2_start_uni_acetoxymethyl
arg2_start_uni_quantifications
arg2_start_uni_fibrous
arg2_start_uni_specimens
arg2_start_uni_thick
arg2_start_uni_error
arg2_start_uni_target
arg2_start_uni_relatively
arg2_start_uni_equivalency
arg2_start_uni_probably
arg2_start_uni_existence
arg2_start_uni_confirmed
arg2_start_uni_level
arg2_start_uni_chosen
arg2_start_uni_well
arg2_start_uni_analysis,
arg2_start_uni_de
arg2_start_uni_patients
arg2_start_uni_rag1-/-
arg2_start_uni_example
arg2_start_uni_situation
arg2_start_uni_less
arg2_start_uni_translocations
arg2_start_uni_denote
arg2_start_uni_presence
arg2_start_uni_elf3
to_<-_<pobj>:2
arg2_start_uni_tumors
arg2_start_uni_occurs
arg2_start_uni_delivery
arg2_start_uni_splenic
arg2_start_uni_animal
arg2_start_uni_ifn-γ,
arg2_start_uni_il-10,
arg2_start_uni_methylation
arg2_start_uni_dp
arg2_start_uni_inhibitory
arg2_start_uni_invertor
arg2_start_uni_synthetic
arg2_start_uni_considered
arg2_start_uni_z
arg2_start_uni_current
arg2_start_uni_previously,
arg2_start_uni_suggests
arg2_start_uni_ratios
arg2_start_uni_plasmacytoid
arg2_start_uni_socs1
arg2_start_uni_test
arg2_start_uni_examine
arg2_start_uni_reactions
arg2_start_uni_t-cell
arg2_start_uni_id1,
arg2_start_uni_equal
arg2_start_uni_aliquots
arg2_start_uni_day
arg2_start_uni_live
NNP_->_Corp.:1
arg2_start_uni_synthesis
arg2_start_uni_ifn-γ
arg2_start_uni_over-represented
arg2_start_uni_algorithm
NP_->_NP_,_NP_,:12
arg2_start_uni_lymphocytes
arg2_start_uni_sense
arg2_start_uni_washed
arg2_start_uni_mix
arg2_start_uni_comparisons
arg2_start_uni_observations
arg2_start_uni_concentration
arg2_start_uni_immunoprecipitated
arg2_start_uni_nro
arg2_start_uni_curve
arg2_start_uni_images
CC_->_&:12
arg2_start_uni_complexes
arg2_start_uni_construct
arg2_start_uni_made
arg2_start_uni_cdna
arg2_start_uni_blocking
arg2_start_uni_double-stranded
arg2_start_uni_oligonucleotides
arg2_start_uni_identification
arg2_start_uni_grand
arg2_start_uni_experiment
arg2_start_uni_pax5
arg2_start_uni_events
arg2_start_uni_reporter
arg2_start_uni_standard
arg2_start_uni_curves
arg2_start_uni_additional
arg2_start_uni_measure
arg2_start_uni_culture
arg2_start_uni_supernatants
arg2_start_uni_cultures
arg2_start_uni_chemotaxis
arg2_start_uni_purity
arg2_start_uni_bands
yield_and
arg2_start_uni_comparative
arg2_start_uni_again,
arg2_start_uni_neutrophil
arg2_start_uni_sorted
arg2_start_uni_approximately
arg2_start_uni_complex
arg2_start_uni_preventive
arg2_start_uni_mabs
arg2_start_uni_novo
arg2_start_uni_corresponding
arg2_start_uni_tec
arg2_start_uni_chromatin
arg2_start_uni_indicated
arg2_start_uni_intriguingly,
arg2_start_uni_hao
arg2_start_uni_colon,
arg2_start_uni_rajewsky
arg2_start_uni_p53,
arg2_start_uni_substitutions
arg2_start_uni_corroborating
arg2_start_uni_detailed
arg2_start_uni_reveal
arg2_start_uni_increases
arg2_start_uni_parallel
arg2_start_uni_intercession
arg2_start_uni_cell-type-specific
arg2_start_uni_baar
arg2_start_uni_tissues
arg2_start_uni_epidemiology
arg2_start_uni_credence
arg2_start_uni_hepatocyte
arg2_start_uni_striking
arg2_start_uni_pre-dp
arg2_start_uni_lung
arg2_start_uni_eosinophil-specific
arg2_start_uni_adequate
arg2_start_uni_il-10-mediated
arg2_start_uni_22343
by_<-_<pobj>:2
arg2_start_uni_half
arg2_start_uni_elf3,
arg2_start_uni_disagreement
arg2_start_uni_immunodeficient
arg2_start_uni_oct-1
arg2_start_uni_areb6
arg2_start_uni_neutrophils,
arg2_start_uni_comprise
arg2_start_uni_seem
RB_->_n't:2
arg2_start_uni_chemoattractants
arg2_start_uni_introduction
arg2_start_uni_seems
arg2_start_uni_nucleic
arg2_start_uni_3.2
arg2_start_uni_work,
arg2_start_uni_acid
arg2_start_uni_severe
wa_who
arg2_start_uni_(jackson
arg2_start_uni_others
arg2_start_uni_encouraging
arg2_start_uni_intra-articular
arg2_start_uni_injection
arg2_start_uni_thin
arg2_start_uni_sequence-based
arg2_start_uni_cross
of_who
arg2_start_uni_hybridization
arg2_start_uni_16
arg2_start_uni_core
arg2_start_uni_biopsy
arg2_start_uni_micro-organisms,
arg2_start_uni_co-incident
arg2_start_uni_il-7r
arg2_start_uni_release
arg2_start_uni_ews-fus
arg2_start_uni_4a,
include_<-_<nsubj>_<dobj>:1
arg2_start_uni_(il)-17
arg2_start_uni_family,
arg2_start_uni_recognized
arg2_start_uni_il-1β
arg2_start_uni_map
arg2_start_uni_variety
arg2_start_uni_computational
arg2_start_uni_overexpressing
arg2_start_uni_myocytes,
arg2_start_uni_illegitimate
arg2_start_uni_undergo
arg2_start_uni_marchetti
arg2_start_uni_al.,
arg2_start_uni_p38
arg2_start_uni_elicited
arg2_start_uni_cml,
arg2_start_uni_iκb
arg2_start_uni_likely
arg2_start_uni_modelling
arg2_start_uni_interleukin
arg2_start_uni_mouse,
arg2_start_uni_ciofani
arg2_start_uni_tn1
arg2_start_uni_naive
arg2_start_uni_cis-regulatory
arg2_start_uni_loss
arg2_start_uni_nested
arg2_start_uni_precursors
arg2_start_uni_cd123+hla-dr+
arg2_start_uni_principal,
arg2_start_uni_describes
arg2_start_uni_egfr
arg2_start_uni_semi-quantitative
arg2_start_uni_azadc
arg2_start_uni_e6.1
arg2_start_uni_mxa+
arg2_start_uni_gene,
due_'s
arg2_start_uni_what
arg2_start_uni_rag1-cre
arg2_start_uni_lana
arg2_start_uni_review
arg2_start_uni_opposed
arg2_start_uni_ks
arg2_start_uni_nfkb1
arg2_start_uni_stages,
arg2_start_uni_jurkat
arg2_start_uni_exhibit
arg2_start_uni_bdnf
arg2_start_uni_fdc-m2
arg2_start_uni_polypeptides
arg2_start_uni_search
arg2_start_uni_vil-6
arg2_start_uni_lesions
arg2_start_uni_output
arg2_start_uni_attempted
arg2_start_uni_bone
VP_->_VB_ADJP:12
arg2_start_uni_carcinomas
of_<-_<pobj>:2
arg2_start_uni_indication
arg2_start_uni_analyse
arg2_start_uni_c
arg2_start_uni_overexpressed
arg2_start_uni_focuses
arg2_start_uni_examined
arg2_start_uni_here,
arg2_start_uni_pore-mediated
arg2_start_uni_73
arg2_start_uni_55
arg2_start_uni_knockout
arg2_start_uni_databases
arg2_start_uni_constitute
arg2_start_uni_become
arg2_start_uni_encodes
arg2_start_uni_essential
arg2_start_uni_influx
arg2_start_uni_rt-pcr,
arg2_start_uni_speculated
arg2_start_uni_tempting
arg2_start_uni_oct
arg2_start_uni_paper
arg2_start_uni_prevents
arg2_start_uni_eosinophils
by_<-_<pobj>:1
arg2_start_uni_cellular
arg2_start_uni_development
arg2_start_uni_orf
arg2_start_uni_time-point,
arg2_start_uni_blocked
arg2_start_uni_visualize
arg2_start_uni_rinsing
arg2_start_uni_identity
arg2_start_uni_stat
arg2_start_uni_upstream
arg2_start_uni_released,
arg2_start_uni_phylogenetic
arg2_start_uni_orthologous
arg2_start_uni_firefly
arg2_start_uni_μg
arg2_start_uni_log
arg2_start_uni_aliquout
the_compani
arg2_start_uni_footprinting
arg2_start_uni_luciferase
arg2_start_uni_(score
arg2_start_uni_placed
arg2_start_uni_sacrificed
arg2_start_uni_unlabelled
arg2_start_uni_106
arg2_start_uni_(mediacybernetics,
arg2_start_uni_membranes
arg2_start_uni_he
arg2_start_uni_fresh
arg2_start_uni_electrophoresed
arg2_start_uni_antisense
arg2_start_uni_stimulated,
arg2_start_uni_es
arg2_start_uni_establishing
arg2_start_uni_lysis
arg2_start_uni_phase
arg2_start_uni_undergone
arg2_start_uni_immediately
arg2_start_uni_pwm,
arg2_start_uni_carrier
arg2_start_uni_harvested
arg2_start_uni_5-to10
arg2_start_uni_viable,
arg2_start_uni_aqueous
arg2_start_uni_sheath,
arg2_start_uni_(30–100
arg2_start_uni_bound/retarded
arg2_start_uni_counterstained
arg2_start_uni_hes1
arg2_start_uni_flow-through
arg2_start_uni_real-time
arg2_start_uni_plates
arg2_start_uni_hla-dr+cd14-cd123+
arg2_start_uni_(107)
arg2_start_uni_individual
arg2_start_uni_densitometric
arg2_start_uni_filter
arg2_start_uni_subjected
arg2_start_uni_dried
arg2_start_uni_started
arg2_start_uni_matrices
arg2_start_uni_microarrays
arg2_start_uni_double
arg2_start_uni_ultrathin
arg2_start_uni_ebf-binding
arg2_start_uni_encompassing
arg2_start_uni_calibration
arg2_start_uni_suspension
arg2_start_uni_incubation
arg2_start_uni_resolved
arg2_start_uni_seven
arg2_start_uni_arraypro
arg2_start_uni_centrifugation,
arg2_start_uni_q-rna
arg2_start_uni_hla-dr+cd14-
arg2_start_uni_forty-eight
arg2_start_uni_raw
corp._the
arg2_start_uni_collected
arg2_start_uni_pools
arg2_start_uni_apoptotic,
arg2_start_uni_amplification,
arg2_start_uni_extending
arg2_start_uni_intensities
arg2_start_uni_streptavidin–alkaline
arg2_start_uni_(a.g.
arg2_start_uni_ethanol
arg2_start_uni_batch
arg2_start_uni_washing,
arg2_start_uni_microbeads
arg2_start_uni_fifty
arg2_start_uni_whole-blood
arg2_start_uni_ortholog
arg2_start_uni_software
arg2_start_uni_reciprocally
arg2_start_uni_neighboring
arg2_start_uni_formalin-fixed
arg2_start_uni_targeted
arg2_start_uni_staining,
arg2_start_uni_over-representation
arg2_start_uni_(0.8
arg2_start_uni_matching
arg2_start_uni_rt
arg2_start_uni_np12-bsa-biotin
arg2_start_uni_intracellular
arg2_start_uni_pfms
arg2_start_uni_nih/3t3
arg2_start_uni_1996
arg2_start_uni_immunoblot
arg2_start_uni_evaluation,
arg2_start_uni_purification,
arg2_start_uni_serial
arg2_start_uni_under
arg2_start_uni_exposed
arg2_start_uni_reactions,
arg2_start_uni_receptors
arg2_start_uni_transfer
arg2_start_uni_distances
arg2_start_uni_separated
arg2_start_uni_indicated,
arg2_start_uni_densities
arg2_start_uni_thawed
NN_->_unit:1
arg2_start_uni_stained
arg2_start_uni_blocking,
arg2_start_uni_fold
arg2_start_uni_surnatants
,_compani
arg2_start_uni_strand
arg2_start_uni_arrays
arg2_start_uni_basophils
arg2_start_uni_enzyme
arg2_start_uni_founder
arg2_start_uni_lobes
arg2_start_uni_thousand
arg2_start_uni_dual-glo
arg2_start_uni_pathological
arg2_start_uni_oligo
arg2_start_uni_15 minutes
arg2_start_uni_70°c
arg2_start_uni_centrifuged
%_<-_<dep>:1
%_<-_<dep>:2
arg2_start_uni_reverse
arg2_start_uni_(2
arg2_start_uni_10 minutes
arg2_start_uni_cryosections
arg2_start_uni_piece
arg2_start_uni_d
arg2_start_uni_solutions
arg2_start_uni_left
arg2_start_uni_hybridization,
arg2_start_uni_digested
arg2_start_uni_extracts,
arg2_start_uni_either
arg2_start_uni_(20
arg2_start_uni_anti-cd3-biotin
arg2_start_uni_removed
arg2_start_uni_four-color
of_compani
arg2_start_uni_enhancement
arg2_start_uni_ultrasound
arg2_start_uni_radiolabelled
arg2_start_uni_(50
arg2_start_uni_removing
arg2_start_uni_absorbance
arg2_start_uni_steps,
arg2_start_uni_co-cultured
arg2_start_uni_pellet
arg2_start_uni_analyze
arg2_start_uni_whole
arg2_start_uni_stimulation,
arg2_start_uni_saturating
arg2_start_uni_microcentrifugation
arg2_start_uni_count
arg2_start_uni_scanning
arg2_start_uni_denaturation
arg2_start_uni_non-adherent
arg2_start_uni_phosophorylation
arg2_start_uni_gels
arg2_start_uni_actinomycin
arg2_start_uni_pooled,
arg2_start_uni_generated
arg2_start_uni_germ
arg2_start_uni_q-pcr
arg2_start_uni_(70–100
arg2_start_uni_supernatant
arg2_start_uni_pellets
arg2_start_uni_rehydration
arg2_start_uni_(200-μl
arg2_start_uni_2.5
arg2_start_uni_quantified
arg2_start_uni_measured
arg2_start_uni_synthesized
arg2_start_uni_ten
arg2_start_uni_mixture
arg2_start_uni_transformed
arg2_start_uni_single-stranded
arg2_start_uni_diluted
arg2_start_uni_phosphorylated
arg2_start_uni_spun
arg2_start_uni_later
arg2_start_uni_unincorporated
arg2_start_uni_july
arg2_start_uni_visualized
arg2_start_uni_computed
arg2_start_uni_notch
arg2_start_uni_genotypes
arg2_start_uni_30 minutes,
arg2_start_uni_pi3-k,
arg2_start_uni_oligomers
arg2_start_uni_(50 μg
arg2_start_uni_10–12
%_&
arg2_start_uni_mouse/human
arg2_start_uni_non-vertebrate
arg2_start_uni_cd3
arg2_start_uni_washing
arg2_start_uni_transfections
arg2_start_uni_µg)
arg2_start_uni_separation
arg2_start_uni_hybridized
arg2_start_uni_clustered
arg2_start_uni_paraffin-embedded
arg2_start_uni_gadolinium
arg2_start_uni_precipitated
arg2_start_uni_culled
arg2_start_uni_bacterial
arg2_start_uni_complimentary
arg2_start_uni_again
arg2_start_uni_(filled
arg2_start_uni_incubated
arg2_start_uni_competitors
arg2_start_uni_nuclei
arg2_start_uni_(1
arg2_start_uni_isolated
arg2_start_uni_stimulated
arg2_start_uni_diagnosis,
arg2_start_uni_oligonucleotide
arg2_start_uni_upper-outer
arg2_start_uni_over-expression
arg2_start_uni_b6
arg2_start_uni_competitor
arg2_start_uni_panels)
arg2_start_uni_trigger
arg2_start_uni_illustrated
arg2_start_uni_wereincubated
arg2_start_uni_pretreated
arg2_start_uni_relb-cd123+
arg2_start_uni_sensitized
arg2_start_uni_sufficient
arg2_start_uni_(wt
arg2_start_uni_estimated
arg2_start_uni_localization
arg2_start_uni_oct1,
arg2_start_uni_cold
arg2_start_uni_igh
arg2_start_uni_agents
arg2_start_uni_efficiently
arg2_start_uni_blast
arg2_start_uni_inhibitor
arg2_start_uni_seen
arg2_start_uni_(top
arg2_start_uni_(29/104)
arg2_start_uni_dynamic
arg2_start_uni_βgal
arg2_start_uni_murine
arg2_start_uni_localize
arg2_start_uni_formation
arg2_start_uni_histomorphological
arg2_start_uni_block
arg2_start_uni_microscopic
arg2_start_uni_circles)
arg2_start_uni_clonal
arg2_start_uni_saw
earlier_from
arg2_start_uni_30%
arg2_start_uni_bearing
arg2_start_uni_7
arg2_start_uni_context
arg2_start_uni_cd19+cd27-
arg2_start_uni_organs
arg2_start_uni_transgene
arg2_start_uni_excluding
arg2_start_uni_completely
arg2_start_uni_end,
arg2_start_uni_collected,
arg2_start_uni_delta1-fc
arg2_start_uni_plate-bound
arg2_start_uni_cho-hdelta1
arg2_start_uni_28%
arg2_start_uni_investigation
arg2_start_uni_18
arg2_start_uni_electron
arg2_start_uni_stage-specific
arg2_start_uni_200
levels_<-_<nn>:12
arg2_start_uni_demonstrates
arg2_start_uni_hypersensitive
arg2_start_uni_cd123+cd11c-
arg2_start_uni_incidence
arg2_start_uni_purities
arg2_start_uni_cd19-positive
arg2_start_uni_s194
arg2_start_uni_mri,
arg2_start_uni_allele
arg2_start_uni_oct2
arg2_start_uni_freshly
arg2_start_uni_(more
arg2_start_uni_73,
arg2_start_uni_polya
arg2_start_uni_success
arg2_start_uni_better
arg2_start_uni_initiated
arg2_start_uni_introduced
arg2_start_uni_t-47d
2.080834561307911
1.5409564266296474
1.4689485718672661
1.4626859313268534
1.4689485718672661
1.9120665354282353
2.1904637684247814
1.7611204985549431
1.6161577484976921
0.8536751537049584
1.4626859313268534
1.5434018406587604
1.3497138398953459
2.528268191766335
1.5434018406587604
2.0185496299169294
1.3691316472236341
2.3902640269421687
1.5305004237234658
1.4841663081459038
1.7192422579806097
2.5955710043112927
1.4913276645981413
1.578170780088024
1.4879471688501054
2.2195441292598526
1.7160270872286871
2.1170578806185114
0.8536751537049584
1.7192422579806097
1.7897179306814188
2.0173301220725066
0.6355256437358894
1.6053901149319705
0.8940402639834801
1.4685515904907864
0.5917512402337962
1.7091521886678258
0.7128789775678347
1.1517175843098433
0.8431161899928054
1.347050772121319
0.6356420003014748
1.744747708504816
0.36682006102652354
0.5902831032623648
0.9335606771030973
0.35612204477915965
-0.14042783748350227
0.4193761563692576
0.057645583531199106
-0.036714222268516915
-0.08179663665338249
-0.21979648723213527
0.027913980970923537
0.24680149981689364
-0.46066414691063307
0.18224345698806454
0.7414893863837899
-0.724699277690466
0.016838598216279175
-0.4383039046512027
-0.4659746182952889
-0.18939549246165147
0.23869953922396392
0.011208532155642556
-0.6949355988326669
0.3685493341882329
-0.012787972279208571
0.1590360595882815
-0.004946369772035508
0.4927662580191921
0.33691461874740586
0.00975235680007183
-0.13065867173767873
0.41367082318276144
0.12164413019899199
-0.7324437449681332
-0.44932702145926157
-0.04375532478945669
-0.1259454792143222
-0.004107403857776647
-0.9088933347549778
-0.2793515156706824
0.02802878685764695
-0.08443455234509743
0.043269495528571233
-0.012352579652198496
0.12667057097873652
0.2708196830908898
-1.0008487641157233
-0.15064612896999643
0.08337132970743896
0.08094725221473652
0.17282548947766585
-0.47413737589144483
-0.12183214395492191
-0.4520239373737308
0.01131823932288346
-0.2776848318499957
-0.013595423779834213
-0.31406459594909386
-1.3007167415422893
0.011526078255039856
0.4781550359763041
0.061778955512190065
0.0058213066699986625
0.04964082297963787
0.1328129133687096
-0.08501626440943459
0.22769187062606105
0.07239798881125836
0.06541709048959214
-0.09616261691219403
-0.03626631478431935
0.018521245673996576
0.49530447305822317
0.029959184356462876
0.07581907392602602
-0.19452396598313676
-0.022087361642446575
-0.2669729375967768
0.0712100172806957
0.3587275975705981
0.15428893062032278
-0.693655623258355
-0.28635661666517226
-0.24769832383140336
-0.047986854983679196
-0.07187569153878355
0.04502397260970004
0.11336627953044769
-0.197586738714796
-0.4841370791035314
-1.2373535128831197
-0.17192784718089416
0.17237484869064315
-0.2392458204416666
-0.5139129770094693
-0.003017491006909551
0.04388702942078377
-0.06405039060893615
0.03148485509658284
-1.3217741474605547
-0.19669905817790045
-0.010388299665841814
-0.4887616720098992
0.1616153180125163
-0.03134505202070083
-0.10876613168586668
0.049446570893317415
-7.186411602769578E-4
-0.15876863649463616
0.01462527389979486
-0.31569516811005677
0.005136757715139669
-0.204551763631356
0.10000931700204105
0.055202986791453815
0.010567207023441171
-0.11146912445513923
-0.12305529203269533
-0.10505650130009689
-0.009621485731093143
0.015449080441654899
-0.025131953122117325
-0.11678661804805275
-0.02378501882911549
0.205883803955198
0.0397631202673855
0.2563932796867403
-0.49416565767216925
0.03213988253201767
0.029038357519728136
-0.44796975822949153
-0.11363717854553136
0.19518630830933112
-0.19350101630114497
0.06263670799067383
-0.019936673683925092
0.1671413808374257
-0.19149987994316153
0.07739617018262185
-0.13481205522989984
0.08516165934631738
-0.1806051222901366
0.09125799378553823
0.31471193604220427
0.020658094386746394
-0.13696947315509664
0.2821479871260455
-0.5303927580869188
-0.2397797095243219
0.2237300303911834
-0.2752152598543585
-0.09060944230533562
0.27769496720304276
0.1298839910757392
-0.2991292078358345
-0.4835443412406854
0.1850485745722874
0.22041066699808542
-0.013610792717289514
-0.0802437661387557
-0.0759193223643801
-0.041697079692432075
-0.10672481622454087
0.17087004204355177
0.1188612564440369
-0.06514585583962537
0.13629340482076
0.16312260891071412
-0.0269022093824479
-0.614271546483726
-0.051242563030494195
0.09548844691504806
-0.10580913620147461
0.07606124863917461
-0.25671460897998527
0.2275067507642689
-0.5001806608000231
-0.3635611196215774
0.15060067508535815
0.09987307992000233
-1.3465354561095897
-0.8929448120951996
0.0911618593303276
-0.01591509855568054
-0.08115366640497639
0.12347859086920686
0.032516723600459436
-0.3255118171063991
1.0452644333011257E-5
0.033512723158383065
-0.04532264759143073
0.020077937962353964
0.14367218377498578
-0.2997192296610773
-0.02233873444176503
-0.23075327357785883
-0.07483838330642051
-0.013177583353471963
-0.1355068929871809
0.11573598073070869
-0.050388854330988574
0.2890320794872008
0.4114358991122543
-0.05786595823581504
0.133449775365852
-0.014089744673166186
-0.043452184820150286
-0.12830627473521244
-0.01924256460877284
0.06807857383640958
-0.0067846766835323235
-0.02142650475622284
0.0021706621645859433
0.04592540255584582
0.17053543268930735
-0.02872830484173467
-0.0184896415841621
-0.04360955681755807
0.08103919383947032
0.060257868475879064
0.2172357927384938
0.06303152998838785
-0.022325502834739743
-0.11352200251798034
0.0398803332125318
-0.0766793327652084
-0.11887841972946984
0.0648493880000998
-0.03282772760438985
0.1561108276025631
0.007394468742340393
0.1235769182744456
0.13652582017737486
-0.11438397204013769
0.004446538087815556
-0.2237813165141054
-0.05593509132453006
0.2498703810859751
-0.1019561462863433
0.07121430910124664
-0.11590872946419643
-0.01216536231551451
0.2767639572442915
0.03992966699771834
-0.08784018599437733
0.10470913281171584
0.04221753265449611
0.007513326860064557
0.31281850722994564
-0.07057061632369559
0.1469265427532848
0.31594971393713706
-0.05176351328386958
0.10088319988980358
-0.5115581141739465
-0.4703933597865307
-0.24423723790009083
0.0159374814914321
0.04187787631589006
0.016189483389295826
-0.07992525257343422
0.1597987456834253
-0.25507783388633776
-0.034763830156468174
-0.01996615766459084
-0.2942637888075468
-0.20533217855853084
0.1612943240107364
-0.1633539763903511
0.23845516227836544
0.19289037896599692
0.020998128441053844
0.037586588968323016
-0.2864686706659615
0.08361542398049585
-0.15930231938433495
-0.31507596740092403
-0.21531650333973434
-0.1435769796750356
0.018649807444967845
-0.07781799967654296
-0.1660521295916516
0.02063387261306184
0.16962589581820092
-0.10234203488254716
-0.13260574365229177
-0.22597428479628978
-0.054334514439464805
-9.620320777678356E-4
-0.09459372441056305
-0.15272434770866405
0.24295974674731965
-0.06757043040140114
0.00839967539339252
0.008626527572057419
-0.2058637604013229
0.08896349215845653
-0.006166415310260523
0.15962641696800675
0.3313912067347647
0.11675753902672675
-0.389028041404799
-0.0811339521777557
0.16086659988902566
0.14575184331526006
-0.10126066881974666
0.2785779193384527
-0.19119946824533662
0.34701631963152424
0.031013399100186207
0.30312103656855083
-0.04407580710558623
-1.406392568923397
-1.169581813551125
-0.012151034810395958
0.014307183538730386
0.06858866558918673
0.04710521920497769
-0.08871828759701648
-0.28600678234597104
0.31670740604245323
-0.4302108820525652
0.2452532538478105
-0.11783859353315368
0.11536400874346875
0.20599590378986443
0.06585796909827102
0.06712175105369754
-0.10571494951154947
-0.08220306861292662
0.1377082047276879
0.09872284367077985
0.019799760627234445
0.006236969264409455
-0.030515650968106853
0.010207025329768804
0.11699703566077627
-0.17887478635776538
-0.09764403003493055
0.046284427315483476
0.025728027151235174
-0.3853910557402131
0.3408821330843777
0.4601934731181608
0.30811956377470956
-0.3811473650184228
0.09857943293219903
-1.145264486722902
-0.050547425690015045
0.15928797597192598
-0.6013105823713757
-0.11299940267503208
-0.2720656110737322
-0.11297565055119488
-0.27115405037376733
-0.31528522422116995
0.12582485188522072
0.1656337875155736
-0.32624369047557034
-0.0477843490843098
-0.2746052303496733
-0.03645404567318023
0.07568672703213665
-0.8738482979565605
-0.048943536673255524
-0.7024464523114464
-0.37155581312301733
0.2104514695396558
-0.2851362501959454
0.2557146511392901
-0.011105551422110215
-0.00742216564105416
0.1614498343139001
0.08923022059626477
-0.6553393475243082
-0.5043765028225115
0.1684078272166031
-0.1132634984303563
-0.02369559545365999
9.785122493163412E-5
-0.12941821686573515
-0.023758163549373143
-0.19404417005528074
-0.5986810124807198
-0.00900201029829045
0.4471831010040131
0.0387388501541909
0.12432620473891923
0.24161604127197633
-0.02463139943119304
0.07586996185531494
0.10599292528640473
-0.019982667102979735
0.1419739359909282
-0.21889151831128384
0.06051871316992583
0.12543456954692353
0.008222121500239737
-0.8484611525330081
-0.5907700193606146
0.0035860130015671243
-0.0014690176496892438
-0.18516833813192973
0.119886704652517
0.0047084677855122594
0.1951611721188465
-0.1355587065619941
0.014275169524354094
0.15269694426884012
-0.02150243240041119
-0.848408546660158
-0.44816469444818335
0.25859944517302436
-0.07858552023624538
-0.09400537919310809
0.11382712339448464
0.13610644891513507
-0.1229176939975944
0.16386247130920067
-0.047110391853795355
-0.08664343154914457
-0.16098662758565696
-0.357523813274881
0.31780821607197207
-0.24973933150716862
0.10602901128723617
-0.12333512783612428
-0.2066448335397307
0.07563502803788423
0.024167769410737908
-0.1581620657881005
-0.5341034127993477
0.07541968343149626
0.0661675899408458
-0.3458236279651212
-0.09302419868158462
0.04193487987970555
0.005611540585136503
-0.29884169276845574
0.031313948280582225
-0.6172961249747602
0.07964575677371306
0.15723386253132748
-0.07177442670239023
0.13037057877660765
-0.18359063704338852
0.04166280511147532
8.814720382393228E-4
-0.024377830177253198
0.04695526841595421
0.02804458276578048
0.024443964218458944
0.05940064808562426
-0.530972949125701
0.06710358956610163
5.724693703491365E-4
0.05178214441540047
-0.06495069294147074
-0.029073017282436307
-0.1373055727048318
-0.11598593911625031
0.061032401406338435
-0.19575821821556913
-0.5955844536728748
-0.31428381899043084
0.07914135454317454
0.16092920730184768
-0.20897404651132748
0.19012123081642976
0.08273616528474188
-0.018135134991929206
-0.19814483866093208
-0.13311244818145324
0.22735227214241277
-0.3891249344273547
0.1618794576710686
0.24462104586627847
-0.13304726454702892
0.006385154839225707
0.089212481749289
0.007600202597143262
-0.014950866962801217
0.06642629735939799
0.022613062592672113
0.04519773752235338
-0.14235085342280343
0.0907887678192334
-0.034893459645728306
0.018531953840270197
0.0042189852188650005
-0.4609812711687268
0.05508238813290239
0.1933252774152251
-0.1258738171930027
0.09746239234120853
-0.416083294214646
-0.35658396559581673
-0.53618239899169
-0.5473522963767008
-0.10293262591856546
0.006532877830648579
-0.0939361082239399
0.017798817366135436
0.10302394095207683
-0.05211887570659018
-0.12016311546524577
0.033233941724067
0.10777424130257413
0.09903050204118473
0.11913424528588631
-0.17613709684636858
0.15737929227073458
0.17112436889020663
-0.006521811830182478
-0.01387713963611695
0.02207297201823856
0.026039723263218083
0.2753545586427566
0.12401216287331021
0.1843839865795675
-0.09721815722651599
-0.6154898561632226
-0.09216311565853799
0.08340618901932842
0.03806836158391268
0.020404677162333896
0.17051682813128716
-0.06437791902242218
0.1014009048430316
0.07694314571208692
0.10945448817995211
0.07715535785760193
-0.07788822361924747
-0.006192067492570529
0.22438573554774488
0.12331973851725254
-0.12073239663274091
-0.7047910256395176
0.07091333540779286
0.07617881925911597
0.17463444502476252
-0.9498265699588451
-0.31488304370768866
0.020346644280413658
-0.18179467676844352
-0.37172018691138575
-0.011963494265288192
0.16187981949516386
-0.3954739453950562
0.06773136403595657
-0.0011865843271079164
-0.23330800060308077
-0.0995141953217542
0.02724061091720211
-0.09083799133509668
-0.009968651817430023
0.06282459171778734
-0.06249431123608588
0.031799401421130184
0.15633572710804503
-0.032905968911422535
0.12900917379651922
-0.0123569487350887
0.06142522226549951
0.20396001650014745
-0.6233543651552211
-0.06312700313012973
0.01428180900704776
0.0186255548697116
0.11539456894158084
-0.3924077681906611
0.08077973467692437
-0.7097855871398149
-0.006754360303981542
-0.3013683940567172
0.011277148004656165
-0.08647226414309726
-0.0671119303426475
-0.3486380099499315
0.09931518103573667
-0.23946792518755133
-0.11106755469883238
0.13890373098563374
-0.5469257626526447
0.08156963186647362
-0.6020129891372121
-0.5809977100926704
0.01405575284811503
0.046616612887214665
-0.1803241999282996
-0.0517173757811938
-0.056857852770636236
0.24869215301521055
0.07888838366829891
-0.26160485336442474
0.137301835900814
0.286837903247266
0.3285236384793609
-0.10182706557657992
-0.03968743701039231
0.10907763217578502
0.0064546325965533025
0.08702402246710557
0.12396558615163718
-0.16318238262734966
0.1180251544474253
0.06171427024782224
0.2758478367196445
0.0842739745387494
0.12334045086762124
-0.2764510604253047
0.25052464192659496
0.021007270357264265
0.02081149739680818
0.011972606871087369
0.0707713671560313
-0.3046695916847455
-0.147241999993259
-0.37991937164981304
0.023113633002039776
-0.03832207845224173
-0.12525317268819827
0.20803793294109132
0.10163172303678258
-0.7190550355096996
0.14724212643043322
-0.45655449626927014
-0.02350511734415542
0.5358036351441611
-0.2649221363496759
0.17826878676364752
-0.20963655819009913
0.4483052686338473
0.29874201726872884
0.13358634181065396
-0.0728218926517697
0.2173328993360404
-0.06616560984796084
-0.13432824828853884
-0.2469707842945309
-0.2441935289309252
0.2045932727428477
-0.36820805642227256
0.05635567283896637
0.24767080534420227
0.012635158724279337
0.11258344688093952
0.031430298846430324
-0.18130786054067585
-0.2847748745020813
0.18873579613836763
0.3885497582787631
0.2521802445208284
-0.08975849097827786
-0.28817060281833373
-0.1555535800008248
0.02522711779504745
0.16965535453261638
-0.2431172334397647
-0.09541133193748674
-0.006150391020510533
0.15395660150514884
0.05874493556866561
-0.06850130891579118
0.07176014777496154
-0.20493132868834657
-0.20005643556726493
-0.07746700079712089
-0.12134617471015818
-0.5405699334658733
0.03952021780885606
-0.5924373891905901
-0.1860595629699939
-1.5196845875764933
-0.45421620018427994
0.24267538477382805
0.016642911471849202
0.12127829990449504
-0.03622943973354469
0.1264868096021312
0.1002405161821448
-0.04961776194516115
-0.2907591737143424
0.03933460133963719
0.10552086782179586
-0.06102640857856487
0.060195471780533555
-0.03193276148110295
0.04738812883760992
0.0036342537095112046
-0.036043406458735494
0.13404704074498291
-0.006052357865279237
0.10234673229045212
0.05047960583473743
-0.05973315668138248
0.10176669781116648
-0.06370530695943971
0.06172489797909119
-0.3440039108512955
-0.10153796386424495
0.04434690281883621
-0.19344969557935515
0.022219624825365304
-0.3426981546785748
-0.37422442910741394
-0.2788288272157698
0.059871754248495355
1.9954457878123205E-4
0.3481648892558362
-0.09301188917626596
0.027146847927243815
0.03096461475157678
0.10433510141796255
0.06924407821302636
0.11483296378833975
-0.3737883499866599
-0.0606688963923332
0.03072302304367577
-0.47837504242275514
-0.1201219787910357
0.021089600496440247
-0.01655284595549936
-0.022181853053472818
0.07459012489482222
0.0151212973077097
0.0660740259650192
-0.032965203844116546
0.09738816080375064
0.17068603172284322
-0.1640416441288405
0.10019583493508455
0.42615334370749924
-0.10640401436346848
0.035679111122824854
0.42016880585229466
0.014767807739416307
0.09199672190130984
0.07483994648618773
-0.08453717673129563
0.06584910164297539
-0.9481340896147226
-0.2987509451438893
0.06691788266093748
-0.041723639203899175
0.15736383069923457
-0.33866384729693755
-0.24297945169272048
-0.12613785916301137
0.1581130110720797
0.11580005160561607
0.09643711067853904
-0.12775135363350487
0.2597123609279511
-0.0378733000025317
-0.044492480084866885
-0.21130225704042166
0.35414101244355023
0.1266251918073033
0.03155061894371774
-0.05720632159977787
0.05427715969893025
-0.2847818294554666
-0.6504956330466091
0.024408762688388028
-0.5712797227818793
0.11817017825234857
0.19060908394837286
0.19392760381326363
-0.17847447474501904
-0.6312443394669411
-0.20408535659710184
-0.5004184830258386
-0.2213235947125946
0.24563245049269297
0.12355449214336647
-1.2386932284966736
0.05670806870019444
-0.06945880080882624
-0.3345227074736329
0.0034929489710443912
-0.24196399807769725
0.1532869821095564
-0.6757129022257602
0.06098796469448706
-0.20631965244458575
0.28853984146683065
0.2942755708205181
0.033804025977676774
0.04615935268694869
-0.056369286903881204
-0.026234462593156687
-0.023562805023206415
0.025642436350065367
0.16924555406245953
-0.1064060418750387
-0.07517368933005399
0.1038298262656453
-0.048854665416247375
-0.0488391619918185
-0.13171349830046478
-0.041217303502339986
0.076559085662379
0.032749018115901946
0.024142256034009234
0.023171114714165646
-0.18425389568926442
0.05888492165333043
0.017508630356793835
0.06332395885136617
-0.07638673220876309
0.28646712403931324
0.1870880529979121
-0.08985048896833465
-0.03305092978878244
0.13046410578241793
0.08200543412438914
0.24917863899477402
0.034061532383239876
0.29019210223221836
0.08746968345586345
-0.8105088531758519
-0.312739022686352
0.4386134286245295
-0.009921784414149905
-0.013212232407964842
0.09093264514234987
-0.09197373274474335
-0.06162278023050389
-0.030906099034327936
0.03650036999927705
0.10271270489077751
0.04527919527950885
-0.03417129149722086
0.10953839570502591
0.13623045377739929
-0.14985017002739473
0.027431655732840406
0.033657654924020855
-0.07592709298957091
0.06350318502525722
-0.20741613928256392
-0.294131720097188
-0.05102076847152761
0.009149643136369512
0.04321089238141003
-0.08005529632648714
0.13829197654816966
-0.46031336408398227
-0.021324511485445907
0.10531279156498188
-0.1921462766328647
-0.028699815480650946
-0.06416327327132831
-0.38961587281272564
-0.44744655645902737
-0.23934700176158705
-0.0184821408768768
0.2563333592712852
0.1462248644888582
0.023999669538824788
0.034700944627321345
0.05527065548687608
-0.15655310291474495
-0.021299894397169936
-0.10731576262024023
-0.005183023755560011
-0.07967195148194042
-0.05052885254938191
0.07366785730004566
0.011117333129377393
-0.7337887430581203
-0.3127577844477052
-0.013057784323795509
0.015242711122426447
-0.03278516262707031
0.06174063080455395
-0.22588258698922103
-0.09614103745894631
-0.43490214741627836
0.08096265249512828
0.03528279180061539
0.028177495927294682
0.039855386824620774
0.19388721171728093
-0.19095209306699842
-0.047609057524450986
0.023330682537591664
-0.05587616282814385
0.019361574576426302
-0.17796617787204003
0.10641567682210981
0.21231109659449754
0.006542259481331432
0.27246647423493503
0.007783501308217711
-0.02619392299211463
0.07753487220467654
-0.016102280115386065
-0.07145110947563
-0.027099186327489012
-0.0342346196085113
0.09576136374154953
-0.0848182634630289
0.021429075741989354
0.04350030753866553
-0.038610264610772944
-0.10729065757446582
-0.031815026618311905
0.2052374269069913
0.13413666005739083
0.1319786669137732
-0.3286100537577068
0.31936063795921765
0.3017598476423773
-0.2895405158073185
-0.35991179038762855
-0.9271028360453736
-0.30532298686530024
1.106043018177004
-0.5461531840965966
0.04009181901827203
0.1603714894552049
0.36936168834327976
-0.01977636307885925
-0.33616783799746847
0.38577875228208863
0.6779753937446116
-0.7944340386062962
0.002522388232857136
-0.5109375718112609
0.8540198796309072
0.14477555947485055
-0.019408972436234222
-0.14854980587533403
-0.09687919614955827
0.019440238468895997
0.33080715205442984
-0.06584071652953086
-0.30035747049561207
0.13716285666089859
0.018780141658400105
0.07068103044464574
0.7483394367676264
0.04117148894289213
0.001371104220384163
0.08033901899352486
-0.15373751700020602
-0.02161029373610645
-0.0410709521638568
0.09064561207481892
0.07209091582815473
-0.040151677914153944
-0.003036252925589255
0.04343879299930218
-0.1243136508726407
-0.1800062698615827
-0.13524619221310824
-0.016852825623590292
-0.49457762485887374
0.09032163390750808
0.30154767276754413
0.02180145223773569
0.051836467068143835
0.15841196397115173
-0.022473695252214234
0.07559506853770731
-0.007011314073171608
-0.4787386013242097
-0.14608299888627532
-0.12086464987402741
-0.46963034818192556
0.026415967283557076
-0.0715760116760541
-0.45873674650835927
-0.5665091909377862
-0.1721586405109353
0.24999720362208827
0.08946732000809235
-0.06565567438484426
0.1833310040123192
-0.014536808318736907
-0.16135931011967536
-0.06630998818998377
0.06987380118587776
-0.3515924722438002
-0.11520374647814381
-0.5754405946517742
0.3388589240148463
0.006944826096944188
-0.04678429427791399
0.6742352562429103
0.023103954022198624
0.04031371434516247
-0.004464685937719997
-0.29612183064461023
-0.0991991413096391
-0.15973970715421215
-0.523145541905096
-0.7703019392043392
-0.018656780048931038
0.08122040272152192
0.19456352912008784
0.610668269404343
-0.28576705980890754
-0.08266439505782906
0.17074882542064757
0.010345284504265286
-0.054483267225456766
0.09738060492466087
-0.08268099096424118
0.04150871106040549
0.03124852542300776
-0.04900111530978268
0.12385412009195733
0.06400660572069121
0.1312675088432521
-0.025895468156551835
0.034726374146450266
-0.04126736623674176
-0.0029389306726893276
0.04568479331867862
-0.07809856538803724
0.05491668267818445
0.09480179569992325
0.022323292684751538
-0.035354252780897454
0.045558501167720485
-0.45739504173023565
0.054281451687962605
0.032942330962465516
-0.0962527526620258
-0.2306973706113216
0.005970124631063554
-0.20109325337446735
-0.0048571951468909524
-0.617639069636966
-0.05423533204795103
0.09019325502027878
0.09451667701502217
0.22273689923789874
-0.023863660143199114
-0.440873656055157
0.023238692647255997
0.03526908230776071
-0.32047793785790807
0.11437661388113475
-0.21739570765398936
-0.09127931724700092
-0.2757554448020461
-0.032440525597963954
-0.00546629504044207
-0.02555240543557493
-0.581629496847992
-0.41135200785716985
-0.060527211588163495
0.017876124302594255
0.030426322939350582
0.07331440585025883
-0.01610358692457834
-0.07997871577468826
0.15294024804225573
0.06510815366182952
-0.0059285080966112605
-0.11306195659597555
0.08441746688706175
-0.06757182945459904
-0.014256229568681831
-0.04168934648467041
0.05484066424884686
-0.032227694296662376
0.0016099559665330382
0.050806777275694305
-0.02274721080996317
0.004457691942904412
-0.0049090643587030676
-0.0269591416221275
-0.06055818017156733
-0.01220882299957756
-0.5326485296068927
-0.47943634191303613
-0.2895597617577752
0.08529318684255656
-0.07440660957518164
0.10804720702666804
0.07169122126433523
0.011604640003326953
-0.18500594875108417
0.16221890971292044
-0.14232614189374287
-0.03919794289033033
-0.19622573501261276
0.22384666991112226
0.24240636956390732
-0.03006215408294322
0.06901278660955457
0.014218739153537416
-0.08191185643477848
0.11223298793859865
0.07722144114626539
-0.2698936380082739
-0.0811016851523033
-0.024693812608136908
-0.38770944172687277
-0.6579185929268455
0.16066344902231586
0.1537166517539501
-0.02888528064227202
0.04904615514283489
-0.08965187227647092
0.011541211905137344
0.051687191751210955
0.0632803325996864
0.04025592145579573
-0.12876052220138184
-0.07016447453601452
0.04710684137664776
-0.07155059298427949
-0.23816545856537918
-0.6461874091694582
-0.35130539918768633
0.0775976367875945
-0.12043293391610028
-0.12595648896774733
0.13065715605609834
-0.28539548103413426
-0.017211287679775013
-0.28134061434945223
0.004615447647547306
0.007921791162683631
-0.21912008555743334
-0.3674370213435584
-0.23978276578529775
-0.15484254474152537
0.07181141777506148
0.025950549472679732
-0.13258134234206123
0.0913659356680491
-0.1775797345558744
-0.16125052652251584
-0.17252199347750924
-0.11523447766294165
-0.009664371218889885
-0.062486694112224045
-0.5892430161019098
-0.7951274410509567
-0.1522482024897328
0.07256433541749482
0.02302477707134014
-0.14006776629107867
0.09196636399903248
-0.1732989523932974
-0.1602161811339205
-0.17151200574132877
-0.11397964041143305
-0.00952712897730884
-0.06173237899974164
-0.586533139014116
-0.7932201644846242
-0.07143155035792804
0.0241863016028217
-0.00797758622268332
-0.02903814724145547
0.06355072265624356
-0.08797850124494
-0.08457237462676989
-0.00855539422203954
-0.05765631194840825
0.012500407117105006
-0.01467496218519917
-0.8043554219227136
-0.7172616305094159
0.0899989910742795
0.05316748143269925
0.002348768336804774
0.042799204810059846
0.03064893540332212
-0.13085568115413812
0.03545672902423577
0.029155357123684097
-0.0952347072384242
-0.1320001140798813
0.03551532994022853
-0.472108301149415
-0.30842617158346536
-0.3816301818102778
-0.16518951195548365
0.017231730352070537
-0.21501733856651417
0.0342089196588728
-0.27393489247190816
0.15837511814567556
-0.2880916494117309
-0.12512078132044863
0.17252837829380666
-0.10701944177581955
0.5360775786435721
0.5243535966495095
-0.39737382987873154
0.007337053087076215
0.0096884814014512
-0.021433059144622443
0.13104539114812977
-0.1624321366871488
-0.15124429568401182
-0.20389460317834068
-0.2003142483444068
-0.012588406939941092
-0.006081820922551627
-0.15230464366143498
-0.7310073706453972
-0.20523493162942114
0.06191227053838891
-0.04363560268778407
-0.18909527142611535
0.11842615750039003
-0.3057169516166093
-0.2812103849880036
0.0015174822975816157
0.0760831212638692
0.052730672575808914
-0.4093188925531694
-0.7514925973920907
-0.20696116947712198
-0.15449448495647045
-0.09554020782759323
0.15216143334229013
0.004627090862634117
-0.10573959381875679
0.0415008814685984
0.0015997322858145736
0.01638896494100749
0.022452291002692488
0.11245196100036281
0.05613796868511924
0.16862489181281015
0.2720129122037292
0.07694831423194125
0.040291858254097944
-0.04700595496454999
0.10885851025967955
-0.0033168561110735527
-0.01497378591838005
0.13590326558911542
-0.04283263181597123
0.00998269514953727
-0.02227267405082291
-0.010537542522706835
-0.30541266335823414
-0.13218281800400722
-0.1522482024897328
0.07256433541749482
0.02302477707134014
-0.14006776629107867
0.09196636399903248
-0.1732989523932974
-0.1602161811339205
-0.17151200574132877
-0.11397964041143305
-0.00952712897730884
-0.06173237899974164
-0.586533139014116
-0.7932201644846242
-0.0895391001569862
0.054165891501346014
0.02393536938611314
-0.09875822813488253
0.048370912958918356
-0.08941012606119958
-0.13258064298089128
-0.04148378294598443
-0.030715933923752617
0.009436146938928816
-0.05234548311077885
-1.1060814664261023
-0.41367414923758944
0.2293639721648699
-0.012861521252452286
-0.05403730565299944
-0.20881332595155308
0.012777583727487994
-0.05830788961945423
0.029585042363350883
-0.1559445555252404
0.1953730699874813
0.09669076338087769
-0.1914584398563933
0.021335798367503402
0.16378632685505565
-0.09120592362406897
0.058935830780215054
0.04312183604206211
-0.10517468066979382
0.054819418151308925
-0.12105531382784288
-0.14431474538477285
-0.0948726785895952
-0.07171988835814692
0.005036903733281187
-0.057870099822397415
-0.7467584479090699
-0.5757697718031328
-0.14273653946523773
0.061593587652091795
0.010462225674088997
-0.11393840932688458
0.07605148541808877
-0.13555577708872762
-0.13345205651089764
-0.10725091569843172
-0.07111853965543778
0.0024261349734026735
-0.05243045831077725
-0.6662182787125597
-0.5866358695467979
-0.03151850613617803
0.08785974953798356
0.02911525869007262
-0.012115864030415618
-0.006608272243879056
-0.23478023600025288
-0.04390384834838681
-0.107454989387913
0.02196076669244657
-6.968277073445227E-4
-0.07018368965368295
0.24593047916665775
0.04383188419351391
-0.34175198125298445
0.10957294744555052
0.09510453357522697
0.004166311031357156
0.523769536456196
-0.10381228225039724
0.5667063418130921
-0.17793770750248905
-1.5273022847654942
-0.10135872328761564
0.47148907192544287
-0.07509649416265388
0.022576328376545145
-0.03605305331008703
0.11378516169650008
0.05974149430306343
-0.008418862420266312
0.05735078684484763
-0.1282948775370861
-0.030029679959804753
-0.05109434061703017
-0.013773222420688352
0.09925973330107493
0.07065961293343141
0.04077669929926683
0.024530317298322023
0.0428606850626961
-0.09167876008302302
0.08280596378532065
0.07143179983288703
-0.007490177074816555
0.07908237904185601
-0.15460350826991998
0.10035815697853358
-0.08485279488470834
0.0037447509956625015
0.014526211437993123
0.04796795261377686
0.007590940966916591
0.05644561603424759
-0.07133347108750399
-0.049974317337733165
-0.13261619292448643
-0.019694046591859356
-0.02598503524928902
-0.08485171304603757
-0.3257771648723544
-0.30231757530566217
0.0076318138350354135
-0.09090923301855307
0.04800076679679509
0.09266382467786718
-0.019331264149062537
0.10932066695784914
0.0016923946167384286
-0.06854070914861121
0.006858806490803334
-0.0010797667935289789
-0.22895436538470937
-0.3188290621885037
-0.06954633416047357
0.009577227954853601
0.09564043347242063
0.08498245319627319
-0.2592159465193894
-0.12852049181294958
-0.22215342972978794
-0.2338113685083219
0.20338674717833086
0.024383024194024397
0.686024471724914
-0.1369181132334505
0.010713687601795419
0.09376734941929496
0.036144925100712405
-0.023497262727617874
0.06661895193677993
-0.07607276601883586
-0.03458961524560389
0.1282025881140716
-0.06076404540884686
-0.04234630591693128
0.1689714402078183
-0.016045657255421848
0.027049470635178166
0.08968918550702677
0.05569939572311171
0.005214833685095484
-0.018207286712640994
-0.1259692325166261
0.030310490064826105
-0.022537882993543302
-0.04733952415874476
-0.047068083948313966
-0.5203752613364522
0.02670843068139476
0.10317100020943593
-0.10550019003460004
-0.04505894744438437
-0.20827282854463133
0.39675165587587063
0.1360325218302921
0.28443050355988375
0.0049784107699251704
-0.5297692610794397
0.06060982830620368
0.42458870077931193
-0.08431111717552109
-0.08927574438935873
0.022413862197615955
0.1808537803072931
0.02382505798535342
0.2137585276776704
-0.04686470268327496
0.2706263591577234
0.17529331444226104
-0.47442651901818905
-0.17341180916222693
0.53148942365561
-0.34532161496353214
0.1576628585836371
-0.11962693766057976
0.014632467660891095
0.03156038519405629
0.042782810413818394
-0.1390870734542518
-0.009753643787171968
-0.10282477514484985
0.23071606169171682
-0.22849378144335367
0.6753617618054903
0.002728304826493634
0.1950399171898306
-0.03441791848507956
0.17411645850594665
7.709329160308194E-4
-0.6955138428443153
-0.14645238083241224
-0.3282414906645355
-0.024756328056242782
-0.21358173681859016
-0.2219462175934482
1.0469119871311048
0.27669446336939024
-0.06799362552616518
0.03087948856302105
0.20299829348813656
0.0036376169588224314
0.051872036146907864
-0.027771799381456363
0.10999692583229163
0.1889377937258064
-0.1841675842300159
-0.2924180317827264
0.22440917284874667
0.03692905499025814
0.02760109296645975
0.014489313531015527
-0.02282938527805395
0.056087226685828766
0.018279868308744236
-0.1998965112643414
-0.021029422999658307
-0.07036233766070832
-0.00968376680982497
-0.025690388936785043
-0.7773566082398505
0.1775303205770251
-0.12226731269366241
-0.0801517195579305
0.19413119112252103
-0.03954187813869995
-0.13331276982798737
0.07385878739647395
-0.5147264861976596
0.34918592409666555
-0.03762005592609564
-0.02197647396063135
0.5215900140414037
-0.6857761453928019
-0.06659025828764449
0.05505247347333611
0.24412519183782605
-0.00986767973272935
0.12084386643609146
0.11331164504506051
-0.013087310915658092
-0.2680916975783316
-0.041703592737473864
0.06044976250661912
0.9897342645944809
0.5602039374509113
0.2760258920867513
-0.2879638062273127
-0.4721613178851105
-0.09191502181912764
-0.43500596219747023
0.14877808281977747
-0.6112210365478702
-0.620220709663125
-0.7003244440958012
0.09034008595967853
0.5081549382705933
0.1346645305885386
-0.060650483983000616
0.11873889479370488
0.025091615734994542
0.057370646749281475
0.10311258323406342
0.01867532777490353
0.10260137824872462
-0.2793380672757047
-0.38961232745853025
0.14998213577363392
0.7334663111130256
0.2072427665600187
0.1661381291411669
-0.06338131316844224
0.1501834337482187
-0.3939672898676599
0.34749542470723094
-0.03560072209260289
0.2333469651296667
-0.6972253172831989
-0.8779021955167677
-0.17926375455696453
0.08469184789167257
0.17925882222032508
-0.08057035196079079
0.16311645097568722
-0.19371940133658266
0.25178631939018176
-0.30923284951840146
-0.09309354969438617
-0.09444686538388136
-0.15061105463984129
0.03844242367410918
0.1719229995811305
0.1541322343032596
-0.20982687457205815
-0.14898099904080223
-0.005044781286085085
0.3549867198423442
0.09399347246414484
-0.292090087498745
0.14267189468119232
-0.06027106123869624
-0.06695324014837449
-0.6018146448856386
0.14815358869489778
0.23346460846908762
0.4070348701343838
-0.8398457670007834
0.38719266159729593
0.8681889796241541
-0.05371457857405824
-0.1009846804168933
-0.1279237181655133
0.06338522107573058
0.19837973644343845
0.013638302706998905
0.19392865925255898
-0.02346738336101598
0.3064608850388314
-0.016143376303189894
0.2783922952189556
0.04763940293543231
0.1688715082108325
0.20008552860816803
-0.0946535444320182
-0.22950893684415707
0.11939777734349774
-0.030521152829334503
-0.07615849409492365
-0.10045012306774871
0.3266388543588517
0.0071528613805756
-0.3709653155319743
0.46565408758687277
0.004159329884259303
-0.18376881081098922
-0.8844646344226785
0.3706570742879583
0.06022987486998119
-0.46175212928075365
0.2798246000262466
-0.03894405211990022
0.010724605617747166
-1.1674005337795235
-0.14485149895329316
0.35650972505863177
0.20588723255368904
-0.40454084490433867
0.2931462012105785
0.02948879118608964
-0.5892238170421108
-0.12460435516900359
-0.13112035391828458
-1.3511013638088383
-0.05701334884285714
-0.6948794528256521
-0.2836510386470807
-1.8642819696630824
0.34529400835743457
-0.4478304914875758
0.5372184579526571
0.0029261722059128865
-0.6579496217608176
0.08066577657449131
0.045038249942427305
0.7012471788835563
0.19375206552843868
0.40444286074583663
-0.32158152189591327
-0.21049198366079724
0.20604161506147137
-0.06707785184562028
-0.023073731067693802
0.20007662145895633
-0.12007013334647428
0.3363203375734611
-0.2557124164051141
0.016761442244901385
0.16200245804793392
0.06474736340057927
-0.9627967686266862
0.05498714907964041
-0.13192919181401916
-0.012510565186663002
0.05328208314300588
-0.39907866876599646
0.310220797802775
-0.24093026713622362
0.1147178514616646
0.001972621721964554
0.18299208852303886
-0.061803436773623176
-0.35637652432122313
0.35484082650428445
7.029372172863576E-4
0.12257387350488864
0.14985530780648756
0.2049830442843846
0.002993496215497345
-0.019914318225287445
0.6918155403202314
0.028408897197937502
-0.08641464873974138
0.038093773312576774
0.2855932469459262
-0.26320635256226654
0.018806807694590505
-0.4128107773432861
0.3099986741339713
-0.40611947039297974
0.23300081334035233
0.7102885656510597
0.5239239382537829
-1.090662420767091
-0.3924805484591556
0.4278142596698624
0.16968567053172795
0.3374794159781673
0.14539326947411121
0.4004840807561547
0.23780197111339096
0.09462990972450838
-0.2678072309397984
-0.019074414373914213
0.4978825712259723
-0.34823729843626994
0.6039527922684028
0.08059994851714176
0.42125125839737104
0.07355676378198256
0.9457544112675242
0.2731140877447311
-0.45146744630183
-0.06142392174198405
-0.6460925800100575
0.3962156019971239
0.130748081285138
0.6598776956830796
0.4351743177652423
0.03211514990081152
0.08552868857032524
-0.8539652817897894
0.08427011163568153
0.03127492086234849
0.6089806956403311
0.2034822831098998
0.46761648899056524
0.3050301979765294
-0.1934819986876451
0.11357810545041856
-0.6358408012013079
0.6503757668469095
0.9109428425882473
0.3201325990210439
-0.49347055163335
-0.28780307156628904
0.22330206346670764
0.380034875360423
0.0996991810759959
-0.07290994421146395
0.012234714179775721
-0.2886635686390533
0.030295365283280914
0.05715532988646749
-0.506912758729468
0.12217526964661442
-0.1712180283592747
0.40193558203993257
0.1562470136233693
0.37425531633350073
0.2085670965710888
0.22888290153834615
-0.09801748908948724
-0.4722614488229045
0.044162905797945344
-0.38689848791681164
-0.20195394525567614
0.21310160609317028
0.6757828868742664
-0.12233267414878883
0.23445826911883355
0.09440502324645822
0.7666962104088267
-0.1802314909213198
0.18693173711378727
0.10521614239700153
-0.3585063330793003
0.44745883512113277
0.3164499684294622
0.44760998628305354
-0.38811593107642556
-0.10744050748168608
-0.6610955032788075
0.1747556977834671
0.15375151866488743
0.07690993487845123
0.4519829722378285
0.23093408639601204
-0.2158300457630352
0.6818791577102353
0.2942748570051445
0.2973348156536925
0.049506137853988504
-0.4846834742857075
0.32364413634496303
0.483380314099614
-0.19236673667453807
-0.5915676713069921
-0.4472309369108175
0.13986497726434513
0.43832903081042346
-0.5971193749462275
-0.25492993435526545
0.15864642186711864
-0.21280288572548003
0.20991125751670617
-0.1649588031240441
-0.2851523134403815
0.011732400667761121
0.3540503729597688
-0.07076562363525714
-0.16933119606620356
-0.09593201043148902
-0.15342534802322577
-0.07275430531767996
0.0673792078501996
0.048907140291115654
0.11528804580358666
0.20242013513460885
-0.12387044058549546
-0.03332309266483188
-0.224202940820073
-0.11781960278967574
-0.042889009737792715
0.1762419573538216
0.13209674859076562
-0.1527288602748604
-0.2843008631737181
0.06195298739072985
-0.6941070266401038
-0.19798370873224475
0.04618696367086767
0.09833818548067984
-0.24712879244615993
0.006566752114449228
-0.18399837256409105
0.10271684463459697
0.11769801099880296
0.018548000846022393
-0.10700580651553475
-0.07746579700881497
0.049979869043092984
-0.07774543414985984
0.2720326356666352
-0.1493293928751605
-0.19265614890950994
0.2700504947190749
-0.008426742484022715
-0.18425596415480094
0.11311997201810316
0.2602348160392825
-0.06418988676692976
-0.03929455796057369
0.27563235956461396
0.014219924385136662
-0.0016975898032505195
0.12119689639455702
0.1297524637773131
0.004226943493258737
0.10113278606668362
-0.01882560202026923
