GIS
1
0.0
2
SS
PS
3
3389 0
175 0 1
393 1
3957
prev1:digested
with_prev2_full:arthritis_therefore
with_prev2_full:DC_whereas
prev2:other
prev1:samples
with_prev2_full:tolerated_thus
prev1:clefts
prev1:BMPs
with_prev2_full:in_albeit
with_prev1_full:IL-10_due_to
prev1:gamma
with_prev1_full:events_because
conn:none-the-less
with_prev1_full:Strategy_for
prev2:high
prev2:underwent
with_prev2_full:NFAT_via
prev2:UDS
with_prev2_POS_full:NN_JJ_IN
with_prev1_POS_full:,_VBD_CD_NNS_RB_IN
with_prev2_full:7_then
with_prev1_POS_full:-RRB-_WRB
with_prev2_full:spleen_by
with_prev2_POS_full:JJ_NN
with_prev2_full:cells_and
with_prev2_POS_full:NNP_VBD_CD_NNS_RB_IN
prev1:decreased
with_prev1_full:appear_in_consequence_of
with_prev2_full:high_due_to
with_prev2_full:line_and
with_prev2_POS_full:JJ_IN_DT_NN_IN
with_prev1_full:function_by
with_prev2_full:band_after
with_prev1_full:NaOH_and
with_prev2_full:is_by
with_prev2_full:IL-2_and
with_prev1_full:which_when
with_prev2_full:batteries_i.e.
with_prev1_full:harvested_and
with_prev2_full:with_in_order_to
with_prev2_full:spontaneous_after
conn:at_some_point_after
prev1:reaction
with_prev2_full:negatively_by
with_prev1_full:treated_by
with_prev1_full:crucial_for
with_prev2_full:binding_when
conn:20_min_later
with_prev1_full:mainly_after
with_prev2_full:AA_as
prev1:left
with_prev2_POS_full:NNP_IN_NNS_IN
with_prev1_POS_full:NNS_VBN_IN
prev1:tumors
with_prev1_full:bound_following
with_prev1_full:s_followed_by
with_prev2_full:approaches_except_that
with_prev2_full:4_because
prev2:control
with_prev1_full:detected_upon
prev2:motif
with_prev2_full:minutes_then
with_prev1_full:strand_due_to
with_prev2_full:their_before
with_prev1_full:detected_whereas
with_prev1_POS_full:JJ_IN_DT_NN_IN
with_prev2_full:is_if
prev1_POS::
with_prev1_full:that_when
with_prev2_full:in_in_response_to
prev2:numbers
with_prev2_full:be_since
with_prev2_full:tonsil_in_that
with_prev2_full:annealed_subsequently
with_prev2_full:promoter_for
with_prev1_full:bear_to
with_prev2_full:signal_by
with_prev1_full:overcome_by
with_prev1_full:preincubation_and
prev2:mononuclear
with_prev1_full:essential_for
with_prev2_POS_full:,_IN
prev1:occurs
with_prev1_POS_full:VBN_IN_NN_IN
conn:by_the_fact_that
prev2:breasts
with_prev2_POS_full:JJ_TO
prev1:undertaken
prev1:infants
conn:three_days_before
prev2:therefore
prev2:hours
with_prev1_full:Abstract_Although
with_prev2_POS_full:CD_RB_TO
with_prev2_full:produce_and
with_prev1_full:less_after
prev1:depleted
with_prev1_POS_full:NNP_DT_IN_NN_TO
with_prev1_POS_full:NNS_NN
prev1:upregulation
prev1:phospho-p38
with_prev2_full:exposure_and
with_prev2_full:RA_due_mainly_to
with_prev2_full:features_whereas
prev2:driving
with_prev2_full:over_before
with_prev2_full:T_by
with_prev2_POS_full:RB_VBG
with_prev2_full:cross-hybridization_since
conn:8_12_weeks_after
with_prev2_full:prevent_following
prev2:short
prev2:NFAT
with_prev1_full:hour_prior_to
with_prev1_full:footnote_for
with_prev2_full:time_before
with_prev1_POS_full:CD_TO
prev2:over
with_prev1_full:paraformaldehyde_to
prev1:dictated
with_prev2_POS_full:JJ_IN
with_prev2_POS_full:VBD_VBG
with_prev1_full:induced_by
with_prev2_full:obtained_and
with_prev1_POS_full:,_VBD_IN
with_prev2_full:signalling_and
with_prev2_full:regulators_by
prev2:epithelium
with_prev1_full:h._Thereafter
prev2:rabbit
prev2:obtained
conn:despite
with_prev2_full:which_thus
with_prev1_full:cells_although
with_prev1_full:useful_for
with_prev1_full:diagnosed_as
prev2:three
prev1:T-cells
with_prev1_full:hybridisation_and
with_prev2_POS_full:CD_VBN_IN
with_prev2_full:total_because_of
with_prev1_full:subcutaneously_three_days_before
with_prev2_full:less_in_response_to
with_prev2_full:separated_then
with_prev2_full:morphogenesis_namely
with_prev1_full:regulated_by
with_prev2_full:rabbit_and
prev2:not
with_prev1_full:might_also
prev2:p38
with_prev1_full:failed_to
prev1:correct
with_prev2_full:AA_i.e.
with_prev2_full:an_since
with_prev2_full:Balb\/c_to
prev2:inhibits
prev1:also
prev2:metabolism
with_prev1_POS_full:NNS_TO
with_prev2_full:a_for
with_prev2_full:pathology_specifically
with_prev2_full:vaccine_and\/or
with_prev1_full:excluded_by
with_prev2_full:uracil_whereas
prev2:for
with_prev1_full:,_whereas
prev2:p53
with_prev2_full:noncovalently_and
with_prev2_full:BRCA1_despite
with_prev2_full:here_but
with_prev1_full:complicatedly_upon
with_prev2_full:proliferative_following
with_prev2_full:--_after
with_prev2_full:to_after
with_prev1_POS_full:NNP_VBG
with_prev2_full:Thus_although
prev2:USA
with_prev1_full:cause_for
with_prev2_full:is_in_large_part_by
prev2:spermatogenesis
prev2:colleagues
prev2:crosstalk
conn:furthermore
with_prev1_full:levels_by
prev2:CHOP
with_prev2_full:be_in_part_by
with_prev2_full:-RSB-_while
with_prev2_full:situ_but
with_prev2_full:promoter_albeit
with_prev2_full:production_in_part_by
with_prev2_full:24_For
prev2:hypothesise
prev2:without
prev1:coagulation
with_prev2_POS_full:NNS_IN_DT_NN_IN
with_prev2_full:Finally_although
prev2:profile
with_prev1_full:receptors_to
prev1:ability
prev2:rats
with_prev2_full:shown_when
prev2:lesions
prev2:duct
with_prev1_full:axis_and
with_prev2_full:is_to
with_prev2_full:Giemsa_then
with_prev2_full:PBS_before
with_prev2_full:transcription_by
prev2:oligonucleotides
with_prev1_full:used_for
prev1:transientlyco-expressed
with_prev1_full:,_followed_4_hours_later_by
prev1:but
with_prev2_full:radiation_while
prev1:computed
with_prev2_full:73_whereas
with_prev1_full:gene_to
prev2:probes
with_prev2_full:transition_so
with_prev1_full:androgens_by
with_prev2_full:Oct2_although
with_prev1_full:gene_through
with_prev2_full:activation_or
prev2:responded
prev1:stimulation
with_prev2_full:ethanol_finally
with_prev1_full:inverted_by
prev2:stage
conn_POS:CD_NNS_RBR
conn_POS:CC_CC
with_prev1_full:was_due_to
conn:albeit
with_prev1_full:and_therefore
with_prev1_full:,_by
prev2:shown
prev1:experiments
with_prev2_full:lesser_because
prev1:longer
with_prev2_full:the_180_seconds_after
with_prev2_full:cancers_namely
prev1:FDCs
with_prev1_full:,_as
prev2:DNMTs
with_prev1_full:but_while
with_prev2_full:experiments_and
with_prev2_full:repair_following
prev2:stimulation
prev1:formed
with_prev1_full:,_except_for
with_prev1_POS_full:TO_IN
with_prev2_full:is_due_to
with_prev2_full:interferon_after
prev1:less
with_prev2_full:assessment_but
with_prev2_full:Interestingly_whereas
with_prev1_POS_full:VBZ_JJ_TO
with_prev1_full:established_by
with_prev1_full:transcripts_after
with_prev2_full:members_rather
with_prev2_full:from_by
with_prev1_full:arthritis_by
with_prev1_full:densitometry_and
with_prev2_full:survive_and
prev2:pathology
with_prev2_full:cells_although
prev1:electronically
prev1:pronounced
prev2:roles
with_prev1_POS_full:RB_IN
with_prev1_POS_full:-RRB-_VBG
with_prev1_full:mice_if
with_prev2_full:was_as_early_as_24_h_after
with_prev2_full:washed_prior_to
prev2:lateral
with_prev1_full:But_in_contrast_to
conn_POS:NNP
prev1:seen
prev2:anti-CD4
prev2:TNF-α
with_prev2_POS_full:NN_VBG
conn:Thereafter
prev2:1.0
with_prev2_full:T_to
prev1:twice
with_prev1_full:leukaemogenesis_by
with_prev2_POS_full:NN_VBZ
prev2:suggesting
prev2:respectively
with_prev2_full:observed_but
prev2:osteoarthritis
with_prev2_full:breasts_so
with_prev1_full:diminished_by
prev2:fusion
with_prev2_POS_full:VBG_WRB
with_prev1_full:for_after
with_prev1_full:translated_due_to
prev2:night
with_prev2_POS_full:RB_NNP
with_prev1_full:instructive_by
prev2:ontogeny
prev2:carried
conn_POS:CC_IN
with_prev2_full:autoclave_then
prev2:Invertor
prev2:spleen
with_prev1_full:around_to
with_prev2_POS_full:RBR_WRB
with_prev2_full:minutes_and
prev2:after
prev2:106
conn_POS:CD_NN_RB
with_prev1_POS_full:,_PDT_DT
with_prev1_full:respond_by
with_prev1_POS_full:CC_WRB
with_prev2_full:IL-10_and
prev2:100
with_prev1_full:development_because
with_prev2_full:or_upon
with_prev2_full:were_due_to
prev2:ductal
with_prev2_full:almost_by
with_prev1_full:normally_by
with_prev2_full:vessels_and
with_prev1_full:;_thus
with_prev2_full:NASBA-QT_specifically_to
with_prev2_full:in_for_example
with_prev2_full:-RRB-_also
prev2:tumor
prev1:cell
prev2:Furthermore
with_prev2_full:were_20_min_later
prev2:lymph
with_prev1_full:buds_and
with_prev1_full:slip_before
with_prev1_POS_full:VBN_IN_NN_TO
with_prev1_full:reaction_only_if
conn:Although
with_prev1_full:digested_by
prev2:regulators
with_prev2_POS_full:TO_JJ_TO
prev1:subcutaneously
with_prev2_full:in_by
with_prev2_full:maturation_in_part_via
prev2:staurosporine-induced
conn_POS:IN_JJ_NN_IN
prev1:translated
prev2:interactions
with_prev1_POS_full:RB_CC
with_prev2_full:defect_at_some_point_after
with_prev1_POS_full:NN_JJ_TO
with_prev1_full:and_finally
with_prev1_full:activated_following
with_prev2_full:presented_if
prev2:induced
prev2:homeostatic
prev1:regulation
prev1:calculated
with_prev1_full:,_i.e.
prev1:affected
prev2:gated
with_prev1_full:immunocytochemistry_and
conn_POS:VBZ
prev2:addition
conn_POS:VBN
prev2:Comp
with_prev1_full:level_after
with_prev1_full:left_to
with_prev1_full:species_by
with_prev1_full:analyzed_8_12_weeks_after
with_prev2_full:Comp_prior_to
conn_POS:VBG
prev1:offspring
with_prev2_full:was_via
with_prev2_full:GSK3β_by
with_prev1_full:correct_and
with_prev2_full:synovial_by
prev1:specific
prev2:expected
prev1:instructive
prev2:47,48
with_prev2_full:short_despite
with_prev2_full:cells_due_to
with_prev2_full:,_thereby
prev2:vessels
conn:In_contrast_to
with_prev1_full:investigated_by
with_prev1_full:annotated_by
with_prev2_full:committed_to
with_prev2_full:differentiating_by
with_prev1_full:augmented_by
with_prev2_full:microtubes_subsequently
prev2:p-value
with_prev1_full:,_furthermore
prev2:dust
with_prev1_full:experiments_unless
prev2:frame
with_prev2_full:synovial_and
with_prev2_full:USA_two_hours_before
with_prev1_full:explanation_for
with_prev1_POS_full:VBN_IN_JJ_NN_IN
with_prev2_full:and_after
with_prev1_full:,_specifically
with_prev2_full:latency_and
with_prev1_full:extended_to
with_prev1_full:arrows_and
with_prev1_POS_full:RB_JJ_TO
with_prev1_full:supported_to
with_prev2_full:36_to
prev2:committed
conn:in_part_via
with_prev1_full:secreted_following
with_prev2_full:μg_and
with_prev1_full:C_to
prev2:min
with_prev2_full:are_but
with_prev2_full:3.7-fold_and
prev2_POS:TO
with_prev1_full:gene_by
conn:in_that
with_prev2_full:demonstrate_while
with_prev2_full:features_when
with_prev1_full:event_in_response_to
prev1:isolated
with_prev2_POS_full:VBP_CC
with_prev2_full:splenic_for
prev1:marker
conn:four_hours_after
with_prev2_full:II_and
with_prev1_full:-RSB-_and
with_prev2_full:be_upon
with_prev2_POS_full:RB_IN
with_prev1_full:BMP-6_upon
with_prev2_POS_full:VB_IN_NN_IN
with_prev2_full:from_to
prev2:during
with_prev1_full:analysis_to
with_prev2_full:above_and
prev2:inhibition
with_prev2_full:preventively_by
with_prev1_POS_full:NN_RB_IN
with_prev2_POS_full:RB_JJ
with_prev2_POS_full:NNS_RB_IN
with_prev1_full:tasks_during
with_prev1_full:selection_via
with_prev1_full:expressed_by
prev1:-RSB-
with_prev2_full:-RSB-_probably_because_of
with_prev1_full:captured_by
conn:appears_to_be_due_at_least_in_part_to
conn_POS:VBN_IN
with_prev2_full:cells_whereas
prev1:described
conn_POS:IN_DT_NN_TO
with_prev2_full:in_if
with_prev1_POS_full:NN_CD_NNS_IN
with_prev1_full:proposed_to
prev1:tip
prev1:risk
with_prev2_POS_full:CC_IN
with_prev2_full:analysis_and
with_prev2_POS_full:NN_NNP
with_prev1_full:unsuccessful_due_to
prev1:occur
with_prev1_full:C_and
with_prev2_full:invertor_after
with_prev1_full:population_to
with_prev1_full:for_by
prev2:cDNA
prev2:clinical
with_prev1_full:longer_before
with_prev1_full:coagulation_by
prev2:apoptosis
with_prev2_full:genes_such_that
with_prev2_full:response_regardless_of
with_prev1_full:calcium_for
with_prev1_full:downstream_by
with_prev1_full:examined_except_for
prev1:performed
with_prev2_full:stringency_to
with_prev2_full:been_for
with_prev2_full:more_when
with_prev1_full:,_albeit
prev1:rescued
prev2:Oct1
prev2:Oct2
with_prev2_full:technical_in_order_to
with_prev2_full:cells_but
with_prev1_full:gamma_after
with_prev2_full:3_after
with_prev2_POS_full:RBR_IN_DT_NN_IN
with_prev2_full:complex_by
with_prev1_full:;_second
prev1:lethal
conn:probably_due_to
with_prev1_full:DNMTs_if
with_prev1_full:and_since
prev1:inverted
with_prev1_full:vivo_when
with_prev2_full:on_to
with_prev2_POS_full:VBD_CD_NN_RB
with_prev2_full:DCs_and
with_prev2_full:of_Although
with_prev2_full:patients_because
with_prev1_POS_full::_WRB
with_prev1_full:,_whilst
with_prev2_full:cytokine_by
with_prev1_full:tumors_by
with_prev1_full:therefore_appears_to_be_due_at_least_in_part_to
prev1:prepared
with_prev1_full:points_and
with_prev2_POS_full:VBP_IN
conn:before
prev1:amplicons
conn:mainly_by
with_prev1_full:cells_to
with_prev2_full:age_such_that
prev2:descriptions
with_prev2_POS_full:NNS_RB_TO
with_prev1_POS_full:,_VBN_IN
conn:although
with_prev2_full:fatty_by
with_prev1_full:background_to
prev2:antibody
with_prev2_full:this_by
with_prev1_full:,_although
prev2:3.7-fold
with_prev1_full:tolerance_to
with_prev1_full:euthanized_due_to
prev1:delay
with_prev1_full:-RRB-_because
conn_POS:IN_DT_NN_IN
conn:Four_days_after
prev2:pTK-RL
with_prev2_full:pathway_whereas
prev2:Interestingly
with_prev2_full:immunological_and
prev2:spleens
with_prev2_full:genes_as
with_prev2_full:screening_due_to
with_prev1_full:production_in_part_by
with_prev2_full:family_and
prev1:signals
with_prev2_POS_full:RB_CC
with_prev2_full:differentiation_although
with_prev1_full:upregulation_four_hours_after
conn:followed_by
prev2:suggests
prev2:point
with_prev2_full:to_in_consequence_of
with_prev1_full:vivo_On_the_basis_of
with_prev2_full:progenitor_as
with_prev2_full:properties_second
with_prev2_full:nucleus_although
with_prev1_full:recombinase_to
prev2:complete
with_prev1_full:cells_or
with_prev2_full:cells_whilst
prev2:end
with_prev1_full:augmented_after
with_prev1_full:pDCs_after
prev2:splenic
with_prev1_POS_full:NNS_IN
with_prev2_full:factor_whereas
with_prev2_full:Furthermore_when
with_prev1_full:,_followed_by
with_prev1_full:IRF-4-expression_since
with_prev2_full:,_in_turn
with_prev2_POS_full:,_TO
with_prev1_full:delivered_prior_to
conn_POS:IN_NN_IN_DT_NN_IN
with_prev1_POS_full:NN_RB_TO
prev2:repair
with_prev2_POS_full:IN_RB_TO
with_prev1_full:,_except_that
with_prev1_full:,_in_addition_to
with_prev2_full:T_after
prev2:interval
with_prev2_full:that_since
with_prev1_full:antibody_and
with_prev2_full:similar_to
with_prev2_full:be_due_to
with_prev1_full:BMPs_and
with_prev2_full:10_after
with_prev2_full:Notably_despite
with_prev2_POS_full:NNP_IN_DT_NN_IN
with_prev1_full:standard_to
with_prev2_full:fusion_to
with_prev2_POS_full:VBD_CD_NN_IN
with_prev2_POS_full:VB_IN_NN_TO
prev1:suppression
with_prev2_full:initiate_while
with_prev2_full:cell_following
prev1:reversed
with_prev1_full:amplification_for
with_prev2_full:activation_appears_to_be_due_at_least_in_part_to
prev1:hematoxylin
with_prev1_full:dependent_as
conn:Once
prev1:development
with_prev1_full:observed_after
with_prev1_full:inhibited_by
with_prev2_full:PI3-K_and
with_prev2_full:gated_and
with_prev2_full:mRNA_by
prev2:members
prev1:arrows
with_prev2_full:DNMTs_while
with_prev1_full:IL-2_following
with_prev2_full:test_and
with_prev2_full:hybridisations_due_to
prev1:eliminated
with_prev1_POS_full:,_IN_NNS_IN
with_prev1_full:breasts_and
with_prev1_full:accomplished_in_large_part_by
with_prev1_POS_full:IN_IN_NN_TO
prev2:Rag1
with_prev2_POS_full:CD_WRB
with_prev2_full:cells_followed_by
with_prev2_full:on_and
with_prev1_full:animals_in_response_to
with_prev2_full:markers_and
with_prev1_full:C_until
with_prev2_full:obvious_because
with_prev1_full:was_next
conn:In_comparison_with
with_prev2_full:lymphomas_when
with_prev2_POS_full:JJ_IN_NN_TO
with_prev2_full:ductal_and
prev2:internal
with_prev2_full:stimulation_and
with_prev2_full:13_however
prev2:chose
with_prev1_full:hours_followed_by
with_prev2_full:these_by
with_prev1_full:described_and
conn:in_part_by
with_prev2_POS_full:NN_JJ_TO
with_prev2_full:buds_but
prev2:express
with_prev2_POS_full:JJ_CC
with_prev2_full:B_by
with_prev1_full:lethal_and
with_prev1_full:required_to
prev1:estimated
prev2:fully
with_prev2_full:was_because
with_prev2_full:AIDS-KS_due_to
prev1:selection
prev1:translocations
prev2:cytokines
with_prev1_POS_full:WDT_WRB
with_prev2_full:if_prior_to
with_prev1_full:purified_by
with_prev1_full:decreased_by
with_prev1_full:thymus_after
with_prev2_full:pellet_next
with_prev1_full:specificity_by
with_prev2_POS_full:IN_IN_NN
with_prev1_full:by_specifically
with_prev1_full:detected_when
prev2:cursor
with_prev2_full:was_after
with_prev2_POS_full:NNS_VBD_IN
with_prev2_POS_full:CC_TO
prev2:promoter
with_prev1_full:stimulated_by
with_prev2_full:was_until
with_prev2_full:experimental_to
with_prev1_full:downregulated_by
conn:Based_on
prev2:lytic
with_prev2_full:that_also
prev1:constructed
with_prev1_full:responses_following
prev2:integration-site
with_prev2_full:patients_and
prev2:approaches
prev1:footnote
prev2_POS:-LRB-
with_prev2_full:cytokines_by
with_prev2_full:octamer_predominantly_via
with_prev1_full:arthritis_in_response_to
prev2:translocations
with_prev1_full:but_once
prev2:band
conn:whereas
prev2:detected
with_prev2_full:B_or
with_prev2_full:positions_and
with_prev1_full:points_before
prev2:feedback
with_prev2_POS_full:VBG_IN
prev2:almost
prev2:putative
with_prev1_full:cultured_for
prev1:stopped
prev1:explained
with_prev1_POS_full:JJ_IN_NN_TO
with_prev2_full:function_particularly_through
with_prev2_full:mRNA_after
prev2:documentation
with_prev2_full:mostly_by
with_prev1_full:cells_by
with_prev2_POS_full:VBG_CC
prev1:triggered
with_prev1_POS_full:VBN_JJ_TO
with_prev2_full:proliferation_by
with_prev1_POS_full:NNS_WRB
with_prev1_full:ERG_to
with_prev1_full:cross-linking_after
with_prev2_full:type_by
with_prev2_full:locally_but
prev2:Streptavidin-Cy-Chrom
with_prev2_full:phosphorylation_as
with_prev2_POS_full:RB_TO
prev2:inflamed
prev1:studied
with_prev1_POS_full:NNS_CC
conn:Two_hours_after
with_prev2_full:exposure_if
prev2:hereditary
prev1:occurred
prev2:c-jun
with_prev2_full:medium_then
with_prev1_full:susceptibility_due_to
prev1:buffer
prev1:thermocycling
with_prev2_full:B_although
with_prev2_full:spaces_not_due_to
with_prev1_full:region_for
with_prev2_full:role_through
with_prev2_full:dust_to
prev2:this
with_prev1_full:PCR_after
with_prev2_full:exposure_after
with_prev1_full:findings_and
conn_POS:RB_TO
prev2:oligonucleotide
prev2:increasingly
with_prev1_full:disease_by
prev1:quantitated
with_prev2_full:blood_and
with_prev2_full:-RSB-_but
prev2:battery
with_prev2_POS_full:JJ_VBG
prev1_POS:-LRB-
prev2:transgenic
conn:particularly_through
prev2:JAK
conn:for
prev2:beads
with_prev2_full:cells_while
prev2:spontaneous
prev1:disease
with_prev1_full:sites_by
with_prev2_full:possible_for
with_prev1_full:;_for_example
with_prev2_full:complete_via
with_prev1_full:defined_by
conn:not_due_to
with_prev2_full:production_when
with_prev2_full:used_to
with_prev2_full:be_after
prev1:targets
with_prev1_full:responsiveness_upon
prev1:by
with_prev2_full:homologous_to
with_prev2_full:first_by
prev2:immune
with_prev1_full:but_to
with_prev2_full:these_through
prev1:lumpectomy
prev1:be
prev2:hour
with_prev1_full:,_on_the_basis_of
prev1:mixture
with_prev1_full:and_thus
with_prev2_full:mammogens_through
with_prev1_full:AA_after
with_prev2_full:C_followed_by
with_prev2_full:tissue_as_a_result_of
with_prev1_full:either_as_a_result_of
with_prev2_POS_full:JJ_RB_IN
with_prev1_full:AA_upon
with_prev2_full:lymph_following
with_prev1_full:amplicons_and
prev2:fiber
prev1:identically
with_prev2_full:disease_and
with_prev1_POS_full:-LRB-_RB
with_prev2_full:function_also
with_prev2_full:fusion_when
conn:for_instance
conn:In_addition_to
prev2:arthritis
prev1_POS:CD
with_prev1_full:signaling_by
with_prev1_full:,_e.g.
with_prev2_full:2_to
prev1:parameters
with_prev2_full:periductal_and
with_prev1_full:role_during
with_prev2_full:extraction_and
with_prev2_POS_full:VBN_RB_TO
prev1_POS:CC
prev2:loops
with_prev2_full:controls_and
with_prev1_full:IgM-IC_and
with_prev2_full:BMP-6_after
with_prev2_POS_full:EX_RB
with_prev2_POS_full:NNS_IN_IN
with_prev2_POS_full:TO_IN
with_prev1_full:ultrasound_to
with_prev1_full:completely_by
with_prev2_POS_full:-LRB-_IN
prev2:Notably
prev2:CD4
with_prev2_POS_full:TO_JJ
conn_POS:JJ_IN
with_prev2_full:whole_to
with_prev1_full:,_because
with_prev1_full:measured_after
prev2:SEB
prev1:column
prev2:culture
prev1:caused
with_prev2_full:underwent_followed_by
prev1:determined
with_prev1_POS_full:VBN_IN
prev1:-LRB-
prev2:Conclusion
with_prev2_full:%_when
conn_POS:CD_CD_NNS_IN
with_prev2_full:cells_by
prev1:sacrificed
prev2:pellet
prev1:pathologist
with_prev2_full:,_although
prev1:occurring
prev1:elicitation
conn:Given
prev1:made
with_prev1_full:similar_but
with_prev1_full:healthy_since
with_prev2_full:sense_due_to
with_prev1_full:other_to
with_prev1_POS_full:VBG_IN_NN_TO
prev1:either
prev1:IL-10
with_prev1_full:Gene_by
with_prev2_POS_full:IN_WRB
with_prev1_full:strategies_for
with_prev2_full:subjects_although
with_prev2_full:TCR-mediated_to
prev1:purified
prev2:first
with_prev2_full:or_after
prev1:TGF-β
with_prev2_full:minutes_prior_to
with_prev2_POS_full:NN_IN_IN
conn:in_large_part_for
with_prev2_full:be_to
prev1:transfected
with_prev2_POS_full:NNP_VBZ_TO_VB_JJ_IN_JJS_IN_NN_TO
with_prev1_full:induced_after
prev2:cross-hybridization
conn_POS:JJ_TO
with_prev1_POS_full:CC_IN_NN
prev2:locally
with_prev2_full:T_both_upon
with_prev1_full:size_and
with_prev2_full:TGF-β_by
with_prev1_full:chosen_to
with_prev1_full:occurred_after
with_prev1_full:,_as_a_result_of
with_prev2_POS_full:NN_IN_NN_IN
prev1:systems
with_prev1_full:,_in_that
prev1:possible
with_prev2_full:reaction_and
prev1:tissues
with_prev1_full:undisputed_because
prev1:curation
with_prev1_full:model_when
with_prev2_full:TECs_by
with_prev2_full:B_and
prev2:being
with_prev2_POS_full:,_WRB
with_prev2_full:tumor_because
with_prev1_full:pDCs_once
with_prev1_full:-LRB-_particularly_since
with_prev2_POS_full:JJ_CD_NNS_VBG
prev1:ancrod
prev1:excluded
prev2:overnight
prev2:staurosporine
with_prev2_full:protein_and
prev2:immunological
with_prev2_full:levels_then
conn:namely
prev1:in
with_prev1_full:but_rather
with_prev1_full:medium_and
prev1:employed
with_prev2_full:arthritis_i.e.
with_prev2_full:PB_after
with_prev1_full:mRNA_upon
with_prev2_full:and_to
with_prev2_full:to_following
with_prev2_full:signalling_also
with_prev1_POS_full:VBN_TO
conn:in_response_to
with_prev1_full:-_when
with_prev1_full:,_thereby
with_prev1_POS_full:-LRB-_IN
with_prev2_POS_full:NN_CC_IN
with_prev2_full:mechanisms_when
with_prev2_full:44_to
with_prev1_full:that_whilst
with_prev1_full:,_and\/or
with_prev2_full:-RSB-_because
prev1:induced
with_prev1_POS_full:,_RB_TO
with_prev1_full:produced_by
with_prev2_POS_full:VBG_JJ_RB_TO
with_prev1_full:observed_following
with_prev2_full:6_and
with_prev1_POS_full:VB_IN_NN_IN
prev1_POS:JJ
with_prev2_POS_full:WDT_IN_NN
with_prev1_full:assessed_before
with_prev2_full:-RRB-_while
prev2:JNK
prev1:aligned
prev2:31,32
with_prev1_full:LAP_to
with_prev1_POS_full::_IN_NN
prev1_POS:IN
with_prev2_full:were_10_min_before
prev1:h.
with_prev2_full:target_through
with_prev2_full:human_and
with_prev2_full:24_when
prev2:present
conn:except
conn:with
with_prev2_full:maximal_two_hours_after
with_prev2_full:cytokine_due_to
conn:unless
with_prev1_full:Treg_and
with_prev2_full:IL-10_thereby
with_prev2_full:colleagues_and
prev1:c-jun
with_prev2_POS_full:VBZ_IN_JJ_NN_IN
with_prev1_POS_full:VBN_VBG
prev1:amplification
prev1:calcium
prev2:PBMC
with_prev2_full:was_and
prev2:samples
prev1:around
with_prev2_POS_full:NNP_IN_NN_TO
with_prev1_POS_full:,_IN_NN_TO
with_prev2_POS_full:NN_IN_RB
prev2:difference
with_prev2_full:newborn_after
with_prev2_full:UK_by
with_prev2_full:-RSB-_to
with_prev1_POS_full:NN_WRB
prev2:above
prev2:T-cells
with_prev1_POS_full:,_IN_DT_NN_IN
with_prev2_full:that_whereas
with_prev1_POS_full:,_IN_NN_IN
with_prev1_full:reactions_due_to
with_prev2_full:developed_when
with_prev2_full:to_to
conn:since
with_prev2_full:UDS_to
with_prev2_full:Thus_after
with_prev2_full:with_and
with_prev2_full:medulla_while
with_prev2_full:transgenic_if
with_prev2_POS_full:NNP_VBG
with_prev1_full:assay_to
with_prev2_POS_full:VBD_WRB
prev1:region
with_prev1_full:and_then
with_prev2_full:inhibition_also
prev1:indirectly
with_prev1_full:,_due_to
with_prev2_full:However_as
with_prev1_full:curation_to
prev1:encoded
with_prev1_POS_full:VBP_VBG
with_prev2_POS_full:VBP_TO
with_prev1_full:extracted_and
with_prev2_full:-RSB-_so
with_prev1_full:plated_for
with_prev1_full:,_in_contrast_to
with_prev2_full:of_and\/or
with_prev1_full:tissue_and
with_prev1_full:markers_and
with_prev1_full:,_although_still
with_prev2_full:control_both_upon
with_prev1_full:,_namely
with_prev2_full:d_whereas
with_prev2_full:trend_but
with_prev2_full:conserved_and
with_prev2_full:response_following
prev2:mostly
with_prev1_full:targets_since
prev1:Gene
with_prev1_full:phenotype_by
with_prev2_full:lesions_and
with_prev1_full:,_particularly_to
with_prev2_full:are_upon
prev2:IFN-γ
prev2:IFN-α
with_prev2_POS_full:VBD_RB_WRB
with_prev1_full:vitro_and
prev1:genes
prev1:conceived
prev2:trend
with_prev1_full:-RRB-_to
prev2:mutants
with_prev1_full:encoded_by
with_prev1_full:concentrations_and
with_prev2_full:filter_and
prev1:higher
conn:On_the_basis_of
with_prev1_full:cluster_before
prev1:thymus
with_prev2_POS_full:JJR_VBG
prev1:responsible
with_prev2_full:culture_and
prev2:considered
prev2:maturation
with_prev2_full:−_and
prev1:1997
prev1:abrogated
prev1:1994
with_prev2_full:developed_in_response_to
with_prev2_full:assayed_after
prev2:cover
with_prev2_full:patients_while
with_prev2_full:Treg_when
with_prev2_full:Cre_to
prev1:preincubation
with_prev2_full:roles_through
with_prev1_full:immunoblotting_after
with_prev2_full:overnight_and
prev2:features
with_prev2_full:interactions_or
conn:regardless_of
with_prev2_POS_full:NN_IN_NN_TO
prev1:cultured
with_prev1_full:mixture_prior_to
prev1:shifted
prev1:staining
prev1:unresponsiveness
with_prev2_full:TGF-β_to
with_prev1_full:IFN-γ_after
with_prev1_full:signals_through
with_prev2_full:-RSB-_however
prev2:technically
with_prev1_full:night_before
prev2:isotype
prev2:transversion
prev1:vitro
with_prev2_POS_full:VBD_VBD_IN
prev2:phenotypic
prev2:fragment
prev2:Mechanistically
prev1:slip
with_prev1_full:stopped_by
prev1:induction
with_prev1_full:shut-off_by
with_prev2_full:also_after
with_prev1_full:-LRB-_although
prev2:line
with_prev2_POS_full:TO_TO
with_prev1_full:sarcoma_by
prev1:chosen
prev1:agarose
prev2:SnoN
prev1:specificity
prev1:neurons
with_prev2_full:end_and
with_prev1_full:feasible_due_to
conn:due_to
with_prev2_full:precursors_although
with_prev2_POS_full:RB_WRB
prev1:later
prev1:secretion
with_prev1_full:-RRB-_thus
with_prev1_full:,_following
with_prev2_full:promoter_via
prev1:nodes
with_prev2_full:lethal_thus
with_prev1_full:bound_and
conn:by_means_of
with_prev2_full:probably_by
prev1:resorption
prev1:to
prev2:preventively
with_prev1_full:reduced_and
with_prev1_full:and_subsequently
with_prev2_full:-RSB-_thus
with_prev1_full:mats_and
prev2:assessment
with_prev2_full:Pax5_by
with_prev2_full:assay_namely
with_prev1_full:analysis_and
with_prev1_full:identified_by
conn:Besides
prev1:fusion
prev2:neurons
conn:as_early_as_24_h_after
with_prev2_full:and_finally
with_prev1_full:-RRB-_prior_to
prev1_POS:VBG
with_prev2_full:SnoN_by_means_of
prev2:sense
prev1:detected
with_prev2_full:intermediates_whereas
with_prev1_full:were_due_to
prev1:choice
with_prev1_full:RT-PCR_after
prev2:synthesised
with_prev2_full:manual_to
with_prev1_full:it_nevertheless
with_prev2_full:was_only_when
conn:Through
prev1:hysterectomy
with_prev1_full:amounts_and
conn_POS:IN_DT_JJ_NN_IN
conn:When
with_prev1_full:shifted_after
with_prev2_full:expected_and
with_prev1_full:C._Four_hours_later
prev2:modulated
with_prev2_full:stage_not_due_to
prev1:reduced
with_prev1_POS_full:VB_JJ_TO
with_prev2_full:phenotypic_during
conn:nor
conn:not
with_prev2_full:were_for
with_prev2_full:to_by
prev1:C.
with_prev1_POS_full:NNP_IN
with_prev2_full:frame_while
with_prev1_full:isolated_by
prev1:buds
prev1:PCR
with_prev2_full:-RRB-_after
prev2:activation
prev2:batteries
prev1:achieved
with_prev1_full:primarily_via
with_prev1_full:differentiation_after
prev2:by
prev1:proposed
with_prev1_full:analysis_after
prev2:STAT1
prev1:procedure
with_prev2_full:even_after
with_prev1_full:significant_if
prev1:investigated
prev2:TEC
prev1:PBS
prev1:sequence
with_prev1_POS_full::_IN
prev2:TCR
with_prev1_full:generated_as_a_direct_consequence_of
prev1:AA
with_prev2_full:functions_i.e.
with_prev2_full:was_to
with_prev2_full:SP_after
prev2:an
prev1:for
prev2:as
with_prev1_POS_full:NN_IN_DT_NN_IN
prev1:min
with_prev1_full:cells_when
prev2:signalling
with_prev1_POS_full:JJ_JJ_TO
with_prev1_POS_full:VBN_WRB
with_prev1_full:agarose_to
prev1:extended
with_prev2_full:were_via
with_prev2_full:°_until
prev2:macrophages
with_prev1_full:thymidine_after
with_prev2_full:phosphorylation_except_that
with_prev1_full:expand_following
prev1:vivo
prev2:experimental
prev1:cross-linking
prev2:lethal
with_prev1_full:explained_by
prev1:breasts
conn:Provided_that
with_prev2_POS_full:VBN_IN
with_prev2_full:RA_but
with_prev2_full:were_following
with_prev2_full:defects_and\/or
conn_POS:CD_NN_IN
with_prev1_full:CD69_to
prev2:undetectable
with_prev2_POS_full:NN_IN_WDT
with_prev2_full:apoptosis_followed_by
conn:10_min_before
with_prev1_full:contact_while
prev1:healthy
with_prev2_full:injection_whereas
with_prev1_POS_full::_CC
with_prev1_full:hybridisation_to
with_prev1_full:-RRB-_by
prev1:activated
prev1:overcome
with_prev2_full:PBMC_but
with_prev2_full:were_to
with_prev1_full:phenotypes_by
with_prev2_full:bone_by
prev2:convergent
prev1:enhanced
prev2:increase
with_prev1_POS_full:NNS_VBG
with_prev2_full:Treg_also
with_prev2_full:and_furthermore
prev1:patients
prev1:fails
with_prev2_POS_full:MD_JJ_TO
with_prev2_full:power_due_to
with_prev2_full:not_so
with_prev2_full:staurosporine-induced_when
with_prev2_full:-RSB-_thereby
with_prev2_full:quantitatively_or
with_prev1_full:,_nor
prev1:expression
prev2:−
with_prev2_full:vivo_and
with_prev1_full:sample_and
prev2:with
conn:well_before
with_prev2_full:significantly_by
with_prev2_full:cell_since
with_prev1_full:expression_to
prev2:maximal
with_prev2_POS_full:VBN_IN_NN
with_prev2_full:spermatogenesis_and
prev2:Pax5
with_prev2_full:suspensions_by
with_prev1_full:methylation_via
with_prev2_full:activation_and
conn:on_the_basis_of
with_prev2_full:activation_by
with_prev1_full:,_once
with_prev2_POS_full:POS_IN
with_prev1_full:organogenesis_through
prev1:androgens
prev1:evaluated
prev1:part
with_prev2_full:However_once
with_prev1_full:clustering_to
prev1:Results
with_prev1_full:regression_before
prev2:See
prev1:gene
prev1:normally
conn_POS:NN
with_prev2_full:peripheral_by
prev2_POS:RBR
conn_POS:IN_NNS_IN
with_prev2_full:Notch_via
with_prev2_full:be_before
prev1:animals
prev1:ERG
with_prev2_full:cursor_then
with_prev1_POS_full:VBD_JJ
prev2:more
prev2:fold
with_prev2_full:-RSB-_and
with_prev1_full:Gy_to
with_prev2_full:varying_but
prev1:DNMTs
with_prev2_full:positive_via
with_prev1_POS_full:TO_RB
with_prev2_POS_full:DT_IN_NN_TO
with_prev1_POS_full:VBD_IN
prev2:here
with_prev2_full:convergent_for
with_prev2_full:-RSB-_subsequently
with_prev2_full:factors_In_addition
prev2:prepared
with_prev2_full:12_before
with_prev2_full:,_nevertheless
conn:Despite_the_fact_that
with_prev2_full:proteins_for_instance
with_prev2_full:T_once
with_prev2_full:C-dependent_following
prev2:transcription
prev2:brca1
with_prev2_full:mice_since
with_prev2_POS_full:IN_VBG
prev1:Gy
with_prev2_full:neutrophils_and
with_prev2_full:efficiently_by
with_prev2_full:driving_and
with_prev1_full:,_while
with_prev2_POS_full:-RRB-_VBN_IN
conn:In_view_of_the_fact_that
with_prev2_full:activity_and
conn:as_a_result_of
with_prev2_POS_full:JJ_IN_WDT
with_prev1_full:,_probably_because_of
prev1:functions
with_prev2_POS_full:NNS_VB
with_prev1_full:death_after
with_prev2_POS_full:VBN_IN_IN
prev1:IFN-γ
with_prev2_full:Ews-ERG_to
prev1:IFN-α
with_prev2_POS_full:NNS_TO
conn:in_large_part_by
with_prev1_full:but_also
with_prev2_full:thymocytes_with
prev1:event
prev2:fatty
with_prev2_full:8_before
prev2:time
with_prev1_full:;_i.e.
prev1:established
with_prev1_full:obtained_when
with_prev2_full:significantly_although
with_prev2_full:PB_once
with_prev2_POS_full:VBN_RB
with_prev1_full:computed_to
with_prev1_full:pathologist_to
with_prev2_full:site_to
with_prev1_full:functions_by
with_prev2_full:-RRB-_followed_by
prev1:constellation
with_prev2_full:W3\/25-treated_in_response_to
prev2:™
with_prev1_POS_full:VBN_IN_IN
prev2:technical
prev1:follicles
prev2:became
prev2:subsets
conn:as_a_direct_consequence_of
with_prev1_full:buffer_and
prev1:points
with_prev1_full:h_after
with_prev2_full:T_by_means_of
with_prev2_full:therefore_to
with_prev1_full:mice_and
with_prev2_full:their_to
with_prev2_POS_full:NNS_NN
with_prev1_full:responses_by
with_prev2_full:LPS_followed_4_hours_later_by
with_prev2_POS_full:VBN_TO
conn_POS:TO
conn:because
with_prev2_full:especially_for
prev2:population
with_prev1_full:hematoxylin_except
prev1:similar
with_prev1_full:sequenced_after
prev1:elongating
with_prev1_POS_full:NNP_TO
with_prev2_full:TE_and
prev2:dose-dependently
with_prev1_POS_full:VBD_CC
prev2:-RSB-
prev2:intracellular
with_prev1_full:developed_for
with_prev2_full:6b_when
with_prev1_full:also_after
with_prev2_full:documentation_e.g.
with_prev1_full:,_In_addition
with_prev2_full:CD4-associated_after
prev1:mite
with_prev2_full:°_and
with_prev1_full:function_while
prev2:peripheral
prev1:quantitatively
conn_POS:RB_CC
with_prev2_POS_full:NNS_JJ
prev2:minutes
prev1:pDCs
prev2:large
prev1:developed
with_prev2_POS_full:CC_RB_TO
with_prev2_full:testosterone-treated_when
prev1:cassette
with_prev2_full:days_before
prev1_POS:TO
prev2:lineages
with_prev2_full:cells_for_instance
prev2:triplicate
conn_POS:VB
with_prev1_POS_full:NN_CD_NNS_VBG
prev2:to
with_prev1_full:abolished_by
prev1_POS:VB
with_prev1_full:observed_when
prev2:presented
prev2:regulated
with_prev2_full:was_by
prev2:awaited
prev2:days
with_prev1_POS_full:,_RB_IN
with_prev2_full:7_and
with_prev1_full:risk_due_to
with_prev2_full:used_by
conn_POS:RB_JJ_RB_TO
with_prev1_POS_full:VBN_RB_TO
prev2:infiltrate
conn_POS:DT_IN_NN_TO
with_prev2_full:pathways_thus
prev1:immunocytochemistry
with_prev1_full:weaker_but
prev2:morphogenesis
with_prev2_full:deviation_and
with_prev1_full:Treg_to
with_prev2_full:descriptions_and
with_prev1_POS_full:,_WRB
conn:Following
with_prev1_full:induction_upon
with_prev2_full:inversion_thus
with_prev2_full:significant_but
with_prev1_full:;_subsequently
with_prev2_full:-RRB-_thus
with_prev2_full:intracellular_for
conn_POS:RB_RB_IN
with_prev1_full:determined_by
prev1:stroma
with_prev1_full:site_for
with_prev1_full:T-cells_both_in_response_to
with_prev2_full:induced_after
with_prev1_full:that_while
prev2:progenitors
with_prev2_full:IL-2_following
conn:probably_because_of
prev1:disappeared
with_prev1_full:down-regulation_via
with_prev1_full:accumulate_following
with_prev2_full:See_for
with_prev2_full:being_for
conn:particularly_to
with_prev2_POS_full:NN_IN_NNS_IN
prev1:tissue
with_prev1_full:arise_when
with_prev2_full:contralateral_two_years_after
with_prev1_full:tissues_by
with_prev2_full:M_and
with_prev1_full:inhibition_by
with_prev2_full:min_and
prev1:screen
with_prev2_full:paralogy_since
with_prev2_full:not_by
with_prev1_full:osteoclasts_through
conn:thereby
prev1:while
with_prev1_full:SEB_and
with_prev2_full:power_and
prev2:paralogy
with_prev2_full:the_in_order_to
with_prev2_full:final_since
with_prev1_full:undertaken_to
with_prev2_POS_full:VBZ_WRB
with_prev1_POS_full:,_NNP
with_prev2_full:cell_for
prev1:densitometry
with_prev2_full:However_while
with_prev2_full:RA_although
prev2:competed
prev1:treated
conn:Whilst
prev2:newborn
with_prev2_full:the_and
prev2:T-cell
with_prev2_full:or_prior_to
with_prev2_full:implanted_three_days_before
prev1_POS:RP
with_prev1_full:IL-10_before
with_prev2_full:Cedarlane_to
with_prev2_full:activity_whereas
with_prev2_POS_full:VB_JJ_TO
prev1:KS
with_prev2_full:homeostatic_as_a_consequence_of
with_prev2_POS_full:NNS_IN
with_prev2_full:DNA_after
conn:whilst
with_prev1_full:detected_via
prev1:processed
conn_POS:JJ_NNS_IN
with_prev2_full:may_due_to
with_prev2_full:antibody_followed_by
conn:in_consequence_of
with_prev1_full:C._Following
prev2:identically
prev2:intermediates
with_prev1_POS_full::_NN
with_prev2_full:,_while
prev2:cell-to-cell
prev1:strategies
conn:i.e.
with_prev1_full:resorption_by
with_prev2_full:and_therefore
prev1:weaker
prev1:trials
with_prev2_POS_full:VBD_RB_TO
with_prev1_full:IFN-γ_in_order_to
prev2:d
prev2:TF-dependent
with_prev1_POS_full:RB_RB_TO
prev2:separated
with_prev2_full:variable_for_example
prev2:a
prev2:s
conn:only_when
prev2:x
with_prev2_full:it_also
with_prev2_POS_full:NNS_CC
with_prev1_full:pronounced_as_a_result_of
with_prev2_full:was_when
with_prev1_full:centrifuged_and
with_prev1_full:tissue_through
prev2:significant
prev2:chromosomal
prev1:delivered
conn:in_order_to
with_prev2_full:pTK-RL_then
with_prev2_full:contrast_although
with_prev1_full:exemplified_by
with_prev2_full:-RRB-_in_order_to
with_prev1_full:but_none-the-less
with_prev2_full:mechanism_consequently
with_prev1_POS_full:CD_IN
with_prev1_full:drawn_by
prev2:postnatal
with_prev1_full:similarities_during
prev2:if
with_prev1_full:cells_whereas
with_prev2_full:-RSB-_although
with_prev2_full:modulation_however
with_prev1_full:probe_in_order_to
prev2:it
with_prev2_full:,_none-the-less
conn_POS:CD_NNS_VBG
prev2:in
with_prev2_full:metabolism_thereby
with_prev2_full:target_when
prev2:experiments
with_prev2_full:regions_after
prev2:°
with_prev2_full:with_except
with_prev1_full:ends_after
with_prev1_POS_full::_RB
prev1:CD69
with_prev1_POS_full::_JJ
with_prev2_full:nucleus_and
with_prev1_full:achieved_by
with_prev1_POS_full:NNS_DT_IN
with_prev2_full:are_and
with_prev1_full:regulation_via
prev2:microorganisms
prev2:on
prev2:TCR-mediated
prev2:or
with_prev1_full:checked_via
prev1:signaling
with_prev1_full:,_via
with_prev2_full:-RRB-_but
with_prev2_full:cover_before
with_prev2_full:with_prior_to
with_prev1_full:studies_to
prev1:nuclei\/ml
with_prev2_POS_full:JJ_RB_TO
with_prev1_full:harvested_20_min_later
conn:After
prev2:precursors
with_prev1_full:that_in_comparison_to
prev1:phenotypes
with_prev1_full:not_to
conn:in_contrast_to
with_prev2_full:isotype_when
with_prev2_POS_full::_IN
with_prev2_full:exposure_although_still
with_prev1_full:elongating_by
prev2:used
with_prev2_full:hereditary_due_to
with_prev2_full:ontogeny_albeit
conn_POS:RB_IN
prev2:patients
prev2:molecules
with_prev1_full:quantitated_by
with_prev2_POS_full:VBD_IN_NN_TO
with_prev2_full:'s_by
prev2:per
with_prev1_POS_full:NNP_CC
prev1:regression
prev1:mediated
prev2:Notch
prev1:CCR3
prev1:amounts
with_prev2_full:intracellular_through
prev1:IgM-IC
with_prev2_full:tissue_and
with_prev1_full:ensured_by
with_prev1_POS_full:VBD_TO
prev1:activity
with_prev1_full:hours_before
conn_POS:VBZ_TO_VB_JJ_IN_JJS_IN_NN_TO
with_prev2_POS_full:VBN_CC
prev2:quantitatively
prev1:sarcoma
with_prev2_full:synthesised_and
with_prev2_full:31,32_and
prev2:surface
prev1:hybridisation
prev2:RIB5\/2
with_prev2_full:others_whereas
with_prev2_full:footprinting_i.e.
prev1:standard
prev1:explanation
prev2:progenitor
prev1:normalized
with_prev2_full:filter_to
with_prev2_full:thymocytes_in_contrast_to
prev2:microarray
with_prev2_full:present_and
with_prev2_full:activity_although
prev1:field
prev2:score
prev2:immune\/inflammatory
prev2:neutrophils
with_prev2_full:stem_to
prev2:Moreover
with_prev2_full:5_to
prev2:suppressing
with_prev2_full:as_by
prev1:mainly
with_prev2_full:clinical_as
with_prev2_full:STAT3_and
prev1:secreted
with_prev1_full:responses_and\/or
prev1:stochastically
with_prev1_full:cells_both_upon
prev2:IgM-IC
with_prev1_full:signal_after
with_prev2_full:contrast_and
prev2:tolerated
with_prev2_full:in_and
prev1:strand
with_prev2_full:mite_then
prev2:Finally
conn:due_mainly_to
with_prev2_full:T_via
with_prev2_full:19_and
prev1:extent
with_prev1_full:fails_to
with_prev2_full:Ews_after
prev1:paraformaldehyde
with_prev1_full:Smad2\/3_and\/or
with_prev2_full:PBMC_and
with_prev2_full:IL-2_as
with_prev1_full:min_to
with_prev1_full:done_by
with_prev2_full:17_because
prev2:observed
with_prev2_full:blot_to
prev2:which
with_prev2_full:38_and
conn:both_in_response_to
with_prev2_full:real-time_after
with_prev2_full:fill_in_response_to
with_prev2_full:protein_whereas
with_prev1_POS_full:JJ_RB_TO
with_prev2_full:RA_and
prev2:mite
with_prev1_full:activated_by
with_prev1_full:,_through
with_prev1_full:performed_to
prev2:factor
prev1:phosphorylated
conn:during
with_prev1_full:signalling_to
with_prev2_full:addition_by
conn:both_upon
with_prev2_POS_full:''_IN
with_prev2_POS_full:VB_CC
with_prev2_full:-LRB-_by
with_prev2_full:SF_and
with_prev1_full:centrifuged_to
prev1:inhibition
with_prev1_full:production_due_to
with_prev2_full:mice_not_due_to
with_prev2_full:methylation_thus
with_prev1_full:pathway_by
prev2:Giemsa
with_prev2_full:express_unless
prev2:suspensions
with_prev2_full:completely_by
with_prev1_full:i.v._and
prev2:TSP-1-null
with_prev1_full:development_due_to
with_prev2_full:T-cell_because
prev2:extraction
prev2:CCR3
prev1:simulations
with_prev1_full:injection_and
prev2:Perfenidone
prev2:Ews-ERG
with_prev1_full:cells_following
with_prev2_full:CD69_and
conn:because_of
with_prev1_full:development_and
prev2:cancers
with_prev2_full:JNK_following
prev2:magnification
with_prev1_full:follicles_for
prev2:C
prev1:IRF-4-expression
conn:Either..or
conn:specifically_to
with_prev2_full:not_and
with_prev2_full:Notch_to
with_prev1_full:supershift_when
prev1:recombination
prev1:antibody
with_prev2_POS_full:VBD_CC
with_prev1_full:observed_despite
prev2_POS:POS
prev2:M
with_prev2_POS_full:CC_RB_JJ_RB_TO
prev2:%
with_prev2_full:Streptavidin-Cy-Chrom_subsequently
with_prev1_POS_full:,_RB_JJ_TO
prev2:'
with_prev1_full:identically_when
conn:Three_days_after
prev2:modulation
prev1:perfect
with_prev1_full:-RRB-_when
prev2:6
prev1:origin
with_prev2_full:to_due_to
prev2:5
prev2:4
prev2:3
prev2::
with_prev2_full:17_and
with_prev1_full:IFN-α_and
prev2:8
prev2:7
prev2:2
prev2:1
with_prev1_full:,_when
with_prev2_full:found_for_example
with_prev2_POS_full:-RRB-_CC
prev1:therefore
with_prev2_full:feedback_to
prev1:sites
with_prev2_POS_full:NNP_WRB
with_prev1_full:activity_and
with_prev1_full:PBS_and
prev1:night
with_prev1_full:sequence_predominantly_via
prev2:CD69
prev2:conserved
with_prev1_full:filters_and
with_prev1_full:,_such_that
conn:in_comparison_to
prev2:site
with_prev2_full:tumor_when
prev1:sequenced
with_prev1_full:column_after
prev2:autoclave
with_prev1_full:pDCs_and
with_prev2_full:fully_by
prev2:situ
with_prev2_full:amplification_only_if
with_prev2_POS_full:VBD_CD_NNS_IN
prev1:fragments
prev2:transcripts
prev1:fibrosis
prev1:Strategy
conn:consequently
with_prev1_full:caused_in_part_by
prev2:occurred
with_prev1_POS_full:,_CC
with_prev2_full:testosterone_when
prev2:AA
prev1:simulation
with_prev1_full:signals_by
prev2:column
prev2:properties
prev2:treatment
with_prev2_full:cytokines_thereby
with_prev1_full:fragments_by
with_prev2_full:speed_then
with_prev2_full:IL-2_in_part_by
with_prev2_POS_full:NNS_JJ_IN
with_prev2_full:TNF-α_although
prev2:nucleus
prev2:pathways
with_prev1_full:enhanced_upon
with_prev2_POS_full:NNP_RB_TO
with_prev1_full:,_before
with_prev2_full:can_by
with_prev2_POS_full:NN_VBN_IN
with_prev2_full:results_although
with_prev2_full:72_and
with_prev1_full:can_therefore
prev1:arthritis
with_prev1_full:generated_by
prev2:produce
with_prev1_full:activation_and
with_prev1_full:detected_after
with_prev2_POS_full:VBD_IN
prev2:exons
with_prev1_full:patients_and
with_prev1_full:analysis_since
prev1:experiment
prev2:CA
prev2:Sigma-Aldrich
prev1:mats
with_prev2_full:proven_to
with_prev2_full:'s_during
conn_POS:PDT_DT
with_prev2_full:datasets_since
prev1:blood
with_prev2_full:produce_upon
with_prev2_POS_full:VBD_JJ
with_prev2_POS_full:VB_IN
prev1:harvested
with_prev2_POS_full:NNP_VBN_IN
with_prev2_full:were_in_response_to
with_prev2_full:numbers_in_contrast_to
conn:Via
with_prev2_full:downstream_since
prev2:family
with_prev2_full:consistently_following
prev2:biological
with_prev1_full:confirmed_by
prev2:LPS
with_prev2_full:active_by
conn:During
with_prev1_full:estimated_by
prev1:LAP
with_prev2_full:TCR_thereby
conn:In_order_to
prev2:reported
with_prev2_full:BMP-6_upon
with_prev2_full:43,44_and
with_prev2_full:inflamed_by
prev2:hematopoietic
with_prev1_full:hours_after
with_prev2_full:turned_to
with_prev2_full:fiber_and
prev2:fixed
prev1:osteoclasts
prev2:age
with_prev1_full:field_in_order_to
prev1:breast
prev1:synthesis
with_prev1_full:activation_following
with_prev2_full:dense_thus
with_prev1_full:added_by
prev2:W3\/25-treated
with_prev1_full:c-jun_following
with_prev2_full:3_and
prev1:primarily
conn:not_due_merely_to
conn_POS:RB_JJ_TO
conn:One_day_after
prev1:receptors
prev1:silenced
prev2:proliferative
prev2:PB
prev2:steel
with_prev1_full:cells_through
with_prev2_full:lytic_and
prev2:power
with_prev1_full:,_thus
prev1:recombinase
with_prev1_full:twice_prior_to
prev1:sieve
with_prev1_full:follicles_following
prev2:cytoplasm
with_prev2_full:the_if
conn:via
prev1:extracted
prev1:s
prev1:differentiation
with_prev1_full:-RRB-_in_order_to
prev2:added
with_prev2_full:inflammatory_by
with_prev1_full:employed_to
with_prev2_full:population_so
with_prev1_full:population_through
prev1:centrifuged
prev2:probably
prev2:IV
prev2:Treg
with_prev2_full:exclusion_by
prev1:h
with_prev2_full:three_and
prev2:proven
prev2:DNA
with_prev2_POS_full:RB_IN_IN
with_prev1_full:ice_and
prev2:II
with_prev1_full:secretion_upon
with_prev1_full:controlled_by
conn:through
with_prev2_POS_full:VBN_JJ_IN
with_prev2_full:USA_and
with_prev1_full:pathway_to
with_prev2_full:became_following
with_prev1_full:synthesis_following
with_prev2_full:production_and
with_prev2_full:the_by
prev2:BMP-6
prev1:test
with_prev1_full:stimulation_by
with_prev1_full:affected_by
prev1:elucidated
prev1:-
prev1:inflammation
prev1:concentrations
with_prev1_full:done_after
with_prev2_full:SEB_and
conn:when
prev1::
prev1:;
with_prev1_full:blood_by
prev2:primer
prev1:site
with_prev2_full:dense_and
prev1:branching
prev1:%
with_prev2_full:-RRB-_whereas
with_prev2_full:absent_since
with_prev1_full:cells_and
with_prev1_full:prepared_by
with_prev1_full:-RRB-_after
with_prev2_full:were_by
prev2:particular
prev1:stimulated
prev1:RT-PCR
prev2:developing
with_prev1_full:constructed_for
with_prev1_full:perfect_and
with_prev2_full:HLA-DR-APC_and
prev1:essential
prev1:C
with_prev2_full:below_thus
with_prev1_full:apoptosis_after
prev2:processes
with_prev1_full:chosen_in_large_part_for
with_prev2_full:is_via
with_prev1_full:added_and
conn_POS:RB_RB_IN_CD_NN_IN
with_prev2_full:'_although
with_prev1_full:,_but
prev1:bear
prev2:Germany
with_prev2_full:which_in_turn
with_prev1_full:tip_when
with_prev2_full:the_unless
prev1:controlled
with_prev1_full:occurring_as_a_result_of
with_prev1_full:equivalent_when
with_prev2_full:gene_but
with_prev2_full:antibody_and
with_prev2_full:difference_not_due_to
prev1:line
with_prev2_POS_full:VBZ_JJ_TO
prev2:UK
prev2:phosphorylation
prev1:signalling
prev2:proliferation
with_prev2_full:beads_then
conn:except_for
with_prev1_full:dangerous_when
prev1:background
with_prev2_full:treatment_in_order_to
with_prev1_full:screen_to
with_prev2_full:STAT1_and
with_prev1_full:which_subsequently
prev2:absent
with_prev1_POS_full:NN_VBN_IN
prev2:IL-6
with_prev2_full:dose-dependently_after
with_prev2_full:RA_because
prev2:IL-2
prev1:immunoblotting
with_prev1_full:that_not
with_prev2_full:tissues_and
with_prev1_full:analyzed_by
with_prev2_full:in_when
with_prev2_full:were_when
with_prev1_full:later_and
with_prev2_full:TCR_to
with_prev2_full::_for
prev2:RA
prev2:IRF-4
with_prev2_full:molecules_and
with_prev1_full:confirmed_when
with_prev2_full:fold_upon
with_prev1_full:section_to
with_prev1_full:,_in_part_by
prev1:that
with_prev2_full:protein_while
with_prev1_full:infants_after
prev1:RESULTS
with_prev1_POS_full:IN_IN_NN
prev2:obvious
prev2:LCR
with_prev1_full:mastectomy_because_of
with_prev2_full:biological_by
with_prev1_POS_full:CC_IN
prev2:controls
with_prev1_full:sieve_and
with_prev1_full:line_after
with_prev2_full:patient_to
with_prev2_full:after_and
prev2:pre-TCR
with_prev1_full:Hypermethylation_due_to
with_prev2_full:LY294002_whereas
with_prev1_full:is_due_to
with_prev1_full:observed_as_early_as_24_h_after
prev2:manual
prev2:phase
prev2:thymoma
with_prev1_POS_full:,_JJ_IN
with_prev2_full:reported_after
with_prev1_full:study_due_to
prev1:size
prev1:response
with_prev2_full:SEB_then
with_prev2_full:PCR_by
with_prev2_full:JAK_and
prev2:Cedarlane
prev2:TE
with_prev2_full:actions_but
with_prev1_full:synthesis_after
with_prev1_POS_full:NNP_CD_NNS_RBR
with_prev2_full:48_after
with_prev1_full:over-representation_since
with_prev2_full:induce_by
with_prev1_POS_full:VBN_IN_DT_JJ_NN_IN
with_prev2_full:of_following
with_prev2_full:hematopoietic_after
with_prev1_full:arthritis_despite
with_prev2_full:anti-CD4_and
prev2:SF
with_prev1_full:mite_to
with_prev2_full:postnatal_because
prev2:spaces
prev1:shut-off
prev2:DCs
prev2:SP
with_prev2_full:,_during
with_prev2_full:promoter_and
prev2:ST
with_prev1_full:inflammation_by
with_prev1_full:manipulated_to
with_prev1_full:p56lck_after
prev2:differentiating
with_prev2_full:gene_and
conn:following
with_prev1_full:neutralized_by
with_prev1_full::_As
with_prev2_POS_full:PRP$_IN
with_prev2_full:was_despite
with_prev1_POS_full:CC_RB
with_prev1_full:,_since
with_prev1_full:-RRB-_before
with_prev1_full:parameters_in_order_to
with_prev1_full:amplification_if
with_prev2_full:recombinant_to
with_prev2_full:did_whereas
with_prev2_full:unknown_however
conn:only_if
with_prev2_full:ST_because
prev1:MRI
prev2:PI3-K
with_prev1_full:pathway_through
with_prev1_full:formed_by
prev1:levels
with_prev1_full:used_to
with_prev2_full:microorganisms_but
with_prev2_full:RA_whereas
with_prev1_full:fusion_to
prev1:methylation
conn:Even_though
with_prev1_full:that_although
with_prev1_POS_full:CC_TO
with_prev1_full:amplified_after
with_prev1_full:;_consequently
prev1:done
with_prev2_full:putative_for
with_prev1_full:gene_after
with_prev1_full:stimulation_while
conn:so
with_prev2_full:binding_after
with_prev1_full:-RRB-_specifically_to
with_prev1_full:-RSB-_to
conn:upon
prev1:downstream
conn_POS:DT_CC
with_prev2_full:particular_after
with_prev2_full:brca1_while
prev2:effects
with_prev1_full:cells_via
with_prev1_full:conceived_by
with_prev2_full:carried_by
with_prev1_full:added_10_min_before
with_prev1_POS_full:CC_IN_NN_TO
with_prev2_full:found_in_comparison_to
prev2:mRNA
with_prev2_full:of_by
prev1:mastectomy
with_prev1_full:efficient_when
prev1:appealing
conn:to
prev1:checked
with_prev2_POS_full:NN_IN_DT_NN_IN
prev2:AIDS-KS
with_prev2_full:is_for
with_prev1_full:signal_through
with_prev1_full:useful_to
with_prev1_full:normalized_by
with_prev2_full:TEC_due_to
with_prev1_full:,_well_before
with_prev2_full:in_both_in_response_to
with_prev2_full:by_and
prev2:especially
prev2:role
with_prev2_full:increase_but
with_prev2_full:analysis_then
with_prev1_full:sacrificed_and
prev1:arise
prev2:that
with_prev2_full:hours_then
prev2:vitro
conn:Whereas
prev2:downstream
with_prev2_full:added_and
with_prev2_full:mice_as
prev1:drawn
prev1:expressed
prev1:leukaemogenesis
with_prev1_full:performed_following
with_prev2_full:in_On_the_basis_of
prev2:symbols
with_prev2_full:been_by
with_prev1_full:genes_through
prev1:growth
with_prev1_full:reduced_by
prev2:actions
prev2:differentiation
with_prev2_full:of_and
with_prev1_full:phenotypes_but
prev2:turned
with_prev2_full:-RRB-_and
prev2:real-time
with_prev2_full:spleens_and
with_prev2_full:exons_thus
with_prev2_full:the_to
with_prev2_full:profile_finally
prev2:question
prev2:active
with_prev2_full:,_then
with_prev1_full:test_by
with_prev2_full:large_and
prev2:varying
prev1:equivalent
prev2:buffer
with_prev2_POS_full:-RRB-_VBD_IN
prev1:neutralized
prev2:mammogens
with_prev2_full:analysis_to
prev1:failed
with_prev2_full:and_followed_by
with_prev1_full:growth_while
with_prev2_POS_full:DT_WRB
prev1:markers
conn:in_addition_to
with_prev2_full:1.0_and
with_prev1_full:death_through
with_prev1_POS_full:,_VBN
prev2:latency
with_prev2_full:IgM-IC_following
prev2:haematopoietic
conn_POS:DT_IN
prev2:negatively
with_prev1_POS_full:,_VBG
with_prev2_full:then_by
prev2:fill
with_prev1_full:nodes_following
with_prev2_full:crucial_for
conn:if
prev1:transcripts
with_prev1_POS_full:VBG_IN
with_prev1_full:delay_after
with_prev1_POS_full:,_VBZ
with_prev2_full:function_and
prev1:verified
with_prev1_full:shown_by
with_prev2_full:proliferate_then
conn_POS:JJ_RB_TO
with_prev2_POS_full:NN_RB_JJ_TO
with_prev2_full:-RRB-_i.e.
with_prev2_full:for_to
with_prev1_full:,_probably_due_to
prev2:survive
prev2:footprinting
with_prev1_full:calculated_by
with_prev2_full:randomly_and
prev1:added
conn:predominantly_via
with_prev1_full:DNMTs_during
with_prev2_full:stimulate_by
conn_POS:IN_NN_TO
with_prev2_full:heterodimers_for
prev2:negative
with_prev2_POS_full:VBN_IN_NN_TO
with_prev2_full:immune\/inflammatory_by
prev1:primers
prev1:identified
with_prev2_full:cytokines_while
with_prev1_full:MRI_due_to
with_prev1_full:act_through
with_prev2_full:JNK_by
conn:either..or
with_prev1_full:indirectly_by
with_prev2_full:and_by
with_prev2_full:each_to
with_prev1_POS_full:JJR_WRB
prev1:tested
with_prev1_full:phosphorylation_in_response_to
prev2:are
with_prev2_full:transcripts_and
with_prev1_full:amplification_to
prev2_POS:JJR
with_prev2_full:-RSB-_except
with_prev2_full:of_before
with_prev2_full:contrast_whereas
prev2:Cre
with_prev2_full:technically_to
conn:after
with_prev1_POS_full:,_CC_IN
with_prev1_full:observed_and
with_prev2_full:-RSB-_whereas
with_prev1_full:isolated_and
prev1:loop
prev2:exclusion
with_prev2_full:mononuclear_by
prev2:radiation
with_prev2_full:C_then
with_prev2_POS_full:PRP$_TO
with_prev2_full:point_after
with_prev1_full:obtained_by
prev1:i.v.
with_prev1_full:formation_when
with_prev2_full:column_followed_by
conn:2_hours_following
prev2:microtubes
with_prev2_full:tumours_specifically
with_prev1_full:lumpectomy_followed_by
with_prev1_full:elucidated_since
with_prev2_full:in_due_to
with_prev1_full:-RRB-_two_hours_before
with_prev2_POS_full:JJ_WRB
conn:or
prev2:external
with_prev1_POS_full:RB_VBZ_TO_VB_JJ_IN_JJS_IN_NN_TO
prev1:synovium
prev1:But
with_prev1_full:sick_following
with_prev2_full:cytoplasm_whereas
prev1:probe
with_prev1_POS_full:VBP_IN
conn:second
with_prev1_full:secretion_following
with_prev1_full:observed_until
with_prev1_full:specific_and
with_prev1_full:IL-2_in_response_to
with_prev2_full:in_upon
with_prev2_full:3A_when
conn_POS:IN_NN_IN
prev2:inversion
prev2:noncovalently
prev1:reactions
with_prev2_POS_full:NNS_VBN
with_prev2_POS_full:NNS_VBG
with_prev2_full:triplicate_and
with_prev1_POS_full:VBP_TO
with_prev1_POS_full:NN_VBG
with_prev1_full:cell_by
with_prev1_full:and_so
with_prev1_full:is_not_due_to
conn:two_hours_after
with_prev2_full:lineages_specifically
prev2:further
prev2:type
prev1:accumulate
prev2:bone
with_prev2_full:synovium_whereas
prev2:lesser
conn:two_years_after
with_prev2_full:found_when
with_prev2_POS_full:WDT_RB
with_prev2_full:RIB5\/2_whereas
prev1:susceptibility
with_prev1_POS_full:VBN_CC
with_prev2_POS_full:RB_RB_IN
with_prev2_full:of_during
with_prev1_full:activity_by
prev2:whole
with_prev1_full:tissues_in_response_to
with_prev2_full:Biosciences_before
with_prev2_POS_full:-RRB-_IN
prev2:--
with_prev2_full:hours_before
with_prev1_full:reduced_or
conn:once
conn:Forty-eight_hours_after
prev1:complicated
prev2:subjects
with_prev2_full:c-jun_in_response_to
with_prev2_POS_full:DT_CD_NNS_IN
with_prev1_full:-LRB-_by
with_prev1_full:procedure_to
prev2:consistent
with_prev2_full:fragment_and
with_prev1_full:numbers\/activity_to
with_prev1_POS_full:-RRB-_IN_NN_TO
prev2:adults
prev2:vivo
with_prev2_full:staurosporine_after
with_prev2_full:of_to
with_prev2_full:absent_but
prev2:heterodimers
with_prev2_POS_full:JJR_IN
with_prev2_full:expressed_whereas
prev2:cues
with_prev1_full:reference_for
with_prev2_POS_full:VBP_IN_DT_JJ_NN_IN
with_prev2_full:joint_and
prev1:Smad2\/3
with_prev1_full:occurring_at_some_point_after
prev2:region
with_prev2_full:then_after
with_prev2_full:blot_after
with_prev2_full:hypothesise_by
prev2:stem
with_prev1_full:to_after
prev2:joint
prev2:their
prev2:similar
prev1:homogenized
with_prev2_full:cell-to-cell_while
with_prev1_full:,_therefore
prev2:cytokine
with_prev1_full:to_also
with_prev2_full:night_then
with_prev2_POS_full:NNS_RB_JJ_TO
prev2:'s
with_prev1_full:occur_through
prev1:annotated
with_prev2_full:%_and
with_prev2_full:temperature_then
with_prev2_full:of_after
with_prev2_full:actins_and
prev1:reference
with_prev2_POS_full:NN_WRB
prev1:out
conn:Unless
prev1:IL-2
prev1:expand
prev1:supported
with_prev2_full:evaluated_and
prev2:changes
with_prev2_full:further_by_the_fact_that
with_prev2_POS_full:VB_TO
prev1:replication
with_prev1_POS_full:VBP_WRB
prev1:findings
with_prev2_full:hours_and
with_prev2_full:bud_while
prev1:AzadC
with_prev1_full:DNAs_for
prev1:crucial
prev2:these
conn:e.g.
with_prev2_full:test_by
prev2:6b
with_prev2_POS_full:-RRB-_TO
prev1:confirmed
with_prev2_full:vivo_while
with_prev1_full:part_due_to
prev1:supershift
with_prev1_full:;_however
prev2:stimulate
prev2:washed
with_prev2_POS_full:WDT_IN
prev2:fibroblasts
prev2:there
with_prev1_full:systems_to
prev1:inhibited
with_prev1_full:hysterectomy_followed_by
with_prev2_full:crosstalk_by
prev2:72
prev2:73
with_prev2_full:other_and
prev2:Briefly
prev2:final
with_prev1_full:experiment_by
prev2:human
with_prev2_full:IRF-4_via
with_prev1_full:h_and
with_prev2_POS_full:CD_CD_NNS_RBR
with_prev1_full:heterozygotes_despite
with_prev2_full:cues_and
with_prev2_full:each_by
with_prev1_full:hours_to
prev2:ice
with_prev1_full:experiments_and
with_prev2_full:counters_and
with_prev2_full:mice_but
with_prev2_full:CML-T1_whereas
with_prev2_full:Notch_by
with_prev2_full:a_before
with_prev2_POS_full:VBD_TO
with_prev2_full:be_whereas
with_prev1_full:reversed_by
conn:Due_to
with_prev1_full:primers_to
with_prev2_POS_full:JJ_CD_NNS_IN
with_prev2_POS_full:JJ_IN_NN
with_prev2_full:T-cells_via
with_prev1_full:and_if
with_prev2_full:T_following
prev1:events
with_prev2_full:promoter_since
with_prev2_full:maximal_four_hours_after
with_prev2_full:microarray_to
with_prev2_full:thymus_well_before
with_prev2_full:increasingly_as
prev2:38
with_prev2_full:°_Four_hours_later
with_prev1_full:branching_through
with_prev1_full:tissue_by
with_prev1_full:breast_two_years_after
with_prev1_full:thermocycling_and
with_prev2_full:16_Thereafter
with_prev2_full:T-cell_by
with_prev2_full:buffer_and
prev2:3A
prev2:deviation
with_prev2_full:of_due_to
prev2:40
prev2:44
with_prev1_full:choice_because
with_prev1_full:niches_in_response_to
prev2:48
with_prev2_full:apoptosis_whereas
prev1:examined
prev2:destruction
prev1:produced
with_prev2_full:T_through
with_prev1_full:mediated_by
prev2:functions
with_prev1_full:processed_for
with_prev1_full:ligand_to
prev2:30
with_prev2_full:developing_before
prev2:mechanism
with_prev1_POS_full:VBG_TO
prev2:36
prev2:19
with_prev2_full:signalling_through
prev2:16
prev2:17
with_prev2_full:be_by
with_prev2_POS_full:NNS_RB_RB_IN
prev1:tasks
conn:Though
prev2:variable
prev1:hours
prev1:phosphorylation
prev2:24
prev2:itself
with_prev2_full:106_and
with_prev2_full:tumours_if
prev2:actins
conn:If..then
with_prev1_full:rescued_by
with_prev2_full:of_if
with_prev2_full:IV_and
prev2:consuming
with_prev1_full:-RRB-_following
with_prev1_full:coordinated_to
prev2:mutated
prev2:analyzed
prev2:defect
prev2:synovium
with_prev2_full:Sigma-Aldrich_in_order_to
prev2:13
prev2:12
with_prev2_full:,_thus
prev2:15
conn:Because_of
with_prev2_full:However_whereas
prev2:10
with_prev2_POS_full:VB_VBG
prev2:thymocytes
with_prev1_POS_full:VBN_CD_CD_NNS_IN
prev2:TGF-β
with_prev1_full:added_following
with_prev1_POS_full:VB_IN_NN_TO
with_prev1_full:stroma_By
with_prev2_full:destruction_and
with_prev1_full:homogenized_by
with_prev1_full:and_also
conn:particularly_since
with_prev2_full:adults_due_to
with_prev1_POS_full:VB_IN
with_prev2_full:antinuclear_and
with_prev2_full:x_and
with_prev2_POS_full:VBN_WRB
prev1:Hypermethylation
prev2:Sigma
with_prev2_full:note_whilst
with_prev1_full:,_by_means_of
with_prev1_POS_full:VB_JJ
with_prev1_full::_In_order_to
with_prev2_POS_full:NN_RB_IN
prev2:differ
with_prev1_full:occurs_when
with_prev2_full:were_after
with_prev1_full:simulations_to
with_prev1_POS_full:NN_IN
with_prev2_full:consistent_in_that
with_prev1_full:tested_by
prev2:statistically
prev1:section
prev2:tonsil
with_prev2_full:-RRB-_not
with_prev1_POS_full:-RRB-_CD_NNS_IN
with_prev2_full:considered_if
with_prev2_POS_full:CD_IN
with_prev1_full:activity_after
with_prev2_full:cells_when
with_prev2_POS_full:IN_IN
prev1:approach
conn:To
with_prev1_full:translocations_by
with_prev2_POS_full:NNP_CC
with_prev1_POS_full:,_IN_RB
prev1:medium
sent_pos:-2
with_prev1_POS_full:RBR_IN
with_prev2_full:profile_while
with_prev2_full:Conclusion_As
prev2:found
with_prev2_full:2_followed_by
with_prev2_full:blood_by
with_prev2_full:epithelium_and
with_prev1_POS_full:VBN_CD_NN_RB
with_prev2_full:in_despite
conn_POS:IN_IN
with_prev1_full:cells_180_seconds_after
with_prev1_POS_full:RB_WRB
prev1:diminished
with_prev2_POS_full:DT_IN
with_prev1_full:h_before
with_prev1_POS_full:VBZ_IN
with_prev2_full:Thus_since
with_prev1_full:times_and
prev2:predictive
with_prev1_full:staining_after
with_prev1_full:,_and
prev1:RNA
with_prev1_full:replication_and
with_prev2_full:results_thus
prev1:analysed
with_prev2_full:flank_whereas
conn:except_that
with_prev2_full:then_for
conn:On
with_prev1_full:that_if
with_prev1_full:marker_for
with_prev2_full:battery_i.e.
with_prev2_full:cell_through
prev2:FCS
prev2:Balb\/c
with_prev2_full:to_in_response_to
with_prev2_full:immune_to
conn_POS:WRB
with_prev2_full:IL-10_because
with_prev1_full:tumours_and
with_prev1_full:-RSB-_because
with_prev1_POS_full:NN_NN
prev2:assayed
with_prev2_full:-RRB-_although
with_prev2_full:probes_to
with_prev1_full:Treg_Although
with_prev2_full:and_thus
with_prev1_full:difficult_to
with_prev2_POS_full:NNS_WRB
with_prev2_full:progenitors_whereas
with_prev2_full:without_and
prev1:antibodies
with_prev2_POS_full:IN_NN
with_prev2_full:mutants_in_contrast_to
prev1:sample
prev1:population
with_prev2_full:TSP-1-null_by
with_prev2_full:c-jun_while
with_prev1_POS_full:VBD_RB_TO
prev2:bud
with_prev1_POS_full:NN_TO
with_prev2_POS_full:NNS_NNP
conn_POS:VBD_IN
with_prev2_POS_full:IN_IN_NN_TO
with_prev2_full:TNF-α_and
with_prev1_full:,_in_order_to
with_prev1_POS_full:,_IN_WDT
prev1:production
prev1:death
with_prev1_full:electronically_and
prev2:responses
with_prev2_POS_full:CD_CC
prev1:unsuccessful
with_prev2_full:invertor_when
with_prev2_full:vivo_since
with_prev1_full:amplification_when
prev2:proliferate
prev1:species
with_prev1_POS_full:-RRB-_RB_TO
with_prev1_full:approach_to
prev1:dangerous
with_prev2_full:TF-dependent_by
with_prev1_full:production_upon
with_prev2_full:score_i.e.
with_prev2_full:Biolabs_and
with_prev1_full:be_due_to
with_prev1_full::_whereas
with_prev2_POS_full:TO_IN_NN_IN
with_prev1_full:,_except
with_prev2_POS_full:NNS_VBN_IN
with_prev1_full:transientlyco-expressed_via
with_prev2_full:apoptosis_thus
with_prev2_full:macrophages_and
with_prev2_full:are_to
conn:until
prev2:dried
with_prev2_full:developing_for
prev1:contact
with_prev1_full:TGF-β_and\/or
with_prev2_full:production_probably_due_to
with_prev1_POS_full:VBN_RB_WRB
prev2:synovial
with_prev2_full:completely_particularly_since
with_prev2_full:chromosomal_by
prev2:exposure
prev1:shown
with_prev2_full:IFN-α_therefore
with_prev2_full:mRNA_to
with_prev2_full:rats_while
prev2:breast
prev1:axis
with_prev1_POS_full:NN_VBD_IN
with_prev2_POS_full:MD_IN
prev2:contralateral
with_prev1_POS_full:,_IN_IN
with_prev1_full:proliferation_as_a_consequence_of
conn:If
with_prev1_POS_full:-LRB-_RB_IN
conn:In
prev1:significant
prev2:polyA
with_prev2_full:responded_by
with_prev1_full:fibrosis_and
prev2:proteins
prev2:recombinant
with_prev2_full:p53_after
with_prev1_full:practice_as
prev2:gene
with_prev2_full:positive_due_to
prev1:amplified
with_prev1_full:that_by
prev1:model
with_prev2_full:and_through
prev2:crucial
prev1_POS:RBR
with_prev2_full:IL-2_upon
with_prev2_full:cDNA_and
prev2:μg
with_prev2_full:identically_except_for
with_prev2_POS_full:IN_TO
prev1:accomplished
prev2:tumours
with_prev1_POS_full:VBZ_WRB
with_prev2_full:ng\/ml_and
with_prev2_full:immunosuppressive_once
with_prev2_full:are_as_a_direct_consequence_of
with_prev1_full:seen_after
with_prev2_POS_full:VBD_IN_JJ_NN_IN
with_prev2_full:gene_to
with_prev1_full:RESULTS_In
with_prev1_full:function_and
with_prev2_full:chose_also
with_prev2_POS_full:NNS_IN_NN_TO
prev2:from
with_prev2_full:magnification_whilst
with_prev2_full:a_to
with_prev2_POS_full:JJ_JJ_TO
with_prev1_POS_full:CD_IN_DT_NN_IN
prev2:-LRB-
with_prev2_full:FCS_and
with_prev1_full:FDCs_by
prev2:reaction
with_prev2_POS_full:DT_CC
prev2:amplification
with_prev2_full:CD69_2_hours_following
with_prev2_full:were_in_large_part_for
with_prev1_full:,_despite
with_prev2_full:been_to
with_prev2_full:be_for
with_prev2_full:can_through
with_prev2_full:respectively_whereas
with_prev2_full:negative_whereas
prev2:buds
with_prev1_full:are_not_due_merely_to
prev2:levels
conn:and\/or
with_prev2_full:changes_as_a_result_of
with_prev2_full:proliferation_with
prev2:positions
with_prev2_full:PB_whereas
with_prev2_full:mice_and
prev2:below
with_prev1_POS_full:VBZ_TO
prev1:practice
prev2:datasets
prev1:JAK
conn_POS:RB_WRB
prev2:methylation
with_prev2_POS_full:VBZ_CC
prev1:difficult
prev1:ensured
with_prev2_full:lines_except
with_prev2_full:oligonucleotides_nor
with_prev2_full:LCR_since
prev2:Results
with_prev2_full:15_to
with_prev2_full:induces_and
with_prev2_full:were_and
with_prev2_full:breast_while
prev1:DNAs
with_prev1_full:protein_to
with_prev2_full:maybe_for
prev1:coordinated
with_prev1_full:apoptosis_when
with_prev2_full:is_upon
conn:prior_to
with_prev1_POS_full:NNS_JJ_TO
with_prev1_full:RNA_when
conn:Because
with_prev2_POS_full:VBD_RB_RB_IN_CD_NN_IN
with_prev2_full:each_and
with_prev2_full:periods_before
with_prev2_full:complex_By
with_prev2_full:symbols_and
with_prev2_POS_full:NN_JJ
with_prev2_full:were_8_12_weeks_after
conn:While
prev1:similarities
with_prev1_full:synovium_following
with_prev1_POS_full:VBP_RB_JJ_RB_TO
with_prev1_full:Results_To
with_prev2_full:suppressing_upon
with_prev1_full:complicated_by_the_fact_that
prev1:PBMC
prev1:proliferation
with_prev2_full:translocations_but
with_prev2_full:T-cell_in_order_to
prev1:numbers\/activity
conn:by
with_prev1_full:occur_by
with_prev2_full:infiltrate_after
with_prev2_full:demonstrate_during
with_prev2_full:Mechanistically_by
with_prev2_full:loops_but
with_prev2_full:apoptosis_and
with_prev1_full:assessed_by
prev1:defined
with_prev1_POS_full:VB_TO
prev1:cause
with_prev1_full:branching_by
prev2:medium
prev2:promote
with_prev1_full:depicted_by
with_prev1_full:cells_once
prev2:response
with_prev2_full:Germany_and
conn:as
with_prev2_full:the_through
with_prev2_POS_full:NNP_JJ_TO
with_prev1_full:nuclei\/ml_and
conn:followed_4_hours_later_by
with_prev2_full:oligonucleotide_to
prev2:Biolabs
with_prev2_full:differ_after
with_prev2_full:surface_and
with_prev1_full:-RRB-_due_to
with_prev1_POS_full:,_JJ_RB_TO
with_prev2_full:regulated_but
prev2:43,44
with_prev2_full:initial_after
with_prev2_full:more_as_a_result_of
prev2_POS:WDT
prev2:been
with_prev1_full:inflammation_following
with_prev1_full:origin_and
with_prev1_full:set_to
conn:such_that
with_prev2_POS_full:CD_TO
with_prev2_full:%_to
with_prev2_full:,_once
with_prev1_full:evaluated_by
with_prev1_POS_full:NN_IN_NN_TO
with_prev2_POS_full:VBZ_IN
prev2:hybridisations
with_prev2_full:cancer_due_to
prev1:used
with_prev1_POS_full:VBD_JJ_TO
with_prev2_full:transition_particularly_to
with_prev2_POS_full:CC_VBN_IN
with_prev2_POS_full:NN_NN
with_prev2_full:-RRB-_since
prev2:positive
with_prev2_full:is_and
with_prev2_full:there_also
with_prev1_full:,_particularly_through
with_prev2_full:Invertor_by
with_prev1_full:calcium_through
prev2:contrast
with_prev2_full:T-cell_upon
conn_POS:CD_NNS_IN
with_prev2_full:p38_followed_by
prev2:dense
conn:rather
with_prev2_POS_full:PRP$_CC
with_prev1_POS_full:NN_CC
with_prev1_full:neurons_by
with_prev2_POS_full:NN_TO
with_prev1_full:differentiation_and
prev1:generated
prev2:flank
prev2:THP-1
prev2:consistently
conn:Despite
with_prev1_full:PBMC_by
with_prev1_full:and_after
prev1:-RRB-
with_prev1_POS_full:RB_TO
prev2:induces
prev1:role
with_prev1_POS_full:RB_CD_NNS_IN
with_prev1_full:upregulation_two_hours_after
conn:Upon
with_prev1_full:hours_and
with_prev1_full:eliminated_when
prev2_POS:EX
with_prev2_full:fibroblasts_and
with_prev1_full:NF-κB_by
prev1:set
prev2:immunosuppressive
with_prev1_full:ability_once
prev1:bound
prev2:against
with_prev1_full:DNase_to
prev1:analysis
prev2:NASBA-QT
with_prev1_full:simulation_to
with_prev2_full:RA_on_the_basis_of
with_prev2_full:against_to
prev2:antinuclear
with_prev1_POS_full:CD_WRB
with_prev2_full:promote_by
with_prev2_full:-_after
prev2:activity
with_prev2_full:production_due_to
with_prev1_full:seen_following
prev1:other
with_prev2_full:vitro_and
prev1:analyzed
with_prev2_full:lateral_by
with_prev2_full:30_followed_by
with_prev2_full:+_and
prev1:heterozygotes
with_prev2_full:cells_since
prev1:SEB
with_prev1_full:constellation_and
prev1:useful
prev2:were
with_prev1_full:receptors_and
prev1:monkeys
with_prev2_POS_full:IN_CC
with_prev1_full:,_due_mainly_to
with_prev2_full:processes_and
with_prev1_full:detected_by
prev1:act
with_prev2_full:samples_then
with_prev1_full:response_by
with_prev2_POS_full:PRP_TO
prev2:significantly
with_prev1_full:KS_by
conn:For
with_prev1_POS_full:NN_IN_NN_IN
with_prev2_full:duct_when
prev1:efficient
with_prev2_full:that_while
with_prev1_full:cluster_to
prev2:factors
conn_POS:IN_WDT
with_prev2_full:TGF-β_because
with_prev2_full:,_to
prev1:manipulated
with_prev1_full:collected_by
prev1:abolished
with_prev2_full:genes_i.e.
prev1:collected
prev1:ice
with_prev1_full:analysed_and
prev1:ligand
with_prev2_full:,_so
prev2:blot
with_prev2_full:proliferation_whereas
prev2:efficiently
conn:180_seconds_after
prev1:regulated
with_prev1_full:disappeared_and
prev2:inflammatory
with_prev1_full:abrogated_by
with_prev2_full:region_Although
with_prev2_POS_full:RBR_IN_NN_TO
prev2:maybe
with_prev2_full:cell_to
with_prev2_full:Sigma_to
with_prev1_full:pathway_following
prev1_POS:-RRB-
with_prev2_full:dried_subsequently
with_prev1_full:clefts_before
with_prev1_full:recombination_to
with_prev1_full:activity_when
prev2:even
with_prev2_full:during_by
prev1:sick
prev1:and
with_prev1_full:transfected_after
with_prev2_full:stages_albeit
with_prev1_full:SEB_by
prev1:required
with_prev2_full:this_in_response_to
with_prev1_full:out_by
with_prev2_full:ST_and
prev2:markers
with_prev2_full:IL-6_by
with_prev2_full:responses_whereas
prev1:assessed
with_prev1_full:suppression_to
with_prev2_full:undetectable_by
prev2:initiate
with_prev2_POS_full:VBZ_TO
prev2:and\/or
with_prev2_full:of_as_a_result_of
with_prev1_full:reaction_and
with_prev2_full:CCR3_by
prev2:signal
prev1:thymidine
with_prev2_full:is_because
with_prev1_full:,_for_instance
prev1:level
with_prev2_full:competed_by
with_prev2_full:Results_In_order_to
with_prev2_full:and_not_due_merely_to
with_prev1_full:,_regardless_of
with_prev1_full:,_both_upon
with_prev1_full:-RRB-_whereas
prev2:PBS
prev2:total
with_prev2_full:cell_after
prev2:ng\/ml
prev2:lymphadenopathy
prev1:apoptosis
prev2:expressed
with_prev1_full:higher_when
with_prev1_POS_full:-RRB-_CC
with_prev2_full:suggesting_although
prev1:DNase
with_prev1_POS_full:-RRB-_JJ_TO
with_prev2_full:thymus_through
prev2:PCR
prev1:filters
prev1:organogenesis
prev1:respond
prev2:possible
with_prev2_full:polyA_in_order_to
with_prev2_full:™_to
with_prev1_full:probe_and
prev2:injection
prev1:augmented
prev1:undisputed
with_prev2_full:statistically_to
with_prev2_full:analyzed_and
with_prev1_full:disease_while
prev2:randomly
with_prev2_full:THP-1_after
with_prev2_full:phase_because
with_prev2_full:mRNA_whereas
prev1:increased
with_prev1_POS_full:JJR_CC
with_prev1_full:studied_by
prev1_POS:JJR
with_prev1_POS_full:RP_TO
with_prev1_full:Hes-1_by
prev2:interferon
with_prev2_full:However_when
with_prev1_POS_full:,_TO
prev1:captured
prev1:niches
prev1:Hes-1
with_prev2_full:IL-17_after
with_prev2_full:external_to
with_prev1_full:,_in_part_via
prev2:initial
with_prev1_full:%_and
with_prev2_POS_full:PRP_IN
with_prev2_full:CA_before
prev2:temperature
with_prev1_full:buffer_to
with_prev2_full:-RRB-_to
with_prev2_full:with_to
conn:although_still
with_prev1_full:evaluated_to
prev2:periods
with_prev2_full:chosen_because
prev2:thymus
prev1:plated
prev2:periductal
with_prev2_full:lineage_because
with_prev1_POS_full:,_VB
prev1:times
with_prev2_full:and\/or_to
conn_POS:VBG_IN
conn:as_a_consequence_of
with_prev2_full:IRF-4_to
with_prev2_full:40_when
prev1:hour
prev1:over-representation
with_prev1_full:wells_and
with_prev1_full:aligned_by
with_prev1_full:,_after
with_prev2_full:symptoms_following
prev2:octamer
with_prev2_full:,_as_a_result_of
with_prev1_full:ancrod_prior_to
with_prev2_full:synovial_through
prev2:HLA-DR-APC
with_prev2_full:during_for
prev2:test
with_prev2_full:SEB_by
prev1:depicted
with_prev1_full:and_when
with_prev1_full:verified_by
with_prev1_full:triggered_by
with_prev1_full:phosphorylated_upon
with_prev2_POS_full:NN_CC
with_prev2_full:time_and
with_prev2_full:was_following
prev2:testosterone
with_prev2_full:primer_and
prev2:vaccine
with_prev2_full:their_and
with_prev2_full:was_while
with_prev2_full:occurred_in_addition_to
prev1:signal
with_prev2_POS_full:NNP_CD_NNS_IN
with_prev2_full:interval_by
prev2:others
prev2:prevent
prev2:less
with_prev2_full:°_Following
with_prev2_full:,_if
with_prev1_full:elicitation_to
with_prev2_full:haematopoietic_and
with_prev1_full:CCR3_unless
prev1:quantified
with_prev2_full:less_following
with_prev1_full:Smad2\/3_to
prev2:Ews
with_prev2_POS_full:NNP_DT_IN
with_prev2_full:subsets_since
with_prev2_full:RNA_because
with_prev1_full:role_for
with_prev2_full:,_through
with_prev2_full:overnight_then
with_prev2_full:were_but
with_prev2_full:1_prior_to
with_prev2_full:p-value_since
with_prev1_POS_full:VBG_IN_DT_NN_IN
prev1:dependent
with_prev1_full:treated_while
with_prev2_full:Moreover_as
with_prev2_full:was_for
with_prev2_full:Oct1_when
prev1:downregulated
with_prev1_full:%_when
with_prev2_full:CHOP_by
with_prev1_POS_full:JJ_CC
prev2:uracil
prev2:rapidly
with_prev1_full:-LRB-_via
with_prev2_full:fixed_and
with_prev1_full:1997_as_a_result_of
prev2:medulla
with_prev2_full:tissues_by
with_prev1_full:offspring_and
with_prev2_full:IgM-IC_since
with_prev2_full:inhibits_through
prev2:blood
with_prev2_full:sample_and
with_prev1_full:produced_in_response_to
with_prev2_full:during_when
with_prev1_full:,_mainly_by
prev1:pathway
with_prev2_full:pre-incubation_prior_to
with_prev1_full:samples_by
with_prev1_full:appealing_because
with_prev2_POS_full:-RRB-_IN_NN_TO
with_prev2_full:population_while
prev1:NF-κB
with_prev1_full:collected_for
with_prev2_POS_full:IN_JJ_TO
with_prev2_full:which_after
with_prev1_full:and_thereby
conn:Since
with_prev2_POS_full:IN_IN_DT_NN_IN
with_prev1_full:monkeys_if
with_prev2_full:modulated_upon
conn:Four_hours_later
with_prev1_POS_full:JJ_CD_NNS_IN
with_prev2_full:been_except_for
with_prev2_full:detected_whereas
with_prev2_POS_full:NN_IN
prev1:feasible
with_prev2_full:neurons_via
with_prev2_full:cancer_because
prev1:injection
prev2:also
with_prev2_full:is_when
with_prev1_full:that_during
prev1:BMP-6
with_prev1_full:permeabilized_prior_to
with_prev1_full:unresponsiveness_by
with_prev2_full:100_to
prev2:reportedly
prev2:BRCA1
with_prev2_full:Briefly_following
prev1:NaOH
with_prev1_POS_full:NNS_IN_NNS_IN
prev2:production
with_prev1_full:activation_by
with_prev2_full:hour_prior_to
conn:In_an_effort_to
with_prev1_POS_full:,_IN
prev2:counters
with_prev1_full:sufficient_to
prev1:completely
with_prev1_full:,_if
prev1:appear
with_prev1_full:stochastically_after
with_prev1_full:performed_by
with_prev2_full:steel_and
with_prev2_POS_full:NNP_TO
conn:By
with_prev2_full:translocations_by
prev2:testosterone-treated
prev2:C-dependent
with_prev2_full:suggests_although
with_prev2_full:awaited_for_example
prev1:clustering
with_prev1_POS_full:,_JJ
with_prev2_full:,_by
with_prev2_full:osteoarthritis_but
conn:In_order_for
with_prev1_full:and_in_turn
with_prev1_full:in_for_example
with_prev1_full:dictated_by
with_prev2_full:during_to
with_prev2_full:effects_since
prev2:LY294002
prev2:seconds
with_prev2_full:question_but
with_prev1_POS_full:-RRB-_TO
with_prev1_POS_full:RP_IN
with_prev2_full:might_due_to
with_prev1_full:increased_when
with_prev2_full:addition_to
with_prev2_full:seconds_then
with_prev1_full:,_with
prev1:responsiveness
with_prev1_full:depleted_by
with_prev1_full:occur_in_response_to
with_prev1_full:responsible_for
prev2:speed
with_prev1_POS_full:IN_WRB
with_prev2_full:°_to
with_prev2_full:lymphadenopathy_and
prev1:function
prev1:diagnosed
prev2:target
with_prev2_full:and_then
with_prev1_full:1994_when
with_prev1_full:antibodies_and
with_prev1_full:constructed_by
with_prev2_full:internal_for
with_prev1_full:phospho-p38_upon
with_prev1_full:-RRB-_and
with_prev1_POS_full:-RRB-_RB
with_prev2_POS_full:NN_RB_TO
prev2:CML-T1
with_prev2_full:CD4_after
prev1:wells
with_prev1_full:loop_to
prev1:p56lck
prev2:homologous
with_prev2_POS_full:NNS_JJ_TO
prev2:Biosciences
with_prev1_full:cells_by_means_of
with_prev1_full:quantitatively_by
with_prev2_full:reportedly_since
with_prev1_POS_full:NNS_IN_NN_TO
with_prev1_full:-LRB-_specifically
prev2:symptoms
prev2:transition
prev1:permeabilized
with_prev2_full:-RRB-_by
with_prev1_POS_full:JJ_IN
with_prev2_full:the_after
with_prev2_full:responses_mainly_by
with_prev1_full:vivo_albeit
with_prev1_full:mRNA_after
with_prev1_POS_full:JJ_JJ
with_prev1_POS_full:,_RB_RB_IN
with_prev1_full:,_or
with_prev2_POS_full:NN_PDT_DT
prev2:regions
with_prev2_full:above_then
with_prev1_full:cassette_after
with_prev2_full:itself_as
with_prev1_POS_full:IN_IN
prev2:function
with_prev2_full:IFN-γ_because
prev1:cluster
prev2:induce
with_prev2_full:prepared_and
prev2:annealed
with_prev1_full:AzadC_to
with_prev2_full:arthritis_and
with_prev2_full:,_after
with_prev2_full:Rag1_to
with_prev2_full:identified_such_that
with_prev2_full:47,48_and
with_prev1_full:quantified_by
with_prev1_full:stroma_and
prev2:each
prev2:evaluated
prev1:complicatedly
with_prev2_full:s_to
with_prev2_full:thymoma_for
with_prev2_full:are_by
with_prev2_full:rapidly_following
with_prev2_full:,_rather
with_prev2_POS_full:,_IN_DT_NN_IN
prev1:measured
with_prev1_full:function_in_order_to
with_prev2_full:,_when
with_prev1_full:expression_2_hours_following
with_prev1_POS_full:VBN_RB_RB_IN_CD_NN_IN
with_prev2_full:branching_and
prev1:exemplified
prev2:might
prev2:implanted
prev2_POS:''
with_prev1_full:cells_after
prev2:disease
with_prev1_POS_full:VBZ_RB_JJ_TO
with_prev2_full:integration-site_and
prev2:stringency
prev2:mechanisms
prev2:pre-incubation
prev2:screening
prev1:ultrasound
prev2:developed
with_prev1_POS_full:VBZ_VBN_IN
prev1:down-regulation
with_prev1_full:,_to
with_prev2_full:Perfenidone_however
with_prev2_full:the_when
conn:Not
prev2:However
with_prev2_POS_full:IN_DT_IN_NN_TO
with_prev1_full:possible_if
prev2:ethanol
with_prev2_full:predictive_to
with_prev1_POS_full:JJ_NN
prev2_POS:VBN
with_prev2_POS_full:DT_TO
prev2:did
with_prev1_full:,_so
prev1:responses
with_prev2_full:48_before
prev2:the
conn_POS:VBD_CD_NNS_RB_IN
with_prev1_POS_full:-RRB-_IN
prev2:completely
with_prev2_full:pre-TCR_to
with_prev1_POS_full::_IN_NN_TO
conn:two_hours_before
with_prev2_full:vivo_because
with_prev2_full:AA_and
with_prev1_full:while_also
with_prev2_full:transversion_whereas
prev2:lymphomas
with_prev2_full:motif_to
with_prev1_full:h._For
prev1:Abstract
prev2:Thus
with_prev2_full:per_and
prev2:unknown
with_prev1_full:;_and
with_prev1_full:stroma_by
with_prev1_full:signals_to
prev2:chosen
with_prev1_POS_full:JJ_TO
with_prev1_full:augmented_only_when
with_prev2_full:ice_then
prev2:lineage
with_prev2_POS_full:NNP_IN
prev1:phenotype
with_prev1_POS_full:IN_RB
with_prev2_full:SEB_while
with_prev1_POS_full:CC_IN_DT_NN_IN
with_prev2_full:mutated_then
prev1:euthanized
with_prev2_full:consuming_also
with_prev1_full:extent_because
with_prev1_full:trials_in_order_to
with_prev1_POS_full:JJR_IN
with_prev2_full:PI3K_by
with_prev1_full:-RRB-_while
prev2:CD4-associated
with_prev2_POS_full:VBD_CD_CD_NNS_IN
with_prev1_full:made_by
with_prev1_POS_full:JJ_WRB
with_prev2_POS_full:NNP_VBD_IN
with_prev2_POS_full:TO_IN_NN_TO
with_prev2_full:these_to
with_prev1_full:silenced_by
with_prev1_full:JAK_by
prev1:sufficient
prev2:identified
with_prev1_POS_full:VBN_CD_NN_IN
prev1:tolerance
prev1:ends
with_prev1_POS_full:PRP_RB
prev2:complex
prev2:tissue
prev1_POS:,
with_prev2_POS_full:JJ_RB
prev1:can
with_prev1_POS_full:NNS_RB
conn:for_example
with_prev1_POS_full:MD_RB
prev2:GSK3β
prev2_POS:RB
prev2_POS:VB
prev2_POS:IN
prev2:RNA
prev2_POS:JJ
prev2_POS:MD
prev2:stages
prev2_POS:NN
prev1_POS:PRP
prev2:note
prev2:cells
prev2:lines
prev1:studies
with_prev2_POS_full:,_RB
with_prev1_full:,_however
prev2:IL-17
prev1:tumours
prev2:IL-10
prev1:observed
with_prev2_POS_full:RB_RB
with_prev2_POS_full:CC_RB
with_prev2_POS_full:NNS_IN_NN
prev1:activation
with_prev2_POS_full:,_IN_NN
with_prev1_full:were_thus
prev1_POS:VBZ
prev2:-RRB-
prev2:then
prev2:PI3K
prev1:not
prev2:patient
prev1_POS:NN
with_prev1_full:was_then
prev1:is
prev1:it
prev1_POS:MD
prev1:assay
prev1:cells
conn:nevertheless
sent_pos:1
sent_pos:2
with_prev2_full:,_subsequently
sent_pos:0
prev1:was
with_prev2_POS_full:VBP_RB
prev2:demonstrate
prev2:tissues
prev2:branching
conn_POS:CC
prev1_POS:VBN
prev1_POS:VBP
prev1_POS:VBD
with_prev2_full:,_specifically
prev1:mice
prev1_POS:WDT
conn:In_addition
prev2:STAT3
with_prev1_POS_full:VBD_RB
prev2:be
with_prev2_full:-RRB-_then
conn_POS:JJ
conn_POS:IN
prev1:may
with_prev2_POS_full:NNS_RB
prev2:protein
prev1_POS:NNP
prev1_POS:NNS
conn:then
conn:while
conn_POS:RB
prev1:Treg
prev2:was
prev1_POS:RB
with_prev1_full:,_for_example
conn:subsequently
conn:thus
prev2:is
prev1:obtained
prev2:of
prev1:which
with_prev1_full:,_finally
prev1:protein
conn:however
prev2:defects
prev2_POS:PRP$
with_prev2_POS_full:VBD_RB
prev2:B
prev2:T
prev2:-
prev2:,
prev2:+
prev2_POS:PRP
conn:therefore
prev2_POS:,
prev2_POS::
prev2:DC
with_prev1_POS_full:WDT_RB
with_prev1_full:may_thus
prev1:,
prev2:mice
with_prev2_full:cells_thus
with_prev1_full:,_then
prev1:formation
prev2:TECs
with_prev2_full:cells_however
prev2:and
prev2:results
with_prev2_full:and_also
with_prev1_POS_full:VBP_JJ
prev2:filter
with_prev1_full:are_also
prev1:mRNA
with_prev2_POS_full:-RRB-_JJ
prev1:might
with_prev1_POS_full:VBP_RB
conn:in_turn
prev2:cancer
with_prev2_POS_full:-RRB-_RB
prev2:analysis
with_prev1_full:were_then
with_prev1_full:,_in_turn
conn:next
sent_pos:-3
prev2:may
prev1:study
prev2:genes
conn:and
prev1:were
prev2_POS:-RRB-
prev2:assay
with_prev1_POS_full:,_IN_NN
with_prev1_POS_full:NN_RB
conn_POS:IN_RB
with_prev1_full:is_also
prev2_POS:NNP
conn_POS:IN_NN
prev2_POS:NNS
with_prev1_POS_full:VBZ_RB
with_prev1_full:are_therefore
with_prev2_POS_full:CD_RB
with_prev2_POS_full:NN_RB
prev2_POS:CC
prev2_POS:CD
prev2_POS:DT
prev2:can
with_prev2_POS_full:PRP_RB
conn:specifically
with_prev2_full:,_therefore
prev2:invertor
conn:but
prev1:are
prev2:binding
conn:also
prev2:sample
prev2_POS:VBZ
conn:As
with_prev2_POS_full:NNP_RB
with_prev2_full:,_also
conn:finally
with_prev1_POS_full:,_RB
prev2:pathway
prev2_POS:VBD
prev2_POS:VBG
prev2_POS:VBP
prev2:cell
with_prev2_full:cell_then
with_prev2_full:assays_also
with_prev2_full:complex_also
with_prev2_full:membranes_then
with_prev1_full:We_also
prev2:The
with_prev1_full:she_subsequently
prev1:results
with_prev2_full:mAbs_then
with_prev2_full:RNA_then
with_prev1_full:They_also
with_prev2_full:sample_then
with_prev2_POS_full:NNP_IN_NN
with_prev2_full:Id1_also
with_prev2_full:demonstrate_however
with_prev2_full:patient_then
with_prev2_full:important_therefore
with_prev2_full:These_also
conn:By_contrast
with_prev1_full:RA_also
with_prev2_full:B_also
with_prev1_full:data_however
with_prev2_full:lines_further
with_prev2_full:The_also
with_prev1_full:assay_also
with_prev2_full:stroma_also
with_prev1_full:observed_instead
with_prev2_full:note_however
with_prev1_full:was_also
with_prev2_full:extract_also
prev1:solution
with_prev2_full:,_for_example
prev1:polypeptides
with_prev1_full:has_also
conn:Alternatively
conn:Third
with_prev2_full:It_also
with_prev2_full:Epithelial_also
conn_POS:IN_DT_JJ_NN
conn:Furthermore
prev2:Our
conn:Moreover
with_prev2_full:interphase_then
with_prev1_POS_full:VBD_RBR
with_prev2_full:branching_therefore
with_prev2_full:genes_also
with_prev1_full:were_in_fact
prev2:Epithelial
prev2:types
with_prev1_full:It_also
with_prev2_full:TF_also
with_prev2_full:transduction_also
with_prev1_full:Smads_then
with_prev2_full:assay_then
conn:In_conclusion
with_prev2_POS_full:NNS_RBR
with_prev1_full:are_further
prev2:current
prev1:FK506
conn:hereafter
with_prev1_full:,_in_fact
conn:In_summary
prev1:mutants
with_prev1_POS_full:NN_RBR
with_prev2_full:types_therefore
prev1:have
with_prev2_full:models_in_fact
with_prev2_full:events_also
with_prev1_full:colleagues_also
conn:Next
with_prev1_full:must_therefore
with_prev1_full:have_also
with_prev2_full:LiCl_indeed
conn:Thus
conn:Additionally
with_prev2_full:complexes_then
with_prev2_full:-_then
prev1:must
with_prev1_full:transition_therefore
with_prev2_full:cells_therefore
with_prev1_full:FK506_also
prev1:LY294002
with_prev2_full:+_also
with_prev2_full:be_however
with_prev2_full:CD21_however
prev2:Splenocytes
with_prev2_full:complements_also
with_prev1_full:which_also
with_prev1_full:not_therefore
conn:Nevertheless
prev2:lysates
prev2:SOCS3
with_prev2_full:join_also
with_prev1_full:we_therefore
prev2:recently
with_prev1_full:we_specifically
with_prev1_full:mRNA_also
conn:indeed
with_prev1_full:IL-15_also
conn:On_the_other_hand
with_prev1_full:E2_therefore
conn:Then
with_prev1_full:W3\/25_therefore
with_prev1_full:interaction_thus
with_prev2_full:mammals_for_example
prev1:data
prev2:complements
prev2:important
conn_POS:IN_DT_JJ
with_prev1_full:This_in_turn
prev2:expression
with_prev2_full:current_further
with_prev1_full:analyses_hereafter
with_prev2_full:LAMA-84_also
prev1_POS:DT
with_prev2_full:IL-10_therefore
with_prev1_POS_full:VBD_IN_NN
conn_POS:IN_DT_NN
prev1:transition
prev2:they
prev2:Id1
prev1:IL-15
prev2:predictions
conn:In_outline
with_prev1_full:is_therefore
conn:In_short
prev2:parathyroid-hormone-related
conn:Further
conn:Notably
prev1:will
with_prev1_full:activation_therefore
with_prev2_full:starts_therefore
prev2:SPI
with_prev1_POS_full:VBN_RB
with_prev1_full:not_however
conn:thereafter
with_prev2_full:We_also
with_prev2_full:was_however
prev2:Proliferation
conn:Accordingly
with_prev2_full:predictions_for_example
with_prev1_full:it_also
prev2:These
conn:In_particular
prev2:pairs
prev1:Notch
prev2:complexes
conn:Still
with_prev1_full:may_therefore
prev1:noted
with_prev2_full:IL-17_also
prev2:inhibitor
conn:in_fact
prev1:interaction
prev1:we
with_prev2_full:rearrangements_therefore
conn:For_example
with_prev2_full:binding_also
prev2:techniques
with_prev2_full:invertor_thus
conn:In_fact
conn:Also
with_prev2_full:TECs_also
with_prev1_full:does_indeed
with_prev2_full:tissues_however
prev2:mammography
prev1:It
with_prev1_full:noted_however
with_prev2_full:TF_in_turn
with_prev2_full:expression_then
with_prev1_full:formation_also
conn_POS:LS
with_prev1_POS_full:NNP_RB
conn:Similarly
prev2:All
with_prev2_full:All_hereafter
prev2:data
conn:Therefore
with_prev2_full:PI3K_also
with_prev1_full:may_also
with_prev2_full:is_in_fact
prev1:E2
with_prev1_full:can_also
conn_POS:UH
with_prev2_full:SPI_also
prev1:RA
prev2:parameters
conn_POS:RBR
prev2:assays
prev1:would
with_prev2_full:-_also
with_prev2_full:appearance_also
with_prev1_full:were_thereafter
prev2:sites
with_prev2_full:Cells_then
with_prev2_POS_full::_RB
with_prev1_full:tumours_also
conn:But
conn:However
with_prev2_full:Blots_then
with_prev2_full:This_also
conn:Specifically
prev1:We
prev1:W3\/25
with_prev1_full:could_therefore
conn:As_an_example
with_prev1_full:This_then
with_prev2_full:B_subsequently
with_prev1_full:was_further
with_prev1_full:protein_then
with_prev1_full:is_for_example
with_prev1_full:Treg_also
with_prev2_full:recently_also
prev2:CD21
with_prev2_full:cells_then
with_prev2_full:BMP-2_also
with_prev2_full:DC_then
with_prev2_full:study_therefore
prev2:interphase
with_prev1_full:was_therefore
prev2:spots
with_prev1_full:cells_also
with_prev2_full:then_also
prev2:B6
with_prev2_full:surnatants_thereafter
with_prev2_full:Our_however
conn:Conversely
with_prev2_full:GSK3β_also
with_prev1_full:cells_subsequently
prev2:study
with_prev2_full:of_also
prev2:BMP-2
conn:Consequently
conn:further
with_prev1_full:studies_also
prev2:It
prev2:mAbs
prev2:stroma
prev2:We
prev2:induction
with_prev2_full:cells_also
prev1:Smads
conn:Indeed
with_prev2_full:filter_then
prev2:TF
with_prev1_POS_full:DT_RB
with_prev1_full:polypeptides_also
with_prev2_full:data_therefore
with_prev2_full:It_therefore
with_prev1_full:study_further
with_prev2_full:inhibitor_however
with_prev1_full:obtained_also
with_prev2_full:STAT3_therefore
with_prev1_full:mutants_also
conn:As_a_result
with_prev2_full:cancer_however
with_prev2_full:genes_therefore
with_prev1_full:We_then
prev2:development
with_prev2_full:T_also
prev2:membranes
with_prev2_POS_full:VBZ_IN_NN
with_prev2_full:stages_therefore
with_prev2_full:sites_nevertheless
with_prev1_full:technique_also
with_prev2_POS_full:PRP$_RB
prev1:does
with_prev2_full:It_thus
with_prev1_full:It_therefore
with_prev1_full:,_also
prev1:should
with_prev2_full:tissue_then
with_prev1_full:might_nevertheless
with_prev1_full:is_thus
conn:instead
prev2:.1
with_prev2_full:pairs_also
with_prev2_POS_full:VB_RB
with_prev2_full:protein_therefore
prev2:join
with_prev1_full:does_in_fact
with_prev1_full:We_thus
with_prev1_full:results_also
with_prev1_full:were_finally
with_prev1_full:mice_thus
prev1:has
with_prev2_full:SOCS3_thus
with_prev1_full:We_therefore
prev2:peptides
prev2:OX35
with_prev2_full:arthritides_therefore
with_prev2_full:Gels_then
conn:Subsequently
with_prev2_full:-RRB-_further
prev2:mammals
prev2:clusters
with_prev1_full:will_therefore
with_prev2_full:mice_in_fact
with_prev2_POS_full:JJ_RBR
with_prev2_full:pathway_thus
with_prev1_full:has_however
conn:So
conn_POS:IN_JJ
with_prev2_POS_full:MD_RB
with_prev2_full:they_instead
prev2:slides
with_prev2_full:can_however
with_prev2_full:techniques_therefore
prev1:analyses
conn:In_brief
with_prev1_full:LY294002_also
conn:Since_then
prev1:could
conn:In_general
prev2:Cells
conn:similarly
with_prev2_POS_full:IN_RB
with_prev2_full:development_then
prev2:transduction
with_prev2_full:parameters_however
with_prev2_full:Nuclei_then
with_prev2_full:.1_also
prev1:colleagues
with_prev2_full:mammography_however
prev2:LAMA-84
with_prev2_full:B6_also
with_prev2_full:BMP-family_also
with_prev1_full:We_next
prev1:include
prev1:technique
with_prev1_POS_full:RB_RB
prev2:arthritides
with_prev2_full:may_therefore
with_prev2_full:scores_then
with_prev2_full:mAb_therefore
prev1:They
with_prev1_full:were_also
prev2:events
with_prev2_full:Splenocytes_then
conn:Nonetheless
with_prev2_full:It_however
prev1:she
with_prev1_full:data_also
conn:As_a_consequence
conn:Finally
with_prev1_full:mice_also
prev2:surnatants
prev2:Blots
with_prev2_full:OX35_however
with_prev2_POS_full:VBG_RB
with_prev1_full:would_also
with_prev1_full:we_also
with_prev2_full:defects_also
with_prev1_POS_full:VBP_IN_NN
with_prev1_full:solution_also
with_prev2_full:lysates_then
with_prev1_full:should_however
with_prev1_full:may_similarly
conn:Briefly
prev2:mAb
prev1:This
prev2:scores
with_prev1_full:Notch_also
prev2:This
with_prev2_full:Proliferation_also
prev2:extract
with_prev1_POS_full:DT_IN_NN
prev2:starts
with_prev2_full:spots_then
with_prev2_full:Mice_then
with_prev2_full:clusters_finally
with_prev1_POS_full:VBZ_IN_NN
conn:In_contrast
prev2:models
prev2:rearrangements
with_prev2_full:parathyroid-hormone-related_then
conn:On_the_contrary
conn:Second
prev2:Mice
prev2:Nuclei
conn:In_turn
with_prev2_full:slides_then
with_prev2_full:induction_also
prev2:appearance
conn:Instead
with_prev2_full:results_then
with_prev2_full:peptides_also
prev2:LiCl
prev2:Gels
with_prev2_full:analysis_similarly
prev2:BMP-family
with_prev2_POS_full:DT_RB
with_prev1_full:include_for_example
0.07791580665184854
0.7232293144898578
0.10175604410806802
0.13782766814323869
0.11842928139770173
0.6169256616302569
0.1188329449924565
0.11742416249051373
0.0976729836360961
0.25967623783765575
0.10769118430529177
0.11227921069962352
0.4960642669780939
0.11697919952127138
0.2417550922421166
0.18905592994030584
0.0948308060568722
0.35559955170252017
0.21621342120478226
0.2449049200353041
0.2901419008953061
0.3832725069084004
0.09822312122107091
0.8229022449151837
0.12656879671514248
0.2449049200353041
0.09451598538328256
0.3415142228838571
0.2417550922421166
0.18071655274031562
0.2536762345125395
0.15117493823469766
0.09800498644838591
0.22252926665499845
0.08970209362205134
0.09128509344426153
0.4109583941792019
0.22770022397747494
0.08413688958202689
0.29874178784034483
0.1115427486793784
0.4073204647585149
0.19423053457100553
0.09452434110210874
0.0946033893275036
0.10966015129619769
0.34014400249154236
0.15460200175987848
0.13053929693378383
0.09711861339932785
0.13813972432201707
0.24439092452244326
0.23716763573187072
0.11235715754574133
0.23905051354260176
0.3066056616144132
0.24570676448535989
0.10854947527169007
0.22249401033867638
0.08679431499313146
0.2618124013839678
1.0770223484904804
0.2137765824378593
0.11516459668020607
0.08684356882570038
0.473515778152422
0.10587299612515638
0.6346343830626215
0.5455319237278204
0.24081933003106878
0.224924091787009
0.08687216629819804
0.22614195007005172
0.6219991646261045
0.10783510135328925
0.4739133454564588
0.10787307525687223
0.08688277049610879
0.11275047066235125
0.10856184130441623
0.10597922037308827
0.12396234699210316
0.4662707885627776
0.1898507477685726
0.4676608299097129
0.10038500387141493
0.2506035582247009
0.19015754069017335
0.11214311698277767
0.2052818728348177
0.19015754069017335
0.457798479540109
0.10638467680525403
0.1855983488436731
0.1661684422885185
0.12343209363922751
0.07791580665184852
0.3282032957289347
0.366159889764832
0.23637400320119417
0.12368225733295873
0.09694901454955562
0.2418201116203332
0.13875101694015668
0.12720391744572235
0.09814424394801274
0.10039791639054103
0.2509822859942632
0.09485227578181153
0.1265582642975983
0.2996232219996938
0.09200683985549352
0.0948308060568722
0.1855983488436731
0.10500938025389693
0.1284494215223098
0.26408342576345617
0.09814424394801274
0.4349551154858015
0.09702630773810567
0.10766648398456118
0.13209305122965162
0.09001496499797017
0.11392987757566722
0.23388923032028083
0.09176580627000291
0.10487318462220796
0.09742246490579226
0.4831056348500924
0.12354001596564039
0.11392987757566722
0.09249293428877746
1.3192063413271307
0.11773500668728916
0.11338946867903295
0.09438192756056393
0.10510564598568373
0.3282032957289347
0.12586989256873424
0.27171462854640416
0.2534429008277813
0.2052818728348177
0.45308994452442625
0.35251457956423676
0.5982147730492007
0.10007132938190678
0.12354001596564039
0.11277436071835065
1.9744611334808013
0.25035895762390314
0.2154189671881912
0.14690933097334363
0.22779719415054991
0.11210319518496409
0.23369679281523592
0.12386317614879945
0.13053929693378383
0.44759441036794445
0.29035082270438906
0.11119554555734319
0.31768519837706155
0.366159889764832
0.09017768914178077
0.09257199723642122
0.1932026536374733
0.09904280727113213
0.15029400297267284
0.09743192447700921
0.10166820828590818
0.15068559742191617
0.13057790627685664
0.3612780996599484
0.1433254844347876
0.11737563206089353
0.3614014864068909
0.09560077526646132
0.30923959397768414
0.10343938342022606
0.19239578201224528
0.10861061204239154
0.10861061204239154
0.10787307525687223
0.1554162791797165
0.11797803503318269
0.1117763278599643
0.1898507477685726
0.10662559319750019
0.19648586622102773
0.0947778150401042
0.20619783241056902
0.09427800533293845
0.13555217030485442
0.0998064589500892
0.103563163291223
0.48511573028828275
0.09560074861701041
0.6360456855497357
0.3609728409827648
0.10332282438805868
0.13161358507039703
0.5455319237278204
0.30607216298829815
0.20244484742102756
0.13782766814323869
0.29438217133628747
0.41431517405604557
0.09746077824120085
0.10787307525687223
0.2089543559356266
0.07778611548335028
0.08187762068449349
0.2449049200353041
0.7401554372646856
0.11074169837953683
0.11314192794003125
0.08661716881726904
0.23943028535251923
0.6602191755763002
0.09445880435731134
0.10493477356559038
0.10062704531929895
0.11140323576956787
0.1683925751154718
0.09655592352297775
0.1268664143432608
0.8347561447495182
0.08624478528117674
0.491230598779802
0.28237834776847787
1.4461393608516624
0.7197030577351613
0.09845869624769375
0.8669651711781907
0.09644226941455493
0.5455319237278204
0.15017643764380548
0.11936776069931039
0.14489871256881598
0.40203751485405403
0.5982147730492007
0.14239847246787515
0.15618103730410082
0.131613585070397
0.1572808082076225
0.10861061204239153
0.2811787153486269
0.10003698299103247
0.08622585941399662
0.18268313095992833
0.12578940704625038
0.31773853628798915
0.10769118430529177
0.12343209363922751
0.17338489843164262
0.09560032836817893
0.7181452352002321
0.07998445232955244
0.11786372238878703
0.872300971888098
0.10754527615197576
0.09796120461513773
0.09974735543141522
0.10130943194334421
0.31768519837706155
0.09798676760038963
0.19993371426107714
0.47937572100602016
0.10044811578652817
0.12508085075062944
0.51647546678022
0.11459478447434077
0.11799025724237452
0.4364853105056373
0.1123010724295938
0.8228603807552121
0.5739397899707368
0.18329188946913527
0.11275047066235125
0.09729002796947084
0.3044298500915436
0.4831056348500924
0.09332091319943742
0.2444630012695368
0.4364853105056373
0.1307091436011085
0.22082927362136076
0.13097229603647606
0.09150774865795047
0.14932883305308464
0.22272712126434108
0.10038500387141493
0.08560636764376672
0.4117393209440534
0.34014400249154236
0.10420984556055847
0.18783989335283152
0.7273584799318428
0.23878495101732897
0.11016629428819075
0.09482242630464198
0.1480524806727162
0.22249401033867638
0.3058809581368728
0.13341105524638064
0.09822312122107091
0.47259651603514874
0.4905314988025205
0.20139784088566817
0.09961244633630553
0.11855246114362458
0.15460200175987848
0.22097426619979263
0.14484632932456773
0.3175781457687878
0.0957344818177408
0.21153785758698979
0.10539078264449829
0.12368225733295873
0.2778358575610437
0.11176016019288952
0.11015097072416055
0.09655592352297775
0.10861061204239154
0.6386490884168055
0.46066763858857207
0.7844814615360667
0.9638520213352353
0.22927677487212206
0.11185347962466617
0.22020483271643512
0.15460200175987848
0.3535542907220695
0.15609705692829412
0.1356191060023252
0.14033980929443177
0.29275436555112944
0.26470395660463447
0.07791580665184854
0.10487318462220796
0.4893721892823941
0.2052818728348177
0.10456278225064865
0.20549762609550004
0.3264273207926611
0.17651267245577001
0.18783989335283152
0.20885479566602516
0.18547865351997328
0.4073204647585149
0.2915121932889308
0.8347561447495182
0.20275840820308674
0.14853473785928412
0.13053929693378383
0.2536762345125395
0.10790740802973978
0.0779158066518483
0.25106619995899215
0.0944895622143353
0.19993371426107714
0.09974735543141522
0.22082927362136076
0.14542459138080074
1.2326331520930132
0.4751995108307553
0.1187794376218053
0.13813972432201707
0.11797803503318269
0.1265582642975983
0.4751995108307553
