GIS
1
0.0
16
Purpose
Circumstance
Temporal
Concession
Contrast
Conjunction
Restatement
Continuation
Cause
Alternative
Instantiation
Exception
Condition
Reinforcement
Background
Similarity
53
333 0
2 0 1
1 0 1 2 3 4 5 6 8 9 11 12 14
1 0 1 2 4 5 8
1 0 2 3 4 5 7 8 9
1 0 2 3 8 12
3 0 2 5 7 8
5 0 2 8
1 0 4 6 10
1 0 4 8
3 0 8
5 1
63 1 2
1 1 2 3 4 5 6 8 9 12 13 14 15
4 1 2 8
6 1 2 12
2 1 3 4 14
4 1 12
2 1 13
215 2
3 2 3 4 5
1 2 3 8
1 2 4 5 6 8 10 13
1 2 4 6
50 2 5
1 2 5 6
1 2 5 7
3 2 5 8
1 2 5 9
3 2 6
7 2 8
3 2 8 14
4 2 12
51 3
15 3 4
33 4
1 4 8 10
124 5
1 5 7
5 5 8
40 6
4 6 8
5 6 8 14
5 7
160 8
1 8 11
5 8 14
50 9
16 10
11 11
20 12
9 13
4 15
1293
with_prev_full:branching_through
with_prev_full:responsible_for
with_prev_full:processed_for
with_prev_full:functions_by
conn:particularly_through
conn:for
with_prev_full:aligned_by
with_prev_full:results_in
with_prev_full:-rrb-_in_order_to
with_prev_full:trials_in_order_to
with_prev_full:collected_for
with_prev_full:drawn_by
with_prev_full:reference_for
with_prev_full:,_in_order_to
with_prev_full:for_by
conn_lc:in_part_via
with_prev_full:t-cells_both_in_response_to
with_prev_full:disease_by
with_prev_full:androgens_by
conn:To
with_prev_full:inhibited_by
with_prev_full:digested_by
with_prev_full:site_for
with_prev_full:resorption_by
with_prev_full:function_by
with_prev_full:required_to
with_prev_full:act_through
with_prev_full:supported_to
conn:both_in_response_to
with_prev_full:gene_through
with_prev_full:smad2\/3_to
with_prev_full:affected_by
with_prev_full:inhibition_by
with_prev_full:ks_by
with_prev_full:calcium_through
with_prev_full:pathway_through
with_prev_full:formed_by
with_prev_full:agarose_to
with_prev_full:elongating_by
with_prev_full:phenotypes_by
with_prev_full:phenotype_by
with_prev_full:footnote_for
conn_lc:for
with_prev_full:produced_by
with_prev_full:inverted_by
conn:specifically_to
with_prev_full:amplification_for
with_prev_full:shut-off_by
with_prev_full:signal_through
with_prev_full:signals_to
with_prev_full:parameters_in_order_to
with_prev_full:cell_by
with_prev_full:-lrb-_by
with_prev_full:stroma_by
with_prev_full:studied_by
with_prev_full:analysis_to
with_prev_full:that_by
with_prev_full:cells_by_means_of
with_prev_full:elicitation_to
with_prev_full:approach_to
with_prev_full:section_to
with_prev_full:buffer_to
with_prev_full:abolished_by
with_prev_full:quantitated_by
with_prev_full:checked_via
with_prev_full:calculated_by
with_prev_full:mite_to
conn_lc:in_large_part_by
with_prev_full:screen_to
with_prev_full:set_to
with_prev_full:ultrasound_to
with_prev_full:lap_to
with_prev_full:assay_to
with_prev_full:exemplified_by
with_prev_full:stimulation_by
with_prev_full:blood_by
with_prev_full:computed_to
with_prev_full:systems_to
with_prev_full:diminished_by
with_prev_full:established_by
with_prev_full:tested_by
with_prev_full:fails_to
with_prev_full:jak_by
with_prev_full:hybridisation_to
with_prev_full:constructed_for
with_prev_full:,_in_part_via
with_prev_full:signaling_by
conn:Via
with_prev_full:cells_to
with_prev_full:fragments_by
with_prev_full:hes-1_by
with_prev_full:region_for
with_prev_full:simulation_to
with_prev_full:occur_by
conn:In_order_to
with_prev_full:ifn-γ_in_order_to
with_prev_full:clustering_to
with_prev_full:h._for
with_prev_full:inflammation_by
with_prev_full:cells_through
with_prev_full:proposed_to
with_prev_full:purified_by
with_prev_full:difficult_to
with_prev_full:coordinated_to
with_prev_full:centrifuged_to
with_prev_full:cultured_for
with_prev_full:added_by
conn:via
with_prev_full:arthritis_by
with_prev_full:defined_by
with_prev_full:responses_by
with_prev_full:cluster_to
with_prev_full:activity_by
with_prev_full:receptors_to
with_prev_full:pathologist_to
with_prev_full:controlled_by
conn:through
with_prev_full:useful_for
with_prev_full:cause_for
with_prev_full:useful_to
with_prev_full:production_in_part_by
with_prev_full:sarcoma_by
with_prev_full:determined_by
with_prev_full:instructive_by
with_prev_full:sequence_predominantly_via
with_prev_full:tolerance_to
with_prev_full:but_to
with_prev_full:silenced_by
with_prev_full:protein_to
with_prev_full:,_through
with_prev_full:signals_through
with_prev_full:gene_by
with_prev_full:essential_for
with_prev_full:not_to
with_prev_full:,_particularly_through
with_prev_full:manipulated_to
with_prev_full:collected_by
with_prev_full:completely_by
with_prev_full:investigated_by
with_prev_full:signalling_to
with_prev_full:-lrb-_via
conn:by_means_of
with_prev_full:down-regulation_via
with_prev_full:bear_to
conn_lc:predominantly_via
conn_lc:in_order_for
with_prev_full:left_to
with_prev_full:population_to
conn:For
with_prev_full:,_particularly_to
with_prev_full:azadc_to
conn:Through
with_prev_full:augmented_by
with_prev_full:verified_by
with_prev_full:employed_to
with_prev_full:gy_to
with_prev_full:expression_to
conn_lc:specifically_to
with_prev_full:estimated_by
with_prev_full:min_to
with_prev_full:selection_via
with_prev_full:experiment_by
with_prev_full:loop_to
with_prev_full:neurons_by
with_prev_full:rescued_by
with_prev_full:developed_for
with_prev_full:induced_by
with_prev_full:depleted_by
with_prev_full:identified_by
with_prev_full:tissue_through
with_prev_full:ligand_to
with_prev_full:used_to
with_prev_full:performed_to
with_prev_full:tissues_by
with_prev_full:,_to
with_prev_full:undertaken_to
with_prev_full:fusion_to
with_prev_full:depicted_by
conn:in_part_via
with_prev_full:out_by
conn_lc:particularly_through
conn:to
with_prev_full:standard_to
with_prev_full:ensured_by
with_prev_full:procedure_to
with_prev_full:signals_by
with_prev_full:cells_by
with_prev_full::_in_order_to
with_prev_full:encoded_by
with_prev_full:regulated_by
with_prev_full:confirmed_by
with_prev_full:paraformaldehyde_to
with_prev_full:-rrb-_to
conn_lc:in_order_to
with_prev_full:studies_to
with_prev_full:calcium_for
conn_POS:IN_DT_NN_TO
with_prev_full:made_by
with_prev_full:failed_to
with_prev_full:-rsb-_to
with_prev_full:plated_for
with_prev_full:conceived_by
with_prev_full:-rrb-_specifically_to
with_prev_full:role_for
with_prev_full:simulations_to
with_prev_full:shown_by
with_prev_full:homogenized_by
with_prev_full:evaluated_by
conn_POS:IN_NNS_IN
with_prev_full:specificity_by
with_prev_full:captured_by
with_prev_full:marker_for
with_prev_full:test_by
with_prev_full:mediated_by
with_prev_full:pathway_to
with_prev_full:prepared_by
with_prev_full:constructed_by
with_prev_full:organogenesis_through
with_prev_full:stopped_by
with_prev_full:coagulation_by
with_prev_full:excluded_by
conn:predominantly_via
conn:mainly_by
conn:in_large_part_by
with_prev_full:numbers\/activity_to
with_prev_full:normalized_by
with_prev_full:normally_by
with_prev_full:response_by
with_prev_full:cd69_to
conn_lc:by_means_of
with_prev_full:achieved_by
with_prev_full:seb_by
with_prev_full:annotated_by
with_prev_full:tissue_by
with_prev_full:primers_to
with_prev_full:accomplished_in_large_part_by
conn_lc:in_an_effort_to
with_prev_full:expressed_by
with_prev_full:gene_to
with_prev_full:c_to
with_prev_full:leukaemogenesis_by
conn_POS:TO
with_prev_full:done_by
with_prev_full:,_in_part_by
with_prev_full:reduced_by
with_prev_full:overcome_by
with_prev_full:erg_to
with_prev_full:reversed_by
conn_lc:to
with_prev_full:activated_by
conn:In_an_effort_to
with_prev_full:dnase_to
with_prev_full:treg_to
with_prev_full:branching_by
with_prev_full:function_in_order_to
with_prev_full:,_mainly_by
conn:By
with_prev_full:treated_by
with_prev_full:around_to
conn:In_order_for
with_prev_full:strategies_for
with_prev_full:performed_by
conn_POS:DT_IN_NN_TO
with_prev_full:crucial_for
with_prev_full:,_by_means_of
with_prev_full:primarily_via
with_prev_full:,_via
conn:particularly_to
with_prev_full:dnas_for
with_prev_full:suppression_to
with_prev_full:follicles_for
with_prev_full:population_through
with_prev_full:detected_via
with_prev_full:assessed_by
with_prev_full:translocations_by
with_prev_full:isolated_by
with_prev_full:indirectly_by
with_prev_full:abrogated_by
with_prev_full:strategy_for
with_prev_full:-rrb-_by
with_prev_full:sites_by
with_prev_full:explained_by
with_prev_full:amplification_to
conn_lc:mainly_by
with_prev_full:other_to
with_prev_full:neutralized_by
with_prev_full:stimulated_by
conn_lc:both_in_response_to
with_prev_full:unresponsiveness_by
with_prev_full:obtained_by
with_prev_full:extended_to
with_prev_full:death_through
with_prev_full:triggered_by
with_prev_full:explanation_for
with_prev_full:respond_by
with_prev_full:occur_through
with_prev_full:results_to
with_prev_full:pathway_by
with_prev_full:evaluated_to
with_prev_full:detected_by
with_prev_full:generated_by
with_prev_full:genes_through
with_prev_full:activation_by
conn:in_order_to
conn_lc:particularly_to
with_prev_full:background_to
with_prev_full:pbmc_by
with_prev_full:cells_via
with_prev_full:hours_to
with_prev_full:samples_by
with_prev_full:sufficient_to
with_prev_full:recombination_to
with_prev_full:quantitatively_by
with_prev_full:analyzed_by
with_prev_full:methylation_via
with_prev_full:chosen_to
with_prev_full:,_by
conn_lc:via
with_prev_full:recombinase_to
with_prev_full:field_in_order_to
with_prev_full:species_by
with_prev_full:downstream_by
with_prev_full:curation_to
with_prev_full:osteoclasts_through
with_prev_full:transientlyco-expressed_via
with_prev_full:regulation_via
with_prev_full:probe_in_order_to
with_prev_full:dictated_by
with_prev_full:quantified_by
with_prev_full:levels_by
with_prev_full:tumors_by
with_prev_full:used_for
conn_lc:through
conn:In
conn_lc:in
conn_POS:IN
conn_POS:IN_NN_TO
conn_POS:CC
conn_POS:RB_IN
conn:and
with_prev_full:,_and
conn_lc:and
conn_POS:RB_TO
conn_lc:by
conn_lc:as
conn:by
conn:As
conn_POS:NNP
conn_POS:IN_NN_IN
conn_POS:IN_JJ_NN_IN
conn_lc:in_part_by
conn:in_part_by
with_prev_full:but_once
with_prev_full:produced_in_response_to
with_prev_full:pdcs_once
with_prev_full:identically_when
with_prev_full:animals_in_response_to
with_prev_full:activity_after
with_prev_full:mrna_upon
with_prev_full:equivalent_when
with_prev_full:phosphorylated_upon
with_prev_full:-rrb-_when
with_prev_full:obtained_when
conn:both_upon
with_prev_full:,_when
with_prev_full:that_when
with_prev_full:cells_after
with_prev_full:ability_once
with_prev_full:ifn-γ_after
with_prev_full:apoptosis_when
with_prev_full:cells_when
with_prev_full:upregulation_four_hours_after
with_prev_full:supershift_when
with_prev_full:efficient_when
with_prev_full:cells_both_upon
conn_POS:RB_WRB
conn_lc:only_when
conn_lc:both_upon
with_prev_full:phosphorylation_in_response_to
with_prev_full:bmp-6_upon
conn_POS:CD_NNS_IN
with_prev_full:aa_upon
with_prev_full:cells_once
with_prev_full:confirmed_when
with_prev_full:event_in_response_to
conn:Upon
with_prev_full:observed_when
with_prev_full:shifted_after
conn:upon
with_prev_full:il-2_in_response_to
conn:four_hours_after
with_prev_full:tip_when
with_prev_full:level_after
with_prev_full:vivo_when
with_prev_full:h_after
with_prev_full:tissues_in_response_to
conn_POS:DT_IN
with_prev_full:gamma_after
with_prev_full:detected_when
with_prev_full:which_when
with_prev_full:transcripts_after
conn:after
with_prev_full:formation_when
with_prev_full:responsiveness_upon
conn_lc:upon
with_prev_full:induced_after
with_prev_full:detected_after
with_prev_full:-_when
with_prev_full:activity_when
with_prev_full:secretion_upon
with_prev_full:higher_when
conn_lc:four_hours_after
with_prev_full:%_when
conn:only_when
with_prev_full:seen_after
with_prev_full:increased_when
with_prev_full:p56lck_after
with_prev_full:mrna_after
with_prev_full:aa_after
with_prev_full:augmented_only_when
conn_POS:RB
conn:in_response_to
conn_lc:in_response_to
conn_lc:after
conn:After
conn_POS:WRB
conn_lc:when
conn:when
conn:When
conn_lc:once
conn:once
conn_lc:however
conn:However
with_prev_full:mice_if
conn:If
conn_lc:if
conn:if
conn_lc:indeed
conn:Indeed
with_prev_full:to_after
with_prev_full:inflammation_following
with_prev_full:differentiation_after
conn_lc:two_years_after
with_prev_full:occurred_after
with_prev_full:enhanced_upon
with_prev_full:protein_then
with_prev_full:thymidine_after
conn:at_some_point_after
conn:20_min_later
with_prev_full:delivered_prior_to
with_prev_full:and_in_turn
with_prev_full:for_after
conn:during
conn_lc:forty-eight_hours_after
conn_lc:before
conn_POS:CD_CD_NNS_IN
with_prev_full:sequenced_after
conn:On
with_prev_full:detected_upon
conn:Since_then
with_prev_full:and_when
with_prev_full:ends_after
conn:three_days_before
with_prev_full:il-2_following
conn_lc:on
with_prev_full:she_subsequently
conn_lc:thereafter
conn:Three_days_after
conn:8_12_weeks_after
with_prev_full:column_after
with_prev_full:slip_before
with_prev_full:this_then
with_prev_full:line_after
with_prev_full:clefts_before
conn:until
with_prev_full:pdcs_after
with_prev_full:,_after
with_prev_full:also_after
with_prev_full:subcutaneously_three_days_before
conn_POS:IN_RB
with_prev_full:ancrod_prior_to
with_prev_full:observed_as_early_as_24_h_after
conn_lc:hereafter
with_prev_full:,_followed_4_hours_later_by
with_prev_full:death_after
with_prev_full:c_until
with_prev_full:augmented_after
with_prev_full:nodes_following
with_prev_full:responses_following
conn:thereafter
with_prev_full:tasks_during
with_prev_full:mainly_after
with_prev_full:arthritis_in_response_to
with_prev_full:permeabilized_prior_to
conn:During
conn_lc:as_early_as_24_h_after
conn_lc:2_hours_following
with_prev_full:-rrb-_following
conn_lc:subsequently
conn_lc:prior_to
conn:One_day_after
with_prev_full:assessed_before
with_prev_full:regression_before
conn:prior_to
conn_lc:one_day_after
conn_POS:CD_NNS_RBR
conn_lc:until
with_prev_full:analyzed_8_12_weeks_after
with_prev_full:h._thereafter
with_prev_full:cassette_after
with_prev_full:c._following
with_prev_full:synthesis_after
conn:followed_4_hours_later_by
with_prev_full:cluster_before
with_prev_full:upregulation_two_hours_after
with_prev_full:-rrb-_two_hours_before
with_prev_full::_as
conn_POS:RB_RB_IN_CD_NN_IN
conn:Thereafter
with_prev_full:longer_before
with_prev_full:eliminated_when
with_prev_full:activated_following
with_prev_full:healthy_since
with_prev_full:hours_followed_by
with_prev_full:hour_prior_to
conn_POS:CC_IN
conn_POS:CD_NN_RB
with_prev_full:amplified_after
conn_lc:20_min_later
with_prev_full:pathway_following
with_prev_full:s_followed_by
with_prev_full:was_next
with_prev_full:c-jun_following
with_prev_full:expand_following
conn:as_early_as_24_h_after
with_prev_full:rt-pcr_after
with_prev_full:cells_180_seconds_after
with_prev_full:contact_while
with_prev_full:,_before
conn_lc:following
with_prev_full:accumulate_following
conn:180_seconds_after
conn_lc:three_days_before
conn_lc:during
with_prev_full:breast_two_years_after
conn:following
with_prev_full:observed_until
with_prev_full:function_while
with_prev_full:delay_after
with_prev_full:occurring_at_some_point_after
conn:hereafter
with_prev_full:smads_then
with_prev_full:done_after
with_prev_full:we_then
conn_lc:followed_4_hours_later_by
with_prev_full:-rrb-_prior_to
with_prev_full:dnmts_during
with_prev_full:measured_after
with_prev_full:il-10_before
with_prev_full:stochastically_after
with_prev_full:signal_after
with_prev_full:were_thereafter
with_prev_full:expression_2_hours_following
with_prev_full:were_then
conn:well_before
with_prev_full:bound_following
with_prev_full:role_during
with_prev_full:and_after
with_prev_full:and_finally
with_prev_full:thymus_after
with_prev_full:,_well_before
with_prev_full:activation_following
conn_lc:two_hours_after
with_prev_full:and_subsequently
with_prev_full:staining_after
with_prev_full:mixture_prior_to
with_prev_full:synthesis_following
with_prev_full:analyses_hereafter
with_prev_full:night_before
conn:before
with_prev_full:similarities_during
with_prev_full:harvested_20_min_later
conn_lc:well_before
with_prev_full:gene_after
with_prev_full:observed_after
with_prev_full:follicles_following
conn:Four_days_after
with_prev_full:hysterectomy_followed_by
with_prev_full:hours_after
with_prev_full:treated_while
with_prev_full:complicatedly_upon
conn:2_hours_following
conn:Four_hours_later
conn_lc:8_12_weeks_after
with_prev_full:infants_after
with_prev_full:1994_when
with_prev_full:secretion_following
with_prev_full:lumpectomy_followed_by
with_prev_full:observed_following
with_prev_full:hours_before
with_prev_full:which_subsequently
conn:two_hours_after
conn:two_years_after
with_prev_full:,_following
with_prev_full:,_both_upon
conn:Following
conn:Forty-eight_hours_after
with_prev_full:occurs_when
with_prev_full:;_subsequently
conn:Once
with_prev_full:immunoblotting_after
with_prev_full:production_upon
with_prev_full:-rrb-_before
with_prev_full:amplification_when
with_prev_full:points_before
conn_lc:two_hours_before
with_prev_full:c._four_hours_later
with_prev_full:analysis_after
conn_POS:JJ_NNS_IN
with_prev_full:was_then
with_prev_full:sick_following
conn_lc:four_hours_later
conn:subsequently
conn_lc:since_then
with_prev_full:phospho-p38_upon
with_prev_full:added_following
with_prev_full:and_then
with_prev_full:-rrb-_after
with_prev_full:synovium_following
with_prev_full:cross-linking_after
with_prev_full:cells_subsequently
with_prev_full:cells_following
conn_lc:at_some_point_after
with_prev_full:less_after
with_prev_full:seen_following
conn_POS:CD_NNS_VBG
with_prev_full:performed_following
with_prev_full:transfected_after
conn:Then
conn_lc:three_days_after
conn_POS:VBD_CD_NNS_RB_IN
with_prev_full:pcr_after
conn:two_hours_before
with_prev_full:secreted_following
with_prev_full:twice_prior_to
with_prev_full:apoptosis_after
with_prev_full:that_during
with_prev_full:h_before
with_prev_full:induction_upon
with_prev_full:rna_when
conn:Two_hours_after
conn_lc:180_seconds_after
conn:Subsequently
conn_lc:four_days_after
with_prev_full:,_while
conn_lc:while
conn:while
conn_POS:IN_DT_NN_IN
conn_POS:IN_NN
conn_POS:VBG
conn_lc:finally
with_prev_full:naoh_and
with_prev_full:c_and
with_prev_full:i.v._and
conn:next
with_prev_full:,_finally
conn_POS:VBD_IN
with_prev_full:probe_and
with_prev_full:filters_and
conn_lc:second
with_prev_full:extracted_and
with_prev_full:densitometry_and
conn:Third
conn_lc:next
with_prev_full:mice_and
conn:Finally
with_prev_full:h_and
with_prev_full:sieve_and
with_prev_full:we_next
with_prev_full:mats_and
conn_lc:10_min_before
conn_POS:CD_NN_IN
conn_lc:followed_by
conn:10_min_before
with_prev_full:later_and
with_prev_full:electronically_and
conn:Next
conn_POS:LS
with_prev_full:isolated_and
with_prev_full:added_10_min_before
with_prev_full:were_finally
conn:Second
conn:followed_by
with_prev_full:harvested_and
conn:In_turn
with_prev_full:sample_and
with_prev_full:medium_and
with_prev_full:times_and
with_prev_full:added_and
with_prev_full:seb_and
with_prev_full:sacrificed_and
with_prev_full:igm-ic_and
conn:finally
with_prev_full:,_followed_by
with_prev_full:growth_while
with_prev_full:ice_and
with_prev_full:activation_and
with_prev_full:,_in_turn
with_prev_full:nuclei\/ml_and
conn_lc:third
conn_POS:JJ
with_prev_full:-rrb-_and
with_prev_full:this_in_turn
conn_lc:in_turn
conn:in_turn
conn_POS:NN
with_prev_full:,_then
conn:then
conn_lc:then
with_prev_full:diagnosed_as
with_prev_full:occur_in_response_to
conn:as
with_prev_full:decreased_by
with_prev_full:practice_as
conn:Since
with_prev_full:,_as
conn:since
conn_lc:since
conn_POS:VBN_IN
with_prev_full:arise_when
with_prev_full:model_when
with_prev_full:,_once
with_prev_full:dangerous_when
conn:none-the-less
with_prev_full:,_regardless_of
conn_lc:despite_the_fact_that
with_prev_full:treg_although
with_prev_full:,_although_although_these_cells_still
conn:despite
conn_lc:despite
conn_lc:none-the-less
with_prev_full:that_whilst
with_prev_full:that_while
conn:nevertheless
with_prev_full:that_although
conn:although_although_these_cells_still
conn:albeit
with_prev_full:-lrb-_although
with_prev_full:vivo_albeit
with_prev_full:phenotypes_but
conn_lc:even_though
conn:regardless_of
with_prev_full:has_however
conn:Despite
with_prev_full:weaker_but
conn:Still
conn:Nonetheless
with_prev_full:heterozygotes_despite
with_prev_full:but_none-the-less
with_prev_full:cells_although
conn_lc:albeit
conn:Even_though
conn_lc:nonetheless
with_prev_full:observed_despite
with_prev_full:arthritis_despite
conn:Despite_the_fact_that
conn_lc:nevertheless
with_prev_full:abstract_although
with_prev_full:might_nevertheless
with_prev_full:,_however
conn_POS:IN_IN_DT_NNS_RB
conn_lc:still
with_prev_full:similar_but
conn_lc:though
with_prev_full:it_nevertheless
with_prev_full:should_however
with_prev_full:,_albeit
conn_lc:regardless_of
conn_lc:although_although_these_cells_still
with_prev_full:,_despite
conn:But
conn:Nevertheless
with_prev_full:noted_however
conn:Though
conn:however
with_prev_full:;_however
conn_lc:on_the_other_hand
conn:While
conn_POS:IN_DT_JJ_NN
conn:Although
with_prev_full:,_but
conn_lc:whilst
conn_lc:but
conn:but
conn:although
conn_lc:although
conn:whilst
conn:On_the_other_hand
with_prev_full:,_although
conn_POS:IN_DT_JJ
conn_lc:in_comparison_to
conn_lc:in_contrast
with_prev_full:,_whereas
conn:in_comparison_to
conn:By_contrast
with_prev_full:disease_while
conn_lc:in_contrast_to
with_prev_full:-rrb-_whereas
conn_lc:by_contrast
with_prev_full:,_in_contrast_to
with_prev_full:but_while
with_prev_full:data_however
conn_lc:whereas
conn_lc:in_comparison_with
with_prev_full:cells_whereas
conn:In_contrast_to
with_prev_full:,_whilst
with_prev_full:stimulation_while
with_prev_full::_whereas
with_prev_full:not_however
with_prev_full:-rrb-_while
conn:Whereas
conn_lc:on_the_contrary
conn:In_contrast
conn:On_the_contrary
with_prev_full:detected_whereas
conn:Whilst
conn:In_comparison_with
with_prev_full:but_in_contrast_to
with_prev_full:that_in_comparison_to
conn:whereas
conn:in_contrast_to
conn_POS:IN_DT_NN
with_prev_full:data_also
with_prev_full:lethal_and
with_prev_full:%_and
with_prev_full:patients_and
with_prev_full:wells_and
with_prev_full:but_also
with_prev_full:tissue_and
with_prev_full:while_also
conn:In_addition_to
conn_lc:additionally
conn_lc:moreover
with_prev_full:,_in_addition_to
with_prev_full:pdcs_and
with_prev_full:buds_and
with_prev_full:bound_and
with_prev_full:replication_and
conn:Further
conn_lc:furthermore
conn_lc:not_only_only_act_as_mediators_of_negative_feedback_inhibition_,_but_also
with_prev_full:was_also
with_prev_full:has_also
with_prev_full:treg_also
with_prev_full:was_further
with_prev_full:buffer_and
with_prev_full:described_and
with_prev_full:axis_and
with_prev_full:ifn-α_and
with_prev_full:we_also
with_prev_full:can_also
conn:furthermore
with_prev_full:specific_and
with_prev_full:that_not_only_only_act_as_mediators_of_negative_feedback_inhibition_,_but_also
with_prev_full:solution_also
with_prev_full:fibrosis_and
conn:Conversely
with_prev_full:which_also
with_prev_full:constellation_and
with_prev_full:receptors_and
with_prev_full:development_and
with_prev_full:may_also
with_prev_full:to_also
conn:further
with_prev_full:would_also
with_prev_full:experiments_and
conn:Furthermore
with_prev_full:,_furthermore
with_prev_full:were_also
conn:Moreover
with_prev_full:activity_and
conn_lc:not_only_only_can_tgf-β_mediate_cell_cell_suppression_between_the_regulatory_t_cells_and_cd4_+_cd25_-_or_cd8_+_t_cells_,_but_but_new_evidence_also
with_prev_full:might_also
with_prev_full:are_also
with_prev_full:analysis_and
conn:Not_only_only_can_TGF-β_mediate_cell_cell_suppression_between_the_regulatory_T_cells_and_CD4_+_CD25_-_or_CD8_+_T_cells_,_but_but_new_evidence_also
with_prev_full:tumours_and
with_prev_full:bmps_and
with_prev_full:and_also
conn_lc:further
with_prev_full:arrows_and
with_prev_full:mice_also
with_prev_full:disappeared_and
with_prev_full:obtained_also
with_prev_full:breasts_and
with_prev_full:preincubation_and
conn:In_addition
conn_lc:also
with_prev_full:is_also
with_prev_full:tumours_also
with_prev_full:polypeptides_also
conn:Also
conn_lc:conversely
with_prev_full:notch_also
with_prev_full:assay_also
conn_POS:RB_JJ_JJ_MD_NNP_VB_NN_NN_NN_IN_DT_JJ_NNP_NNS_CC_NNP_NNP_NNP_:_CC_CD_NNP_NNP_NNS_,_CC_CC_JJ_NN_RB
with_prev_full:colleagues_also
with_prev_full:fk506_also
conn_lc:in_addition_to
conn:in_addition_to
with_prev_full:,_in_addition
with_prev_full:studies_also
with_prev_full:findings_and
with_prev_full:they_also
with_prev_full:immunocytochemistry_and
with_prev_full:il-15_also
with_prev_full:function_and
with_prev_full:markers_and
with_prev_full:pbs_and
with_prev_full:hybridisation_and
conn:also
with_prev_full:;_second
conn:Additionally
with_prev_full:centrifuged_and
with_prev_full:concentrations_and
conn:second
conn_POS:RB_JJ_JJ_VBP_IN_NNS_IN_JJ_NN_NN_,_CC_RB
with_prev_full:are_further
with_prev_full:mrna_also
with_prev_full:origin_and
conn_lc:in_addition
with_prev_full:formation_also
conn_POS:RBR
with_prev_full:mutants_also
with_prev_full:amplicons_and
with_prev_full:,_also
with_prev_full:have_also
with_prev_full:differentiation_and
with_prev_full:reaction_and
with_prev_full:it_also
with_prev_full:thermocycling_and
with_prev_full:offspring_and
with_prev_full:ra_also
with_prev_full:points_and
with_prev_full:antibodies_and
with_prev_full:;_and
with_prev_full:technique_also
with_prev_full:injection_and
with_prev_full:size_and
with_prev_full:results_also
with_prev_full:cells_and
with_prev_full:hours_and
conn:not_only_only_act_as_mediators_of_negative_feedback_inhibition_,_but_also
with_prev_full:ly294002_also
with_prev_full:study_further
with_prev_full:cells_also
with_prev_full:-rsb-_and
conn_lc:accordingly
with_prev_full:perfect_and
conn:Accordingly
with_prev_full:reduced_and
with_prev_full:vitro_and
conn:So
conn:In_brief
conn_lc:briefly
with_prev_full:by_specifically
conn:In_outline
conn:In_general
with_prev_full:;_i.e.
conn:namely
conn:Notably
with_prev_full:,_i.e.
conn_lc:notably
with_prev_full:,_specifically
conn:with
conn_lc:in_particular
conn_lc:in_brief
conn:In_particular
conn_lc:in_that
conn_POS:IN_WDT
conn_POS:VBZ
conn:In_conclusion
with_prev_full:-lrb-_specifically
conn:specifically
conn:In_summary
conn:in_that
with_prev_full:e2_therefore
conn:Briefly
with_prev_full:,_in_that
with_prev_full:,_with
conn_lc:in_summary
with_prev_full:,_namely
conn_lc:in_outline
conn_lc:in_general
conn_lc:specifically
conn_lc:i.e.
conn:i.e.
conn_lc:with
conn:Specifically
conn_lc:in_conclusion
with_prev_full:we_specifically
conn_lc:namely
conn_POS:IN_JJ
conn_lc:thus
conn:Thus
conn_lc:so
conn:therefore
conn_POS:VBN
conn:Therefore
conn_lc:therefore
with_prev_full:we_therefore
with_prev_full:observed_and
with_prev_full:stroma_and
with_prev_full:treg_and
with_prev_full:analysed_and
with_prev_full:antibody_and
with_prev_full:is_due_to
conn:particularly_since
with_prev_full:-rrb-_because
conn:not_due_to
with_prev_full:extent_because
with_prev_full:translated_due_to
with_prev_full:nf-κb_by
conn_lc:appears_to_be_due_at_least_in_part_to
conn:due_mainly_to
with_prev_full:activation_therefore
with_prev_full:are_therefore
with_prev_full:and_therefore
conn_lc:not_due_merely_to
conn_POS:JJ_IN
with_prev_full:mastectomy_because_of
with_prev_full:-lrb-_particularly_since
with_prev_full:downregulated_by
conn_lc:such_that
with_prev_full:mice_thus
with_prev_full:undisputed_because
conn:by_the_fact_that
conn_lc:due_mainly_to
conn:because_of
with_prev_full:chosen_in_large_part_for
conn:in_large_part_for
with_prev_full:amounts_and
with_prev_full:not_therefore
conn_POS:JJ_TO
with_prev_full:euthanized_due_to
with_prev_full:unsuccessful_due_to
conn:In_short
with_prev_full:events_because
conn_lc:as_a_result_of
with_prev_full:and_thus
with_prev_full:-rrb-_due_to
conn_lc:thereby
conn:consequently
with_prev_full:choice_because
with_prev_full:,_on_the_basis_of
with_prev_full:strand_due_to
with_prev_full:over-representation_since
with_prev_full:feasible_due_to
with_prev_full:,_due_to
conn_POS:PDT_DT
with_prev_full:-rsb-_because
with_prev_full:interaction_thus
with_prev_full:and_since
with_prev_full:susceptibility_due_to
with_prev_full:are_not_due_merely_to
with_prev_full:1997_as_a_result_of
with_prev_full:was_due_to
with_prev_full:il-10_due_to
with_prev_full:and_so
conn:not_due_merely_to
with_prev_full:targets_since
conn_POS:RB_JJ_TO
conn:Because
with_prev_full:,_thus
with_prev_full:was_therefore
conn_lc:probably_because_of
with_prev_full:elucidated_since
conn_lc:in_consequence_of
with_prev_full:occurring_as_a_result_of
conn:On_the_basis_of
conn:Consequently
conn:such_that
with_prev_full:;_consequently
with_prev_full:were_due_to
with_prev_full:vivo_on_the_basis_of
conn_lc:in_short
with_prev_full:can_therefore
conn:due_to
with_prev_full:may_therefore
conn:As_a_consequence
with_prev_full:niches_in_response_to
with_prev_full:risk_due_to
conn_POS:IN_DT_JJ_NN_IN
with_prev_full:production_due_to
conn_lc:not_due_to
with_prev_full:proliferation_as_a_consequence_of
with_prev_full:;_thus
conn:As_a_result
with_prev_full:either_as_a_result_of
conn:so
conn_lc:probably_due_to
conn_lc:as_a_direct_consequence_of
with_prev_full:mri_due_to
with_prev_full:,_probably_due_to
conn:appears_to_be_due_at_least_in_part_to
with_prev_full:study_due_to
conn_lc:because_of
conn:on_the_basis_of
conn:as_a_consequence_of
with_prev_full:development_due_to
with_prev_full:will_therefore
with_prev_full:correct_and
conn:probably_due_to
conn_POS:JJ_RB_TO
with_prev_full:we_thus
conn:In_view_of_the_fact_that
conn:as_a_result_of
conn_lc:in_large_part_for
conn_lc:as_a_result
with_prev_full:-rrb-_thus
with_prev_full:fdcs_by
with_prev_full:therefore_appears_to_be_due_at_least_in_part_to
with_prev_full:,_thereby
with_prev_full:,_so
with_prev_full:w3\/25_therefore
conn:as_a_direct_consequence_of
with_prev_full:dependent_as
with_prev_full:analysis_since
conn:because
conn_lc:because
with_prev_full:appear_in_consequence_of
with_prev_full:,_because
with_prev_full:must_therefore
with_prev_full:irf-4-expression_since
with_prev_full:generated_as_a_direct_consequence_of
with_prev_full:transition_therefore
conn_POS:IN_NN_IN_DT_NN_IN
with_prev_full:development_because
conn_lc:by_the_fact_that
with_prev_full:may_thus
conn_POS:RB_JJ_RB_TO
with_prev_full:appealing_because
conn_lc:due_to
conn_lc:as_a_consequence
conn_POS:RB_RB_IN
with_prev_full:were_thus
conn:probably_because_of
with_prev_full:is_therefore
with_prev_full:,_due_mainly_to
conn_lc:particularly_since
conn_lc:as_a_consequence_of
with_prev_full:part_due_to
conn:thereby
with_prev_full:,_such_that
with_prev_full:reactions_due_to
with_prev_full:,_therefore
conn:in_consequence_of
with_prev_full:be_due_to
conn_lc:in_view_of_the_fact_that
with_prev_full:is_not_due_to
conn:thus
conn:Due_to
with_prev_full:caused_in_part_by
with_prev_full:,_probably_because_of
with_prev_full:pronounced_as_a_result_of
conn_lc:on_the_basis_of
with_prev_full:,_as_a_result_of
with_prev_full:and_thereby
with_prev_full:could_therefore
with_prev_full:it_therefore
with_prev_full:complicated_by_the_fact_that
with_prev_full:is_thus
conn_lc:consequently
with_prev_full:hypermethylation_due_to
conn_POS:VBZ_TO_VB_JJ_IN_JJS_IN_NN_TO
conn:Because_of
conn_POS:IN_IN
conn:Given
with_prev_full:,_since
conn_lc:based_on
conn:Based_on
conn_lc:given
conn_lc:rather
with_prev_full:suggest_either_either_that_activation_of_pdcs_is_not_associated_with_nuclear_translocation_and_transcriptional_activity_of_relb_or
conn_POS:RB_RB_IN_NN_IN_NNS_VBZ_RB_VBN_IN_JJ_NN_CC_NN_NN_IN_NNP_CC
with_prev_full:ccr3_unless
conn_lc:either_either_purified_total_t_cells_were_directly_used_for_proliferation_assays_,_or
with_prev_full:experiments_unless
conn_lc:or
conn_POS:RB_RB_IN_NNP_MD_VB_TO_NNP_IN_DT_RB_JJ_NN_NN_IN_NNP_NNP_NNS_,_CC
with_prev_full:responses_and\/or
with_prev_full:observed_instead
with_prev_full:,_and\/or
conn_lc:either_either_as_a_result_of_a_genetic_lesion_-lrb-_cd19-deficient_mice_-rrb-_that_inhibited_mz_b_cell_survival_,_or
conn:Either_Either_purified_total_T_cells_were_directly_used_for_proliferation_assays_,_or
conn:unless
conn_POS:RB_RB_IN_NN_NN_,_CC
conn_lc:either_either_by_n1-ic_expression_,_or
conn_lc:and\/or
conn:and\/or
conn:Alternatively
conn_lc:instead
with_prev_full:tgf-β_and\/or
conn_POS:DT_DT_JJ_JJ_NNP_NNS_VBD_RB_VBN_IN_NN_NNS_,_CC
with_prev_full:cells_or
conn_lc:either_either_that_activation_of_pdcs_is_not_associated_with_nuclear_translocation_and_transcriptional_activity_of_relb_or
conn:rather
conn:Besides
conn:nor
conn_lc:nor
with_prev_full:smad2\/3_and\/or
with_prev_full:reduced_or
conn_lc:besides
conn_POS:CC_CC_IN_DT_NN_IN_DT_JJ_NN_-LRB-_NN_NNS_-RRB-_WDT_VBD_NNP_NNP_NN_NN_,_CC
conn:either_either_by_N1-IC_expression_,_or
conn_lc:alternatively
with_prev_full:,_either_either_as_a_result_of_a_genetic_lesion_-lrb-_cd19-deficient_mice_-rrb-_that_inhibited_mz_b_cell_survival_,_or
with_prev_full:,_or
conn_lc:unless
conn:or
with_prev_full:but_rather
with_prev_full:indicate_either_either_that_igm-ic_can_traffic_to_fdcs_by_a_previously_unanticipated_mechanism_independent_of_mz_b_cells_,_or
conn:instead
conn_POS:VB
conn:Instead
with_prev_full:triggered_either_either_by_n1-ic_expression_,_or
conn:Unless
conn_lc:either_either_that_igm-ic_can_traffic_to_fdcs_by_a_previously_unanticipated_mechanism_independent_of_mz_b_cells_,_or
conn:either_either_that_activation_of_pDCs_is_not_associated_with_nuclear_translocation_and_transcriptional_activity_of_RelB_or
with_prev_full:,_nor
conn:either_either_that_IgM-IC_can_traffic_to_FDCs_by_a_previously_unanticipated_mechanism_independent_of_MZ_B_cells_,_or
conn:either_either_as_a_result_of_a_genetic_lesion_-LRB-_CD19-deficient_mice_-RRB-_that_inhibited_MZ_B_cell_survival_,_or
conn:for_instance
with_prev_full:is_for_example
with_prev_full:,_e.g.
with_prev_full:in_for_example
with_prev_full:,_for_example
conn:for_example
conn:For_example
conn_lc:as_an_example
with_prev_full:;_for_example
conn_lc:for_instance
conn_lc:e.g.
conn_lc:for_example
with_prev_full:,_for_instance
conn:e.g.
conn:As_an_example
with_prev_full:include_for_example
with_prev_full:,_except_for
conn_lc:except_that
with_prev_full:,_except_that
conn:except_that
with_prev_full:hematoxylin_except
conn:except
conn_lc:except
conn_lc:except_for
conn:except_for
with_prev_full:examined_except_for
with_prev_full:,_except
conn_POS:IN_IN_DT_NN_IN_DT_NN_NNS_VBD_CD_CC_JJR_NNS_IN_NN_,_RB
with_prev_full:dnmts_if
conn_lc:provided_that
conn:If_If_breast_tumors_from_hereditary_patients_exhibit_NER_deficiency_similar_to_that_observed_in_sporadic_patients_,_while_their_normal_tissues_exhibit_normal_levels_of_this_type_of_DNA_repair_,_then
with_prev_full:and_if
conn:only_if
conn:If_If_the_nuclei_over_the_foreskin_fibroblasts_averaged_50_or_more_grains_per_nucleus_,_then
conn:Provided_that
with_prev_full:monkeys_if
conn_lc:if_if_the_nuclei_over_the_foreskin_fibroblasts_averaged_50_or_more_grains_per_nucleus_,_then
conn_POS:VBG_IN
with_prev_full:reaction_only_if
with_prev_full:amplification_if
conn_lc:if_if_breast_tumors_from_hereditary_patients_exhibit_ner_deficiency_similar_to_that_observed_in_sporadic_patients_,_while_their_normal_tissues_exhibit_normal_levels_of_this_type_of_dna_repair_,_then
with_prev_full:that_if
with_prev_full:significant_if
with_prev_full:,_if
conn_POS:IN_IN_NN_NNS_IN_JJ_NNS_VB_NNP_NN_JJ_TO_WDT_VBD_IN_JJ_NNS_,_IN_PRP$_JJ_NNS_VB_JJ_NNS_IN_DT_NN_IN_NN_NN_,_RB
with_prev_full:possible_if
conn_lc:only_if
conn:in_fact
with_prev_full:does_in_fact
conn:In_fact
with_prev_full:were_in_fact
conn_POS:UH
with_prev_full:does_indeed
conn_lc:in_fact
with_prev_full:,_in_fact
conn:indeed
conn:similarly
conn:Similarly
conn_lc:similarly
with_prev_full:may_similarly
1.9578137319393587
1.8685551947075307
1.8685551947075278
1.901510471485452
2.0823938708894967
1.8685551947075312
1.901510471485452
5.2396852217062575
1.7486724979396848
1.7486724979396848
1.8685551947075278
1.901510471485452
1.8685551947075278
1.7486724979396848
1.901510471485452
1.9341183915956963
1.8284717079083652
1.901510471485452
1.901510471485452
2.6351153669798686
1.9015104714854503
1.901510471485452
1.8685551947075278
1.901510471485452
1.901510471485452
1.6886040925737298
1.9578137319393587
1.688604092573731
1.8284717079083652
1.9578137319393587
1.688604092573731
1.901510471485452
1.9015104714854503
1.901510471485452
1.9578137319393587
1.9578137319393587
1.901510471485452
1.688604092573731
1.901510471485452
1.901510471485452
1.901510471485452
1.8685551947075278
2.314705538833983
1.901510471485452
1.9015104714854503
2.196139315678624
1.8685551947075278
1.901510471485452
1.9578137319393587
1.688604092573731
1.7486724979396848
1.901510471485452
1.901510471485452
1.7575195896935805
1.901510471485452
1.688604092573731
1.901510471485452
1.8284717079083657
1.688604092573731
1.688604092573731
1.688604092573731
1.688604092573731
1.9015104714854503
1.901510471485452
1.953687712978561
1.9015104714854503
1.688604092573731
1.9593420165272164
1.688604092573731
1.688604092573731
1.688604092573731
1.688604092573731
1.688604092573731
1.901510471485452
1.9015104714854503
1.9015104714854503
1.688604092573731
1.688604092573731
1.901510471485452
1.9015104714854503
1.901510471485452
1.688604092573731
1.9015104714854503
1.688604092573731
1.8685551947075278
1.9341183915956963
1.901510471485452
3.161153859780397
1.6886040925737298
1.9015104714854503
1.901510471485452
1.8685551947075278
1.688604092573731
1.901510471485452
2.7188123288321195
1.7486724979396848
1.688604092573731
1.5363614062636748
1.9015104714854503
1.9578137319393574
1.688604092573731
1.9015104714854525
1.688604092573731
1.688604092573731
1.688604092573731
1.8685551947075278
1.901510471485452
1.953687712978557
1.901510471485452
1.9015104714854503
1.901510471485452
1.688604092573731
1.9015104714854525
1.688604092573731
1.688604092573731
1.901510471485452
1.9578137319393554
1.8685551947075283
1.8685551947075278
1.688604092573731
2.9190714587383546
1.901510471485452
1.9015104714854505
1.901510471485452
2.0823938708894967
1.688604092573731
1.688604092573731
1.901510471485452
1.688604092573731
1.9578137319393574
1.9578137319393587
1.9015104714854525
1.8685551947075278
1.688604092573731
2.0823938708894967
1.688604092573731
1.901510471485452
1.901510471485452
1.901510471485452
1.688604092573731
1.953687712978561
1.8284717079083648
1.953687712978562
1.688604092573731
2.0823938708894967
2.686191376474169
1.688604092573731
1.688604092573731
2.970583231500371
2.196139315678624
1.688604092573731
3.183752509435967
1.901510471485452
1.9015104714854498
1.688604092573731
1.688604092573731
1.688604092573731
2.196139315678624
1.901510471485452
1.688604092573731
1.953687712978562
1.901510471485452
1.688604092573731
1.901510471485452
1.901510471485452
1.8685551947075278
1.9015104714854498
1.901510471485452
1.9015104714854503
1.9578137319393587
1.6886040925737298
1.688604092573728
1.688604092573731
1.901510471485452
1.6886040925737298
1.688604092573731
1.6886040925737298
1.901510471485452
1.9341183915956963
1.901510471485452
2.0823938708894967
1.6886040925737218
1.688604092573731
1.9015104714854503
1.6886040925737325
1.901510471485452
1.9015104714854498
1.48179692999137
1.9015104714854503
1.901510471485452
1.9015104714854503
1.688604092573731
1.6886040925737325
2.39395694293054
1.688604092573731
1.8685551947075278
2.3380564142998983
1.9015104714854503
1.688604092573731
1.6886040925737298
1.8685551947075278
1.901510471485452
2.196139315678624
1.8685551947075278
1.688604092573731
1.901510471485452
1.901510471485452
1.9015104714854503
1.8284717079083648
1.901510471485452
1.901510471485452
1.8685551947075278
1.901510471485452
1.9015104714854503
1.688604092573731
1.9015104714854498
1.9015104714854525
1.9578137319393587
1.901510471485452
1.901510471485452
1.9015104714854525
2.0823938708894967
2.0823938708894967
1.9593420165272164
1.688604092573731
1.901510471485452
1.901510471485452
1.9015104714854503
1.688604092573731
1.8284717079083648
1.9015104714854505
1.901510471485452
1.901510471485452
1.901510471485452
1.688604092573731
1.9593420165272164
2.3380564142998983
1.901510471485452
1.688604092573731
1.688604092573731
1.901510471485452
2.0690139425341636
1.9015104714854498
2.9190714587383546
1.901510471485452
1.901510471485452
1.688604092573731
1.9015104714854503
2.0690139425341636
1.9015104714854503
2.3380564142998983
1.688604092573731
1.688604092573731
1.901510471485452
1.7486724979396848
2.0823938708894967
2.933536680202601
1.901510471485452
1.688604092573731
2.686191376474169
1.8685551947075278
1.9015104714854498
1.8284717079083652
1.8685551947075278
1.8284717079083657
1.953687712978562
1.953687712978562
2.196139315678624
1.8685551947075278
1.688604092573731
1.8685551947075283
1.9578137319393587
1.953687712978562
1.901510471485452
1.901510471485452
1.9015104714854503
1.9015104714854503
1.901510471485452
1.8685551947075278
1.901510471485452
1.901510471485452
1.901510471485452
1.688604092573731
2.0823938708894967
1.688604092573731
1.901510471485452
1.9015104714854503
1.8284717079083652
1.901510471485452
1.9015104714854505
1.688604092573731
1.9578137319393587
1.901510471485452
1.8685551947075278
1.901510471485452
1.9578137319393587
1.4331255445138593
1.901510471485452
1.688604092573731
1.901510471485452
1.9015104714854498
1.9578137319393587
1.901510471485452
1.7486724979396793
2.196139315678624
1.688604092573731
1.901510471485452
1.953687712978561
1.688604092573731
1.901510471485452
1.6886040925737325
1.688604092573731
1.901510471485452
1.9015104714854503
1.953687712978562
1.688604092573731
1.9015104714854505
2.026146036760482
1.688604092573731
1.7486724979396848
1.901510471485452
1.901510471485452
1.688604092573731
1.9578137319393587
1.9536877129785617
1.9536877129785617
1.7486724979396848
1.901510471485452
1.901510471485452
1.901510471485452
1.9015104714854503
1.8685551947075278
2.0184948912856386
1.2166108261489055
3.3738820134437657
1.2166108261489055
3.3738820134437657
1.1427237294825472
-0.5590371484010548
1.244759953931855
0.5706401938861212
0.3747502085353873
-1.6990833888868588
-3.1463507420301497
0.777371013671178
-2.3214629048848163
-2.7403490434569466
-1.3058258563733613
-3.909010515078369
1.8444470602860128
0.563229078418181
0.5990659485336636
1.0572364477826333
0.618258023407531
-0.3424451102946394
-1.3164879630690727
0.9112557722490668
0.1914495977358106
-0.5398886910683296
1.619738566674336
0.5243516474997393
-0.10777508861134533
-1.1756479731150002
1.2823348156831742
0.5969701905782288
1.6083106841756734
1.0128782001107033
0.5969701905782278
0.016719085808389048
1.1056041972587582
1.7080233017796767
0.8048898573836748
0.5181312164813736
3.0236434473090923
1.4626330661790603
1.5273077082713078
2.3838983481198888
0.8139637731826893
0.016719085808389048
1.1056041972587582
1.7080233017796767
0.8048898573836748
0.5181312164813736
0.8438749471423539
1.661559575207208
1.2391236496875986
1.8292281637693004
-1.658973787152525
-0.5891840318277859
-0.09476003500998745
1.3674577404532413
2.100762387308754
1.8069464391771075
-1.109294541000738
-0.33525417258445517
3.007650610987173
1.4936864579135207
2.5778653655501955
1.7647147039329174
1.0024205106576909
1.3477768849672183
1.0645750424174873
1.6952103870461233
1.2623137958742976
1.189402697073523
1.5517514968197728
1.5517514968197728
1.6074385315439734
1.352927659575862
1.6074385315439734
1.352927659575862
4.475738353786615
3.8500765661052303
4.475738353786615
3.8289154607281475
3.8500765661052303
3.329855407956971
1.164616382346466
2.7210817399862495
1.1841751845427644
1.983100106898038
1.4339314846300142
2.7210817399862495
1.1841751845427644
1.9831001068980405
1.4339314846300164
1.983100106898038
1.4339314846300142
1.3340306488627902
1.7643762134068963
1.9831001068980418
1.4339314846300177
1.983100106898038
1.4339314846300142
2.808664009081546
1.5597157153449015
2.2119145710914707
2.189929236057744
3.329855407956971
1.164616382346466
1.983100106898038
1.4339314846300142
1.9831001068980378
1.433931484630014
2.008010117835825
1.4796442571959418
1.983100106898038
1.4339314846300142
1.983100106898038
1.4339314846300142
1.8982811072223222
1.4699872854041625
1.6381269717586473
1.6381269717586473
1.6381269717586473
1.6381269717586473
1.3340306488627902
1.7643762134068963
2.5108574867757287
2.3912958593580362
2.7210817399862495
1.1841751845427644
0.43257007603857084
2.020896584500095
2.7210817399862477
1.1841751845427628
2.2119145710914707
2.189929236057744
1.983100106898038
1.4339314846300142
2.5108574867757287
2.3912958593580362
3.859167043961602
2.3722565161807414
1.9831001068980403
1.4339314846300164
3.55429805321155
0.6959118470413211
1.7915402931105289
1.8453677602952892
2.5108574867757287
2.3912958593580362
2.008010117835825
1.4796442571959418
1.983100106898038
1.4339314846300142
3.55429805321155
0.6959118470413211
1.983100106898038
1.4339314846300142
3.55429805321155
0.6959118470413211
2.5108574867757287
2.3912958593580362
1.8982811072223222
1.4699872854041625
3.55429805321155
0.6959118470413211
1.983100106898038
1.4339314846300142
1.983100106898038
1.4339314846300142
3.55429805321155
0.695911847041321
1.3963583239684279
1.8027183726768967
1.983100106898038
1.4339314846300142
2.7210817399862477
1.1841751845427628
2.2192126937669343
1.9130182425502547
3.329855407956971
1.164616382346466
3.554298053211551
0.6959118470413218
1.983100106898038
1.4339314846300142
1.983100106898038
1.4339314846300142
2.7210817399862477
1.1841751845427628
1.983100106898038
1.4339314846300142
2.008010117835825
1.4796442571959418
1.9831001068980376
1.4339314846300137
1.6381269717586473
1.6381269717586473
3.554298053211551
0.6959118470413218
1.983100106898038
1.4339314846300142
3.554298053211551
0.6959118470413218
3.554298053211551
0.6959118470413218
3.554298053211551
0.6959118470413218
1.6381269717586473
1.6381269717586473
-1.740017765080219
0.7772347086720781
0.8766102377985376
-0.36219517518282296
1.1795062496624782
0.24569415308829534
1.0392996029696193
-0.9462489750283404
-2.9676662572028185
-0.8742351919222174
-1.4063360111418306
-1.9369964467014984
1.8299128031932088
1.8732023756055864
1.482333397847722
1.8299128031932088
1.8732023756055864
1.482333397847722
1.5038378591334913
2.1745556514880944
-1.4139566366279175
2.4214272210978787
2.776129154930637
2.8994671616370087
1.6099281240214134
1.763757601467752
0.6010257270062209
1.6099281240214134
1.763757601467752
0.6010257270062209
1.398253223632072
1.648121674396255
0.068309735355648
2.494035147846111
2.2961180585401015
2.304788793145231
2.2557711612178912
1.9624513153082903
1.5698400702845412
2.607666983690347
1.1216110838073199
2.0943202041917592
1.4603171738909646
2.587286281247683
2.435723253733476
1.6929124173287688
2.3063268564613715
2.8038474894285716
2.789594218729341
2.432989539110569
3.9725667425075453
2.004529309982955
3.5718312995088617
4.281632581788747
1.851894869332089
2.9903803387658403
0.3791988546865275
2.670543528911314
2.803142759946045
3.5964045057924796
2.946277671657725
3.7096322927508245
2.168663462416756
1.7607600341836478
2.168663462416756
1.7932870507431349
2.168663462416756
2.7084420548335815
2.1038598108859357
2.168663462416756
2.2844085628843804
1.8284717079083652
1.930769205502651
3.800357262198026
2.168663462416756
1.8453858782228139
2.3380564142998983
1.954289435722476
1.8284717079083652
2.168663462416756
2.7167263623106184
2.7084420548335815
2.3380564142998983
3.1916021387626095
2.168663462416756
1.7932870507431349
1.7607600341836478
2.7167263623106184
2.0373493136029133
2.1113482982832448
2.4729471222982773
1.8284717079083652
2.168663462416756
1.9542894357224763
2.1038598108859357
2.1686634624167564
1.9542894357224763
1.9542894357224725
2.168663462416756
2.168663462416752
2.168663462416756
1.7932870507431349
2.3380564142998983
1.930769205502651
1.8284717079083652
2.1113482982832443
1.8284717079083652
2.168663462416756
1.9542894357224758
2.168663462416756
1.7607600341836478
1.7607600341836478
2.1113482982832443
1.8453858782228167
2.168663462416756
3.7550150809812224
1.930769205502651
2.953801892324488
1.8284717079083652
1.8284717079083652
1.7607600341836478
2.344996165874874
1.930769205502655
2.541698525692025
1.9542894357224763
1.9542894357224763
1.930769205502655
2.541698525692025
1.8284717079083652
1.9542894357224725
1.8284717079083652
2.1113482982832443
2.168663462416756
1.501898302928499
2.168663462416756
1.8284717079083652
1.9542894357224763
1.6922068630253877
1.7932870507431349
4.720914723784122
1.8284717079083652
2.1113482982832443
1.9542894357224763
3.1916021387626095
1.7607600341836478
6.695314600304401
1.899600197459057
1.930769205502651
2.100444326196739
1.8284717079083652
2.168663462416756
1.8284717079083652
1.7607600341836473
1.899600197459057
2.3383065620231025
1.7607600341836478
2.0193569566317264
1.8284717079083652
2.168663462416756
1.7932870507431349
5.100411203049589
1.9542894357224774
1.964657210374123
1.8968255667394402
1.7932870507431349
1.7932870507431349
2.318747336837498
1.7932870507431349
1.7885256301470966
1.9542894357224776
5.05540302524814
2.168663462416756
2.2844085628843804
2.1113482982832443
2.1038598108859357
2.168663462416756
2.103859810885935
1.8284717079083652
1.9307692055026526
1.8453858782228167
2.168663462416756
1.9542894357224754
2.168663462416756
2.168663462416756
2.1113482982832443
1.8284717079083652
2.1038598108859325
2.3006137200750385
1.7607600341836478
1.8453858782228167
2.1686634624167587
2.961331977045803
2.168663462416756
2.3006137200750385
1.7607600341836478
2.1551822511120684
2.037349313602912
2.168663462416756
1.930769205502651
1.7607600341836478
2.1113482982832443
1.9542894357224774
1.954289435722476
1.8453858782228167
1.8284717079083652
2.3006137200750385
2.168663462416756
2.168663462416756
1.7607600341836478
2.4729471222982773
1.899600197459057
2.168663462416756
5.100411203049589
2.7084420548335815
1.8284717079083652
1.8284717079083652
1.8284717079083652
2.168663462416756
3.1916021387626095
1.7607600341836473
2.720053377424051
1.7607600341836478
1.9542894357224763
2.0373493136029133
1.6922068630253877
1.7932870507431349
1.7607600341836478
2.100444326196739
2.705698968828672
2.3380564142998983
3.1916021387626095
2.0373493136029133
3.484894292590034
2.168663462416756
2.7084420548335815
1.9542894357224754
3.1916021387626095
1.9542894357224754
1.7932870507431349
1.8284717079083652
2.168663462416756
2.3380564142998983
2.1038598108859397
2.0193569566317264
1.8284717079083652
2.0373493136029177
2.3380564142998983
2.7084420548335815
1.7607600341836478
2.1038598108859317
2.168663462416756
1.7607600341836478
2.168663462416756
2.0373493136029133
1.7607600341836473
2.2844085628843804
2.168663462416756
1.7607600341836478
1.8284717079083652
1.7607600341836478
2.168663462416756
3.460404933387944
2.4729471222982773
1.8284717079083652
2.168663462416755
1.7932870507431349
1.7607600341836478
1.930769205502651
2.168663462416756
1.8453858782228167
1.9542894357224754
2.7084420548335815
3.1916021387626095
2.6495325555953055
1.7932870507431349
3.338491340914722
2.4729471222982773
0.6791101255721802
0.8282273177091651
2.404976508050593
0.8701680073860576
-0.22285606833822308
2.249440190967061
1.9460775837301671
2.453759095257565
1.8095682713219325
0.5560705300130904
1.5610122940140019
3.3301120788076526
0.5122516608803496
0.8899486836372079
1.7506068584922696
-0.2417629954125502
1.7567630224693918
1.638983535627207
0.5512428839657421
-1.9193380038550603
0.7454672769770246
-0.007014848188238831
1.9014879351549658
0.07797716036368915
0.08136429655282268
2.3675689533467232
2.113361096133228
3.209188614142952
1.311286054695304
2.9003947879383434
1.6956394090504174
3.209188614142952
1.311286054695304
1.8431122945324825
1.3043179485064833
1.8373317493761245
1.263598396581936
1.326075037419251
3.394732447190518
3.2091886141429526
1.3112860546953042
3.2091886141429526
1.3112860546953042
1.7134151371715238
2.229866100152342
3.2091886141429526
1.3112860546953042
3.2091886141429526
1.3112860546953042
2.032751365006531
2.124740834905844
2.2903961553498395
1.7894038756929826
3.2091886141429526
1.3112860546953042
2.6552267186626572
2.403302112307815
3.2091886141429526
1.3112860546953042
3.209188614142952
1.311286054695304
1.726410343135843
1.667822817320815
3.209188614142952
1.311286054695304
1.5204942183418244
1.7346945247041137
1.9952343881333119
1.351083973276783
1.8691210889288885
0.26057515390485025
1.5204942183418244
1.7346945247041137
3.209188614142952
1.311286054695304
3.209188614142952
1.311286054695304
2.8851979929674374
2.291554417216599
2.200580588719256
2.014897830415693
2.9003947879383425
1.6956394090504172
1.5204942183418244
1.7346945247041137
1.292520766931416
2.105081775256673
2.2852125137900208
1.960342555639705
1.8691210889288885
0.26057515390485025
3.209188614142952
1.3112860546953038
3.7072585590885594
2.7044665699107733
3.209188614142952
1.3112860546953038
3.209188614142952
1.311286054695304
3.209188614142952
1.311286054695304
3.209188614142952
1.311286054695304
3.209188614142952
1.311286054695304
2.9003947879383425
1.6956394090504172
3.209188614142952
1.311286054695304
1.9168015494451507
0.9495135687476168
1.7673924706313626
1.7632961487181886
4.66932733376394
3.474090854458372
3.209188614142952
1.311286054695304
3.209188614142952
1.311286054695304
1.7894334625462132
2.4039217042812484
3.209188614142952
1.311286054695304
2.032751365006531
2.124740834905844
1.6293716723618408
0.48465406601363553
1.3641588033432568
2.1199767037482453
1.6083685054200432
2.003254318837732
1.893355586107692
1.1215494667232817
3.649738906042739
2.5581890383187322
1.6824030545459028
1.861502312486136
2.2955141542868605
1.3643178275079872
2.2014805815391565
2.3219841918655812
0.08185317410540374
1.7334482111243366
1.919473592216976
4.6364685948203554
2.0719979049444
-0.14313043440974704
2.1175953842145336
-0.5203044593264602
2.2525213988616377
1.357016140988423
2.757076958836751
4.4659588840678275
1.2884528519285214
1.9223549994306994
8.368560870779373
6.992721276055408
2.2525213988616377
1.3570161409884225
1.4814778760274467
3.0619104091473783
0.9898285775413165
1.969273347886446
-0.52080564461745
1.8620801338800423
2.7468040937735054
0.45090133053282094
2.386699752080144
1.7302667586458644
1.9616333338043779
0.943218382992106
0.943218382992106
2.0786314009939946
5.954890927855958
2.0786314009939946
5.954890927855958
2.4188841441019453
5.574067717130653
2.078631400993996
5.954890927855959
2.0855188141735344
1.9809740283341901
3.038858612195027
2.0546759091065114
1.8284717079083652
2.0119091965015246
2.623629830757139
2.0855188141735344
4.34336169532565
4.492942308128021
1.9473743576825786
2.3054796133579227
1.8284717079083652
2.1600604043353266
2.30547961335792
2.1600604043353298
3.40797933719991
2.756339194775804
1.9809740283341901
2.386764363548861
3.285032036766832
3.40797933719991
2.914790100505407
2.914790100505408
2.011909196501526
2.0855188141735344
2.30547961335792
2.1600604043353266
2.756339194775804
2.914790100505408
2.011909196501526
2.011909196501526
3.038858612195027
2.528360029001524
2.0546759091065114
1.9473743576825795
2.3867643635488562
1.8284717079083652
2.914790100505407
3.40797933719991
3.0273587245477502
1.9473743576825793
2.386764363548861
2.1600604043353284
1.9809740283341901
1.8284717079083652
2.011909196501525
4.205184186322991
3.155591715874356
2.386764363548861
3.0273587245477502
1.8840169707127843
1.0109035312008656
1.2392464641160852
3.0798297477102308
2.145569989117396
2.0104149530813413
3.114597424366018
2.9797854099971732
2.145569989117396
2.0104149530813413
3.0853941351030834
2.071688559104711
2.5005930973482027
0.8761612252354432
1.1891123074755359
2.4258888745919416
2.193390379029128
2.6455211482158845
2.1233588238350047
2.7268532139294948
1.9629822291206032
0.7334221935360032
2.6101441812659227
1.6132270864707956
1.654399417363659
1.686768131922496
2.145569989117396
2.0104149530813413
1.8826311075400373
1.9406514313305048
2.1046849878563227
2.1476698004860193
2.6604852466660036
2.1598899925383837
2.1476698004860193
2.6604852466660027
3.9029001228087017
2.4977873155433423
2.1611958481981937
2.6604852466660027
2.0368271297826026
3.9029001228087017
5.275723825058477
2.4028129939722374
2.917886260015852
2.1611958481981937
3.331669856917834
2.9624860647421345
3.9029001228087017
2.161195848198193
5.275723825058477
3.9029001228087017
3.584539706379468
2.604965010070035
2.6604852466660036
2.604965010070035
2.1611958481981937
4.17720844713997
2.917886260015852
2.036827129782603
2.1476698004860193
2.1600350752333037
2.0368271297826017
1.9823937481908263
1.7286087801729755
1.372378186346736
1.9796724192090875
2.639990499997127
2.639990499997127
2.639990499997127
2.639990499997127
1.9796724192090864
2.639990499997127
1.9796724192090875
3.3595423556906203
2.76024755196365
2.7602475519636513
2.0541437524655146
2.639990499997127
2.639990499997127
2.639990499997127
2.639990499997127
2.782082519038101
2.7436022222408005
1.8284717079083652
1.979672419209086
1.979672419209086
1.9796724192090875
1.565490509500031
2.639990499997127
2.639990499997126
2.639990499997127
2.639990499997127
1.979672419209089
1.9796724192090875
1.7539799680392671
2.639990499997127
1.8284717079083652
1.9796724192090875
2.639990499997127
2.7602475519636487
1.9796724192090875
2.639990499997127
2.639990499997127
2.639990499997127
1.9796724192090875
1.9796724192090875
1.8569019089256067
1.9796724192090875
2.639990499997127
2.7702361606076678
1.7539799680392671
1.979672419209086
2.7602475519636513
2.639990499997127
2.3380564142998983
1.9796724192090875
1.9796724192090895
2.639990499997127
2.3380564142998983
2.639990499997126
2.639990499997127
1.9796724192090864
2.3725070618290363
2.639990499997127
1.9796724192090875
2.639990499997127
1.9796724192090875
2.639990499997127
2.639990499997126
2.7123246028423624
1.993540497936627
1.979672419209086
1.9796724192090875
1.9796724192090875
3.2252326286900117
2.7602475519636487
1.9796724192090875
1.9796724192090875
2.3380564142998983
1.9796724192090875
1.9796724192090875
3.009429934622957
2.0541437524655146
1.4701601704597198
1.9796724192090875
2.639990499997127
1.9796724192090875
2.639990499997127
1.9796724192090875
2.639990499997127
2.639990499997127
2.639990499997127
2.639990499997127
1.9796724192090966
2.814218790118115
2.76024755196365
2.639990499997127
2.639990499997127
2.814218790118115
1.8284717079083652
2.471839989017622
1.9796724192090873
2.639990499997127
2.7123246028423624
1.9796724192090873
1.9548675445688453
1.9796724192090873
2.639990499997127
1.9796724192090873
1.979672419209086
2.639990499997127
2.639990499997127
1.9796724192090864
2.639990499997127
2.639990499997127
1.9796724192090873
2.639990499997127
2.639990499997127
2.639990499997127
1.9796724192090873
2.639990499997126
2.639990499997127
1.9796724192090873
2.639990499997127
2.639990499997127
1.8284717079083652
1.9796724192090873
1.5654905095000309
1.9796724192090895
2.2049553128473955
3.4753098636187034
2.321774342962986
2.3917998970520222
1.4937364826405115
5.576183093147097
2.321774342962986
2.3917998970520222
1.4937364826405115
5.576183093147097
1.4937364826405108
5.576183093147096
4.14576274198333
3.249188594473879
3.2181981324117657
2.2298329907624135
3.2491885944738796
3.2491885944738796
1.9204678293027064
2.287102667887514
3.218198132411763
2.152531863942663
3.218198132411763
2.229832990762414
3.344434279111315
2.4629701529871855
3.249188594473879
2.4629701529871855
1.8284717079083648
1.8284717079083648
1.524999739903958
3.2491885944738796
2.2298329907624135
2.229832990762413
3.249188594473881
1.8284717079083648
6.473788616964921
3.2181981324117657
1.8284717079083648
3.344434279111315
3.249188594473881
2.287102667887514
3.2491885944738796
3.2491885944738796
2.460785949889633
2.1290858391015868
2.1290858391015868
3.344434279111315
3.718649602190975
3.2491885944738796
2.2298329907624135
2.287102667887514
2.2076089484890185
1.505006550191275
1.9294314134412003
2.428512857928278
2.845401120318929
2.7445571080476734
2.6240323165495916
1.943055727530029
-0.06687980376487945
1.9109188845203517
1.373850408795782
1.123217467465261
2.0436367200738563
1.7559584990941661
2.602641103603305
2.9403301462693037
2.9362470684828827
1.43837515559908
2.2090575808272233
1.6491153636545355
2.3205139145493
1.4399329392738869
3.708595884932298
5.984839237366928
5.984839237366928
5.984839237366928
5.984839237366928
5.984839237366928
1.789915889061842
2.167312842219387
2.0194128596264846
1.8284717079083646
2.0194128596264846
1.789915889061842
7.699351056227918
1.8284717079083652
1.8284717079083652
2.2422433678366156
2.242243367836615
2.2422433678366147
1.8284717079083652
1.828471707908367
2.061109063007017
2.167312842219387
7.699351056227918
1.828471707908364
2.0317239121607535
2.0194128596264846
1.8830853494191058
1.8284717079083652
2.061109063007017
1.9593420165272164
1.9593420165272164
7.151646609863937
2.2422433678366156
1.8366361933329736
1.789915889061842
2.288593744226074
2.818116607507302
2.0194128596264846
1.883085349419104
2.0317239121607544
1.789915889061842
2.0320345644184576
1.822882717967963
2.0194128596264846
1.8830853494191058
1.789915889061842
2.114030021166688
1.789915889061842
2.288593744226074
1.8284717079083659
2.0194128596264846
2.0317239121607535
2.114030021166688
1.789915889061842
1.8284717079083652
1.8830853494191067
1.789915889061842
1.789915889061842
2.307806448070123
1.8284717079083652
2.114030021166688
1.8284717079083632
3.3003269897511966
2.0317239121607535
2.2422433678366156
1.8284717079083652
2.114030021166688
2.0934176506881963
1.8830853494191067
1.8830853494191058
2.9072738301486516
1.828471707908364
1.822882717967963
1.789915889061842
1.8830853494191058
2.818116607507302
2.2422433678366156
1.8502727154918792
2.242243367836615
2.7519740596344286
5.4880402589939346
1.789915889061842
1.8284717079083652
1.789915889061842
1.8284717079083646
1.8830853494191058
2.0317239121607535
2.751974059634427
1.8830853494191067
2.1875586661877997
1.8284717079083654
1.8284717079083652
1.789915889061842
1.8284717079083654
1.8284717079083652
1.789915889061842
2.481164384427539
1.8830853494191058
1.8830853494191058
1.789915889061842
2.2422433678366156
7.151646609863937
1.8284717079083654
1.8284717079083652
2.0317239121607535
2.3380564142998983
1.883085349419104
1.9593420165272164
2.751974059634427
2.0317239121607535
7.699351056227918
1.8284717079083652
2.0320345644184576
2.163799920652002
2.2422433678366156
1.8284717079083652
2.9129597338764612
2.114030021166688
2.0194128596264846
2.360312103698945
2.0934176506881963
2.0194128596264806
2.2422433678366156
2.114030021166688
1.8284717079083652
2.2422433678366156
2.3380564142998983
2.019412859626484
1.8830853494191058
2.0317239121607527
1.8284717079083652
2.0194128596264846
1.8892431426415766
2.7519740596344286
1.8284717079083652
2.0317239121607535
1.8284717079083652
2.2422433678366147
1.8284717079083652
2.167312842219387
1.8830853494191058
2.288593744226074
2.0320345644184576
1.828471707908364
1.789915889061842
2.2422433678366156
2.0934176506881963
1.7899158890618443
2.3380564142998983
1.8284717079083646
2.0317239121607544
2.881182188067261
4.248788097351481
1.8284717079083652
1.8830853494191067
1.8830853494191053
1.8830853494191067
2.032034564418459
2.2422433678366156
2.2422433678366156
1.8830853494191058
2.0317239121607535
2.714924321391641
1.789915889061842
1.8284717079083652
2.7041366571455354
1.8505880560075194
1.6599130355613663
2.280300957393667
2.0773927813059796
1.9866870681147741
3.487805945985849
2.6678879904343566
2.6678879904343566
2.6678879904343566
2.6678879904343566
2.280300957393667
2.0773927813059796
2.66617823383731
1.8284717079083652
1.8284717079083652
2.9071614767752423
2.3380564142998983
2.9071614767752423
2.774284106231767
1.8284717079083652
2.0043863721259627
2.455532951601151
1.7629001443909553
1.8284717079083652
2.3380564142998983
2.907161476775242
1.8284717079083652
1.8284717079083652
1.9434019229600943
1.9434019229600943
3.7879399587774163
3.262208569852697
2.0043863721259627
2.3380564142998983
2.7742841062317676
1.8284717079083652
2.66617823383731
4.416854031941956
2.774284106231767
2.774284106231767
2.0043863721259627
2.7742841062317676
4.416854031941956
1.8284717079083652
1.8284717079083652
3.7879399587774163
1.8284717079083652
2.774284106231767
3.5620761879210634
2.774284106231767
2.66617823383731
1.8284717079083652
2.455532951601151
1.7629001443909553
4.162748750012396
1.8284717079083652
5.063529757573415
1.8284717079083652
1.8284717079083652
2.774284106231767
1.8284717079083652
1.8284717079083652
2.2443611197124627
2.086617838062038
2.1682176035643947
2.0866178380620384
2.086617838062038
2.0866178380620353
3.4303604392472704
2.926557285738282
2.086617838062038
2.2443611197124627
2.1682176035643947
2.7295900118232517
2.2443611197124627
2.1682176035643947
2.926557285738282
2.0866178380620384
1.9477073264872329
1.9477073264872335
1.9477073264872335
1.9477073264872335
3.215063070031357
3.21506307003136
3.21506307003136
1.9477073264872335
1.9477073264872335
1.9477073264872329
3.2150630700313565
2.3380564142998983
2.830384919905781
2.3380564142998983
2.3380564142998983
2.830384919905781
2.3006137200750385
2.3380564142998983
2.3380564142998983
2.830384919905781
2.3380564142998983
2.3380564142998983
2.3006137200750385
2.830384919905781
2.3380564142998983
2.830384919905781
2.830384919905781
2.8303849199057804
2.3380564142998983
2.830384919905781
2.3006137200750385
2.296333568586183
2.296333568586183
3.845365896003719
2.296333568586183
2.2138072818669263
2.355617548049464
3.0318681900857434
2.296333568586183
2.355617548049464
2.621425986935984
4.486521636224793
3.970657123374308
2.621425986935984
