GIS
1
0.0
2
SS
PS
3
3538 0
176 0 1
396 1
4110
prev1:digested
with_prev2_full:DC_whereas
with_prev2_full:arthritis_therefore
prev2:other
prev1:samples
with_prev2_full:tolerated_thus
prev1:clefts
prev1:BMPs
with_prev2_full:in_albeit
with_prev1_full:events_because
conn:none-the-less
with_prev1_full:Strategy_for
prev2:high
prev2:underwent
with_prev2_full:RT-PCR_for
with_prev2_full:NFAT_via
prev2:UDS
with_prev2_POS_full:NN_JJ_IN
with_prev1_POS_full:,_VBD_CD_NNS_RB_IN
with_prev2_full:7_then
with_prev1_POS_full:-RRB-_WRB
with_prev2_full:spleen_by
with_prev2_POS_full:JJ_NN
with_prev2_full:cells_and
with_prev2_POS_full:NNP_VBD_CD_NNS_RB_IN
prev1:decreased
with_prev1_full:appear_in_consequence_of
with_prev2_full:high_due_to
with_prev2_full:line_and
with_prev2_POS_full:JJ_IN_DT_NN_IN
with_prev1_full:function_by
prev1:those
with_prev1_POS_full:NNP_IN_NN_TO
with_prev2_full:band_after
with_prev1_full:low_and
with_prev2_full:marker_for
with_prev2_full:is_by
with_prev2_full:IL-2_and
with_prev1_full:which_when
with_prev2_full:batteries_i.e.
with_prev2_full:with_in_order_to
with_prev2_full:spontaneous_after
conn:at_some_point_after
prev1:reaction
with_prev2_full:negatively_by
with_prev1_full:treated_by
with_prev1_full:crucial_for
with_prev2_full:binding_when
with_prev2_full:AA_as
prev1:left
with_prev2_POS_full:NNP_IN_NNS_IN
prev1:changes
with_prev1_POS_full:NNS_VBN_IN
prev1:tumors
with_prev1_full:bound_following
with_prev1_full:s_followed_by
with_prev2_full:approaches_except_that
with_prev2_full:4_because
with_prev2_full:RT-PCR_in_order_to
prev2:control
with_prev2_POS_full:CD_VBG
with_prev1_full:detected_upon
prev2:motif
with_prev2_full:gene_in_order_to
with_prev2_full:minutes_then
with_prev1_full:strand_due_to
with_prev2_full:their_before
with_prev1_full:detected_whereas
with_prev1_POS_full:JJ_IN_DT_NN_IN
with_prev2_full:is_if
conn:presumably_as_result_of
prev1_POS::
with_prev1_POS_full:-RRB-_IN_WDT
with_prev1_full:that_when
with_prev2_full:in_in_response_to
prev2:numbers
with_prev2_full:tonsil_in_that
with_prev2_full:be_since
with_prev2_full:annealed_subsequently
with_prev2_full:promoter_for
with_prev1_full:bear_to
with_prev2_full:signal_by
with_prev1_full:retained_after
with_prev1_full:overcome_by
with_prev1_full:preincubation_and
prev2:mononuclear
with_prev1_full:essential_for
with_prev2_POS_full:,_IN
prev1:occurs
with_prev1_POS_full:VBN_IN_NN_IN
conn:by_the_fact_that
prev2:breasts
with_prev2_POS_full:JJ_TO
prev1:undertaken
with_prev2_full:examined_although
prev1:infants
conn:three_days_before
prev2:therefore
prev2:hours
with_prev1_full:Abstract_Although
with_prev2_POS_full:CD_RB_TO
with_prev2_full:produce_and
with_prev1_full:less_after
prev1:depleted
with_prev1_POS_full:NNP_DT_IN_NN_TO
with_prev1_POS_full:NNS_NN
prev1:upregulation
prev1:right
prev1:phospho-p38
with_prev2_full:exposure_and
with_prev2_full:features_whereas
prev2:driving
with_prev2_full:over_before
with_prev2_full:T_by
with_prev2_full:cross-hybridization_since
with_prev2_POS_full:RB_VBG
prev1:separately
conn:8_12_weeks_after
with_prev2_full:prevent_following
prev2:short
prev2:NFAT
with_prev1_full:hour_prior_to
with_prev1_full:footnote_for
with_prev2_full:time_before
with_prev1_POS_full:CD_TO
prev2:various
prev2:over
with_prev1_full:paraformaldehyde_to
prev1:dictated
with_prev2_POS_full:JJ_IN
with_prev2_POS_full:VBD_VBG
with_prev1_full:induced_by
with_prev1_POS_full:,_VBD_IN
with_prev2_full:signalling_and
with_prev2_full:regulators_by
prev2:epithelium
with_prev1_full:h._Thereafter
with_prev1_full:regulated_following
prev2:rabbit
with_prev1_full:account_when
conn:despite
with_prev2_full:which_thus
with_prev1_full:cells_although
prev1:can
with_prev1_full:useful_for
with_prev1_full:diagnosed_as
prev2:three
prev1:T-cells
with_prev1_full:hybridisation_and
with_prev2_POS_full:CD_VBN_IN
with_prev2_full:total_because_of
with_prev1_full:subcutaneously_three_days_before
with_prev2_full:less_in_response_to
with_prev2_full:of_while
with_prev2_full:morphogenesis_namely
with_prev1_full:regulated_by
with_prev2_full:rabbit_and
prev2:not
with_prev1_full:might_also
prev2:Top
prev2:p38
with_prev1_full:failed_to
prev1:correct
with_prev2_full:AA_i.e.
with_prev2_full:an_since
with_prev2_full:regulated_while
with_prev2_full:Balb\/c_to
prev1:oligonucleotide
prev2:inhibits
prev1:also
prev2:metabolism
with_prev1_POS_full:NNS_TO
with_prev2_full:a_for
with_prev2_full:pathology_specifically
with_prev2_full:vaccine_and\/or
prev2:tested
with_prev1_full:excluded_by
with_prev2_full:uracil_whereas
prev2:for
with_prev1_full:,_whereas
prev2:p53
with_prev2_full:noncovalently_and
with_prev2_full:BRCA1_despite
with_prev2_full:here_but
with_prev2_full:proliferative_following
with_prev2_full:--_after
with_prev2_full:to_after
with_prev1_POS_full:NNP_VBG
prev2:USA
with_prev2_full:Thus_although
with_prev1_full:cause_for
prev2:spermatogenesis
with_prev2_full:is_in_large_part_by
prev2:colleagues
conn:furthermore
with_prev1_full:levels_by
with_prev2_full:one_following
prev2:CHOP
with_prev2_full:be_in_part_by
with_prev2_full:-RSB-_while
with_prev2_full:situ_but
with_prev2_full:promoter_albeit
with_prev2_full:production_in_part_by
with_prev2_full:24_For
with_prev2_full:immunobead_prior_to
prev2:hypothesise
prev2:without
prev1:coagulation
with_prev2_POS_full:NNS_IN_DT_NN_IN
with_prev2_full:Finally_although
prev2:profile
with_prev1_full:receptors_to
prev1:ability
prev2:rats
with_prev2_full:shown_when
prev2:lesions
prev2:duct
with_prev1_full:axis_and
with_prev2_full:is_to
prev2:sufficient
with_prev2_full:Giemsa_then
with_prev2_full:PBS_before
with_prev2_full:transcription_by
prev2:oligonucleotides
with_prev1_full:used_for
prev1:transientlyco-expressed
with_prev2_POS_full:CD_RB_IN
with_prev1_full:,_followed_4_hours_later_by
prev1:but
with_prev2_full:radiation_while
prev1:computed
with_prev2_full:73_whereas
with_prev1_full:gene_to
prev2:probes
with_prev2_full:transition_so
with_prev1_full:androgens_by
with_prev2_full:Oct2_although
with_prev2_full:values_by
with_prev1_full:gene_through
prev2:responded
prev1:stimulation
with_prev2_full:ethanol_finally
with_prev1_full:inverted_by
prev2:stage
conn_POS:CD_NNS_RBR
conn_POS:CC_CC
with_prev1_full:was_due_to
conn:albeit
with_prev1_full:and_therefore
with_prev1_full:,_by
prev2:shown
prev1:experiments
with_prev2_full:lesser_because
prev1:longer
with_prev2_full:the_180_seconds_after
with_prev2_full:cancers_namely
prev1:FDCs
with_prev1_full:,_as
with_prev1_full:performed_but
prev2:DNMTs
with_prev1_full:but_while
with_prev2_full:experiments_and
with_prev2_full:repair_following
prev2:stimulation
prev1:formed
with_prev1_full:,_except_for
with_prev1_POS_full:TO_IN
with_prev1_full:selected_by
with_prev2_full:is_due_to
prev1:less
with_prev2_full:assessment_but
with_prev2_full:Interestingly_whereas
with_prev1_POS_full:VBZ_JJ_TO
with_prev1_full:established_by
prev2:MDA-MB-453
with_prev1_full:induction_followed_by
with_prev1_full:transcripts_after
with_prev2_full:members_rather
prev1:20
with_prev1_POS_full:JJ_VBG
with_prev1_full:micrometastases_because
with_prev1_full:samples_and
with_prev2_full:from_by
with_prev1_full:arthritis_by
with_prev1_full:densitometry_and
with_prev2_full:survive_and
with_prev1_full:,_as_demonstrated_by
prev2:pathology
with_prev1_full:stability_in_response_to
with_prev2_full:cells_although
prev1:electronically
prev1:pronounced
prev2:roles
with_prev1_POS_full:RB_IN
with_prev2_full:Southern_to
with_prev1_POS_full:-RRB-_VBG
with_prev1_full:mice_if
with_prev2_full:was_as_early_as_24_h_after
conn_POS:IN_CD_CD_NN_IN
with_prev2_full:washed_prior_to
prev2:lateral
with_prev1_full:But_in_contrast_to
with_prev1_full:controls_to
conn_POS:NNP
prev1:seen
prev2:anti-CD4
prev2:TNF-α
with_prev2_POS_full:NN_VBG
conn:Thereafter
prev1:account
prev2:1.0
with_prev2_full:false_due_to
with_prev2_full:T_to
prev1:twice
with_prev1_full:leukaemogenesis_by
with_prev2_POS_full:NN_VBZ
prev2:suggesting
prev2:respectively
with_prev2_full:breasts_so
prev2:fusion
with_prev2_POS_full:VBG_WRB
with_prev1_full:for_after
with_prev2_full:events_immediately_after
with_prev1_full:translated_due_to
prev2:night
with_prev2_POS_full:RB_NNP
with_prev1_full:instructive_by
prev2:ontogeny
prev2:carried
conn_POS:CC_IN
with_prev2_full:autoclave_then
prev2:EpCAM
prev2:Invertor
prev2:spleen
with_prev1_full:around_to
with_prev2_POS_full:RBR_WRB
prev2:after
with_prev2_full:minutes_and
prev2:106
with_prev1_POS_full:,_PDT_DT
with_prev1_full:respond_by
with_prev1_POS_full:CC_WRB
prev2:100
with_prev1_full:development_because
with_prev2_full:or_upon
with_prev2_full:were_due_to
prev2:ductal
with_prev2_full:almost_by
with_prev1_full:normally_by
with_prev2_full:vessels_and
with_prev1_full:;_thus
with_prev2_full:NASBA-QT_specifically_to
with_prev2_full:in_for_example
prev2:tumor
with_prev2_full:-RRB-_also
prev1:visualised
prev1:cell
prev1:low
prev2:lymph
with_prev1_full:buds_and
with_prev1_full:slip_before
with_prev1_POS_full:VBN_IN_NN_TO
with_prev1_full:reaction_only_if
conn:Although
prev1:improved
with_prev1_full:digested_by
with_prev1_full:,_even_though
prev2:regulators
with_prev2_POS_full:TO_JJ_TO
prev1:subcutaneously
with_prev2_full:in_by
with_prev2_full:maturation_in_part_via
prev2:staurosporine-induced
conn_POS:IN_JJ_NN_IN
prev1:translated
with_prev1_POS_full:RB_CC
prev2:interactions
with_prev2_full:defect_at_some_point_after
with_prev1_POS_full:NN_JJ_TO
with_prev1_full:and_finally
with_prev1_full:activated_following
with_prev2_full:presented_if
prev2:homeostatic
prev1:regulation
prev1:calculated
with_prev1_full:staining_following
with_prev1_full:,_i.e.
prev1:affected
prev2:gated
with_prev1_full:immunocytochemistry_and
conn_POS:VBZ
prev2:addition
conn_POS:VBN
prev2:Comp
with_prev1_full:left_to
with_prev1_full:species_by
with_prev1_full:analyzed_8_12_weeks_after
with_prev2_full:Comp_prior_to
conn_POS:VBG
with_prev2_full:cell_as_demonstrated_by
prev1:offspring
with_prev2_full:was_via
with_prev2_full:GSK3β_by
with_prev1_full:correct_and
with_prev2_full:synovial_by
prev1:specific
prev2:expected
with_prev1_full:cells_As
prev1:instructive
prev1:unsuitable
prev2:47,48
with_prev2_full:short_despite
with_prev2_full:MDA-MB-453_but
with_prev1_full:20_and
with_prev2_full:,_thereby
with_prev1_full:panel_to
prev2:vessels
with_prev1_full:annotated_by
with_prev1_full:investigated_by
conn:In_contrast_to
with_prev2_full:committed_to
with_prev2_full:differentiating_by
with_prev1_full:augmented_by
with_prev2_full:is_prior_to
with_prev2_full:microtubes_subsequently
prev2:p-value
prev1:course
with_prev2_full:particularly_insofar_as
with_prev1_full:,_furthermore
prev2:dust
with_prev1_full:experiments_unless
prev2:frame
with_prev2_full:synovial_and
with_prev2_full:USA_two_hours_before
with_prev1_full:explanation_for
with_prev1_POS_full:VBN_IN_JJ_NN_IN
with_prev2_full:and_after
with_prev1_full:,_specifically
with_prev2_full:latency_and
with_prev1_full:extended_to
with_prev1_full:arrows_and
with_prev1_POS_full:RB_JJ_TO
with_prev1_full:supported_to
with_prev2_full:36_to
prev2:committed
prev1:measurements
conn:in_part_via
with_prev1_full:secreted_following
with_prev2_POS_full:IN_IN_CD_CD_NN_IN
with_prev2_full:μg_and
with_prev1_full:C_to
prev2:min
with_prev2_full:are_but
prev2_POS:TO
with_prev1_full:gene_by
conn:in_that
with_prev2_full:demonstrate_while
with_prev2_full:features_when
with_prev1_full:event_in_response_to
prev1:isolated
with_prev2_POS_full:VBP_CC
with_prev2_full:splenic_for
prev1:marker
conn:four_hours_after
with_prev2_full:II_and
with_prev1_full:-RSB-_and
with_prev2_full:be_upon
with_prev2_POS_full:RB_IN
with_prev1_full:BMP-6_upon
with_prev2_POS_full:VB_IN_NN_IN
with_prev2_full:from_to
prev2:during
with_prev1_full:analysis_to
with_prev2_full:above_and
prev2:inhibition
with_prev2_full:preventively_by
with_prev1_POS_full:NN_RB_IN
with_prev2_POS_full:RB_JJ
with_prev2_POS_full:NNS_RB_IN
with_prev1_full:tasks_during
with_prev1_full:selection_via
with_prev1_full:expressed_by
prev1:-RSB-
with_prev2_full:-RSB-_probably_because_of
with_prev1_full:captured_by
conn_POS:VBN_IN
with_prev2_full:cells_whereas
prev1:described
conn_POS:IN_DT_NN_TO
prev2:particularly
with_prev2_full:in_if
with_prev1_POS_full:NN_CD_NNS_IN
with_prev1_full:proposed_to
with_prev1_full:cells_if
prev1:tip
prev1:risk
with_prev2_POS_full:CC_IN
with_prev2_POS_full:NN_NNP
with_prev1_full:unsuccessful_due_to
prev1:occur
with_prev1_full:C_and
with_prev2_full:turnover_thus
with_prev1_full:,_particularly_if
with_prev2_full:invertor_after
with_prev1_full:population_to
with_prev1_full:for_by
prev2:cDNA
prev2:clinical
with_prev1_full:longer_before
with_prev1_full:coagulation_by
prev2:apoptosis
with_prev2_full:genes_such_that
with_prev2_full:response_regardless_of
with_prev1_full:calcium_for
with_prev1_full:downstream_by
with_prev1_full:examined_except_for
with_prev2_full:stringency_to
prev1:performed
with_prev2_full:been_for
with_prev2_full:more_when
with_prev1_full:,_albeit
conn:immediately_after
prev1:rescued
prev1:depends
prev2:Oct1
prev2:Oct2
with_prev2_full:technical_in_order_to
with_prev2_full:cells_but
with_prev2_full:3_after
with_prev2_POS_full:RBR_IN_DT_NN_IN
with_prev2_full:complex_by
with_prev2_full:-RSB-_even_though
prev1:lethal
conn:probably_due_to
with_prev1_full:DNMTs_if
with_prev1_full:and_since
prev1:inverted
with_prev1_full:vivo_when
with_prev2_full:on_to
with_prev2_full:DCs_and
with_prev1_full:chosen_in_order_to
conn:Regardless_of
with_prev2_full:of_Although
with_prev1_POS_full::_WRB
with_prev1_full:,_whilst
with_prev1_full:tumors_by
prev1:prepared
with_prev2_full:an_to
with_prev1_full:points_and
with_prev2_POS_full:VBP_IN
conn:before
prev1:amplicons
with_prev2_full:single_to
with_prev1_full:cells_to
with_prev2_full:age_such_that
prev2:descriptions
with_prev2_POS_full:NNS_RB_TO
with_prev1_POS_full:,_VBN_IN
conn:although
with_prev2_full:fatty_by
with_prev1_full:background_to
with_prev1_full:,_although
with_prev1_full:tolerance_to
with_prev1_full:euthanized_due_to
prev1:delay
prev2:carcinoma
with_prev1_full:-RRB-_because
conn_POS:IN_DT_NN_IN
conn:Four_days_after
prev2:pTK-RL
with_prev2_full:pathway_whereas
prev2:Interestingly
with_prev2_full:immunological_and
prev2:spleens
with_prev2_full:genes_as
with_prev2_full:screening_due_to
with_prev1_full:production_in_part_by
with_prev2_full:family_and
prev2:several
prev1:signals
with_prev2_full:M_in_order_to
with_prev2_POS_full:RB_CC
with_prev1_full:cycles_presumably_due_to
with_prev2_full:differentiation_although
with_prev1_full:upregulation_four_hours_after
conn:followed_by
prev2:suggests
with_prev2_full:to_in_consequence_of
with_prev1_full:vivo_On_the_basis_of
with_prev2_full:progenitor_as
with_prev2_full:nucleus_although
with_prev1_full:recombinase_to
prev2:complete
with_prev1_full:cells_or
with_prev2_full:cells_whilst
prev2:end
with_prev1_full:pDCs_after
prev2:splenic
with_prev1_POS_full:NNS_IN
with_prev2_full:factor_whereas
with_prev1_full:,_followed_by
with_prev1_full:IRF-4-expression_since
with_prev2_full:,_in_turn
with_prev2_POS_full:,_TO
with_prev1_full:delivered_prior_to
with_prev2_full:marker_to
with_prev1_POS_full:NN_RB_TO
prev2:repair
with_prev2_POS_full:IN_RB_TO
with_prev1_full:,_except_that
with_prev1_full:,_in_addition_to
prev2:interval
with_prev2_full:that_since
with_prev1_full:antibody_and
with_prev2_full:similar_to
with_prev2_full:be_due_to
with_prev1_full:BMPs_and
with_prev2_full:10_after
with_prev2_full:Notably_despite
with_prev1_full:standard_to
with_prev2_full:fusion_to
with_prev2_POS_full:VBD_CD_NN_IN
with_prev2_POS_full:VB_IN_NN_TO
prev1:suppression
with_prev2_full:initiate_while
with_prev1_full:amplification_for
with_prev2_full:cell_following
prev1:reversed
prev1:hematoxylin
with_prev1_full:dependent_as
conn:Once
prev1:development
with_prev1_full:observed_after
with_prev1_full:inhibited_by
with_prev2_full:PI3-K_and
with_prev2_full:gated_and
with_prev2_full:mRNA_by
prev2:members
prev1:arrows
with_prev2_full:DNMTs_while
with_prev1_full:IL-2_following
with_prev2_full:test_and
with_prev2_full:hybridisations_due_to
prev1:eliminated
with_prev1_POS_full:,_IN_NNS_IN
with_prev1_full:breasts_and
with_prev1_full:accomplished_in_large_part_by
with_prev1_POS_full:IN_IN_NN_TO
prev2:Rag1
with_prev2_POS_full:CD_WRB
with_prev2_full:cells_followed_by
with_prev1_full:animals_in_response_to
with_prev2_full:on_and
with_prev2_full:markers_and
with_prev1_full:C_until
with_prev2_full:obvious_because
conn:In_comparison_with
with_prev1_full:was_next
with_prev2_full:lymphomas_when
with_prev2_POS_full:JJ_IN_NN_TO
with_prev2_full:ductal_and
prev2:internal
with_prev2_full:stimulation_and
with_prev2_full:13_however
prev2:chose
with_prev1_full:hours_followed_by
with_prev2_full:these_by
with_prev1_full:described_and
with_prev2_POS_full:NN_JJ_TO
conn:in_part_by
with_prev2_full:buds_but
prev2:express
with_prev2_POS_full:JJ_CC
with_prev2_full:B_by
with_prev1_full:lethal_and
with_prev1_full:required_to
prev1:estimated
prev2:fully
with_prev2_full:AIDS-KS_due_to
prev1:selection
prev1:translocations
prev2:cytokines
with_prev2_full:post_by
with_prev1_POS_full:WDT_WRB
with_prev2_full:if_prior_to
with_prev1_full:purified_by
with_prev1_full:decreased_by
prev2:cellular
with_prev1_full:thymus_after
with_prev2_full:pellet_next
with_prev1_full:specificity_by
with_prev1_full:expression_due_to
with_prev2_POS_full:IN_IN_NN
with_prev1_full:detected_when
prev2:cursor
with_prev2_full:was_after
with_prev2_POS_full:NNS_VBD_IN
with_prev2_POS_full:CC_TO
prev2:promoter
with_prev1_full:stimulated_by
with_prev2_full:was_until
prev1:present
with_prev2_full:experimental_to
conn:Based_on
prev2:lytic
with_prev2_full:that_also
prev1:constructed
with_prev1_full:responses_following
prev2:integration-site
prev2:approaches
prev1:footnote
prev2_POS:-LRB-
with_prev2_full:cytokines_by
with_prev2_full:octamer_predominantly_via
with_prev1_full:arthritis_in_response_to
prev2:translocations
with_prev1_full:but_once
with_prev1_full:hour_following
prev2:band
conn:whereas
prev2:detected
with_prev2_full:B_or
with_prev2_full:positions_and
with_prev1_full:points_before
prev2:feedback
with_prev2_POS_full:VBG_IN
prev2:almost
with_prev2_full:considered_when
prev2:putative
prev1:micrometastases
with_prev1_full:cultured_for
prev1:stopped
prev1:explained
with_prev1_POS_full:JJ_IN_NN_TO
with_prev2_full:function_particularly_through
prev2:documentation
with_prev1_full:,_as_inferred_by
with_prev2_full:this_but
with_prev1_full:cells_by
with_prev2_POS_full:VBG_CC
prev1:triggered
with_prev1_POS_full:VBN_JJ_TO
with_prev1_full:microarrays_in_order_to
with_prev2_full:proliferation_by
with_prev1_POS_full:NNS_WRB
with_prev1_full:ERG_to
with_prev1_full:cross-linking_after
with_prev2_full:type_by
with_prev2_full:locally_but
prev2:Streptavidin-Cy-Chrom
with_prev2_full:phosphorylation_as
with_prev2_POS_full:RB_TO
with_prev2_full:performed_because
with_prev2_full:5_even_though
prev2:inflamed
prev1:studied
with_prev1_POS_full:NNS_CC
conn:Two_hours_after
with_prev2_full:exposure_if
prev2:hereditary
prev1:occurred
with_prev2_POS_full:CC_RB
prev2:c-jun
with_prev2_full:medium_then
with_prev1_full:susceptibility_due_to
prev1:thermocycling
prev1:buffer
with_prev2_full:B_although
with_prev2_full:spaces_not_due_to
with_prev1_full:region_for
with_prev2_full:role_through
with_prev2_full:dust_to
prev2:this
with_prev1_full:PCR_after
with_prev2_full:exposure_after
with_prev1_full:findings_and
prev2:oligonucleotide
conn_POS:RB_TO
prev1:activation
prev2:increasingly
prev1:quantitated
with_prev2_full:blood_and
prev2:battery
with_prev2_full:-RSB-_but
prev1_POS:-LRB-
prev2:transgenic
conn:particularly_through
conn:for
prev2:beads
with_prev2_full:cells_while
with_prev1_full:gene_but
with_prev2_full:separate_and
prev2:spontaneous
prev1:disease
with_prev1_full:sites_by
with_prev2_full:possible_for
with_prev1_full:;_for_example
with_prev2_full:complete_via
with_prev1_full:defined_by
conn:not_due_to
with_prev2_full:production_when
with_prev2_full:used_to
with_prev2_full:be_after
prev1:targets
with_prev1_full:responsiveness_upon
with_prev2_full:homologous_to
with_prev2_full:first_by
prev2:immune
with_prev1_full:but_to
with_prev2_full:these_through
prev1:lumpectomy
prev1:be
prev2:hour
with_prev1_full:were_thus
prev1:mixture
with_prev1_full:and_thus
with_prev2_full:mammogens_through
with_prev1_full:AA_after
with_prev2_full:C_followed_by
with_prev2_full:tissue_as_a_result_of
with_prev1_full:either_as_a_result_of
with_prev2_POS_full:JJ_RB_IN
with_prev1_full:AA_upon
with_prev2_full:clinical_in
with_prev2_full:lymph_following
with_prev1_full:amplicons_and
prev2:fiber
prev1:identically
with_prev2_full:disease_and
with_prev1_POS_full:-LRB-_RB
with_prev2_full:function_also
with_prev2_full:fusion_when
conn:for_instance
conn:In_addition_to
prev2:arthritis
prev1_POS:CD
with_prev1_full:signaling_by
with_prev1_full:,_e.g.
with_prev2_full:2_to
prev1:parameters
with_prev2_full:periductal_and
prev2:PI3K
with_prev1_full:role_during
with_prev2_full:extraction_and
with_prev2_POS_full:VBN_RB_TO
prev1_POS:CC
with_prev2_full:controls_and
with_prev1_full:IgM-IC_and
with_prev2_full:BMP-6_after
with_prev2_POS_full:EX_RB
with_prev2_POS_full:NNS_IN_IN
with_prev2_POS_full:TO_IN
with_prev1_full:ultrasound_to
with_prev1_full:completely_by
with_prev2_POS_full:-LRB-_IN
prev2:Notably
prev2:CD4
with_prev2_POS_full:TO_JJ
conn_POS:JJ_IN
with_prev2_full:whole_to
with_prev1_full:,_because
with_prev1_full:measured_after
prev2:SEB
prev2:culture
with_prev1_full:assay_and
prev1:caused
with_prev2_full:underwent_followed_by
prev1:determined
with_prev1_POS_full:VBN_IN
prev1:-LRB-
prev2:Conclusion
with_prev2_full:%_when
conn_POS:CD_CD_NNS_IN
with_prev2_full:cells_by
prev1:sacrificed
prev2:pellet
with_prev1_full:,_in_particular_because_of
prev1:pathologist
with_prev2_full:,_although
prev1:elicitation
prev1:occurring
conn:Given
with_prev1_full:similar_but
prev1:made
with_prev1_full:healthy_since
with_prev2_full:sense_due_to
with_prev1_full:other_to
with_prev1_POS_full:VBG_IN_NN_TO
prev1:either
with_prev1_full:Gene_by
with_prev2_POS_full:IN_WRB
with_prev1_full:strategies_for
with_prev2_full:subjects_although
with_prev2_full:TCR-mediated_to
prev1:purified
prev2:first
with_prev2_full:or_after
prev1:TGF-β
with_prev2_full:minutes_prior_to
conn:in_large_part_for
with_prev2_POS_full:NN_IN_IN
with_prev2_full:be_to
prev1:transfected
prev2:cross-hybridization
conn_POS:JJ_TO
with_prev1_POS_full:CC_IN_NN
prev2:locally
with_prev2_full:T_both_upon
with_prev1_full:size_and
with_prev2_full:TGF-β_by
with_prev1_full:chosen_to
with_prev1_full:occurred_after
with_prev1_full:,_as_a_result_of
with_prev2_POS_full:NN_IN_NN_IN
prev1:systems
with_prev1_full:,_in_that
prev1:possible
with_prev2_full:reaction_and
prev1:curation
prev1:tissues
with_prev1_full:model_when
with_prev2_full:TECs_by
with_prev2_full:B_and
prev2:being
with_prev2_POS_full:,_WRB
with_prev2_full:tumor_because
with_prev1_full:level_to
with_prev1_full:pDCs_once
with_prev2_full:here_in_particular_because_of
with_prev1_full:-LRB-_particularly_since
with_prev2_POS_full:JJ_CD_NNS_VBG
with_prev2_full:be_if
prev2:glycerol
with_prev2_full:all_and
prev1:ancrod
prev1:excluded
prev2:overnight
prev2:staurosporine
with_prev2_full:protein_and
prev2:immunological
conn:namely
prev1:in
with_prev1_full:but_rather
prev1:employed
with_prev2_full:arthritis_i.e.
with_prev2_full:PB_after
with_prev1_full:mRNA_upon
with_prev2_full:and_to
with_prev2_full:to_following
with_prev2_full:signalling_also
conn:in_response_to
with_prev1_POS_full:VBN_TO
with_prev1_full:-_when
with_prev1_full:,_thereby
with_prev1_POS_full:-LRB-_IN
with_prev2_POS_full:NN_CC_IN
with_prev2_full:mechanisms_when
with_prev2_full:44_to
with_prev1_full:that_whilst
conn:particularly_if
with_prev1_full:,_and\/or
with_prev2_full:-RSB-_because
with_prev1_POS_full:,_RB_TO
prev1:induced
with_prev1_full:produced_by
with_prev1_full:observed_following
with_prev2_full:6_and
with_prev1_POS_full:VB_IN_NN_IN
prev1_POS:JJ
with_prev2_POS_full:WDT_IN_NN
with_prev1_full:assessed_before
with_prev2_full:-RRB-_while
with_prev1_full:present_or
prev2:JNK
prev1:aligned
prev2:31,32
with_prev1_full:LAP_to
with_prev1_POS_full::_IN_NN
prev1_POS:IN
with_prev2_full:were_10_min_before
prev1:h.
with_prev2_full:target_through
with_prev2_full:human_and
with_prev2_full:mRNA_presumably_as_result_of
with_prev2_full:24_when
prev2:present
conn:except
conn:with
with_prev2_full:maximal_two_hours_after
with_prev2_full:did_through
with_prev2_full:cytokine_due_to
with_prev1_full:Treg_and
conn:unless
with_prev2_full:colleagues_and
prev1:c-jun
with_prev2_POS_full:VBZ_IN_JJ_NN_IN
with_prev1_POS_full:VBN_VBG
prev1:amplification
prev1:calcium
with_prev2_full:was_and
conn_POS:IN_VBN_IN
prev2:samples
with_prev2_POS_full:NNP_IN_NN_TO
prev1:visible
prev1:around
with_prev1_POS_full:,_IN_NN_TO
with_prev2_POS_full:NN_IN_RB
conn:30_minutes_prior_to
with_prev2_full:activation_therefore
prev2:difference
with_prev2_full:newborn_after
with_prev2_full:UK_by
with_prev2_full:-RSB-_to
with_prev1_POS_full:NN_WRB
prev2:above
prev2:T-cells
with_prev1_POS_full:,_IN_DT_NN_IN
with_prev2_full:that_whereas
with_prev1_POS_full:,_IN_NN_IN
with_prev1_full:reactions_due_to
with_prev2_full:developed_when
conn:since
with_prev2_full:to_to
with_prev2_full:amplification_and
with_prev2_full:UDS_to
with_prev2_full:Thus_after
with_prev2_full:with_and
with_prev2_full:medulla_while
with_prev2_full:transgenic_if
with_prev2_POS_full:NNP_VBG
with_prev2_full:be_in_order_to
with_prev1_full:assay_to
with_prev2_POS_full:VBD_WRB
prev1:region
with_prev1_full:and_then
with_prev2_full:inhibition_also
prev1:indirectly
with_prev1_full:curation_to
with_prev2_full:However_as
prev1:encoded
with_prev1_POS_full:VBP_VBG
with_prev2_POS_full:VBP_TO
with_prev1_full:extracted_and
with_prev2_full:-RSB-_so
with_prev1_full:those_due_to
with_prev1_full:plated_for
with_prev1_full:,_in_contrast_to
with_prev2_full:of_and\/or
with_prev1_full:tissue_and
with_prev1_full:markers_and
prev2:NFKB1
with_prev1_full:,_although_still
with_prev2_full:control_both_upon
with_prev1_full:,_namely
with_prev2_full:d_whereas
with_prev2_full:trend_but
with_prev2_full:conserved_and
with_prev2_full:response_following
with_prev1_full:targets_since
prev1:Gene
with_prev1_full:phenotype_by
with_prev2_full:lesions_and
with_prev1_POS_full:VBG_RB_IN
with_prev1_full:,_particularly_to
prev2:separate
with_prev2_full:are_upon
prev2:IFN-α
with_prev1_full:vitro_and
prev1:genes
prev1:conceived
prev2:trend
with_prev1_full:-RRB-_to
prev2:mutants
with_prev1_full:encoded_by
prev2:those
with_prev1_full:concentrations_and
with_prev2_full:filter_and
prev1:higher
conn:On_the_basis_of
with_prev1_full:cluster_before
prev1:thymus
with_prev2_POS_full:JJR_VBG
prev1:responsible
with_prev2_full:culture_and
with_prev1_full:NaOH_in_order_to
prev2:considered
prev2:maturation
with_prev2_full:−_and
prev1:1997
prev1:abrogated
prev1:1994
with_prev2_full:developed_in_response_to
with_prev2_full:assayed_after
prev2:cover
with_prev2_full:patients_while
with_prev2_full:Treg_when
with_prev2_full:Cre_to
prev1:preincubation
with_prev2_full:roles_through
with_prev1_full:immunoblotting_after
with_prev2_full:overnight_and
with_prev1_full:chosen_as
prev2:features
with_prev2_full:interactions_or
conn:regardless_of
with_prev2_POS_full:NN_IN_NN_TO
prev1:cultured
with_prev1_full:mixture_prior_to
prev1:staining
with_prev2_full:TGF-β_to
with_prev1_full:signals_through
with_prev2_full:-RSB-_however
prev2:technically
with_prev1_full:night_before
prev2:isotype
prev2:transversion
prev1:vitro
with_prev2_POS_full:VBD_VBD_IN
prev2:phenotypic
prev2:fragment
prev2:Mechanistically
prev1:slip
with_prev1_full:stopped_by
prev1:induction
with_prev1_full:shut-off_by
with_prev2_full:also_after
with_prev1_full:-LRB-_although
prev2:line
with_prev2_POS_full:TO_TO
with_prev1_full:sarcoma_by
prev1:chosen
prev1:agarose
prev2:SnoN
prev1:specificity
prev1:neurons
with_prev2_full:end_and
with_prev1_full:feasible_due_to
with_prev2_full:precursors_although
conn:due_to
with_prev2_POS_full:RB_WRB
prev1:secretion
with_prev1_full:-RRB-_thus
with_prev1_full:,_following
with_prev2_full:promoter_via
prev1:nodes
with_prev2_full:lethal_thus
with_prev1_full:bound_and
conn:by_means_of
with_prev1_full:marker_but
with_prev2_full:single_after
prev1:to
with_prev1_full:occurring_between_1_2_h_after
prev2:preventively
with_prev1_full:reduced_and
with_prev1_full:and_subsequently
with_prev2_full:-RSB-_thus
with_prev1_full:mats_and
prev2:assessment
with_prev2_full:Pax5_by
with_prev2_full:assay_namely
with_prev1_full:analysis_and
with_prev1_full:identified_by
conn:Besides
prev1:fusion
prev2:neurons
conn:as_early_as_24_h_after
with_prev2_full:and_finally
with_prev1_full:-RRB-_prior_to
prev1_POS:VBG
with_prev2_full:SnoN_by_means_of
with_prev1_full:-RRB-_if
with_prev2_full:cellular_to
prev1:panel
prev2:sense
prev1:detected
with_prev2_full:intermediates_whereas
with_prev1_full:were_due_to
prev1:choice
with_prev1_full:RT-PCR_after
prev2:synthesised
with_prev2_full:manual_to
with_prev1_full:it_nevertheless
conn:Through
with_prev1_full:amounts_and
conn:In_response_to
prev1:hysterectomy
with_prev2_POS_full:VBZ_RB_TO
conn_POS:IN_DT_JJ_NN_IN
with_prev2_POS_full:CD_CD_NNS_RB_TO
conn:When
with_prev2_full:NRO_but
with_prev2_full:expected_and
with_prev1_full:C._Four_hours_later
with_prev2_full:stage_not_due_to
prev1:reduced
with_prev1_POS_full:VB_JJ_TO
with_prev2_full:transcription_while
with_prev2_full:phenotypic_during
conn:nor
with_prev2_full:were_for
conn:not
with_prev2_full:to_by
prev1:C.
with_prev1_POS_full:NNP_IN
with_prev2_full:frame_while
with_prev1_full:isolated_by
prev1:buds
prev1:PCR
with_prev2_full:-RRB-_after
prev2:activation
prev2:batteries
prev1:achieved
with_prev1_full:primarily_via
with_prev1_full:differentiation_after
prev1:proposed
prev2:by
with_prev1_full:analysis_after
prev1:procedure
with_prev1_full:significant_if
prev1:investigated
with_prev1_full:PBMNCs_prior_to
prev2:TEC
prev1:PBS
prev1:sequence
with_prev1_POS_full::_IN
prev2:TCR
with_prev1_full:generated_as_a_direct_consequence_of
with_prev2_full:system_as_inferred_by
prev1:AA
with_prev1_full:achieved_primarily_by
with_prev2_full:functions_i.e.
with_prev2_full:was_to
with_prev2_full:SP_after
prev2:an
prev1:for
prev2:as
with_prev1_POS_full:NN_IN_DT_NN_IN
with_prev1_full:cases_after
prev1:min
with_prev1_full:cells_when
with_prev2_full:during_and
with_prev1_POS_full:JJ_JJ_TO
prev2:signalling
with_prev1_POS_full:VBN_WRB
with_prev1_full:agarose_to
prev1:extended
with_prev2_full:were_via
with_prev2_full:°_until
with_prev1_full:thymidine_after
prev2:macrophages
with_prev2_full:phosphorylation_except_that
with_prev1_full:expand_following
prev1:vivo
prev2:experimental
prev1:cross-linking
prev2:lethal
with_prev1_full:explained_by
prev1:breasts
with_prev2_POS_full:VBN_IN
conn:Provided_that
with_prev2_full:were_following
with_prev2_full:defects_and\/or
conn_POS:CD_NN_IN
with_prev1_full:CD69_to
prev2:undetectable
with_prev2_POS_full:NN_IN_WDT
with_prev2_full:apoptosis_followed_by
conn:10_min_before
with_prev1_full:contact_while
with_prev1_full:tool_in
with_prev2_full:sensitive_to
prev1:healthy
with_prev2_full:injection_whereas
with_prev1_POS_full::_CC
with_prev1_full:hybridisation_to
with_prev1_full:-RRB-_by
prev1:activated
prev1:overcome
prev2:one
with_prev2_full:were_to
with_prev1_full:phenotypes_by
prev2:convergent
with_prev1_full:cells_but
prev1:enhanced
prev2:increase
with_prev1_POS_full:NNS_VBG
with_prev2_full:Treg_also
with_prev2_full:and_furthermore
prev1:fails
with_prev2_POS_full:MD_JJ_TO
with_prev2_full:power_due_to
with_prev2_full:not_so
with_prev2_full:staurosporine-induced_when
with_prev2_full:quantitatively_or
with_prev2_full:-RSB-_thereby
with_prev1_full:,_nor
prev1:expression
prev2:−
with_prev2_full:vivo_and
with_prev1_full:sample_and
prev2:with
conn:well_before
with_prev2_full:significantly_by
with_prev2_full:cell_since
with_prev1_full:expression_to
prev2:maximal
with_prev2_full:spermatogenesis_and
with_prev2_POS_full:VBN_IN_NN
prev2:Pax5
with_prev2_full:suspensions_by
with_prev2_full:activation_and
with_prev1_full:methylation_via
with_prev2_full:activation_by
with_prev1_full:,_once
with_prev2_POS_full:POS_IN
with_prev1_full:organogenesis_through
prev1:androgens
prev1:evaluated
prev1:part
with_prev2_full:However_once
with_prev1_full:clustering_to
prev1:Results
with_prev1_full:regression_before
prev2:See
prev1:gene
prev1:normally
conn_POS:NN
with_prev2_full:peripheral_by
prev2_POS:RBR
conn_POS:IN_NNS_IN
with_prev1_full:occurring_immediately_after
with_prev2_full:Notch_via
with_prev2_full:be_before
prev1:animals
prev1:ERG
with_prev2_full:mammary_if
with_prev2_full:cursor_then
with_prev1_POS_full:VBD_JJ
with_prev2_full:made_therefore
prev2:more
prev2:fold
with_prev2_full:-RSB-_and
with_prev1_full:Gy_to
prev2:PBMNCs
with_prev2_full:varying_but
prev1:DNMTs
with_prev2_full:positive_via
with_prev1_POS_full:TO_RB
prev2:false
with_prev2_POS_full:DT_IN_NN_TO
with_prev1_POS_full:VBD_IN
prev2:here
with_prev2_full:convergent_for
with_prev2_full:factors_In_addition
with_prev2_full:-RSB-_subsequently
prev2:prepared
with_prev2_full:12_before
with_prev2_full:,_nevertheless
conn:Despite_the_fact_that
with_prev2_full:proteins_for_instance
with_prev2_full:T_once
prev2:transcription
prev2:brca1
with_prev2_full:mice_since
with_prev2_POS_full:IN_VBG
prev1:Gy
with_prev2_full:neutrophils_and
with_prev2_full:efficiently_by
with_prev2_full:driving_and
with_prev1_full:,_while
with_prev2_POS_full:-RRB-_VBN_IN
with_prev2_full:activity_and
conn:as_a_result_of
with_prev2_POS_full:JJ_IN_WDT
with_prev1_full:,_probably_because_of
prev1:functions
with_prev2_full:into_when
with_prev2_POS_full:NNS_VB
with_prev1_full:death_after
with_prev2_POS_full:VBN_IN_IN
with_prev2_full:Ews-ERG_to
prev1:IFN-γ
prev1:IFN-α
with_prev2_POS_full:NNS_TO
conn:in_large_part_by
prev1:measure
with_prev1_full:but_also
with_prev2_full:thymocytes_with
prev1:event
prev2:fatty
with_prev2_full:8_before
prev2:time
with_prev1_full:;_i.e.
prev1:established
with_prev1_full:obtained_when
with_prev2_full:significantly_although
with_prev2_full:PB_once
with_prev2_POS_full:VBN_RB
with_prev1_full:computed_to
with_prev1_full:pathologist_to
with_prev2_full:site_to
with_prev1_full:functions_by
with_prev2_full:-RRB-_followed_by
with_prev2_full:W3\/25-treated_in_response_to
prev1:constellation
prev2:™
with_prev1_POS_full:,_IN_VBN_IN
with_prev1_POS_full:VBN_IN_IN
prev2:technical
prev1:follicles
prev2:became
prev2:subsets
conn:as_a_direct_consequence_of
with_prev1_full:buffer_and
prev1:points
with_prev1_full:h_after
with_prev2_full:T_by_means_of
with_prev2_full:therefore_to
with_prev1_full:mice_and
with_prev2_full:their_to
with_prev2_full:LPS_followed_4_hours_later_by
with_prev2_POS_full:VBN_TO
conn_POS:TO
conn:because
with_prev2_full:especially_for
prev2:population
with_prev1_full:hematoxylin_except
prev1:similar
with_prev1_full:sequenced_after
prev1:elongating
with_prev1_POS_full:NNP_TO
with_prev2_full:TE_and
with_prev1_full:assessed_through
with_prev1_POS_full:VBD_CC
prev2:intracellular
with_prev2_full:6b_when
with_prev1_full:developed_for
with_prev1_full:also_after
with_prev2_full:documentation_e.g.
with_prev1_full:,_In_addition
with_prev2_full:CD4-associated_after
prev1:mite
with_prev2_full:°_and
with_prev1_full:function_while
prev2:peripheral
prev1:quantitatively
conn_POS:RB_CC
with_prev2_POS_full:NNS_JJ
prev2:minutes
prev2:large
prev1:pDCs
prev1:developed
with_prev2_POS_full:CC_RB_TO
with_prev2_full:testosterone-treated_when
prev1:cassette
with_prev2_full:days_before
prev1_POS:TO
prev2:lineages
with_prev2_full:cells_for_instance
conn_POS:VB
with_prev1_POS_full:NN_CD_NNS_VBG
prev2:to
prev1_POS:VB
with_prev1_full:observed_when
prev2:presented
with_prev2_full:was_by
prev2:regulated
prev2:days
with_prev1_POS_full:,_RB_IN
with_prev2_full:7_and
with_prev1_full:risk_due_to
with_prev2_full:used_by
conn_POS:RB_JJ_RB_TO
with_prev1_POS_full:VBN_RB_TO
prev2:infiltrate
conn_POS:DT_IN_NN_TO
with_prev2_full:pathways_thus
prev1:immunocytochemistry
with_prev1_full:weaker_but
prev2:morphogenesis
with_prev2_full:deviation_and
with_prev2_full:descriptions_and
with_prev1_full:Treg_to
with_prev1_POS_full:,_WRB
conn:Following
with_prev1_full:induction_upon
with_prev2_full:inversion_thus
with_prev2_full:significant_but
with_prev1_full:;_subsequently
with_prev2_full:-RRB-_thus
with_prev2_full:intracellular_for
conn_POS:RB_RB_IN
with_prev1_full:determined_by
with_prev2_full:pH_by
prev1:stroma
prev2:strongly
with_prev1_full:site_for
with_prev1_full:T-cells_both_in_response_to
with_prev1_full:that_while
prev2:progenitors
prev1:cycles
with_prev2_full:IL-2_following
conn:probably_because_of
prev1:disappeared
with_prev1_full:down-regulation_via
with_prev1_full:accumulate_following
with_prev2_full:See_for
with_prev2_full:being_for
conn:particularly_to
with_prev2_POS_full:NN_IN_NNS_IN
prev1:tissue
with_prev1_full:arise_when
prev1:sensitive
with_prev2_full:contralateral_two_years_after
with_prev1_full:tissues_by
with_prev2_full:of_but
with_prev1_full:inhibition_by
with_prev2_full:min_and
prev1:screen
with_prev1_full:cases_and
with_prev2_full:paralogy_since
with_prev2_full:not_by
conn:thereby
prev1:while
with_prev1_full:SEB_and
with_prev2_full:power_and
prev2:paralogy
with_prev2_full:the_in_order_to
with_prev2_full:final_since
with_prev1_full:undertaken_to
with_prev2_POS_full:VBZ_WRB
with_prev1_POS_full:,_NNP
prev1:assays
with_prev2_full:cell_for
prev1:densitometry
with_prev2_full:However_while
prev2:competed
prev1:treated
conn:Whilst
with_prev2_full:was_as
prev2:newborn
with_prev2_full:the_and
prev2:T-cell
with_prev2_full:or_prior_to
with_prev2_full:implanted_three_days_before
prev1_POS:RP
with_prev1_full:expression_by
prev2:marker
with_prev2_full:Cedarlane_to
with_prev2_full:activity_whereas
prev1:KS
with_prev2_POS_full:VB_JJ_TO
with_prev2_full:homeostatic_as_a_consequence_of
prev1:derived
with_prev2_POS_full:NNS_IN
with_prev2_full:DNA_after
conn:whilst
with_prev1_full:detected_via
prev1:processed
conn_POS:JJ_NNS_IN
with_prev2_full:may_due_to
conn:in_consequence_of
with_prev1_full:C._Following
prev2:identically
prev2:intermediates
with_prev2_full:,_while
prev2:cell-to-cell
prev1:strategies
conn:i.e.
with_prev2_full:and_therefore
prev1:weaker
prev1:trials
prev2:performed
with_prev2_POS_full:VBD_RB_TO
with_prev1_full:IFN-γ_in_order_to
prev2:d
prev2:TF-dependent
with_prev1_POS_full:RB_RB_TO
with_prev2_full:variable_for_example
with_prev1_full:panel_for
prev2:a
prev2:s
prev2:x
conn:as_inferred_by
with_prev2_POS_full:NNS_CC
with_prev1_full:pronounced_as_a_result_of
with_prev2_full:was_when
with_prev1_full:tissue_through
with_prev1_full:centrifuged_and
prev2:significant
prev2:chromosomal
prev1:delivered
conn:in_order_to
with_prev2_full:pTK-RL_then
conn:presumably_due_to
with_prev2_full:contrast_although
with_prev1_full:exemplified_by
with_prev2_full:-RRB-_in_order_to
with_prev1_full:but_none-the-less
with_prev2_full:mechanism_consequently
with_prev1_POS_full:CD_IN
prev2:postnatal
with_prev1_full:similarities_during
prev2:if
with_prev1_full:cells_whereas
with_prev2_full:modulation_however
with_prev2_full:-RSB-_although
with_prev1_full:probe_in_order_to
with_prev2_full:,_none-the-less
conn_POS:CD_NNS_VBG
prev2:in
with_prev2_full:metabolism_thereby
with_prev2_full:target_when
prev1:retained
prev2:experiments
with_prev2_full:various_through
with_prev2_full:regions_after
with_prev1_full:cDNA_then
prev2:°
with_prev2_full:with_except
with_prev1_full:ends_after
with_prev1_POS_full::_RB
prev1:CD69
with_prev2_POS_full:NNP_IN_WDT
with_prev1_POS_full::_JJ
with_prev2_full:nucleus_and
with_prev1_full:achieved_by
with_prev1_POS_full:NNS_DT_IN
with_prev2_full:are_and
with_prev1_full:regulation_via
prev2:microorganisms
prev2:on
with_prev1_POS_full:CD_CC
prev2:TCR-mediated
prev2:or
with_prev1_full:checked_via
prev1:signaling
with_prev1_full:,_via
prev2:pH
with_prev2_full:cover_before
with_prev2_full:with_prior_to
with_prev1_full:studies_to
prev1:nuclei\/ml
with_prev2_POS_full:JJ_RB_TO
prev2:precursors
conn:After
with_prev1_full:that_in_comparison_to
prev1:phenotypes
with_prev1_full:not_to
conn:in_contrast_to
with_prev2_full:isotype_when
with_prev2_POS_full::_IN
with_prev2_full:exposure_although_still
with_prev1_full:elongating_by
prev2:used
with_prev2_full:hereditary_due_to
with_prev2_full:ontogeny_albeit
conn_POS:RB_IN
prev2:patients
prev2:molecules
with_prev1_full:quantitated_by
with_prev2_POS_full:VBD_IN_NN_TO
with_prev2_full:'s_by
prev2:per
with_prev1_POS_full:NNP_CC
prev1:regression
prev1:mediated
with_prev2_full:surprising_although
prev2:Notch
prev1:amounts
prev1:CCR3
with_prev2_full:intracellular_through
prev1:IgM-IC
with_prev1_full:ensured_by
with_prev1_full:oligonucleotide_to
with_prev1_POS_full:VBD_TO
prev1:activity
with_prev1_full:hours_before
with_prev2_POS_full:VBN_CC
prev2:quantitatively
prev1:sarcoma
with_prev2_full:synthesised_and
with_prev2_full:31,32_and
with_prev2_full:cells_particularly_if
prev2:surface
prev1:hybridisation
with_prev2_full:others_whereas
prev2:RIB5\/2
with_prev2_full:footprinting_i.e.
prev1:standard
prev1:explanation
prev2:progenitor
prev1:normalized
with_prev2_full:filter_to
with_prev2_full:thymocytes_in_contrast_to
prev2:microarray
with_prev2_full:present_and
with_prev2_full:activity_although
prev1:field
prev2:score
prev2:immune\/inflammatory
prev2:neutrophils
with_prev2_full:stem_to
with_prev2_full:sufficiently_to
prev2:Moreover
with_prev2_full:unexpected_since
with_prev2_full:5_to
prev2:suppressing
prev1:stability
prev1:transcription
with_prev1_full:cells_while
with_prev2_full:clinical_as
with_prev2_full:be_primarily_by
with_prev2_full:2_and
prev1:secreted
with_prev1_full:metastasis_but
with_prev1_full:responses_and\/or
prev1:stochastically
with_prev1_full:cells_both_upon
prev2:IgM-IC
with_prev1_full:signal_after
with_prev2_full:contrast_and
prev2:tolerated
with_prev2_full:in_and
prev1:strand
with_prev2_full:mite_then
prev2:Finally
with_prev2_full:are_after
with_prev2_full:T_via
with_prev2_full:19_and
prev1:extent
with_prev1_full:fails_to
with_prev2_full:Ews_after
prev1:paraformaldehyde
with_prev1_full:Smad2\/3_and\/or
with_prev1_POS_full:VBN_RB_IN
with_prev1_full:tested_and
with_prev2_full:gene_due_to
prev2:Expression
with_prev2_full:EpCAM_and
with_prev2_full:IL-2_as
with_prev1_full:min_to
with_prev1_full:done_by
with_prev2_full:17_because
with_prev2_full:blot_to
prev2:immunobead
prev2:which
conn:as_demonstrated_by
with_prev2_full:38_and
conn:both_in_response_to
with_prev2_full:real-time_after
with_prev2_full:fill_in_response_to
with_prev2_full:protein_whereas
with_prev1_POS_full:JJ_RB_TO
with_prev2_full:RA_and
prev2:mite
with_prev1_full:activated_by
with_prev1_full:,_through
with_prev1_full:performed_to
prev2:factor
conn:during
with_prev1_full:signalling_to
with_prev2_full:addition_by
conn:both_upon
with_prev2_POS_full:''_IN
with_prev2_POS_full:VB_CC
with_prev2_full:-LRB-_by
with_prev2_full:SF_and
with_prev1_full:centrifuged_to
prev1:inhibition
with_prev1_full:enrichment_prior_to
with_prev1_full:production_due_to
with_prev2_full:mice_not_due_to
with_prev2_full:methylation_thus
with_prev1_full:pathway_by
prev2:Giemsa
with_prev2_full:express_unless
prev2:suspensions
with_prev2_full:completely_by
with_prev1_full:i.v._and
prev2:TSP-1-null
with_prev1_full:development_due_to
with_prev2_full:T-cell_because
with_prev1_full:visible_following
prev2:extraction
with_prev1_full:course_and
with_prev1_full:-RRB-_after_which
prev2:CCR3
prev1:simulations
with_prev1_full:injection_and
prev2:Perfenidone
prev2:Ews-ERG
with_prev1_full:cells_following
with_prev2_full:CD69_and
conn:because_of
with_prev1_full:development_and
prev2:cancers
with_prev2_full:JNK_following
prev2:magnification
with_prev1_full:follicles_for
prev2:C
prev1:IRF-4-expression
conn:specifically_to
conn:Either..or
with_prev2_full:not_and
with_prev2_full:Notch_to
with_prev1_full:supershift_when
prev1:recombination
prev1:antibody
with_prev2_POS_full:VBD_CC
with_prev1_full:observed_despite
prev2_POS:POS
prev2:M
with_prev2_POS_full:CC_RB_JJ_RB_TO
prev2:%
with_prev2_full:Streptavidin-Cy-Chrom_subsequently
with_prev1_POS_full:,_RB_JJ_TO
prev2:'
with_prev1_full:identically_when
conn:Three_days_after
prev2:modulation
prev1:perfect
with_prev1_full:-RRB-_when
prev2:6
prev1:origin
prev2:5
with_prev2_full:to_due_to
prev2:4
prev2:3
prev2::
with_prev2_full:17_and
with_prev1_full:IFN-α_and
prev2:8
prev2:7
with_prev2_full:mRNA_followed_by
prev2:2
prev2:1
with_prev1_full:,_when
with_prev2_full:found_for_example
with_prev2_POS_full:-RRB-_CC
with_prev2_full:feedback_to
prev1:sites
with_prev2_POS_full:NNP_WRB
with_prev1_full:activity_and
with_prev1_full:PBS_and
prev1:night
with_prev1_full:sequence_predominantly_via
prev2:CD69
prev2:conserved
with_prev1_full:filters_and
with_prev1_full:,_such_that
conn:in_comparison_to
prev2:site
prev1:cases
prev1:initiated
with_prev2_full:tumor_when
with_prev2_full:tested_because
prev1:sequenced
with_prev2_full:100_prior_to
prev1:positives
prev2:autoclave
with_prev1_full:pDCs_and
with_prev2_full:fully_by
prev2:situ
with_prev1_full:micropipette_to
with_prev2_full:regulated_by
with_prev2_full:amplification_only_if
with_prev2_POS_full:VBD_CD_NNS_IN
prev1:fragments
prev1:fibrosis
prev1:Strategy
conn:consequently
with_prev1_full:caused_in_part_by
prev2:occurred
with_prev1_POS_full:,_CC
with_prev2_full:testosterone_when
prev2:AA
prev1:simulation
with_prev1_full:signals_by
prev2:column
with_prev2_full:was_in_order_to
prev2:treatment
with_prev1_full:fragments_by
with_prev2_full:speed_then
with_prev2_full:IL-2_in_part_by
with_prev2_full:Top_and
with_prev2_POS_full:NNS_JJ_IN
with_prev1_full:-RRB-_even_though
prev2:nucleus
prev2:pathways
with_prev1_full:enhanced_upon
with_prev2_POS_full:NNP_RB_TO
with_prev1_full:,_before
with_prev2_full:can_by
with_prev2_POS_full:NN_VBN_IN
with_prev2_full:results_although
with_prev2_full:72_and
with_prev1_full:can_therefore
prev1:arthritis
with_prev1_full:generated_by
prev2:produce
with_prev2_full:PCR_to
with_prev1_full:detected_after
with_prev1_full:activation_and
with_prev2_POS_full:VBD_IN
prev2:exons
with_prev1_full:but_because
with_prev1_full:analysis_since
prev1:experiment
prev2:CA
prev2:Sigma-Aldrich
prev1:mats
with_prev2_full:proven_to
with_prev2_full:'s_during
conn_POS:PDT_DT
with_prev2_full:datasets_since
prev1:blood
with_prev2_full:produce_upon
conn:primarily_by
with_prev2_POS_full:VBD_JJ
with_prev2_POS_full:VB_IN
prev1:products
with_prev2_POS_full:NNP_VBN_IN
with_prev2_full:were_in_response_to
with_prev1_full:PBMNCs_to
with_prev2_full:numbers_in_contrast_to
conn:Via
with_prev2_full:downstream_since
prev2:family
with_prev2_full:consistently_following
prev2:biological
with_prev1_full:confirmed_by
prev2:LPS
conn:During
with_prev1_full:estimated_by
prev1:LAP
with_prev2_full:TCR_thereby
prev2:unexpected
conn:In_order_to
prev2:reported
with_prev2_full:BMP-6_upon
with_prev2_full:43,44_and
with_prev2_full:inflamed_by
prev2:hematopoietic
with_prev1_full:hours_after
with_prev2_full:turned_to
with_prev2_full:RT-PCR_and
with_prev2_full:fiber_and
prev2:fixed
prev2:age
with_prev1_full:field_in_order_to
prev1:breast
prev1:synthesis
prev1:controls
with_prev1_full:activation_following
with_prev1_full:added_by
with_prev2_full:dense_thus
prev2:W3\/25-treated
with_prev1_full:c-jun_following
with_prev1_full:cell_and
with_prev2_full:3_and
conn:not_due_merely_to
prev1:primarily
prev2:sensitive
conn_POS:RB_JJ_TO
conn:One_day_after
prev1:receptors
prev1:silenced
prev2:proliferative
prev2:PB
prev2:steel
with_prev2_full:lytic_and
with_prev1_full:cells_through
prev2:power
with_prev1_full:,_thus
with_prev1_full:C._Finally
prev1:recombinase
with_prev1_full:twice_prior_to
prev1:sieve
with_prev1_full:follicles_following
prev2:cytoplasm
with_prev2_full:the_if
prev1:extracted
conn:via
prev1:s
prev1:differentiation
with_prev1_full:-RRB-_in_order_to
with_prev2_full:were_as
prev2:added
with_prev1_full:employed_to
with_prev1_full:may_thus
with_prev2_full:population_so
with_prev1_full:population_through
prev1:centrifuged
prev2:IV
prev2:Treg
with_prev2_full:PBMNCs_after_which
with_prev2_full:exclusion_by
with_prev1_full:improved_if
prev1:h
with_prev2_full:three_and
prev2:proven
with_prev1_full:performed_prior_to
prev2:DNA
with_prev2_POS_full:RB_IN_IN
with_prev1_POS_full:NNP_VBN_IN
with_prev1_full:ice_and
prev2:II
with_prev1_full:secretion_upon
with_prev1_full:controlled_by
conn:through
with_prev2_POS_full:VBN_JJ_IN
with_prev2_full:USA_and
with_prev1_full:pathway_to
with_prev2_full:became_following
with_prev1_full:synthesis_following
with_prev2_full:the_by
prev2:BMP-6
prev1:test
with_prev1_full:stimulation_by
with_prev1_full:affected_by
prev1:elucidated
prev1:-
prev1:inflammation
prev1:concentrations
with_prev1_full:done_after
prev2:made
with_prev2_full:SEB_and
conn:when
conn:insofar_as
prev1::
prev1:;
with_prev1_full:blood_by
prev2:primer
prev1:site
with_prev2_full:dense_and
prev1:branching
prev1:%
with_prev2_full:-RRB-_whereas
with_prev2_full:absent_since
with_prev1_full:cells_and
with_prev1_full:prepared_by
with_prev1_full:-RRB-_after
with_prev2_full:were_by
prev2:particular
prev1:stimulated
prev1:RT-PCR
prev2:developing
with_prev1_full:constructed_for
with_prev2_full:HLA-DR-APC_and
with_prev1_full:perfect_and
prev1:essential
with_prev2_full:cells_thus
prev1:C
with_prev2_full:below_thus
with_prev1_full:apoptosis_after
prev2:processes
with_prev1_full:chosen_in_large_part_for
with_prev1_full:unsuitable_as
with_prev2_full:mRNA_in_response_to
with_prev2_full:is_via
with_prev1_POS_full:JJ_RB_IN
with_prev1_full:added_and
conn_POS:RB_RB_IN_CD_NN_IN
with_prev2_full:'_although
with_prev1_full:,_but
prev1:bear
prev2:Germany
with_prev2_full:which_in_turn
with_prev1_full:tip_when
with_prev2_full:the_unless
prev1:controlled
with_prev1_full:occurring_as_a_result_of
with_prev1_full:enough_to
with_prev1_full:equivalent_when
with_prev2_full:gene_but
with_prev2_full:difference_not_due_to
prev1:line
prev1:yet
with_prev2_POS_full:VBZ_JJ_TO
prev2:UK
prev2:log10
prev2:phosphorylation
prev1:signalling
prev2:proliferation
with_prev2_full:beads_then
conn:except_for
with_prev1_full:measurements_since
with_prev1_full:dangerous_when
prev1:background
with_prev2_full:treatment_in_order_to
with_prev1_full:screen_to
with_prev1_full:which_subsequently
prev2:absent
with_prev1_POS_full:NN_VBN_IN
prev2:IL-2
prev1:immunoblotting
with_prev1_full:synthesis_while
with_prev2_full:tissues_and
with_prev1_full:analyzed_by
with_prev2_full:in_when
with_prev2_full:were_when
with_prev2_full:TCR_to
with_prev2_full::_for
prev2:RA
prev2:IRF-4
with_prev2_full:molecules_and
with_prev1_full:confirmed_when
with_prev2_full:fold_upon
with_prev1_full:section_to
with_prev1_full:,_in_part_by
prev1:that
with_prev2_full:protein_while
with_prev1_full:infants_after
prev1:RESULTS
with_prev1_POS_full:IN_IN_NN
prev2:obvious
prev2:LCR
with_prev1_full:mastectomy_because_of
with_prev2_full:biological_by
with_prev1_POS_full:CC_IN
prev2:controls
with_prev1_full:sieve_and
with_prev1_full:line_after
with_prev2_full:patient_to
with_prev2_full:after_and
prev2:pre-TCR
with_prev1_full:Hypermethylation_due_to
with_prev1_full:is_due_to
with_prev1_full:observed_as_early_as_24_h_after
prev2:manual
prev2:phase
prev2:thymoma
with_prev1_POS_full:,_JJ_IN
with_prev2_full:10_30_minutes_prior_to
with_prev2_full:reported_after
with_prev1_full:study_due_to
prev1:size
prev1:response
with_prev2_full:SEB_then
with_prev2_full:PCR_by
with_prev2_POS_full:VB_RB_IN
prev2:Cedarlane
prev2:TE
with_prev2_full:actions_but
with_prev1_full:synthesis_after
with_prev1_POS_full:NNP_CD_NNS_RBR
with_prev2_full:48_after
with_prev2_POS_full:CD_RB_JJ_TO
with_prev1_full:over-representation_since
with_prev2_full:induce_by
with_prev1_POS_full:VBN_IN_DT_JJ_NN_IN
with_prev2_full:of_following
with_prev2_full:hematopoietic_after
with_prev1_full:arthritis_despite
with_prev2_full:anti-CD4_and
prev2:SF
with_prev1_full:mite_to
with_prev2_full:postnatal_because
prev2:spaces
prev1:shut-off
prev2:DCs
prev2:SP
with_prev2_full:,_during
with_prev2_full:promoter_and
with_prev1_full:inflammation_by
with_prev1_full:manipulated_to
prev2:Southern
with_prev1_full:p56lck_after
prev2:differentiating
conn:following
with_prev2_full:gene_and
with_prev1_full:neutralized_by
with_prev1_full::_As
with_prev2_POS_full:PRP$_IN
with_prev2_full:was_despite
with_prev1_POS_full:CC_RB
with_prev1_full:,_since
with_prev1_full:-RRB-_before
with_prev1_full:parameters_in_order_to
with_prev1_full:amplification_if
with_prev2_full:recombinant_to
with_prev2_full:unknown_however
conn:only_if
prev1:MRI
prev2:PI3-K
with_prev1_full:pathway_through
with_prev1_full:tissues_through
with_prev1_full:formed_by
prev1:levels
with_prev1_full:used_to
with_prev2_full:microorganisms_but
with_prev1_full:fusion_to
prev1:methylation
conn:Even_though
with_prev1_full:that_although
conn:between_1_2_h_after
with_prev1_POS_full:CC_TO
with_prev1_full:amplified_after
with_prev1_full:;_consequently
prev1:done
with_prev2_full:putative_for
with_prev1_full:separately_when
with_prev1_full:gene_after
with_prev1_full:stimulation_while
conn:so
with_prev2_full:binding_after
with_prev1_full:-RRB-_specifically_to
with_prev1_full:-RSB-_to
conn:upon
prev1:downstream
conn_POS:DT_CC
with_prev2_full:particular_after
with_prev2_full:brca1_while
prev2:effects
with_prev2_full:729_and
with_prev1_full:cells_via
with_prev1_full:conceived_by
with_prev2_full:carried_by
with_prev1_full:added_10_min_before
with_prev1_POS_full:CC_IN_NN_TO
with_prev2_full:found_in_comparison_to
prev2:mRNA
with_prev2_full:of_by
prev1:mastectomy
with_prev1_full:efficient_when
conn:to
prev1:checked
prev2:AIDS-KS
with_prev2_POS_full:NN_IN_DT_NN_IN
with_prev2_full:is_for
with_prev1_full:signal_through
with_prev1_full:useful_to
with_prev1_full:normalized_by
with_prev2_full:TEC_due_to
with_prev1_full:,_well_before
with_prev2_full:in_both_in_response_to
with_prev2_full:by_and
with_prev2_full:of_because
prev2:especially
prev2:role
with_prev2_full:increase_but
with_prev1_full:sacrificed_and
prev1:arise
with_prev1_full:measure_to
prev2:that
with_prev2_full:hours_then
prev2:vitro
conn:Whereas
prev2:downstream
with_prev2_full:added_and
with_prev2_full:mice_as
prev1:expressed
prev1:leukaemogenesis
with_prev1_full:performed_following
with_prev2_full:in_On_the_basis_of
prev2:symbols
with_prev2_full:been_by
with_prev1_full:genes_through
prev1:growth
with_prev2_full:°_Finally
prev2:actions
with_prev1_full:achieved_after
with_prev2_full:and_due_to
with_prev2_full:7_but
prev2:differentiation
with_prev2_full:of_and
with_prev1_full:phenotypes_but
prev2:turned
with_prev2_full:-RRB-_and
prev2:system
prev2:real-time
with_prev2_full:spleens_and
with_prev2_full:exons_thus
with_prev2_full:the_to
with_prev2_full:profile_finally
prev2:question
prev1:sensitivity
with_prev2_full:,_then
with_prev1_full:test_by
with_prev2_full:large_and
prev2:varying
prev1:equivalent
prev2:buffer
with_prev1_full:not_through
with_prev2_POS_full:-RRB-_VBD_IN
prev1:neutralized
prev2:mammogens
with_prev2_full:analysis_to
prev1:failed
with_prev2_full:and_followed_by
with_prev1_full:growth_while
with_prev2_POS_full:DT_WRB
prev2:and
conn:in_addition_to
with_prev2_full:1.0_and
with_prev1_full:that_whereas
with_prev1_POS_full:,_VBN
prev2:latency
with_prev2_full:IgM-IC_following
prev2:all
prev2:haematopoietic
conn_POS:DT_IN
prev2:negatively
conn:in
with_prev1_POS_full:,_VBG
with_prev2_full:then_by
prev2:fill
with_prev1_full:nodes_following
with_prev2_full:crucial_for
conn:if
prev1:transcripts
with_prev1_POS_full:VBG_IN
with_prev1_full:delay_after
with_prev1_POS_full:,_VBZ
with_prev2_full:function_and
prev1:verified
with_prev1_full:shown_by
with_prev2_full:proliferate_then
with_prev2_POS_full:NN_RB_JJ_TO
with_prev2_full:-RRB-_i.e.
with_prev2_full:for_to
with_prev1_full:,_probably_due_to
prev2:survive
prev2:footprinting
with_prev1_full:calculated_by
with_prev2_full:randomly_and
prev1:added
conn:predominantly_via
with_prev1_full:DNMTs_during
conn_POS:IN_NN_TO
with_prev2_full:heterodimers_for
prev2:negative
with_prev2_POS_full:VBN_IN_NN_TO
with_prev2_full:immune\/inflammatory_by
prev1:primers
prev1:identified
with_prev2_full:cytokines_while
with_prev1_full:MRI_due_to
with_prev1_full:act_through
with_prev2_full:JNK_by
conn:either..or
with_prev1_full:indirectly_by
with_prev1_full:tested_but
with_prev2_full:and_by
with_prev2_full:each_to
with_prev1_POS_full:JJR_WRB
prev1:tested
with_prev1_full:phosphorylation_in_response_to
prev2:are
with_prev1_full:amplification_to
prev2_POS:JJR
with_prev2_full:-RSB-_except
with_prev2_full:contrast_whereas
prev2:Cre
with_prev2_full:technically_to
with_prev1_POS_full:,_CC_IN
conn:after
prev1:post-induction
with_prev2_full:45_presumably_due_to
with_prev1_full:observed_and
with_prev2_full:-RSB-_whereas
prev1:enrichment
with_prev1_full:isolated_and
prev1:loop
prev2:exclusion
with_prev2_full:mononuclear_by
with_prev2_full:those_after
with_prev2_full:and_also
prev2:radiation
with_prev2_full:C_then
with_prev2_POS_full:PRP$_TO
with_prev1_full:obtained_by
with_prev1_POS_full:NN_CD_NNS_RB_TO
prev1:i.v.
with_prev1_full:formation_when
with_prev2_full:column_followed_by
conn:2_hours_following
prev2:microtubes
with_prev2_full:tumours_specifically
with_prev1_full:lumpectomy_followed_by
with_prev1_full:elucidated_since
with_prev2_full:in_due_to
with_prev1_full:-RRB-_two_hours_before
with_prev2_POS_full:JJ_WRB
conn:or
prev2:turnover
prev2:external
prev1:synovium
prev1:But
with_prev1_full:sick_following
with_prev2_full:cytoplasm_whereas
prev1:probe
with_prev1_POS_full:VBP_IN
prev1:tool
with_prev1_full:secretion_following
with_prev1_full:observed_until
with_prev1_full:specific_and
prev1:metastasis
with_prev1_full:IL-2_in_response_to
with_prev2_full:tumor_and
with_prev2_full:in_upon
conn_POS:IN_NN_IN
with_prev2_full:3A_when
prev2:inversion
prev1:reactions
prev2:noncovalently
with_prev2_POS_full:NNS_VBN
with_prev2_POS_full:NNS_VBG
with_prev1_POS_full:VBP_TO
with_prev1_POS_full:NN_VBG
with_prev1_full:cell_by
with_prev1_full:and_so
with_prev1_full:is_not_due_to
conn:two_hours_after
with_prev2_full:lineages_specifically
prev2:further
prev2:type
with_prev1_full:consuming_and
prev1:accumulate
with_prev2_full:found_when
prev2:lesser
conn:two_years_after
with_prev2_POS_full:WDT_RB
with_prev2_full:RIB5\/2_whereas
prev1:susceptibility
with_prev2_POS_full:RB_RB_IN
with_prev1_POS_full:VBN_CC
with_prev2_full:of_during
with_prev1_full:Conclusion_Although
with_prev1_full:activity_by
prev2:whole
with_prev2_full:log10_then
with_prev1_full:C_followed_by
with_prev2_full:gene_while
with_prev1_full:tissues_in_response_to
with_prev2_full:Biosciences_before
with_prev2_POS_full:-RRB-_IN
prev2:--
with_prev2_full:hours_before
with_prev1_full:sensitive_to
with_prev1_full:reduced_or
conn:once
with_prev1_full:right_to
conn:Forty-eight_hours_after
prev1:complicated
prev2:subjects
with_prev1_full:blotting_to
with_prev2_full:c-jun_in_response_to
with_prev2_POS_full:DT_CD_NNS_IN
with_prev1_full:-LRB-_by
with_prev1_full:procedure_to
with_prev2_full:fragment_and
prev2:consistent
with_prev1_full:numbers\/activity_to
with_prev2_full:bromide_following
with_prev1_POS_full:-RRB-_IN_NN_TO
prev2:adults
prev2:vivo
with_prev2_full:staurosporine_after
with_prev2_full:of_to
with_prev2_full:absent_but
prev2:heterodimers
with_prev2_POS_full:JJR_IN
with_prev2_POS_full:RB_IN_JJ_RB_IN
with_prev2_full:reproducible_to
with_prev2_full:expressed_whereas
prev2:cues
with_prev1_full:reference_for
with_prev2_POS_full:VBP_IN_DT_JJ_NN_IN
with_prev2_POS_full:CC_JJ_TO
prev1:Smad2\/3
with_prev1_full:occurring_at_some_point_after
prev2:region
with_prev2_full:then_after
with_prev2_full:blot_after
with_prev2_full:hypothesise_by
with_prev2_full:into_then
prev2:stem
prev2:bromide
with_prev1_full:to_after
prev2:their
prev2:similar
prev1:homogenized
with_prev2_full:cell-to-cell_while
with_prev1_full:,_therefore
prev2:cytokine
with_prev1_full:to_also
with_prev2_full:mRNA_since
with_prev2_full:night_then
with_prev2_POS_full:NNS_RB_JJ_TO
with_prev2_full:several_after
prev2:'s
prev1:annotated
with_prev1_full:occur_through
with_prev2_full:%_and
with_prev2_full:temperature_then
with_prev2_full:actins_and
with_prev2_full:of_after
prev1:reference
with_prev2_POS_full:NN_WRB
prev1:out
with_prev1_POS_full:VBG_JJ
conn:Unless
prev1:IL-2
prev1:supported
prev1:expand
with_prev2_full:evaluated_and
prev2:changes
with_prev2_full:further_by_the_fact_that
prev1:replication
with_prev2_POS_full:VB_TO
with_prev1_POS_full:VBP_WRB
prev1:findings
with_prev2_full:bud_while
prev1:AzadC
with_prev1_full:DNAs_for
prev1:crucial
prev2:these
conn:e.g.
with_prev2_full:test_by
prev2:6b
with_prev2_POS_full:-RRB-_TO
prev1:confirmed
with_prev2_full:vivo_while
with_prev1_full:part_due_to
prev1:supershift
with_prev1_full:;_however
prev1:Conclusion
prev2:washed
with_prev2_POS_full:WDT_IN
with_prev2_full:-RRB-_therefore
prev2:there
with_prev1_full:systems_to
prev1:inhibited
with_prev1_full:hysterectomy_followed_by
prev2:72
prev2:73
with_prev2_full:other_and
prev2:Briefly
prev2:final
with_prev1_full:experiment_by
prev2:human
with_prev2_full:IRF-4_via
with_prev1_full:h_and
with_prev2_POS_full:CD_CD_NNS_RBR
with_prev1_full:heterozygotes_despite
with_prev2_full:cues_and
with_prev2_full:each_by
with_prev1_full:hours_to
prev2:ice
with_prev1_full:experiments_and
with_prev2_full:counters_and
with_prev2_full:mice_but
with_prev2_full:CML-T1_whereas
with_prev2_full:was_whereas
with_prev2_full:Notch_by
with_prev2_full:a_before
with_prev2_full:be_whereas
with_prev2_POS_full:VBD_TO
with_prev1_full:reversed_by
with_prev1_full:primers_to
conn:Due_to
with_prev2_POS_full:JJ_CD_NNS_IN
with_prev2_POS_full:JJ_IN_NN
with_prev2_full:T-cells_via
with_prev1_full:and_if
with_prev2_full:T_following
prev1:events
with_prev1_full:initiated_by
with_prev2_full:promoter_since
with_prev2_full:maximal_four_hours_after
with_prev2_full:microarray_to
with_prev2_full:thymus_well_before
with_prev2_full:increasingly_as
prev2:38
with_prev2_full:°_Four_hours_later
with_prev1_full:branching_through
with_prev1_full:thermocycling_and
with_prev1_full:tissue_by
with_prev1_full:breast_two_years_after
with_prev2_full:16_Thereafter
with_prev2_full:T-cell_by
with_prev2_full:buffer_and
prev2:3A
prev2:deviation
prev2:40
prev2:44
with_prev1_full:choice_because
prev2:48
with_prev1_full:niches_in_response_to
prev2:45
with_prev2_full:apoptosis_whereas
conn_POS:RB_IN_NN_IN
prev1:examined
prev1:produced
with_prev1_full:mediated_by
with_prev2_full:expression_when
prev2:functions
with_prev1_full:processed_for
with_prev1_full:ligand_to
prev2:30
with_prev2_full:developing_before
prev2:mechanism
with_prev1_POS_full:VBG_TO
prev2:36
prev2:19
with_prev2_full:signalling_through
prev2:16
prev2:17
with_prev2_full:be_by
with_prev2_POS_full:NNS_RB_RB_IN
prev1:tasks
conn:Though
prev2:variable
prev1:hours
prev1:phosphorylation
prev2:24
prev2:itself
with_prev2_full:106_and
with_prev2_full:tumours_if
prev2:actins
conn:If..then
with_prev1_full:cell_after
with_prev1_full:rescued_by
with_prev2_full:of_if
with_prev2_full:IV_and
prev2:consuming
with_prev1_full:-RRB-_following
with_prev1_full:coordinated_to
prev2:globally
prev2:mutated
prev2:analyzed
prev2:defect
with_prev2_full:Sigma-Aldrich_in_order_to
prev2:13
prev2:12
with_prev2_full:,_thus
prev2:15
conn:Because_of
with_prev2_full:However_whereas
prev2:10
with_prev2_POS_full:VB_VBG
prev2:reproducible
prev2:sufficiently
prev2:thymocytes
with_prev1_POS_full:VBN_CD_CD_NNS_IN
prev2:TGF-β
with_prev1_full:added_following
with_prev1_POS_full:VB_IN_NN_TO
with_prev1_full:stroma_By
with_prev1_full:homogenized_by
with_prev1_full:and_also
conn:particularly_since
with_prev2_full:adults_due_to
with_prev1_POS_full:VB_IN
with_prev2_full:antinuclear_and
with_prev1_full:,_presumably_as_result_of
with_prev2_full:x_and
with_prev2_POS_full:VBN_WRB
prev1:Hypermethylation
prev2:useful
with_prev2_full:note_whilst
with_prev1_full:,_by_means_of
with_prev1_POS_full:VB_JJ
with_prev1_full::_In_order_to
with_prev2_POS_full:NN_RB_IN
prev2:differ
with_prev1_full:occurs_when
with_prev2_full:were_after
with_prev1_full:simulations_to
prev1:PBMNCs
with_prev1_POS_full:NN_IN
with_prev2_full:consistent_in_that
with_prev1_full:tested_by
prev2:statistically
prev1:section
prev2:tonsil
with_prev1_POS_full:-RRB-_CD_NNS_IN
with_prev2_full:considered_if
with_prev2_full:cells_when
with_prev2_POS_full:CD_IN
with_prev1_full:activity_after
with_prev2_POS_full:IN_IN
prev1:approach
conn:To
with_prev1_full:translocations_by
with_prev2_POS_full:NNP_CC
with_prev1_POS_full:,_IN_RB
sent_pos:-2
with_prev1_POS_full:RBR_IN
with_prev2_full:profile_while
with_prev2_full:Conclusion_As
with_prev1_full:assays_in_order_to
prev2:found
with_prev2_full:2_followed_by
with_prev2_full:epithelium_and
with_prev2_full:in_despite
conn_POS:IN_IN
with_prev1_full:cells_180_seconds_after
with_prev1_POS_full:RB_WRB
with_prev2_POS_full:DT_IN
with_prev1_full:h_before
with_prev1_full:transcription_in_order_to
with_prev1_POS_full:VBZ_IN
with_prev2_full:Thus_since
with_prev1_full:times_and
prev2:predictive
with_prev1_full:staining_after
prev1:RNA
with_prev1_full:,_and
with_prev1_full:visualised_by
with_prev1_full:replication_and
with_prev2_full:results_thus
prev1:analysed
with_prev2_full:flank_whereas
conn:except_that
with_prev2_full:then_for
conn:On
with_prev2_full:Expression_if
with_prev1_full:that_if
with_prev1_full:marker_for
with_prev2_full:battery_i.e.
prev2:Balb\/c
with_prev2_full:to_in_response_to
with_prev2_full:immune_to
conn_POS:WRB
with_prev1_full:tumours_and
with_prev1_full:-RSB-_because
with_prev1_POS_full:NN_NN
prev2:assayed
with_prev2_full:-RRB-_although
with_prev2_full:probes_to
with_prev1_full:Treg_Although
with_prev2_full:and_thus
with_prev1_full:difficult_to
with_prev2_POS_full:NNS_WRB
with_prev2_full:progenitors_whereas
prev2:post
with_prev2_full:without_and
prev1:antibodies
with_prev2_POS_full:IN_NN
with_prev2_full:mutants_in_contrast_to
prev1:sample
prev1:population
with_prev2_full:TSP-1-null_by
with_prev2_full:c-jun_while
with_prev1_POS_full:VBD_RB_TO
prev2:bud
with_prev2_POS_full:NNS_NNP
with_prev1_POS_full:NN_TO
conn_POS:VBD_IN
prev1:enough
with_prev2_POS_full:IN_IN_NN_TO
with_prev2_full:TNF-α_and
with_prev1_full:,_in_order_to
with_prev1_POS_full:,_IN_WDT
conn:Now_that
prev1:production
prev1:death
with_prev1_full:electronically_and
prev2:responses
with_prev2_POS_full:CD_CC
prev1:unsuccessful
with_prev1_full:amplification_when
with_prev2_full:invertor_when
with_prev2_full:vivo_since
with_prev1_POS_full:VBG_IN_CD_CD_NN_IN
with_prev1_full:changes_when
prev2:proliferate
with_prev1_POS_full:-RRB-_RB_TO
prev1:species
with_prev1_full:approach_to
prev1:dangerous
with_prev2_full:TF-dependent_by
with_prev1_full:production_upon
with_prev2_full:score_i.e.
with_prev2_full:Biolabs_and
with_prev1_full:be_due_to
with_prev1_full::_whereas
with_prev2_POS_full:TO_IN_NN_IN
with_prev1_full:,_except
prev2:mammary
with_prev2_POS_full:NNS_VBN_IN
with_prev1_full:transientlyco-expressed_via
with_prev2_full:apoptosis_thus
with_prev2_full:are_to
with_prev2_full:macrophages_and
conn:until
prev2:dried
with_prev2_full:developing_for
prev1:contact
with_prev1_full:TGF-β_and\/or
prev2:synovial
with_prev2_full:production_probably_due_to
with_prev2_full:completely_particularly_since
with_prev2_full:chromosomal_by
prev2:exposure
prev1:shown
conn_POS:CD_NNS_RB_TO
with_prev2_full:IFN-α_therefore
with_prev2_full:mRNA_to
with_prev2_full:rats_while
prev2:breast
prev1:axis
with_prev1_POS_full:NN_VBD_IN
with_prev2_POS_full:MD_IN
prev2:values
prev2:contralateral
with_prev1_POS_full:,_IN_IN
with_prev1_full:proliferation_as_a_consequence_of
conn:If
with_prev1_POS_full:-LRB-_RB_IN
conn:In
with_prev2_full:30_after
prev1:significant
prev2:polyA
with_prev2_full:responded_by
with_prev1_full:fibrosis_and
prev2:proteins
with_prev1_POS_full:,_IN_JJ_RB_IN
prev2:recombinant
with_prev2_full:p53_after
with_prev1_full:practice_as
prev2:gene
with_prev2_full:positive_due_to
prev1:amplified
with_prev1_full:that_by
prev1:model
prev2:crucial
prev1_POS:RBR
with_prev1_full:-RRB-_but
with_prev2_full:IL-2_upon
with_prev2_full:cDNA_and
prev2:μg
with_prev2_full:identically_except_for
with_prev2_POS_full:IN_TO
prev1:accomplished
prev2:tumours
with_prev1_full:products_and
with_prev1_POS_full:VBZ_WRB
with_prev2_full:immunosuppressive_once
with_prev2_full:are_as_a_direct_consequence_of
with_prev2_POS_full:VBD_IN_JJ_NN_IN
with_prev1_full:seen_after
with_prev2_full:NFKB1_but
with_prev2_full:gene_to
with_prev1_full:RESULTS_In
with_prev1_full:function_and
with_prev2_full:chose_also
with_prev2_POS_full:NNS_IN_NN_TO
prev2:from
with_prev2_full:magnification_whilst
with_prev2_full:a_to
with_prev2_POS_full:JJ_JJ_TO
with_prev1_POS_full:CD_IN_DT_NN_IN
prev2:-LRB-
with_prev1_full:FDCs_by
with_prev1_POS_full:DT_JJ_TO
prev2:reaction
with_prev2_POS_full:DT_CC
prev2:specific
with_prev2_full:genes_and
prev2:amplification
with_prev2_full:CD69_2_hours_following
with_prev2_full:were_in_large_part_for
with_prev1_full:,_despite
with_prev2_full:been_to
with_prev2_full:be_for
with_prev2_full:can_through
with_prev2_full:respectively_whereas
with_prev1_full:post-induction_when
with_prev2_full:negative_whereas
prev2:buds
with_prev1_full:are_not_due_merely_to
conn:and\/or
with_prev2_full:changes_as_a_result_of
with_prev2_full:proliferation_with
prev2:positions
with_prev2_full:PB_whereas
with_prev2_full:mice_and
prev2:below
with_prev1_POS_full:VBZ_TO
prev1:practice
prev2:datasets
prev2:methylation
with_prev2_POS_full:VBZ_CC
prev1:difficult
prev1:ensured
with_prev2_full:lines_except
with_prev2_full:LCR_since
with_prev2_full:oligonucleotides_nor
prev2:Results
with_prev2_full:15_to
prev2:NRO
with_prev2_full:induces_and
with_prev2_full:were_and
with_prev2_full:breast_while
prev1:DNAs
with_prev1_full:protein_to
with_prev2_full:maybe_for
prev1:coordinated
with_prev1_full:apoptosis_when
with_prev1_full:min_after
conn:prior_to
with_prev1_full:RNA_when
with_prev1_POS_full:NNS_JJ_TO
conn:Because
with_prev2_POS_full:VBD_RB_RB_IN_CD_NN_IN
with_prev2_full:each_and
with_prev2_full:periods_before
with_prev2_full:complex_By
with_prev1_full:mRNA_for
with_prev2_full:symbols_and
with_prev2_POS_full:NN_JJ
with_prev2_full:were_8_12_weeks_after
conn:While
prev1:similarities
with_prev1_POS_full:,_RB_IN_NN_IN
with_prev1_full:synovium_following
with_prev1_POS_full:VBP_RB_JJ_RB_TO
with_prev1_full:Results_To
with_prev2_full:suppressing_upon
with_prev1_full:complicated_by_the_fact_that
with_prev2_POS_full:NN_RB_IN_NN_IN
prev1:proliferation
with_prev2_full:translocations_but
with_prev2_full:T-cell_in_order_to
prev1:numbers\/activity
conn:by
with_prev1_full:occur_by
with_prev2_full:infiltrate_after
with_prev2_full:demonstrate_during
with_prev2_full:Mechanistically_by
with_prev2_full:apoptosis_and
with_prev1_full:assessed_by
prev1:defined
with_prev1_POS_full:VB_TO
prev1:cause
with_prev1_POS_full:-RRB-_RB_IN
with_prev1_full:branching_by
prev2:medium
prev2:promote
with_prev1_full:depends_not
with_prev1_full:depicted_by
with_prev1_full:cells_once
prev2:response
with_prev2_full:Germany_and
conn:as
prev2:729
with_prev2_full:the_through
with_prev2_POS_full:NNP_JJ_TO
with_prev1_full:nuclei\/ml_and
with_prev2_full:oligonucleotide_to
conn:followed_4_hours_later_by
prev2:Biolabs
with_prev2_full:differ_after
with_prev1_full:gene_and
with_prev2_full:surface_and
with_prev1_full:-RRB-_due_to
with_prev2_full:regulated_but
prev2:43,44
with_prev2_full:°_followed_by
with_prev2_full:initial_after
with_prev2_full:more_as_a_result_of
prev2_POS:WDT
prev2:been
with_prev1_full:inflammation_following
with_prev2_full:as_between_1_2_h_after
with_prev1_full:origin_and
with_prev1_full:set_to
conn:such_that
with_prev2_POS_full:CD_TO
with_prev2_full:%_to
with_prev2_full:,_once
with_prev1_full:evaluated_by
with_prev1_POS_full:NN_IN_NN_TO
with_prev2_POS_full:VBZ_IN
prev2:hybridisations
with_prev2_full:cancer_due_to
prev1:used
with_prev2_full:cell_and
with_prev1_POS_full:VBD_JJ_TO
with_prev2_full:transition_particularly_to
with_prev2_POS_full:CC_VBN_IN
with_prev2_full:carcinoma_As
with_prev2_POS_full:NN_NN
with_prev2_full:useful_not
prev2:positive
with_prev2_full:-RRB-_since
with_prev2_full:is_and
with_prev2_full:there_also
with_prev1_full:,_particularly_through
with_prev2_full:Invertor_by
with_prev1_full:calcium_through
prev2:contrast
with_prev2_full:T-cell_upon
conn_POS:CD_NNS_IN
with_prev2_full:p38_followed_by
with_prev1_full:derived_by
prev2:dense
conn:rather
with_prev1_POS_full:NN_CC
with_prev2_POS_full:PRP$_CC
with_prev1_full:neurons_by
with_prev2_POS_full:NN_TO
prev1:generated
with_prev1_full:differentiation_and
prev2:flank
prev2:THP-1
with_prev2_full:glycerol_and
prev2:consistently
prev1:micropipette
conn:Despite
with_prev1_full:and_after
prev1:-RRB-
prev2:induces
prev1:role
with_prev1_POS_full:RB_TO
with_prev2_full:filter_in_order_to
with_prev1_POS_full:RB_CD_NNS_IN
with_prev1_full:upregulation_two_hours_after
conn:Upon
with_prev1_full:hours_and
with_prev1_full:eliminated_when
prev2_POS:EX
prev1:set
prev2:immunosuppressive
with_prev1_full:ability_once
with_prev1_full:DNase_to
prev1:bound
prev2:against
prev1:microarrays
prev1:analysis
prev2:NASBA-QT
with_prev2_POS_full:NN_IN_VBN_IN
with_prev1_full:simulation_to
with_prev2_full:against_to
prev2:antinuclear
with_prev1_POS_full:CD_WRB
with_prev2_full:promote_by
with_prev2_full:-_after
prev2:activity
prev2_POS:CC
with_prev1_full:seen_following
prev1:other
with_prev2_full:vitro_and
prev1:analyzed
with_prev2_full:lateral_by
with_prev2_full:30_followed_by
with_prev2_full:+_and
prev1:heterozygotes
with_prev2_full:cells_since
prev1:SEB
with_prev1_full:striking_insofar_as
prev1:useful
with_prev1_full:constellation_and
conn:after_which
prev2:were
with_prev1_full:receptors_and
prev1:monkeys
with_prev2_POS_full:IN_CC
with_prev2_full:processes_and
with_prev1_full:detected_by
prev1:act
with_prev2_full:samples_then
with_prev1_full:response_by
with_prev2_POS_full:PRP_TO
with_prev1_full:KS_by
prev2:significantly
conn:For
with_prev1_POS_full:NN_IN_NN_IN
with_prev2_full:duct_when
prev1:efficient
with_prev2_full:that_while
with_prev1_full:cluster_to
prev2:factors
with_prev1_full:-RSB-_but
conn_POS:IN_WDT
with_prev2_full:TGF-β_because
with_prev2_full:,_to
prev1:manipulated
with_prev1_full:collected_by
with_prev1_POS_full:NNS_RB_TO
with_prev2_full:genes_i.e.
prev1:collected
with_prev2_full:specific_to
prev1:ice
with_prev1_full:analysed_and
prev1:ligand
with_prev2_full:,_so
prev2:blot
with_prev2_full:proliferation_whereas
prev2:efficiently
conn:180_seconds_after
with_prev1_full:disappeared_and
prev1:regulated
with_prev1_full:abrogated_by
prev1:included
with_prev2_full:region_Although
with_prev2_POS_full:RBR_IN_NN_TO
prev2:maybe
with_prev2_full:cell_to
prev1:blotting
with_prev1_full:pathway_following
prev1_POS:-RRB-
with_prev2_full:dried_subsequently
with_prev1_full:clefts_before
with_prev1_full:recombination_to
with_prev1_full:activity_when
with_prev2_full:during_by
prev1:sick
prev1:and
with_prev1_full:transfected_after
with_prev2_full:stages_albeit
with_prev1_full:SEB_by
prev1:required
with_prev2_full:this_in_response_to
with_prev1_full:out_by
with_prev2_full:responses_whereas
prev1:assessed
with_prev1_full:suppression_to
with_prev2_full:undetectable_by
prev2:initiate
with_prev2_POS_full:VBZ_TO
prev2:and\/or
with_prev2_full:of_as_a_result_of
with_prev1_full:reaction_and
with_prev2_full:CCR3_by
prev2:signal
prev1:thymidine
with_prev1_full:,_for_instance
prev1:level
with_prev2_full:competed_by
with_prev2_full:Results_In_order_to
with_prev2_full:and_not_due_merely_to
with_prev1_full:,_regardless_of
with_prev1_full:,_both_upon
with_prev1_full:-RRB-_whereas
prev2:PBS
prev2:total
with_prev2_full:cell_after
prev2:lymphadenopathy
prev1:apoptosis
prev2:expressed
with_prev1_full:higher_when
with_prev1_POS_full:-RRB-_CC
prev1:DNase
with_prev2_full:suggesting_although
with_prev1_POS_full:-RRB-_JJ_TO
with_prev2_full:thymus_through
prev1:filters
prev2:PCR
prev1:organogenesis
prev1:respond
prev2:possible
with_prev2_full:™_to
with_prev2_full:polyA_in_order_to
with_prev1_full:probe_and
prev2:injection
prev1:augmented
with_prev2_full:statistically_to
with_prev2_full:analyzed_and
with_prev1_full:disease_while
with_prev2_full:THP-1_after
prev2:randomly
with_prev2_full:phase_because
with_prev2_full:mRNA_whereas
prev1:increased
with_prev1_POS_full:JJR_CC
with_prev1_full:studied_by
prev1_POS:JJR
with_prev1_POS_full:RP_TO
with_prev1_full:Hes-1_by
with_prev2_full:However_when
with_prev1_POS_full:,_TO
prev1:captured
prev1:niches
prev1:Hes-1
with_prev1_full:positives_due_to
with_prev2_full:external_to
with_prev1_full:,_in_part_via
prev2:initial
with_prev1_full:%_and
with_prev2_POS_full:PRP_IN
with_prev2_full:CA_before
prev2:temperature
with_prev1_full:buffer_to
with_prev2_full:-RRB-_to
with_prev2_full:with_to
prev2:single
conn:although_still
with_prev1_full:evaluated_to
prev2:periods
with_prev2_full:chosen_because
prev2:thymus
prev1:plated
prev2:periductal
with_prev2_full:lineage_because
with_prev1_POS_full:,_VB
prev1:times
with_prev2_full:and\/or_to
conn_POS:VBG_IN
conn:as_a_consequence_of
with_prev2_full:IRF-4_to
with_prev2_full:40_when
prev1:round
prev1:over-representation
prev1:hour
with_prev1_full:observed_in_order_to
with_prev1_full:wells_and
with_prev1_full:aligned_by
with_prev1_full:,_after
with_prev2_full:symptoms_following
prev2:octamer
with_prev2_full:,_as_a_result_of
with_prev1_full:ancrod_prior_to
with_prev2_full:synovial_through
with_prev2_full:during_for
prev2:HLA-DR-APC
prev2:test
prev1:selected
with_prev2_full:SEB_by
prev1:depicted
with_prev1_full:and_when
with_prev1_full:measured_by
with_prev1_full:verified_by
with_prev1_full:triggered_by
with_prev2_POS_full:NN_CC
with_prev2_full:time_and
with_prev2_full:was_following
with_prev1_full:round_to
with_prev2_full:primer_and
prev2:testosterone
with_prev1_full:sensitivity_to
with_prev2_full:their_and
prev2:vaccine
with_prev2_full:was_while
with_prev2_full:occurred_in_addition_to
prev1:signal
with_prev2_POS_full:NNP_CD_NNS_IN
prev2:others
with_prev2_full:interval_by
prev2:prevent
prev2:less
with_prev2_full:°_Following
with_prev2_full:,_if
with_prev1_full:elicitation_to
with_prev1_full:genes_while
with_prev2_full:haematopoietic_and
with_prev1_full:CCR3_unless
conn:even_though
prev1:quantified
with_prev2_full:less_following
with_prev1_full:Smad2\/3_to
prev2:Ews
with_prev2_POS_full:NNP_DT_IN
with_prev2_full:subsets_since
with_prev2_full:RNA_because
with_prev1_full:role_for
with_prev2_full:,_through
with_prev2_full:overnight_then
with_prev2_full:were_but
with_prev2_full:1_prior_to
with_prev2_full:p-value_since
with_prev1_POS_full:VBG_IN_DT_NN_IN
prev1:dependent
with_prev1_full:treated_while
with_prev2_full:Moreover_as
with_prev2_full:was_for
with_prev2_full:Oct1_when
with_prev1_full:%_when
with_prev2_full:CHOP_by
with_prev1_POS_full:JJ_CC
prev2:uracil
prev2:rapidly
with_prev1_full:-LRB-_via
with_prev2_full:fixed_and
with_prev1_full:1997_as_a_result_of
prev2:medulla
with_prev2_full:tissues_by
with_prev1_full:offspring_and
with_prev2_full:IgM-IC_since
with_prev2_full:inhibits_through
prev2:blood
with_prev2_full:sample_and
with_prev1_full:produced_in_response_to
with_prev2_full:during_when
prev1:pathway
with_prev2_full:pre-incubation_prior_to
with_prev2_POS_full:-RRB-_IN_NN_TO
with_prev2_full:population_while
with_prev1_full:collected_for
with_prev2_full:which_after
with_prev1_full:and_thereby
conn:Since
with_prev2_full:polyA_for
with_prev2_POS_full:IN_IN_DT_NN_IN
with_prev1_full:monkeys_if
conn:Four_hours_later
with_prev1_POS_full:JJ_CD_NNS_IN
with_prev2_full:been_except_for
with_prev2_full:detected_whereas
with_prev2_POS_full:NN_IN
prev1:feasible
with_prev2_full:neurons_via
with_prev1_full:panel_and
with_prev2_full:cancer_because
prev1:injection
prev2:also
with_prev2_full:is_when
with_prev1_full:that_during
with_prev1_full:ug\/ml_30_minutes_prior_to
prev1:cDNA
prev1:BMP-6
with_prev1_full:permeabilized_prior_to
with_prev2_full:100_to
prev2:reportedly
prev2:BRCA1
with_prev2_full:Briefly_following
prev1:NaOH
with_prev1_POS_full:NNS_IN_NNS_IN
prev2:production
with_prev1_full:activation_by
with_prev2_full:hour_prior_to
with_prev2_full:control_as
conn:In_an_effort_to
with_prev1_POS_full:,_IN
prev2:counters
with_prev1_full:sufficient_to
prev1:completely
with_prev1_full:,_if
prev1:appear
with_prev1_full:stochastically_after
with_prev1_full:performed_by
conn:By
with_prev2_full:steel_and
with_prev2_POS_full:NNP_TO
with_prev2_full:translocations_by
prev2:testosterone-treated
with_prev2_full:suggests_although
prev1:clustering
with_prev1_POS_full:,_JJ
with_prev2_full:,_by
conn:In_order_for
with_prev1_full:in_for_example
with_prev1_full:and_in_turn
with_prev1_full:dictated_by
with_prev2_full:during_to
with_prev1_full:marker_when
with_prev2_full:effects_since
prev2:seconds
with_prev2_full:question_but
with_prev2_full:globally_by
with_prev1_POS_full:-RRB-_TO
with_prev2_full:hours_when
with_prev1_POS_full:RP_IN
with_prev1_full:increased_when
with_prev2_full:addition_to
with_prev2_full:useful_when
with_prev2_full:seconds_then
with_prev1_full:,_with
prev1:responsiveness
with_prev1_full:depleted_by
with_prev1_full:occur_in_response_to
with_prev1_full:responsible_for
prev2:speed
prev2:examined
with_prev1_POS_full:IN_WRB
with_prev2_full:°_to
with_prev2_full:lymphadenopathy_and
prev1:function
prev1:diagnosed
prev2:target
with_prev2_full:and_then
with_prev1_full:1994_when
with_prev1_full:antibodies_and
with_prev1_full:constructed_by
with_prev2_full:internal_for
with_prev1_full:phospho-p38_upon
with_prev1_full:-RRB-_and
with_prev1_POS_full:-RRB-_RB
with_prev2_POS_full:NN_RB_TO
prev2:CML-T1
with_prev2_full:CD4_after
prev1:wells
with_prev1_full:yet_still
with_prev1_full:loop_to
prev1:p56lck
with_prev2_full:,_still
prev2:homologous
with_prev2_full:are_or
with_prev2_POS_full:NNS_JJ_TO
prev2:Biosciences
with_prev1_full:cells_by_means_of
with_prev1_full:quantitatively_by
with_prev2_full:carcinoma_by
with_prev2_full:reportedly_since
with_prev1_POS_full:NNS_IN_NN_TO
with_prev1_full:-LRB-_specifically
prev2:symptoms
prev2:transition
prev1:permeabilized
with_prev2_full:-RRB-_by
with_prev1_POS_full:JJ_IN
conn_POS:IN_JJ_RB_IN
with_prev2_full:strongly_following
with_prev1_full:vivo_albeit
with_prev1_full:mRNA_after
with_prev1_POS_full:JJ_JJ
with_prev1_POS_full:,_RB_RB_IN
with_prev1_full:,_or
with_prev2_POS_full:NN_PDT_DT
prev2:regions
with_prev2_full:above_then
prev1:ug\/ml
with_prev1_full:cassette_after
with_prev2_full:itself_as
with_prev1_POS_full:IN_IN
prev2:function
prev1:cluster
prev2:induce
with_prev2_full:prepared_and
prev2:annealed
with_prev1_full:AzadC_to
with_prev2_full:arthritis_and
with_prev2_full:,_after
with_prev2_full:sufficient_to
prev2:into
with_prev2_full:Rag1_to
with_prev2_full:identified_such_that
with_prev2_full:47,48_and
with_prev1_full:quantified_by
with_prev1_full:included_to
prev1:striking
with_prev1_full:stroma_and
prev2:each
prev2:evaluated
with_prev2_full:s_to
with_prev2_full:thymoma_for
with_prev2_full:are_by
with_prev2_full:rapidly_following
with_prev1_full:primarily_by
with_prev2_full:,_rather
with_prev2_POS_full:,_IN_DT_NN_IN
with_prev1_full:function_in_order_to
with_prev2_full:,_when
prev1:measured
with_prev1_full:expression_2_hours_following
with_prev1_POS_full:VBN_RB_RB_IN_CD_NN_IN
with_prev2_full:branching_and
prev1:exemplified
prev2:implanted
prev2_POS:''
with_prev1_full:cells_after
prev2:disease
with_prev1_POS_full:VBZ_RB_JJ_TO
with_prev2_full:integration-site_and
prev2:stringency
prev2:mechanisms
prev2:pre-incubation
prev1:consuming
prev2:screening
prev1:ultrasound
prev2:developed
conn:in_particular_because_of
with_prev1_POS_full:VBZ_VBN_IN
with_prev2_full:cancer_after
prev1:down-regulation
with_prev1_full:,_to
with_prev2_full:were_through
with_prev2_full:Perfenidone_however
with_prev2_full:the_when
conn:Not
prev2:However
with_prev2_POS_full:IN_DT_IN_NN_TO
with_prev1_full:possible_if
prev2:ethanol
with_prev2_full:predictive_to
with_prev1_POS_full:JJ_NN
with_prev2_POS_full:DT_TO
prev2_POS:VBN
prev2:did
with_prev1_full:,_so
prev1:responses
with_prev2_full:48_before
prev2:the
conn_POS:VBD_CD_NNS_RB_IN
with_prev1_POS_full:-RRB-_IN
prev2:completely
with_prev2_full:pre-TCR_to
with_prev1_POS_full::_IN_NN_TO
conn:two_hours_before
with_prev2_full:AA_and
with_prev1_full:while_also
with_prev2_full:transversion_whereas
prev2:lymphomas
with_prev2_full:motif_to
with_prev1_full:h._For
prev1:Abstract
prev2:surprising
with_prev2_full:gene_by
prev2:Thus
with_prev1_POS_full:NNS_RB_JJ_TO
with_prev2_full:per_and
prev2:unknown
with_prev1_full:;_and
with_prev1_full:stroma_by
with_prev1_full:signals_to
prev2:chosen
with_prev1_POS_full:JJ_TO
with_prev2_full:ice_then
prev2:lineage
with_prev2_POS_full:NNP_IN
prev1:phenotype
with_prev2_full:SEB_while
with_prev1_POS_full:CC_IN_DT_NN_IN
with_prev2_full:mutated_then
with_prev2_full:consuming_also
prev1:euthanized
with_prev1_full:extent_because
with_prev1_full:trials_in_order_to
with_prev1_POS_full:JJR_IN
with_prev2_full:PI3K_by
with_prev1_full:-RRB-_while
prev2:CD4-associated
with_prev2_POS_full:VBD_CD_CD_NNS_IN
with_prev1_full:made_by
with_prev1_POS_full:JJ_WRB
with_prev2_POS_full:NNP_VBD_IN
with_prev2_POS_full:TO_IN_NN_TO
with_prev2_full:these_to
with_prev1_full:silenced_by
prev1:sufficient
prev2:identified
with_prev1_POS_full:VBN_CD_NN_IN
prev1:tolerance
prev1:ends
with_prev1_POS_full:PRP_RB
prev2:complex
prev2:tissue
prev1_POS:,
with_prev2_POS_full:JJ_RB
with_prev1_POS_full:NNS_RB
conn:for_example
with_prev1_POS_full:MD_RB
prev2:GSK3β
prev2_POS:RB
prev2_POS:VB
prev2_POS:IN
prev2:RNA
prev2_POS:JJ
prev2_POS:MD
prev2:stages
prev2_POS:NN
prev1_POS:PRP
prev2:note
prev2:cells
conn:still
prev2:lines
prev1:studies
with_prev2_POS_full:,_RB
with_prev1_full:,_however
prev1:tumours
with_prev1_full:markers_also
prev1:observed
with_prev2_POS_full:RB_RB
with_prev2_POS_full:NNS_IN_NN
with_prev2_POS_full:,_IN_NN
prev2:expression
prev1_POS:DT
prev1_POS:VBZ
prev2:-RRB-
prev2:then
prev1:not
prev2:patient
prev1_POS:NN
with_prev1_full:was_then
prev1:is
prev1:it
prev1_POS:MD
prev1:assay
prev1:cells
conn:nevertheless
sent_pos:1
sent_pos:2
with_prev2_full:,_subsequently
sent_pos:0
prev1:was
with_prev2_POS_full:VBP_RB
prev2:demonstrate
prev2:tissues
prev2:branching
conn_POS:CC
prev1_POS:VBN
prev1_POS:VBP
prev1_POS:VBD
prev1:mice
prev1_POS:WDT
conn:In_addition
with_prev1_POS_full:VBD_RB
prev2:be
with_prev2_full:-RRB-_then
conn_POS:JJ
conn_POS:IN
prev1:may
with_prev2_POS_full:NNS_RB
prev2:protein
prev1_POS:NNP
prev1_POS:NNS
with_prev1_POS_full:NNP_RB
conn:then
conn:while
conn_POS:RB
prev1:Treg
prev2:RT-PCR
prev2:-RSB-
prev2:was
prev1_POS:RB
with_prev1_full:,_for_example
conn:subsequently
with_prev2_full:it_also
conn:thus
prev2:is
prev2:it
prev1:obtained
prev2:of
prev1:which
with_prev1_full:,_finally
prev1:protein
conn:however
prev2:defects
prev2_POS:PRP$
with_prev2_POS_full:VBD_RB
prev2:B
prev2:T
prev2:-
prev2:,
prev2:+
prev2_POS:PRP
conn:therefore
prev2_POS:,
prev2_POS::
prev2:DC
with_prev1_POS_full:WDT_RB
prev1:,
prev2:mice
with_prev2_full:RT-PCR_also
with_prev1_full:,_then
prev1:formation
prev2:TECs
with_prev2_full:cells_however
prev1:markers
prev2:results
with_prev1_POS_full:VBP_JJ
prev2:filter
with_prev1_full:are_also
prev1:mRNA
with_prev2_POS_full:-RRB-_JJ
prev1:might
with_prev1_POS_full:VBP_RB
conn:in_turn
prev2:cancer
with_prev2_POS_full:-RRB-_RB
prev2:analysis
with_prev1_full:were_then
with_prev1_full:,_in_turn
sent_pos:-3
conn:next
prev2:may
prev1:study
prev2:genes
conn:and
prev1:were
prev2_POS:-RRB-
prev2:assay
with_prev1_POS_full:,_IN_NN
with_prev1_POS_full:NN_RB
with_prev2_POS_full:IN_RB
conn_POS:IN_RB
with_prev1_full:is_also
prev2_POS:NNP
conn_POS:IN_NN
prev2_POS:NNS
with_prev1_POS_full:VBZ_RB
with_prev1_full:are_therefore
with_prev2_POS_full:CD_RB
prev2:events
with_prev2_POS_full:NN_RB
prev2_POS:CD
conn:Finally
prev2_POS:DT
prev2:can
with_prev2_POS_full:PRP_RB
conn:specifically
prev2:markers
with_prev2_full:,_therefore
prev2:invertor
conn:but
prev1:are
prev2:binding
conn:also
prev2:sample
prev2_POS:VBZ
conn:As
with_prev2_POS_full:NNP_RB
with_prev2_full:,_also
conn:finally
with_prev1_POS_full:,_RB
prev2:pathway
prev2_POS:VBD
prev2_POS:VBG
prev2_POS:VBP
prev2:cell
with_prev2_full:cell_then
with_prev2_full:assays_also
with_prev2_full:complex_also
with_prev2_full:membranes_then
with_prev1_full:We_also
prev2:The
with_prev1_full:she_subsequently
prev1:results
with_prev2_full:mAbs_then
with_prev2_full:RNA_then
with_prev1_full:They_also
with_prev2_full:sample_then
with_prev2_POS_full:NNP_IN_NN
with_prev2_full:Id1_also
with_prev2_full:demonstrate_however
with_prev2_full:patient_then
with_prev2_full:important_therefore
with_prev2_full:These_also
conn:By_contrast
with_prev2_full:B_also
with_prev1_full:data_however
with_prev2_full:lines_further
with_prev2_full:The_also
with_prev2_full:heterogeneous_also
with_prev1_full:assay_also
with_prev2_full:stroma_also
with_prev1_full:observed_instead
with_prev2_full:note_however
prev1:solution
with_prev1_full:was_also
with_prev2_full:extract_also
with_prev2_full:,_for_example
prev1:polypeptides
with_prev1_full:has_also
conn:Alternatively
with_prev2_full:NFKBIA_on_the_other_hand
conn:Third
with_prev2_full:It_also
with_prev2_full:Epithelial_also
conn_POS:IN_DT_JJ_NN
conn:Furthermore
prev2:Our
conn:Moreover
with_prev2_full:interphase_then
with_prev1_POS_full:VBD_RBR
with_prev2_full:branching_therefore
with_prev2_full:genes_also
with_prev1_full:were_in_fact
prev2:Samples
prev2:Epithelial
with_prev2_full:TF_also
with_prev2_full:transduction_also
with_prev1_full:Smads_then
with_prev2_full:assay_then
conn:In_conclusion
with_prev2_POS_full:NNS_RBR
with_prev1_full:are_further
prev2:current
conn:hereafter
with_prev1_full:,_in_fact
conn:In_summary
prev1:mutants
with_prev1_POS_full:NN_RBR
with_prev2_POS_full:NNP_IN_DT_JJ_NN
with_prev1_full:could_still
prev1:have
with_prev2_full:models_in_fact
with_prev2_full:events_also
conn:Next
with_prev2_full:we_still
with_prev1_full:must_therefore
with_prev1_full:have_also
with_prev2_full:LiCl_indeed
prev2:heterogeneous
conn:Thus
conn:Additionally
with_prev2_full:complexes_then
with_prev2_full:-_then
prev1:must
with_prev1_full:transition_therefore
prev1:LY294002
with_prev2_full:+_also
with_prev2_full:be_however
with_prev2_full:CD21_however
prev2:Splenocytes
with_prev2_full:complements_also
with_prev1_full:which_also
with_prev1_full:not_therefore
conn:Nevertheless
prev2:lysates
with_prev2_full:join_also
with_prev1_full:we_therefore
prev2:recently
with_prev1_full:we_specifically
with_prev1_full:mRNA_also
conn:indeed
conn:On_the_other_hand
with_prev1_full:E2_therefore
conn:Then
with_prev1_full:W3\/25_therefore
with_prev1_full:interaction_thus
with_prev2_full:mammals_for_example
prev1:data
prev2:complements
prev2:important
conn_POS:IN_DT_JJ
with_prev1_full:This_in_turn
with_prev1_full:,_in_particular
with_prev2_full:current_further
with_prev1_full:analyses_hereafter
with_prev2_full:LAMA-84_also
with_prev1_POS_full:VBD_IN_NN
conn_POS:IN_DT_NN
prev1:transition
prev2:they
prev2:Id1
prev2:EphB4
prev2:predictions
conn:In_outline
with_prev1_full:is_therefore
conn:In_short
prev2:parathyroid-hormone-related
conn:Further
conn:Notably
prev1:will
prev2:ratios
with_prev2_full:questions_however
with_prev2_full:starts_therefore
prev2:SPI
with_prev1_POS_full:VBN_RB
with_prev1_full:not_however
conn:thereafter
with_prev2_full:We_also
with_prev2_full:was_however
prev2:Proliferation
conn:Accordingly
with_prev2_full:predictions_for_example
with_prev1_full:it_also
prev2:These
prev2:pairs
conn:In_particular
prev1:Notch
prev2:complexes
conn:Still
with_prev1_full:may_therefore
prev1:noted
with_prev2_full:,_specifically
prev2:inhibitor
with_prev2_full:ratios_however
conn:in_fact
prev1:interaction
prev1:we
with_prev2_full:rearrangements_therefore
with_prev1_POS_full:,_IN_DT_JJ_NN
conn:For_example
with_prev2_full:binding_also
prev2:techniques
with_prev2_full:invertor_thus
conn:In_fact
conn:Also
with_prev2_full:TECs_also
with_prev1_full:does_indeed
with_prev2_full:tissues_however
prev2:mammography
prev1:It
with_prev2_full:-RSB-_in_particular
with_prev1_full:noted_however
with_prev2_full:TF_in_turn
with_prev2_full:expression_then
with_prev1_full:formation_also
conn_POS:LS
conn:Similarly
with_prev2_full:All_hereafter
prev2:All
prev2:data
conn:Therefore
with_prev1_full:may_also
with_prev2_full:is_in_fact
prev1:E2
conn_POS:UH
with_prev2_full:SPI_also
prev2:parameters
with_prev2_full:EphB4_also
conn_POS:RBR
prev2:assays
prev1:would
with_prev2_full:-_also
prev2:we
with_prev2_full:This_subsequently
with_prev2_full:appearance_also
with_prev1_full:were_thereafter
prev2:sites
with_prev2_full:Cells_then
with_prev2_POS_full::_RB
with_prev1_full:tumours_also
conn:But
conn:However
with_prev2_full:Blots_then
with_prev2_full:This_also
conn:Specifically
prev1:We
prev1:W3\/25
with_prev1_full:could_therefore
conn:As_an_example
conn:Meanwhile
with_prev1_full:This_then
with_prev2_full:B_subsequently
with_prev1_full:was_further
with_prev1_full:protein_then
with_prev1_full:is_for_example
with_prev1_full:Treg_also
with_prev2_full:recently_also
prev2:CD21
with_prev2_full:cells_then
with_prev2_full:BMP-2_also
with_prev2_full:DC_then
with_prev2_full:study_therefore
prev2:interphase
prev2:NFKBIA
with_prev1_full:was_therefore
with_prev1_full:is_nevertheless
prev2:spots
with_prev1_full:cells_also
with_prev2_full:then_also
prev2:B6
with_prev2_full:surnatants_thereafter
with_prev2_full:Our_however
conn:Conversely
with_prev2_full:GSK3β_also
with_prev1_full:cells_subsequently
prev2:study
with_prev2_full:of_also
prev2:BMP-2
conn:Consequently
conn:further
with_prev1_full:studies_also
prev2:It
prev2:mAbs
prev2:stroma
prev2:We
prev2:induction
with_prev2_full:cells_also
prev1:Smads
conn:Indeed
with_prev2_full:filter_then
with_prev2_full:expression_also
prev2:TF
with_prev1_POS_full:DT_RB
with_prev1_full:was_subsequently
with_prev1_full:polypeptides_also
with_prev2_full:data_therefore
with_prev2_full:It_therefore
with_prev1_full:study_further
with_prev2_full:inhibitor_however
with_prev1_full:obtained_also
with_prev1_full:mutants_also
conn:As_a_result
with_prev2_full:cancer_however
with_prev2_full:genes_therefore
with_prev1_full:We_then
prev2:development
with_prev2_full:T_also
with_prev1_full:,_on_the_other_hand
prev2:membranes
with_prev2_POS_full:VBZ_IN_NN
with_prev2_full:stages_therefore
with_prev2_full:sites_nevertheless
with_prev1_full:technique_also
with_prev2_POS_full:PRP$_RB
prev1:does
with_prev2_full:It_thus
with_prev1_full:It_therefore
prev1:should
with_prev2_full:tissue_then
with_prev1_full:might_nevertheless
with_prev1_full:is_thus
conn:instead
prev2:.1
with_prev2_full:pairs_also
with_prev2_POS_full:VB_RB
with_prev2_full:protein_therefore
prev2:join
with_prev1_full:does_in_fact
with_prev1_full:results_also
with_prev1_full:were_finally
conn:on_the_other_hand
with_prev1_full:mice_thus
prev1:has
with_prev1_full:We_therefore
prev2:peptides
prev2:OX35
with_prev2_full:arthritides_therefore
with_prev2_full:markers_also
with_prev2_full:Gels_then
conn:Subsequently
prev2:questions
with_prev2_full:-RRB-_further
prev2:mammals
prev2:clusters
with_prev1_full:will_therefore
with_prev2_full:mice_in_fact
with_prev2_POS_full:JJ_RBR
with_prev2_full:pathway_thus
with_prev1_full:has_however
conn:So
conn_POS:IN_JJ
with_prev2_POS_full:MD_RB
with_prev2_full:they_instead
prev2:slides
with_prev2_full:can_however
with_prev2_full:techniques_therefore
prev1:analyses
conn:In_brief
with_prev1_full:LY294002_also
conn:Since_then
prev1:could
conn:in_particular
conn:In_general
prev2:Cells
conn:similarly
with_prev2_full:Samples_then
with_prev2_full:It_nevertheless
with_prev2_full:development_then
prev2:transduction
with_prev2_full:parameters_however
with_prev2_full:Nuclei_then
with_prev2_full:.1_also
with_prev2_full:mammography_however
prev2:LAMA-84
with_prev2_full:B6_also
with_prev2_full:BMP-family_also
with_prev1_full:We_next
prev1:include
prev1:technique
with_prev1_POS_full:RB_RB
prev2:arthritides
with_prev2_full:may_therefore
with_prev2_full:scores_then
with_prev2_full:mAb_therefore
prev1:They
with_prev1_full:were_also
with_prev2_full:Splenocytes_then
with_prev2_full:It_however
conn:Nonetheless
prev1:she
with_prev1_full:data_also
conn:As_a_consequence
with_prev1_full:mice_also
prev2:surnatants
prev2:Blots
with_prev2_full:OX35_however
with_prev2_POS_full:VBG_RB
with_prev1_full:would_also
with_prev1_full:we_also
with_prev2_full:defects_also
with_prev1_POS_full:VBP_IN_NN
with_prev1_full:solution_also
with_prev2_full:lysates_then
with_prev1_full:should_however
with_prev1_full:may_similarly
conn:Briefly
prev2:mAb
prev1:This
prev2:scores
with_prev1_full:Notch_also
prev2:This
with_prev2_full:Proliferation_also
prev2:extract
with_prev1_POS_full:DT_IN_NN
prev2:starts
with_prev1_full:will_also
with_prev2_full:spots_then
with_prev2_full:Mice_then
with_prev2_full:clusters_finally
with_prev1_POS_full:VBZ_IN_NN
conn:In_contrast
prev2:models
prev2:rearrangements
with_prev2_full:parathyroid-hormone-related_then
conn:On_the_contrary
conn:Second
prev2:Mice
prev2:Nuclei
conn:In_turn
with_prev2_full:slides_then
with_prev2_full:induction_also
prev2:appearance
conn:Instead
with_prev2_full:results_then
with_prev2_full:peptides_also
prev2:LiCl
prev2:Gels
with_prev2_full:analysis_similarly
prev2:BMP-family
with_prev2_POS_full:DT_RB
with_prev1_full:include_for_example
0.07765332090925928
0.10462993493096592
0.6599414952357805
0.1392120515973607
0.13096336766209135
0.5435041009407755
0.12028799393927399
0.09175806158459693
0.09343499108175543
0.11173773128777108
0.48342618628173584
0.11681205579366913
0.2332317857218086
0.17635801852953426
0.10099688907308062
0.09767860541603844
0.32802780449627367
0.23081690486160486
0.26726409135349777
0.31197744699364555
0.37317574364811334
0.09761838851604517
0.7906771455434354
0.1394341665147315
0.26726409135349777
0.09401740593413432
0.387295736227107
0.2332317857218086
0.1816647209440926
0.246708608924825
0.1504525056518592
0.561872498875194
0.34739264524276625
0.09733696852174023
0.09921428981671963
0.10587147980977725
0.08880414166554328
0.09769311433453955
0.3987272250098729
0.25144716222974817
0.23663589384506695
0.11107570820169141
0.3893654842276389
0.18124433118481711
0.0939890546548036
0.09411299410488769
0.10812930834189807
0.37109697683414744
0.10045614819331135
0.23581750168786966
0.2675253258981706
0.5314125962596553
0.22167427383035948
0.1118897316301071
0.22999849640768333
0.29349619431820717
0.27611075918207933
0.10767643023311606
0.27142343915649936
0.1696331533376589
0.17165213638605367
0.08593199062595834
0.25110217289287573
0.24844994104061047
1.2144002709626154
0.20388994930668514
0.11478367972342235
0.08595896513858499
0.4720517243411274
0.10728886858218044
0.24355467571126438
0.5857924969850928
0.4589547928281262
0.5565883703314256
0.19590806161509303
0.25202247376026715
0.23915008918225494
0.08599080487686422
0.7178549722797232
0.10652840880974879
0.5044740086621616
0.10658581134145031
0.09884053956380662
0.08601779343379871
0.11269265754958405
0.10733401100000256
0.10733898748193134
0.12170308366384716
0.43909649463188594
0.17656806752916793
0.4657118683263416
0.10489468999619386
0.25331893208325124
0.1835981779920806
0.10734814060051998
0.11165803152512006
0.1906579654119014
0.1835981779920806
0.6970597165573127
0.10519672414757125
0.1988080500898763
0.16453239496196354
0.1457887857304104
0.07765332090925928
0.22377310110092216
0.34576461199730596
0.23018540801711085
0.31424404367666253
0.14675621264655808
0.10317390250838035
0.13986933900901
0.13249892040298966
0.09373667901456438
0.10200469535116694
0.09767973379930577
0.22841085406917022
0.4273466971523308
0.1307812906032307
0.28709598555187793
0.0949704694527542
0.09767860541603844
0.17640106314646867
0.10401842644501438
0.12706697502792286
0.2618255938008538
0.11143380302912917
0.09373667901456438
0.42371824104889966
0.09564107941014764
0.10818705171364777
0.17352438343521848
0.08857028119423874
0.2525298530280033
0.09617967644972195
0.10498910213717237
0.10379421956360577
0.45092321137120345
0.15681046239300295
0.11982503752361802
0.162343238672399
0.0924163621102595
0.8257126728062044
0.11833182292559288
1.0796278828285562
0.11373954144836253
0.0939183637936336
0.10316034418228325
0.22377310110092216
0.11157768351998193
0.25739924368769934
0.2414553054857137
0.1906579654119014
0.4578008601109214
0.09018560261871149
0.7016258868318975
0.09885552841810377
0.11982503752361802
0.1124923074557545
1.9480005736821435
0.2196726424327741
